/* Species # 001         : (size= 100) (AvfFit= 0.000) (Age= 101.000)  */
/*-------------------------------------------------------------------*/
/* Organism # 000 Fitness:  0.000 Error:  0.000                      */
genomestart  0
trait 1 0.0 0.0 0.0 0.0 0.0 0.0 0.0 0.0 
node 1 1 1 1
node 2 1 1 1
node 3 1 1 1
node 4 1 1 1
node 5 1 1 1
node 6 1 1 1
node 7 1 1 1
node 8 1 1 1
node 9 1 1 1
node 10 1 1 1
node 11 1 1 1
node 12 1 1 1
node 13 1 1 1
node 14 1 1 1
node 15 1 1 1
node 16 1 1 1
node 17 1 1 1
node 18 1 1 1
node 19 1 1 1
node 20 1 1 1
node 21 1 1 1
node 22 1 1 1
node 23 1 1 1
node 24 1 1 1
node 25 1 1 1
node 26 1 1 1
node 27 1 1 1
node 28 1 1 3
node 29 1 0 0
node 34 1 0 2
node 35 1 0 2
node 36 1 0 2
node 37 1 0 2
node 38 1 0 2
node 39 1 0 2
node 40 1 0 2
node 41 1 0 2
node 42 1 0 2
node 252 1 0 0
node 355 1 0 0
node 383 1 0 0
node 429 1 0 0
node 469 1 0 0
node 541 1 0 0
node 596 1 0 0
node 614 1 0 0
node 840 1 0 0
node 884 1 0 0
node 956 1 0 0
node 1125 1 0 0
node 1176 1 0 0
node 1235 1 0 0
node 1303 1 0 0
node 1386 1 0 0
node 1516 1 0 0
node 1531 1 0 0
node 1591 1 0 0
node 1653 1 0 0
node 1692 1 0 0
node 1892 1 0 0
node 1908 1 0 0
node 1944 1 0 0
gene  1 2 29 0.8000769823487465 0 1177.0 0.8000769823487465 0
gene  1 3 29 0.12098470516954818 0 1178.0 0.12098470516954818 1
gene  1 6 29 -0.42065337152840265 0 1181.0 -0.42065337152840265 1
gene  1 7 29 -0.9799903731919961 0 1182.0 -0.9799903731919961 0
gene  1 9 29 -0.22339304155849227 0 1184.0 -0.22339304155849227 1
gene  1 10 29 -0.22163423641164193 0 1185.0 -0.22163423641164193 1
gene  1 14 29 -0.08544987443205121 0 1189.0 -0.08544987443205121 1
gene  1 18 29 -0.7572342885089096 0 1193.0 -0.7572342885089096 1
gene  1 19 29 0.6840197796081819 0 1194.0 0.6840197796081819 0
gene  1 20 29 -0.7938080058751426 0 1195.0 -0.7938080058751426 1
gene  1 25 29 0.9916255744566222 0 1200.0 0.9916255744566222 1
gene  1 26 29 0.6703656126570544 0 1201.0 0.6703656126570544 1
gene  1 27 29 -0.15417881866331506 0 1202.0 -0.15417881866331506 1
gene  1 28 29 -0.718898324749991 0 1203.0 -0.718898324749991 1
gene  1 29 29 -0.005205825155019661 1 1204.0 -0.005205825155019661 1
gene  1 35 29 0.8721876074316732 1 1210.0 0.8721876074316732 1
gene  1 36 29 -0.05930141273453471 1 1211.0 -0.05930141273453471 1
gene  1 37 29 -0.23594928209541766 1 1212.0 -0.23594928209541766 1
gene  1 38 29 0.6331480525884093 1 1213.0 0.6331480525884093 1
gene  1 39 29 -0.15688064152798353 1 1214.0 -0.15688064152798353 1
gene  1 41 29 -0.6369270900392057 1 1216.0 -0.6369270900392057 1
gene  1 2 34 0.9599157967906138 0 1387.0 0.9599157967906138 1
gene  1 3 34 0.16020476513239745 0 1388.0 0.16020476513239745 1
gene  1 4 34 0.9675094595024016 0 1389.0 0.9675094595024016 1
gene  1 6 34 0.07131098321925144 0 1391.0 0.07131098321925144 0
gene  1 8 34 -0.12796102569519885 0 1393.0 -0.12796102569519885 1
gene  1 9 34 0.601094096428636 0 1394.0 0.601094096428636 1
gene  1 11 34 -0.8573412900121243 0 1396.0 -0.8573412900121243 1
gene  1 14 34 -0.7664920678052245 0 1399.0 -0.7664920678052245 1
gene  1 15 34 0.13102388731682924 0 1400.0 0.13102388731682924 1
gene  1 16 34 0.826664569421062 0 1401.0 0.826664569421062 1
gene  1 17 34 -0.03316143544299155 0 1402.0 -0.03316143544299155 1
gene  1 18 34 0.9613670448066071 0 1403.0 0.9613670448066071 1
gene  1 21 34 -0.7316877591967362 0 1406.0 -0.7316877591967362 1
gene  1 23 34 -0.43874883730173364 0 1408.0 -0.43874883730173364 1
gene  1 34 34 -0.5849887941426954 1 1419.0 -0.5849887941426954 1
gene  1 36 34 0.6673278031336042 1 1421.0 0.6673278031336042 1
gene  1 39 34 -0.8561868631755638 1 1424.0 -0.8561868631755638 1
gene  1 40 34 -0.5058800269328413 1 1425.0 -0.5058800269328413 0
gene  1 4 35 0.35677131733127987 0 1431.0 0.35677131733127987 1
gene  1 5 35 0.3107256369151876 0 1432.0 0.3107256369151876 1
gene  1 8 35 0.09245440741193123 0 1435.0 0.09245440741193123 1
gene  1 9 35 -0.31165998442664367 0 1436.0 -0.31165998442664367 1
gene  1 10 35 -0.8369769886771329 0 1437.0 -0.8369769886771329 1
gene  1 11 35 0.22417972753444437 0 1438.0 0.22417972753444437 1
gene  1 12 35 -0.12608121420521656 0 1439.0 -0.12608121420521656 1
gene  1 14 35 0.6618601954071759 0 1441.0 0.6618601954071759 0
gene  1 15 35 0.2560593896917259 0 1442.0 0.2560593896917259 1
gene  1 16 35 -0.28477257996946614 0 1443.0 -0.28477257996946614 0
gene  1 18 35 -0.13492113360370994 0 1445.0 -0.13492113360370994 1
gene  1 21 35 -0.8197155033679425 0 1448.0 -0.8197155033679425 1
gene  1 22 35 -0.43851369405232776 0 1449.0 -0.43851369405232776 1
gene  1 23 35 0.12257626095320506 0 1450.0 0.12257626095320506 0
gene  1 25 35 -0.45823432103659667 0 1452.0 -0.45823432103659667 1
gene  1 27 35 0.7376303586550441 0 1454.0 0.7376303586550441 1
gene  1 37 35 -0.14896955229605413 1 1464.0 -0.14896955229605413 1
gene  1 39 35 0.7957042057058414 1 1466.0 0.7957042057058414 1
gene  1 41 35 -0.709458512345175 1 1468.0 -0.709458512345175 1
gene  1 42 35 -0.29581776805839033 1 1469.0 -0.29581776805839033 1
gene  1 1 36 0.33218669534052525 0 1470.0 0.33218669534052525 1
gene  1 2 36 0.07103845797398445 0 1471.0 0.07103845797398445 1
gene  1 5 36 -0.44907440927573095 0 1474.0 -0.44907440927573095 1
gene  1 9 36 0.7842745109013249 0 1478.0 0.7842745109013249 0
gene  1 10 36 0.02299787752135607 0 1479.0 0.02299787752135607 0
gene  1 11 36 0.18266497695107664 0 1480.0 0.18266497695107664 1
gene  1 12 36 -0.8460928692826779 0 1481.0 -0.8460928692826779 1
gene  1 15 36 0.8358739273671371 0 1484.0 0.8358739273671371 1
gene  1 19 36 0.9006271772121995 0 1488.0 0.9006271772121995 1
gene  1 20 36 -0.4294641287837291 0 1489.0 -0.4294641287837291 0
gene  1 21 36 -0.6883207129128888 0 1490.0 -0.6883207129128888 1
gene  1 23 36 -0.5690208631925303 0 1492.0 -0.5690208631925303 1
gene  1 24 36 0.698219571240381 0 1493.0 0.698219571240381 1
gene  1 26 36 0.28272493722994085 0 1495.0 0.28272493722994085 1
gene  1 27 36 0.14201659396681043 0 1496.0 0.14201659396681043 1
gene  1 28 36 0.383925132611316 0 1497.0 0.383925132611316 1
gene  1 29 36 -0.5280467994632351 0 1498.0 -0.5280467994632351 1
gene  1 36 36 0.914432517366041 1 1505.0 0.914432517366041 1
gene  1 38 36 0.7844622528575589 1 1507.0 0.7844622528575589 1
gene  1 39 36 -0.9046492949498998 1 1508.0 -0.9046492949498998 1
gene  1 40 36 -0.8302726861456828 1 1509.0 -0.8302726861456828 1
gene  1 5 37 -0.63424304131995 0 1516.0 -0.63424304131995 1
gene  1 6 37 -0.34635347749105616 0 1517.0 -0.34635347749105616 1
gene  1 7 37 0.11908771867499279 0 1518.0 0.11908771867499279 1
gene  1 8 37 -0.14231677594762604 0 1519.0 -0.14231677594762604 1
gene  1 9 37 0.5922145830129892 0 1520.0 0.5922145830129892 1
gene  1 11 37 0.9971444844077253 0 1522.0 0.9971444844077253 1
gene  1 15 37 0.16222668999112 0 1526.0 0.16222668999112 1
gene  1 17 37 0.3700651882752628 0 1528.0 0.3700651882752628 1
gene  1 18 37 0.016077744714251718 0 1529.0 0.016077744714251718 1
gene  1 21 37 0.8123147908830826 0 1532.0 0.8123147908830826 1
gene  1 23 37 -0.15758191865909876 0 1534.0 -0.15758191865909876 1
gene  1 26 37 -0.23414088897104723 0 1537.0 -0.23414088897104723 1
gene  1 27 37 0.004062361680888693 0 1538.0 0.004062361680888693 1
gene  1 28 37 0.6881031940610762 0 1539.0 0.6881031940610762 1
gene  1 35 37 0.49265194238038534 0 1546.0 0.49265194238038534 1
gene  1 36 37 0.18622928827186624 0 1547.0 0.18622928827186624 0
gene  1 38 37 0.5817689300015388 1 1549.0 0.5817689300015388 1
gene  1 39 37 0.5620767258366542 1 1550.0 0.5620767258366542 1
gene  1 40 37 0.19347439064063554 1 1551.0 0.19347439064063554 1
gene  1 42 37 0.3235062766070139 1 1553.0 0.3235062766070139 1
gene  1 1 38 -0.9958910459479027 0 1554.0 -0.9958910459479027 1
gene  1 2 38 -0.48685539994120464 0 1555.0 -0.48685539994120464 1
gene  1 3 38 -0.18971962649355611 0 1556.0 -0.18971962649355611 1
gene  1 4 38 0.7643551961174515 0 1557.0 0.7643551961174515 1
gene  1 7 38 0.49723052192963724 0 1560.0 0.49723052192963724 1
gene  1 9 38 0.25365553107484184 0 1562.0 0.25365553107484184 0
gene  1 12 38 -0.15586321713964513 0 1565.0 -0.15586321713964513 1
gene  1 13 38 0.03597952906533197 0 1566.0 0.03597952906533197 1
gene  1 14 38 0.6457554271544704 0 1567.0 0.6457554271544704 1
gene  1 16 38 -0.7206771395051095 0 1569.0 -0.7206771395051095 0
gene  1 17 38 0.8783875582204964 0 1570.0 0.8783875582204964 1
gene  1 18 38 -0.3237940026108346 0 1571.0 -0.3237940026108346 1
gene  1 20 38 0.23365637102715175 0 1573.0 0.23365637102715175 1
gene  1 23 38 0.3517514519617153 0 1576.0 0.3517514519617153 1
gene  1 25 38 -0.25808489952854785 0 1578.0 -0.25808489952854785 1
gene  1 28 38 -0.8625478886201572 0 1581.0 -0.8625478886201572 1
gene  1 35 38 -0.5975620948261942 0 1588.0 -0.5975620948261942 1
gene  1 36 38 -0.28046880718905454 0 1589.0 -0.28046880718905454 0
gene  1 40 38 0.8066601160782629 1 1593.0 0.8066601160782629 0
gene  1 41 38 -0.3383273949906801 1 1594.0 -0.3383273949906801 0
gene  1 42 38 0.5042564165683894 1 1595.0 0.5042564165683894 1
gene  1 1 39 0.28597859349959887 0 1596.0 0.28597859349959887 0
gene  1 3 39 0.9561250271899208 0 1598.0 0.9561250271899208 1
gene  1 4 39 0.30658823695364745 0 1599.0 0.30658823695364745 1
gene  1 5 39 0.11824755978044443 0 1600.0 0.11824755978044443 1
gene  1 8 39 -0.6849282109882889 0 1603.0 -0.6849282109882889 1
gene  1 9 39 0.4579757653395272 0 1604.0 0.4579757653395272 1
gene  1 10 39 0.3112594986793651 0 1605.0 0.3112594986793651 1
gene  1 13 39 0.2641042534622786 0 1608.0 0.2641042534622786 1
gene  1 16 39 -0.330092514562478 0 1611.0 -0.330092514562478 0
gene  1 17 39 -0.3187653258463453 0 1612.0 -0.3187653258463453 1
gene  1 20 39 0.47017968666071175 0 1615.0 0.47017968666071175 0
gene  1 27 39 0.29819155480358284 0 1622.0 0.29819155480358284 1
gene  1 36 39 0.6650227755880053 0 1631.0 0.6650227755880053 1
gene  1 37 39 0.9832137052881091 0 1632.0 0.9832137052881091 1
gene  1 38 39 0.7384940769961519 0 1633.0 0.7384940769961519 1
gene  1 39 39 -0.21679093491920587 1 1634.0 -0.21679093491920587 1
gene  1 40 39 -0.35477297419864984 1 1635.0 -0.35477297419864984 1
gene  1 41 39 -0.14110167790519834 1 1636.0 -0.14110167790519834 1
gene  1 1 40 0.1993578227013143 0 1638.0 0.1993578227013143 1
gene  1 2 40 0.010923902234449945 0 1639.0 0.010923902234449945 1
gene  1 3 40 -0.11907196290578037 0 1640.0 -0.11907196290578037 1
gene  1 5 40 -0.5774113119268194 0 1642.0 -0.5774113119268194 1
gene  1 6 40 -0.49491837744200884 0 1643.0 -0.49491837744200884 1
gene  1 7 40 0.889744395198118 0 1644.0 0.889744395198118 1
gene  1 9 40 -0.4942146864012571 0 1646.0 -0.4942146864012571 1
gene  1 10 40 0.8059194466032338 0 1647.0 0.8059194466032338 1
gene  1 12 40 0.6940421999533748 0 1649.0 0.6940421999533748 1
gene  1 15 40 -0.5382223870911801 0 1652.0 -0.5382223870911801 1
gene  1 17 40 0.7858214078565543 0 1654.0 0.7858214078565543 1
gene  1 19 40 -0.8960104351320173 0 1656.0 -0.8960104351320173 1
gene  1 20 40 0.3999221629212979 0 1657.0 0.3999221629212979 1
gene  1 22 40 0.5519875160228942 0 1659.0 0.5519875160228942 1
gene  1 24 40 0.12322381046374575 0 1661.0 0.12322381046374575 1
gene  1 25 40 -0.41401326524127935 0 1662.0 -0.41401326524127935 1
gene  1 26 40 -0.9932506889850722 0 1663.0 -0.9932506889850722 1
gene  1 28 40 0.15048796302667433 0 1665.0 0.15048796302667433 1
gene  1 29 40 0.44871092646699995 0 1666.0 0.44871092646699995 1
gene  1 35 40 -0.9189271221127056 0 1672.0 -0.9189271221127056 1
gene  1 36 40 0.45713874188025483 0 1673.0 0.45713874188025483 1
gene  1 37 40 0.053772195707261106 0 1674.0 0.053772195707261106 1
gene  1 40 40 0.36671358081538685 1 1677.0 0.36671358081538685 1
gene  1 41 40 0.06489098057156628 1 1678.0 0.06489098057156628 1
gene  1 42 40 0.9698478476776481 1 1679.0 0.9698478476776481 1
gene  1 2 41 0.4098231808582128 0 1681.0 0.4098231808582128 1
gene  1 4 41 0.9191084467691149 0 1683.0 0.9191084467691149 1
gene  1 5 41 -0.3279662314093542 0 1684.0 -0.3279662314093542 1
gene  1 6 41 0.22150250348329492 0 1685.0 0.22150250348329492 1
gene  1 7 41 -0.0669405301415632 0 1686.0 -0.0669405301415632 0
gene  1 8 41 0.6574379050873355 0 1687.0 0.6574379050873355 1
gene  1 10 41 0.3734021934685583 0 1689.0 0.3734021934685583 1
gene  1 12 41 -0.4114567756621812 0 1691.0 -0.4114567756621812 1
gene  1 14 41 0.5345278199215113 0 1693.0 0.5345278199215113 1
gene  1 15 41 0.4496022471870811 0 1694.0 0.4496022471870811 1
gene  1 19 41 -0.4640785112683813 0 1698.0 -0.4640785112683813 1
gene  1 20 41 -0.9234752878714299 0 1699.0 -0.9234752878714299 1
gene  1 21 41 0.19802894419442119 0 1700.0 0.19802894419442119 1
gene  1 22 41 0.6204965595632536 0 1701.0 0.6204965595632536 1
gene  1 24 41 0.3556840390294719 0 1703.0 0.3556840390294719 1
gene  1 25 41 -0.42529684863955475 0 1704.0 -0.42529684863955475 1
gene  1 29 41 0.8287661357462845 0 1708.0 0.8287661357462845 1
gene  1 35 41 -0.6005148859143162 0 1714.0 -0.6005148859143162 1
gene  1 38 41 0.2756846523777534 0 1717.0 0.2756846523777534 1
gene  1 42 41 -0.37580144511880753 1 1721.0 -0.37580144511880753 1
gene  1 2 42 0.033044108756386414 0 1723.0 0.033044108756386414 1
gene  1 4 42 0.7945914858526648 0 1725.0 0.7945914858526648 1
gene  1 5 42 0.7094175566842221 0 1726.0 0.7094175566842221 1
gene  1 7 42 -0.7845929132994308 0 1728.0 -0.7845929132994308 1
gene  1 8 42 0.9399478173419463 0 1729.0 0.9399478173419463 1
gene  1 10 42 0.9236210815420239 0 1731.0 0.9236210815420239 1
gene  1 12 42 -0.3577672763452897 0 1733.0 -0.3577672763452897 1
gene  1 13 42 -0.302409956124599 0 1734.0 -0.302409956124599 1
gene  1 14 42 -0.35350463180419234 0 1735.0 -0.35350463180419234 1
gene  1 15 42 0.40020845111924175 0 1736.0 0.40020845111924175 1
gene  1 16 42 -0.2487409589377495 0 1737.0 -0.2487409589377495 1
gene  1 17 42 -0.9328335500323468 0 1738.0 -0.9328335500323468 1
gene  1 19 42 -0.5589048593225479 0 1740.0 -0.5589048593225479 1
gene  1 22 42 0.13662411807958075 0 1743.0 0.13662411807958075 0
gene  1 23 42 -0.21365811576952953 0 1744.0 -0.21365811576952953 1
gene  1 26 42 0.5620887923368337 0 1747.0 0.5620887923368337 1
gene  1 27 42 0.5377559322900487 0 1748.0 0.5377559322900487 1
gene  1 28 42 0.5338443010813063 0 1749.0 0.5338443010813063 1
gene  1 29 42 0.8332658462944293 0 1750.0 0.8332658462944293 1
gene  1 36 42 0.17953962175271088 0 1757.0 0.17953962175271088 1
gene  1 37 42 -0.12423494076545472 0 1758.0 -0.12423494076545472 1
gene  1 41 42 -0.7402634820073912 0 1762.0 -0.7402634820073912 1
gene  1 9 252 1.0 0 2183.0 0.0 1
gene  1 252 38 0.25365553107484184 0 2184.0 0.0 1
gene  1 40 355 1.0 1 2389.0 0.0 1
gene  1 355 34 -0.5058800269328413 0 2390.0 0.0 1
gene  1 16 383 1.0 0 2445.0 0.0 1
gene  1 383 39 -0.330092514562478 0 2446.0 0.0 1
gene  1 40 429 1.0 1 2537.0 0.0 1
gene  1 429 38 0.8066601160782629 0 2538.0 0.0 1
gene  1 16 469 1.0 0 2617.0 0.0 1
gene  1 469 35 -0.28477257996946614 0 2618.0 0.0 1
gene  1 23 541 1.0 0 2761.0 0.0 1
gene  1 541 35 0.12257626095320506 0 2762.0 0.0 1
gene  1 9 596 1.0 0 2871.0 0.0 1
gene  1 596 36 0.7842745109013249 0 2872.0 0.0 1
gene  1 16 614 1.0 0 2907.0 0.0 0
gene  1 614 38 -0.7206771395051095 0 2908.0 0.0 1
gene  1 19 840 1.0 0 3359.0 0.0 1
gene  1 840 29 0.6840197796081819 0 3360.0 0.0 1
gene  1 2 884 1.0 0 3447.0 0.0 1
gene  1 884 29 0.8000769823487465 0 3448.0 0.0 1
gene  1 6 956 1.0 0 3591.0 0.0 1
gene  1 956 34 0.07131098321925144 0 3592.0 0.0 1
gene  1 7 1125 1.0 0 3929.0 0.0 1
gene  1 1125 29 -0.9799903731919961 0 3930.0 0.0 1
gene  1 36 1176 1.0 0 4031.0 0.0 1
gene  1 1176 37 0.18622928827186624 0 4032.0 0.0 1
gene  1 36 1235 1.0 0 4149.0 0.0 1
gene  1 1235 38 -0.28046880718905454 0 4150.0 0.0 1
gene  1 14 1303 1.0 0 4285.0 0.0 1
gene  1 1303 35 0.6618601954071759 0 4286.0 0.0 1
gene  1 20 1386 1.0 0 4451.0 0.0 1
gene  1 1386 39 0.47017968666071175 0 4452.0 0.0 1
gene  1 10 1516 1.0 0 4711.0 0.0 1
gene  1 1516 36 0.02299787752135607 0 4712.0 0.0 1
gene  1 7 1531 1.0 0 4741.0 0.0 1
gene  1 1531 41 -0.0669405301415632 0 4742.0 0.0 1
gene  1 20 1591 1.0 0 4861.0 0.0 1
gene  1 1591 36 -0.4294641287837291 0 4862.0 0.0 1
gene  1 16 1653 1.0 0 4985.0 0.0 1
gene  1 1653 614 1.0 0 4986.0 0.0 1
gene  1 41 1692 1.0 1 5063.0 0.0 0
gene  1 1692 38 -0.3383273949906801 0 5064.0 0.0 1
gene  1 41 1892 1.0 1 5463.0 0.0 1
gene  1 1892 1692 1.0 0 5464.0 0.0 1
gene  1 22 1908 1.0 0 5495.0 0.0 1
gene  1 1908 42 0.13662411807958075 0 5496.0 0.0 1
gene  1 1 1944 1.0 0 5567.0 0.0 1
gene  1 1944 39 0.28597859349959887 0 5568.0 0.0 1
genomeend 0
/* Organism # 001 Fitness:  0.000 Error:  0.000                      */
genomestart  1
trait 1 0.0 0.0 0.0 0.0 0.0 0.0 0.0 0.0 
node 1 1 1 1
node 2 1 1 1
node 3 1 1 1
node 4 1 1 1
node 5 1 1 1
node 6 1 1 1
node 7 1 1 1
node 8 1 1 1
node 9 1 1 1
node 10 1 1 1
node 11 1 1 1
node 12 1 1 1
node 13 1 1 1
node 14 1 1 1
node 15 1 1 1
node 16 1 1 1
node 17 1 1 1
node 18 1 1 1
node 19 1 1 1
node 20 1 1 1
node 21 1 1 1
node 22 1 1 1
node 23 1 1 1
node 24 1 1 1
node 25 1 1 1
node 26 1 1 1
node 27 1 1 1
node 28 1 1 3
node 29 1 0 0
node 34 1 0 2
node 35 1 0 2
node 36 1 0 2
node 37 1 0 2
node 38 1 0 2
node 39 1 0 2
node 40 1 0 2
node 41 1 0 2
node 42 1 0 2
node 252 1 0 0
node 355 1 0 0
node 383 1 0 0
node 429 1 0 0
node 469 1 0 0
node 541 1 0 0
node 596 1 0 0
node 614 1 0 0
node 840 1 0 0
node 884 1 0 0
node 956 1 0 0
node 1125 1 0 0
node 1176 1 0 0
node 1235 1 0 0
node 1303 1 0 0
node 1386 1 0 0
node 1516 1 0 0
node 1531 1 0 0
node 1591 1 0 0
node 1653 1 0 0
node 1692 1 0 0
node 1892 1 0 0
node 1908 1 0 0
node 1944 1 0 0
gene  1 2 29 0.8000769823487465 0 1177.0 0.8000769823487465 0
gene  1 3 29 0.12098470516954818 0 1178.0 0.12098470516954818 1
gene  1 6 29 -0.42065337152840265 0 1181.0 -0.42065337152840265 1
gene  1 7 29 -0.9799903731919961 0 1182.0 -0.9799903731919961 0
gene  1 9 29 -0.22339304155849227 0 1184.0 -0.22339304155849227 1
gene  1 10 29 -0.22163423641164193 0 1185.0 -0.22163423641164193 1
gene  1 14 29 -0.08544987443205121 0 1189.0 -0.08544987443205121 1
gene  1 18 29 -0.7572342885089096 0 1193.0 -0.7572342885089096 1
gene  1 19 29 0.6840197796081819 0 1194.0 0.6840197796081819 0
gene  1 20 29 -0.7938080058751426 0 1195.0 -0.7938080058751426 1
gene  1 25 29 0.9916255744566222 0 1200.0 0.9916255744566222 1
gene  1 26 29 0.6703656126570544 0 1201.0 0.6703656126570544 1
gene  1 27 29 -0.15417881866331506 0 1202.0 -0.15417881866331506 1
gene  1 28 29 -0.718898324749991 0 1203.0 -0.718898324749991 1
gene  1 29 29 -0.005205825155019661 1 1204.0 -0.005205825155019661 1
gene  1 35 29 0.8721876074316732 1 1210.0 0.8721876074316732 1
gene  1 36 29 -0.05930141273453471 1 1211.0 -0.05930141273453471 1
gene  1 37 29 -0.23594928209541766 1 1212.0 -0.23594928209541766 1
gene  1 38 29 0.6331480525884093 1 1213.0 0.6331480525884093 1
gene  1 39 29 -0.15688064152798353 1 1214.0 -0.15688064152798353 1
gene  1 41 29 -0.6369270900392057 1 1216.0 -0.6369270900392057 1
gene  1 2 34 0.9599157967906138 0 1387.0 0.9599157967906138 1
gene  1 3 34 0.16020476513239745 0 1388.0 0.16020476513239745 1
gene  1 4 34 0.9675094595024016 0 1389.0 0.9675094595024016 1
gene  1 6 34 0.07131098321925144 0 1391.0 0.07131098321925144 0
gene  1 8 34 -0.12796102569519885 0 1393.0 -0.12796102569519885 1
gene  1 9 34 0.601094096428636 0 1394.0 0.601094096428636 1
gene  1 11 34 -0.8573412900121243 0 1396.0 -0.8573412900121243 1
gene  1 14 34 -0.7664920678052245 0 1399.0 -0.7664920678052245 1
gene  1 15 34 0.13102388731682924 0 1400.0 0.13102388731682924 1
gene  1 16 34 0.826664569421062 0 1401.0 0.826664569421062 1
gene  1 17 34 -0.03316143544299155 0 1402.0 -0.03316143544299155 1
gene  1 18 34 0.9613670448066071 0 1403.0 0.9613670448066071 1
gene  1 21 34 -0.7316877591967362 0 1406.0 -0.7316877591967362 1
gene  1 23 34 -0.43874883730173364 0 1408.0 -0.43874883730173364 1
gene  1 34 34 -0.5849887941426954 1 1419.0 -0.5849887941426954 1
gene  1 36 34 0.6673278031336042 1 1421.0 0.6673278031336042 1
gene  1 39 34 -0.8561868631755638 1 1424.0 -0.8561868631755638 1
gene  1 40 34 -0.5058800269328413 1 1425.0 -0.5058800269328413 0
gene  1 4 35 0.35677131733127987 0 1431.0 0.35677131733127987 1
gene  1 5 35 0.3107256369151876 0 1432.0 0.3107256369151876 1
gene  1 8 35 0.09245440741193123 0 1435.0 0.09245440741193123 1
gene  1 9 35 -0.31165998442664367 0 1436.0 -0.31165998442664367 1
gene  1 10 35 -0.8369769886771329 0 1437.0 -0.8369769886771329 1
gene  1 11 35 0.22417972753444437 0 1438.0 0.22417972753444437 1
gene  1 12 35 -0.12608121420521656 0 1439.0 -0.12608121420521656 1
gene  1 14 35 0.6618601954071759 0 1441.0 0.6618601954071759 0
gene  1 15 35 0.2560593896917259 0 1442.0 0.2560593896917259 1
gene  1 16 35 -0.28477257996946614 0 1443.0 -0.28477257996946614 0
gene  1 18 35 -0.13492113360370994 0 1445.0 -0.13492113360370994 1
gene  1 21 35 -0.8197155033679425 0 1448.0 -0.8197155033679425 1
gene  1 22 35 -0.43851369405232776 0 1449.0 -0.43851369405232776 1
gene  1 23 35 0.12257626095320506 0 1450.0 0.12257626095320506 0
gene  1 25 35 -0.45823432103659667 0 1452.0 -0.45823432103659667 1
gene  1 27 35 0.7376303586550441 0 1454.0 0.7376303586550441 1
gene  1 37 35 -0.14896955229605413 1 1464.0 -0.14896955229605413 1
gene  1 39 35 0.7957042057058414 1 1466.0 0.7957042057058414 1
gene  1 41 35 -0.709458512345175 1 1468.0 -0.709458512345175 1
gene  1 42 35 -0.29581776805839033 1 1469.0 -0.29581776805839033 1
gene  1 1 36 0.33218669534052525 0 1470.0 0.33218669534052525 1
gene  1 2 36 0.07103845797398445 0 1471.0 0.07103845797398445 1
gene  1 5 36 -0.44907440927573095 0 1474.0 -0.44907440927573095 1
gene  1 9 36 0.7842745109013249 0 1478.0 0.7842745109013249 0
gene  1 10 36 0.02299787752135607 0 1479.0 0.02299787752135607 0
gene  1 11 36 0.18266497695107664 0 1480.0 0.18266497695107664 1
gene  1 12 36 -0.8460928692826779 0 1481.0 -0.8460928692826779 1
gene  1 15 36 0.8358739273671371 0 1484.0 0.8358739273671371 1
gene  1 19 36 0.9006271772121995 0 1488.0 0.9006271772121995 1
gene  1 20 36 -0.4294641287837291 0 1489.0 -0.4294641287837291 0
gene  1 21 36 -0.6883207129128888 0 1490.0 -0.6883207129128888 1
gene  1 23 36 -0.5690208631925303 0 1492.0 -0.5690208631925303 1
gene  1 24 36 0.698219571240381 0 1493.0 0.698219571240381 1
gene  1 26 36 0.28272493722994085 0 1495.0 0.28272493722994085 1
gene  1 27 36 0.14201659396681043 0 1496.0 0.14201659396681043 1
gene  1 28 36 0.383925132611316 0 1497.0 0.383925132611316 1
gene  1 29 36 -0.5280467994632351 0 1498.0 -0.5280467994632351 1
gene  1 36 36 0.914432517366041 1 1505.0 0.914432517366041 1
gene  1 38 36 0.7844622528575589 1 1507.0 0.7844622528575589 1
gene  1 39 36 -0.9046492949498998 1 1508.0 -0.9046492949498998 1
gene  1 40 36 -0.8302726861456828 1 1509.0 -0.8302726861456828 1
gene  1 5 37 -0.63424304131995 0 1516.0 -0.63424304131995 1
gene  1 6 37 -0.34635347749105616 0 1517.0 -0.34635347749105616 1
gene  1 7 37 0.11908771867499279 0 1518.0 0.11908771867499279 1
gene  1 8 37 -0.14231677594762604 0 1519.0 -0.14231677594762604 1
gene  1 9 37 0.5922145830129892 0 1520.0 0.5922145830129892 1
gene  1 11 37 0.9971444844077253 0 1522.0 0.9971444844077253 1
gene  1 15 37 0.16222668999112 0 1526.0 0.16222668999112 1
gene  1 17 37 0.3700651882752628 0 1528.0 0.3700651882752628 1
gene  1 18 37 0.016077744714251718 0 1529.0 0.016077744714251718 1
gene  1 21 37 0.8123147908830826 0 1532.0 0.8123147908830826 1
gene  1 23 37 -0.15758191865909876 0 1534.0 -0.15758191865909876 1
gene  1 26 37 -0.23414088897104723 0 1537.0 -0.23414088897104723 1
gene  1 27 37 0.004062361680888693 0 1538.0 0.004062361680888693 1
gene  1 28 37 0.6881031940610762 0 1539.0 0.6881031940610762 1
gene  1 35 37 0.49265194238038534 0 1546.0 0.49265194238038534 1
gene  1 36 37 0.18622928827186624 0 1547.0 0.18622928827186624 0
gene  1 38 37 0.5817689300015388 1 1549.0 0.5817689300015388 1
gene  1 39 37 0.5620767258366542 1 1550.0 0.5620767258366542 1
gene  1 40 37 0.19347439064063554 1 1551.0 0.19347439064063554 1
gene  1 42 37 0.3235062766070139 1 1553.0 0.3235062766070139 1
gene  1 1 38 -0.9958910459479027 0 1554.0 -0.9958910459479027 1
gene  1 2 38 -0.48685539994120464 0 1555.0 -0.48685539994120464 1
gene  1 3 38 -0.18971962649355611 0 1556.0 -0.18971962649355611 1
gene  1 4 38 0.7643551961174515 0 1557.0 0.7643551961174515 1
gene  1 7 38 0.49723052192963724 0 1560.0 0.49723052192963724 1
gene  1 9 38 0.25365553107484184 0 1562.0 0.25365553107484184 0
gene  1 12 38 -0.15586321713964513 0 1565.0 -0.15586321713964513 1
gene  1 13 38 0.03597952906533197 0 1566.0 0.03597952906533197 1
gene  1 14 38 0.6457554271544704 0 1567.0 0.6457554271544704 1
gene  1 16 38 -0.7206771395051095 0 1569.0 -0.7206771395051095 0
gene  1 17 38 0.8783875582204964 0 1570.0 0.8783875582204964 1
gene  1 18 38 -0.3237940026108346 0 1571.0 -0.3237940026108346 1
gene  1 20 38 0.23365637102715175 0 1573.0 0.23365637102715175 1
gene  1 23 38 0.3517514519617153 0 1576.0 0.3517514519617153 1
gene  1 25 38 -0.25808489952854785 0 1578.0 -0.25808489952854785 1
gene  1 28 38 -0.8625478886201572 0 1581.0 -0.8625478886201572 1
gene  1 35 38 -0.5975620948261942 0 1588.0 -0.5975620948261942 1
gene  1 36 38 -0.28046880718905454 0 1589.0 -0.28046880718905454 0
gene  1 40 38 0.8066601160782629 1 1593.0 0.8066601160782629 0
gene  1 41 38 -0.3383273949906801 1 1594.0 -0.3383273949906801 0
gene  1 42 38 0.5042564165683894 1 1595.0 0.5042564165683894 1
gene  1 1 39 0.28597859349959887 0 1596.0 0.28597859349959887 0
gene  1 3 39 0.9561250271899208 0 1598.0 0.9561250271899208 1
gene  1 4 39 0.30658823695364745 0 1599.0 0.30658823695364745 1
gene  1 5 39 0.11824755978044443 0 1600.0 0.11824755978044443 1
gene  1 8 39 -0.6849282109882889 0 1603.0 -0.6849282109882889 1
gene  1 9 39 0.4579757653395272 0 1604.0 0.4579757653395272 1
gene  1 10 39 0.3112594986793651 0 1605.0 0.3112594986793651 1
gene  1 13 39 0.2641042534622786 0 1608.0 0.2641042534622786 1
gene  1 16 39 -0.330092514562478 0 1611.0 -0.330092514562478 0
gene  1 17 39 -0.3187653258463453 0 1612.0 -0.3187653258463453 1
gene  1 20 39 0.47017968666071175 0 1615.0 0.47017968666071175 0
gene  1 27 39 0.29819155480358284 0 1622.0 0.29819155480358284 1
gene  1 36 39 0.6650227755880053 0 1631.0 0.6650227755880053 1
gene  1 37 39 0.9832137052881091 0 1632.0 0.9832137052881091 1
gene  1 38 39 0.7384940769961519 0 1633.0 0.7384940769961519 1
gene  1 39 39 -0.21679093491920587 1 1634.0 -0.21679093491920587 1
gene  1 40 39 -0.35477297419864984 1 1635.0 -0.35477297419864984 1
gene  1 41 39 -0.14110167790519834 1 1636.0 -0.14110167790519834 1
gene  1 1 40 0.1993578227013143 0 1638.0 0.1993578227013143 1
gene  1 2 40 0.010923902234449945 0 1639.0 0.010923902234449945 1
gene  1 3 40 -0.11907196290578037 0 1640.0 -0.11907196290578037 1
gene  1 5 40 -0.5774113119268194 0 1642.0 -0.5774113119268194 1
gene  1 6 40 -0.49491837744200884 0 1643.0 -0.49491837744200884 1
gene  1 7 40 0.889744395198118 0 1644.0 0.889744395198118 1
gene  1 9 40 -0.4942146864012571 0 1646.0 -0.4942146864012571 1
gene  1 10 40 0.8059194466032338 0 1647.0 0.8059194466032338 1
gene  1 12 40 0.6940421999533748 0 1649.0 0.6940421999533748 1
gene  1 15 40 -0.5382223870911801 0 1652.0 -0.5382223870911801 1
gene  1 17 40 0.7858214078565543 0 1654.0 0.7858214078565543 1
gene  1 19 40 -0.8960104351320173 0 1656.0 -0.8960104351320173 1
gene  1 20 40 0.3999221629212979 0 1657.0 0.3999221629212979 1
gene  1 22 40 0.5519875160228942 0 1659.0 0.5519875160228942 1
gene  1 24 40 0.12322381046374575 0 1661.0 0.12322381046374575 1
gene  1 25 40 -0.41401326524127935 0 1662.0 -0.41401326524127935 1
gene  1 26 40 -0.9932506889850722 0 1663.0 -0.9932506889850722 1
gene  1 28 40 0.15048796302667433 0 1665.0 0.15048796302667433 1
gene  1 29 40 0.44871092646699995 0 1666.0 0.44871092646699995 1
gene  1 35 40 -0.9189271221127056 0 1672.0 -0.9189271221127056 1
gene  1 36 40 0.45713874188025483 0 1673.0 0.45713874188025483 1
gene  1 37 40 0.053772195707261106 0 1674.0 0.053772195707261106 1
gene  1 40 40 0.36671358081538685 1 1677.0 0.36671358081538685 1
gene  1 41 40 0.06489098057156628 1 1678.0 0.06489098057156628 1
gene  1 42 40 0.9698478476776481 1 1679.0 0.9698478476776481 1
gene  1 2 41 0.4098231808582128 0 1681.0 0.4098231808582128 1
gene  1 4 41 0.9191084467691149 0 1683.0 0.9191084467691149 1
gene  1 5 41 -0.3279662314093542 0 1684.0 -0.3279662314093542 1
gene  1 6 41 0.22150250348329492 0 1685.0 0.22150250348329492 1
gene  1 7 41 -0.0669405301415632 0 1686.0 -0.0669405301415632 0
gene  1 8 41 0.6574379050873355 0 1687.0 0.6574379050873355 1
gene  1 10 41 0.3734021934685583 0 1689.0 0.3734021934685583 1
gene  1 12 41 -0.4114567756621812 0 1691.0 -0.4114567756621812 1
gene  1 14 41 0.5345278199215113 0 1693.0 0.5345278199215113 1
gene  1 15 41 0.4496022471870811 0 1694.0 0.4496022471870811 1
gene  1 19 41 -0.4640785112683813 0 1698.0 -0.4640785112683813 1
gene  1 20 41 -0.9234752878714299 0 1699.0 -0.9234752878714299 1
gene  1 21 41 0.19802894419442119 0 1700.0 0.19802894419442119 1
gene  1 22 41 0.6204965595632536 0 1701.0 0.6204965595632536 1
gene  1 24 41 0.3556840390294719 0 1703.0 0.3556840390294719 1
gene  1 25 41 -0.42529684863955475 0 1704.0 -0.42529684863955475 1
gene  1 29 41 0.8287661357462845 0 1708.0 0.8287661357462845 1
gene  1 35 41 -0.6005148859143162 0 1714.0 -0.6005148859143162 1
gene  1 38 41 0.2756846523777534 0 1717.0 0.2756846523777534 1
gene  1 42 41 -0.37580144511880753 1 1721.0 -0.37580144511880753 1
gene  1 2 42 0.033044108756386414 0 1723.0 0.033044108756386414 1
gene  1 4 42 0.7945914858526648 0 1725.0 0.7945914858526648 1
gene  1 5 42 0.7094175566842221 0 1726.0 0.7094175566842221 1
gene  1 7 42 -0.7845929132994308 0 1728.0 -0.7845929132994308 1
gene  1 8 42 0.9399478173419463 0 1729.0 0.9399478173419463 1
gene  1 10 42 0.9236210815420239 0 1731.0 0.9236210815420239 1
gene  1 12 42 -0.3577672763452897 0 1733.0 -0.3577672763452897 1
gene  1 13 42 -0.302409956124599 0 1734.0 -0.302409956124599 1
gene  1 14 42 -0.35350463180419234 0 1735.0 -0.35350463180419234 1
gene  1 15 42 0.40020845111924175 0 1736.0 0.40020845111924175 1
gene  1 16 42 -0.2487409589377495 0 1737.0 -0.2487409589377495 1
gene  1 17 42 -0.9328335500323468 0 1738.0 -0.9328335500323468 1
gene  1 19 42 -0.5589048593225479 0 1740.0 -0.5589048593225479 1
gene  1 22 42 0.13662411807958075 0 1743.0 0.13662411807958075 0
gene  1 23 42 -0.21365811576952953 0 1744.0 -0.21365811576952953 1
gene  1 26 42 0.5620887923368337 0 1747.0 0.5620887923368337 1
gene  1 27 42 0.5377559322900487 0 1748.0 0.5377559322900487 1
gene  1 28 42 0.5338443010813063 0 1749.0 0.5338443010813063 1
gene  1 29 42 0.8332658462944293 0 1750.0 0.8332658462944293 1
gene  1 36 42 0.17953962175271088 0 1757.0 0.17953962175271088 1
gene  1 37 42 -0.12423494076545472 0 1758.0 -0.12423494076545472 1
gene  1 41 42 -0.7402634820073912 0 1762.0 -0.7402634820073912 1
gene  1 9 252 1.0 0 2183.0 0.0 1
gene  1 252 38 0.25365553107484184 0 2184.0 0.0 1
gene  1 40 355 1.0 1 2389.0 0.0 1
gene  1 355 34 -0.5058800269328413 0 2390.0 0.0 1
gene  1 16 383 1.0 0 2445.0 0.0 1
gene  1 383 39 -0.330092514562478 0 2446.0 0.0 1
gene  1 40 429 1.0 1 2537.0 0.0 1
gene  1 429 38 0.8066601160782629 0 2538.0 0.0 1
gene  1 16 469 1.0 0 2617.0 0.0 1
gene  1 469 35 -0.28477257996946614 0 2618.0 0.0 1
gene  1 23 541 1.0 0 2761.0 0.0 1
gene  1 541 35 0.12257626095320506 0 2762.0 0.0 1
gene  1 9 596 1.0 0 2871.0 0.0 1
gene  1 596 36 0.7842745109013249 0 2872.0 0.0 1
gene  1 16 614 1.0 0 2907.0 0.0 0
gene  1 614 38 -0.7206771395051095 0 2908.0 0.0 1
gene  1 19 840 1.0 0 3359.0 0.0 1
gene  1 840 29 0.6840197796081819 0 3360.0 0.0 1
gene  1 2 884 1.0 0 3447.0 0.0 1
gene  1 884 29 0.8000769823487465 0 3448.0 0.0 1
gene  1 6 956 1.0 0 3591.0 0.0 1
gene  1 956 34 0.07131098321925144 0 3592.0 0.0 1
gene  1 7 1125 1.0 0 3929.0 0.0 1
gene  1 1125 29 -0.9799903731919961 0 3930.0 0.0 1
gene  1 36 1176 1.0 0 4031.0 0.0 1
gene  1 1176 37 0.18622928827186624 0 4032.0 0.0 1
gene  1 36 1235 1.0 0 4149.0 0.0 1
gene  1 1235 38 -0.28046880718905454 0 4150.0 0.0 1
gene  1 14 1303 1.0 0 4285.0 0.0 1
gene  1 1303 35 0.6618601954071759 0 4286.0 0.0 1
gene  1 20 1386 1.0 0 4451.0 0.0 1
gene  1 1386 39 0.47017968666071175 0 4452.0 0.0 1
gene  1 10 1516 1.0 0 4711.0 0.0 1
gene  1 1516 36 0.02299787752135607 0 4712.0 0.0 1
gene  1 7 1531 1.0 0 4741.0 0.0 1
gene  1 1531 41 -0.0669405301415632 0 4742.0 0.0 1
gene  1 20 1591 1.0 0 4861.0 0.0 1
gene  1 1591 36 -0.4294641287837291 0 4862.0 0.0 1
gene  1 16 1653 1.0 0 4985.0 0.0 1
gene  1 1653 614 1.0 0 4986.0 0.0 1
gene  1 41 1692 1.0 1 5063.0 0.0 0
gene  1 1692 38 -0.3383273949906801 0 5064.0 0.0 1
gene  1 41 1892 1.0 1 5463.0 0.0 1
gene  1 1892 1692 1.0 0 5464.0 0.0 1
gene  1 22 1908 1.0 0 5495.0 0.0 1
gene  1 1908 42 0.13662411807958075 0 5496.0 0.0 1
gene  1 1 1944 1.0 0 5567.0 0.0 1
gene  1 1944 39 0.28597859349959887 0 5568.0 0.0 1
genomeend 1
/* Organism # 002 Fitness:  0.000 Error:  0.000                      */
genomestart  2
trait 1 0.0 0.0 0.0 0.0 0.0 0.0 0.0 0.0 
node 1 1 1 1
node 2 1 1 1
node 3 1 1 1
node 4 1 1 1
node 5 1 1 1
node 6 1 1 1
node 7 1 1 1
node 8 1 1 1
node 9 1 1 1
node 10 1 1 1
node 11 1 1 1
node 12 1 1 1
node 13 1 1 1
node 14 1 1 1
node 15 1 1 1
node 16 1 1 1
node 17 1 1 1
node 18 1 1 1
node 19 1 1 1
node 20 1 1 1
node 21 1 1 1
node 22 1 1 1
node 23 1 1 1
node 24 1 1 1
node 25 1 1 1
node 26 1 1 1
node 27 1 1 1
node 28 1 1 3
node 29 1 0 0
node 34 1 0 2
node 35 1 0 2
node 36 1 0 2
node 37 1 0 2
node 38 1 0 2
node 39 1 0 2
node 40 1 0 2
node 41 1 0 2
node 42 1 0 2
node 252 1 0 0
node 355 1 0 0
node 383 1 0 0
node 429 1 0 0
node 469 1 0 0
node 541 1 0 0
node 596 1 0 0
node 614 1 0 0
node 840 1 0 0
node 884 1 0 0
node 956 1 0 0
node 1125 1 0 0
node 1176 1 0 0
node 1235 1 0 0
node 1303 1 0 0
node 1386 1 0 0
node 1516 1 0 0
node 1531 1 0 0
node 1591 1 0 0
node 1653 1 0 0
node 1692 1 0 0
node 1892 1 0 0
node 1908 1 0 0
node 1944 1 0 0
gene  1 2 29 0.8000769823487465 0 1177.0 0.8000769823487465 0
gene  1 3 29 0.12098470516954818 0 1178.0 0.12098470516954818 1
gene  1 6 29 -0.42065337152840265 0 1181.0 -0.42065337152840265 1
gene  1 7 29 -0.9799903731919961 0 1182.0 -0.9799903731919961 0
gene  1 9 29 -0.22339304155849227 0 1184.0 -0.22339304155849227 1
gene  1 10 29 -0.22163423641164193 0 1185.0 -0.22163423641164193 1
gene  1 14 29 -0.08544987443205121 0 1189.0 -0.08544987443205121 1
gene  1 18 29 -0.7572342885089096 0 1193.0 -0.7572342885089096 1
gene  1 19 29 0.6840197796081819 0 1194.0 0.6840197796081819 0
gene  1 20 29 -0.7938080058751426 0 1195.0 -0.7938080058751426 1
gene  1 25 29 0.9916255744566222 0 1200.0 0.9916255744566222 1
gene  1 26 29 0.6703656126570544 0 1201.0 0.6703656126570544 1
gene  1 27 29 -0.15417881866331506 0 1202.0 -0.15417881866331506 1
gene  1 28 29 -0.718898324749991 0 1203.0 -0.718898324749991 1
gene  1 29 29 -0.005205825155019661 1 1204.0 -0.005205825155019661 1
gene  1 35 29 0.8721876074316732 1 1210.0 0.8721876074316732 1
gene  1 36 29 -0.05930141273453471 1 1211.0 -0.05930141273453471 1
gene  1 37 29 -0.23594928209541766 1 1212.0 -0.23594928209541766 1
gene  1 38 29 0.6331480525884093 1 1213.0 0.6331480525884093 1
gene  1 39 29 -0.15688064152798353 1 1214.0 -0.15688064152798353 1
gene  1 41 29 -0.6369270900392057 1 1216.0 -0.6369270900392057 1
gene  1 2 34 0.9599157967906138 0 1387.0 0.9599157967906138 1
gene  1 3 34 0.16020476513239745 0 1388.0 0.16020476513239745 1
gene  1 4 34 0.9675094595024016 0 1389.0 0.9675094595024016 1
gene  1 6 34 0.07131098321925144 0 1391.0 0.07131098321925144 0
gene  1 8 34 -0.12796102569519885 0 1393.0 -0.12796102569519885 1
gene  1 9 34 0.601094096428636 0 1394.0 0.601094096428636 1
gene  1 11 34 -0.8573412900121243 0 1396.0 -0.8573412900121243 1
gene  1 14 34 -0.7664920678052245 0 1399.0 -0.7664920678052245 1
gene  1 15 34 0.13102388731682924 0 1400.0 0.13102388731682924 1
gene  1 16 34 0.826664569421062 0 1401.0 0.826664569421062 1
gene  1 17 34 -0.03316143544299155 0 1402.0 -0.03316143544299155 1
gene  1 18 34 0.9613670448066071 0 1403.0 0.9613670448066071 1
gene  1 21 34 -0.7316877591967362 0 1406.0 -0.7316877591967362 1
gene  1 23 34 -0.43874883730173364 0 1408.0 -0.43874883730173364 1
gene  1 34 34 -0.5849887941426954 1 1419.0 -0.5849887941426954 1
gene  1 36 34 0.6673278031336042 1 1421.0 0.6673278031336042 1
gene  1 39 34 -0.8561868631755638 1 1424.0 -0.8561868631755638 1
gene  1 40 34 -0.5058800269328413 1 1425.0 -0.5058800269328413 0
gene  1 4 35 0.35677131733127987 0 1431.0 0.35677131733127987 1
gene  1 5 35 0.3107256369151876 0 1432.0 0.3107256369151876 1
gene  1 8 35 0.09245440741193123 0 1435.0 0.09245440741193123 1
gene  1 9 35 -0.31165998442664367 0 1436.0 -0.31165998442664367 1
gene  1 10 35 -0.8369769886771329 0 1437.0 -0.8369769886771329 1
gene  1 11 35 0.22417972753444437 0 1438.0 0.22417972753444437 1
gene  1 12 35 -0.12608121420521656 0 1439.0 -0.12608121420521656 1
gene  1 14 35 0.6618601954071759 0 1441.0 0.6618601954071759 0
gene  1 15 35 0.2560593896917259 0 1442.0 0.2560593896917259 1
gene  1 16 35 -0.28477257996946614 0 1443.0 -0.28477257996946614 0
gene  1 18 35 -0.13492113360370994 0 1445.0 -0.13492113360370994 1
gene  1 21 35 -0.8197155033679425 0 1448.0 -0.8197155033679425 1
gene  1 22 35 -0.43851369405232776 0 1449.0 -0.43851369405232776 1
gene  1 23 35 0.12257626095320506 0 1450.0 0.12257626095320506 0
gene  1 25 35 -0.45823432103659667 0 1452.0 -0.45823432103659667 1
gene  1 27 35 0.7376303586550441 0 1454.0 0.7376303586550441 1
gene  1 37 35 -0.14896955229605413 1 1464.0 -0.14896955229605413 1
gene  1 39 35 0.7957042057058414 1 1466.0 0.7957042057058414 1
gene  1 41 35 -0.709458512345175 1 1468.0 -0.709458512345175 1
gene  1 42 35 -0.29581776805839033 1 1469.0 -0.29581776805839033 1
gene  1 1 36 0.33218669534052525 0 1470.0 0.33218669534052525 1
gene  1 2 36 0.07103845797398445 0 1471.0 0.07103845797398445 1
gene  1 5 36 -0.44907440927573095 0 1474.0 -0.44907440927573095 1
gene  1 9 36 0.7842745109013249 0 1478.0 0.7842745109013249 0
gene  1 10 36 0.02299787752135607 0 1479.0 0.02299787752135607 0
gene  1 11 36 0.18266497695107664 0 1480.0 0.18266497695107664 1
gene  1 12 36 -0.8460928692826779 0 1481.0 -0.8460928692826779 1
gene  1 15 36 0.8358739273671371 0 1484.0 0.8358739273671371 1
gene  1 19 36 0.9006271772121995 0 1488.0 0.9006271772121995 1
gene  1 20 36 -0.4294641287837291 0 1489.0 -0.4294641287837291 0
gene  1 21 36 -0.6883207129128888 0 1490.0 -0.6883207129128888 1
gene  1 23 36 -0.5690208631925303 0 1492.0 -0.5690208631925303 1
gene  1 24 36 0.698219571240381 0 1493.0 0.698219571240381 1
gene  1 26 36 0.28272493722994085 0 1495.0 0.28272493722994085 1
gene  1 27 36 0.14201659396681043 0 1496.0 0.14201659396681043 1
gene  1 28 36 0.383925132611316 0 1497.0 0.383925132611316 1
gene  1 29 36 -0.5280467994632351 0 1498.0 -0.5280467994632351 1
gene  1 36 36 0.914432517366041 1 1505.0 0.914432517366041 1
gene  1 38 36 0.7844622528575589 1 1507.0 0.7844622528575589 1
gene  1 39 36 -0.9046492949498998 1 1508.0 -0.9046492949498998 1
gene  1 40 36 -0.8302726861456828 1 1509.0 -0.8302726861456828 1
gene  1 5 37 -0.63424304131995 0 1516.0 -0.63424304131995 1
gene  1 6 37 -0.34635347749105616 0 1517.0 -0.34635347749105616 1
gene  1 7 37 0.11908771867499279 0 1518.0 0.11908771867499279 1
gene  1 8 37 -0.14231677594762604 0 1519.0 -0.14231677594762604 1
gene  1 9 37 0.5922145830129892 0 1520.0 0.5922145830129892 1
gene  1 11 37 0.9971444844077253 0 1522.0 0.9971444844077253 1
gene  1 15 37 0.16222668999112 0 1526.0 0.16222668999112 1
gene  1 17 37 0.3700651882752628 0 1528.0 0.3700651882752628 1
gene  1 18 37 0.016077744714251718 0 1529.0 0.016077744714251718 1
gene  1 21 37 0.8123147908830826 0 1532.0 0.8123147908830826 1
gene  1 23 37 -0.15758191865909876 0 1534.0 -0.15758191865909876 1
gene  1 26 37 -0.23414088897104723 0 1537.0 -0.23414088897104723 1
gene  1 27 37 0.004062361680888693 0 1538.0 0.004062361680888693 1
gene  1 28 37 0.6881031940610762 0 1539.0 0.6881031940610762 1
gene  1 35 37 0.49265194238038534 0 1546.0 0.49265194238038534 1
gene  1 36 37 0.18622928827186624 0 1547.0 0.18622928827186624 0
gene  1 38 37 0.5817689300015388 1 1549.0 0.5817689300015388 1
gene  1 39 37 0.5620767258366542 1 1550.0 0.5620767258366542 1
gene  1 40 37 0.19347439064063554 1 1551.0 0.19347439064063554 1
gene  1 42 37 0.3235062766070139 1 1553.0 0.3235062766070139 1
gene  1 1 38 -0.9958910459479027 0 1554.0 -0.9958910459479027 1
gene  1 2 38 -0.48685539994120464 0 1555.0 -0.48685539994120464 1
gene  1 3 38 -0.18971962649355611 0 1556.0 -0.18971962649355611 1
gene  1 4 38 0.7643551961174515 0 1557.0 0.7643551961174515 1
gene  1 7 38 0.49723052192963724 0 1560.0 0.49723052192963724 1
gene  1 9 38 0.25365553107484184 0 1562.0 0.25365553107484184 0
gene  1 12 38 -0.15586321713964513 0 1565.0 -0.15586321713964513 1
gene  1 13 38 0.03597952906533197 0 1566.0 0.03597952906533197 1
gene  1 14 38 0.6457554271544704 0 1567.0 0.6457554271544704 1
gene  1 16 38 -0.7206771395051095 0 1569.0 -0.7206771395051095 0
gene  1 17 38 0.8783875582204964 0 1570.0 0.8783875582204964 1
gene  1 18 38 -0.3237940026108346 0 1571.0 -0.3237940026108346 1
gene  1 20 38 0.23365637102715175 0 1573.0 0.23365637102715175 1
gene  1 23 38 0.3517514519617153 0 1576.0 0.3517514519617153 1
gene  1 25 38 -0.25808489952854785 0 1578.0 -0.25808489952854785 1
gene  1 28 38 -0.8625478886201572 0 1581.0 -0.8625478886201572 1
gene  1 35 38 -0.5975620948261942 0 1588.0 -0.5975620948261942 1
gene  1 36 38 -0.28046880718905454 0 1589.0 -0.28046880718905454 0
gene  1 40 38 0.8066601160782629 1 1593.0 0.8066601160782629 0
gene  1 41 38 -0.3383273949906801 1 1594.0 -0.3383273949906801 0
gene  1 42 38 0.5042564165683894 1 1595.0 0.5042564165683894 1
gene  1 1 39 0.28597859349959887 0 1596.0 0.28597859349959887 0
gene  1 3 39 0.9561250271899208 0 1598.0 0.9561250271899208 1
gene  1 4 39 0.30658823695364745 0 1599.0 0.30658823695364745 1
gene  1 5 39 0.11824755978044443 0 1600.0 0.11824755978044443 1
gene  1 8 39 -0.6849282109882889 0 1603.0 -0.6849282109882889 1
gene  1 9 39 0.4579757653395272 0 1604.0 0.4579757653395272 1
gene  1 10 39 0.3112594986793651 0 1605.0 0.3112594986793651 1
gene  1 13 39 0.2641042534622786 0 1608.0 0.2641042534622786 1
gene  1 16 39 -0.330092514562478 0 1611.0 -0.330092514562478 0
gene  1 17 39 -0.3187653258463453 0 1612.0 -0.3187653258463453 1
gene  1 20 39 0.47017968666071175 0 1615.0 0.47017968666071175 0
gene  1 27 39 0.29819155480358284 0 1622.0 0.29819155480358284 1
gene  1 36 39 0.6650227755880053 0 1631.0 0.6650227755880053 1
gene  1 37 39 0.9832137052881091 0 1632.0 0.9832137052881091 1
gene  1 38 39 0.7384940769961519 0 1633.0 0.7384940769961519 1
gene  1 39 39 -0.21679093491920587 1 1634.0 -0.21679093491920587 1
gene  1 40 39 -0.35477297419864984 1 1635.0 -0.35477297419864984 1
gene  1 41 39 -0.14110167790519834 1 1636.0 -0.14110167790519834 1
gene  1 1 40 0.1993578227013143 0 1638.0 0.1993578227013143 1
gene  1 2 40 0.010923902234449945 0 1639.0 0.010923902234449945 1
gene  1 3 40 -0.11907196290578037 0 1640.0 -0.11907196290578037 1
gene  1 5 40 -0.5774113119268194 0 1642.0 -0.5774113119268194 1
gene  1 6 40 -0.49491837744200884 0 1643.0 -0.49491837744200884 1
gene  1 7 40 0.889744395198118 0 1644.0 0.889744395198118 1
gene  1 9 40 -0.4942146864012571 0 1646.0 -0.4942146864012571 1
gene  1 10 40 0.8059194466032338 0 1647.0 0.8059194466032338 1
gene  1 12 40 0.6940421999533748 0 1649.0 0.6940421999533748 1
gene  1 15 40 -0.5382223870911801 0 1652.0 -0.5382223870911801 1
gene  1 17 40 0.7858214078565543 0 1654.0 0.7858214078565543 1
gene  1 19 40 -0.8960104351320173 0 1656.0 -0.8960104351320173 1
gene  1 20 40 0.3999221629212979 0 1657.0 0.3999221629212979 1
gene  1 22 40 0.5519875160228942 0 1659.0 0.5519875160228942 1
gene  1 24 40 0.12322381046374575 0 1661.0 0.12322381046374575 1
gene  1 25 40 -0.41401326524127935 0 1662.0 -0.41401326524127935 1
gene  1 26 40 -0.9932506889850722 0 1663.0 -0.9932506889850722 1
gene  1 28 40 0.15048796302667433 0 1665.0 0.15048796302667433 1
gene  1 29 40 0.44871092646699995 0 1666.0 0.44871092646699995 1
gene  1 35 40 -0.9189271221127056 0 1672.0 -0.9189271221127056 1
gene  1 36 40 0.45713874188025483 0 1673.0 0.45713874188025483 1
gene  1 37 40 0.053772195707261106 0 1674.0 0.053772195707261106 1
gene  1 40 40 0.36671358081538685 1 1677.0 0.36671358081538685 1
gene  1 41 40 0.06489098057156628 1 1678.0 0.06489098057156628 1
gene  1 42 40 0.9698478476776481 1 1679.0 0.9698478476776481 1
gene  1 2 41 0.4098231808582128 0 1681.0 0.4098231808582128 1
gene  1 4 41 0.9191084467691149 0 1683.0 0.9191084467691149 1
gene  1 5 41 -0.3279662314093542 0 1684.0 -0.3279662314093542 1
gene  1 6 41 0.22150250348329492 0 1685.0 0.22150250348329492 1
gene  1 7 41 -0.0669405301415632 0 1686.0 -0.0669405301415632 0
gene  1 8 41 0.6574379050873355 0 1687.0 0.6574379050873355 1
gene  1 10 41 0.3734021934685583 0 1689.0 0.3734021934685583 1
gene  1 12 41 -0.4114567756621812 0 1691.0 -0.4114567756621812 1
gene  1 14 41 0.5345278199215113 0 1693.0 0.5345278199215113 1
gene  1 15 41 0.4496022471870811 0 1694.0 0.4496022471870811 1
gene  1 19 41 -0.4640785112683813 0 1698.0 -0.4640785112683813 1
gene  1 20 41 -0.9234752878714299 0 1699.0 -0.9234752878714299 1
gene  1 21 41 0.19802894419442119 0 1700.0 0.19802894419442119 1
gene  1 22 41 0.6204965595632536 0 1701.0 0.6204965595632536 1
gene  1 24 41 0.3556840390294719 0 1703.0 0.3556840390294719 1
gene  1 25 41 -0.42529684863955475 0 1704.0 -0.42529684863955475 1
gene  1 29 41 0.8287661357462845 0 1708.0 0.8287661357462845 1
gene  1 35 41 -0.6005148859143162 0 1714.0 -0.6005148859143162 1
gene  1 38 41 0.2756846523777534 0 1717.0 0.2756846523777534 1
gene  1 42 41 -0.37580144511880753 1 1721.0 -0.37580144511880753 1
gene  1 2 42 0.033044108756386414 0 1723.0 0.033044108756386414 1
gene  1 4 42 0.7945914858526648 0 1725.0 0.7945914858526648 1
gene  1 5 42 0.7094175566842221 0 1726.0 0.7094175566842221 1
gene  1 7 42 -0.7845929132994308 0 1728.0 -0.7845929132994308 1
gene  1 8 42 0.9399478173419463 0 1729.0 0.9399478173419463 1
gene  1 10 42 0.9236210815420239 0 1731.0 0.9236210815420239 1
gene  1 12 42 -0.3577672763452897 0 1733.0 -0.3577672763452897 1
gene  1 13 42 -0.302409956124599 0 1734.0 -0.302409956124599 1
gene  1 14 42 -0.35350463180419234 0 1735.0 -0.35350463180419234 1
gene  1 15 42 0.40020845111924175 0 1736.0 0.40020845111924175 1
gene  1 16 42 -0.2487409589377495 0 1737.0 -0.2487409589377495 1
gene  1 17 42 -0.9328335500323468 0 1738.0 -0.9328335500323468 1
gene  1 19 42 -0.5589048593225479 0 1740.0 -0.5589048593225479 1
gene  1 22 42 0.13662411807958075 0 1743.0 0.13662411807958075 0
gene  1 23 42 -0.21365811576952953 0 1744.0 -0.21365811576952953 1
gene  1 26 42 0.5620887923368337 0 1747.0 0.5620887923368337 1
gene  1 27 42 0.5377559322900487 0 1748.0 0.5377559322900487 1
gene  1 28 42 0.5338443010813063 0 1749.0 0.5338443010813063 1
gene  1 29 42 0.8332658462944293 0 1750.0 0.8332658462944293 1
gene  1 36 42 0.17953962175271088 0 1757.0 0.17953962175271088 1
gene  1 37 42 -0.12423494076545472 0 1758.0 -0.12423494076545472 1
gene  1 41 42 -0.7402634820073912 0 1762.0 -0.7402634820073912 1
gene  1 9 252 1.0 0 2183.0 0.0 1
gene  1 252 38 0.25365553107484184 0 2184.0 0.0 1
gene  1 40 355 1.0 1 2389.0 0.0 1
gene  1 355 34 -0.5058800269328413 0 2390.0 0.0 1
gene  1 16 383 1.0 0 2445.0 0.0 1
gene  1 383 39 -0.330092514562478 0 2446.0 0.0 1
gene  1 40 429 1.0 1 2537.0 0.0 1
gene  1 429 38 0.8066601160782629 0 2538.0 0.0 1
gene  1 16 469 1.0 0 2617.0 0.0 1
gene  1 469 35 -0.28477257996946614 0 2618.0 0.0 1
gene  1 23 541 1.0 0 2761.0 0.0 1
gene  1 541 35 0.12257626095320506 0 2762.0 0.0 1
gene  1 9 596 1.0 0 2871.0 0.0 1
gene  1 596 36 0.7842745109013249 0 2872.0 0.0 1
gene  1 16 614 1.0 0 2907.0 0.0 0
gene  1 614 38 -0.7206771395051095 0 2908.0 0.0 1
gene  1 19 840 1.0 0 3359.0 0.0 1
gene  1 840 29 0.6840197796081819 0 3360.0 0.0 1
gene  1 2 884 1.0 0 3447.0 0.0 1
gene  1 884 29 0.8000769823487465 0 3448.0 0.0 1
gene  1 6 956 1.0 0 3591.0 0.0 1
gene  1 956 34 0.07131098321925144 0 3592.0 0.0 1
gene  1 7 1125 1.0 0 3929.0 0.0 1
gene  1 1125 29 -0.9799903731919961 0 3930.0 0.0 1
gene  1 36 1176 1.0 0 4031.0 0.0 1
gene  1 1176 37 0.18622928827186624 0 4032.0 0.0 1
gene  1 36 1235 1.0 0 4149.0 0.0 1
gene  1 1235 38 -0.28046880718905454 0 4150.0 0.0 1
gene  1 14 1303 1.0 0 4285.0 0.0 1
gene  1 1303 35 0.6618601954071759 0 4286.0 0.0 1
gene  1 20 1386 1.0 0 4451.0 0.0 1
gene  1 1386 39 0.47017968666071175 0 4452.0 0.0 1
gene  1 10 1516 1.0 0 4711.0 0.0 1
gene  1 1516 36 0.02299787752135607 0 4712.0 0.0 1
gene  1 7 1531 1.0 0 4741.0 0.0 1
gene  1 1531 41 -0.0669405301415632 0 4742.0 0.0 1
gene  1 20 1591 1.0 0 4861.0 0.0 1
gene  1 1591 36 -0.4294641287837291 0 4862.0 0.0 1
gene  1 16 1653 1.0 0 4985.0 0.0 1
gene  1 1653 614 1.0 0 4986.0 0.0 1
gene  1 41 1692 1.0 1 5063.0 0.0 0
gene  1 1692 38 -0.3383273949906801 0 5064.0 0.0 1
gene  1 41 1892 1.0 1 5463.0 0.0 1
gene  1 1892 1692 1.0 0 5464.0 0.0 1
gene  1 22 1908 1.0 0 5495.0 0.0 1
gene  1 1908 42 0.13662411807958075 0 5496.0 0.0 1
gene  1 1 1944 1.0 0 5567.0 0.0 1
gene  1 1944 39 0.28597859349959887 0 5568.0 0.0 1
genomeend 2
/* Organism # 003 Fitness:  0.000 Error:  0.000                      */
genomestart  3
trait 1 0.0 0.0 0.0 0.0 0.0 0.0 0.0 0.0 
node 1 1 1 1
node 2 1 1 1
node 3 1 1 1
node 4 1 1 1
node 5 1 1 1
node 6 1 1 1
node 7 1 1 1
node 8 1 1 1
node 9 1 1 1
node 10 1 1 1
node 11 1 1 1
node 12 1 1 1
node 13 1 1 1
node 14 1 1 1
node 15 1 1 1
node 16 1 1 1
node 17 1 1 1
node 18 1 1 1
node 19 1 1 1
node 20 1 1 1
node 21 1 1 1
node 22 1 1 1
node 23 1 1 1
node 24 1 1 1
node 25 1 1 1
node 26 1 1 1
node 27 1 1 1
node 28 1 1 3
node 29 1 0 0
node 34 1 0 2
node 35 1 0 2
node 36 1 0 2
node 37 1 0 2
node 38 1 0 2
node 39 1 0 2
node 40 1 0 2
node 41 1 0 2
node 42 1 0 2
node 252 1 0 0
node 355 1 0 0
node 383 1 0 0
node 429 1 0 0
node 469 1 0 0
node 541 1 0 0
node 596 1 0 0
node 614 1 0 0
node 840 1 0 0
node 884 1 0 0
node 956 1 0 0
node 1125 1 0 0
node 1176 1 0 0
node 1235 1 0 0
node 1303 1 0 0
node 1386 1 0 0
node 1516 1 0 0
node 1531 1 0 0
node 1591 1 0 0
node 1653 1 0 0
node 1692 1 0 0
node 1892 1 0 0
node 1908 1 0 0
node 1944 1 0 0
gene  1 2 29 0.8000769823487465 0 1177.0 0.8000769823487465 0
gene  1 3 29 0.12098470516954818 0 1178.0 0.12098470516954818 1
gene  1 6 29 -0.42065337152840265 0 1181.0 -0.42065337152840265 1
gene  1 7 29 -0.9799903731919961 0 1182.0 -0.9799903731919961 0
gene  1 9 29 -0.22339304155849227 0 1184.0 -0.22339304155849227 1
gene  1 10 29 -0.22163423641164193 0 1185.0 -0.22163423641164193 1
gene  1 14 29 -0.08544987443205121 0 1189.0 -0.08544987443205121 1
gene  1 18 29 -0.7572342885089096 0 1193.0 -0.7572342885089096 1
gene  1 19 29 0.6840197796081819 0 1194.0 0.6840197796081819 0
gene  1 20 29 -0.7938080058751426 0 1195.0 -0.7938080058751426 1
gene  1 25 29 0.9916255744566222 0 1200.0 0.9916255744566222 1
gene  1 26 29 0.6703656126570544 0 1201.0 0.6703656126570544 1
gene  1 27 29 -0.15417881866331506 0 1202.0 -0.15417881866331506 1
gene  1 28 29 -0.718898324749991 0 1203.0 -0.718898324749991 1
gene  1 29 29 -0.005205825155019661 1 1204.0 -0.005205825155019661 1
gene  1 35 29 0.8721876074316732 1 1210.0 0.8721876074316732 1
gene  1 36 29 -0.05930141273453471 1 1211.0 -0.05930141273453471 1
gene  1 37 29 -0.23594928209541766 1 1212.0 -0.23594928209541766 1
gene  1 38 29 0.6331480525884093 1 1213.0 0.6331480525884093 1
gene  1 39 29 -0.15688064152798353 1 1214.0 -0.15688064152798353 1
gene  1 41 29 -0.6369270900392057 1 1216.0 -0.6369270900392057 1
gene  1 2 34 0.9599157967906138 0 1387.0 0.9599157967906138 1
gene  1 3 34 0.16020476513239745 0 1388.0 0.16020476513239745 1
gene  1 4 34 0.9675094595024016 0 1389.0 0.9675094595024016 1
gene  1 6 34 0.07131098321925144 0 1391.0 0.07131098321925144 0
gene  1 8 34 -0.12796102569519885 0 1393.0 -0.12796102569519885 1
gene  1 9 34 0.601094096428636 0 1394.0 0.601094096428636 1
gene  1 11 34 -0.8573412900121243 0 1396.0 -0.8573412900121243 1
gene  1 14 34 -0.7664920678052245 0 1399.0 -0.7664920678052245 1
gene  1 15 34 0.13102388731682924 0 1400.0 0.13102388731682924 1
gene  1 16 34 0.826664569421062 0 1401.0 0.826664569421062 1
gene  1 17 34 -0.03316143544299155 0 1402.0 -0.03316143544299155 1
gene  1 18 34 0.9613670448066071 0 1403.0 0.9613670448066071 1
gene  1 21 34 -0.7316877591967362 0 1406.0 -0.7316877591967362 1
gene  1 23 34 -0.43874883730173364 0 1408.0 -0.43874883730173364 1
gene  1 34 34 -0.5849887941426954 1 1419.0 -0.5849887941426954 1
gene  1 36 34 0.6673278031336042 1 1421.0 0.6673278031336042 1
gene  1 39 34 -0.8561868631755638 1 1424.0 -0.8561868631755638 1
gene  1 40 34 -0.5058800269328413 1 1425.0 -0.5058800269328413 0
gene  1 4 35 0.35677131733127987 0 1431.0 0.35677131733127987 1
gene  1 5 35 0.3107256369151876 0 1432.0 0.3107256369151876 1
gene  1 8 35 0.09245440741193123 0 1435.0 0.09245440741193123 1
gene  1 9 35 -0.31165998442664367 0 1436.0 -0.31165998442664367 1
gene  1 10 35 -0.8369769886771329 0 1437.0 -0.8369769886771329 1
gene  1 11 35 0.22417972753444437 0 1438.0 0.22417972753444437 1
gene  1 12 35 -0.12608121420521656 0 1439.0 -0.12608121420521656 1
gene  1 14 35 0.6618601954071759 0 1441.0 0.6618601954071759 0
gene  1 15 35 0.2560593896917259 0 1442.0 0.2560593896917259 1
gene  1 16 35 -0.28477257996946614 0 1443.0 -0.28477257996946614 0
gene  1 18 35 -0.13492113360370994 0 1445.0 -0.13492113360370994 1
gene  1 21 35 -0.8197155033679425 0 1448.0 -0.8197155033679425 1
gene  1 22 35 -0.43851369405232776 0 1449.0 -0.43851369405232776 1
gene  1 23 35 0.12257626095320506 0 1450.0 0.12257626095320506 0
gene  1 25 35 -0.45823432103659667 0 1452.0 -0.45823432103659667 1
gene  1 27 35 0.7376303586550441 0 1454.0 0.7376303586550441 1
gene  1 37 35 -0.14896955229605413 1 1464.0 -0.14896955229605413 1
gene  1 39 35 0.7957042057058414 1 1466.0 0.7957042057058414 1
gene  1 41 35 -0.709458512345175 1 1468.0 -0.709458512345175 1
gene  1 42 35 -0.29581776805839033 1 1469.0 -0.29581776805839033 1
gene  1 1 36 0.33218669534052525 0 1470.0 0.33218669534052525 1
gene  1 2 36 0.07103845797398445 0 1471.0 0.07103845797398445 1
gene  1 5 36 -0.44907440927573095 0 1474.0 -0.44907440927573095 1
gene  1 9 36 0.7842745109013249 0 1478.0 0.7842745109013249 0
gene  1 10 36 0.02299787752135607 0 1479.0 0.02299787752135607 0
gene  1 11 36 0.18266497695107664 0 1480.0 0.18266497695107664 1
gene  1 12 36 -0.8460928692826779 0 1481.0 -0.8460928692826779 1
gene  1 15 36 0.8358739273671371 0 1484.0 0.8358739273671371 1
gene  1 19 36 0.9006271772121995 0 1488.0 0.9006271772121995 1
gene  1 20 36 -0.4294641287837291 0 1489.0 -0.4294641287837291 0
gene  1 21 36 -0.6883207129128888 0 1490.0 -0.6883207129128888 1
gene  1 23 36 -0.5690208631925303 0 1492.0 -0.5690208631925303 1
gene  1 24 36 0.698219571240381 0 1493.0 0.698219571240381 1
gene  1 26 36 0.28272493722994085 0 1495.0 0.28272493722994085 1
gene  1 27 36 0.14201659396681043 0 1496.0 0.14201659396681043 1
gene  1 28 36 0.383925132611316 0 1497.0 0.383925132611316 1
gene  1 29 36 -0.5280467994632351 0 1498.0 -0.5280467994632351 1
gene  1 36 36 0.914432517366041 1 1505.0 0.914432517366041 1
gene  1 38 36 0.7844622528575589 1 1507.0 0.7844622528575589 1
gene  1 39 36 -0.9046492949498998 1 1508.0 -0.9046492949498998 1
gene  1 40 36 -0.8302726861456828 1 1509.0 -0.8302726861456828 1
gene  1 5 37 -0.63424304131995 0 1516.0 -0.63424304131995 1
gene  1 6 37 -0.34635347749105616 0 1517.0 -0.34635347749105616 1
gene  1 7 37 0.11908771867499279 0 1518.0 0.11908771867499279 1
gene  1 8 37 -0.14231677594762604 0 1519.0 -0.14231677594762604 1
gene  1 9 37 0.5922145830129892 0 1520.0 0.5922145830129892 1
gene  1 11 37 0.9971444844077253 0 1522.0 0.9971444844077253 1
gene  1 15 37 0.16222668999112 0 1526.0 0.16222668999112 1
gene  1 17 37 0.3700651882752628 0 1528.0 0.3700651882752628 1
gene  1 18 37 0.016077744714251718 0 1529.0 0.016077744714251718 1
gene  1 21 37 0.8123147908830826 0 1532.0 0.8123147908830826 1
gene  1 23 37 -0.15758191865909876 0 1534.0 -0.15758191865909876 1
gene  1 26 37 -0.23414088897104723 0 1537.0 -0.23414088897104723 1
gene  1 27 37 0.004062361680888693 0 1538.0 0.004062361680888693 1
gene  1 28 37 0.6881031940610762 0 1539.0 0.6881031940610762 1
gene  1 35 37 0.49265194238038534 0 1546.0 0.49265194238038534 1
gene  1 36 37 0.18622928827186624 0 1547.0 0.18622928827186624 0
gene  1 38 37 0.5817689300015388 1 1549.0 0.5817689300015388 1
gene  1 39 37 0.5620767258366542 1 1550.0 0.5620767258366542 1
gene  1 40 37 0.19347439064063554 1 1551.0 0.19347439064063554 1
gene  1 42 37 0.3235062766070139 1 1553.0 0.3235062766070139 1
gene  1 1 38 -0.9958910459479027 0 1554.0 -0.9958910459479027 1
gene  1 2 38 -0.48685539994120464 0 1555.0 -0.48685539994120464 1
gene  1 3 38 -0.18971962649355611 0 1556.0 -0.18971962649355611 1
gene  1 4 38 0.7643551961174515 0 1557.0 0.7643551961174515 1
gene  1 7 38 0.49723052192963724 0 1560.0 0.49723052192963724 1
gene  1 9 38 0.25365553107484184 0 1562.0 0.25365553107484184 0
gene  1 12 38 -0.15586321713964513 0 1565.0 -0.15586321713964513 1
gene  1 13 38 0.03597952906533197 0 1566.0 0.03597952906533197 1
gene  1 14 38 0.6457554271544704 0 1567.0 0.6457554271544704 1
gene  1 16 38 -0.7206771395051095 0 1569.0 -0.7206771395051095 0
gene  1 17 38 0.8783875582204964 0 1570.0 0.8783875582204964 1
gene  1 18 38 -0.3237940026108346 0 1571.0 -0.3237940026108346 1
gene  1 20 38 0.23365637102715175 0 1573.0 0.23365637102715175 1
gene  1 23 38 0.3517514519617153 0 1576.0 0.3517514519617153 1
gene  1 25 38 -0.25808489952854785 0 1578.0 -0.25808489952854785 1
gene  1 28 38 -0.8625478886201572 0 1581.0 -0.8625478886201572 1
gene  1 35 38 -0.5975620948261942 0 1588.0 -0.5975620948261942 1
gene  1 36 38 -0.28046880718905454 0 1589.0 -0.28046880718905454 0
gene  1 40 38 0.8066601160782629 1 1593.0 0.8066601160782629 0
gene  1 41 38 -0.3383273949906801 1 1594.0 -0.3383273949906801 0
gene  1 42 38 0.5042564165683894 1 1595.0 0.5042564165683894 1
gene  1 1 39 0.28597859349959887 0 1596.0 0.28597859349959887 0
gene  1 3 39 0.9561250271899208 0 1598.0 0.9561250271899208 1
gene  1 4 39 0.30658823695364745 0 1599.0 0.30658823695364745 1
gene  1 5 39 0.11824755978044443 0 1600.0 0.11824755978044443 1
gene  1 8 39 -0.6849282109882889 0 1603.0 -0.6849282109882889 1
gene  1 9 39 0.4579757653395272 0 1604.0 0.4579757653395272 1
gene  1 10 39 0.3112594986793651 0 1605.0 0.3112594986793651 1
gene  1 13 39 0.2641042534622786 0 1608.0 0.2641042534622786 1
gene  1 16 39 -0.330092514562478 0 1611.0 -0.330092514562478 0
gene  1 17 39 -0.3187653258463453 0 1612.0 -0.3187653258463453 1
gene  1 20 39 0.47017968666071175 0 1615.0 0.47017968666071175 0
gene  1 27 39 0.29819155480358284 0 1622.0 0.29819155480358284 1
gene  1 36 39 0.6650227755880053 0 1631.0 0.6650227755880053 1
gene  1 37 39 0.9832137052881091 0 1632.0 0.9832137052881091 1
gene  1 38 39 0.7384940769961519 0 1633.0 0.7384940769961519 1
gene  1 39 39 -0.21679093491920587 1 1634.0 -0.21679093491920587 1
gene  1 40 39 -0.35477297419864984 1 1635.0 -0.35477297419864984 1
gene  1 41 39 -0.14110167790519834 1 1636.0 -0.14110167790519834 1
gene  1 1 40 0.1993578227013143 0 1638.0 0.1993578227013143 1
gene  1 2 40 0.010923902234449945 0 1639.0 0.010923902234449945 1
gene  1 3 40 -0.11907196290578037 0 1640.0 -0.11907196290578037 1
gene  1 5 40 -0.5774113119268194 0 1642.0 -0.5774113119268194 1
gene  1 6 40 -0.49491837744200884 0 1643.0 -0.49491837744200884 1
gene  1 7 40 0.889744395198118 0 1644.0 0.889744395198118 1
gene  1 9 40 -0.4942146864012571 0 1646.0 -0.4942146864012571 1
gene  1 10 40 0.8059194466032338 0 1647.0 0.8059194466032338 1
gene  1 12 40 0.6940421999533748 0 1649.0 0.6940421999533748 1
gene  1 15 40 -0.5382223870911801 0 1652.0 -0.5382223870911801 1
gene  1 17 40 0.7858214078565543 0 1654.0 0.7858214078565543 1
gene  1 19 40 -0.8960104351320173 0 1656.0 -0.8960104351320173 1
gene  1 20 40 0.3999221629212979 0 1657.0 0.3999221629212979 1
gene  1 22 40 0.5519875160228942 0 1659.0 0.5519875160228942 1
gene  1 24 40 0.12322381046374575 0 1661.0 0.12322381046374575 1
gene  1 25 40 -0.41401326524127935 0 1662.0 -0.41401326524127935 1
gene  1 26 40 -0.9932506889850722 0 1663.0 -0.9932506889850722 1
gene  1 28 40 0.15048796302667433 0 1665.0 0.15048796302667433 1
gene  1 29 40 0.44871092646699995 0 1666.0 0.44871092646699995 1
gene  1 35 40 -0.9189271221127056 0 1672.0 -0.9189271221127056 1
gene  1 36 40 0.45713874188025483 0 1673.0 0.45713874188025483 1
gene  1 37 40 0.053772195707261106 0 1674.0 0.053772195707261106 1
gene  1 40 40 0.36671358081538685 1 1677.0 0.36671358081538685 1
gene  1 41 40 0.06489098057156628 1 1678.0 0.06489098057156628 1
gene  1 42 40 0.9698478476776481 1 1679.0 0.9698478476776481 1
gene  1 2 41 0.4098231808582128 0 1681.0 0.4098231808582128 1
gene  1 4 41 0.9191084467691149 0 1683.0 0.9191084467691149 1
gene  1 5 41 -0.3279662314093542 0 1684.0 -0.3279662314093542 1
gene  1 6 41 0.22150250348329492 0 1685.0 0.22150250348329492 1
gene  1 7 41 -0.0669405301415632 0 1686.0 -0.0669405301415632 0
gene  1 8 41 0.6574379050873355 0 1687.0 0.6574379050873355 1
gene  1 10 41 0.3734021934685583 0 1689.0 0.3734021934685583 1
gene  1 12 41 -0.4114567756621812 0 1691.0 -0.4114567756621812 1
gene  1 14 41 0.5345278199215113 0 1693.0 0.5345278199215113 1
gene  1 15 41 0.4496022471870811 0 1694.0 0.4496022471870811 1
gene  1 19 41 -0.4640785112683813 0 1698.0 -0.4640785112683813 1
gene  1 20 41 -0.9234752878714299 0 1699.0 -0.9234752878714299 1
gene  1 21 41 0.19802894419442119 0 1700.0 0.19802894419442119 1
gene  1 22 41 0.6204965595632536 0 1701.0 0.6204965595632536 1
gene  1 24 41 0.3556840390294719 0 1703.0 0.3556840390294719 1
gene  1 25 41 -0.42529684863955475 0 1704.0 -0.42529684863955475 1
gene  1 29 41 0.8287661357462845 0 1708.0 0.8287661357462845 1
gene  1 35 41 -0.6005148859143162 0 1714.0 -0.6005148859143162 1
gene  1 38 41 0.2756846523777534 0 1717.0 0.2756846523777534 1
gene  1 42 41 -0.37580144511880753 1 1721.0 -0.37580144511880753 1
gene  1 2 42 0.033044108756386414 0 1723.0 0.033044108756386414 1
gene  1 4 42 0.7945914858526648 0 1725.0 0.7945914858526648 1
gene  1 5 42 0.7094175566842221 0 1726.0 0.7094175566842221 1
gene  1 7 42 -0.7845929132994308 0 1728.0 -0.7845929132994308 1
gene  1 8 42 0.9399478173419463 0 1729.0 0.9399478173419463 1
gene  1 10 42 0.9236210815420239 0 1731.0 0.9236210815420239 1
gene  1 12 42 -0.3577672763452897 0 1733.0 -0.3577672763452897 1
gene  1 13 42 -0.302409956124599 0 1734.0 -0.302409956124599 1
gene  1 14 42 -0.35350463180419234 0 1735.0 -0.35350463180419234 1
gene  1 15 42 0.40020845111924175 0 1736.0 0.40020845111924175 1
gene  1 16 42 -0.2487409589377495 0 1737.0 -0.2487409589377495 1
gene  1 17 42 -0.9328335500323468 0 1738.0 -0.9328335500323468 1
gene  1 19 42 -0.5589048593225479 0 1740.0 -0.5589048593225479 1
gene  1 22 42 0.13662411807958075 0 1743.0 0.13662411807958075 0
gene  1 23 42 -0.21365811576952953 0 1744.0 -0.21365811576952953 1
gene  1 26 42 0.5620887923368337 0 1747.0 0.5620887923368337 1
gene  1 27 42 0.5377559322900487 0 1748.0 0.5377559322900487 1
gene  1 28 42 0.5338443010813063 0 1749.0 0.5338443010813063 1
gene  1 29 42 0.8332658462944293 0 1750.0 0.8332658462944293 1
gene  1 36 42 0.17953962175271088 0 1757.0 0.17953962175271088 1
gene  1 37 42 -0.12423494076545472 0 1758.0 -0.12423494076545472 1
gene  1 41 42 -0.7402634820073912 0 1762.0 -0.7402634820073912 1
gene  1 9 252 1.0 0 2183.0 0.0 1
gene  1 252 38 0.25365553107484184 0 2184.0 0.0 1
gene  1 40 355 1.0 1 2389.0 0.0 1
gene  1 355 34 -0.5058800269328413 0 2390.0 0.0 1
gene  1 16 383 1.0 0 2445.0 0.0 1
gene  1 383 39 -0.330092514562478 0 2446.0 0.0 1
gene  1 40 429 1.0 1 2537.0 0.0 1
gene  1 429 38 0.8066601160782629 0 2538.0 0.0 1
gene  1 16 469 1.0 0 2617.0 0.0 1
gene  1 469 35 -0.28477257996946614 0 2618.0 0.0 1
gene  1 23 541 1.0 0 2761.0 0.0 1
gene  1 541 35 0.12257626095320506 0 2762.0 0.0 1
gene  1 9 596 1.0 0 2871.0 0.0 1
gene  1 596 36 0.7842745109013249 0 2872.0 0.0 1
gene  1 16 614 1.0 0 2907.0 0.0 0
gene  1 614 38 -0.7206771395051095 0 2908.0 0.0 1
gene  1 19 840 1.0 0 3359.0 0.0 1
gene  1 840 29 0.6840197796081819 0 3360.0 0.0 1
gene  1 2 884 1.0 0 3447.0 0.0 1
gene  1 884 29 0.8000769823487465 0 3448.0 0.0 1
gene  1 6 956 1.0 0 3591.0 0.0 1
gene  1 956 34 0.07131098321925144 0 3592.0 0.0 1
gene  1 7 1125 1.0 0 3929.0 0.0 1
gene  1 1125 29 -0.9799903731919961 0 3930.0 0.0 1
gene  1 36 1176 1.0 0 4031.0 0.0 1
gene  1 1176 37 0.18622928827186624 0 4032.0 0.0 1
gene  1 36 1235 1.0 0 4149.0 0.0 1
gene  1 1235 38 -0.28046880718905454 0 4150.0 0.0 1
gene  1 14 1303 1.0 0 4285.0 0.0 1
gene  1 1303 35 0.6618601954071759 0 4286.0 0.0 1
gene  1 20 1386 1.0 0 4451.0 0.0 1
gene  1 1386 39 0.47017968666071175 0 4452.0 0.0 1
gene  1 10 1516 1.0 0 4711.0 0.0 1
gene  1 1516 36 0.02299787752135607 0 4712.0 0.0 1
gene  1 7 1531 1.0 0 4741.0 0.0 1
gene  1 1531 41 -0.0669405301415632 0 4742.0 0.0 1
gene  1 20 1591 1.0 0 4861.0 0.0 1
gene  1 1591 36 -0.4294641287837291 0 4862.0 0.0 1
gene  1 16 1653 1.0 0 4985.0 0.0 1
gene  1 1653 614 1.0 0 4986.0 0.0 1
gene  1 41 1692 1.0 1 5063.0 0.0 0
gene  1 1692 38 -0.3383273949906801 0 5064.0 0.0 1
gene  1 41 1892 1.0 1 5463.0 0.0 1
gene  1 1892 1692 1.0 0 5464.0 0.0 1
gene  1 22 1908 1.0 0 5495.0 0.0 1
gene  1 1908 42 0.13662411807958075 0 5496.0 0.0 1
gene  1 1 1944 1.0 0 5567.0 0.0 1
gene  1 1944 39 0.28597859349959887 0 5568.0 0.0 1
genomeend 3
/* Organism # 004 Fitness:  0.000 Error:  0.000                      */
genomestart  4
trait 1 0.0 0.0 0.0 0.0 0.0 0.0 0.0 0.0 
node 1 1 1 1
node 2 1 1 1
node 3 1 1 1
node 4 1 1 1
node 5 1 1 1
node 6 1 1 1
node 7 1 1 1
node 8 1 1 1
node 9 1 1 1
node 10 1 1 1
node 11 1 1 1
node 12 1 1 1
node 13 1 1 1
node 14 1 1 1
node 15 1 1 1
node 16 1 1 1
node 17 1 1 1
node 18 1 1 1
node 19 1 1 1
node 20 1 1 1
node 21 1 1 1
node 22 1 1 1
node 23 1 1 1
node 24 1 1 1
node 25 1 1 1
node 26 1 1 1
node 27 1 1 1
node 28 1 1 3
node 29 1 0 0
node 34 1 0 2
node 35 1 0 2
node 36 1 0 2
node 37 1 0 2
node 38 1 0 2
node 39 1 0 2
node 40 1 0 2
node 41 1 0 2
node 42 1 0 2
node 252 1 0 0
node 355 1 0 0
node 383 1 0 0
node 429 1 0 0
node 469 1 0 0
node 541 1 0 0
node 596 1 0 0
node 614 1 0 0
node 840 1 0 0
node 884 1 0 0
node 956 1 0 0
node 1125 1 0 0
node 1176 1 0 0
node 1235 1 0 0
node 1303 1 0 0
node 1386 1 0 0
node 1516 1 0 0
node 1531 1 0 0
node 1591 1 0 0
node 1653 1 0 0
node 1692 1 0 0
node 1892 1 0 0
node 1908 1 0 0
node 1944 1 0 0
gene  1 2 29 0.8000769823487465 0 1177.0 0.8000769823487465 0
gene  1 3 29 0.12098470516954818 0 1178.0 0.12098470516954818 1
gene  1 6 29 -0.42065337152840265 0 1181.0 -0.42065337152840265 1
gene  1 7 29 -0.9799903731919961 0 1182.0 -0.9799903731919961 0
gene  1 9 29 -0.22339304155849227 0 1184.0 -0.22339304155849227 1
gene  1 10 29 -0.22163423641164193 0 1185.0 -0.22163423641164193 1
gene  1 14 29 -0.08544987443205121 0 1189.0 -0.08544987443205121 1
gene  1 18 29 -0.7572342885089096 0 1193.0 -0.7572342885089096 1
gene  1 19 29 0.6840197796081819 0 1194.0 0.6840197796081819 0
gene  1 20 29 -0.7938080058751426 0 1195.0 -0.7938080058751426 1
gene  1 25 29 0.9916255744566222 0 1200.0 0.9916255744566222 1
gene  1 26 29 0.6703656126570544 0 1201.0 0.6703656126570544 1
gene  1 27 29 -0.15417881866331506 0 1202.0 -0.15417881866331506 1
gene  1 28 29 -0.718898324749991 0 1203.0 -0.718898324749991 1
gene  1 29 29 -0.005205825155019661 1 1204.0 -0.005205825155019661 1
gene  1 35 29 0.8721876074316732 1 1210.0 0.8721876074316732 1
gene  1 36 29 -0.05930141273453471 1 1211.0 -0.05930141273453471 1
gene  1 37 29 -0.23594928209541766 1 1212.0 -0.23594928209541766 1
gene  1 38 29 0.6331480525884093 1 1213.0 0.6331480525884093 1
gene  1 39 29 -0.15688064152798353 1 1214.0 -0.15688064152798353 1
gene  1 41 29 -0.6369270900392057 1 1216.0 -0.6369270900392057 1
gene  1 2 34 0.9599157967906138 0 1387.0 0.9599157967906138 1
gene  1 3 34 0.16020476513239745 0 1388.0 0.16020476513239745 1
gene  1 4 34 0.9675094595024016 0 1389.0 0.9675094595024016 1
gene  1 6 34 0.07131098321925144 0 1391.0 0.07131098321925144 0
gene  1 8 34 -0.12796102569519885 0 1393.0 -0.12796102569519885 1
gene  1 9 34 0.601094096428636 0 1394.0 0.601094096428636 1
gene  1 11 34 -0.8573412900121243 0 1396.0 -0.8573412900121243 1
gene  1 14 34 -0.7664920678052245 0 1399.0 -0.7664920678052245 1
gene  1 15 34 0.13102388731682924 0 1400.0 0.13102388731682924 1
gene  1 16 34 0.826664569421062 0 1401.0 0.826664569421062 1
gene  1 17 34 -0.03316143544299155 0 1402.0 -0.03316143544299155 1
gene  1 18 34 0.9613670448066071 0 1403.0 0.9613670448066071 1
gene  1 21 34 -0.7316877591967362 0 1406.0 -0.7316877591967362 1
gene  1 23 34 -0.43874883730173364 0 1408.0 -0.43874883730173364 1
gene  1 34 34 -0.5849887941426954 1 1419.0 -0.5849887941426954 1
gene  1 36 34 0.6673278031336042 1 1421.0 0.6673278031336042 1
gene  1 39 34 -0.8561868631755638 1 1424.0 -0.8561868631755638 1
gene  1 40 34 -0.5058800269328413 1 1425.0 -0.5058800269328413 0
gene  1 4 35 0.35677131733127987 0 1431.0 0.35677131733127987 1
gene  1 5 35 0.3107256369151876 0 1432.0 0.3107256369151876 1
gene  1 8 35 0.09245440741193123 0 1435.0 0.09245440741193123 1
gene  1 9 35 -0.31165998442664367 0 1436.0 -0.31165998442664367 1
gene  1 10 35 -0.8369769886771329 0 1437.0 -0.8369769886771329 1
gene  1 11 35 0.22417972753444437 0 1438.0 0.22417972753444437 1
gene  1 12 35 -0.12608121420521656 0 1439.0 -0.12608121420521656 1
gene  1 14 35 0.6618601954071759 0 1441.0 0.6618601954071759 0
gene  1 15 35 0.2560593896917259 0 1442.0 0.2560593896917259 1
gene  1 16 35 -0.28477257996946614 0 1443.0 -0.28477257996946614 0
gene  1 18 35 -0.13492113360370994 0 1445.0 -0.13492113360370994 1
gene  1 21 35 -0.8197155033679425 0 1448.0 -0.8197155033679425 1
gene  1 22 35 -0.43851369405232776 0 1449.0 -0.43851369405232776 1
gene  1 23 35 0.12257626095320506 0 1450.0 0.12257626095320506 0
gene  1 25 35 -0.45823432103659667 0 1452.0 -0.45823432103659667 1
gene  1 27 35 0.7376303586550441 0 1454.0 0.7376303586550441 1
gene  1 37 35 -0.14896955229605413 1 1464.0 -0.14896955229605413 1
gene  1 39 35 0.7957042057058414 1 1466.0 0.7957042057058414 1
gene  1 41 35 -0.709458512345175 1 1468.0 -0.709458512345175 1
gene  1 42 35 -0.29581776805839033 1 1469.0 -0.29581776805839033 1
gene  1 1 36 0.33218669534052525 0 1470.0 0.33218669534052525 1
gene  1 2 36 0.07103845797398445 0 1471.0 0.07103845797398445 1
gene  1 5 36 -0.44907440927573095 0 1474.0 -0.44907440927573095 1
gene  1 9 36 0.7842745109013249 0 1478.0 0.7842745109013249 0
gene  1 10 36 0.02299787752135607 0 1479.0 0.02299787752135607 0
gene  1 11 36 0.18266497695107664 0 1480.0 0.18266497695107664 1
gene  1 12 36 -0.8460928692826779 0 1481.0 -0.8460928692826779 1
gene  1 15 36 0.8358739273671371 0 1484.0 0.8358739273671371 1
gene  1 19 36 0.9006271772121995 0 1488.0 0.9006271772121995 1
gene  1 20 36 -0.4294641287837291 0 1489.0 -0.4294641287837291 0
gene  1 21 36 -0.6883207129128888 0 1490.0 -0.6883207129128888 1
gene  1 23 36 -0.5690208631925303 0 1492.0 -0.5690208631925303 1
gene  1 24 36 0.698219571240381 0 1493.0 0.698219571240381 1
gene  1 26 36 0.28272493722994085 0 1495.0 0.28272493722994085 1
gene  1 27 36 0.14201659396681043 0 1496.0 0.14201659396681043 1
gene  1 28 36 0.383925132611316 0 1497.0 0.383925132611316 1
gene  1 29 36 -0.5280467994632351 0 1498.0 -0.5280467994632351 1
gene  1 36 36 0.914432517366041 1 1505.0 0.914432517366041 1
gene  1 38 36 0.7844622528575589 1 1507.0 0.7844622528575589 1
gene  1 39 36 -0.9046492949498998 1 1508.0 -0.9046492949498998 1
gene  1 40 36 -0.8302726861456828 1 1509.0 -0.8302726861456828 1
gene  1 5 37 -0.63424304131995 0 1516.0 -0.63424304131995 1
gene  1 6 37 -0.34635347749105616 0 1517.0 -0.34635347749105616 1
gene  1 7 37 0.11908771867499279 0 1518.0 0.11908771867499279 1
gene  1 8 37 -0.14231677594762604 0 1519.0 -0.14231677594762604 1
gene  1 9 37 0.5922145830129892 0 1520.0 0.5922145830129892 1
gene  1 11 37 0.9971444844077253 0 1522.0 0.9971444844077253 1
gene  1 15 37 0.16222668999112 0 1526.0 0.16222668999112 1
gene  1 17 37 0.3700651882752628 0 1528.0 0.3700651882752628 1
gene  1 18 37 0.016077744714251718 0 1529.0 0.016077744714251718 1
gene  1 21 37 0.8123147908830826 0 1532.0 0.8123147908830826 1
gene  1 23 37 -0.15758191865909876 0 1534.0 -0.15758191865909876 1
gene  1 26 37 -0.23414088897104723 0 1537.0 -0.23414088897104723 1
gene  1 27 37 0.004062361680888693 0 1538.0 0.004062361680888693 1
gene  1 28 37 0.6881031940610762 0 1539.0 0.6881031940610762 1
gene  1 35 37 0.49265194238038534 0 1546.0 0.49265194238038534 1
gene  1 36 37 0.18622928827186624 0 1547.0 0.18622928827186624 0
gene  1 38 37 0.5817689300015388 1 1549.0 0.5817689300015388 1
gene  1 39 37 0.5620767258366542 1 1550.0 0.5620767258366542 1
gene  1 40 37 0.19347439064063554 1 1551.0 0.19347439064063554 1
gene  1 42 37 0.3235062766070139 1 1553.0 0.3235062766070139 1
gene  1 1 38 -0.9958910459479027 0 1554.0 -0.9958910459479027 1
gene  1 2 38 -0.48685539994120464 0 1555.0 -0.48685539994120464 1
gene  1 3 38 -0.18971962649355611 0 1556.0 -0.18971962649355611 1
gene  1 4 38 0.7643551961174515 0 1557.0 0.7643551961174515 1
gene  1 7 38 0.49723052192963724 0 1560.0 0.49723052192963724 1
gene  1 9 38 0.25365553107484184 0 1562.0 0.25365553107484184 0
gene  1 12 38 -0.15586321713964513 0 1565.0 -0.15586321713964513 1
gene  1 13 38 0.03597952906533197 0 1566.0 0.03597952906533197 1
gene  1 14 38 0.6457554271544704 0 1567.0 0.6457554271544704 1
gene  1 16 38 -0.7206771395051095 0 1569.0 -0.7206771395051095 0
gene  1 17 38 0.8783875582204964 0 1570.0 0.8783875582204964 1
gene  1 18 38 -0.3237940026108346 0 1571.0 -0.3237940026108346 1
gene  1 20 38 0.23365637102715175 0 1573.0 0.23365637102715175 1
gene  1 23 38 0.3517514519617153 0 1576.0 0.3517514519617153 1
gene  1 25 38 -0.25808489952854785 0 1578.0 -0.25808489952854785 1
gene  1 28 38 -0.8625478886201572 0 1581.0 -0.8625478886201572 1
gene  1 35 38 -0.5975620948261942 0 1588.0 -0.5975620948261942 1
gene  1 36 38 -0.28046880718905454 0 1589.0 -0.28046880718905454 0
gene  1 40 38 0.8066601160782629 1 1593.0 0.8066601160782629 0
gene  1 41 38 -0.3383273949906801 1 1594.0 -0.3383273949906801 0
gene  1 42 38 0.5042564165683894 1 1595.0 0.5042564165683894 1
gene  1 1 39 0.28597859349959887 0 1596.0 0.28597859349959887 0
gene  1 3 39 0.9561250271899208 0 1598.0 0.9561250271899208 1
gene  1 4 39 0.30658823695364745 0 1599.0 0.30658823695364745 1
gene  1 5 39 0.11824755978044443 0 1600.0 0.11824755978044443 1
gene  1 8 39 -0.6849282109882889 0 1603.0 -0.6849282109882889 1
gene  1 9 39 0.4579757653395272 0 1604.0 0.4579757653395272 1
gene  1 10 39 0.3112594986793651 0 1605.0 0.3112594986793651 1
gene  1 13 39 0.2641042534622786 0 1608.0 0.2641042534622786 1
gene  1 16 39 -0.330092514562478 0 1611.0 -0.330092514562478 0
gene  1 17 39 -0.3187653258463453 0 1612.0 -0.3187653258463453 1
gene  1 20 39 0.47017968666071175 0 1615.0 0.47017968666071175 0
gene  1 27 39 0.29819155480358284 0 1622.0 0.29819155480358284 1
gene  1 36 39 0.6650227755880053 0 1631.0 0.6650227755880053 1
gene  1 37 39 0.9832137052881091 0 1632.0 0.9832137052881091 1
gene  1 38 39 0.7384940769961519 0 1633.0 0.7384940769961519 1
gene  1 39 39 -0.21679093491920587 1 1634.0 -0.21679093491920587 1
gene  1 40 39 -0.35477297419864984 1 1635.0 -0.35477297419864984 1
gene  1 41 39 -0.14110167790519834 1 1636.0 -0.14110167790519834 1
gene  1 1 40 0.1993578227013143 0 1638.0 0.1993578227013143 1
gene  1 2 40 0.010923902234449945 0 1639.0 0.010923902234449945 1
gene  1 3 40 -0.11907196290578037 0 1640.0 -0.11907196290578037 1
gene  1 5 40 -0.5774113119268194 0 1642.0 -0.5774113119268194 1
gene  1 6 40 -0.49491837744200884 0 1643.0 -0.49491837744200884 1
gene  1 7 40 0.889744395198118 0 1644.0 0.889744395198118 1
gene  1 9 40 -0.4942146864012571 0 1646.0 -0.4942146864012571 1
gene  1 10 40 0.8059194466032338 0 1647.0 0.8059194466032338 1
gene  1 12 40 0.6940421999533748 0 1649.0 0.6940421999533748 1
gene  1 15 40 -0.5382223870911801 0 1652.0 -0.5382223870911801 1
gene  1 17 40 0.7858214078565543 0 1654.0 0.7858214078565543 1
gene  1 19 40 -0.8960104351320173 0 1656.0 -0.8960104351320173 1
gene  1 20 40 0.3999221629212979 0 1657.0 0.3999221629212979 1
gene  1 22 40 0.5519875160228942 0 1659.0 0.5519875160228942 1
gene  1 24 40 0.12322381046374575 0 1661.0 0.12322381046374575 1
gene  1 25 40 -0.41401326524127935 0 1662.0 -0.41401326524127935 1
gene  1 26 40 -0.9932506889850722 0 1663.0 -0.9932506889850722 1
gene  1 28 40 0.15048796302667433 0 1665.0 0.15048796302667433 1
gene  1 29 40 0.44871092646699995 0 1666.0 0.44871092646699995 1
gene  1 35 40 -0.9189271221127056 0 1672.0 -0.9189271221127056 1
gene  1 36 40 0.45713874188025483 0 1673.0 0.45713874188025483 1
gene  1 37 40 0.053772195707261106 0 1674.0 0.053772195707261106 1
gene  1 40 40 0.36671358081538685 1 1677.0 0.36671358081538685 1
gene  1 41 40 0.06489098057156628 1 1678.0 0.06489098057156628 1
gene  1 42 40 0.9698478476776481 1 1679.0 0.9698478476776481 1
gene  1 2 41 0.4098231808582128 0 1681.0 0.4098231808582128 1
gene  1 4 41 0.9191084467691149 0 1683.0 0.9191084467691149 1
gene  1 5 41 -0.3279662314093542 0 1684.0 -0.3279662314093542 1
gene  1 6 41 0.22150250348329492 0 1685.0 0.22150250348329492 1
gene  1 7 41 -0.0669405301415632 0 1686.0 -0.0669405301415632 0
gene  1 8 41 0.6574379050873355 0 1687.0 0.6574379050873355 1
gene  1 10 41 0.3734021934685583 0 1689.0 0.3734021934685583 1
gene  1 12 41 -0.4114567756621812 0 1691.0 -0.4114567756621812 1
gene  1 14 41 0.5345278199215113 0 1693.0 0.5345278199215113 1
gene  1 15 41 0.4496022471870811 0 1694.0 0.4496022471870811 1
gene  1 19 41 -0.4640785112683813 0 1698.0 -0.4640785112683813 1
gene  1 20 41 -0.9234752878714299 0 1699.0 -0.9234752878714299 1
gene  1 21 41 0.19802894419442119 0 1700.0 0.19802894419442119 1
gene  1 22 41 0.6204965595632536 0 1701.0 0.6204965595632536 1
gene  1 24 41 0.3556840390294719 0 1703.0 0.3556840390294719 1
gene  1 25 41 -0.42529684863955475 0 1704.0 -0.42529684863955475 1
gene  1 29 41 0.8287661357462845 0 1708.0 0.8287661357462845 1
gene  1 35 41 -0.6005148859143162 0 1714.0 -0.6005148859143162 1
gene  1 38 41 0.2756846523777534 0 1717.0 0.2756846523777534 1
gene  1 42 41 -0.37580144511880753 1 1721.0 -0.37580144511880753 1
gene  1 2 42 0.033044108756386414 0 1723.0 0.033044108756386414 1
gene  1 4 42 0.7945914858526648 0 1725.0 0.7945914858526648 1
gene  1 5 42 0.7094175566842221 0 1726.0 0.7094175566842221 1
gene  1 7 42 -0.7845929132994308 0 1728.0 -0.7845929132994308 1
gene  1 8 42 0.9399478173419463 0 1729.0 0.9399478173419463 1
gene  1 10 42 0.9236210815420239 0 1731.0 0.9236210815420239 1
gene  1 12 42 -0.3577672763452897 0 1733.0 -0.3577672763452897 1
gene  1 13 42 -0.302409956124599 0 1734.0 -0.302409956124599 1
gene  1 14 42 -0.35350463180419234 0 1735.0 -0.35350463180419234 1
gene  1 15 42 0.40020845111924175 0 1736.0 0.40020845111924175 1
gene  1 16 42 -0.2487409589377495 0 1737.0 -0.2487409589377495 1
gene  1 17 42 -0.9328335500323468 0 1738.0 -0.9328335500323468 1
gene  1 19 42 -0.5589048593225479 0 1740.0 -0.5589048593225479 1
gene  1 22 42 0.13662411807958075 0 1743.0 0.13662411807958075 0
gene  1 23 42 -0.21365811576952953 0 1744.0 -0.21365811576952953 1
gene  1 26 42 0.5620887923368337 0 1747.0 0.5620887923368337 1
gene  1 27 42 0.5377559322900487 0 1748.0 0.5377559322900487 1
gene  1 28 42 0.5338443010813063 0 1749.0 0.5338443010813063 1
gene  1 29 42 0.8332658462944293 0 1750.0 0.8332658462944293 1
gene  1 36 42 0.17953962175271088 0 1757.0 0.17953962175271088 1
gene  1 37 42 -0.12423494076545472 0 1758.0 -0.12423494076545472 1
gene  1 41 42 -0.7402634820073912 0 1762.0 -0.7402634820073912 1
gene  1 9 252 1.0 0 2183.0 0.0 1
gene  1 252 38 0.25365553107484184 0 2184.0 0.0 1
gene  1 40 355 1.0 1 2389.0 0.0 1
gene  1 355 34 -0.5058800269328413 0 2390.0 0.0 1
gene  1 16 383 1.0 0 2445.0 0.0 1
gene  1 383 39 -0.330092514562478 0 2446.0 0.0 1
gene  1 40 429 1.0 1 2537.0 0.0 1
gene  1 429 38 0.8066601160782629 0 2538.0 0.0 1
gene  1 16 469 1.0 0 2617.0 0.0 1
gene  1 469 35 -0.28477257996946614 0 2618.0 0.0 1
gene  1 23 541 1.0 0 2761.0 0.0 1
gene  1 541 35 0.12257626095320506 0 2762.0 0.0 1
gene  1 9 596 1.0 0 2871.0 0.0 1
gene  1 596 36 0.7842745109013249 0 2872.0 0.0 1
gene  1 16 614 1.0 0 2907.0 0.0 0
gene  1 614 38 -0.7206771395051095 0 2908.0 0.0 1
gene  1 19 840 1.0 0 3359.0 0.0 1
gene  1 840 29 0.6840197796081819 0 3360.0 0.0 1
gene  1 2 884 1.0 0 3447.0 0.0 1
gene  1 884 29 0.8000769823487465 0 3448.0 0.0 1
gene  1 6 956 1.0 0 3591.0 0.0 1
gene  1 956 34 0.07131098321925144 0 3592.0 0.0 1
gene  1 7 1125 1.0 0 3929.0 0.0 1
gene  1 1125 29 -0.9799903731919961 0 3930.0 0.0 1
gene  1 36 1176 1.0 0 4031.0 0.0 1
gene  1 1176 37 0.18622928827186624 0 4032.0 0.0 1
gene  1 36 1235 1.0 0 4149.0 0.0 1
gene  1 1235 38 -0.28046880718905454 0 4150.0 0.0 1
gene  1 14 1303 1.0 0 4285.0 0.0 1
gene  1 1303 35 0.6618601954071759 0 4286.0 0.0 1
gene  1 20 1386 1.0 0 4451.0 0.0 1
gene  1 1386 39 0.47017968666071175 0 4452.0 0.0 1
gene  1 10 1516 1.0 0 4711.0 0.0 1
gene  1 1516 36 0.02299787752135607 0 4712.0 0.0 1
gene  1 7 1531 1.0 0 4741.0 0.0 1
gene  1 1531 41 -0.0669405301415632 0 4742.0 0.0 1
gene  1 20 1591 1.0 0 4861.0 0.0 1
gene  1 1591 36 -0.4294641287837291 0 4862.0 0.0 1
gene  1 16 1653 1.0 0 4985.0 0.0 1
gene  1 1653 614 1.0 0 4986.0 0.0 1
gene  1 41 1692 1.0 1 5063.0 0.0 0
gene  1 1692 38 -0.3383273949906801 0 5064.0 0.0 1
gene  1 41 1892 1.0 1 5463.0 0.0 1
gene  1 1892 1692 1.0 0 5464.0 0.0 1
gene  1 22 1908 1.0 0 5495.0 0.0 1
gene  1 1908 42 0.13662411807958075 0 5496.0 0.0 1
gene  1 1 1944 1.0 0 5567.0 0.0 1
gene  1 1944 39 0.28597859349959887 0 5568.0 0.0 1
genomeend 4
/* Organism # 005 Fitness:  0.000 Error:  0.000                      */
genomestart  5
trait 1 0.0 0.0 0.0 0.0 0.0 0.0 0.0 0.0 
node 1 1 1 1
node 2 1 1 1
node 3 1 1 1
node 4 1 1 1
node 5 1 1 1
node 6 1 1 1
node 7 1 1 1
node 8 1 1 1
node 9 1 1 1
node 10 1 1 1
node 11 1 1 1
node 12 1 1 1
node 13 1 1 1
node 14 1 1 1
node 15 1 1 1
node 16 1 1 1
node 17 1 1 1
node 18 1 1 1
node 19 1 1 1
node 20 1 1 1
node 21 1 1 1
node 22 1 1 1
node 23 1 1 1
node 24 1 1 1
node 25 1 1 1
node 26 1 1 1
node 27 1 1 1
node 28 1 1 3
node 29 1 0 0
node 34 1 0 2
node 35 1 0 2
node 36 1 0 2
node 37 1 0 2
node 38 1 0 2
node 39 1 0 2
node 40 1 0 2
node 41 1 0 2
node 42 1 0 2
node 252 1 0 0
node 355 1 0 0
node 383 1 0 0
node 429 1 0 0
node 469 1 0 0
node 541 1 0 0
node 596 1 0 0
node 614 1 0 0
node 840 1 0 0
node 884 1 0 0
node 956 1 0 0
node 1125 1 0 0
node 1176 1 0 0
node 1235 1 0 0
node 1303 1 0 0
node 1386 1 0 0
node 1516 1 0 0
node 1531 1 0 0
node 1591 1 0 0
node 1653 1 0 0
node 1692 1 0 0
node 1892 1 0 0
node 1908 1 0 0
node 1944 1 0 0
gene  1 2 29 0.8000769823487465 0 1177.0 0.8000769823487465 0
gene  1 3 29 0.12098470516954818 0 1178.0 0.12098470516954818 1
gene  1 6 29 -0.42065337152840265 0 1181.0 -0.42065337152840265 1
gene  1 7 29 -0.9799903731919961 0 1182.0 -0.9799903731919961 0
gene  1 9 29 -0.22339304155849227 0 1184.0 -0.22339304155849227 1
gene  1 10 29 -0.22163423641164193 0 1185.0 -0.22163423641164193 1
gene  1 14 29 -0.08544987443205121 0 1189.0 -0.08544987443205121 1
gene  1 18 29 -0.7572342885089096 0 1193.0 -0.7572342885089096 1
gene  1 19 29 0.6840197796081819 0 1194.0 0.6840197796081819 0
gene  1 20 29 -0.7938080058751426 0 1195.0 -0.7938080058751426 1
gene  1 25 29 0.9916255744566222 0 1200.0 0.9916255744566222 1
gene  1 26 29 0.6703656126570544 0 1201.0 0.6703656126570544 1
gene  1 27 29 -0.15417881866331506 0 1202.0 -0.15417881866331506 1
gene  1 28 29 -0.718898324749991 0 1203.0 -0.718898324749991 1
gene  1 29 29 -0.005205825155019661 1 1204.0 -0.005205825155019661 1
gene  1 35 29 0.8721876074316732 1 1210.0 0.8721876074316732 1
gene  1 36 29 -0.05930141273453471 1 1211.0 -0.05930141273453471 1
gene  1 37 29 -0.23594928209541766 1 1212.0 -0.23594928209541766 1
gene  1 38 29 0.6331480525884093 1 1213.0 0.6331480525884093 1
gene  1 39 29 -0.15688064152798353 1 1214.0 -0.15688064152798353 1
gene  1 41 29 -0.6369270900392057 1 1216.0 -0.6369270900392057 1
gene  1 2 34 0.9599157967906138 0 1387.0 0.9599157967906138 1
gene  1 3 34 0.16020476513239745 0 1388.0 0.16020476513239745 1
gene  1 4 34 0.9675094595024016 0 1389.0 0.9675094595024016 1
gene  1 6 34 0.07131098321925144 0 1391.0 0.07131098321925144 0
gene  1 8 34 -0.12796102569519885 0 1393.0 -0.12796102569519885 1
gene  1 9 34 0.601094096428636 0 1394.0 0.601094096428636 1
gene  1 11 34 -0.8573412900121243 0 1396.0 -0.8573412900121243 1
gene  1 14 34 -0.7664920678052245 0 1399.0 -0.7664920678052245 1
gene  1 15 34 0.13102388731682924 0 1400.0 0.13102388731682924 1
gene  1 16 34 0.826664569421062 0 1401.0 0.826664569421062 1
gene  1 17 34 -0.03316143544299155 0 1402.0 -0.03316143544299155 1
gene  1 18 34 0.9613670448066071 0 1403.0 0.9613670448066071 1
gene  1 21 34 -0.7316877591967362 0 1406.0 -0.7316877591967362 1
gene  1 23 34 -0.43874883730173364 0 1408.0 -0.43874883730173364 1
gene  1 34 34 -0.5849887941426954 1 1419.0 -0.5849887941426954 1
gene  1 36 34 0.6673278031336042 1 1421.0 0.6673278031336042 1
gene  1 39 34 -0.8561868631755638 1 1424.0 -0.8561868631755638 1
gene  1 40 34 -0.5058800269328413 1 1425.0 -0.5058800269328413 0
gene  1 4 35 0.35677131733127987 0 1431.0 0.35677131733127987 1
gene  1 5 35 0.3107256369151876 0 1432.0 0.3107256369151876 1
gene  1 8 35 0.09245440741193123 0 1435.0 0.09245440741193123 1
gene  1 9 35 -0.31165998442664367 0 1436.0 -0.31165998442664367 1
gene  1 10 35 -0.8369769886771329 0 1437.0 -0.8369769886771329 1
gene  1 11 35 0.22417972753444437 0 1438.0 0.22417972753444437 1
gene  1 12 35 -0.12608121420521656 0 1439.0 -0.12608121420521656 1
gene  1 14 35 0.6618601954071759 0 1441.0 0.6618601954071759 0
gene  1 15 35 0.2560593896917259 0 1442.0 0.2560593896917259 1
gene  1 16 35 -0.28477257996946614 0 1443.0 -0.28477257996946614 0
gene  1 18 35 -0.13492113360370994 0 1445.0 -0.13492113360370994 1
gene  1 21 35 -0.8197155033679425 0 1448.0 -0.8197155033679425 1
gene  1 22 35 -0.43851369405232776 0 1449.0 -0.43851369405232776 1
gene  1 23 35 0.12257626095320506 0 1450.0 0.12257626095320506 0
gene  1 25 35 -0.45823432103659667 0 1452.0 -0.45823432103659667 1
gene  1 27 35 0.7376303586550441 0 1454.0 0.7376303586550441 1
gene  1 37 35 -0.14896955229605413 1 1464.0 -0.14896955229605413 1
gene  1 39 35 0.7957042057058414 1 1466.0 0.7957042057058414 1
gene  1 41 35 -0.709458512345175 1 1468.0 -0.709458512345175 1
gene  1 42 35 -0.29581776805839033 1 1469.0 -0.29581776805839033 1
gene  1 1 36 0.33218669534052525 0 1470.0 0.33218669534052525 1
gene  1 2 36 0.07103845797398445 0 1471.0 0.07103845797398445 1
gene  1 5 36 -0.44907440927573095 0 1474.0 -0.44907440927573095 1
gene  1 9 36 0.7842745109013249 0 1478.0 0.7842745109013249 0
gene  1 10 36 0.02299787752135607 0 1479.0 0.02299787752135607 0
gene  1 11 36 0.18266497695107664 0 1480.0 0.18266497695107664 1
gene  1 12 36 -0.8460928692826779 0 1481.0 -0.8460928692826779 1
gene  1 15 36 0.8358739273671371 0 1484.0 0.8358739273671371 1
gene  1 19 36 0.9006271772121995 0 1488.0 0.9006271772121995 1
gene  1 20 36 -0.4294641287837291 0 1489.0 -0.4294641287837291 0
gene  1 21 36 -0.6883207129128888 0 1490.0 -0.6883207129128888 1
gene  1 23 36 -0.5690208631925303 0 1492.0 -0.5690208631925303 1
gene  1 24 36 0.698219571240381 0 1493.0 0.698219571240381 1
gene  1 26 36 0.28272493722994085 0 1495.0 0.28272493722994085 1
gene  1 27 36 0.14201659396681043 0 1496.0 0.14201659396681043 1
gene  1 28 36 0.383925132611316 0 1497.0 0.383925132611316 1
gene  1 29 36 -0.5280467994632351 0 1498.0 -0.5280467994632351 1
gene  1 36 36 0.914432517366041 1 1505.0 0.914432517366041 1
gene  1 38 36 0.7844622528575589 1 1507.0 0.7844622528575589 1
gene  1 39 36 -0.9046492949498998 1 1508.0 -0.9046492949498998 1
gene  1 40 36 -0.8302726861456828 1 1509.0 -0.8302726861456828 1
gene  1 5 37 -0.63424304131995 0 1516.0 -0.63424304131995 1
gene  1 6 37 -0.34635347749105616 0 1517.0 -0.34635347749105616 1
gene  1 7 37 0.11908771867499279 0 1518.0 0.11908771867499279 1
gene  1 8 37 -0.14231677594762604 0 1519.0 -0.14231677594762604 1
gene  1 9 37 0.5922145830129892 0 1520.0 0.5922145830129892 1
gene  1 11 37 0.9971444844077253 0 1522.0 0.9971444844077253 1
gene  1 15 37 0.16222668999112 0 1526.0 0.16222668999112 1
gene  1 17 37 0.3700651882752628 0 1528.0 0.3700651882752628 1
gene  1 18 37 0.016077744714251718 0 1529.0 0.016077744714251718 1
gene  1 21 37 0.8123147908830826 0 1532.0 0.8123147908830826 1
gene  1 23 37 -0.15758191865909876 0 1534.0 -0.15758191865909876 1
gene  1 26 37 -0.23414088897104723 0 1537.0 -0.23414088897104723 1
gene  1 27 37 0.004062361680888693 0 1538.0 0.004062361680888693 1
gene  1 28 37 0.6881031940610762 0 1539.0 0.6881031940610762 1
gene  1 35 37 0.49265194238038534 0 1546.0 0.49265194238038534 1
gene  1 36 37 0.18622928827186624 0 1547.0 0.18622928827186624 0
gene  1 38 37 0.5817689300015388 1 1549.0 0.5817689300015388 1
gene  1 39 37 0.5620767258366542 1 1550.0 0.5620767258366542 1
gene  1 40 37 0.19347439064063554 1 1551.0 0.19347439064063554 1
gene  1 42 37 0.3235062766070139 1 1553.0 0.3235062766070139 1
gene  1 1 38 -0.9958910459479027 0 1554.0 -0.9958910459479027 1
gene  1 2 38 -0.48685539994120464 0 1555.0 -0.48685539994120464 1
gene  1 3 38 -0.18971962649355611 0 1556.0 -0.18971962649355611 1
gene  1 4 38 0.7643551961174515 0 1557.0 0.7643551961174515 1
gene  1 7 38 0.49723052192963724 0 1560.0 0.49723052192963724 1
gene  1 9 38 0.25365553107484184 0 1562.0 0.25365553107484184 0
gene  1 12 38 -0.15586321713964513 0 1565.0 -0.15586321713964513 1
gene  1 13 38 0.03597952906533197 0 1566.0 0.03597952906533197 1
gene  1 14 38 0.6457554271544704 0 1567.0 0.6457554271544704 1
gene  1 16 38 -0.7206771395051095 0 1569.0 -0.7206771395051095 0
gene  1 17 38 0.8783875582204964 0 1570.0 0.8783875582204964 1
gene  1 18 38 -0.3237940026108346 0 1571.0 -0.3237940026108346 1
gene  1 20 38 0.23365637102715175 0 1573.0 0.23365637102715175 1
gene  1 23 38 0.3517514519617153 0 1576.0 0.3517514519617153 1
gene  1 25 38 -0.25808489952854785 0 1578.0 -0.25808489952854785 1
gene  1 28 38 -0.8625478886201572 0 1581.0 -0.8625478886201572 1
gene  1 35 38 -0.5975620948261942 0 1588.0 -0.5975620948261942 1
gene  1 36 38 -0.28046880718905454 0 1589.0 -0.28046880718905454 0
gene  1 40 38 0.8066601160782629 1 1593.0 0.8066601160782629 0
gene  1 41 38 -0.3383273949906801 1 1594.0 -0.3383273949906801 0
gene  1 42 38 0.5042564165683894 1 1595.0 0.5042564165683894 1
gene  1 1 39 0.28597859349959887 0 1596.0 0.28597859349959887 0
gene  1 3 39 0.9561250271899208 0 1598.0 0.9561250271899208 1
gene  1 4 39 0.30658823695364745 0 1599.0 0.30658823695364745 1
gene  1 5 39 0.11824755978044443 0 1600.0 0.11824755978044443 1
gene  1 8 39 -0.6849282109882889 0 1603.0 -0.6849282109882889 1
gene  1 9 39 0.4579757653395272 0 1604.0 0.4579757653395272 1
gene  1 10 39 0.3112594986793651 0 1605.0 0.3112594986793651 1
gene  1 13 39 0.2641042534622786 0 1608.0 0.2641042534622786 1
gene  1 16 39 -0.330092514562478 0 1611.0 -0.330092514562478 0
gene  1 17 39 -0.3187653258463453 0 1612.0 -0.3187653258463453 1
gene  1 20 39 0.47017968666071175 0 1615.0 0.47017968666071175 0
gene  1 27 39 0.29819155480358284 0 1622.0 0.29819155480358284 1
gene  1 36 39 0.6650227755880053 0 1631.0 0.6650227755880053 1
gene  1 37 39 0.9832137052881091 0 1632.0 0.9832137052881091 1
gene  1 38 39 0.7384940769961519 0 1633.0 0.7384940769961519 1
gene  1 39 39 -0.21679093491920587 1 1634.0 -0.21679093491920587 1
gene  1 40 39 -0.35477297419864984 1 1635.0 -0.35477297419864984 1
gene  1 41 39 -0.14110167790519834 1 1636.0 -0.14110167790519834 1
gene  1 1 40 0.1993578227013143 0 1638.0 0.1993578227013143 1
gene  1 2 40 0.010923902234449945 0 1639.0 0.010923902234449945 1
gene  1 3 40 -0.11907196290578037 0 1640.0 -0.11907196290578037 1
gene  1 5 40 -0.5774113119268194 0 1642.0 -0.5774113119268194 1
gene  1 6 40 -0.49491837744200884 0 1643.0 -0.49491837744200884 1
gene  1 7 40 0.889744395198118 0 1644.0 0.889744395198118 1
gene  1 9 40 -0.4942146864012571 0 1646.0 -0.4942146864012571 1
gene  1 10 40 0.8059194466032338 0 1647.0 0.8059194466032338 1
gene  1 12 40 0.6940421999533748 0 1649.0 0.6940421999533748 1
gene  1 15 40 -0.5382223870911801 0 1652.0 -0.5382223870911801 1
gene  1 17 40 0.7858214078565543 0 1654.0 0.7858214078565543 1
gene  1 19 40 -0.8960104351320173 0 1656.0 -0.8960104351320173 1
gene  1 20 40 0.3999221629212979 0 1657.0 0.3999221629212979 1
gene  1 22 40 0.5519875160228942 0 1659.0 0.5519875160228942 1
gene  1 24 40 0.12322381046374575 0 1661.0 0.12322381046374575 1
gene  1 25 40 -0.41401326524127935 0 1662.0 -0.41401326524127935 1
gene  1 26 40 -0.9932506889850722 0 1663.0 -0.9932506889850722 1
gene  1 28 40 0.15048796302667433 0 1665.0 0.15048796302667433 1
gene  1 29 40 0.44871092646699995 0 1666.0 0.44871092646699995 1
gene  1 35 40 -0.9189271221127056 0 1672.0 -0.9189271221127056 1
gene  1 36 40 0.45713874188025483 0 1673.0 0.45713874188025483 1
gene  1 37 40 0.053772195707261106 0 1674.0 0.053772195707261106 1
gene  1 40 40 0.36671358081538685 1 1677.0 0.36671358081538685 1
gene  1 41 40 0.06489098057156628 1 1678.0 0.06489098057156628 1
gene  1 42 40 0.9698478476776481 1 1679.0 0.9698478476776481 1
gene  1 2 41 0.4098231808582128 0 1681.0 0.4098231808582128 1
gene  1 4 41 0.9191084467691149 0 1683.0 0.9191084467691149 1
gene  1 5 41 -0.3279662314093542 0 1684.0 -0.3279662314093542 1
gene  1 6 41 0.22150250348329492 0 1685.0 0.22150250348329492 1
gene  1 7 41 -0.0669405301415632 0 1686.0 -0.0669405301415632 0
gene  1 8 41 0.6574379050873355 0 1687.0 0.6574379050873355 1
gene  1 10 41 0.3734021934685583 0 1689.0 0.3734021934685583 1
gene  1 12 41 -0.4114567756621812 0 1691.0 -0.4114567756621812 1
gene  1 14 41 0.5345278199215113 0 1693.0 0.5345278199215113 1
gene  1 15 41 0.4496022471870811 0 1694.0 0.4496022471870811 1
gene  1 19 41 -0.4640785112683813 0 1698.0 -0.4640785112683813 1
gene  1 20 41 -0.9234752878714299 0 1699.0 -0.9234752878714299 1
gene  1 21 41 0.19802894419442119 0 1700.0 0.19802894419442119 1
gene  1 22 41 0.6204965595632536 0 1701.0 0.6204965595632536 1
gene  1 24 41 0.3556840390294719 0 1703.0 0.3556840390294719 1
gene  1 25 41 -0.42529684863955475 0 1704.0 -0.42529684863955475 1
gene  1 29 41 0.8287661357462845 0 1708.0 0.8287661357462845 1
gene  1 35 41 -0.6005148859143162 0 1714.0 -0.6005148859143162 1
gene  1 38 41 0.2756846523777534 0 1717.0 0.2756846523777534 1
gene  1 42 41 -0.37580144511880753 1 1721.0 -0.37580144511880753 1
gene  1 2 42 0.033044108756386414 0 1723.0 0.033044108756386414 1
gene  1 4 42 0.7945914858526648 0 1725.0 0.7945914858526648 1
gene  1 5 42 0.7094175566842221 0 1726.0 0.7094175566842221 1
gene  1 7 42 -0.7845929132994308 0 1728.0 -0.7845929132994308 1
gene  1 8 42 0.9399478173419463 0 1729.0 0.9399478173419463 1
gene  1 10 42 0.9236210815420239 0 1731.0 0.9236210815420239 1
gene  1 12 42 -0.3577672763452897 0 1733.0 -0.3577672763452897 1
gene  1 13 42 -0.302409956124599 0 1734.0 -0.302409956124599 1
gene  1 14 42 -0.35350463180419234 0 1735.0 -0.35350463180419234 1
gene  1 15 42 0.40020845111924175 0 1736.0 0.40020845111924175 1
gene  1 16 42 -0.2487409589377495 0 1737.0 -0.2487409589377495 1
gene  1 17 42 -0.9328335500323468 0 1738.0 -0.9328335500323468 1
gene  1 19 42 -0.5589048593225479 0 1740.0 -0.5589048593225479 1
gene  1 22 42 0.13662411807958075 0 1743.0 0.13662411807958075 0
gene  1 23 42 -0.21365811576952953 0 1744.0 -0.21365811576952953 1
gene  1 26 42 0.5620887923368337 0 1747.0 0.5620887923368337 1
gene  1 27 42 0.5377559322900487 0 1748.0 0.5377559322900487 1
gene  1 28 42 0.5338443010813063 0 1749.0 0.5338443010813063 1
gene  1 29 42 0.8332658462944293 0 1750.0 0.8332658462944293 1
gene  1 36 42 0.17953962175271088 0 1757.0 0.17953962175271088 1
gene  1 37 42 -0.12423494076545472 0 1758.0 -0.12423494076545472 1
gene  1 41 42 -0.7402634820073912 0 1762.0 -0.7402634820073912 1
gene  1 9 252 1.0 0 2183.0 0.0 1
gene  1 252 38 0.25365553107484184 0 2184.0 0.0 1
gene  1 40 355 1.0 1 2389.0 0.0 1
gene  1 355 34 -0.5058800269328413 0 2390.0 0.0 1
gene  1 16 383 1.0 0 2445.0 0.0 1
gene  1 383 39 -0.330092514562478 0 2446.0 0.0 1
gene  1 40 429 1.0 1 2537.0 0.0 1
gene  1 429 38 0.8066601160782629 0 2538.0 0.0 1
gene  1 16 469 1.0 0 2617.0 0.0 1
gene  1 469 35 -0.28477257996946614 0 2618.0 0.0 1
gene  1 23 541 1.0 0 2761.0 0.0 1
gene  1 541 35 0.12257626095320506 0 2762.0 0.0 1
gene  1 9 596 1.0 0 2871.0 0.0 1
gene  1 596 36 0.7842745109013249 0 2872.0 0.0 1
gene  1 16 614 1.0 0 2907.0 0.0 0
gene  1 614 38 -0.7206771395051095 0 2908.0 0.0 1
gene  1 19 840 1.0 0 3359.0 0.0 1
gene  1 840 29 0.6840197796081819 0 3360.0 0.0 1
gene  1 2 884 1.0 0 3447.0 0.0 1
gene  1 884 29 0.8000769823487465 0 3448.0 0.0 1
gene  1 6 956 1.0 0 3591.0 0.0 1
gene  1 956 34 0.07131098321925144 0 3592.0 0.0 1
gene  1 7 1125 1.0 0 3929.0 0.0 1
gene  1 1125 29 -0.9799903731919961 0 3930.0 0.0 1
gene  1 36 1176 1.0 0 4031.0 0.0 1
gene  1 1176 37 0.18622928827186624 0 4032.0 0.0 1
gene  1 36 1235 1.0 0 4149.0 0.0 1
gene  1 1235 38 -0.28046880718905454 0 4150.0 0.0 1
gene  1 14 1303 1.0 0 4285.0 0.0 1
gene  1 1303 35 0.6618601954071759 0 4286.0 0.0 1
gene  1 20 1386 1.0 0 4451.0 0.0 1
gene  1 1386 39 0.47017968666071175 0 4452.0 0.0 1
gene  1 10 1516 1.0 0 4711.0 0.0 1
gene  1 1516 36 0.02299787752135607 0 4712.0 0.0 1
gene  1 7 1531 1.0 0 4741.0 0.0 1
gene  1 1531 41 -0.0669405301415632 0 4742.0 0.0 1
gene  1 20 1591 1.0 0 4861.0 0.0 1
gene  1 1591 36 -0.4294641287837291 0 4862.0 0.0 1
gene  1 16 1653 1.0 0 4985.0 0.0 1
gene  1 1653 614 1.0 0 4986.0 0.0 1
gene  1 41 1692 1.0 1 5063.0 0.0 0
gene  1 1692 38 -0.3383273949906801 0 5064.0 0.0 1
gene  1 41 1892 1.0 1 5463.0 0.0 1
gene  1 1892 1692 1.0 0 5464.0 0.0 1
gene  1 22 1908 1.0 0 5495.0 0.0 1
gene  1 1908 42 0.13662411807958075 0 5496.0 0.0 1
gene  1 1 1944 1.0 0 5567.0 0.0 1
gene  1 1944 39 0.28597859349959887 0 5568.0 0.0 1
genomeend 5
/* Organism # 006 Fitness:  0.000 Error:  0.000                      */
genomestart  6
trait 1 0.0 0.0 0.0 0.0 0.0 0.0 0.0 0.0 
node 1 1 1 1
node 2 1 1 1
node 3 1 1 1
node 4 1 1 1
node 5 1 1 1
node 6 1 1 1
node 7 1 1 1
node 8 1 1 1
node 9 1 1 1
node 10 1 1 1
node 11 1 1 1
node 12 1 1 1
node 13 1 1 1
node 14 1 1 1
node 15 1 1 1
node 16 1 1 1
node 17 1 1 1
node 18 1 1 1
node 19 1 1 1
node 20 1 1 1
node 21 1 1 1
node 22 1 1 1
node 23 1 1 1
node 24 1 1 1
node 25 1 1 1
node 26 1 1 1
node 27 1 1 1
node 28 1 1 3
node 29 1 0 0
node 34 1 0 2
node 35 1 0 2
node 36 1 0 2
node 37 1 0 2
node 38 1 0 2
node 39 1 0 2
node 40 1 0 2
node 41 1 0 2
node 42 1 0 2
node 252 1 0 0
node 355 1 0 0
node 383 1 0 0
node 429 1 0 0
node 469 1 0 0
node 541 1 0 0
node 596 1 0 0
node 614 1 0 0
node 840 1 0 0
node 884 1 0 0
node 956 1 0 0
node 1125 1 0 0
node 1176 1 0 0
node 1235 1 0 0
node 1303 1 0 0
node 1386 1 0 0
node 1516 1 0 0
node 1531 1 0 0
node 1591 1 0 0
node 1653 1 0 0
node 1692 1 0 0
node 1892 1 0 0
node 1908 1 0 0
node 1944 1 0 0
gene  1 2 29 0.8000769823487465 0 1177.0 0.8000769823487465 0
gene  1 3 29 0.12098470516954818 0 1178.0 0.12098470516954818 1
gene  1 6 29 -0.42065337152840265 0 1181.0 -0.42065337152840265 1
gene  1 7 29 -0.9799903731919961 0 1182.0 -0.9799903731919961 0
gene  1 9 29 -0.22339304155849227 0 1184.0 -0.22339304155849227 1
gene  1 10 29 -0.22163423641164193 0 1185.0 -0.22163423641164193 1
gene  1 14 29 -0.08544987443205121 0 1189.0 -0.08544987443205121 1
gene  1 18 29 -0.7572342885089096 0 1193.0 -0.7572342885089096 1
gene  1 19 29 0.6840197796081819 0 1194.0 0.6840197796081819 0
gene  1 20 29 -0.7938080058751426 0 1195.0 -0.7938080058751426 1
gene  1 25 29 0.9916255744566222 0 1200.0 0.9916255744566222 1
gene  1 26 29 0.6703656126570544 0 1201.0 0.6703656126570544 1
gene  1 27 29 -0.15417881866331506 0 1202.0 -0.15417881866331506 1
gene  1 28 29 -0.718898324749991 0 1203.0 -0.718898324749991 1
gene  1 29 29 -0.005205825155019661 1 1204.0 -0.005205825155019661 1
gene  1 35 29 0.8721876074316732 1 1210.0 0.8721876074316732 1
