/* Species # 008         : (size= 100) (AvfFit= 0.000) (Age= 167.000)  */
/*-------------------------------------------------------------------*/
/* Organism # 000 Fitness:  0.000 Error:  0.000                      */
genomestart  0
trait 1 0.0 0.0 0.0 0.0 0.0 0.0 0.0 0.0 
node 1 1 1 1
node 2 1 1 1
node 3 1 1 1
node 4 1 1 1
node 5 1 1 1
node 6 1 1 1
node 7 1 1 1
node 8 1 1 1
node 9 1 1 1
node 10 1 1 1
node 11 1 1 1
node 12 1 1 1
node 13 1 1 1
node 14 1 1 1
node 15 1 1 1
node 16 1 1 1
node 17 1 1 1
node 18 1 1 1
node 19 1 1 1
node 20 1 1 1
node 21 1 1 1
node 22 1 1 1
node 23 1 1 1
node 24 1 1 1
node 25 1 1 1
node 26 1 1 1
node 27 1 1 1
node 28 1 1 3
node 29 1 0 0
node 30 1 0 0
node 31 1 0 0
node 34 1 0 2
node 35 1 0 2
node 36 1 0 2
node 37 1 0 2
node 38 1 0 2
node 39 1 0 2
node 40 1 0 2
node 41 1 0 2
node 42 1 0 2
node 54 1 0 0
node 9463 1 0 0
node 9478 1 0 0
node 9501 1 0 0
node 9520 1 0 0
node 9549 1 0 0
node 11908 1 0 0
node 11933 1 0 0
node 11982 1 0 0
node 11997 1 0 0
node 12015 1 0 0
node 53286 1 0 0
node 53400 1 0 0
node 53446 1 0 0
node 53468 1 0 0
node 53486 1 0 0
node 101059 1 0 0
node 101082 1 0 0
node 101128 1 0 0
node 101146 1 0 0
node 101172 1 0 0
node 141505 1 0 0
node 141514 1 0 0
node 141535 1 0 0
node 141549 1 0 0
node 141569 1 0 0
node 167618 1 0 0
node 167639 1 0 0
node 167654 1 0 0
node 167674 1 0 0
node 167693 1 0 0
node 182069 1 0 0
node 182118 1 0 0
node 182177 1 0 0
node 182194 1 0 0
node 182213 1 0 0
node 231583 1 0 0
node 231624 1 0 0
node 231706 1 0 0
node 231773 1 0 0
node 231793 1 0 0
node 293415 1 0 0
node 293435 1 0 0
node 293462 1 0 0
node 293483 1 0 0
node 293509 1 0 0
node 330995 1 0 0
node 331015 1 0 0
node 331073 1 0 0
node 331173 1 0 0
node 331198 1 0 0
node 332233 1 0 0
node 332322 1 0 0
node 332358 1 0 0
node 332374 1 0 0
node 332399 1 0 0
node 410042 1 0 0
node 410068 1 0 0
node 410106 1 0 0
node 410126 1 0 0
node 410144 1 0 0
node 419650 1 0 0
node 419672 1 0 0
node 419691 1 0 0
node 419711 1 0 0
node 419728 1 0 0
node 426773 1 0 0
node 426819 1 0 0
node 426835 1 0 0
node 426850 1 0 0
node 426869 1 0 0
node 435775 1 0 0
node 435796 1 0 0
node 435815 1 0 0
node 435837 1 0 0
node 435866 1 0 0
node 502000 1 0 0
node 502017 1 0 0
node 502098 1 0 0
node 502113 1 0 0
node 502138 1 0 0
node 551682 1 0 0
node 551702 1 0 0
node 551781 1 0 0
node 551829 1 0 0
node 551846 1 0 0
node 621252 1 0 0
node 621273 1 0 0
node 621293 1 0 0
node 621371 1 0 0
node 621391 1 0 0
node 623213 1 0 0
node 623232 1 0 0
node 623258 1 0 0
node 623294 1 0 0
node 623319 1 0 0
node 627287 1 0 0
node 627304 1 0 0
node 627342 1 0 0
node 627418 1 0 0
node 627436 1 0 0
node 631085 1 0 0
node 631106 1 0 0
node 631139 1 0 0
node 631176 1 0 0
node 631196 1 0 0
node 637669 1 0 0
node 637692 1 0 0
node 637710 1 0 0
node 637727 1 0 0
node 637747 1 0 0
node 682588 1 0 0
node 682656 1 0 0
node 682675 1 0 0
node 682693 1 0 0
node 682710 1 0 0
node 733560 1 0 0
node 733597 1 0 0
node 733614 1 0 0
node 733636 1 0 0
node 733660 1 0 0
node 741068 1 0 0
node 741089 1 0 0
node 741113 1 0 0
node 741149 1 0 0
node 741169 1 0 0
node 753374 1 0 0
node 753390 1 0 0
node 753404 1 0 0
node 753417 1 0 0
node 753441 1 0 0
node 850003 1 0 0
node 850018 1 0 0
node 850054 1 0 0
node 850066 1 0 0
node 850090 1 0 0
node 894826 1 0 0
node 894898 1 0 0
node 894920 1 0 0
node 894937 1 0 0
node 894962 1 0 0
node 900144 1 0 0
node 900169 1 0 0
node 900187 1 0 0
node 900245 1 0 0
node 900264 1 0 0
node 906247 1 0 0
node 906290 1 0 0
node 906304 1 0 0
node 906350 1 0 0
node 906370 1 0 0
gene  1 1 29 0.8817865995815668 0 1176.0 0.8817865995815668 1
gene  1 5 29 -0.4608115883523288 0 1180.0 -0.4608115883523288 1
gene  1 7 29 -0.549940620437399 0 1182.0 -0.549940620437399 0
gene  1 8 29 -0.7631288790595535 0 1183.0 -0.7631288790595535 1
gene  1 10 29 0.1658152747637912 0 1185.0 0.1658152747637912 1
gene  1 11 29 0.8156513601363397 0 1186.0 0.8156513601363397 1
gene  1 20 29 0.962881798860341 0 1195.0 0.962881798860341 1
gene  1 21 29 0.5052850270871289 0 1196.0 0.5052850270871289 1
gene  1 22 29 0.6644070316372295 0 1197.0 0.6644070316372295 0
gene  1 23 29 -0.7544976750322352 0 1198.0 -0.7544976750322352 0
gene  1 25 29 0.8412875383183833 0 1200.0 0.8412875383183833 0
gene  1 28 29 0.9745842536586754 0 1203.0 0.9745842536586754 1
gene  1 29 29 0.7249191102258477 1 1204.0 0.7249191102258477 0
gene  1 34 29 -0.13479081475267463 1 1209.0 -0.13479081475267463 0
gene  1 35 29 -0.10601669784338286 1 1210.0 -0.10601669784338286 1
gene  1 37 29 -0.08835950982477936 1 1212.0 -0.08835950982477936 0
gene  1 38 29 0.9804622333801951 1 1213.0 0.9804622333801951 0
gene  1 39 29 -0.8443372131125152 1 1214.0 -0.8443372131125152 0
gene  1 41 29 0.7957099515185596 1 1216.0 0.7957099515185596 1
gene  1 2 34 -0.9714718897342378 0 1387.0 -0.9714718897342378 1
gene  1 3 34 0.7914540647200231 0 1388.0 0.7914540647200231 0
gene  1 4 34 0.07706986818632311 0 1389.0 0.07706986818632311 1
gene  1 5 34 -0.8481902811154257 0 1390.0 -0.8481902811154257 1
gene  1 10 34 0.8978884983447627 0 1395.0 0.8978884983447627 1
gene  1 11 34 0.8222371381906395 0 1396.0 0.8222371381906395 0
gene  1 16 34 0.21291844126109105 0 1401.0 0.21291844126109105 1
gene  1 19 34 0.6727706469934881 0 1404.0 0.6727706469934881 0
gene  1 26 34 -0.8156562036882058 0 1411.0 -0.8156562036882058 0
gene  1 35 34 0.239339046443803 1 1420.0 0.239339046443803 1
gene  1 39 34 0.4912584047116997 1 1424.0 0.4912584047116997 1
gene  1 40 34 -0.07763863414624106 1 1425.0 -0.07763863414624106 1
gene  1 41 34 0.23787399413521448 1 1426.0 0.23787399413521448 1
gene  1 5 35 0.7906769792293512 0 1432.0 0.7906769792293512 0
gene  1 6 35 -0.23751070826791543 0 1433.0 -0.23751070826791543 1
gene  1 10 35 -0.27773273338784477 0 1437.0 -0.27773273338784477 1
gene  1 14 35 -0.5181112610302246 0 1441.0 -0.5181112610302246 0
gene  1 17 35 0.9041166212330641 0 1444.0 0.9041166212330641 1
gene  1 18 35 -0.1656208285915246 0 1445.0 -0.1656208285915246 0
gene  1 19 35 0.5000774307565105 0 1446.0 0.5000774307565105 1
gene  1 23 35 -0.28818231004211003 0 1450.0 -0.28818231004211003 0
gene  1 24 35 0.7857341093661232 0 1451.0 0.7857341093661232 1
gene  1 26 35 0.2519585892188281 0 1453.0 0.2519585892188281 0
gene  1 35 35 0.13029102423698347 1 1462.0 0.13029102423698347 0
gene  1 36 35 0.0030623903655819795 1 1463.0 0.0030623903655819795 0
gene  1 38 35 -0.26871704794769713 1 1465.0 -0.26871704794769713 0
gene  1 39 35 0.6721248584041137 1 1466.0 0.6721248584041137 1
gene  1 40 35 -0.6451773670864656 1 1467.0 -0.6451773670864656 1
gene  1 41 35 0.41767764538580887 1 1468.0 0.41767764538580887 1
gene  1 2 36 -0.1882740482996459 0 1471.0 -0.1882740482996459 1
gene  1 4 36 -0.1715804480280877 0 1473.0 -0.1715804480280877 1
gene  1 7 36 0.4755929075523455 0 1476.0 0.4755929075523455 1
gene  1 8 36 -0.39086198963377217 0 1477.0 -0.39086198963377217 1
gene  1 9 36 0.2707710377854271 0 1478.0 0.2707710377854271 0
gene  1 14 36 -0.1611517317292097 0 1483.0 -0.1611517317292097 1
gene  1 16 36 -0.899152108862219 0 1485.0 -0.899152108862219 0
gene  1 17 36 0.572361225935418 0 1486.0 0.572361225935418 0
gene  1 18 36 -0.7205216128416074 0 1487.0 -0.7205216128416074 0
gene  1 20 36 0.4934187177942392 0 1489.0 0.4934187177942392 0
gene  1 22 36 -0.5161811891320097 0 1491.0 -0.5161811891320097 1
gene  1 23 36 -0.35066782992688883 0 1492.0 -0.35066782992688883 1
gene  1 24 36 0.7685499123278154 0 1493.0 0.7685499123278154 0
gene  1 25 36 0.7867311757978519 0 1494.0 0.7867311757978519 0
gene  1 28 36 -0.4914068055053896 0 1497.0 -0.4914068055053896 1
gene  1 29 36 0.4158534983225056 0 1498.0 0.4158534983225056 1
gene  1 34 36 -0.6769112985068229 0 1503.0 -0.6769112985068229 1
gene  1 35 36 0.8679788786561102 0 1504.0 0.8679788786561102 1
gene  1 36 36 0.7093100147943865 1 1505.0 0.7093100147943865 0
gene  1 37 36 0.5874679896270769 1 1506.0 0.5874679896270769 0
gene  1 39 36 0.9418699766266686 1 1508.0 0.9418699766266686 0
gene  1 40 36 -0.24798809010400158 1 1509.0 -0.24798809010400158 0
gene  1 42 36 -0.18839049907837313 1 1511.0 -0.18839049907837313 0
gene  1 2 37 -0.25990890450957027 0 1513.0 -0.25990890450957027 1
gene  1 5 37 0.4408389210054373 0 1516.0 0.4408389210054373 1
gene  1 9 37 -0.9161320659604737 0 1520.0 -0.9161320659604737 0
gene  1 11 37 0.40865659857073866 0 1522.0 0.40865659857073866 0
gene  1 13 37 -0.07900086249252025 0 1524.0 -0.07900086249252025 1
gene  1 15 37 -0.6282912182975061 0 1526.0 -0.6282912182975061 1
gene  1 16 37 0.012910757624073899 0 1527.0 0.012910757624073899 0
gene  1 18 37 0.30374638127572173 0 1529.0 0.30374638127572173 1
gene  1 22 37 0.7077807299475702 0 1533.0 0.7077807299475702 1
gene  1 23 37 0.24715155946344392 0 1534.0 0.24715155946344392 1
gene  1 24 37 -0.8577453644909344 0 1535.0 -0.8577453644909344 0
gene  1 27 37 -0.8308747600962009 0 1538.0 -0.8308747600962009 1
gene  1 28 37 -0.4717624986378942 0 1539.0 -0.4717624986378942 1
gene  1 30 37 0.4936541114138846 0 1541.0 0.4936541114138846 0
gene  1 31 37 -0.7900414434710609 0 1542.0 -0.7900414434710609 0
gene  1 35 37 0.5764227875360436 0 1546.0 0.5764227875360436 1
gene  1 36 37 0.09791996558030658 0 1547.0 0.09791996558030658 0
gene  1 38 37 0.7926948172822118 1 1549.0 0.7926948172822118 1
gene  1 40 37 -0.2817176220399997 1 1551.0 -0.2817176220399997 1
gene  1 1 38 -0.9254135632854031 0 1554.0 -0.9254135632854031 0
gene  1 3 38 0.5602488073746897 0 1556.0 0.5602488073746897 0
gene  1 4 38 0.10847204798816845 0 1557.0 0.10847204798816845 1
gene  1 6 38 -0.002799008156748828 0 1559.0 -0.002799008156748828 1
gene  1 7 38 0.8857252223857369 0 1560.0 0.8857252223857369 0
gene  1 8 38 0.21151612193182034 0 1561.0 0.21151612193182034 1
gene  1 10 38 -0.3192076123873395 0 1563.0 -0.3192076123873395 1
gene  1 11 38 0.6897090405394963 0 1564.0 0.6897090405394963 1
gene  1 15 38 0.2303088623846411 0 1568.0 0.2303088623846411 0
gene  1 16 38 -0.8802036265457791 0 1569.0 -0.8802036265457791 1
gene  1 17 38 0.7358640076321215 0 1570.0 0.7358640076321215 0
gene  1 18 38 -0.90973390197444 0 1571.0 -0.90973390197444 0
gene  1 22 38 0.16881616278836764 0 1575.0 0.16881616278836764 0
gene  1 24 38 0.7420024225580231 0 1577.0 0.7420024225580231 0
gene  1 28 38 -0.9658045082394953 0 1581.0 -0.9658045082394953 1
gene  1 29 38 -0.13180706944407428 0 1582.0 -0.13180706944407428 1
gene  1 34 38 -0.5614444731508939 0 1587.0 -0.5614444731508939 1
gene  1 41 38 -0.5123075947770338 1 1594.0 -0.5123075947770338 1
gene  1 1 39 0.09570786255973474 0 1596.0 0.09570786255973474 1
gene  1 2 39 -0.35611133337474987 0 1597.0 -0.35611133337474987 1
gene  1 3 39 -0.40706450492932855 0 1598.0 -0.40706450492932855 1
gene  1 4 39 0.6487735285421198 0 1599.0 0.6487735285421198 1
gene  1 5 39 -0.20355990176310246 0 1600.0 -0.20355990176310246 0
gene  1 6 39 0.2832712784548109 0 1601.0 0.2832712784548109 1
gene  1 7 39 -0.5969304742990107 0 1602.0 -0.5969304742990107 0
gene  1 9 39 -0.06912647240394099 0 1604.0 -0.06912647240394099 0
gene  1 14 39 -0.8402098816368656 0 1609.0 -0.8402098816368656 1
gene  1 18 39 -0.8925229862453911 0 1613.0 -0.8925229862453911 1
gene  1 21 39 0.3934323262294096 0 1616.0 0.3934323262294096 1
gene  1 24 39 0.458190458505531 0 1619.0 0.458190458505531 1
gene  1 26 39 0.6641799733128033 0 1621.0 0.6641799733128033 1
gene  1 28 39 0.7934923404510578 0 1623.0 0.7934923404510578 1
gene  1 29 39 0.5487510419981695 0 1624.0 0.5487510419981695 0
gene  1 34 39 0.4354438062896482 0 1629.0 0.4354438062896482 1
gene  1 36 39 0.42091308094069135 0 1631.0 0.42091308094069135 0
gene  1 39 39 0.6862470273183194 1 1634.0 0.6862470273183194 1
gene  1 40 39 0.5586201277441724 1 1635.0 0.5586201277441724 1
gene  1 42 39 -0.6032371800485316 1 1637.0 -0.6032371800485316 0
gene  1 2 40 -0.9655666032620529 0 1639.0 -0.9655666032620529 1
gene  1 4 40 0.24915610825319146 0 1641.0 0.24915610825319146 1
gene  1 5 40 -0.9987464424589333 0 1642.0 -0.9987464424589333 1
gene  1 6 40 0.01579674374996365 0 1643.0 0.01579674374996365 1
gene  1 7 40 0.8073183441597614 0 1644.0 0.8073183441597614 0
gene  1 8 40 0.2357022839188173 0 1645.0 0.2357022839188173 1
gene  1 11 40 0.8222491364440142 0 1648.0 0.8222491364440142 1
gene  1 12 40 0.6669100682960394 0 1649.0 0.6669100682960394 1
gene  1 13 40 0.45782661018425097 0 1650.0 0.45782661018425097 1
gene  1 14 40 0.13354070044251187 0 1651.0 0.13354070044251187 0
gene  1 17 40 -0.6215552125989807 0 1654.0 -0.6215552125989807 1
gene  1 18 40 0.7532224230162111 0 1655.0 0.7532224230162111 1
gene  1 20 40 -0.6862385457772189 0 1657.0 -0.6862385457772189 0
gene  1 22 40 0.4774430456628532 0 1659.0 0.4774430456628532 1
gene  1 23 40 -0.25274108475528 0 1660.0 -0.25274108475528 1
gene  1 24 40 -0.34071197455775504 0 1661.0 -0.34071197455775504 0
gene  1 26 40 0.09160039289916488 0 1663.0 0.09160039289916488 1
gene  1 27 40 0.5398504105863692 0 1664.0 0.5398504105863692 1
gene  1 28 40 -0.5688996730310406 0 1665.0 -0.5688996730310406 1
gene  1 29 40 0.5513868716864959 0 1666.0 0.5513868716864959 1
gene  1 31 40 -0.4087009096863401 0 1668.0 -0.4087009096863401 0
gene  1 34 40 -0.2979936624023849 0 1671.0 -0.2979936624023849 1
gene  1 35 40 -0.8556896649014908 0 1672.0 -0.8556896649014908 0
gene  1 37 40 0.9496598459439932 0 1674.0 0.9496598459439932 0
gene  1 38 40 0.8576537070225362 0 1675.0 0.8576537070225362 0
gene  1 40 40 -0.11621714380000192 1 1677.0 -0.11621714380000192 0
gene  1 41 40 -0.560106653770275 1 1678.0 -0.560106653770275 0
gene  1 2 41 0.6941816225494285 0 1681.0 0.6941816225494285 0
gene  1 3 41 -0.057657762485305186 0 1682.0 -0.057657762485305186 0
gene  1 6 41 -0.7294226086729065 0 1685.0 -0.7294226086729065 1
gene  1 7 41 -0.06539955470217118 0 1686.0 -0.06539955470217118 0
gene  1 9 41 0.529005584346669 0 1688.0 0.529005584346669 0
gene  1 10 41 -0.46249723046817015 0 1689.0 -0.46249723046817015 0
gene  1 15 41 -0.7834766086158559 0 1694.0 -0.7834766086158559 1
gene  1 17 41 -0.21301215443629307 0 1696.0 -0.21301215443629307 1
gene  1 18 41 -0.4125383776508825 0 1697.0 -0.4125383776508825 1
gene  1 19 41 0.5849617819718136 0 1698.0 0.5849617819718136 1
gene  1 22 41 -0.21790798542703183 0 1701.0 -0.21790798542703183 1
gene  1 23 41 0.4879029999132354 0 1702.0 0.4879029999132354 1
gene  1 24 41 0.665407916714811 0 1703.0 0.665407916714811 0
gene  1 25 41 0.08936867054575504 0 1704.0 0.08936867054575504 1
gene  1 30 41 -0.1740529039460713 0 1709.0 -0.1740529039460713 0
gene  1 31 41 -0.8574070196930503 0 1710.0 -0.8574070196930503 1
gene  1 34 41 0.8976249335957561 0 1713.0 0.8976249335957561 0
gene  1 36 41 -0.010006860156857589 0 1715.0 -0.010006860156857589 0
gene  1 37 41 -0.30864773152392466 0 1716.0 -0.30864773152392466 0
gene  1 38 41 -0.13614563265469382 0 1717.0 -0.13614563265469382 1
gene  1 42 41 0.6365823125252349 1 1721.0 0.6365823125252349 0
gene  1 2 42 -0.24723210842638854 0 1723.0 -0.24723210842638854 0
gene  1 3 42 0.4912617683399184 0 1724.0 0.4912617683399184 0
gene  1 4 42 -0.9999387692864286 0 1725.0 -0.9999387692864286 1
gene  1 5 42 0.802750828291783 0 1726.0 0.802750828291783 1
gene  1 6 42 -0.18513083952193155 0 1727.0 -0.18513083952193155 0
gene  1 9 42 -0.8883191931705567 0 1730.0 -0.8883191931705567 1
gene  1 11 42 0.8091665441832495 0 1732.0 0.8091665441832495 1
gene  1 12 42 0.7984952068764248 0 1733.0 0.7984952068764248 0
gene  1 14 42 0.8325203612123442 0 1735.0 0.8325203612123442 1
gene  1 15 42 0.5830696166563959 0 1736.0 0.5830696166563959 0
gene  1 16 42 0.7548915862346363 0 1737.0 0.7548915862346363 1
gene  1 17 42 0.6132242367970259 0 1738.0 0.6132242367970259 1
gene  1 19 42 0.6143219839819055 0 1740.0 0.6143219839819055 1
gene  1 23 42 -0.7678945963119235 0 1744.0 -0.7678945963119235 1
gene  1 24 42 -0.3969806611770478 0 1745.0 -0.3969806611770478 0
gene  1 26 42 -0.6779578495079384 0 1747.0 -0.6779578495079384 1
gene  1 27 42 0.6191656854389593 0 1748.0 0.6191656854389593 0
gene  1 29 42 0.4628214005012359 0 1750.0 0.4628214005012359 1
gene  1 30 42 -0.9195254445584866 0 1751.0 -0.9195254445584866 0
gene  1 31 42 -0.1940662122136052 0 1752.0 -0.1940662122136052 1
gene  1 35 42 -0.261966203115891 0 1756.0 -0.261966203115891 1
gene  1 37 42 -0.8739704907738033 0 1758.0 -0.8739704907738033 0
gene  1 39 42 -0.7415036017609804 0 1760.0 -0.7415036017609804 1
gene  1 12 54 1.0 0 1787.0 0.0 0
gene  1 54 42 0.7984952068764248 0 1788.0 0.0 0
gene  1 34 9463 1.0 0 20605.0 0.0 0
gene  1 9463 41 0.8976249335957561 0 20606.0 0.0 1
gene  1 6 9478 1.0 0 20635.0 0.0 0
gene  1 9478 42 -0.18513083952193155 0 20636.0 0.0 0
gene  1 38 9501 1.0 1 20681.0 0.0 1
gene  1 9501 29 0.9804622333801951 0 20682.0 0.0 0
gene  1 36 9520 1.0 0 20719.0 0.0 1
gene  1 9520 41 -0.010006860156857589 0 20720.0 0.0 1
gene  1 42 9549 1.0 1 20777.0 0.0 1
gene  1 9549 41 0.6365823125252349 0 20778.0 0.0 1
gene  1 24 11908 1.0 0 25495.0 0.0 0
gene  1 11908 36 0.7685499123278154 0 25496.0 0.0 1
gene  1 42 11933 1.0 1 25545.0 0.0 0
gene  1 11933 39 -0.6032371800485316 0 25546.0 0.0 1
gene  1 17 11982 1.0 0 25643.0 0.0 1
gene  1 11982 38 0.7358640076321215 0 25644.0 0.0 0
gene  1 30 11997 1.0 0 25673.0 0.0 0
gene  1 11997 37 0.4936541114138846 0 25674.0 0.0 0
gene  1 24 12015 1.0 0 25709.0 0.0 0
gene  1 12015 38 0.7420024225580231 0 25710.0 0.0 0
gene  1 36 53286 1.0 0 108251.0 0.0 0
gene  1 53286 39 0.42091308094069135 0 108252.0 0.0 0
gene  1 3 53400 1.0 0 108479.0 0.0 1
gene  1 53400 42 0.4912617683399184 0 108480.0 0.0 1
gene  1 2 53446 1.0 0 108571.0 0.0 0
gene  1 53446 42 -0.24723210842638854 0 108572.0 0.0 0
gene  1 23 53468 1.0 0 108615.0 0.0 1
gene  1 53468 29 -0.7544976750322352 0 108616.0 0.0 1
gene  1 53286 53486 1.0 0 108651.0 0.0 1
gene  1 53486 39 0.42091308094069135 0 108652.0 0.0 1
gene  1 9 101059 1.0 0 203797.0 0.0 1
gene  1 101059 39 -0.06912647240394099 0 203798.0 0.0 0
gene  1 25 101082 1.0 0 203843.0 0.0 0
gene  1 101082 36 0.7867311757978519 0 203844.0 0.0 1
gene  1 31 101128 1.0 0 203935.0 0.0 1
gene  1 101128 40 -0.4087009096863401 0 203936.0 0.0 1
gene  1 36 101146 1.0 1 203971.0 0.0 1
gene  1 101146 36 0.7093100147943865 0 203972.0 0.0 0
gene  1 101059 101172 1.0 0 204023.0 0.0 1
gene  1 101172 39 -0.06912647240394099 0 204024.0 0.0 1
gene  1 34 141505 1.0 0 284689.0 0.0 0
gene  1 141505 9463 1.0 0 284690.0 0.0 1
gene  1 39 141514 1.0 1 284707.0 0.0 1
gene  1 141514 29 -0.8443372131125152 0 284708.0 0.0 0
gene  1 7 141535 1.0 0 284749.0 0.0 1
gene  1 141535 38 0.8857252223857369 0 284750.0 0.0 1
gene  1 14 141549 1.0 0 284777.0 0.0 1
gene  1 141549 40 0.13354070044251187 0 284778.0 0.0 0
gene  1 36 141569 1.0 1 284817.0 0.0 1
gene  1 141569 35 0.0030623903655819795 0 284818.0 0.0 1
gene  1 20 167618 1.0 0 336915.0 0.0 1
gene  1 167618 29 0.962881798860341 0 336916.0 0.0 1
gene  1 23 167639 1.0 0 336957.0 0.0 0
gene  1 167639 35 -0.28818231004211003 0 336958.0 0.0 1
gene  1 11997 167654 1.0 0 336987.0 0.0 1
gene  1 167654 37 0.4936541114138846 0 336988.0 0.0 1
gene  1 24 167674 1.0 0 337027.0 0.0 1
gene  1 167674 12015 1.0 0 337028.0 0.0 0
gene  1 141549 167693 1.0 0 337065.0 0.0 0
gene  1 167693 40 0.13354070044251187 0 337066.0 0.0 1
gene  1 6 182069 1.0 0 365817.0 0.0 1
gene  1 182069 9478 1.0 0 365818.0 0.0 0
gene  1 3 182118 1.0 0 365915.0 0.0 1
gene  1 182118 34 0.7914540647200231 0 365916.0 0.0 0
gene  1 1 182177 1.0 0 366033.0 0.0 1
gene  1 182177 38 -0.9254135632854031 0 366034.0 0.0 1
gene  1 11 182194 1.0 0 366067.0 0.0 1
gene  1 182194 34 0.8222371381906395 0 366068.0 0.0 1
gene  1 41 182213 1.0 1 366105.0 0.0 1
gene  1 182213 40 -0.560106653770275 0 366106.0 0.0 0
gene  1 7 231583 1.0 0 464845.0 0.0 1
gene  1 231583 39 -0.5969304742990107 0 464846.0 0.0 1
gene  1 16 231624 1.0 0 464927.0 0.0 1
gene  1 231624 37 0.012910757624073899 0 464928.0 0.0 1
gene  1 9 231706 1.0 0 465091.0 0.0 0
gene  1 231706 41 0.529005584346669 0 465092.0 0.0 1
gene  1 24 231773 1.0 0 465225.0 0.0 1
gene  1 231773 40 -0.34071197455775504 0 465226.0 0.0 0
gene  1 40 231793 1.0 1 465265.0 0.0 1
gene  1 231793 40 -0.11621714380000192 0 465266.0 0.0 0
gene  1 16 293415 1.0 0 588509.0 0.0 1
gene  1 293415 36 -0.899152108862219 0 588510.0 0.0 0
gene  1 15 293435 1.0 0 588549.0 0.0 0
gene  1 293435 38 0.2303088623846411 0 588550.0 0.0 1
gene  1 9 293462 1.0 0 588603.0 0.0 0
gene  1 293462 231706 1.0 0 588604.0 0.0 0
gene  1 20 293483 1.0 0 588645.0 0.0 1
gene  1 293483 36 0.4934187177942392 0 588646.0 0.0 1
gene  1 54 293509 1.0 0 588697.0 0.0 1
gene  1 293509 42 0.7984952068764248 0 588698.0 0.0 1
gene  1 17 330995 1.0 0 663669.0 0.0 1
gene  1 330995 36 0.572361225935418 0 663670.0 0.0 1
gene  1 14 331015 1.0 0 663709.0 0.0 1
gene  1 331015 35 -0.5181112610302246 0 663710.0 0.0 1
gene  1 36 331073 1.0 0 663825.0 0.0 0
gene  1 331073 53286 1.0 0 663826.0 0.0 1
gene  1 36 331173 1.0 0 664025.0 0.0 1
gene  1 331173 37 0.09791996558030658 0 664026.0 0.0 1
gene  1 293462 331198 1.0 0 664075.0 0.0 1
gene  1 331198 231706 1.0 0 664076.0 0.0 1
gene  1 10 332233 1.0 0 666145.0 0.0 1
gene  1 332233 41 -0.46249723046817015 0 666146.0 0.0 1
gene  1 37 332322 1.0 0 666323.0 0.0 0
gene  1 332322 42 -0.8739704907738033 0 666324.0 0.0 0
gene  1 101128 332358 1.0 0 666395.0 0.0 0
gene  1 332358 40 -0.4087009096863401 0 666396.0 0.0 1
gene  1 37 332374 1.0 0 666427.0 0.0 0
gene  1 332374 41 -0.30864773152392466 0 666428.0 0.0 0
gene  1 12015 332399 1.0 0 666477.0 0.0 1
gene  1 332399 38 0.7420024225580231 0 666478.0 0.0 1
gene  1 37 410042 1.0 0 821763.0 0.0 1
gene  1 410042 40 0.9496598459439932 0 821764.0 0.0 1
gene  1 18 410068 1.0 0 821815.0 0.0 1
gene  1 410068 38 -0.90973390197444 0 821816.0 0.0 1
gene  1 35 410106 1.0 0 821891.0 0.0 1
gene  1 410106 40 -0.8556896649014908 0 821892.0 0.0 0
gene  1 231793 410126 1.0 0 821931.0 0.0 1
gene  1 410126 40 -0.11621714380000192 0 821932.0 0.0 0
gene  1 30 410144 1.0 0 821967.0 0.0 1
gene  1 410144 42 -0.9195254445584866 0 821968.0 0.0 1
gene  1 42 419650 1.0 1 840979.0 0.0 0
gene  1 419650 36 -0.18839049907837313 0 840980.0 0.0 1
gene  1 9 419672 1.0 0 841023.0 0.0 1
gene  1 419672 293462 1.0 0 841024.0 0.0 0
gene  1 18 419691 1.0 0 841061.0 0.0 1
gene  1 419691 36 -0.7205216128416074 0 841062.0 0.0 0
gene  1 38 419711 1.0 0 841101.0 0.0 1
gene  1 419711 40 0.8576537070225362 0 841102.0 0.0 0
gene  1 29 419728 1.0 1 841135.0 0.0 1
gene  1 419728 29 0.7249191102258477 0 841136.0 0.0 0
gene  1 11982 426773 1.0 0 855225.0 0.0 1
gene  1 426773 38 0.7358640076321215 0 855226.0 0.0 1
gene  1 7 426819 1.0 0 855317.0 0.0 1
gene  1 426819 40 0.8073183441597614 0 855318.0 0.0 1
gene  1 419691 426835 1.0 0 855349.0 0.0 1
gene  1 426835 36 -0.7205216128416074 0 855350.0 0.0 1
gene  1 11 426850 1.0 0 855379.0 0.0 1
gene  1 426850 37 0.40865659857073866 0 855380.0 0.0 1
gene  1 53446 426869 1.0 0 855417.0 0.0 1
gene  1 426869 42 -0.24723210842638854 0 855418.0 0.0 1
gene  1 36 435775 1.0 0 873229.0 0.0 0
gene  1 435775 331073 1.0 0 873230.0 0.0 1
gene  1 410126 435796 1.0 0 873271.0 0.0 1
gene  1 435796 40 -0.11621714380000192 0 873272.0 0.0 1
gene  1 15 435815 1.0 0 873309.0 0.0 1
gene  1 435815 293435 1.0 0 873310.0 0.0 1
gene  1 167674 435837 1.0 0 873353.0 0.0 1
gene  1 435837 12015 1.0 0 873354.0 0.0 1
gene  1 35 435866 1.0 1 873411.0 0.0 1
gene  1 435866 35 0.13029102423698347 0 873412.0 0.0 1
gene  1 9478 502000 1.0 0 1005679.0 0.0 1
gene  1 502000 42 -0.18513083952193155 0 1005680.0 0.0 1
gene  1 24 502017 1.0 0 1005713.0 0.0 1
gene  1 502017 42 -0.3969806611770478 0 1005714.0 0.0 1
gene  1 231773 502098 1.0 0 1005875.0 0.0 1
gene  1 502098 40 -0.34071197455775504 0 1005876.0 0.0 1
gene  1 22 502113 1.0 0 1005905.0 0.0 1
gene  1 502113 38 0.16881616278836764 0 1005906.0 0.0 1
gene  1 19 502138 1.0 0 1005955.0 0.0 1
gene  1 502138 34 0.6727706469934881 0 1005956.0 0.0 0
gene  1 22 551682 1.0 0 1105043.0 0.0 1
gene  1 551682 29 0.6644070316372295 0 1105044.0 0.0 0
gene  1 34 551702 1.0 1 1105083.0 0.0 1
gene  1 551702 29 -0.13479081475267463 0 1105084.0 0.0 1
gene  1 24 551781 1.0 0 1105241.0 0.0 1
gene  1 551781 41 0.665407916714811 0 1105242.0 0.0 1
gene  1 36 551829 1.0 0 1105337.0 0.0 1
gene  1 551829 435775 1.0 0 1105338.0 0.0 1
gene  1 419728 551846 1.0 0 1105371.0 0.0 1
gene  1 551846 29 0.7249191102258477 0 1105372.0 0.0 1
gene  1 39 621252 1.0 1 1244183.0 0.0 1
gene  1 621252 36 0.9418699766266686 0 1244184.0 0.0 1
gene  1 37 621273 1.0 1 1244225.0 0.0 0
gene  1 621273 29 -0.08835950982477936 0 1244226.0 0.0 1
gene  1 5 621293 1.0 0 1244265.0 0.0 0
gene  1 621293 39 -0.20355990176310246 0 1244266.0 0.0 0
gene  1 551682 621371 1.0 0 1244421.0 0.0 0
gene  1 621371 29 0.6644070316372295 0 1244422.0 0.0 1
gene  1 502138 621391 1.0 0 1244461.0 0.0 1
gene  1 621391 34 0.6727706469934881 0 1244462.0 0.0 1
gene  1 2 623213 1.0 0 1248105.0 0.0 1
gene  1 623213 53446 1.0 0 1248106.0 0.0 0
gene  1 551682 623232 1.0 0 1248143.0 0.0 1
gene  1 623232 621371 1.0 0 1248144.0 0.0 1
gene  1 42 623258 1.0 1 1248195.0 0.0 1
gene  1 623258 11933 1.0 0 1248196.0 0.0 1
gene  1 332322 623294 1.0 0 1248267.0 0.0 1
gene  1 623294 42 -0.8739704907738033 0 1248268.0 0.0 1
gene  1 23 623319 1.0 0 1248317.0 0.0 1
gene  1 623319 167639 1.0 0 1248318.0 0.0 0
gene  1 410106 627287 1.0 0 1256253.0 0.0 1
gene  1 627287 40 -0.8556896649014908 0 1256254.0 0.0 0
gene  1 9501 627304 1.0 0 1256287.0 0.0 1
gene  1 627304 29 0.9804622333801951 0 1256288.0 0.0 1
gene  1 38 627342 1.0 1 1256363.0 0.0 1
gene  1 627342 35 -0.26871704794769713 0 1256364.0 0.0 1
gene  1 20 627418 1.0 0 1256515.0 0.0 1
gene  1 627418 40 -0.6862385457772189 0 1256516.0 0.0 1
gene  1 26 627436 1.0 0 1256551.0 0.0 1
gene  1 627436 35 0.2519585892188281 0 1256552.0 0.0 0
gene  1 623319 631085 1.0 0 1263849.0 0.0 1
gene  1 631085 167639 1.0 0 1263850.0 0.0 1
gene  1 627436 631106 1.0 0 1263891.0 0.0 1
gene  1 631106 35 0.2519585892188281 0 1263892.0 0.0 1
gene  1 623213 631139 1.0 0 1263957.0 0.0 1
gene  1 631139 53446 1.0 0 1263958.0 0.0 1
gene  1 419711 631176 1.0 0 1264031.0 0.0 1
gene  1 631176 40 0.8576537070225362 0 1264032.0 0.0 1
gene  1 182118 631196 1.0 0 1264071.0 0.0 1
gene  1 631196 34 0.7914540647200231 0 1264072.0 0.0 1
gene  1 101146 637669 1.0 0 1277017.0 0.0 1
gene  1 637669 36 0.7093100147943865 0 1277018.0 0.0 1
gene  1 37 637692 1.0 0 1277063.0 0.0 1
gene  1 637692 332374 1.0 0 1277064.0 0.0 1
gene  1 141514 637710 1.0 0 1277099.0 0.0 1
gene  1 637710 29 -0.8443372131125152 0 1277100.0 0.0 1
gene  1 26 637727 1.0 0 1277133.0 0.0 0
gene  1 637727 34 -0.8156562036882058 0 1277134.0 0.0 1
gene  1 2 637747 1.0 0 1277173.0 0.0 1
gene  1 637747 41 0.6941816225494285 0 1277174.0 0.0 1
gene  1 25 682588 1.0 0 1366855.0 0.0 1
gene  1 682588 29 0.8412875383183833 0 1366856.0 0.0 0
gene  1 40 682656 1.0 1 1366991.0 0.0 1
gene  1 682656 36 -0.24798809010400158 0 1366992.0 0.0 1
gene  1 5 682675 1.0 0 1367029.0 0.0 1
gene  1 682675 35 0.7906769792293512 0 1367030.0 0.0 1
gene  1 141549 682693 1.0 0 1367065.0 0.0 1
gene  1 682693 167693 1.0 0 1367066.0 0.0 1
gene  1 621293 682710 1.0 0 1367099.0 0.0 1
gene  1 682710 39 -0.20355990176310246 0 1367100.0 0.0 1
gene  1 26 733560 1.0 0 1468799.0 0.0 1
gene  1 733560 637727 1.0 0 1468800.0 0.0 1
gene  1 5 733597 1.0 0 1468873.0 0.0 1
gene  1 733597 621293 1.0 0 1468874.0 0.0 1
gene  1 182069 733614 1.0 0 1468907.0 0.0 1
gene  1 733614 9478 1.0 0 1468908.0 0.0 1
gene  1 12 733636 1.0 0 1468951.0 0.0 1
gene  1 733636 54 1.0 0 1468952.0 0.0 0
gene  1 25 733660 1.0 0 1468999.0 0.0 1
gene  1 733660 101082 1.0 0 1469000.0 0.0 1
gene  1 24 741068 1.0 0 1483815.0 0.0 1
gene  1 741068 11908 1.0 0 1483816.0 0.0 1
gene  1 34 741089 1.0 0 1483857.0 0.0 1
gene  1 741089 141505 1.0 0 1483858.0 0.0 1
gene  1 31 741113 1.0 0 1483905.0 0.0 1
gene  1 741113 37 -0.7900414434710609 0 1483906.0 0.0 1
gene  1 30 741149 1.0 0 1483977.0 0.0 1
gene  1 741149 41 -0.1740529039460713 0 1483978.0 0.0 1
gene  1 27 741169 1.0 0 1484017.0 0.0 1
gene  1 741169 42 0.6191656854389593 0 1484018.0 0.0 0
gene  1 37 753374 1.0 1 1508427.0 0.0 1
gene  1 753374 36 0.5874679896270769 0 1508428.0 0.0 1
gene  1 9 753390 1.0 0 1508459.0 0.0 1
gene  1 753390 37 -0.9161320659604737 0 1508460.0 0.0 1
gene  1 9 753404 1.0 0 1508487.0 0.0 0
gene  1 753404 36 0.2707710377854271 0 1508488.0 0.0 1
gene  1 101128 753417 1.0 0 1508513.0 0.0 1
gene  1 753417 332358 1.0 0 1508514.0 0.0 1
gene  1 30 753441 1.0 0 1508561.0 0.0 1
gene  1 753441 11997 1.0 0 1508562.0 0.0 1
gene  1 37 850003 1.0 1 1701685.0 0.0 1
gene  1 850003 621273 1.0 0 1701686.0 0.0 1
gene  1 29 850018 1.0 0 1701715.0 0.0 1
gene  1 850018 39 0.5487510419981695 0 1701716.0 0.0 1
gene  1 682588 850054 1.0 0 1701787.0 0.0 1
gene  1 850054 29 0.8412875383183833 0 1701788.0 0.0 1
gene  1 419672 850066 1.0 0 1701811.0 0.0 1
gene  1 850066 293462 1.0 0 1701812.0 0.0 1
gene  1 332374 850090 1.0 0 1701859.0 0.0 1
gene  1 850090 41 -0.30864773152392466 0 1701860.0 0.0 1
gene  1 627287 894826 1.0 0 1791331.0 0.0 1
gene  1 894826 40 -0.8556896649014908 0 1791332.0 0.0 1
gene  1 42 894898 1.0 1 1791475.0 0.0 1
gene  1 894898 419650 1.0 0 1791476.0 0.0 1
gene  1 1 894920 1.0 0 1791519.0 0.0 1
gene  1 894920 29 0.8817865995815668 0 1791520.0 0.0 1
gene  1 3 894937 1.0 0 1791553.0 0.0 1
gene  1 894937 38 0.5602488073746897 0 1791554.0 0.0 1
gene  1 37 894962 1.0 0 1791603.0 0.0 1
gene  1 894962 332322 1.0 0 1791604.0 0.0 1
gene  1 15 900144 1.0 0 1801967.0 0.0 1
gene  1 900144 42 0.5830696166563959 0 1801968.0 0.0 1
gene  1 24 900169 1.0 0 1802017.0 0.0 1
gene  1 900169 37 -0.8577453644909344 0 1802018.0 0.0 1
gene  1 733636 900187 1.0 0 1802053.0 0.0 1
gene  1 900187 54 1.0 0 1802054.0 0.0 1
gene  1 182213 900245 1.0 0 1802169.0 0.0 1
gene  1 900245 40 -0.560106653770275 0 1802170.0 0.0 1
gene  1 18 900264 1.0 0 1802207.0 0.0 1
gene  1 900264 35 -0.1656208285915246 0 1802208.0 0.0 1
gene  1 3 906247 1.0 0 1814173.0 0.0 1
gene  1 906247 41 -0.057657762485305186 0 1814174.0 0.0 1
gene  1 293415 906290 1.0 0 1814259.0 0.0 1
gene  1 906290 36 -0.899152108862219 0 1814260.0 0.0 1
gene  1 741169 906304 1.0 0 1814287.0 0.0 1
gene  1 906304 42 0.6191656854389593 0 1814288.0 0.0 1
gene  1 9 906350 1.0 0 1814379.0 0.0 1
gene  1 906350 753404 1.0 0 1814380.0 0.0 1
gene  1 7 906370 1.0 0 1814419.0 0.0 1
gene  1 906370 41 -0.06539955470217118 0 1814420.0 0.0 1
genomeend 0
/* Organism # 001 Fitness:  0.000 Error:  0.000                      */
genomestart  1
trait 1 0.0 0.0 0.0 0.0 0.0 0.0 0.0 0.0 
node 1 1 1 1
node 2 1 1 1
node 3 1 1 1
node 4 1 1 1
node 5 1 1 1
node 6 1 1 1
node 7 1 1 1
node 8 1 1 1
node 9 1 1 1
node 10 1 1 1
node 11 1 1 1
node 12 1 1 1
node 13 1 1 1
node 14 1 1 1
node 15 1 1 1
node 16 1 1 1
node 17 1 1 1
node 18 1 1 1
node 19 1 1 1
node 20 1 1 1
node 21 1 1 1
node 22 1 1 1
node 23 1 1 1
node 24 1 1 1
node 25 1 1 1
node 26 1 1 1
node 27 1 1 1
node 28 1 1 3
node 29 1 0 0
node 30 1 0 0
node 31 1 0 0
node 34 1 0 2
node 35 1 0 2
node 36 1 0 2
node 37 1 0 2
node 38 1 0 2
node 39 1 0 2
node 40 1 0 2
node 41 1 0 2
node 42 1 0 2
node 54 1 0 0
node 9463 1 0 0
node 9478 1 0 0
node 9501 1 0 0
node 9520 1 0 0
node 9549 1 0 0
node 11908 1 0 0
node 11933 1 0 0
node 11982 1 0 0
node 11997 1 0 0
node 12015 1 0 0
node 53286 1 0 0
node 53400 1 0 0
node 53446 1 0 0
node 53468 1 0 0
node 53486 1 0 0
node 101059 1 0 0
node 101082 1 0 0
node 101128 1 0 0
node 101146 1 0 0
node 101172 1 0 0
node 141505 1 0 0
node 141514 1 0 0
node 141535 1 0 0
node 141549 1 0 0
node 141569 1 0 0
node 167618 1 0 0
node 167639 1 0 0
node 167654 1 0 0
node 167674 1 0 0
node 167693 1 0 0
node 182069 1 0 0
node 182118 1 0 0
node 182177 1 0 0
node 182194 1 0 0
node 182213 1 0 0
node 231583 1 0 0
node 231624 1 0 0
node 231706 1 0 0
node 231773 1 0 0
node 231793 1 0 0
node 293415 1 0 0
node 293435 1 0 0
node 293462 1 0 0
node 293483 1 0 0
node 293509 1 0 0
node 330995 1 0 0
node 331015 1 0 0
node 331073 1 0 0
node 331173 1 0 0
node 331198 1 0 0
node 332233 1 0 0
node 332322 1 0 0
node 332358 1 0 0
node 332374 1 0 0
node 332399 1 0 0
node 410042 1 0 0
node 410068 1 0 0
node 410106 1 0 0
node 410126 1 0 0
node 410144 1 0 0
node 419650 1 0 0
node 419672 1 0 0
node 419691 1 0 0
node 419711 1 0 0
node 419728 1 0 0
node 426773 1 0 0
node 426819 1 0 0
node 426835 1 0 0
node 426850 1 0 0
node 426869 1 0 0
node 435775 1 0 0
node 435796 1 0 0
node 435815 1 0 0
node 435837 1 0 0
node 435866 1 0 0
node 502000 1 0 0
node 502017 1 0 0
node 502098 1 0 0
node 502113 1 0 0
node 502138 1 0 0
node 551682 1 0 0
node 551702 1 0 0
node 551781 1 0 0
node 551829 1 0 0
node 551846 1 0 0
node 621252 1 0 0
node 621273 1 0 0
node 621293 1 0 0
node 621371 1 0 0
node 621391 1 0 0
node 623213 1 0 0
node 623232 1 0 0
node 623258 1 0 0
node 623294 1 0 0
node 623319 1 0 0
node 627287 1 0 0
node 627304 1 0 0
node 627342 1 0 0
node 627418 1 0 0
node 627436 1 0 0
node 631085 1 0 0
node 631106 1 0 0
node 631139 1 0 0
node 631176 1 0 0
node 631196 1 0 0
node 637669 1 0 0
node 637692 1 0 0
node 637710 1 0 0
node 637727 1 0 0
node 637747 1 0 0
node 682588 1 0 0
node 682656 1 0 0
node 682675 1 0 0
node 682693 1 0 0
node 682710 1 0 0
node 733560 1 0 0
node 733597 1 0 0
node 733614 1 0 0
node 733636 1 0 0
node 733660 1 0 0
node 741068 1 0 0
node 741089 1 0 0
node 741113 1 0 0
node 741149 1 0 0
node 741169 1 0 0
node 753374 1 0 0
node 753390 1 0 0
node 753404 1 0 0
node 753417 1 0 0
node 753441 1 0 0
node 850003 1 0 0
node 850018 1 0 0
node 850054 1 0 0
node 850066 1 0 0
node 850090 1 0 0
node 894826 1 0 0
node 894898 1 0 0
node 894920 1 0 0
node 894937 1 0 0
node 894962 1 0 0
node 900144 1 0 0
node 900169 1 0 0
node 900187 1 0 0
node 900245 1 0 0
node 900264 1 0 0
node 906247 1 0 0
node 906290 1 0 0
node 906304 1 0 0
node 906350 1 0 0
node 906370 1 0 0
gene  1 1 29 0.8817865995815668 0 1176.0 0.8817865995815668 1
gene  1 5 29 -0.4608115883523288 0 1180.0 -0.4608115883523288 1
gene  1 7 29 -0.549940620437399 0 1182.0 -0.549940620437399 0
gene  1 8 29 -0.7631288790595535 0 1183.0 -0.7631288790595535 1
gene  1 10 29 0.1658152747637912 0 1185.0 0.1658152747637912 1
gene  1 11 29 0.8156513601363397 0 1186.0 0.8156513601363397 1
gene  1 20 29 0.962881798860341 0 1195.0 0.962881798860341 1
gene  1 21 29 0.5052850270871289 0 1196.0 0.5052850270871289 1
gene  1 22 29 0.6644070316372295 0 1197.0 0.6644070316372295 0
gene  1 23 29 -0.7544976750322352 0 1198.0 -0.7544976750322352 0
gene  1 25 29 0.8412875383183833 0 1200.0 0.8412875383183833 0
gene  1 28 29 0.9745842536586754 0 1203.0 0.9745842536586754 1
gene  1 29 29 0.7249191102258477 1 1204.0 0.7249191102258477 0
gene  1 34 29 -0.13479081475267463 1 1209.0 -0.13479081475267463 0
gene  1 35 29 -0.10601669784338286 1 1210.0 -0.10601669784338286 1
gene  1 37 29 -0.08835950982477936 1 1212.0 -0.08835950982477936 0
gene  1 38 29 0.9804622333801951 1 1213.0 0.9804622333801951 0
gene  1 39 29 -0.8443372131125152 1 1214.0 -0.8443372131125152 0
gene  1 41 29 0.7957099515185596 1 1216.0 0.7957099515185596 1
gene  1 2 34 -0.9714718897342378 0 1387.0 -0.9714718897342378 1
gene  1 3 34 0.7914540647200231 0 1388.0 0.7914540647200231 0
gene  1 4 34 0.07706986818632311 0 1389.0 0.07706986818632311 1
gene  1 5 34 -0.8481902811154257 0 1390.0 -0.8481902811154257 1
gene  1 10 34 0.8978884983447627 0 1395.0 0.8978884983447627 1
gene  1 11 34 0.8222371381906395 0 1396.0 0.8222371381906395 0
gene  1 16 34 0.21291844126109105 0 1401.0 0.21291844126109105 1
gene  1 19 34 0.6727706469934881 0 1404.0 0.6727706469934881 0
gene  1 26 34 -0.8156562036882058 0 1411.0 -0.8156562036882058 0
gene  1 35 34 0.239339046443803 1 1420.0 0.239339046443803 1
gene  1 39 34 0.4912584047116997 1 1424.0 0.4912584047116997 1
gene  1 40 34 -0.07763863414624106 1 1425.0 -0.07763863414624106 1
gene  1 41 34 0.23787399413521448 1 1426.0 0.23787399413521448 1
gene  1 5 35 0.7906769792293512 0 1432.0 0.7906769792293512 0
gene  1 6 35 -0.23751070826791543 0 1433.0 -0.23751070826791543 1
gene  1 10 35 -0.27773273338784477 0 1437.0 -0.27773273338784477 1
gene  1 14 35 -0.5181112610302246 0 1441.0 -0.5181112610302246 0
gene  1 17 35 0.9041166212330641 0 1444.0 0.9041166212330641 1
gene  1 18 35 -0.1656208285915246 0 1445.0 -0.1656208285915246 0
gene  1 19 35 0.5000774307565105 0 1446.0 0.5000774307565105 1
gene  1 23 35 -0.28818231004211003 0 1450.0 -0.28818231004211003 0
gene  1 24 35 0.7857341093661232 0 1451.0 0.7857341093661232 1
gene  1 26 35 0.2519585892188281 0 1453.0 0.2519585892188281 0
gene  1 35 35 0.13029102423698347 1 1462.0 0.13029102423698347 0
gene  1 36 35 0.0030623903655819795 1 1463.0 0.0030623903655819795 0
gene  1 38 35 -0.26871704794769713 1 1465.0 -0.26871704794769713 0
gene  1 39 35 0.6721248584041137 1 1466.0 0.6721248584041137 1
gene  1 40 35 -0.6451773670864656 1 1467.0 -0.6451773670864656 1
gene  1 41 35 0.41767764538580887 1 1468.0 0.41767764538580887 1
gene  1 2 36 -0.1882740482996459 0 1471.0 -0.1882740482996459 1
gene  1 4 36 -0.1715804480280877 0 1473.0 -0.1715804480280877 1
gene  1 7 36 0.4755929075523455 0 1476.0 0.4755929075523455 1
gene  1 8 36 -0.39086198963377217 0 1477.0 -0.39086198963377217 1
gene  1 9 36 0.2707710377854271 0 1478.0 0.2707710377854271 0
gene  1 14 36 -0.1611517317292097 0 1483.0 -0.1611517317292097 1
gene  1 16 36 -0.899152108862219 0 1485.0 -0.899152108862219 0
gene  1 17 36 0.572361225935418 0 1486.0 0.572361225935418 0
gene  1 18 36 -0.7205216128416074 0 1487.0 -0.7205216128416074 0
gene  1 20 36 0.4934187177942392 0 1489.0 0.4934187177942392 0
gene  1 22 36 -0.5161811891320097 0 1491.0 -0.5161811891320097 1
gene  1 23 36 -0.35066782992688883 0 1492.0 -0.35066782992688883 1
gene  1 24 36 0.7685499123278154 0 1493.0 0.7685499123278154 0
gene  1 25 36 0.7867311757978519 0 1494.0 0.7867311757978519 0
gene  1 28 36 -0.4914068055053896 0 1497.0 -0.4914068055053896 1
gene  1 29 36 0.4158534983225056 0 1498.0 0.4158534983225056 1
gene  1 34 36 -0.6769112985068229 0 1503.0 -0.6769112985068229 1
gene  1 35 36 0.8679788786561102 0 1504.0 0.8679788786561102 1
gene  1 36 36 0.7093100147943865 1 1505.0 0.7093100147943865 0
gene  1 37 36 0.5874679896270769 1 1506.0 0.5874679896270769 0
gene  1 39 36 0.9418699766266686 1 1508.0 0.9418699766266686 0
gene  1 40 36 -0.24798809010400158 1 1509.0 -0.24798809010400158 0
gene  1 42 36 -0.18839049907837313 1 1511.0 -0.18839049907837313 0
gene  1 2 37 -0.25990890450957027 0 1513.0 -0.25990890450957027 1
gene  1 5 37 0.4408389210054373 0 1516.0 0.4408389210054373 1
gene  1 9 37 -0.9161320659604737 0 1520.0 -0.9161320659604737 0
gene  1 11 37 0.40865659857073866 0 1522.0 0.40865659857073866 0
gene  1 13 37 -0.07900086249252025 0 1524.0 -0.07900086249252025 1
gene  1 15 37 -0.6282912182975061 0 1526.0 -0.6282912182975061 1
gene  1 16 37 0.012910757624073899 0 1527.0 0.012910757624073899 0
gene  1 18 37 0.30374638127572173 0 1529.0 0.30374638127572173 1
gene  1 22 37 0.7077807299475702 0 1533.0 0.7077807299475702 1
gene  1 23 37 0.24715155946344392 0 1534.0 0.24715155946344392 1
gene  1 24 37 -0.8577453644909344 0 1535.0 -0.8577453644909344 0
gene  1 27 37 -0.8308747600962009 0 1538.0 -0.8308747600962009 1
gene  1 28 37 -0.4717624986378942 0 1539.0 -0.4717624986378942 1
gene  1 30 37 0.4936541114138846 0 1541.0 0.4936541114138846 0
gene  1 31 37 -0.7900414434710609 0 1542.0 -0.7900414434710609 0
gene  1 35 37 0.5764227875360436 0 1546.0 0.5764227875360436 1
gene  1 36 37 0.09791996558030658 0 1547.0 0.09791996558030658 0
gene  1 38 37 0.7926948172822118 1 1549.0 0.7926948172822118 1
gene  1 40 37 -0.2817176220399997 1 1551.0 -0.2817176220399997 1
gene  1 1 38 -0.9254135632854031 0 1554.0 -0.9254135632854031 0
gene  1 3 38 0.5602488073746897 0 1556.0 0.5602488073746897 0
gene  1 4 38 0.10847204798816845 0 1557.0 0.10847204798816845 1
gene  1 6 38 -0.002799008156748828 0 1559.0 -0.002799008156748828 1
gene  1 7 38 0.8857252223857369 0 1560.0 0.8857252223857369 0
gene  1 8 38 0.21151612193182034 0 1561.0 0.21151612193182034 1
gene  1 10 38 -0.3192076123873395 0 1563.0 -0.3192076123873395 1
gene  1 11 38 0.6897090405394963 0 1564.0 0.6897090405394963 1
gene  1 15 38 0.2303088623846411 0 1568.0 0.2303088623846411 0
gene  1 16 38 -0.8802036265457791 0 1569.0 -0.8802036265457791 1
gene  1 17 38 0.7358640076321215 0 1570.0 0.7358640076321215 0
gene  1 18 38 -0.90973390197444 0 1571.0 -0.90973390197444 0
gene  1 22 38 0.16881616278836764 0 1575.0 0.16881616278836764 0
gene  1 24 38 0.7420024225580231 0 1577.0 0.7420024225580231 0
gene  1 28 38 -0.9658045082394953 0 1581.0 -0.9658045082394953 1
gene  1 29 38 -0.13180706944407428 0 1582.0 -0.13180706944407428 1
gene  1 34 38 -0.5614444731508939 0 1587.0 -0.5614444731508939 1
gene  1 41 38 -0.5123075947770338 1 1594.0 -0.5123075947770338 1
gene  1 1 39 0.09570786255973474 0 1596.0 0.09570786255973474 1
gene  1 2 39 -0.35611133337474987 0 1597.0 -0.35611133337474987 1
gene  1 3 39 -0.40706450492932855 0 1598.0 -0.40706450492932855 1
gene  1 4 39 0.6487735285421198 0 1599.0 0.6487735285421198 1
gene  1 5 39 -0.20355990176310246 0 1600.0 -0.20355990176310246 0
gene  1 6 39 0.2832712784548109 0 1601.0 0.2832712784548109 1
gene  1 7 39 -0.5969304742990107 0 1602.0 -0.5969304742990107 0
gene  1 9 39 -0.06912647240394099 0 1604.0 -0.06912647240394099 0
gene  1 14 39 -0.8402098816368656 0 1609.0 -0.8402098816368656 1
gene  1 18 39 -0.8925229862453911 0 1613.0 -0.8925229862453911 1
gene  1 21 39 0.3934323262294096 0 1616.0 0.3934323262294096 1
gene  1 24 39 0.458190458505531 0 1619.0 0.458190458505531 1
gene  1 26 39 0.6641799733128033 0 1621.0 0.6641799733128033 1
gene  1 28 39 0.7934923404510578 0 1623.0 0.7934923404510578 1
gene  1 29 39 0.5487510419981695 0 1624.0 0.5487510419981695 0
gene  1 34 39 0.4354438062896482 0 1629.0 0.4354438062896482 1
gene  1 36 39 0.42091308094069135 0 1631.0 0.42091308094069135 0
gene  1 39 39 0.6862470273183194 1 1634.0 0.6862470273183194 1
gene  1 40 39 0.5586201277441724 1 1635.0 0.5586201277441724 1
gene  1 42 39 -0.6032371800485316 1 1637.0 -0.6032371800485316 0
gene  1 2 40 -0.9655666032620529 0 1639.0 -0.9655666032620529 1
gene  1 4 40 0.24915610825319146 0 1641.0 0.24915610825319146 1
gene  1 5 40 -0.9987464424589333 0 1642.0 -0.9987464424589333 1
gene  1 6 40 0.01579674374996365 0 1643.0 0.01579674374996365 1
gene  1 7 40 0.8073183441597614 0 1644.0 0.8073183441597614 0
gene  1 8 40 0.2357022839188173 0 1645.0 0.2357022839188173 1
gene  1 11 40 0.8222491364440142 0 1648.0 0.8222491364440142 1
gene  1 12 40 0.6669100682960394 0 1649.0 0.6669100682960394 1
gene  1 13 40 0.45782661018425097 0 1650.0 0.45782661018425097 1
gene  1 14 40 0.13354070044251187 0 1651.0 0.13354070044251187 0
gene  1 17 40 -0.6215552125989807 0 1654.0 -0.6215552125989807 1
gene  1 18 40 0.7532224230162111 0 1655.0 0.7532224230162111 1
gene  1 20 40 -0.6862385457772189 0 1657.0 -0.6862385457772189 0
gene  1 22 40 0.4774430456628532 0 1659.0 0.4774430456628532 1
gene  1 23 40 -0.25274108475528 0 1660.0 -0.25274108475528 1
gene  1 24 40 -0.34071197455775504 0 1661.0 -0.34071197455775504 0
gene  1 26 40 0.09160039289916488 0 1663.0 0.09160039289916488 1
gene  1 27 40 0.5398504105863692 0 1664.0 0.5398504105863692 1
gene  1 28 40 -0.5688996730310406 0 1665.0 -0.5688996730310406 1
gene  1 29 40 0.5513868716864959 0 1666.0 0.5513868716864959 1
gene  1 31 40 -0.4087009096863401 0 1668.0 -0.4087009096863401 0
gene  1 34 40 -0.2979936624023849 0 1671.0 -0.2979936624023849 1
gene  1 35 40 -0.8556896649014908 0 1672.0 -0.8556896649014908 0
gene  1 37 40 0.9496598459439932 0 1674.0 0.9496598459439932 0
gene  1 38 40 0.8576537070225362 0 1675.0 0.8576537070225362 0
gene  1 40 40 -0.11621714380000192 1 1677.0 -0.11621714380000192 0
gene  1 41 40 -0.560106653770275 1 1678.0 -0.560106653770275 0
gene  1 2 41 0.6941816225494285 0 1681.0 0.6941816225494285 0
gene  1 3 41 -0.057657762485305186 0 1682.0 -0.057657762485305186 0
gene  1 6 41 -0.7294226086729065 0 1685.0 -0.7294226086729065 1
gene  1 7 41 -0.06539955470217118 0 1686.0 -0.06539955470217118 0
gene  1 9 41 0.529005584346669 0 1688.0 0.529005584346669 0
gene  1 10 41 -0.46249723046817015 0 1689.0 -0.46249723046817015 0
gene  1 15 41 -0.7834766086158559 0 1694.0 -0.7834766086158559 1
gene  1 17 41 -0.21301215443629307 0 1696.0 -0.21301215443629307 1
gene  1 18 41 -0.4125383776508825 0 1697.0 -0.4125383776508825 1
gene  1 19 41 0.5849617819718136 0 1698.0 0.5849617819718136 1
gene  1 22 41 -0.21790798542703183 0 1701.0 -0.21790798542703183 1
gene  1 23 41 0.4879029999132354 0 1702.0 0.4879029999132354 1
gene  1 24 41 0.665407916714811 0 1703.0 0.665407916714811 0
gene  1 25 41 0.08936867054575504 0 1704.0 0.08936867054575504 1
gene  1 30 41 -0.1740529039460713 0 1709.0 -0.1740529039460713 0
gene  1 31 41 -0.8574070196930503 0 1710.0 -0.8574070196930503 1
gene  1 34 41 0.8976249335957561 0 1713.0 0.8976249335957561 0
gene  1 36 41 -0.010006860156857589 0 1715.0 -0.010006860156857589 0
gene  1 37 41 -0.30864773152392466 0 1716.0 -0.30864773152392466 0
gene  1 38 41 -0.13614563265469382 0 1717.0 -0.13614563265469382 1
gene  1 42 41 0.6365823125252349 1 1721.0 0.6365823125252349 0
gene  1 2 42 -0.24723210842638854 0 1723.0 -0.24723210842638854 0
gene  1 3 42 0.4912617683399184 0 1724.0 0.4912617683399184 0
gene  1 4 42 -0.9999387692864286 0 1725.0 -0.9999387692864286 1
gene  1 5 42 0.802750828291783 0 1726.0 0.802750828291783 1
gene  1 6 42 -0.18513083952193155 0 1727.0 -0.18513083952193155 0
gene  1 9 42 -0.8883191931705567 0 1730.0 -0.8883191931705567 1
gene  1 11 42 0.8091665441832495 0 1732.0 0.8091665441832495 1
gene  1 12 42 0.7984952068764248 0 1733.0 0.7984952068764248 0
gene  1 14 42 0.8325203612123442 0 1735.0 0.8325203612123442 1
gene  1 15 42 0.5830696166563959 0 1736.0 0.5830696166563959 0
gene  1 16 42 0.7548915862346363 0 1737.0 0.7548915862346363 1
gene  1 17 42 0.6132242367970259 0 1738.0 0.6132242367970259 1
gene  1 19 42 0.6143219839819055 0 1740.0 0.6143219839819055 1
gene  1 23 42 -0.7678945963119235 0 1744.0 -0.7678945963119235 1
gene  1 24 42 -0.3969806611770478 0 1745.0 -0.3969806611770478 0
gene  1 26 42 -0.6779578495079384 0 1747.0 -0.6779578495079384 1
gene  1 27 42 0.6191656854389593 0 1748.0 0.6191656854389593 0
gene  1 29 42 0.4628214005012359 0 1750.0 0.4628214005012359 1
gene  1 30 42 -0.9195254445584866 0 1751.0 -0.9195254445584866 0
gene  1 31 42 -0.1940662122136052 0 1752.0 -0.1940662122136052 1
gene  1 35 42 -0.261966203115891 0 1756.0 -0.261966203115891 1
gene  1 37 42 -0.8739704907738033 0 1758.0 -0.8739704907738033 0
gene  1 39 42 -0.7415036017609804 0 1760.0 -0.7415036017609804 1
gene  1 12 54 1.0 0 1787.0 0.0 0
gene  1 54 42 0.7984952068764248 0 1788.0 0.0 0
gene  1 34 9463 1.0 0 20605.0 0.0 0
gene  1 9463 41 0.8976249335957561 0 20606.0 0.0 1
gene  1 6 9478 1.0 0 20635.0 0.0 0
gene  1 9478 42 -0.18513083952193155 0 20636.0 0.0 0
gene  1 38 9501 1.0 1 20681.0 0.0 1
gene  1 9501 29 0.9804622333801951 0 20682.0 0.0 0
gene  1 36 9520 1.0 0 20719.0 0.0 1
gene  1 9520 41 -0.010006860156857589 0 20720.0 0.0 1
gene  1 42 9549 1.0 1 20777.0 0.0 1
gene  1 9549 41 0.6365823125252349 0 20778.0 0.0 1
gene  1 24 11908 1.0 0 25495.0 0.0 0
gene  1 11908 36 0.7685499123278154 0 25496.0 0.0 1
gene  1 42 11933 1.0 1 25545.0 0.0 0
gene  1 11933 39 -0.6032371800485316 0 25546.0 0.0 1
gene  1 17 11982 1.0 0 25643.0 0.0 1
gene  1 11982 38 0.7358640076321215 0 25644.0 0.0 0
gene  1 30 11997 1.0 0 25673.0 0.0 0
gene  1 11997 37 0.4936541114138846 0 25674.0 0.0 0
gene  1 24 12015 1.0 0 25709.0 0.0 0
gene  1 12015 38 0.7420024225580231 0 25710.0 0.0 0
gene  1 36 53286 1.0 0 108251.0 0.0 0
gene  1 53286 39 0.42091308094069135 0 108252.0 0.0 0
gene  1 3 53400 1.0 0 108479.0 0.0 1
gene  1 53400 42 0.4912617683399184 0 108480.0 0.0 1
gene  1 2 53446 1.0 0 108571.0 0.0 0
gene  1 53446 42 -0.24723210842638854 0 108572.0 0.0 0
gene  1 23 53468 1.0 0 108615.0 0.0 1
gene  1 53468 29 -0.7544976750322352 0 108616.0 0.0 1
gene  1 53286 53486 1.0 0 108651.0 0.0 1
gene  1 53486 39 0.42091308094069135 0 108652.0 0.0 1
gene  1 9 101059 1.0 0 203797.0 0.0 1
gene  1 101059 39 -0.06912647240394099 0 203798.0 0.0 0
gene  1 25 101082 1.0 0 203843.0 0.0 0
gene  1 101082 36 0.7867311757978519 0 203844.0 0.0 1
gene  1 31 101128 1.0 0 203935.0 0.0 1
gene  1 101128 40 -0.4087009096863401 0 203936.0 0.0 1
gene  1 36 101146 1.0 1 203971.0 0.0 1
gene  1 101146 36 0.7093100147943865 0 203972.0 0.0 0
gene  1 101059 101172 1.0 0 204023.0 0.0 1
gene  1 101172 39 -0.06912647240394099 0 204024.0 0.0 1
gene  1 34 141505 1.0 0 284689.0 0.0 0
gene  1 141505 9463 1.0 0 284690.0 0.0 1
gene  1 39 141514 1.0 1 284707.0 0.0 1
gene  1 141514 29 -0.8443372131125152 0 284708.0 0.0 0
gene  1 7 141535 1.0 0 284749.0 0.0 1
gene  1 141535 38 0.8857252223857369 0 284750.0 0.0 1
gene  1 14 141549 1.0 0 284777.0 0.0 1
gene  1 141549 40 0.13354070044251187 0 284778.0 0.0 0
gene  1 36 141569 1.0 1 284817.0 0.0 1
gene  1 141569 35 0.0030623903655819795 0 284818.0 0.0 1
gene  1 20 167618 1.0 0 336915.0 0.0 1
gene  1 167618 29 0.962881798860341 0 336916.0 0.0 1
gene  1 23 167639 1.0 0 336957.0 0.0 0
gene  1 167639 35 -0.28818231004211003 0 336958.0 0.0 1
gene  1 11997 167654 1.0 0 336987.0 0.0 1
gene  1 167654 37 0.4936541114138846 0 336988.0 0.0 1
gene  1 24 167674 1.0 0 337027.0 0.0 1
gene  1 167674 12015 1.0 0 337028.0 0.0 0
gene  1 141549 167693 1.0 0 337065.0 0.0 0
gene  1 167693 40 0.13354070044251187 0 337066.0 0.0 1
gene  1 6 182069 1.0 0 365817.0 0.0 1
gene  1 182069 9478 1.0 0 365818.0 0.0 0
gene  1 3 182118 1.0 0 365915.0 0.0 1
gene  1 182118 34 0.7914540647200231 0 365916.0 0.0 0
gene  1 1 182177 1.0 0 366033.0 0.0 1
gene  1 182177 38 -0.9254135632854031 0 366034.0 0.0 1
gene  1 11 182194 1.0 0 366067.0 0.0 1
gene  1 182194 34 0.8222371381906395 0 366068.0 0.0 1
gene  1 41 182213 1.0 1 366105.0 0.0 1
gene  1 182213 40 -0.560106653770275 0 366106.0 0.0 0
gene  1 7 231583 1.0 0 464845.0 0.0 1
gene  1 231583 39 -0.5969304742990107 0 464846.0 0.0 1
gene  1 16 231624 1.0 0 464927.0 0.0 1
gene  1 231624 37 0.012910757624073899 0 464928.0 0.0 1
gene  1 9 231706 1.0 0 465091.0 0.0 0
gene  1 231706 41 0.529005584346669 0 465092.0 0.0 1
gene  1 24 231773 1.0 0 465225.0 0.0 1
gene  1 231773 40 -0.34071197455775504 0 465226.0 0.0 0
gene  1 40 231793 1.0 1 465265.0 0.0 1
gene  1 231793 40 -0.11621714380000192 0 465266.0 0.0 0
gene  1 16 293415 1.0 0 588509.0 0.0 1
gene  1 293415 36 -0.899152108862219 0 588510.0 0.0 0
gene  1 15 293435 1.0 0 588549.0 0.0 0
gene  1 293435 38 0.2303088623846411 0 588550.0 0.0 1
gene  1 9 293462 1.0 0 588603.0 0.0 0
gene  1 293462 231706 1.0 0 588604.0 0.0 0
gene  1 20 293483 1.0 0 588645.0 0.0 1
gene  1 293483 36 0.4934187177942392 0 588646.0 0.0 1
gene  1 54 293509 1.0 0 588697.0 0.0 1
gene  1 293509 42 0.7984952068764248 0 588698.0 0.0 1
gene  1 17 330995 1.0 0 663669.0 0.0 1
gene  1 330995 36 0.572361225935418 0 663670.0 0.0 1
gene  1 14 331015 1.0 0 663709.0 0.0 1
gene  1 331015 35 -0.5181112610302246 0 663710.0 0.0 1
gene  1 36 331073 1.0 0 663825.0 0.0 0
gene  1 331073 53286 1.0 0 663826.0 0.0 1
gene  1 36 331173 1.0 0 664025.0 0.0 1
gene  1 331173 37 0.09791996558030658 0 664026.0 0.0 1
gene  1 293462 331198 1.0 0 664075.0 0.0 1
gene  1 331198 231706 1.0 0 664076.0 0.0 1
gene  1 10 332233 1.0 0 666145.0 0.0 1
gene  1 332233 41 -0.46249723046817015 0 666146.0 0.0 1
gene  1 37 332322 1.0 0 666323.0 0.0 0
gene  1 332322 42 -0.8739704907738033 0 666324.0 0.0 0
gene  1 101128 332358 1.0 0 666395.0 0.0 0
gene  1 332358 40 -0.4087009096863401 0 666396.0 0.0 1
gene  1 37 332374 1.0 0 666427.0 0.0 0
gene  1 332374 41 -0.30864773152392466 0 666428.0 0.0 0
gene  1 12015 332399 1.0 0 666477.0 0.0 1
gene  1 332399 38 0.7420024225580231 0 666478.0 0.0 1
gene  1 37 410042 1.0 0 821763.0 0.0 1
gene  1 410042 40 0.9496598459439932 0 821764.0 0.0 1
gene  1 18 410068 1.0 0 821815.0 0.0 1
gene  1 410068 38 -0.90973390197444 0 821816.0 0.0 1
gene  1 35 410106 1.0 0 821891.0 0.0 1
gene  1 410106 40 -0.8556896649014908 0 821892.0 0.0 0
gene  1 231793 410126 1.0 0 821931.0 0.0 1
gene  1 410126 40 -0.11621714380000192 0 821932.0 0.0 0
gene  1 30 410144 1.0 0 821967.0 0.0 1
gene  1 410144 42 -0.9195254445584866 0 821968.0 0.0 1
gene  1 42 419650 1.0 1 840979.0 0.0 0
gene  1 419650 36 -0.18839049907837313 0 840980.0 0.0 1
gene  1 9 419672 1.0 0 841023.0 0.0 1
gene  1 419672 293462 1.0 0 841024.0 0.0 0
gene  1 18 419691 1.0 0 841061.0 0.0 1
gene  1 419691 36 -0.7205216128416074 0 841062.0 0.0 0
gene  1 38 419711 1.0 0 841101.0 0.0 1
gene  1 419711 40 0.8576537070225362 0 841102.0 0.0 0
gene  1 29 419728 1.0 1 841135.0 0.0 1
gene  1 419728 29 0.7249191102258477 0 841136.0 0.0 0
gene  1 11982 426773 1.0 0 855225.0 0.0 1
gene  1 426773 38 0.7358640076321215 0 855226.0 0.0 1
gene  1 7 426819 1.0 0 855317.0 0.0 1
gene  1 426819 40 0.8073183441597614 0 855318.0 0.0 1
gene  1 419691 426835 1.0 0 855349.0 0.0 1
gene  1 426835 36 -0.7205216128416074 0 855350.0 0.0 1
gene  1 11 426850 1.0 0 855379.0 0.0 1
gene  1 426850 37 0.40865659857073866 0 855380.0 0.0 1
gene  1 53446 426869 1.0 0 855417.0 0.0 1
gene  1 426869 42 -0.24723210842638854 0 855418.0 0.0 1
gene  1 36 435775 1.0 0 873229.0 0.0 0
gene  1 435775 331073 1.0 0 873230.0 0.0 1
gene  1 410126 435796 1.0 0 873271.0 0.0 1
gene  1 435796 40 -0.11621714380000192 0 873272.0 0.0 1
gene  1 15 435815 1.0 0 873309.0 0.0 1
gene  1 435815 293435 1.0 0 873310.0 0.0 1
gene  1 167674 435837 1.0 0 873353.0 0.0 1
gene  1 435837 12015 1.0 0 873354.0 0.0 1
gene  1 35 435866 1.0 1 873411.0 0.0 1
gene  1 435866 35 0.13029102423698347 0 873412.0 0.0 1
gene  1 9478 502000 1.0 0 1005679.0 0.0 1
gene  1 502000 42 -0.18513083952193155 0 1005680.0 0.0 1
gene  1 24 502017 1.0 0 1005713.0 0.0 1
gene  1 502017 42 -0.3969806611770478 0 1005714.0 0.0 1
gene  1 231773 502098 1.0 0 1005875.0 0.0 1
gene  1 502098 40 -0.34071197455775504 0 1005876.0 0.0 1
gene  1 22 502113 1.0 0 1005905.0 0.0 1
gene  1 502113 38 0.16881616278836764 0 1005906.0 0.0 1
gene  1 19 502138 1.0 0 1005955.0 0.0 1
gene  1 502138 34 0.6727706469934881 0 1005956.0 0.0 0
gene  1 22 551682 1.0 0 1105043.0 0.0 1
gene  1 551682 29 0.6644070316372295 0 1105044.0 0.0 0
gene  1 34 551702 1.0 1 1105083.0 0.0 1
gene  1 551702 29 -0.13479081475267463 0 1105084.0 0.0 1
gene  1 24 551781 1.0 0 1105241.0 0.0 1
gene  1 551781 41 0.665407916714811 0 1105242.0 0.0 1
gene  1 36 551829 1.0 0 1105337.0 0.0 1
gene  1 551829 435775 1.0 0 1105338.0 0.0 1
gene  1 419728 551846 1.0 0 1105371.0 0.0 1
gene  1 551846 29 0.7249191102258477 0 1105372.0 0.0 1
gene  1 39 621252 1.0 1 1244183.0 0.0 1
gene  1 621252 36 0.9418699766266686 0 1244184.0 0.0 1
gene  1 37 621273 1.0 1 1244225.0 0.0 0
gene  1 621273 29 -0.08835950982477936 0 1244226.0 0.0 1
gene  1 5 621293 1.0 0 1244265.0 0.0 0
gene  1 621293 39 -0.20355990176310246 0 1244266.0 0.0 0
gene  1 551682 621371 1.0 0 1244421.0 0.0 0
gene  1 621371 29 0.6644070316372295 0 1244422.0 0.0 1
gene  1 502138 621391 1.0 0 1244461.0 0.0 1
gene  1 621391 34 0.6727706469934881 0 1244462.0 0.0 1
gene  1 2 623213 1.0 0 1248105.0 0.0 1
gene  1 623213 53446 1.0 0 1248106.0 0.0 0
gene  1 551682 623232 1.0 0 1248143.0 0.0 1
gene  1 623232 621371 1.0 0 1248144.0 0.0 1
gene  1 42 623258 1.0 1 1248195.0 0.0 1
gene  1 623258 11933 1.0 0 1248196.0 0.0 1
gene  1 332322 623294 1.0 0 1248267.0 0.0 1
gene  1 623294 42 -0.8739704907738033 0 1248268.0 0.0 1
gene  1 23 623319 1.0 0 1248317.0 0.0 1
gene  1 623319 167639 1.0 0 1248318.0 0.0 0
gene  1 410106 627287 1.0 0 1256253.0 0.0 1
gene  1 627287 40 -0.8556896649014908 0 1256254.0 0.0 0
gene  1 9501 627304 1.0 0 1256287.0 0.0 1
gene  1 627304 29 0.9804622333801951 0 1256288.0 0.0 1
gene  1 38 627342 1.0 1 1256363.0 0.0 1
gene  1 627342 35 -0.26871704794769713 0 1256364.0 0.0 1
gene  1 20 627418 1.0 0 1256515.0 0.0 1
gene  1 627418 40 -0.6862385457772189 0 1256516.0 0.0 1
gene  1 26 627436 1.0 0 1256551.0 0.0 1
gene  1 627436 35 0.2519585892188281 0 1256552.0 0.0 0
gene  1 623319 631085 1.0 0 1263849.0 0.0 1
gene  1 631085 167639 1.0 0 1263850.0 0.0 1
gene  1 627436 631106 1.0 0 1263891.0 0.0 1
gene  1 631106 35 0.2519585892188281 0 1263892.0 0.0 1
gene  1 623213 631139 1.0 0 1263957.0 0.0 1
gene  1 631139 53446 1.0 0 1263958.0 0.0 1
gene  1 419711 631176 1.0 0 1264031.0 0.0 1
gene  1 631176 40 0.8576537070225362 0 1264032.0 0.0 1
gene  1 182118 631196 1.0 0 1264071.0 0.0 1
gene  1 631196 34 0.7914540647200231 0 1264072.0 0.0 1
gene  1 101146 637669 1.0 0 1277017.0 0.0 1
gene  1 637669 36 0.7093100147943865 0 1277018.0 0.0 1
gene  1 37 637692 1.0 0 1277063.0 0.0 1
gene  1 637692 332374 1.0 0 1277064.0 0.0 1
gene  1 141514 637710 1.0 0 1277099.0 0.0 1
gene  1 637710 29 -0.8443372131125152 0 1277100.0 0.0 1
gene  1 26 637727 1.0 0 1277133.0 0.0 0
gene  1 637727 34 -0.8156562036882058 0 1277134.0 0.0 1
gene  1 2 637747 1.0 0 1277173.0 0.0 1
gene  1 637747 41 0.6941816225494285 0 1277174.0 0.0 1
gene  1 25 682588 1.0 0 1366855.0 0.0 1
gene  1 682588 29 0.8412875383183833 0 1366856.0 0.0 0
gene  1 40 682656 1.0 1 1366991.0 0.0 1
gene  1 682656 36 -0.24798809010400158 0 1366992.0 0.0 1
gene  1 5 682675 1.0 0 1367029.0 0.0 1
gene  1 682675 35 0.7906769792293512 0 1367030.0 0.0 1
gene  1 141549 682693 1.0 0 1367065.0 0.0 1
gene  1 682693 167693 1.0 0 1367066.0 0.0 1
gene  1 621293 682710 1.0 0 1367099.0 0.0 1
gene  1 682710 39 -0.20355990176310246 0 1367100.0 0.0 1
gene  1 26 733560 1.0 0 1468799.0 0.0 1
gene  1 733560 637727 1.0 0 1468800.0 0.0 1
gene  1 5 733597 1.0 0 1468873.0 0.0 1
gene  1 733597 621293 1.0 0 1468874.0 0.0 1
gene  1 182069 733614 1.0 0 1468907.0 0.0 1
gene  1 733614 9478 1.0 0 1468908.0 0.0 1
gene  1 12 733636 1.0 0 1468951.0 0.0 1
gene  1 733636 54 1.0 0 1468952.0 0.0 0
gene  1 25 733660 1.0 0 1468999.0 0.0 1
gene  1 733660 101082 1.0 0 1469000.0 0.0 1
gene  1 24 741068 1.0 0 1483815.0 0.0 1
gene  1 741068 11908 1.0 0 1483816.0 0.0 1
gene  1 34 741089 1.0 0 1483857.0 0.0 1
gene  1 741089 141505 1.0 0 1483858.0 0.0 1
gene  1 31 741113 1.0 0 1483905.0 0.0 1
gene  1 741113 37 -0.7900414434710609 0 1483906.0 0.0 1
gene  1 30 741149 1.0 0 1483977.0 0.0 1
gene  1 741149 41 -0.1740529039460713 0 1483978.0 0.0 1
gene  1 27 741169 1.0 0 1484017.0 0.0 1
gene  1 741169 42 0.6191656854389593 0 1484018.0 0.0 0
gene  1 37 753374 1.0 1 1508427.0 0.0 1
gene  1 753374 36 0.5874679896270769 0 1508428.0 0.0 1
gene  1 9 753390 1.0 0 1508459.0 0.0 1
gene  1 753390 37 -0.9161320659604737 0 1508460.0 0.0 1
gene  1 9 753404 1.0 0 1508487.0 0.0 0
gene  1 753404 36 0.2707710377854271 0 1508488.0 0.0 1
gene  1 101128 753417 1.0 0 1508513.0 0.0 1
gene  1 753417 332358 1.0 0 1508514.0 0.0 1
gene  1 30 753441 1.0 0 1508561.0 0.0 1
gene  1 753441 11997 1.0 0 1508562.0 0.0 1
gene  1 37 850003 1.0 1 1701685.0 0.0 1
gene  1 850003 621273 1.0 0 1701686.0 0.0 1
gene  1 29 850018 1.0 0 1701715.0 0.0 1
gene  1 850018 39 0.5487510419981695 0 1701716.0 0.0 1
gene  1 682588 850054 1.0 0 1701787.0 0.0 1
gene  1 850054 29 0.8412875383183833 0 1701788.0 0.0 1
gene  1 419672 850066 1.0 0 1701811.0 0.0 1
gene  1 850066 293462 1.0 0 1701812.0 0.0 1
gene  1 332374 850090 1.0 0 1701859.0 0.0 1
gene  1 850090 41 -0.30864773152392466 0 1701860.0 0.0 1
gene  1 627287 894826 1.0 0 1791331.0 0.0 1
gene  1 894826 40 -0.8556896649014908 0 1791332.0 0.0 1
gene  1 42 894898 1.0 1 1791475.0 0.0 1
gene  1 894898 419650 1.0 0 1791476.0 0.0 1
gene  1 1 894920 1.0 0 1791519.0 0.0 1
gene  1 894920 29 0.8817865995815668 0 1791520.0 0.0 1
gene  1 3 894937 1.0 0 1791553.0 0.0 1
gene  1 894937 38 0.5602488073746897 0 1791554.0 0.0 1
gene  1 37 894962 1.0 0 1791603.0 0.0 1
gene  1 894962 332322 1.0 0 1791604.0 0.0 1
gene  1 15 900144 1.0 0 1801967.0 0.0 1
gene  1 900144 42 0.5830696166563959 0 1801968.0 0.0 1
gene  1 24 900169 1.0 0 1802017.0 0.0 1
gene  1 900169 37 -0.8577453644909344 0 1802018.0 0.0 1
gene  1 733636 900187 1.0 0 1802053.0 0.0 1
gene  1 900187 54 1.0 0 1802054.0 0.0 1
gene  1 182213 900245 1.0 0 1802169.0 0.0 1
gene  1 900245 40 -0.560106653770275 0 1802170.0 0.0 1
gene  1 18 900264 1.0 0 1802207.0 0.0 1
gene  1 900264 35 -0.1656208285915246 0 1802208.0 0.0 1
gene  1 3 906247 1.0 0 1814173.0 0.0 1
gene  1 906247 41 -0.057657762485305186 0 1814174.0 0.0 1
gene  1 293415 906290 1.0 0 1814259.0 0.0 1
gene  1 906290 36 -0.899152108862219 0 1814260.0 0.0 1
gene  1 741169 906304 1.0 0 1814287.0 0.0 1
gene  1 906304 42 0.6191656854389593 0 1814288.0 0.0 1
gene  1 9 906350 1.0 0 1814379.0 0.0 1
gene  1 906350 753404 1.0 0 1814380.0 0.0 1
gene  1 7 906370 1.0 0 1814419.0 0.0 1
gene  1 906370 41 -0.06539955470217118 0 1814420.0 0.0 1
genomeend 1
/* Organism # 002 Fitness:  0.000 Error:  0.000                      */
genomestart  2
trait 1 0.0 0.0 0.0 0.0 0.0 0.0 0.0 0.0 
node 1 1 1 1
node 2 1 1 1
node 3 1 1 1
node 4 1 1 1
node 5 1 1 1
node 6 1 1 1
node 7 1 1 1
node 8 1 1 1
node 9 1 1 1
node 10 1 1 1
node 11 1 1 1
node 12 1 1 1
node 13 1 1 1
node 14 1 1 1
node 15 1 1 1
node 16 1 1 1
node 17 1 1 1
node 18 1 1 1
node 19 1 1 1
node 20 1 1 1
node 21 1 1 1
node 22 1 1 1
node 23 1 1 1
node 24 1 1 1
node 25 1 1 1
node 26 1 1 1
node 27 1 1 1
node 28 1 1 3
node 29 1 0 0
node 30 1 0 0
node 31 1 0 0
node 34 1 0 2
node 35 1 0 2
node 36 1 0 2
node 37 1 0 2
node 38 1 0 2
node 39 1 0 2
node 40 1 0 2
node 41 1 0 2
node 42 1 0 2
node 54 1 0 0
node 9463 1 0 0
node 9478 1 0 0
node 9501 1 0 0
node 9520 1 0 0
node 9549 1 0 0
node 11908 1 0 0
node 11933 1 0 0
node 11982 1 0 0
node 11997 1 0 0
node 12015 1 0 0
node 53286 1 0 0
node 53400 1 0 0
node 53446 1 0 0
node 53468 1 0 0
node 53486 1 0 0
node 101059 1 0 0
node 101082 1 0 0
node 101128 1 0 0
node 101146 1 0 0
node 101172 1 0 0
node 141505 1 0 0
node 141514 1 0 0
node 141535 1 0 0
node 141549 1 0 0
node 141569 1 0 0
node 167618 1 0 0
node 167639 1 0 0
node 167654 1 0 0
node 167674 1 0 0
node 167693 1 0 0
node 182069 1 0 0
node 182118 1 0 0
node 182177 1 0 0
node 182194 1 0 0
node 182213 1 0 0
node 231583 1 0 0
node 231624 1 0 0
node 231706 1 0 0
node 231773 1 0 0
node 231793 1 0 0
node 293415 1 0 0
node 293435 1 0 0
node 293462 1 0 0
node 293483 1 0 0
node 293509 1 0 0
node 330995 1 0 0
node 331015 1 0 0
node 331073 1 0 0
node 331173 1 0 0
node 331198 1 0 0
node 332233 1 0 0
node 332322 1 0 0
node 332358 1 0 0
node 332374 1 0 0
node 332399 1 0 0
node 410042 1 0 0
node 410068 1 0 0
node 410106 1 0 0
node 410126 1 0 0
node 410144 1 0 0
node 419650 1 0 0
node 419672 1 0 0
node 419691 1 0 0
node 419711 1 0 0
node 419728 1 0 0
node 426773 1 0 0
node 426819 1 0 0
node 426835 1 0 0
node 426850 1 0 0
node 426869 1 0 0
node 435775 1 0 0
node 435796 1 0 0
node 435815 1 0 0
node 435837 1 0 0
node 435866 1 0 0
node 502000 1 0 0
node 502017 1 0 0
node 502098 1 0 0
node 502113 1 0 0
node 502138 1 0 0
node 551682 1 0 0
node 551702 1 0 0
node 551781 1 0 0
node 551829 1 0 0
node 551846 1 0 0
node 621252 1 0 0
node 621273 1 0 0
node 621293 1 0 0
node 621371 1 0 0
node 621391 1 0 0
node 623213 1 0 0
node 623232 1 0 0
node 623258 1 0 0
node 623294 1 0 0
node 623319 1 0 0
node 627287 1 0 0
node 627304 1 0 0
node 627342 1 0 0
node 627418 1 0 0
node 627436 1 0 0
node 631085 1 0 0
node 631106 1 0 0
node 631139 1 0 0
node 631176 1 0 0
node 631196 1 0 0
node 637669 1 0 0
node 637692 1 0 0
node 637710 1 0 0
node 637727 1 0 0
node 637747 1 0 0
node 682588 1 0 0
node 682656 1 0 0
node 682675 1 0 0
node 682693 1 0 0
node 682710 1 0 0
node 733560 1 0 0
node 733597 1 0 0
node 733614 1 0 0
node 733636 1 0 0
node 733660 1 0 0
node 741068 1 0 0
node 741089 1 0 0
node 741113 1 0 0
node 741149 1 0 0
node 741169 1 0 0
node 753374 1 0 0
node 753390 1 0 0
node 753404 1 0 0
node 753417 1 0 0
node 753441 1 0 0
node 850003 1 0 0
node 850018 1 0 0
node 850054 1 0 0
node 850066 1 0 0
node 850090 1 0 0
node 894826 1 0 0
node 894898 1 0 0
node 894920 1 0 0
node 894937 1 0 0
node 894962 1 0 0
node 900144 1 0 0
node 900169 1 0 0
node 900187 1 0 0
node 900245 1 0 0
node 900264 1 0 0
node 906247 1 0 0
node 906290 1 0 0
node 906304 1 0 0
node 906350 1 0 0
node 906370 1 0 0
node 909499 1 0 0
gene  1 1 29 0.8817865995815668 0 1176.0 0.8817865995815668 1
gene  1 5 29 -0.4608115883523288 0 1180.0 -0.4608115883523288 1
gene  1 7 29 -0.549940620437399 0 1182.0 -0.549940620437399 0
gene  1 8 29 -0.7631288790595535 0 1183.0 -0.7631288790595535 1
gene  1 10 29 0.1658152747637912 0 1185.0 0.1658152747637912 1
gene  1 11 29 0.8156513601363397 0 1186.0 0.8156513601363397 1
gene  1 20 29 0.962881798860341 0 1195.0 0.962881798860341 1
gene  1 21 29 0.5052850270871289 0 1196.0 0.5052850270871289 1
gene  1 22 29 0.6644070316372295 0 1197.0 0.6644070316372295 0
gene  1 23 29 -0.7544976750322352 0 1198.0 -0.7544976750322352 0
gene  1 25 29 0.8412875383183833 0 1200.0 0.8412875383183833 0
gene  1 28 29 0.9745842536586754 0 1203.0 0.9745842536586754 1
gene  1 29 29 0.7249191102258477 1 1204.0 0.7249191102258477 0
gene  1 34 29 -0.13479081475267463 1 1209.0 -0.13479081475267463 0
gene  1 35 29 -0.10601669784338286 1 1210.0 -0.10601669784338286 1
gene  1 37 29 -0.08835950982477936 1 1212.0 -0.08835950982477936 0
gene  1 38 29 0.9804622333801951 1 1213.0 0.9804622333801951 0
gene  1 39 29 -0.8443372131125152 1 1214.0 -0.8443372131125152 0
gene  1 41 29 0.7957099515185596 1 1216.0 0.7957099515185596 1
gene  1 2 34 -0.9714718897342378 0 1387.0 -0.9714718897342378 1
gene  1 3 34 0.7914540647200231 0 1388.0 0.7914540647200231 0
gene  1 4 34 0.07706986818632311 0 1389.0 0.07706986818632311 1
gene  1 5 34 -0.8481902811154257 0 1390.0 -0.8481902811154257 1
gene  1 10 34 0.8978884983447627 0 1395.0 0.8978884983447627 1
gene  1 11 34 0.8222371381906395 0 1396.0 0.8222371381906395 0
gene  1 16 34 0.21291844126109105 0 1401.0 0.21291844126109105 1
gene  1 19 34 0.6727706469934881 0 1404.0 0.6727706469934881 0
gene  1 26 34 -0.8156562036882058 0 1411.0 -0.8156562036882058 0
gene  1 35 34 0.239339046443803 1 1420.0 0.239339046443803 1
gene  1 39 34 0.4912584047116997 1 1424.0 0.4912584047116997 1
gene  1 40 34 -0.07763863414624106 1 1425.0 -0.07763863414624106 1
gene  1 41 34 0.23787399413521448 1 1426.0 0.23787399413521448 1
gene  1 5 35 0.7906769792293512 0 1432.0 0.7906769792293512 0
gene  1 6 35 -0.23751070826791543 0 1433.0 -0.23751070826791543 1
gene  1 10 35 -0.27773273338784477 0 1437.0 -0.27773273338784477 1
gene  1 14 35 -0.5181112610302246 0 1441.0 -0.5181112610302246 0
gene  1 17 35 0.9041166212330641 0 1444.0 0.9041166212330641 1
gene  1 18 35 -0.1656208285915246 0 1445.0 -0.1656208285915246 0
gene  1 19 35 0.5000774307565105 0 1446.0 0.5000774307565105 1
gene  1 23 35 -0.28818231004211003 0 1450.0 -0.28818231004211003 0
gene  1 24 35 0.7857341093661232 0 1451.0 0.7857341093661232 1
gene  1 26 35 0.2519585892188281 0 1453.0 0.2519585892188281 0
gene  1 35 35 0.13029102423698347 1 1462.0 0.13029102423698347 0
gene  1 36 35 0.0030623903655819795 1 1463.0 0.0030623903655819795 0
gene  1 38 35 -0.26871704794769713 1 1465.0 -0.26871704794769713 0
gene  1 39 35 0.6721248584041137 1 1466.0 0.6721248584041137 1
gene  1 40 35 -0.6451773670864656 1 1467.0 -0.6451773670864656 1
gene  1 41 35 0.41767764538580887 1 1468.0 0.41767764538580887 1
gene  1 2 36 -0.1882740482996459 0 1471.0 -0.1882740482996459 1
gene  1 4 36 -0.1715804480280877 0 1473.0 -0.1715804480280877 1
gene  1 7 36 0.4755929075523455 0 1476.0 0.4755929075523455 1
gene  1 8 36 -0.39086198963377217 0 1477.0 -0.39086198963377217 1
gene  1 9 36 0.2707710377854271 0 1478.0 0.2707710377854271 0
gene  1 14 36 -0.1611517317292097 0 1483.0 -0.1611517317292097 1
gene  1 16 36 -0.899152108862219 0 1485.0 -0.899152108862219 0
gene  1 17 36 0.572361225935418 0 1486.0 0.572361225935418 0
gene  1 18 36 -0.7205216128416074 0 1487.0 -0.7205216128416074 0
gene  1 20 36 0.4934187177942392 0 1489.0 0.4934187177942392 0
gene  1 22 36 -0.5161811891320097 0 1491.0 -0.5161811891320097 1
gene  1 23 36 -0.35066782992688883 0 1492.0 -0.35066782992688883 1
gene  1 24 36 0.7685499123278154 0 1493.0 0.7685499123278154 0
gene  1 25 36 0.7867311757978519 0 1494.0 0.7867311757978519 0
gene  1 28 36 -0.4914068055053896 0 1497.0 -0.4914068055053896 1
gene  1 29 36 0.4158534983225056 0 1498.0 0.4158534983225056 1
gene  1 34 36 -0.6769112985068229 0 1503.0 -0.6769112985068229 1
gene  1 35 36 0.8679788786561102 0 1504.0 0.8679788786561102 1
gene  1 36 36 0.7093100147943865 1 1505.0 0.7093100147943865 0
gene  1 37 36 0.5874679896270769 1 1506.0 0.5874679896270769 0
gene  1 39 36 0.9418699766266686 1 1508.0 0.9418699766266686 0
gene  1 40 36 -0.24798809010400158 1 1509.0 -0.24798809010400158 0
gene  1 42 36 -0.18839049907837313 1 1511.0 -0.18839049907837313 0
gene  1 2 37 -0.25990890450957027 0 1513.0 -0.25990890450957027 1
gene  1 5 37 0.4408389210054373 0 1516.0 0.4408389210054373 1
gene  1 9 37 -0.9161320659604737 0 1520.0 -0.9161320659604737 0
gene  1 11 37 0.40865659857073866 0 1522.0 0.40865659857073866 0
gene  1 13 37 -0.07900086249252025 0 1524.0 -0.07900086249252025 1
gene  1 15 37 -0.6282912182975061 0 1526.0 -0.6282912182975061 1
gene  1 16 37 0.012910757624073899 0 1527.0 0.012910757624073899 0
gene  1 18 37 0.30374638127572173 0 1529.0 0.30374638127572173 1
gene  1 22 37 0.7077807299475702 0 1533.0 0.7077807299475702 1
gene  1 23 37 0.24715155946344392 0 1534.0 0.24715155946344392 1
gene  1 24 37 -0.8577453644909344 0 1535.0 -0.8577453644909344 0
gene  1 27 37 -0.8308747600962009 0 1538.0 -0.8308747600962009 1
gene  1 28 37 -0.4717624986378942 0 1539.0 -0.4717624986378942 1
gene  1 30 37 0.4936541114138846 0 1541.0 0.4936541114138846 0
gene  1 31 37 -0.7900414434710609 0 1542.0 -0.7900414434710609 0
gene  1 35 37 0.5764227875360436 0 1546.0 0.5764227875360436 1
gene  1 36 37 0.09791996558030658 0 1547.0 0.09791996558030658 0
gene  1 38 37 0.7926948172822118 1 1549.0 0.7926948172822118 1
gene  1 40 37 -0.2817176220399997 1 1551.0 -0.2817176220399997 1
gene  1 1 38 -0.9254135632854031 0 1554.0 -0.9254135632854031 0
gene  1 3 38 0.5602488073746897 0 1556.0 0.5602488073746897 0
gene  1 4 38 0.10847204798816845 0 1557.0 0.10847204798816845 1
gene  1 6 38 -0.002799008156748828 0 1559.0 -0.002799008156748828 1
gene  1 7 38 0.8857252223857369 0 1560.0 0.8857252223857369 0
gene  1 8 38 0.21151612193182034 0 1561.0 0.21151612193182034 1
gene  1 10 38 -0.3192076123873395 0 1563.0 -0.3192076123873395 1
gene  1 11 38 0.6897090405394963 0 1564.0 0.6897090405394963 1
gene  1 15 38 0.2303088623846411 0 1568.0 0.2303088623846411 0
gene  1 16 38 -0.8802036265457791 0 1569.0 -0.8802036265457791 1
gene  1 17 38 0.7358640076321215 0 1570.0 0.7358640076321215 0
gene  1 18 38 -0.90973390197444 0 1571.0 -0.90973390197444 0
gene  1 22 38 0.16881616278836764 0 1575.0 0.16881616278836764 0
gene  1 24 38 0.7420024225580231 0 1577.0 0.7420024225580231 0
gene  1 28 38 -0.9658045082394953 0 1581.0 -0.9658045082394953 1
gene  1 29 38 -0.13180706944407428 0 1582.0 -0.13180706944407428 1
gene  1 34 38 -0.5614444731508939 0 1587.0 -0.5614444731508939 1
gene  1 41 38 -0.5123075947770338 1 1594.0 -0.5123075947770338 1
gene  1 1 39 0.09570786255973474 0 1596.0 0.09570786255973474 1
gene  1 2 39 -0.35611133337474987 0 1597.0 -0.35611133337474987 1
gene  1 3 39 -0.40706450492932855 0 1598.0 -0.40706450492932855 1
gene  1 4 39 0.6487735285421198 0 1599.0 0.6487735285421198 1
gene  1 5 39 -0.20355990176310246 0 1600.0 -0.20355990176310246 0
gene  1 6 39 0.2832712784548109 0 1601.0 0.2832712784548109 1
gene  1 7 39 -0.5969304742990107 0 1602.0 -0.5969304742990107 0
gene  1 9 39 -0.06912647240394099 0 1604.0 -0.06912647240394099 0
gene  1 14 39 -0.8402098816368656 0 1609.0 -0.8402098816368656 1
gene  1 18 39 -0.8925229862453911 0 1613.0 -0.8925229862453911 1
gene  1 21 39 0.3934323262294096 0 1616.0 0.3934323262294096 1
gene  1 24 39 0.458190458505531 0 1619.0 0.458190458505531 1
gene  1 26 39 0.6641799733128033 0 1621.0 0.6641799733128033 1
gene  1 28 39 0.7934923404510578 0 1623.0 0.7934923404510578 1
gene  1 29 39 0.5487510419981695 0 1624.0 0.5487510419981695 0
gene  1 34 39 0.4354438062896482 0 1629.0 0.4354438062896482 1
gene  1 36 39 0.42091308094069135 0 1631.0 0.42091308094069135 0
gene  1 39 39 0.6862470273183194 1 1634.0 0.6862470273183194 1
gene  1 40 39 0.5586201277441724 1 1635.0 0.5586201277441724 1
gene  1 42 39 -0.6032371800485316 1 1637.0 -0.6032371800485316 0
gene  1 2 40 -0.9655666032620529 0 1639.0 -0.9655666032620529 1
gene  1 4 40 0.24915610825319146 0 1641.0 0.24915610825319146 1
gene  1 5 40 -0.9987464424589333 0 1642.0 -0.9987464424589333 1
gene  1 6 40 0.01579674374996365 0 1643.0 0.01579674374996365 1
gene  1 7 40 0.8073183441597614 0 1644.0 0.8073183441597614 0
gene  1 8 40 0.2357022839188173 0 1645.0 0.2357022839188173 1
gene  1 11 40 0.8222491364440142 0 1648.0 0.8222491364440142 1
gene  1 12 40 0.6669100682960394 0 1649.0 0.6669100682960394 1
gene  1 13 40 0.45782661018425097 0 1650.0 0.45782661018425097 1
gene  1 14 40 0.13354070044251187 0 1651.0 0.13354070044251187 0
gene  1 17 40 -0.6215552125989807 0 1654.0 -0.6215552125989807 1
gene  1 18 40 0.7532224230162111 0 1655.0 0.7532224230162111 1
gene  1 20 40 -0.6862385457772189 0 1657.0 -0.6862385457772189 0
gene  1 22 40 0.4774430456628532 0 1659.0 0.4774430456628532 1
gene  1 23 40 -0.25274108475528 0 1660.0 -0.25274108475528 1
gene  1 24 40 -0.34071197455775504 0 1661.0 -0.34071197455775504 0
gene  1 26 40 0.09160039289916488 0 1663.0 0.09160039289916488 1
gene  1 27 40 0.5398504105863692 0 1664.0 0.5398504105863692 1
gene  1 28 40 -0.5688996730310406 0 1665.0 -0.5688996730310406 1
gene  1 29 40 0.5513868716864959 0 1666.0 0.5513868716864959 1
gene  1 31 40 -0.4087009096863401 0 1668.0 -0.4087009096863401 0
gene  1 34 40 -0.2979936624023849 0 1671.0 -0.2979936624023849 1
gene  1 35 40 -0.8556896649014908 0 1672.0 -0.8556896649014908 0
gene  1 37 40 0.9496598459439932 0 1674.0 0.9496598459439932 0
gene  1 38 40 0.8576537070225362 0 1675.0 0.8576537070225362 0
gene  1 40 40 -0.11621714380000192 1 1677.0 -0.11621714380000192 0
gene  1 41 40 -0.560106653770275 1 1678.0 -0.560106653770275 0
gene  1 2 41 0.6941816225494285 0 1681.0 0.6941816225494285 0
gene  1 3 41 -0.057657762485305186 0 1682.0 -0.057657762485305186 0
gene  1 6 41 -0.7294226086729065 0 1685.0 -0.7294226086729065 1
gene  1 7 41 -0.06539955470217118 0 1686.0 -0.06539955470217118 0
gene  1 9 41 0.529005584346669 0 1688.0 0.529005584346669 0
gene  1 10 41 -0.46249723046817015 0 1689.0 -0.46249723046817015 0
gene  1 15 41 -0.7834766086158559 0 1694.0 -0.7834766086158559 1
gene  1 17 41 -0.21301215443629307 0 1696.0 -0.21301215443629307 1
gene  1 18 41 -0.4125383776508825 0 1697.0 -0.4125383776508825 1
gene  1 19 41 0.5849617819718136 0 1698.0 0.5849617819718136 1
gene  1 22 41 -0.21790798542703183 0 1701.0 -0.21790798542703183 1
gene  1 23 41 0.4879029999132354 0 1702.0 0.4879029999132354 1
gene  1 24 41 0.665407916714811 0 1703.0 0.665407916714811 0
gene  1 25 41 0.08936867054575504 0 1704.0 0.08936867054575504 1
gene  1 30 41 -0.1740529039460713 0 1709.0 -0.1740529039460713 0
gene  1 31 41 -0.8574070196930503 0 1710.0 -0.8574070196930503 1
gene  1 34 41 0.8976249335957561 0 1713.0 0.8976249335957561 0
gene  1 36 41 -0.010006860156857589 0 1715.0 -0.010006860156857589 0
gene  1 37 41 -0.30864773152392466 0 1716.0 -0.30864773152392466 0
gene  1 38 41 -0.13614563265469382 0 1717.0 -0.13614563265469382 1
gene  1 42 41 0.6365823125252349 1 1721.0 0.6365823125252349 0
gene  1 2 42 -0.24723210842638854 0 1723.0 -0.24723210842638854 0
gene  1 3 42 0.4912617683399184 0 1724.0 0.4912617683399184 0
gene  1 4 42 -0.9999387692864286 0 1725.0 -0.9999387692864286 1
gene  1 5 42 0.802750828291783 0 1726.0 0.802750828291783 1
gene  1 6 42 -0.18513083952193155 0 1727.0 -0.18513083952193155 0
gene  1 9 42 -0.8883191931705567 0 1730.0 -0.8883191931705567 1
gene  1 11 42 0.8091665441832495 0 1732.0 0.8091665441832495 1
gene  1 12 42 0.7984952068764248 0 1733.0 0.7984952068764248 0
gene  1 14 42 0.8325203612123442 0 1735.0 0.8325203612123442 1
gene  1 15 42 0.5830696166563959 0 1736.0 0.5830696166563959 0
gene  1 16 42 0.7548915862346363 0 1737.0 0.7548915862346363 1
gene  1 17 42 0.6132242367970259 0 1738.0 0.6132242367970259 1
gene  1 19 42 0.6143219839819055 0 1740.0 0.6143219839819055 1
gene  1 23 42 -0.7678945963119235 0 1744.0 -0.7678945963119235 1
gene  1 24 42 -0.3969806611770478 0 1745.0 -0.3969806611770478 0
gene  1 26 42 -0.6779578495079384 0 1747.0 -0.6779578495079384 1
gene  1 27 42 0.6191656854389593 0 1748.0 0.6191656854389593 0
gene  1 29 42 0.4628214005012359 0 1750.0 0.4628214005012359 1
gene  1 30 42 -0.9195254445584866 0 1751.0 -0.9195254445584866 0
gene  1 31 42 -0.1940662122136052 0 1752.0 -0.1940662122136052 1
gene  1 35 42 -0.261966203115891 0 1756.0 -0.261966203115891 1
gene  1 37 42 -0.8739704907738033 0 1758.0 -0.8739704907738033 0
gene  1 39 42 -0.7415036017609804 0 1760.0 -0.7415036017609804 1
gene  1 12 54 1.0 0 1787.0 0.0 0
gene  1 54 42 0.7984952068764248 0 1788.0 0.0 0
gene  1 34 9463 1.0 0 20605.0 0.0 0
gene  1 9463 41 0.8976249335957561 0 20606.0 0.0 1
gene  1 6 9478 1.0 0 20635.0 0.0 0
gene  1 9478 42 -0.18513083952193155 0 20636.0 0.0 0
gene  1 38 9501 1.0 1 20681.0 0.0 1
gene  1 9501 29 0.9804622333801951 0 20682.0 0.0 0
gene  1 36 9520 1.0 0 20719.0 0.0 1
gene  1 9520 41 -0.010006860156857589 0 20720.0 0.0 1
gene  1 42 9549 1.0 1 20777.0 0.0 1
gene  1 9549 41 0.6365823125252349 0 20778.0 0.0 1
gene  1 24 11908 1.0 0 25495.0 0.0 0
gene  1 11908 36 0.7685499123278154 0 25496.0 0.0 1
gene  1 42 11933 1.0 1 25545.0 0.0 0
gene  1 11933 39 -0.6032371800485316 0 25546.0 0.0 1
gene  1 17 11982 1.0 0 25643.0 0.0 1
gene  1 11982 38 0.7358640076321215 0 25644.0 0.0 0
gene  1 30 11997 1.0 0 25673.0 0.0 0
gene  1 11997 37 0.4936541114138846 0 25674.0 0.0 0
gene  1 24 12015 1.0 0 25709.0 0.0 0
gene  1 12015 38 0.7420024225580231 0 25710.0 0.0 0
gene  1 36 53286 1.0 0 108251.0 0.0 0
gene  1 53286 39 0.42091308094069135 0 108252.0 0.0 0
gene  1 3 53400 1.0 0 108479.0 0.0 1
gene  1 53400 42 0.4912617683399184 0 108480.0 0.0 1
gene  1 2 53446 1.0 0 108571.0 0.0 0
gene  1 53446 42 -0.24723210842638854 0 108572.0 0.0 0
gene  1 23 53468 1.0 0 108615.0 0.0 1
gene  1 53468 29 -0.7544976750322352 0 108616.0 0.0 0
gene  1 53286 53486 1.0 0 108651.0 0.0 1
gene  1 53486 39 0.42091308094069135 0 108652.0 0.0 1
gene  1 9 101059 1.0 0 203797.0 0.0 1
gene  1 101059 39 -0.06912647240394099 0 203798.0 0.0 0
gene  1 25 101082 1.0 0 203843.0 0.0 0
gene  1 101082 36 0.7867311757978519 0 203844.0 0.0 1
gene  1 31 101128 1.0 0 203935.0 0.0 1
gene  1 101128 40 -0.4087009096863401 0 203936.0 0.0 1
gene  1 36 101146 1.0 1 203971.0 0.0 1
gene  1 101146 36 0.7093100147943865 0 203972.0 0.0 0
gene  1 101059 101172 1.0 0 204023.0 0.0 1
gene  1 101172 39 -0.06912647240394099 0 204024.0 0.0 1
gene  1 34 141505 1.0 0 284689.0 0.0 0
gene  1 141505 9463 1.0 0 284690.0 0.0 1
gene  1 39 141514 1.0 1 284707.0 0.0 1
gene  1 141514 29 -0.8443372131125152 0 284708.0 0.0 0
gene  1 7 141535 1.0 0 284749.0 0.0 1
gene  1 141535 38 0.8857252223857369 0 284750.0 0.0 1
gene  1 14 141549 1.0 0 284777.0 0.0 1
gene  1 141549 40 0.13354070044251187 0 284778.0 0.0 0
gene  1 36 141569 1.0 1 284817.0 0.0 1
gene  1 141569 35 0.0030623903655819795 0 284818.0 0.0 1
gene  1 20 167618 1.0 0 336915.0 0.0 1
gene  1 167618 29 0.962881798860341 0 336916.0 0.0 1
gene  1 23 167639 1.0 0 336957.0 0.0 0
gene  1 167639 35 -0.28818231004211003 0 336958.0 0.0 1
gene  1 11997 167654 1.0 0 336987.0 0.0 1
gene  1 167654 37 0.4936541114138846 0 336988.0 0.0 1
gene  1 24 167674 1.0 0 337027.0 0.0 1
gene  1 167674 12015 1.0 0 337028.0 0.0 0
gene  1 141549 167693 1.0 0 337065.0 0.0 0
gene  1 167693 40 0.13354070044251187 0 337066.0 0.0 1
gene  1 6 182069 1.0 0 365817.0 0.0 1
gene  1 182069 9478 1.0 0 365818.0 0.0 0
gene  1 3 182118 1.0 0 365915.0 0.0 1
gene  1 182118 34 0.7914540647200231 0 365916.0 0.0 0
gene  1 1 182177 1.0 0 366033.0 0.0 1
gene  1 182177 38 -0.9254135632854031 0 366034.0 0.0 1
gene  1 11 182194 1.0 0 366067.0 0.0 1
gene  1 182194 34 0.8222371381906395 0 366068.0 0.0 1
gene  1 41 182213 1.0 1 366105.0 0.0 1
gene  1 182213 40 -0.560106653770275 0 366106.0 0.0 0
gene  1 7 231583 1.0 0 464845.0 0.0 1
gene  1 231583 39 -0.5969304742990107 0 464846.0 0.0 1
gene  1 16 231624 1.0 0 464927.0 0.0 1
gene  1 231624 37 0.012910757624073899 0 464928.0 0.0 1
gene  1 9 231706 1.0 0 465091.0 0.0 0
gene  1 231706 41 0.529005584346669 0 465092.0 0.0 1
gene  1 24 231773 1.0 0 465225.0 0.0 1
gene  1 231773 40 -0.34071197455775504 0 465226.0 0.0 0
gene  1 40 231793 1.0 1 465265.0 0.0 1
gene  1 231793 40 -0.11621714380000192 0 465266.0 0.0 0
gene  1 16 293415 1.0 0 588509.0 0.0 1
gene  1 293415 36 -0.899152108862219 0 588510.0 0.0 0
gene  1 15 293435 1.0 0 588549.0 0.0 0
gene  1 293435 38 0.2303088623846411 0 588550.0 0.0 1
gene  1 9 293462 1.0 0 588603.0 0.0 0
gene  1 293462 231706 1.0 0 588604.0 0.0 0
gene  1 20 293483 1.0 0 588645.0 0.0 1
gene  1 293483 36 0.4934187177942392 0 588646.0 0.0 1
gene  1 54 293509 1.0 0 588697.0 0.0 1
gene  1 293509 42 0.7984952068764248 0 588698.0 0.0 1
gene  1 17 330995 1.0 0 663669.0 0.0 1
gene  1 330995 36 0.572361225935418 0 663670.0 0.0 1
gene  1 14 331015 1.0 0 663709.0 0.0 1
gene  1 331015 35 -0.5181112610302246 0 663710.0 0.0 1
gene  1 36 331073 1.0 0 663825.0 0.0 0
gene  1 331073 53286 1.0 0 663826.0 0.0 1
gene  1 36 331173 1.0 0 664025.0 0.0 1
gene  1 331173 37 0.09791996558030658 0 664026.0 0.0 1
gene  1 293462 331198 1.0 0 664075.0 0.0 1
gene  1 331198 231706 1.0 0 664076.0 0.0 1
gene  1 10 332233 1.0 0 666145.0 0.0 1
gene  1 332233 41 -0.46249723046817015 0 666146.0 0.0 1
gene  1 37 332322 1.0 0 666323.0 0.0 0
gene  1 332322 42 -0.8739704907738033 0 666324.0 0.0 0
gene  1 101128 332358 1.0 0 666395.0 0.0 0
gene  1 332358 40 -0.4087009096863401 0 666396.0 0.0 1
gene  1 37 332374 1.0 0 666427.0 0.0 0
gene  1 332374 41 -0.30864773152392466 0 666428.0 0.0 0
gene  1 12015 332399 1.0 0 666477.0 0.0 1
gene  1 332399 38 0.7420024225580231 0 666478.0 0.0 1
gene  1 37 410042 1.0 0 821763.0 0.0 1
gene  1 410042 40 0.9496598459439932 0 821764.0 0.0 1
gene  1 18 410068 1.0 0 821815.0 0.0 1
gene  1 410068 38 -0.90973390197444 0 821816.0 0.0 1
gene  1 35 410106 1.0 0 821891.0 0.0 1
gene  1 410106 40 -0.8556896649014908 0 821892.0 0.0 0
gene  1 231793 410126 1.0 0 821931.0 0.0 1
gene  1 410126 40 -0.11621714380000192 0 821932.0 0.0 0
gene  1 30 410144 1.0 0 821967.0 0.0 1
gene  1 410144 42 -0.9195254445584866 0 821968.0 0.0 1
gene  1 42 419650 1.0 1 840979.0 0.0 0
gene  1 419650 36 -0.18839049907837313 0 840980.0 0.0 1
gene  1 9 419672 1.0 0 841023.0 0.0 1
gene  1 419672 293462 1.0 0 841024.0 0.0 0
gene  1 18 419691 1.0 0 841061.0 0.0 1
gene  1 419691 36 -0.7205216128416074 0 841062.0 0.0 0
gene  1 38 419711 1.0 0 841101.0 0.0 1
gene  1 419711 40 0.8576537070225362 0 841102.0 0.0 0
gene  1 29 419728 1.0 1 841135.0 0.0 1
gene  1 419728 29 0.7249191102258477 0 841136.0 0.0 0
gene  1 11982 426773 1.0 0 855225.0 0.0 1
gene  1 426773 38 0.7358640076321215 0 855226.0 0.0 1
gene  1 7 426819 1.0 0 855317.0 0.0 1
gene  1 426819 40 0.8073183441597614 0 855318.0 0.0 1
gene  1 419691 426835 1.0 0 855349.0 0.0 1
gene  1 426835 36 -0.7205216128416074 0 855350.0 0.0 1
gene  1 11 426850 1.0 0 855379.0 0.0 1
gene  1 426850 37 0.40865659857073866 0 855380.0 0.0 1
gene  1 53446 426869 1.0 0 855417.0 0.0 1
gene  1 426869 42 -0.24723210842638854 0 855418.0 0.0 1
gene  1 36 435775 1.0 0 873229.0 0.0 0
gene  1 435775 331073 1.0 0 873230.0 0.0 1
gene  1 410126 435796 1.0 0 873271.0 0.0 1
gene  1 435796 40 -0.11621714380000192 0 873272.0 0.0 1
gene  1 15 435815 1.0 0 873309.0 0.0 1
gene  1 435815 293435 1.0 0 873310.0 0.0 1
gene  1 167674 435837 1.0 0 873353.0 0.0 1
gene  1 435837 12015 1.0 0 873354.0 0.0 1
gene  1 35 435866 1.0 1 873411.0 0.0 1
gene  1 435866 35 0.13029102423698347 0 873412.0 0.0 1
gene  1 9478 502000 1.0 0 1005679.0 0.0 1
gene  1 502000 42 -0.18513083952193155 0 1005680.0 0.0 1
gene  1 24 502017 1.0 0 1005713.0 0.0 1
gene  1 502017 42 -0.3969806611770478 0 1005714.0 0.0 1
gene  1 231773 502098 1.0 0 1005875.0 0.0 1
gene  1 502098 40 -0.34071197455775504 0 1005876.0 0.0 1
gene  1 22 502113 1.0 0 1005905.0 0.0 1
gene  1 502113 38 0.16881616278836764 0 1005906.0 0.0 1
gene  1 19 502138 1.0 0 1005955.0 0.0 1
gene  1 502138 34 0.6727706469934881 0 1005956.0 0.0 0
gene  1 22 551682 1.0 0 1105043.0 0.0 1
gene  1 551682 29 0.6644070316372295 0 1105044.0 0.0 0
gene  1 34 551702 1.0 1 1105083.0 0.0 1
gene  1 551702 29 -0.13479081475267463 0 1105084.0 0.0 1
gene  1 24 551781 1.0 0 1105241.0 0.0 1
gene  1 551781 41 0.665407916714811 0 1105242.0 0.0 1
gene  1 36 551829 1.0 0 1105337.0 0.0 1
gene  1 551829 435775 1.0 0 1105338.0 0.0 1
gene  1 419728 551846 1.0 0 1105371.0 0.0 1
gene  1 551846 29 0.7249191102258477 0 1105372.0 0.0 1
gene  1 39 621252 1.0 1 1244183.0 0.0 1
gene  1 621252 36 0.9418699766266686 0 1244184.0 0.0 1
gene  1 37 621273 1.0 1 1244225.0 0.0 0
gene  1 621273 29 -0.08835950982477936 0 1244226.0 0.0 1
gene  1 5 621293 1.0 0 1244265.0 0.0 0
gene  1 621293 39 -0.20355990176310246 0 1244266.0 0.0 0
gene  1 551682 621371 1.0 0 1244421.0 0.0 0
gene  1 621371 29 0.6644070316372295 0 1244422.0 0.0 1
gene  1 502138 621391 1.0 0 1244461.0 0.0 1
gene  1 621391 34 0.6727706469934881 0 1244462.0 0.0 1
gene  1 2 623213 1.0 0 1248105.0 0.0 1
gene  1 623213 53446 1.0 0 1248106.0 0.0 0
gene  1 551682 623232 1.0 0 1248143.0 0.0 1
gene  1 623232 621371 1.0 0 1248144.0 0.0 1
gene  1 42 623258 1.0 1 1248195.0 0.0 1
gene  1 623258 11933 1.0 0 1248196.0 0.0 1
gene  1 332322 623294 1.0 0 1248267.0 0.0 1
gene  1 623294 42 -0.8739704907738033 0 1248268.0 0.0 1
gene  1 23 623319 1.0 0 1248317.0 0.0 1
gene  1 623319 167639 1.0 0 1248318.0 0.0 0
gene  1 410106 627287 1.0 0 1256253.0 0.0 1
gene  1 627287 40 -0.8556896649014908 0 1256254.0 0.0 0
gene  1 9501 627304 1.0 0 1256287.0 0.0 1
gene  1 627304 29 0.9804622333801951 0 1256288.0 0.0 1
gene  1 38 627342 1.0 1 1256363.0 0.0 1
gene  1 627342 35 -0.26871704794769713 0 1256364.0 0.0 1
gene  1 20 627418 1.0 0 1256515.0 0.0 1
gene  1 627418 40 -0.6862385457772189 0 1256516.0 0.0 1
gene  1 26 627436 1.0 0 1256551.0 0.0 1
gene  1 627436 35 0.2519585892188281 0 1256552.0 0.0 0
gene  1 623319 631085 1.0 0 1263849.0 0.0 1
gene  1 631085 167639 1.0 0 1263850.0 0.0 1
gene  1 627436 631106 1.0 0 1263891.0 0.0 1
gene  1 631106 35 0.2519585892188281 0 1263892.0 0.0 1
gene  1 623213 631139 1.0 0 1263957.0 0.0 1
gene  1 631139 53446 1.0 0 1263958.0 0.0 1
gene  1 419711 631176 1.0 0 1264031.0 0.0 1
gene  1 631176 40 0.8576537070225362 0 1264032.0 0.0 1
gene  1 182118 631196 1.0 0 1264071.0 0.0 1
gene  1 631196 34 0.7914540647200231 0 1264072.0 0.0 1
gene  1 101146 637669 1.0 0 1277017.0 0.0 1
gene  1 637669 36 0.7093100147943865 0 1277018.0 0.0 1
gene  1 37 637692 1.0 0 1277063.0 0.0 1
gene  1 637692 332374 1.0 0 1277064.0 0.0 1
gene  1 141514 637710 1.0 0 1277099.0 0.0 1
gene  1 637710 29 -0.8443372131125152 0 1277100.0 0.0 1
gene  1 26 637727 1.0 0 1277133.0 0.0 0
gene  1 637727 34 -0.8156562036882058 0 1277134.0 0.0 1
gene  1 2 637747 1.0 0 1277173.0 0.0 1
gene  1 637747 41 0.6941816225494285 0 1277174.0 0.0 1
gene  1 25 682588 1.0 0 1366855.0 0.0 1
gene  1 682588 29 0.8412875383183833 0 1366856.0 0.0 0
gene  1 40 682656 1.0 1 1366991.0 0.0 1
gene  1 682656 36 -0.24798809010400158 0 1366992.0 0.0 1
gene  1 5 682675 1.0 0 1367029.0 0.0 1
gene  1 682675 35 0.7906769792293512 0 1367030.0 0.0 1
gene  1 141549 682693 1.0 0 1367065.0 0.0 1
gene  1 682693 167693 1.0 0 1367066.0 0.0 1
gene  1 621293 682710 1.0 0 1367099.0 0.0 1
gene  1 682710 39 -0.20355990176310246 0 1367100.0 0.0 1
gene  1 26 733560 1.0 0 1468799.0 0.0 1
gene  1 733560 637727 1.0 0 1468800.0 0.0 1
gene  1 5 733597 1.0 0 1468873.0 0.0 1
gene  1 733597 621293 1.0 0 1468874.0 0.0 1
gene  1 182069 733614 1.0 0 1468907.0 0.0 1
gene  1 733614 9478 1.0 0 1468908.0 0.0 1
gene  1 12 733636 1.0 0 1468951.0 0.0 1
gene  1 733636 54 1.0 0 1468952.0 0.0 0
gene  1 25 733660 1.0 0 1468999.0 0.0 1
gene  1 733660 101082 1.0 0 1469000.0 0.0 1
gene  1 24 741068 1.0 0 1483815.0 0.0 1
gene  1 741068 11908 1.0 0 1483816.0 0.0 1
gene  1 34 741089 1.0 0 1483857.0 0.0 1
gene  1 741089 141505 1.0 0 1483858.0 0.0 1
gene  1 31 741113 1.0 0 1483905.0 0.0 1
gene  1 741113 37 -0.7900414434710609 0 1483906.0 0.0 1
gene  1 30 741149 1.0 0 1483977.0 0.0 1
gene  1 741149 41 -0.1740529039460713 0 1483978.0 0.0 1
gene  1 27 741169 1.0 0 1484017.0 0.0 1
gene  1 741169 42 0.6191656854389593 0 1484018.0 0.0 0
gene  1 37 753374 1.0 1 1508427.0 0.0 1
gene  1 753374 36 0.5874679896270769 0 1508428.0 0.0 1
gene  1 9 753390 1.0 0 1508459.0 0.0 1
gene  1 753390 37 -0.9161320659604737 0 1508460.0 0.0 1
gene  1 9 753404 1.0 0 1508487.0 0.0 0
gene  1 753404 36 0.2707710377854271 0 1508488.0 0.0 1
gene  1 101128 753417 1.0 0 1508513.0 0.0 1
gene  1 753417 332358 1.0 0 1508514.0 0.0 1
gene  1 30 753441 1.0 0 1508561.0 0.0 1
gene  1 753441 11997 1.0 0 1508562.0 0.0 1
gene  1 37 850003 1.0 1 1701685.0 0.0 1
gene  1 850003 621273 1.0 0 1701686.0 0.0 1
gene  1 29 850018 1.0 0 1701715.0 0.0 1
gene  1 850018 39 0.5487510419981695 0 1701716.0 0.0 1
gene  1 682588 850054 1.0 0 1701787.0 0.0 1
gene  1 850054 29 0.8412875383183833 0 1701788.0 0.0 1
gene  1 419672 850066 1.0 0 1701811.0 0.0 1
gene  1 850066 293462 1.0 0 1701812.0 0.0 1
gene  1 332374 850090 1.0 0 1701859.0 0.0 1
gene  1 850090 41 -0.30864773152392466 0 1701860.0 0.0 1
gene  1 627287 894826 1.0 0 1791331.0 0.0 1
gene  1 894826 40 -0.8556896649014908 0 1791332.0 0.0 1
gene  1 42 894898 1.0 1 1791475.0 0.0 1
gene  1 894898 419650 1.0 0 1791476.0 0.0 1
gene  1 1 894920 1.0 0 1791519.0 0.0 1
gene  1 894920 29 0.8817865995815668 0 1791520.0 0.0 1
gene  1 3 894937 1.0 0 1791553.0 0.0 1
gene  1 894937 38 0.5602488073746897 0 1791554.0 0.0 1
gene  1 37 894962 1.0 0 1791603.0 0.0 1
gene  1 894962 332322 1.0 0 1791604.0 0.0 1
gene  1 15 900144 1.0 0 1801967.0 0.0 1
gene  1 900144 42 0.5830696166563959 0 1801968.0 0.0 1
gene  1 24 900169 1.0 0 1802017.0 0.0 1
gene  1 900169 37 -0.8577453644909344 0 1802018.0 0.0 1
gene  1 733636 900187 1.0 0 1802053.0 0.0 1
gene  1 900187 54 1.0 0 1802054.0 0.0 1
gene  1 182213 900245 1.0 0 1802169.0 0.0 1
gene  1 900245 40 -0.560106653770275 0 1802170.0 0.0 1
gene  1 18 900264 1.0 0 1802207.0 0.0 1
gene  1 900264 35 -0.1656208285915246 0 1802208.0 0.0 1
gene  1 3 906247 1.0 0 1814173.0 0.0 1
gene  1 906247 41 -0.057657762485305186 0 1814174.0 0.0 1
gene  1 293415 906290 1.0 0 1814259.0 0.0 1
gene  1 906290 36 -0.899152108862219 0 1814260.0 0.0 1
gene  1 741169 906304 1.0 0 1814287.0 0.0 1
gene  1 906304 42 0.6191656854389593 0 1814288.0 0.0 1
gene  1 9 906350 1.0 0 1814379.0 0.0 1
gene  1 906350 753404 1.0 0 1814380.0 0.0 1
gene  1 7 906370 1.0 0 1814419.0 0.0 1
gene  1 906370 41 -0.06539955470217118 0 1814420.0 0.0 1
gene  1 53468 909499 1.0 0 1820677.0 0.0 1
gene  1 909499 29 -0.7544976750322352 0 1820678.0 0.0 1
genomeend 2
/* Organism # 003 Fitness:  0.000 Error:  0.000                      */
genomestart  3
trait 1 0.0 0.0 0.0 0.0 0.0 0.0 0.0 0.0 
node 1 1 1 1
node 2 1 1 1
node 3 1 1 1
node 4 1 1 1
node 5 1 1 1
node 6 1 1 1
node 7 1 1 1
node 8 1 1 1
node 9 1 1 1
node 10 1 1 1
node 11 1 1 1
node 12 1 1 1
node 13 1 1 1
node 14 1 1 1
node 15 1 1 1
node 16 1 1 1
node 17 1 1 1
node 18 1 1 1
node 19 1 1 1
node 20 1 1 1
node 21 1 1 1
node 22 1 1 1
node 23 1 1 1
node 24 1 1 1
node 25 1 1 1
node 26 1 1 1
node 27 1 1 1
node 28 1 1 3
node 29 1 0 0
node 30 1 0 0
node 31 1 0 0
node 34 1 0 2
node 35 1 0 2
node 36 1 0 2
node 37 1 0 2
node 38 1 0 2
node 39 1 0 2
node 40 1 0 2
node 41 1 0 2
node 42 1 0 2
node 54 1 0 0
node 9463 1 0 0
node 9478 1 0 0
node 9501 1 0 0
node 9520 1 0 0
node 9549 1 0 0
node 11908 1 0 0
node 11933 1 0 0
node 11982 1 0 0
node 11997 1 0 0
node 12015 1 0 0
node 53286 1 0 0
node 53400 1 0 0
node 53446 1 0 0
node 53468 1 0 0
node 53486 1 0 0
node 101059 1 0 0
node 101082 1 0 0
node 101128 1 0 0
node 101146 1 0 0
node 101172 1 0 0
node 141505 1 0 0
node 141514 1 0 0
node 141535 1 0 0
node 141549 1 0 0
node 141569 1 0 0
node 167618 1 0 0
node 167639 1 0 0
node 167654 1 0 0
node 167674 1 0 0
node 167693 1 0 0
node 182069 1 0 0
node 182118 1 0 0
node 182177 1 0 0
node 182194 1 0 0
node 182213 1 0 0
node 231583 1 0 0
node 231624 1 0 0
node 231706 1 0 0
node 231773 1 0 0
node 231793 1 0 0
node 293415 1 0 0
node 293435 1 0 0
node 293462 1 0 0
node 293483 1 0 0
node 293509 1 0 0
node 330995 1 0 0
node 331015 1 0 0
node 331073 1 0 0
node 331173 1 0 0
node 331198 1 0 0
node 332233 1 0 0
node 332322 1 0 0
node 332358 1 0 0
node 332374 1 0 0
node 332399 1 0 0
node 410042 1 0 0
node 410068 1 0 0
node 410106 1 0 0
node 410126 1 0 0
node 410144 1 0 0
node 419650 1 0 0
node 419672 1 0 0
node 419691 1 0 0
node 419711 1 0 0
node 419728 1 0 0
node 426773 1 0 0
node 426819 1 0 0
node 426835 1 0 0
node 426850 1 0 0
node 426869 1 0 0
node 435775 1 0 0
node 435796 1 0 0
node 435815 1 0 0
node 435837 1 0 0
node 435866 1 0 0
node 502000 1 0 0
node 502017 1 0 0
node 502098 1 0 0
node 502113 1 0 0
node 502138 1 0 0
node 551682 1 0 0
node 551702 1 0 0
node 551781 1 0 0
node 551829 1 0 0
node 551846 1 0 0
node 621252 1 0 0
node 621273 1 0 0
node 621293 1 0 0
node 621371 1 0 0
node 621391 1 0 0
node 623213 1 0 0
node 623232 1 0 0
node 623258 1 0 0
node 623294 1 0 0
node 623319 1 0 0
node 627287 1 0 0
node 627304 1 0 0
node 627342 1 0 0
node 627418 1 0 0
node 627436 1 0 0
node 631085 1 0 0
node 631106 1 0 0
node 631139 1 0 0
node 631176 1 0 0
node 631196 1 0 0
node 637669 1 0 0
node 637692 1 0 0
node 637710 1 0 0
node 637727 1 0 0
node 637747 1 0 0
node 682588 1 0 0
node 682656 1 0 0
node 682675 1 0 0
node 682693 1 0 0
node 682710 1 0 0
node 733560 1 0 0
node 733597 1 0 0
node 733614 1 0 0
node 733636 1 0 0
node 733660 1 0 0
node 741068 1 0 0
node 741089 1 0 0
node 741113 1 0 0
node 741149 1 0 0
node 741169 1 0 0
node 753374 1 0 0
node 753390 1 0 0
node 753404 1 0 0
node 753417 1 0 0
node 753441 1 0 0
node 850003 1 0 0
node 850018 1 0 0
node 850054 1 0 0
node 850066 1 0 0
node 850090 1 0 0
node 894826 1 0 0
node 894898 1 0 0
node 894920 1 0 0
node 894937 1 0 0
node 894962 1 0 0
node 900144 1 0 0
node 900169 1 0 0
node 900187 1 0 0
node 900245 1 0 0
node 900264 1 0 0
node 906247 1 0 0
node 906290 1 0 0
node 906304 1 0 0
node 906350 1 0 0
node 906370 1 0 0
gene  1 1 29 0.8817865995815668 0 1176.0 0.8817865995815668 1
gene  1 5 29 -0.4608115883523288 0 1180.0 -0.4608115883523288 1
gene  1 7 29 -0.549940620437399 0 1182.0 -0.549940620437399 0
gene  1 8 29 -0.7631288790595535 0 1183.0 -0.7631288790595535 1
gene  1 10 29 0.1658152747637912 0 1185.0 0.1658152747637912 1
gene  1 11 29 0.8156513601363397 0 1186.0 0.8156513601363397 1
gene  1 20 29 0.962881798860341 0 1195.0 0.962881798860341 1
gene  1 21 29 0.5052850270871289 0 1196.0 0.5052850270871289 1
gene  1 22 29 0.6644070316372295 0 1197.0 0.6644070316372295 0
gene  1 23 29 -0.7544976750322352 0 1198.0 -0.7544976750322352 0
gene  1 25 29 0.8412875383183833 0 1200.0 0.8412875383183833 0
gene  1 28 29 0.9745842536586754 0 1203.0 0.9745842536586754 1
gene  1 29 29 0.7249191102258477 1 1204.0 0.7249191102258477 0
gene  1 34 29 -0.13479081475267463 1 1209.0 -0.13479081475267463 0
gene  1 35 29 -0.10601669784338286 1 1210.0 -0.10601669784338286 1
gene  1 37 29 -0.08835950982477936 1 1212.0 -0.08835950982477936 0
gene  1 38 29 0.9804622333801951 1 1213.0 0.9804622333801951 0
gene  1 39 29 -0.8443372131125152 1 1214.0 -0.8443372131125152 0
gene  1 41 29 0.7957099515185596 1 1216.0 0.7957099515185596 1
gene  1 2 34 -0.9714718897342378 0 1387.0 -0.9714718897342378 1
gene  1 3 34 0.7914540647200231 0 1388.0 0.7914540647200231 0
gene  1 4 34 0.07706986818632311 0 1389.0 0.07706986818632311 1
gene  1 5 34 -0.8481902811154257 0 1390.0 -0.8481902811154257 1
gene  1 10 34 0.8978884983447627 0 1395.0 0.8978884983447627 1
gene  1 11 34 0.8222371381906395 0 1396.0 0.8222371381906395 0
gene  1 16 34 0.21291844126109105 0 1401.0 0.21291844126109105 1
gene  1 19 34 0.6727706469934881 0 1404.0 0.6727706469934881 0
gene  1 26 34 -0.8156562036882058 0 1411.0 -0.8156562036882058 0
gene  1 35 34 0.239339046443803 1 1420.0 0.239339046443803 1
gene  1 39 34 0.4912584047116997 1 1424.0 0.4912584047116997 1
gene  1 40 34 -0.07763863414624106 1 1425.0 -0.07763863414624106 1
gene  1 41 34 0.23787399413521448 1 1426.0 0.23787399413521448 1
gene  1 5 35 0.7906769792293512 0 1432.0 0.7906769792293512 0
gene  1 6 35 -0.23751070826791543 0 1433.0 -0.23751070826791543 1
gene  1 10 35 -0.27773273338784477 0 1437.0 -0.27773273338784477 1
gene  1 14 35 -0.5181112610302246 0 1441.0 -0.5181112610302246 0
gene  1 17 35 0.9041166212330641 0 1444.0 0.9041166212330641 1
gene  1 18 35 -0.1656208285915246 0 1445.0 -0.1656208285915246 0
gene  1 19 35 0.5000774307565105 0 1446.0 0.5000774307565105 1
gene  1 23 35 -0.28818231004211003 0 1450.0 -0.28818231004211003 0
gene  1 24 35 0.7857341093661232 0 1451.0 0.7857341093661232 1
gene  1 26 35 0.2519585892188281 0 1453.0 0.2519585892188281 0
gene  1 35 35 0.13029102423698347 1 1462.0 0.13029102423698347 0
gene  1 36 35 0.0030623903655819795 1 1463.0 0.0030623903655819795 0
gene  1 38 35 -0.26871704794769713 1 1465.0 -0.26871704794769713 0
gene  1 39 35 0.6721248584041137 1 1466.0 0.6721248584041137 1
gene  1 40 35 -0.6451773670864656 1 1467.0 -0.6451773670864656 1
gene  1 41 35 0.41767764538580887 1 1468.0 0.41767764538580887 1
gene  1 2 36 -0.1882740482996459 0 1471.0 -0.1882740482996459 1
gene  1 4 36 -0.1715804480280877 0 1473.0 -0.1715804480280877 1
gene  1 7 36 0.4755929075523455 0 1476.0 0.4755929075523455 1
gene  1 8 36 -0.39086198963377217 0 1477.0 -0.39086198963377217 1
gene  1 9 36 0.2707710377854271 0 1478.0 0.2707710377854271 0
gene  1 14 36 -0.1611517317292097 0 1483.0 -0.1611517317292097 1
gene  1 16 36 -0.899152108862219 0 1485.0 -0.899152108862219 0
gene  1 17 36 0.572361225935418 0 1486.0 0.572361225935418 0
gene  1 18 36 -0.7205216128416074 0 1487.0 -0.7205216128416074 0
gene  1 20 36 0.4934187177942392 0 1489.0 0.4934187177942392 0
gene  1 22 36 -0.5161811891320097 0 1491.0 -0.5161811891320097 1
gene  1 23 36 -0.35066782992688883 0 1492.0 -0.35066782992688883 1
gene  1 24 36 0.7685499123278154 0 1493.0 0.7685499123278154 0
gene  1 25 36 0.7867311757978519 0 1494.0 0.7867311757978519 0
gene  1 28 36 -0.4914068055053896 0 1497.0 -0.4914068055053896 1
gene  1 29 36 0.4158534983225056 0 1498.0 0.4158534983225056 1
gene  1 34 36 -0.6769112985068229 0 1503.0 -0.6769112985068229 1
gene  1 35 36 0.8679788786561102 0 1504.0 0.8679788786561102 1
gene  1 36 36 0.7093100147943865 1 1505.0 0.7093100147943865 0
gene  1 37 36 0.5874679896270769 1 1506.0 0.5874679896270769 0
gene  1 39 36 0.9418699766266686 1 1508.0 0.9418699766266686 0
gene  1 40 36 -0.24798809010400158 1 1509.0 -0.24798809010400158 0
gene  1 42 36 -0.18839049907837313 1 1511.0 -0.18839049907837313 0
gene  1 2 37 -0.25990890450957027 0 1513.0 -0.25990890450957027 1
gene  1 5 37 0.4408389210054373 0 1516.0 0.4408389210054373 1
gene  1 9 37 -0.9161320659604737 0 1520.0 -0.9161320659604737 0
gene  1 11 37 0.40865659857073866 0 1522.0 0.40865659857073866 0
gene  1 13 37 -0.07900086249252025 0 1524.0 -0.07900086249252025 1
gene  1 15 37 -0.6282912182975061 0 1526.0 -0.6282912182975061 1
gene  1 16 37 0.012910757624073899 0 1527.0 0.012910757624073899 0
gene  1 18 37 0.30374638127572173 0 1529.0 0.30374638127572173 1
gene  1 22 37 0.7077807299475702 0 1533.0 0.7077807299475702 1
gene  1 23 37 0.24715155946344392 0 1534.0 0.24715155946344392 1
gene  1 24 37 -0.8577453644909344 0 1535.0 -0.8577453644909344 0
gene  1 27 37 -0.8308747600962009 0 1538.0 -0.8308747600962009 1
gene  1 28 37 -0.4717624986378942 0 1539.0 -0.4717624986378942 1
gene  1 30 37 0.4936541114138846 0 1541.0 0.4936541114138846 0
gene  1 31 37 -0.7900414434710609 0 1542.0 -0.7900414434710609 0
gene  1 35 37 0.5764227875360436 0 1546.0 0.5764227875360436 1
gene  1 36 37 0.09791996558030658 0 1547.0 0.09791996558030658 0
gene  1 38 37 0.7926948172822118 1 1549.0 0.7926948172822118 1
gene  1 40 37 -0.2817176220399997 1 1551.0 -0.2817176220399997 1
gene  1 1 38 -0.9254135632854031 0 1554.0 -0.9254135632854031 0
gene  1 3 38 0.5602488073746897 0 1556.0 0.5602488073746897 0
gene  1 4 38 0.10847204798816845 0 1557.0 0.10847204798816845 1
gene  1 6 38 -0.002799008156748828 0 1559.0 -0.002799008156748828 1
