/* Species # 029         : (size= 011) (AvfFit= 16.288) (Age= 101.000)  */
/*-------------------------------------------------------------------*/
/* Organism # 000 Fitness:  0.000 Error:  0.000                      */
genomestart  0
trait 1 0.0 0.0 0.0 0.0 0.0 0.0 0.0 0.0 
node 1 1 1 1
node 2 1 1 1
node 3 1 1 1
node 4 1 1 1
node 5 1 1 1
node 6 1 1 1
node 7 1 1 1
node 8 1 1 1
node 9 1 1 1
node 10 1 1 1
node 11 1 1 1
node 12 1 1 1
node 13 1 1 1
node 14 1 1 1
node 15 1 1 1
node 16 1 1 1
node 17 1 1 1
node 18 1 1 1
node 19 1 1 1
node 20 1 1 1
node 21 1 1 1
node 22 1 1 1
node 23 1 1 1
node 24 1 1 1
node 25 1 1 1
node 26 1 1 1
node 27 1 1 1
node 28 1 1 3
node 29 1 0 0
node 30 1 0 0
node 34 1 0 2
node 35 1 0 2
node 36 1 0 2
node 37 1 0 2
node 38 1 0 2
node 39 1 0 2
node 40 1 0 2
node 41 1 0 2
node 42 1 0 2
node 144 1 0 0
node 197 1 0 0
node 264 1 0 0
node 1035 1 0 0
node 1072 1 0 0
node 1206 1 0 0
node 1252 1 0 0
node 1287 1 0 0
node 1300 1 0 0
node 1305 1 0 0
node 1336 1 0 0
node 1647 1 0 0
node 1709 1 0 0
node 1747 1 0 0
node 1803 1 0 0
gene  1 2 29 -5.309847363782184E-4 0 1177.0 -5.309847363782184E-4 1
gene  1 3 29 0.035272727111199 0 1178.0 0.035272727111199 1
gene  1 4 29 -5.928194293430267E-4 0 1179.0 -5.928194293430267E-4 1
gene  1 5 29 -0.15142023935834292 0 1180.0 -0.15142023935834292 1
gene  1 6 29 0.25463750675013025 0 1181.0 0.25463750675013025 1
gene  1 7 29 0.4010919217089807 0 1182.0 0.4010919217089807 1
gene  1 9 29 -0.6143981261301993 0 1184.0 -0.6143981261301993 1
gene  1 10 29 -0.00968079073903383 0 1185.0 -0.00968079073903383 1
gene  1 11 29 0.003335717977055851 0 1186.0 0.003335717977055851 1
gene  1 13 29 0.4691578539790256 0 1188.0 0.4691578539790256 1
gene  1 15 29 0.898105981746662 0 1190.0 0.898105981746662 1
gene  1 17 29 0.16931849814074074 0 1192.0 0.16931849814074074 1
gene  1 20 29 0.21659343429437522 0 1195.0 0.21659343429437522 1
gene  1 23 29 0.18123528225219332 0 1198.0 0.18123528225219332 1
gene  1 24 29 0.8493986237750013 0 1199.0 0.8493986237750013 1
gene  1 25 29 0.004236326047229089 0 1200.0 0.004236326047229089 1
gene  1 36 29 0.05064842767669181 1 1211.0 0.05064842767669181 1
gene  1 37 29 0.20807446290202006 1 1212.0 0.20807446290202006 1
gene  1 39 29 0.6403265369979857 1 1214.0 0.6403265369979857 1
gene  1 40 29 -0.8429364783121962 1 1215.0 -0.8429364783121962 1
gene  1 42 29 0.45866307167810294 1 1217.0 0.45866307167810294 1
gene  1 2 30 -0.007511479336431922 0 1219.0 -0.007511479336431922 1
gene  1 4 30 -0.8390218484966001 0 1221.0 -0.8390218484966001 1
gene  1 6 30 0.28676177892888294 0 1223.0 0.28676177892888294 1
gene  1 8 30 -6.395362929817616E-4 0 1225.0 -6.395362929817616E-4 1
gene  1 9 30 -0.9139274202370026 0 1226.0 -0.9139274202370026 1
gene  1 11 30 -0.004947712210203429 0 1228.0 -0.004947712210203429 1
gene  1 12 30 0.03706723323526271 0 1229.0 0.03706723323526271 1
gene  1 13 30 0.6691868100285806 0 1230.0 0.6691868100285806 1
gene  1 16 30 0.12088043665644864 0 1233.0 0.12088043665644864 1
gene  1 18 30 0.8573305576709276 0 1235.0 0.8573305576709276 1
gene  1 20 30 -0.028786119761300973 0 1237.0 -0.028786119761300973 1
gene  1 24 30 0.7265026900176224 0 1241.0 0.7265026900176224 1
gene  1 27 30 -0.5720669675706226 0 1244.0 -0.5720669675706226 1
gene  1 28 30 -0.09846377555992093 0 1245.0 -0.09846377555992093 1
gene  1 29 30 -0.4357574777976573 0 1246.0 -0.4357574777976573 1
gene  1 30 30 0.0694611607928584 1 1247.0 0.0694611607928584 1
gene  1 34 30 -0.4744629966742952 1 1251.0 -0.4744629966742952 1
gene  1 36 30 -0.47601888127345454 1 1253.0 -0.47601888127345454 1
gene  1 37 30 0.1306689030903886 1 1254.0 0.1306689030903886 1
gene  1 38 30 0.3734917415409185 1 1255.0 0.3734917415409185 1
gene  1 41 30 0.3821267410330386 1 1258.0 0.3821267410330386 1
gene  1 42 30 -0.13273304675084707 1 1259.0 -0.13273304675084707 1
gene  1 2 34 -0.2939096555552067 0 1387.0 -0.2939096555552067 1
gene  1 3 34 0.6538181533846092 0 1388.0 0.6538181533846092 1
gene  1 5 34 -0.9394483115179738 0 1390.0 -0.9394483115179738 1
gene  1 6 34 -0.8938680411223373 0 1391.0 -0.8938680411223373 1
gene  1 11 34 -0.6963995147194005 0 1396.0 -0.6963995147194005 1
gene  1 12 34 0.15755365205303762 0 1397.0 0.15755365205303762 1
gene  1 17 34 -0.3994097913708709 0 1402.0 -0.3994097913708709 1
gene  1 19 34 -0.03468763665849483 0 1404.0 -0.03468763665849483 1
gene  1 24 34 0.06378797765686871 0 1409.0 0.06378797765686871 1
gene  1 25 34 -0.38141384852505744 0 1410.0 -0.38141384852505744 1
gene  1 28 34 0.5750910056386962 0 1413.0 0.5750910056386962 1
gene  1 29 34 -0.002737983484049147 0 1414.0 -0.002737983484049147 1
gene  1 35 34 0.0745552958473455 1 1420.0 0.0745552958473455 1
gene  1 37 34 0.0030493170167793615 1 1422.0 0.0030493170167793615 1
gene  1 38 34 -0.4057699473115975 1 1423.0 -0.4057699473115975 1
gene  1 1 35 0.13224020110244816 0 1428.0 0.13224020110244816 1
gene  1 2 35 0.48856457826821625 0 1429.0 0.48856457826821625 1
gene  1 3 35 0.7143297888001401 0 1430.0 0.7143297888001401 1
gene  1 4 35 0.7545661554660369 0 1431.0 0.7545661554660369 1
gene  1 5 35 0.004108081070826971 0 1432.0 0.004108081070826971 1
gene  1 6 35 -0.138091044495683 0 1433.0 -0.138091044495683 1
gene  1 10 35 0.006061629447737757 0 1437.0 0.006061629447737757 1
gene  1 11 35 -0.4668677634983373 0 1438.0 -0.4668677634983373 1
gene  1 17 35 0.1817665854067321 0 1444.0 0.1817665854067321 1
gene  1 20 35 -0.3278096750009893 0 1447.0 -0.3278096750009893 1
gene  1 21 35 0.6176335363240125 0 1448.0 0.6176335363240125 1
gene  1 23 35 0.09274831883463562 0 1450.0 0.09274831883463562 1
gene  1 25 35 0.17529425569056484 0 1452.0 0.17529425569056484 1
gene  1 27 35 0.008258997784639625 0 1454.0 0.008258997784639625 1
gene  1 30 35 5.452072350345394E-4 0 1457.0 5.452072350345394E-4 1
gene  1 35 35 -0.6118333424650895 1 1462.0 -0.6118333424650895 1
gene  1 37 35 -0.6776718658174584 1 1464.0 -0.6776718658174584 1
gene  1 38 35 -0.7987365858738117 1 1465.0 -0.7987365858738117 1
gene  1 40 35 0.0010778399708725518 1 1467.0 0.0010778399708725518 1
gene  1 3 36 0.24436916950555873 0 1472.0 0.24436916950555873 1
gene  1 5 36 -0.6979937888056671 0 1474.0 -0.6979937888056671 1
gene  1 9 36 0.006672396660921616 0 1478.0 0.006672396660921616 1
gene  1 10 36 5.74235919117676E-4 0 1479.0 5.74235919117676E-4 1
gene  1 12 36 0.004604589102800281 0 1481.0 0.004604589102800281 1
gene  1 13 36 -0.11137712716113712 0 1482.0 -0.11137712716113712 1
gene  1 19 36 -0.007923754974260469 0 1488.0 -0.007923754974260469 1
gene  1 20 36 0.8025868909065926 0 1489.0 0.8025868909065926 1
gene  1 23 36 0.004841883446203295 0 1492.0 0.004841883446203295 1
gene  1 27 36 -0.6960048166928319 0 1496.0 -0.6960048166928319 1
gene  1 29 36 0.3805533059714011 0 1498.0 0.3805533059714011 1
gene  1 30 36 0.007321869494096465 0 1499.0 0.007321869494096465 1
gene  1 34 36 -0.8225542674880182 0 1503.0 -0.8225542674880182 1
gene  1 35 36 -0.06309064130893238 0 1504.0 -0.06309064130893238 1
gene  1 37 36 0.12548974360558188 1 1506.0 0.12548974360558188 0
gene  1 38 36 -0.4597773588220322 1 1507.0 -0.4597773588220322 1
gene  1 39 36 0.6539143141151323 1 1508.0 0.6539143141151323 1
gene  1 42 36 0.9164013574846083 1 1511.0 0.9164013574846083 1
gene  1 2 37 -0.004738291853696461 0 1513.0 -0.004738291853696461 1
gene  1 3 37 0.12685547788159998 0 1514.0 0.12685547788159998 1
gene  1 4 37 -0.007677613673609276 0 1515.0 -0.007677613673609276 1
gene  1 5 37 -0.6470123650758881 0 1516.0 -0.6470123650758881 1
gene  1 6 37 -0.5383603463451089 0 1517.0 -0.5383603463451089 1
gene  1 8 37 0.6733780382230709 0 1519.0 0.6733780382230709 1
gene  1 9 37 0.7007299439283751 0 1520.0 0.7007299439283751 1
gene  1 11 37 -0.0073138924315914065 0 1522.0 -0.0073138924315914065 1
gene  1 13 37 -0.799003148721794 0 1524.0 -0.799003148721794 1
gene  1 14 37 -0.03308218882197833 0 1525.0 -0.03308218882197833 1
gene  1 16 37 0.6429631693798087 0 1527.0 0.6429631693798087 1
gene  1 19 37 0.3264070463100638 0 1530.0 0.3264070463100638 1
gene  1 21 37 -0.8595310691155201 0 1532.0 -0.8595310691155201 1
gene  1 25 37 -0.005957642274418491 0 1536.0 -0.005957642274418491 1
gene  1 28 37 0.0022135048212094093 0 1539.0 0.0022135048212094093 1
gene  1 40 37 0.19153020666196566 1 1551.0 0.19153020666196566 1
gene  1 42 37 0.6550041317671736 1 1553.0 0.6550041317671736 1
gene  1 2 38 -0.7864920799028581 0 1555.0 -0.7864920799028581 1
gene  1 6 38 -0.5198799375712266 0 1559.0 -0.5198799375712266 1
gene  1 9 38 0.7415812097008293 0 1562.0 0.7415812097008293 1
gene  1 10 38 0.16761946135414543 0 1563.0 0.16761946135414543 1
gene  1 14 38 0.7089701954244015 0 1567.0 0.7089701954244015 1
gene  1 18 38 -0.28627291379267344 0 1571.0 -0.28627291379267344 1
gene  1 20 38 0.5588415942907139 0 1573.0 0.5588415942907139 1
gene  1 21 38 -0.7442213682597995 0 1574.0 -0.7442213682597995 1
gene  1 23 38 0.3082270560761019 0 1576.0 0.3082270560761019 1
gene  1 24 38 -0.7266093860568571 0 1577.0 -0.7266093860568571 1
gene  1 25 38 -3.490714698582942E-4 0 1578.0 -3.490714698582942E-4 1
gene  1 26 38 0.23684149229834536 0 1579.0 0.23684149229834536 1
gene  1 27 38 0.9859372310011578 0 1580.0 0.9859372310011578 1
gene  1 28 38 0.24529115408830113 0 1581.0 0.24529115408830113 1
gene  1 30 38 -0.00569147345041681 0 1583.0 -0.00569147345041681 1
gene  1 34 38 0.005071208847816029 0 1587.0 0.005071208847816029 1
gene  1 35 38 -0.3050779223344857 0 1588.0 -0.3050779223344857 1
gene  1 37 38 -0.33533699594900057 0 1590.0 -0.33533699594900057 1
gene  1 39 38 0.4468460768825943 1 1592.0 0.4468460768825943 1
gene  1 1 39 -0.2629878545952168 0 1596.0 -0.2629878545952168 1
gene  1 6 39 0.6583156058835788 0 1601.0 0.6583156058835788 1
gene  1 7 39 0.15256290409889953 0 1602.0 0.15256290409889953 1
gene  1 8 39 0.33958060120781025 0 1603.0 0.33958060120781025 1
gene  1 11 39 -0.8675533167471079 0 1606.0 -0.8675533167471079 1
gene  1 12 39 0.703133259601232 0 1607.0 0.703133259601232 1
gene  1 13 39 -0.004792521705366505 0 1608.0 -0.004792521705366505 1
gene  1 15 39 0.001590535981690222 0 1610.0 0.001590535981690222 1
gene  1 17 39 -0.1285901567751977 0 1612.0 -0.1285901567751977 1
gene  1 21 39 0.008621558843701981 0 1616.0 0.008621558843701981 1
gene  1 22 39 -0.002513719739331373 0 1617.0 -0.002513719739331373 1
gene  1 25 39 -0.004942459626589961 0 1620.0 -0.004942459626589961 1
gene  1 27 39 -0.003187000981410407 0 1622.0 -0.003187000981410407 1
gene  1 28 39 0.7037934348318474 0 1623.0 0.7037934348318474 1
gene  1 29 39 -0.8455816124541802 0 1624.0 -0.8455816124541802 1
gene  1 30 39 0.6374485320568151 0 1625.0 0.6374485320568151 1
gene  1 34 39 0.009807276905413252 0 1629.0 0.009807276905413252 1
gene  1 36 39 -0.11862969538813863 0 1631.0 -0.11862969538813863 1
gene  1 37 39 0.5302526042533987 0 1632.0 0.5302526042533987 1
gene  1 38 39 0.6557419453737345 0 1633.0 0.6557419453737345 1
gene  1 40 39 -0.3375756800467522 1 1635.0 -0.3375756800467522 1
gene  1 41 39 -0.18194791576546812 1 1636.0 -0.18194791576546812 1
gene  1 2 40 -0.15146299263927715 0 1639.0 -0.15146299263927715 1
gene  1 9 40 0.006779905196203667 0 1646.0 0.006779905196203667 1
gene  1 11 40 0.4773832586989566 0 1648.0 0.4773832586989566 1
gene  1 12 40 0.42966558374032493 0 1649.0 0.42966558374032493 1
gene  1 13 40 -0.00928411913230102 0 1650.0 -0.00928411913230102 1
gene  1 14 40 -0.00710259257124057 0 1651.0 -0.00710259257124057 1
gene  1 19 40 0.3024170215837855 0 1656.0 0.3024170215837855 1
gene  1 20 40 0.4109220022399126 0 1657.0 0.4109220022399126 1
gene  1 21 40 -0.9231603345570344 0 1658.0 -0.9231603345570344 1
gene  1 26 40 -0.006122667482614041 0 1663.0 -0.006122667482614041 1
gene  1 27 40 -0.6873831317156855 0 1664.0 -0.6873831317156855 1
gene  1 30 40 0.15307064950108604 0 1667.0 0.15307064950108604 1
gene  1 37 40 0.9257825938591752 0 1674.0 0.9257825938591752 1
gene  1 38 40 -0.15567225180115918 0 1675.0 -0.15567225180115918 1
gene  1 2 41 -0.3934272676234482 0 1681.0 -0.3934272676234482 1
gene  1 3 41 0.58918152471396 0 1682.0 0.58918152471396 1
gene  1 4 41 0.24336639182068312 0 1683.0 0.24336639182068312 1
gene  1 8 41 0.4954307906407553 0 1687.0 0.4954307906407553 1
gene  1 10 41 -0.5779056692732659 0 1689.0 -0.5779056692732659 1
gene  1 12 41 0.017700212199027954 0 1691.0 0.017700212199027954 1
gene  1 14 41 0.3737697582767566 0 1693.0 0.3737697582767566 1
gene  1 16 41 -0.4387299304026458 0 1695.0 -0.4387299304026458 1
gene  1 22 41 0.4164837334572407 0 1701.0 0.4164837334572407 1
gene  1 24 41 0.6561219438952883 0 1703.0 0.6561219438952883 1
gene  1 26 41 -0.00395279856910123 0 1705.0 -0.00395279856910123 1
gene  1 28 41 0.005559525138567949 0 1707.0 0.005559525138567949 1
gene  1 29 41 -0.7447704479232637 0 1708.0 -0.7447704479232637 1
gene  1 30 41 0.8706569104060157 0 1709.0 0.8706569104060157 1
gene  1 36 41 0.23470814856422195 0 1715.0 0.23470814856422195 1
gene  1 41 41 -0.09565854111170524 1 1720.0 -0.09565854111170524 1
gene  1 2 42 0.1824866420458072 0 1723.0 0.1824866420458072 1
gene  1 4 42 -0.18115122656671914 0 1725.0 -0.18115122656671914 1
gene  1 5 42 -0.9994227312816479 0 1726.0 -0.9994227312816479 1
gene  1 6 42 0.31719306114489065 0 1727.0 0.31719306114489065 1
gene  1 9 42 -0.003917196413070866 0 1730.0 -0.003917196413070866 1
gene  1 10 42 -0.0012787412273713317 0 1731.0 -0.0012787412273713317 1
gene  1 12 42 -0.6400225705283682 0 1733.0 -0.6400225705283682 1
gene  1 15 42 0.4638007752744676 0 1736.0 0.4638007752744676 1
gene  1 20 42 -0.7221508851257682 0 1741.0 -0.7221508851257682 1
gene  1 21 42 0.009385692403057441 0 1742.0 0.009385692403057441 1
gene  1 22 42 -0.7068393056624448 0 1743.0 -0.7068393056624448 1
gene  1 23 42 0.008737798064887696 0 1744.0 0.008737798064887696 1
gene  1 25 42 -0.21628805921033883 0 1746.0 -0.21628805921033883 1
gene  1 26 42 0.43121342951942665 0 1747.0 0.43121342951942665 1
gene  1 27 42 -0.12331717086907297 0 1748.0 -0.12331717086907297 1
gene  1 28 42 0.26682538593866323 0 1749.0 0.26682538593866323 1
gene  1 30 42 0.652119825161224 0 1751.0 0.652119825161224 1
gene  1 34 42 -0.008230979022683407 0 1755.0 -0.008230979022683407 1
gene  1 35 42 0.2841381024048612 0 1756.0 0.2841381024048612 1
gene  1 36 42 0.03686702880105701 0 1757.0 0.03686702880105701 1
gene  1 37 42 -0.6941954697137098 0 1758.0 -0.6941954697137098 1
gene  1 38 42 -0.13667637054242904 0 1759.0 -0.13667637054242904 1
gene  1 39 42 -0.004246811299378266 0 1760.0 -0.004246811299378266 1
gene  1 40 42 0.00985215363223691 0 1761.0 0.00985215363223691 1
gene  1 41 42 0.8441578967128656 0 1762.0 0.8441578967128656 1
gene  1 38 144 1.0099477176806992 1 1967.0 1.0099477176806992 1
gene  1 144 35 -0.795535327528748 0 1968.0 -0.795535327528748 1
gene  1 24 197 0.990694700350562 0 2073.0 0.990694700350562 1
gene  1 197 30 -0.002479360833767025 0 2074.0 -0.002479360833767025 1
gene  1 40 264 1.0 1 2207.0 1.0 1
gene  1 264 39 -0.3504700399587737 0 2208.0 -0.3504700399587737 0
gene  1 2 1035 1.0 0 3749.0 0.0 1
gene  1 1035 42 0.1824866420458072 0 3750.0 0.0 1
gene  1 2 1072 1.0 0 3823.0 0.0 1
gene  1 1072 38 -0.7864920799028581 0 3824.0 0.0 1
gene  1 17 1206 1.0 0 4091.0 0.0 1
gene  1 1206 35 0.1817665854067321 0 4092.0 0.0 1
gene  1 23 1252 1.0 0 4183.0 0.0 1
gene  1 1252 35 0.09274831883463562 0 4184.0 0.0 1
gene  1 264 1287 1.0 0 4253.0 0.0 1
gene  1 1287 39 -0.3504700399587737 0 4254.0 0.0 0
gene  1 7 1300 1.0 0 4279.0 0.0 1
gene  1 1300 29 0.4010919217089807 0 4280.0 0.0 1
gene  1 21 1305 1.0 0 4289.0 0.0 1
gene  1 1305 40 -0.9231603345570344 0 4290.0 0.0 1
gene  1 35 1336 1.0 1 4351.0 0.0 1
gene  1 1336 35 -0.6118333424650895 0 4352.0 0.0 1
gene  1 13 1647 1.0 0 4973.0 0.0 1
gene  1 1647 39 -0.004792521705366505 0 4974.0 0.0 1
gene  1 1287 1709 1.0 0 5097.0 0.0 1
gene  1 1709 39 -0.3504700399587737 0 5098.0 0.0 1
gene  1 25 1747 1.0 0 5173.0 0.0 1
gene  1 1747 35 0.17529425569056484 0 5174.0 0.0 1
gene  1 37 1803 1.0 1 5285.0 0.0 1
gene  1 1803 36 0.12548974360558188 0 5286.0 0.0 1
genomeend 0
/* Organism # 001 Fitness:  0.000 Error:  0.000                      */
genomestart  1
trait 1 0.0 0.0 0.0 0.0 0.0 0.0 0.0 0.0 
node 1 1 1 1
node 2 1 1 1
node 3 1 1 1
node 4 1 1 1
node 5 1 1 1
node 6 1 1 1
node 7 1 1 1
node 8 1 1 1
node 9 1 1 1
node 10 1 1 1
node 11 1 1 1
node 12 1 1 1
node 13 1 1 1
node 14 1 1 1
node 15 1 1 1
node 16 1 1 1
node 17 1 1 1
node 18 1 1 1
node 19 1 1 1
node 20 1 1 1
node 21 1 1 1
node 22 1 1 1
node 23 1 1 1
node 24 1 1 1
node 25 1 1 1
node 26 1 1 1
node 27 1 1 1
node 28 1 1 3
node 29 1 0 0
node 30 1 0 0
node 34 1 0 2
node 35 1 0 2
node 36 1 0 2
node 37 1 0 2
node 38 1 0 2
node 39 1 0 2
node 40 1 0 2
node 41 1 0 2
node 42 1 0 2
node 144 1 0 0
node 197 1 0 0
node 264 1 0 0
node 1035 1 0 0
node 1072 1 0 0
node 1206 1 0 0
node 1252 1 0 0
node 1287 1 0 0
node 1300 1 0 0
node 1305 1 0 0
node 1336 1 0 0
node 1647 1 0 0
node 1709 1 0 0
node 1747 1 0 0
node 1803 1 0 0
gene  1 2 29 -5.309847363782184E-4 0 1177.0 -5.309847363782184E-4 1
gene  1 3 29 0.035272727111199 0 1178.0 0.035272727111199 1
gene  1 4 29 -5.928194293430267E-4 0 1179.0 -5.928194293430267E-4 1
gene  1 5 29 -0.15142023935834292 0 1180.0 -0.15142023935834292 1
gene  1 6 29 0.25463750675013025 0 1181.0 0.25463750675013025 1
gene  1 7 29 0.4010919217089807 0 1182.0 0.4010919217089807 1
gene  1 9 29 -0.6143981261301993 0 1184.0 -0.6143981261301993 1
gene  1 10 29 -0.00968079073903383 0 1185.0 -0.00968079073903383 1
gene  1 11 29 0.003335717977055851 0 1186.0 0.003335717977055851 1
gene  1 13 29 0.4691578539790256 0 1188.0 0.4691578539790256 1
gene  1 15 29 0.898105981746662 0 1190.0 0.898105981746662 1
gene  1 17 29 0.16931849814074074 0 1192.0 0.16931849814074074 1
gene  1 20 29 0.21659343429437522 0 1195.0 0.21659343429437522 1
gene  1 23 29 0.18123528225219332 0 1198.0 0.18123528225219332 1
gene  1 24 29 0.8493986237750013 0 1199.0 0.8493986237750013 1
gene  1 25 29 0.004236326047229089 0 1200.0 0.004236326047229089 1
gene  1 36 29 0.05064842767669181 1 1211.0 0.05064842767669181 1
gene  1 37 29 0.20807446290202006 1 1212.0 0.20807446290202006 1
gene  1 39 29 0.6403265369979857 1 1214.0 0.6403265369979857 1
gene  1 40 29 -0.8429364783121962 1 1215.0 -0.8429364783121962 1
gene  1 42 29 0.45866307167810294 1 1217.0 0.45866307167810294 1
gene  1 2 30 -0.007511479336431922 0 1219.0 -0.007511479336431922 1
gene  1 4 30 -0.8390218484966001 0 1221.0 -0.8390218484966001 1
gene  1 6 30 0.28676177892888294 0 1223.0 0.28676177892888294 1
gene  1 8 30 -6.395362929817616E-4 0 1225.0 -6.395362929817616E-4 1
gene  1 9 30 -0.9139274202370026 0 1226.0 -0.9139274202370026 1
gene  1 11 30 -0.004947712210203429 0 1228.0 -0.004947712210203429 1
gene  1 12 30 0.03706723323526271 0 1229.0 0.03706723323526271 1
gene  1 13 30 0.6691868100285806 0 1230.0 0.6691868100285806 1
gene  1 16 30 0.12088043665644864 0 1233.0 0.12088043665644864 1
gene  1 18 30 0.8573305576709276 0 1235.0 0.8573305576709276 1
gene  1 20 30 -0.028786119761300973 0 1237.0 -0.028786119761300973 1
gene  1 24 30 0.7265026900176224 0 1241.0 0.7265026900176224 1
gene  1 27 30 -0.5720669675706226 0 1244.0 -0.5720669675706226 1
gene  1 28 30 -0.09846377555992093 0 1245.0 -0.09846377555992093 1
gene  1 29 30 -0.4357574777976573 0 1246.0 -0.4357574777976573 1
gene  1 30 30 0.0694611607928584 1 1247.0 0.0694611607928584 1
gene  1 34 30 -0.4744629966742952 1 1251.0 -0.4744629966742952 1
gene  1 36 30 -0.47601888127345454 1 1253.0 -0.47601888127345454 1
gene  1 37 30 0.1306689030903886 1 1254.0 0.1306689030903886 1
gene  1 38 30 0.3734917415409185 1 1255.0 0.3734917415409185 1
gene  1 41 30 0.3821267410330386 1 1258.0 0.3821267410330386 1
gene  1 42 30 -0.13273304675084707 1 1259.0 -0.13273304675084707 1
gene  1 2 34 -0.2939096555552067 0 1387.0 -0.2939096555552067 1
gene  1 3 34 0.6538181533846092 0 1388.0 0.6538181533846092 1
gene  1 5 34 -0.9394483115179738 0 1390.0 -0.9394483115179738 1
gene  1 6 34 -0.8938680411223373 0 1391.0 -0.8938680411223373 1
gene  1 11 34 -0.6963995147194005 0 1396.0 -0.6963995147194005 1
gene  1 12 34 0.15755365205303762 0 1397.0 0.15755365205303762 1
gene  1 17 34 -0.3994097913708709 0 1402.0 -0.3994097913708709 1
gene  1 19 34 -0.03468763665849483 0 1404.0 -0.03468763665849483 1
gene  1 24 34 0.06378797765686871 0 1409.0 0.06378797765686871 1
gene  1 25 34 -0.38141384852505744 0 1410.0 -0.38141384852505744 1
gene  1 28 34 0.5750910056386962 0 1413.0 0.5750910056386962 1
gene  1 29 34 -0.002737983484049147 0 1414.0 -0.002737983484049147 1
gene  1 35 34 0.0745552958473455 1 1420.0 0.0745552958473455 1
gene  1 37 34 0.0030493170167793615 1 1422.0 0.0030493170167793615 1
gene  1 38 34 -0.4057699473115975 1 1423.0 -0.4057699473115975 1
gene  1 1 35 0.13224020110244816 0 1428.0 0.13224020110244816 1
gene  1 2 35 0.48856457826821625 0 1429.0 0.48856457826821625 1
gene  1 3 35 0.7143297888001401 0 1430.0 0.7143297888001401 1
gene  1 4 35 0.7545661554660369 0 1431.0 0.7545661554660369 1
gene  1 5 35 0.004108081070826971 0 1432.0 0.004108081070826971 1
gene  1 6 35 -0.138091044495683 0 1433.0 -0.138091044495683 1
gene  1 10 35 0.006061629447737757 0 1437.0 0.006061629447737757 1
gene  1 11 35 -0.4668677634983373 0 1438.0 -0.4668677634983373 1
gene  1 17 35 0.1817665854067321 0 1444.0 0.1817665854067321 1
gene  1 20 35 -0.3278096750009893 0 1447.0 -0.3278096750009893 1
gene  1 21 35 0.6176335363240125 0 1448.0 0.6176335363240125 1
gene  1 23 35 0.09274831883463562 0 1450.0 0.09274831883463562 1
gene  1 25 35 0.17529425569056484 0 1452.0 0.17529425569056484 1
gene  1 27 35 0.008258997784639625 0 1454.0 0.008258997784639625 1
gene  1 30 35 5.452072350345394E-4 0 1457.0 5.452072350345394E-4 1
gene  1 35 35 -0.6118333424650895 1 1462.0 -0.6118333424650895 1
gene  1 37 35 -0.6776718658174584 1 1464.0 -0.6776718658174584 1
gene  1 38 35 -0.7987365858738117 1 1465.0 -0.7987365858738117 1
gene  1 40 35 0.0010778399708725518 1 1467.0 0.0010778399708725518 1
gene  1 3 36 0.24436916950555873 0 1472.0 0.24436916950555873 1
gene  1 5 36 -0.6979937888056671 0 1474.0 -0.6979937888056671 1
gene  1 9 36 0.006672396660921616 0 1478.0 0.006672396660921616 1
gene  1 10 36 5.74235919117676E-4 0 1479.0 5.74235919117676E-4 1
gene  1 12 36 0.004604589102800281 0 1481.0 0.004604589102800281 1
gene  1 13 36 -0.11137712716113712 0 1482.0 -0.11137712716113712 1
gene  1 19 36 -0.007923754974260469 0 1488.0 -0.007923754974260469 1
gene  1 20 36 0.8025868909065926 0 1489.0 0.8025868909065926 1
gene  1 23 36 0.004841883446203295 0 1492.0 0.004841883446203295 1
gene  1 27 36 -0.6960048166928319 0 1496.0 -0.6960048166928319 1
gene  1 29 36 0.3805533059714011 0 1498.0 0.3805533059714011 1
gene  1 30 36 0.007321869494096465 0 1499.0 0.007321869494096465 1
gene  1 34 36 -0.8225542674880182 0 1503.0 -0.8225542674880182 1
gene  1 35 36 -0.06309064130893238 0 1504.0 -0.06309064130893238 1
gene  1 37 36 0.12548974360558188 1 1506.0 0.12548974360558188 0
gene  1 38 36 -0.4597773588220322 1 1507.0 -0.4597773588220322 1
gene  1 39 36 0.6539143141151323 1 1508.0 0.6539143141151323 1
gene  1 42 36 0.9164013574846083 1 1511.0 0.9164013574846083 1
gene  1 2 37 -0.004738291853696461 0 1513.0 -0.004738291853696461 1
gene  1 3 37 0.12685547788159998 0 1514.0 0.12685547788159998 1
gene  1 4 37 -0.007677613673609276 0 1515.0 -0.007677613673609276 1
gene  1 5 37 -0.6470123650758881 0 1516.0 -0.6470123650758881 1
gene  1 6 37 -0.5383603463451089 0 1517.0 -0.5383603463451089 1
gene  1 8 37 0.6733780382230709 0 1519.0 0.6733780382230709 1
gene  1 9 37 0.7007299439283751 0 1520.0 0.7007299439283751 1
gene  1 11 37 -0.0073138924315914065 0 1522.0 -0.0073138924315914065 1
gene  1 13 37 -0.799003148721794 0 1524.0 -0.799003148721794 1
gene  1 14 37 -0.03308218882197833 0 1525.0 -0.03308218882197833 1
gene  1 16 37 0.6429631693798087 0 1527.0 0.6429631693798087 1
gene  1 19 37 0.3264070463100638 0 1530.0 0.3264070463100638 1
gene  1 21 37 -0.8595310691155201 0 1532.0 -0.8595310691155201 1
gene  1 25 37 -0.005957642274418491 0 1536.0 -0.005957642274418491 1
gene  1 28 37 0.0022135048212094093 0 1539.0 0.0022135048212094093 1
gene  1 40 37 0.19153020666196566 1 1551.0 0.19153020666196566 1
gene  1 42 37 0.6550041317671736 1 1553.0 0.6550041317671736 1
gene  1 2 38 -0.7864920799028581 0 1555.0 -0.7864920799028581 1
gene  1 6 38 -0.5198799375712266 0 1559.0 -0.5198799375712266 1
gene  1 9 38 0.7415812097008293 0 1562.0 0.7415812097008293 1
gene  1 10 38 0.16761946135414543 0 1563.0 0.16761946135414543 1
gene  1 14 38 0.7089701954244015 0 1567.0 0.7089701954244015 1
gene  1 18 38 -0.28627291379267344 0 1571.0 -0.28627291379267344 1
gene  1 20 38 0.5588415942907139 0 1573.0 0.5588415942907139 1
gene  1 21 38 -0.7442213682597995 0 1574.0 -0.7442213682597995 1
gene  1 23 38 0.3082270560761019 0 1576.0 0.3082270560761019 1
gene  1 24 38 -0.7266093860568571 0 1577.0 -0.7266093860568571 1
gene  1 25 38 -3.490714698582942E-4 0 1578.0 -3.490714698582942E-4 1
gene  1 26 38 0.23684149229834536 0 1579.0 0.23684149229834536 1
gene  1 27 38 0.9859372310011578 0 1580.0 0.9859372310011578 1
gene  1 28 38 0.24529115408830113 0 1581.0 0.24529115408830113 1
gene  1 30 38 -0.00569147345041681 0 1583.0 -0.00569147345041681 1
gene  1 34 38 0.005071208847816029 0 1587.0 0.005071208847816029 1
gene  1 35 38 -0.3050779223344857 0 1588.0 -0.3050779223344857 1
gene  1 37 38 -0.33533699594900057 0 1590.0 -0.33533699594900057 1
gene  1 39 38 0.4468460768825943 1 1592.0 0.4468460768825943 1
gene  1 1 39 -0.2629878545952168 0 1596.0 -0.2629878545952168 1
gene  1 6 39 0.6583156058835788 0 1601.0 0.6583156058835788 1
gene  1 7 39 0.15256290409889953 0 1602.0 0.15256290409889953 1
gene  1 8 39 0.33958060120781025 0 1603.0 0.33958060120781025 1
gene  1 11 39 -0.8675533167471079 0 1606.0 -0.8675533167471079 1
gene  1 12 39 0.703133259601232 0 1607.0 0.703133259601232 1
gene  1 13 39 -0.004792521705366505 0 1608.0 -0.004792521705366505 1
gene  1 15 39 0.001590535981690222 0 1610.0 0.001590535981690222 1
gene  1 17 39 -0.1285901567751977 0 1612.0 -0.1285901567751977 1
gene  1 21 39 0.008621558843701981 0 1616.0 0.008621558843701981 1
gene  1 22 39 -0.002513719739331373 0 1617.0 -0.002513719739331373 1
gene  1 25 39 -0.004942459626589961 0 1620.0 -0.004942459626589961 1
gene  1 27 39 -0.003187000981410407 0 1622.0 -0.003187000981410407 1
gene  1 28 39 0.7037934348318474 0 1623.0 0.7037934348318474 1
gene  1 29 39 -0.8455816124541802 0 1624.0 -0.8455816124541802 1
gene  1 30 39 0.6374485320568151 0 1625.0 0.6374485320568151 1
gene  1 34 39 0.009807276905413252 0 1629.0 0.009807276905413252 1
gene  1 36 39 -0.11862969538813863 0 1631.0 -0.11862969538813863 1
gene  1 37 39 0.5302526042533987 0 1632.0 0.5302526042533987 1
gene  1 38 39 0.6557419453737345 0 1633.0 0.6557419453737345 1
gene  1 40 39 -0.3375756800467522 1 1635.0 -0.3375756800467522 1
gene  1 41 39 -0.18194791576546812 1 1636.0 -0.18194791576546812 1
gene  1 2 40 -0.15146299263927715 0 1639.0 -0.15146299263927715 1
gene  1 9 40 0.006779905196203667 0 1646.0 0.006779905196203667 1
gene  1 11 40 0.4773832586989566 0 1648.0 0.4773832586989566 1
gene  1 12 40 0.42966558374032493 0 1649.0 0.42966558374032493 1
gene  1 13 40 -0.00928411913230102 0 1650.0 -0.00928411913230102 1
gene  1 14 40 -0.00710259257124057 0 1651.0 -0.00710259257124057 1
gene  1 19 40 0.3024170215837855 0 1656.0 0.3024170215837855 1
gene  1 20 40 0.4109220022399126 0 1657.0 0.4109220022399126 1
gene  1 21 40 -0.9231603345570344 0 1658.0 -0.9231603345570344 1
gene  1 26 40 -0.006122667482614041 0 1663.0 -0.006122667482614041 1
gene  1 27 40 -0.6873831317156855 0 1664.0 -0.6873831317156855 1
gene  1 30 40 0.15307064950108604 0 1667.0 0.15307064950108604 1
gene  1 37 40 0.9257825938591752 0 1674.0 0.9257825938591752 1
gene  1 38 40 -0.15567225180115918 0 1675.0 -0.15567225180115918 1
gene  1 2 41 -0.3934272676234482 0 1681.0 -0.3934272676234482 1
gene  1 3 41 0.58918152471396 0 1682.0 0.58918152471396 1
gene  1 4 41 0.24336639182068312 0 1683.0 0.24336639182068312 1
gene  1 8 41 0.4954307906407553 0 1687.0 0.4954307906407553 1
gene  1 10 41 -0.5779056692732659 0 1689.0 -0.5779056692732659 1
gene  1 12 41 0.017700212199027954 0 1691.0 0.017700212199027954 1
gene  1 14 41 0.3737697582767566 0 1693.0 0.3737697582767566 1
gene  1 16 41 -0.4387299304026458 0 1695.0 -0.4387299304026458 1
gene  1 22 41 0.4164837334572407 0 1701.0 0.4164837334572407 1
gene  1 24 41 0.6561219438952883 0 1703.0 0.6561219438952883 1
gene  1 26 41 -0.00395279856910123 0 1705.0 -0.00395279856910123 1
gene  1 28 41 0.005559525138567949 0 1707.0 0.005559525138567949 1
gene  1 29 41 -0.7447704479232637 0 1708.0 -0.7447704479232637 1
gene  1 30 41 0.8706569104060157 0 1709.0 0.8706569104060157 1
gene  1 36 41 0.23470814856422195 0 1715.0 0.23470814856422195 1
gene  1 41 41 -0.09565854111170524 1 1720.0 -0.09565854111170524 1
gene  1 2 42 0.1824866420458072 0 1723.0 0.1824866420458072 1
gene  1 4 42 -0.18115122656671914 0 1725.0 -0.18115122656671914 1
gene  1 5 42 -0.9994227312816479 0 1726.0 -0.9994227312816479 1
gene  1 6 42 0.31719306114489065 0 1727.0 0.31719306114489065 1
gene  1 9 42 -0.003917196413070866 0 1730.0 -0.003917196413070866 1
gene  1 10 42 -0.0012787412273713317 0 1731.0 -0.0012787412273713317 1
gene  1 12 42 -0.6400225705283682 0 1733.0 -0.6400225705283682 1
gene  1 15 42 0.4638007752744676 0 1736.0 0.4638007752744676 1
gene  1 20 42 -0.7221508851257682 0 1741.0 -0.7221508851257682 1
gene  1 21 42 0.009385692403057441 0 1742.0 0.009385692403057441 1
gene  1 22 42 -0.7068393056624448 0 1743.0 -0.7068393056624448 1
gene  1 23 42 0.008737798064887696 0 1744.0 0.008737798064887696 1
gene  1 25 42 -0.21628805921033883 0 1746.0 -0.21628805921033883 1
gene  1 26 42 0.43121342951942665 0 1747.0 0.43121342951942665 1
gene  1 27 42 -0.12331717086907297 0 1748.0 -0.12331717086907297 1
gene  1 28 42 0.26682538593866323 0 1749.0 0.26682538593866323 1
gene  1 30 42 0.652119825161224 0 1751.0 0.652119825161224 1
gene  1 34 42 -0.008230979022683407 0 1755.0 -0.008230979022683407 1
gene  1 35 42 0.2841381024048612 0 1756.0 0.2841381024048612 1
gene  1 36 42 0.03686702880105701 0 1757.0 0.03686702880105701 1
gene  1 37 42 -0.6941954697137098 0 1758.0 -0.6941954697137098 1
gene  1 38 42 -0.13667637054242904 0 1759.0 -0.13667637054242904 1
gene  1 39 42 -0.004246811299378266 0 1760.0 -0.004246811299378266 1
gene  1 40 42 0.00985215363223691 0 1761.0 0.00985215363223691 1
gene  1 41 42 0.8441578967128656 0 1762.0 0.8441578967128656 1
gene  1 38 144 1.0099477176806992 1 1967.0 1.0099477176806992 1
gene  1 144 35 -0.795535327528748 0 1968.0 -0.795535327528748 1
gene  1 24 197 0.990694700350562 0 2073.0 0.990694700350562 1
gene  1 197 30 -0.002479360833767025 0 2074.0 -0.002479360833767025 1
gene  1 40 264 1.0 1 2207.0 1.0 1
gene  1 264 39 -0.3504700399587737 0 2208.0 -0.3504700399587737 0
gene  1 2 1035 1.0 0 3749.0 0.0 1
gene  1 1035 42 0.1824866420458072 0 3750.0 0.0 1
gene  1 2 1072 1.0 0 3823.0 0.0 1
gene  1 1072 38 -0.7864920799028581 0 3824.0 0.0 1
gene  1 17 1206 1.0 0 4091.0 0.0 1
gene  1 1206 35 0.1817665854067321 0 4092.0 0.0 1
gene  1 23 1252 1.0 0 4183.0 0.0 1
gene  1 1252 35 0.09274831883463562 0 4184.0 0.0 1
gene  1 264 1287 1.0 0 4253.0 0.0 1
gene  1 1287 39 -0.3504700399587737 0 4254.0 0.0 1
gene  1 7 1300 1.0 0 4279.0 0.0 1
gene  1 1300 29 0.4010919217089807 0 4280.0 0.0 1
gene  1 21 1305 1.0 0 4289.0 0.0 1
gene  1 1305 40 -0.9231603345570344 0 4290.0 0.0 1
gene  1 35 1336 1.0 1 4351.0 0.0 1
gene  1 1336 35 -0.6118333424650895 0 4352.0 0.0 1
gene  1 13 1647 1.0 0 4973.0 0.0 1
gene  1 1647 39 -0.004792521705366505 0 4974.0 0.0 1
gene  1 1287 1709 1.0 0 5097.0 0.0 1
gene  1 1709 39 -0.3504700399587737 0 5098.0 0.0 1
gene  1 25 1747 1.0 0 5173.0 0.0 1
gene  1 1747 35 0.17529425569056484 0 5174.0 0.0 1
gene  1 37 1803 1.0 1 5285.0 0.0 1
gene  1 1803 36 0.12548974360558188 0 5286.0 0.0 1
genomeend 1
/* Organism # 002 Fitness:  0.000 Error:  0.000                      */
genomestart  2
trait 1 0.0 0.0 0.0 0.0 0.0 0.0 0.0 0.0 
node 1 1 1 1
node 2 1 1 1
node 3 1 1 1
node 4 1 1 1
node 5 1 1 1
node 6 1 1 1
node 7 1 1 1
node 8 1 1 1
node 9 1 1 1
node 10 1 1 1
node 11 1 1 1
node 12 1 1 1
node 13 1 1 1
node 14 1 1 1
node 15 1 1 1
node 16 1 1 1
node 17 1 1 1
node 18 1 1 1
node 19 1 1 1
node 20 1 1 1
node 21 1 1 1
node 22 1 1 1
node 23 1 1 1
node 24 1 1 1
node 25 1 1 1
node 26 1 1 1
node 27 1 1 1
node 28 1 1 3
node 29 1 0 0
node 30 1 0 0
node 34 1 0 2
node 35 1 0 2
node 36 1 0 2
node 37 1 0 2
node 38 1 0 2
node 39 1 0 2
node 40 1 0 2
node 41 1 0 2
node 42 1 0 2
node 144 1 0 0
node 197 1 0 0
node 264 1 0 0
node 1035 1 0 0
node 1072 1 0 0
node 1206 1 0 0
node 1252 1 0 0
node 1287 1 0 0
node 1300 1 0 0
node 1305 1 0 0
node 1336 1 0 0
node 1647 1 0 0
node 1709 1 0 0
node 1747 1 0 0
node 1803 1 0 0
node 1828 1 0 0
gene  1 2 29 -5.309847363782184E-4 0 1177.0 -5.309847363782184E-4 1
gene  1 3 29 0.035272727111199 0 1178.0 0.035272727111199 1
gene  1 4 29 -5.928194293430267E-4 0 1179.0 -5.928194293430267E-4 1
gene  1 5 29 -0.15142023935834292 0 1180.0 -0.15142023935834292 1
gene  1 6 29 0.25463750675013025 0 1181.0 0.25463750675013025 1
gene  1 7 29 0.4010919217089807 0 1182.0 0.4010919217089807 1
gene  1 9 29 -0.6143981261301993 0 1184.0 -0.6143981261301993 1
gene  1 10 29 -0.00968079073903383 0 1185.0 -0.00968079073903383 1
gene  1 11 29 0.003335717977055851 0 1186.0 0.003335717977055851 1
gene  1 13 29 0.4691578539790256 0 1188.0 0.4691578539790256 1
gene  1 15 29 0.898105981746662 0 1190.0 0.898105981746662 1
gene  1 17 29 0.16931849814074074 0 1192.0 0.16931849814074074 1
gene  1 20 29 0.21659343429437522 0 1195.0 0.21659343429437522 1
gene  1 23 29 0.18123528225219332 0 1198.0 0.18123528225219332 1
gene  1 24 29 0.8493986237750013 0 1199.0 0.8493986237750013 1
gene  1 25 29 0.004236326047229089 0 1200.0 0.004236326047229089 1
gene  1 36 29 0.05064842767669181 1 1211.0 0.05064842767669181 1
gene  1 37 29 0.20807446290202006 1 1212.0 0.20807446290202006 1
gene  1 39 29 0.6403265369979857 1 1214.0 0.6403265369979857 1
gene  1 40 29 -0.8429364783121962 1 1215.0 -0.8429364783121962 1
gene  1 42 29 0.45866307167810294 1 1217.0 0.45866307167810294 1
gene  1 2 30 -0.007511479336431922 0 1219.0 -0.007511479336431922 1
gene  1 4 30 -0.8390218484966001 0 1221.0 -0.8390218484966001 1
gene  1 6 30 0.28676177892888294 0 1223.0 0.28676177892888294 1
gene  1 8 30 -6.395362929817616E-4 0 1225.0 -6.395362929817616E-4 1
gene  1 9 30 -0.9139274202370026 0 1226.0 -0.9139274202370026 1
gene  1 11 30 -0.004947712210203429 0 1228.0 -0.004947712210203429 1
gene  1 12 30 0.03706723323526271 0 1229.0 0.03706723323526271 1
gene  1 13 30 0.6691868100285806 0 1230.0 0.6691868100285806 1
gene  1 16 30 0.12088043665644864 0 1233.0 0.12088043665644864 1
gene  1 18 30 0.8573305576709276 0 1235.0 0.8573305576709276 1
gene  1 20 30 -0.028786119761300973 0 1237.0 -0.028786119761300973 1
gene  1 24 30 0.7265026900176224 0 1241.0 0.7265026900176224 1
gene  1 27 30 -0.5720669675706226 0 1244.0 -0.5720669675706226 1
gene  1 28 30 -0.09846377555992093 0 1245.0 -0.09846377555992093 1
gene  1 29 30 -0.4357574777976573 0 1246.0 -0.4357574777976573 1
gene  1 30 30 0.0694611607928584 1 1247.0 0.0694611607928584 1
gene  1 34 30 -0.4744629966742952 1 1251.0 -0.4744629966742952 1
gene  1 36 30 -0.47601888127345454 1 1253.0 -0.47601888127345454 1
gene  1 37 30 0.1306689030903886 1 1254.0 0.1306689030903886 1
gene  1 38 30 0.3734917415409185 1 1255.0 0.3734917415409185 1
gene  1 41 30 0.3821267410330386 1 1258.0 0.3821267410330386 1
gene  1 42 30 -0.13273304675084707 1 1259.0 -0.13273304675084707 1
gene  1 2 34 -0.2939096555552067 0 1387.0 -0.2939096555552067 1
gene  1 3 34 0.6538181533846092 0 1388.0 0.6538181533846092 1
gene  1 5 34 -0.9394483115179738 0 1390.0 -0.9394483115179738 1
gene  1 6 34 -0.8938680411223373 0 1391.0 -0.8938680411223373 1
gene  1 11 34 -0.6963995147194005 0 1396.0 -0.6963995147194005 1
gene  1 12 34 0.15755365205303762 0 1397.0 0.15755365205303762 1
gene  1 17 34 -0.3994097913708709 0 1402.0 -0.3994097913708709 1
gene  1 19 34 -0.03468763665849483 0 1404.0 -0.03468763665849483 1
gene  1 24 34 0.06378797765686871 0 1409.0 0.06378797765686871 1
gene  1 25 34 -0.38141384852505744 0 1410.0 -0.38141384852505744 1
gene  1 28 34 0.5750910056386962 0 1413.0 0.5750910056386962 1
gene  1 29 34 -0.002737983484049147 0 1414.0 -0.002737983484049147 1
gene  1 35 34 0.0745552958473455 1 1420.0 0.0745552958473455 1
gene  1 37 34 0.0030493170167793615 1 1422.0 0.0030493170167793615 1
gene  1 38 34 -0.4057699473115975 1 1423.0 -0.4057699473115975 1
gene  1 1 35 0.13224020110244816 0 1428.0 0.13224020110244816 1
gene  1 2 35 0.48856457826821625 0 1429.0 0.48856457826821625 1
gene  1 3 35 0.7143297888001401 0 1430.0 0.7143297888001401 1
gene  1 4 35 0.7545661554660369 0 1431.0 0.7545661554660369 1
gene  1 5 35 0.004108081070826971 0 1432.0 0.004108081070826971 1
gene  1 6 35 -0.138091044495683 0 1433.0 -0.138091044495683 1
gene  1 10 35 0.006061629447737757 0 1437.0 0.006061629447737757 1
gene  1 11 35 -0.4668677634983373 0 1438.0 -0.4668677634983373 1
gene  1 17 35 0.1817665854067321 0 1444.0 0.1817665854067321 1
gene  1 20 35 -0.3278096750009893 0 1447.0 -0.3278096750009893 1
gene  1 21 35 0.6176335363240125 0 1448.0 0.6176335363240125 1
gene  1 23 35 0.09274831883463562 0 1450.0 0.09274831883463562 1
gene  1 25 35 0.17529425569056484 0 1452.0 0.17529425569056484 1
gene  1 27 35 0.008258997784639625 0 1454.0 0.008258997784639625 1
gene  1 30 35 5.452072350345394E-4 0 1457.0 5.452072350345394E-4 1
gene  1 35 35 -0.6118333424650895 1 1462.0 -0.6118333424650895 1
gene  1 37 35 -0.6776718658174584 1 1464.0 -0.6776718658174584 1
gene  1 38 35 -0.7987365858738117 1 1465.0 -0.7987365858738117 1
gene  1 40 35 0.0010778399708725518 1 1467.0 0.0010778399708725518 1
gene  1 3 36 0.24436916950555873 0 1472.0 0.24436916950555873 1
gene  1 5 36 -0.6979937888056671 0 1474.0 -0.6979937888056671 1
gene  1 9 36 0.006672396660921616 0 1478.0 0.006672396660921616 1
gene  1 10 36 5.74235919117676E-4 0 1479.0 5.74235919117676E-4 1
gene  1 12 36 0.004604589102800281 0 1481.0 0.004604589102800281 1
gene  1 13 36 -0.11137712716113712 0 1482.0 -0.11137712716113712 1
gene  1 19 36 -0.007923754974260469 0 1488.0 -0.007923754974260469 1
gene  1 20 36 0.8025868909065926 0 1489.0 0.8025868909065926 1
gene  1 23 36 0.004841883446203295 0 1492.0 0.004841883446203295 1
gene  1 27 36 -0.6960048166928319 0 1496.0 -0.6960048166928319 1
gene  1 29 36 0.3805533059714011 0 1498.0 0.3805533059714011 1
gene  1 30 36 0.007321869494096465 0 1499.0 0.007321869494096465 1
gene  1 34 36 -0.8225542674880182 0 1503.0 -0.8225542674880182 1
gene  1 35 36 -0.06309064130893238 0 1504.0 -0.06309064130893238 1
gene  1 37 36 0.12548974360558188 1 1506.0 0.12548974360558188 0
gene  1 38 36 -0.4597773588220322 1 1507.0 -0.4597773588220322 1
gene  1 39 36 0.6539143141151323 1 1508.0 0.6539143141151323 1
gene  1 42 36 0.9164013574846083 1 1511.0 0.9164013574846083 1
gene  1 2 37 -0.004738291853696461 0 1513.0 -0.004738291853696461 1
gene  1 3 37 0.12685547788159998 0 1514.0 0.12685547788159998 1
gene  1 4 37 -0.007677613673609276 0 1515.0 -0.007677613673609276 1
gene  1 5 37 -0.6470123650758881 0 1516.0 -0.6470123650758881 1
gene  1 6 37 -0.5383603463451089 0 1517.0 -0.5383603463451089 1
gene  1 8 37 0.6733780382230709 0 1519.0 0.6733780382230709 1
gene  1 9 37 0.7007299439283751 0 1520.0 0.7007299439283751 1
gene  1 11 37 -0.0073138924315914065 0 1522.0 -0.0073138924315914065 1
gene  1 13 37 -0.799003148721794 0 1524.0 -0.799003148721794 1
gene  1 14 37 -0.03308218882197833 0 1525.0 -0.03308218882197833 1
gene  1 16 37 0.6429631693798087 0 1527.0 0.6429631693798087 1
gene  1 19 37 0.3264070463100638 0 1530.0 0.3264070463100638 1
gene  1 21 37 -0.8595310691155201 0 1532.0 -0.8595310691155201 1
gene  1 25 37 -0.005957642274418491 0 1536.0 -0.005957642274418491 1
gene  1 28 37 0.0022135048212094093 0 1539.0 0.0022135048212094093 1
gene  1 40 37 0.19153020666196566 1 1551.0 0.19153020666196566 1
gene  1 42 37 0.6550041317671736 1 1553.0 0.6550041317671736 1
gene  1 2 38 -0.7864920799028581 0 1555.0 -0.7864920799028581 1
gene  1 6 38 -0.5198799375712266 0 1559.0 -0.5198799375712266 1
gene  1 9 38 0.7415812097008293 0 1562.0 0.7415812097008293 1
gene  1 10 38 0.16761946135414543 0 1563.0 0.16761946135414543 1
gene  1 14 38 0.7089701954244015 0 1567.0 0.7089701954244015 1
gene  1 18 38 -0.28627291379267344 0 1571.0 -0.28627291379267344 1
gene  1 20 38 0.5588415942907139 0 1573.0 0.5588415942907139 1
gene  1 21 38 -0.7442213682597995 0 1574.0 -0.7442213682597995 1
gene  1 23 38 0.3082270560761019 0 1576.0 0.3082270560761019 1
gene  1 24 38 -0.7266093860568571 0 1577.0 -0.7266093860568571 1
gene  1 25 38 -3.490714698582942E-4 0 1578.0 -3.490714698582942E-4 1
gene  1 26 38 0.23684149229834536 0 1579.0 0.23684149229834536 1
gene  1 27 38 0.9859372310011578 0 1580.0 0.9859372310011578 1
gene  1 28 38 0.24529115408830113 0 1581.0 0.24529115408830113 1
gene  1 30 38 -0.00569147345041681 0 1583.0 -0.00569147345041681 1
gene  1 34 38 0.005071208847816029 0 1587.0 0.005071208847816029 1
gene  1 35 38 -0.3050779223344857 0 1588.0 -0.3050779223344857 1
gene  1 37 38 -0.33533699594900057 0 1590.0 -0.33533699594900057 1
gene  1 39 38 0.4468460768825943 1 1592.0 0.4468460768825943 1
gene  1 1 39 -0.2629878545952168 0 1596.0 -0.2629878545952168 1
gene  1 6 39 0.6583156058835788 0 1601.0 0.6583156058835788 1
gene  1 7 39 0.15256290409889953 0 1602.0 0.15256290409889953 1
gene  1 8 39 0.33958060120781025 0 1603.0 0.33958060120781025 1
gene  1 11 39 -0.8675533167471079 0 1606.0 -0.8675533167471079 1
gene  1 12 39 0.703133259601232 0 1607.0 0.703133259601232 1
gene  1 13 39 -0.004792521705366505 0 1608.0 -0.004792521705366505 1
gene  1 15 39 0.001590535981690222 0 1610.0 0.001590535981690222 1
gene  1 17 39 -0.1285901567751977 0 1612.0 -0.1285901567751977 1
gene  1 21 39 0.008621558843701981 0 1616.0 0.008621558843701981 1
gene  1 22 39 -0.002513719739331373 0 1617.0 -0.002513719739331373 1
gene  1 25 39 -0.004942459626589961 0 1620.0 -0.004942459626589961 1
gene  1 27 39 -0.003187000981410407 0 1622.0 -0.003187000981410407 1
gene  1 28 39 0.7037934348318474 0 1623.0 0.7037934348318474 1
gene  1 29 39 -0.8455816124541802 0 1624.0 -0.8455816124541802 1
gene  1 30 39 0.6374485320568151 0 1625.0 0.6374485320568151 1
gene  1 34 39 0.009807276905413252 0 1629.0 0.009807276905413252 1
gene  1 36 39 -0.11862969538813863 0 1631.0 -0.11862969538813863 1
gene  1 37 39 0.5302526042533987 0 1632.0 0.5302526042533987 1
gene  1 38 39 0.6557419453737345 0 1633.0 0.6557419453737345 1
gene  1 40 39 -0.3375756800467522 1 1635.0 -0.3375756800467522 1
gene  1 41 39 -0.18194791576546812 1 1636.0 -0.18194791576546812 1
gene  1 2 40 -0.15146299263927715 0 1639.0 -0.15146299263927715 1
gene  1 9 40 0.006779905196203667 0 1646.0 0.006779905196203667 1
gene  1 11 40 0.4773832586989566 0 1648.0 0.4773832586989566 1
gene  1 12 40 0.42966558374032493 0 1649.0 0.42966558374032493 1
gene  1 13 40 -0.00928411913230102 0 1650.0 -0.00928411913230102 1
gene  1 14 40 -0.00710259257124057 0 1651.0 -0.00710259257124057 1
gene  1 19 40 0.3024170215837855 0 1656.0 0.3024170215837855 1
gene  1 20 40 0.4109220022399126 0 1657.0 0.4109220022399126 1
gene  1 21 40 -0.9231603345570344 0 1658.0 -0.9231603345570344 1
gene  1 26 40 -0.006122667482614041 0 1663.0 -0.006122667482614041 1
gene  1 27 40 -0.6873831317156855 0 1664.0 -0.6873831317156855 1
gene  1 30 40 0.15307064950108604 0 1667.0 0.15307064950108604 1
gene  1 37 40 0.9257825938591752 0 1674.0 0.9257825938591752 1
gene  1 38 40 -0.15567225180115918 0 1675.0 -0.15567225180115918 1
gene  1 2 41 -0.3934272676234482 0 1681.0 -0.3934272676234482 1
gene  1 3 41 0.58918152471396 0 1682.0 0.58918152471396 1
gene  1 4 41 0.24336639182068312 0 1683.0 0.24336639182068312 1
gene  1 8 41 0.4954307906407553 0 1687.0 0.4954307906407553 1
gene  1 10 41 -0.5779056692732659 0 1689.0 -0.5779056692732659 1
gene  1 12 41 0.017700212199027954 0 1691.0 0.017700212199027954 1
gene  1 14 41 0.3737697582767566 0 1693.0 0.3737697582767566 1
gene  1 16 41 -0.4387299304026458 0 1695.0 -0.4387299304026458 1
gene  1 22 41 0.4164837334572407 0 1701.0 0.4164837334572407 1
gene  1 24 41 0.6561219438952883 0 1703.0 0.6561219438952883 1
gene  1 26 41 -0.00395279856910123 0 1705.0 -0.00395279856910123 1
gene  1 28 41 0.005559525138567949 0 1707.0 0.005559525138567949 1
gene  1 29 41 -0.7447704479232637 0 1708.0 -0.7447704479232637 1
gene  1 30 41 0.8706569104060157 0 1709.0 0.8706569104060157 1
gene  1 36 41 0.23470814856422195 0 1715.0 0.23470814856422195 1
gene  1 41 41 -0.09565854111170524 1 1720.0 -0.09565854111170524 1
gene  1 2 42 0.1824866420458072 0 1723.0 0.1824866420458072 1
gene  1 4 42 -0.18115122656671914 0 1725.0 -0.18115122656671914 1
gene  1 5 42 -0.9994227312816479 0 1726.0 -0.9994227312816479 1
gene  1 6 42 0.31719306114489065 0 1727.0 0.31719306114489065 1
gene  1 9 42 -0.003917196413070866 0 1730.0 -0.003917196413070866 1
gene  1 10 42 -0.0012787412273713317 0 1731.0 -0.0012787412273713317 1
gene  1 12 42 -0.6400225705283682 0 1733.0 -0.6400225705283682 1
gene  1 15 42 0.4638007752744676 0 1736.0 0.4638007752744676 1
gene  1 20 42 -0.7221508851257682 0 1741.0 -0.7221508851257682 1
gene  1 21 42 0.009385692403057441 0 1742.0 0.009385692403057441 1
gene  1 22 42 -0.7068393056624448 0 1743.0 -0.7068393056624448 1
gene  1 23 42 0.008737798064887696 0 1744.0 0.008737798064887696 1
gene  1 25 42 -0.21628805921033883 0 1746.0 -0.21628805921033883 1
gene  1 26 42 0.43121342951942665 0 1747.0 0.43121342951942665 1
gene  1 27 42 -0.12331717086907297 0 1748.0 -0.12331717086907297 1
gene  1 28 42 0.26682538593866323 0 1749.0 0.26682538593866323 1
gene  1 30 42 0.652119825161224 0 1751.0 0.652119825161224 1
gene  1 34 42 -0.008230979022683407 0 1755.0 -0.008230979022683407 1
gene  1 35 42 0.2841381024048612 0 1756.0 0.2841381024048612 1
gene  1 36 42 0.03686702880105701 0 1757.0 0.03686702880105701 1
gene  1 37 42 -0.6941954697137098 0 1758.0 -0.6941954697137098 1
gene  1 38 42 -0.13667637054242904 0 1759.0 -0.13667637054242904 1
gene  1 39 42 -0.004246811299378266 0 1760.0 -0.004246811299378266 1
gene  1 40 42 0.00985215363223691 0 1761.0 0.00985215363223691 1
gene  1 41 42 0.8441578967128656 0 1762.0 0.8441578967128656 1
gene  1 38 144 1.0099477176806992 1 1967.0 1.0099477176806992 1
gene  1 144 35 -0.795535327528748 0 1968.0 -0.795535327528748 1
gene  1 24 197 0.990694700350562 0 2073.0 0.990694700350562 1
gene  1 197 30 -0.002479360833767025 0 2074.0 -0.002479360833767025 1
gene  1 40 264 1.0 1 2207.0 1.0 1
gene  1 264 39 -0.3504700399587737 0 2208.0 -0.3504700399587737 1
gene  1 2 1035 1.0 0 3749.0 0.0 1
gene  1 1035 42 0.1824866420458072 0 3750.0 0.0 1
gene  1 2 1072 1.0 0 3823.0 0.0 1
gene  1 1072 38 -0.7864920799028581 0 3824.0 0.0 1
gene  1 17 1206 1.0 0 4091.0 0.0 1
gene  1 1206 35 0.1817665854067321 0 4092.0 0.0 1
gene  1 23 1252 1.0 0 4183.0 0.0 1
gene  1 1252 35 0.09274831883463562 0 4184.0 0.0 1
gene  1 264 1287 1.0 0 4253.0 0.0 1
gene  1 1287 39 -0.3504700399587737 0 4254.0 0.0 0
gene  1 7 1300 1.0 0 4279.0 0.0 1
gene  1 1300 29 0.4010919217089807 0 4280.0 0.0 1
gene  1 21 1305 1.0 0 4289.0 0.0 1
gene  1 1305 40 -0.9231603345570344 0 4290.0 0.0 1
gene  1 35 1336 1.0 1 4351.0 0.0 1
gene  1 1336 35 -0.6118333424650895 0 4352.0 0.0 1
gene  1 13 1647 1.0 0 4973.0 0.0 1
gene  1 1647 39 -0.004792521705366505 0 4974.0 0.0 0
gene  1 1287 1709 1.0 0 5097.0 0.0 1
gene  1 1709 39 -0.3504700399587737 0 5098.0 0.0 1
gene  1 25 1747 1.0 0 5173.0 0.0 1
gene  1 1747 35 0.17529425569056484 0 5174.0 0.0 1
gene  1 37 1803 1.0 1 5285.0 0.0 1
gene  1 1803 36 0.12548974360558188 0 5286.0 0.0 1
gene  1 1647 1828 1.0 0 5335.0 0.0 1
gene  1 1828 39 -0.004792521705366505 0 5336.0 0.0 1
genomeend 2
/* Organism # 003 Fitness:  0.000 Error:  0.000                      */
genomestart  3
trait 1 0.0 0.0 0.0 0.0 0.0 0.0 0.0 0.0 
node 1 1 1 1
node 2 1 1 1
node 3 1 1 1
node 4 1 1 1
node 5 1 1 1
node 6 1 1 1
node 7 1 1 1
node 8 1 1 1
node 9 1 1 1
node 10 1 1 1
node 11 1 1 1
node 12 1 1 1
node 13 1 1 1
node 14 1 1 1
node 15 1 1 1
node 16 1 1 1
node 17 1 1 1
node 18 1 1 1
node 19 1 1 1
node 20 1 1 1
node 21 1 1 1
node 22 1 1 1
node 23 1 1 1
node 24 1 1 1
node 25 1 1 1
node 26 1 1 1
node 27 1 1 1
node 28 1 1 3
node 29 1 0 0
node 30 1 0 0
node 34 1 0 2
node 35 1 0 2
node 36 1 0 2
node 37 1 0 2
node 38 1 0 2
node 39 1 0 2
node 40 1 0 2
node 41 1 0 2
node 42 1 0 2
node 144 1 0 0
node 197 1 0 0
node 264 1 0 0
node 1035 1 0 0
node 1072 1 0 0
node 1206 1 0 0
node 1252 1 0 0
node 1287 1 0 0
node 1300 1 0 0
node 1305 1 0 0
node 1336 1 0 0
node 1647 1 0 0
node 1709 1 0 0
node 1747 1 0 0
node 1803 1 0 0
gene  1 2 29 -5.309847363782184E-4 0 1177.0 -5.309847363782184E-4 1
gene  1 3 29 0.035272727111199 0 1178.0 0.035272727111199 1
gene  1 4 29 -5.928194293430267E-4 0 1179.0 -5.928194293430267E-4 1
gene  1 5 29 -0.15142023935834292 0 1180.0 -0.15142023935834292 1
gene  1 6 29 0.25463750675013025 0 1181.0 0.25463750675013025 1
gene  1 7 29 0.4010919217089807 0 1182.0 0.4010919217089807 1
gene  1 9 29 -0.6143981261301993 0 1184.0 -0.6143981261301993 1
gene  1 10 29 -0.00968079073903383 0 1185.0 -0.00968079073903383 1
gene  1 11 29 0.003335717977055851 0 1186.0 0.003335717977055851 1
gene  1 13 29 0.4691578539790256 0 1188.0 0.4691578539790256 1
gene  1 15 29 0.898105981746662 0 1190.0 0.898105981746662 1
gene  1 17 29 0.16931849814074074 0 1192.0 0.16931849814074074 1
gene  1 20 29 0.21659343429437522 0 1195.0 0.21659343429437522 1
gene  1 23 29 0.18123528225219332 0 1198.0 0.18123528225219332 1
gene  1 24 29 0.8493986237750013 0 1199.0 0.8493986237750013 1
gene  1 25 29 0.004236326047229089 0 1200.0 0.004236326047229089 1
gene  1 36 29 0.05064842767669181 1 1211.0 0.05064842767669181 1
gene  1 37 29 0.20807446290202006 1 1212.0 0.20807446290202006 1
gene  1 39 29 0.6403265369979857 1 1214.0 0.6403265369979857 1
gene  1 40 29 -0.8429364783121962 1 1215.0 -0.8429364783121962 1
gene  1 42 29 0.45866307167810294 1 1217.0 0.45866307167810294 1
gene  1 2 30 -0.007511479336431922 0 1219.0 -0.007511479336431922 1
gene  1 4 30 -0.8390218484966001 0 1221.0 -0.8390218484966001 1
gene  1 6 30 0.28676177892888294 0 1223.0 0.28676177892888294 1
gene  1 8 30 -6.395362929817616E-4 0 1225.0 -6.395362929817616E-4 1
gene  1 9 30 -0.9139274202370026 0 1226.0 -0.9139274202370026 1
gene  1 11 30 -0.004947712210203429 0 1228.0 -0.004947712210203429 1
gene  1 12 30 0.03706723323526271 0 1229.0 0.03706723323526271 1
gene  1 13 30 0.6691868100285806 0 1230.0 0.6691868100285806 1
gene  1 16 30 0.12088043665644864 0 1233.0 0.12088043665644864 1
gene  1 18 30 0.8573305576709276 0 1235.0 0.8573305576709276 1
gene  1 20 30 -0.028786119761300973 0 1237.0 -0.028786119761300973 1
gene  1 24 30 0.7265026900176224 0 1241.0 0.7265026900176224 1
gene  1 27 30 -0.5720669675706226 0 1244.0 -0.5720669675706226 1
gene  1 28 30 -0.09846377555992093 0 1245.0 -0.09846377555992093 1
gene  1 29 30 -0.4357574777976573 0 1246.0 -0.4357574777976573 1
gene  1 30 30 0.0694611607928584 1 1247.0 0.0694611607928584 1
gene  1 34 30 -0.4744629966742952 1 1251.0 -0.4744629966742952 1
gene  1 36 30 -0.47601888127345454 1 1253.0 -0.47601888127345454 1
gene  1 37 30 0.1306689030903886 1 1254.0 0.1306689030903886 1
gene  1 38 30 0.3734917415409185 1 1255.0 0.3734917415409185 1
gene  1 41 30 0.3821267410330386 1 1258.0 0.3821267410330386 1
gene  1 42 30 -0.13273304675084707 1 1259.0 -0.13273304675084707 1
gene  1 2 34 -0.2939096555552067 0 1387.0 -0.2939096555552067 1
gene  1 3 34 0.6538181533846092 0 1388.0 0.6538181533846092 1
gene  1 5 34 -0.9394483115179738 0 1390.0 -0.9394483115179738 1
gene  1 6 34 -0.8938680411223373 0 1391.0 -0.8938680411223373 1
gene  1 11 34 -0.6963995147194005 0 1396.0 -0.6963995147194005 1
gene  1 12 34 0.15755365205303762 0 1397.0 0.15755365205303762 1
gene  1 17 34 -0.3994097913708709 0 1402.0 -0.3994097913708709 1
gene  1 19 34 -0.03468763665849483 0 1404.0 -0.03468763665849483 1
gene  1 24 34 0.06378797765686871 0 1409.0 0.06378797765686871 1
gene  1 25 34 -0.38141384852505744 0 1410.0 -0.38141384852505744 1
gene  1 28 34 0.5750910056386962 0 1413.0 0.5750910056386962 1
gene  1 29 34 -0.002737983484049147 0 1414.0 -0.002737983484049147 1
gene  1 35 34 0.0745552958473455 1 1420.0 0.0745552958473455 1
gene  1 37 34 0.0030493170167793615 1 1422.0 0.0030493170167793615 1
gene  1 38 34 -0.4057699473115975 1 1423.0 -0.4057699473115975 1
gene  1 1 35 0.13224020110244816 0 1428.0 0.13224020110244816 1
gene  1 2 35 0.48856457826821625 0 1429.0 0.48856457826821625 1
gene  1 3 35 0.7143297888001401 0 1430.0 0.7143297888001401 1
gene  1 4 35 0.7545661554660369 0 1431.0 0.7545661554660369 1
gene  1 5 35 0.004108081070826971 0 1432.0 0.004108081070826971 1
gene  1 6 35 -0.138091044495683 0 1433.0 -0.138091044495683 1
gene  1 10 35 0.006061629447737757 0 1437.0 0.006061629447737757 1
gene  1 11 35 -0.4668677634983373 0 1438.0 -0.4668677634983373 1
gene  1 17 35 0.1817665854067321 0 1444.0 0.1817665854067321 1
gene  1 20 35 -0.3278096750009893 0 1447.0 -0.3278096750009893 1
gene  1 21 35 0.6176335363240125 0 1448.0 0.6176335363240125 1
gene  1 23 35 0.09274831883463562 0 1450.0 0.09274831883463562 1
gene  1 25 35 0.17529425569056484 0 1452.0 0.17529425569056484 1
gene  1 27 35 0.008258997784639625 0 1454.0 0.008258997784639625 1
gene  1 30 35 5.452072350345394E-4 0 1457.0 5.452072350345394E-4 1
gene  1 35 35 -0.6118333424650895 1 1462.0 -0.6118333424650895 1
gene  1 37 35 -0.6776718658174584 1 1464.0 -0.6776718658174584 1
gene  1 38 35 -0.7987365858738117 1 1465.0 -0.7987365858738117 1
gene  1 40 35 0.0010778399708725518 1 1467.0 0.0010778399708725518 1
gene  1 3 36 0.24436916950555873 0 1472.0 0.24436916950555873 1
gene  1 5 36 -0.6979937888056671 0 1474.0 -0.6979937888056671 1
gene  1 9 36 0.006672396660921616 0 1478.0 0.006672396660921616 1
gene  1 10 36 5.74235919117676E-4 0 1479.0 5.74235919117676E-4 1
gene  1 12 36 0.004604589102800281 0 1481.0 0.004604589102800281 1
gene  1 13 36 -0.11137712716113712 0 1482.0 -0.11137712716113712 1
gene  1 19 36 -0.007923754974260469 0 1488.0 -0.007923754974260469 1
gene  1 20 36 0.8025868909065926 0 1489.0 0.8025868909065926 1
gene  1 23 36 0.004841883446203295 0 1492.0 0.004841883446203295 1
gene  1 27 36 -0.6960048166928319 0 1496.0 -0.6960048166928319 1
gene  1 29 36 0.3805533059714011 0 1498.0 0.3805533059714011 1
gene  1 30 36 0.007321869494096465 0 1499.0 0.007321869494096465 1
gene  1 34 36 -0.8225542674880182 0 1503.0 -0.8225542674880182 1
gene  1 35 36 -0.06309064130893238 0 1504.0 -0.06309064130893238 1
gene  1 37 36 0.12548974360558188 1 1506.0 0.12548974360558188 0
gene  1 38 36 -0.4597773588220322 1 1507.0 -0.4597773588220322 1
gene  1 39 36 0.6539143141151323 1 1508.0 0.6539143141151323 1
gene  1 42 36 0.9164013574846083 1 1511.0 0.9164013574846083 1
gene  1 2 37 -0.004738291853696461 0 1513.0 -0.004738291853696461 1
gene  1 3 37 0.12685547788159998 0 1514.0 0.12685547788159998 1
gene  1 4 37 -0.007677613673609276 0 1515.0 -0.007677613673609276 1
gene  1 5 37 -0.6470123650758881 0 1516.0 -0.6470123650758881 1
gene  1 6 37 -0.5383603463451089 0 1517.0 -0.5383603463451089 1
gene  1 8 37 0.6733780382230709 0 1519.0 0.6733780382230709 1
gene  1 9 37 0.7007299439283751 0 1520.0 0.7007299439283751 1
gene  1 11 37 -0.0073138924315914065 0 1522.0 -0.0073138924315914065 1
gene  1 13 37 -0.799003148721794 0 1524.0 -0.799003148721794 1
gene  1 14 37 -0.03308218882197833 0 1525.0 -0.03308218882197833 1
gene  1 16 37 0.6429631693798087 0 1527.0 0.6429631693798087 1
gene  1 19 37 0.3264070463100638 0 1530.0 0.3264070463100638 1
gene  1 21 37 -0.8595310691155201 0 1532.0 -0.8595310691155201 1
gene  1 25 37 -0.005957642274418491 0 1536.0 -0.005957642274418491 1
gene  1 28 37 0.0022135048212094093 0 1539.0 0.0022135048212094093 1
gene  1 40 37 0.19153020666196566 1 1551.0 0.19153020666196566 1
gene  1 42 37 0.6550041317671736 1 1553.0 0.6550041317671736 1
gene  1 2 38 -0.7864920799028581 0 1555.0 -0.7864920799028581 1
gene  1 6 38 -0.5198799375712266 0 1559.0 -0.5198799375712266 1
gene  1 9 38 0.7415812097008293 0 1562.0 0.7415812097008293 1
gene  1 10 38 0.16761946135414543 0 1563.0 0.16761946135414543 1
gene  1 14 38 0.7089701954244015 0 1567.0 0.7089701954244015 1
gene  1 18 38 -0.28627291379267344 0 1571.0 -0.28627291379267344 1
gene  1 20 38 0.5588415942907139 0 1573.0 0.5588415942907139 1
gene  1 21 38 -0.7442213682597995 0 1574.0 -0.7442213682597995 1
gene  1 23 38 0.3082270560761019 0 1576.0 0.3082270560761019 1
gene  1 24 38 -0.7266093860568571 0 1577.0 -0.7266093860568571 1
gene  1 25 38 -3.490714698582942E-4 0 1578.0 -3.490714698582942E-4 1
gene  1 26 38 0.23684149229834536 0 1579.0 0.23684149229834536 1
gene  1 27 38 0.9859372310011578 0 1580.0 0.9859372310011578 1
gene  1 28 38 0.24529115408830113 0 1581.0 0.24529115408830113 1
gene  1 30 38 -0.00569147345041681 0 1583.0 -0.00569147345041681 1
gene  1 34 38 0.005071208847816029 0 1587.0 0.005071208847816029 1
gene  1 35 38 -0.3050779223344857 0 1588.0 -0.3050779223344857 1
gene  1 37 38 -0.33533699594900057 0 1590.0 -0.33533699594900057 1
gene  1 39 38 0.4468460768825943 1 1592.0 0.4468460768825943 1
gene  1 1 39 -0.2629878545952168 0 1596.0 -0.2629878545952168 1
gene  1 6 39 0.6583156058835788 0 1601.0 0.6583156058835788 1
gene  1 7 39 0.15256290409889953 0 1602.0 0.15256290409889953 1
gene  1 8 39 0.33958060120781025 0 1603.0 0.33958060120781025 1
gene  1 11 39 -0.8675533167471079 0 1606.0 -0.8675533167471079 1
gene  1 12 39 0.703133259601232 0 1607.0 0.703133259601232 1
gene  1 13 39 -0.004792521705366505 0 1608.0 -0.004792521705366505 1
gene  1 15 39 0.001590535981690222 0 1610.0 0.001590535981690222 1
gene  1 17 39 -0.1285901567751977 0 1612.0 -0.1285901567751977 1
gene  1 21 39 0.008621558843701981 0 1616.0 0.008621558843701981 1
gene  1 22 39 -0.002513719739331373 0 1617.0 -0.002513719739331373 1
gene  1 25 39 -0.004942459626589961 0 1620.0 -0.004942459626589961 1
gene  1 27 39 -0.003187000981410407 0 1622.0 -0.003187000981410407 1
gene  1 28 39 0.7037934348318474 0 1623.0 0.7037934348318474 1
gene  1 29 39 -0.8455816124541802 0 1624.0 -0.8455816124541802 1
gene  1 30 39 0.6374485320568151 0 1625.0 0.6374485320568151 1
gene  1 34 39 0.009807276905413252 0 1629.0 0.009807276905413252 1
gene  1 36 39 -0.11862969538813863 0 1631.0 -0.11862969538813863 1
gene  1 37 39 0.5302526042533987 0 1632.0 0.5302526042533987 1
gene  1 38 39 0.6557419453737345 0 1633.0 0.6557419453737345 1
gene  1 40 39 -0.3375756800467522 1 1635.0 -0.3375756800467522 1
gene  1 41 39 -0.18194791576546812 1 1636.0 -0.18194791576546812 1
gene  1 2 40 -0.15146299263927715 0 1639.0 -0.15146299263927715 1
gene  1 9 40 0.006779905196203667 0 1646.0 0.006779905196203667 1
gene  1 11 40 0.4773832586989566 0 1648.0 0.4773832586989566 1
gene  1 12 40 0.42966558374032493 0 1649.0 0.42966558374032493 1
gene  1 13 40 -0.00928411913230102 0 1650.0 -0.00928411913230102 1
gene  1 14 40 -0.00710259257124057 0 1651.0 -0.00710259257124057 1
gene  1 19 40 0.3024170215837855 0 1656.0 0.3024170215837855 1
gene  1 20 40 0.4109220022399126 0 1657.0 0.4109220022399126 1
gene  1 21 40 -0.9231603345570344 0 1658.0 -0.9231603345570344 1
gene  1 26 40 -0.006122667482614041 0 1663.0 -0.006122667482614041 1
gene  1 27 40 -0.6873831317156855 0 1664.0 -0.6873831317156855 1
gene  1 30 40 0.15307064950108604 0 1667.0 0.15307064950108604 1
gene  1 37 40 0.9257825938591752 0 1674.0 0.9257825938591752 1
gene  1 38 40 -0.15567225180115918 0 1675.0 -0.15567225180115918 1
gene  1 2 41 -0.3934272676234482 0 1681.0 -0.3934272676234482 1
gene  1 3 41 0.58918152471396 0 1682.0 0.58918152471396 1
gene  1 4 41 0.24336639182068312 0 1683.0 0.24336639182068312 1
gene  1 8 41 0.4954307906407553 0 1687.0 0.4954307906407553 1
gene  1 10 41 -0.5779056692732659 0 1689.0 -0.5779056692732659 1
gene  1 12 41 0.017700212199027954 0 1691.0 0.017700212199027954 1
gene  1 14 41 0.3737697582767566 0 1693.0 0.3737697582767566 1
gene  1 16 41 -0.4387299304026458 0 1695.0 -0.4387299304026458 1
gene  1 22 41 0.4164837334572407 0 1701.0 0.4164837334572407 1
gene  1 24 41 0.6561219438952883 0 1703.0 0.6561219438952883 1
gene  1 26 41 -0.00395279856910123 0 1705.0 -0.00395279856910123 1
gene  1 28 41 0.005559525138567949 0 1707.0 0.005559525138567949 1
gene  1 29 41 -0.7447704479232637 0 1708.0 -0.7447704479232637 1
gene  1 30 41 0.8706569104060157 0 1709.0 0.8706569104060157 1
gene  1 36 41 0.23470814856422195 0 1715.0 0.23470814856422195 1
gene  1 41 41 -0.09565854111170524 1 1720.0 -0.09565854111170524 1
gene  1 2 42 0.1824866420458072 0 1723.0 0.1824866420458072 1
gene  1 4 42 -0.18115122656671914 0 1725.0 -0.18115122656671914 1
gene  1 5 42 -0.9994227312816479 0 1726.0 -0.9994227312816479 1
gene  1 6 42 0.31719306114489065 0 1727.0 0.31719306114489065 1
gene  1 9 42 -0.003917196413070866 0 1730.0 -0.003917196413070866 1
gene  1 10 42 -0.0012787412273713317 0 1731.0 -0.0012787412273713317 1
gene  1 12 42 -0.6400225705283682 0 1733.0 -0.6400225705283682 1
gene  1 15 42 0.4638007752744676 0 1736.0 0.4638007752744676 1
gene  1 20 42 -0.7221508851257682 0 1741.0 -0.7221508851257682 1
gene  1 21 42 0.009385692403057441 0 1742.0 0.009385692403057441 1
gene  1 22 42 -0.7068393056624448 0 1743.0 -0.7068393056624448 1
gene  1 23 42 0.008737798064887696 0 1744.0 0.008737798064887696 1
gene  1 25 42 -0.21628805921033883 0 1746.0 -0.21628805921033883 1
gene  1 26 42 0.43121342951942665 0 1747.0 0.43121342951942665 1
gene  1 27 42 -0.12331717086907297 0 1748.0 -0.12331717086907297 1
gene  1 28 42 0.26682538593866323 0 1749.0 0.26682538593866323 1
gene  1 30 42 0.652119825161224 0 1751.0 0.652119825161224 1
gene  1 34 42 -0.008230979022683407 0 1755.0 -0.008230979022683407 1
gene  1 35 42 0.2841381024048612 0 1756.0 0.2841381024048612 1
gene  1 36 42 0.03686702880105701 0 1757.0 0.03686702880105701 1
gene  1 37 42 -0.6941954697137098 0 1758.0 -0.6941954697137098 1
gene  1 38 42 -0.13667637054242904 0 1759.0 -0.13667637054242904 1
gene  1 39 42 -0.004246811299378266 0 1760.0 -0.004246811299378266 1
gene  1 40 42 0.00985215363223691 0 1761.0 0.00985215363223691 1
gene  1 41 42 0.8441578967128656 0 1762.0 0.8441578967128656 1
gene  1 38 144 1.0099477176806992 1 1967.0 1.0099477176806992 1
gene  1 144 35 -0.795535327528748 0 1968.0 -0.795535327528748 1
gene  1 24 197 0.990694700350562 0 2073.0 0.990694700350562 1
gene  1 197 30 -0.002479360833767025 0 2074.0 -0.002479360833767025 1
gene  1 40 264 1.0 1 2207.0 1.0 1
gene  1 264 39 -0.3504700399587737 0 2208.0 -0.3504700399587737 0
gene  1 2 1035 1.0 0 3749.0 0.0 1
gene  1 1035 42 0.1824866420458072 0 3750.0 0.0 1
gene  1 2 1072 1.0 0 3823.0 0.0 1
gene  1 1072 38 -0.7864920799028581 0 3824.0 0.0 1
gene  1 17 1206 1.0 0 4091.0 0.0 1
gene  1 1206 35 0.1817665854067321 0 4092.0 0.0 1
gene  1 23 1252 1.0 0 4183.0 0.0 1
gene  1 1252 35 0.09274831883463562 0 4184.0 0.0 1
gene  1 264 1287 1.0 0 4253.0 0.0 1
gene  1 1287 39 -0.3504700399587737 0 4254.0 0.0 0
gene  1 7 1300 1.0 0 4279.0 0.0 1
gene  1 1300 29 0.4010919217089807 0 4280.0 0.0 1
gene  1 21 1305 1.0 0 4289.0 0.0 1
gene  1 1305 40 -0.9231603345570344 0 4290.0 0.0 1
gene  1 35 1336 1.0 1 4351.0 0.0 1
gene  1 1336 35 -0.6118333424650895 0 4352.0 0.0 1
gene  1 13 1647 1.0 0 4973.0 0.0 1
gene  1 1647 39 -0.004792521705366505 0 4974.0 0.0 1
gene  1 1287 1709 1.0 0 5097.0 0.0 1
gene  1 1709 39 -0.3504700399587737 0 5098.0 0.0 1
gene  1 25 1747 1.0 0 5173.0 0.0 1
gene  1 1747 35 0.17529425569056484 0 5174.0 0.0 1
gene  1 37 1803 1.0 1 5285.0 0.0 1
gene  1 1803 36 0.12548974360558188 0 5286.0 0.0 1
genomeend 3
/* Organism # 004 Fitness:  0.000 Error:  0.000                      */
genomestart  4
trait 1 0.0 0.0 0.0 0.0 0.0 0.0 0.0 0.0 
node 1 1 1 1
node 2 1 1 1
node 3 1 1 1
node 4 1 1 1
node 5 1 1 1
node 6 1 1 1
node 7 1 1 1
node 8 1 1 1
node 9 1 1 1
node 10 1 1 1
node 11 1 1 1
node 12 1 1 1
node 13 1 1 1
node 14 1 1 1
node 15 1 1 1
node 16 1 1 1
node 17 1 1 1
node 18 1 1 1
node 19 1 1 1
node 20 1 1 1
node 21 1 1 1
node 22 1 1 1
node 23 1 1 1
node 24 1 1 1
node 25 1 1 1
node 26 1 1 1
node 27 1 1 1
node 28 1 1 3
node 29 1 0 0
node 30 1 0 0
node 34 1 0 2
node 35 1 0 2
node 36 1 0 2
node 37 1 0 2
node 38 1 0 2
node 39 1 0 2
node 40 1 0 2
node 41 1 0 2
node 42 1 0 2
node 144 1 0 0
node 197 1 0 0
node 264 1 0 0
node 1035 1 0 0
node 1072 1 0 0
node 1206 1 0 0
node 1252 1 0 0
node 1287 1 0 0
node 1300 1 0 0
node 1305 1 0 0
node 1336 1 0 0
node 1647 1 0 0
node 1709 1 0 0
node 1747 1 0 0
node 1803 1 0 0
gene  1 2 29 -5.309847363782184E-4 0 1177.0 -5.309847363782184E-4 1
gene  1 3 29 0.035272727111199 0 1178.0 0.035272727111199 1
gene  1 4 29 -5.928194293430267E-4 0 1179.0 -5.928194293430267E-4 1
gene  1 5 29 -0.15142023935834292 0 1180.0 -0.15142023935834292 1
gene  1 6 29 0.25463750675013025 0 1181.0 0.25463750675013025 1
gene  1 7 29 0.4010919217089807 0 1182.0 0.4010919217089807 1
gene  1 9 29 -0.6143981261301993 0 1184.0 -0.6143981261301993 1
gene  1 10 29 -0.00968079073903383 0 1185.0 -0.00968079073903383 1
gene  1 11 29 0.003335717977055851 0 1186.0 0.003335717977055851 1
gene  1 13 29 0.4691578539790256 0 1188.0 0.4691578539790256 1
gene  1 15 29 0.898105981746662 0 1190.0 0.898105981746662 1
gene  1 17 29 0.16931849814074074 0 1192.0 0.16931849814074074 1
gene  1 20 29 0.21659343429437522 0 1195.0 0.21659343429437522 1
gene  1 23 29 0.18123528225219332 0 1198.0 0.18123528225219332 1
gene  1 24 29 0.8493986237750013 0 1199.0 0.8493986237750013 1
gene  1 25 29 0.004236326047229089 0 1200.0 0.004236326047229089 1
gene  1 36 29 0.05064842767669181 1 1211.0 0.05064842767669181 1
gene  1 37 29 0.20807446290202006 1 1212.0 0.20807446290202006 1
gene  1 39 29 0.6403265369979857 1 1214.0 0.6403265369979857 1
gene  1 40 29 -0.8429364783121962 1 1215.0 -0.8429364783121962 1
gene  1 42 29 0.45866307167810294 1 1217.0 0.45866307167810294 1
gene  1 2 30 -0.007511479336431922 0 1219.0 -0.007511479336431922 1
gene  1 4 30 -0.8390218484966001 0 1221.0 -0.8390218484966001 1
gene  1 6 30 0.28676177892888294 0 1223.0 0.28676177892888294 1
gene  1 8 30 -6.395362929817616E-4 0 1225.0 -6.395362929817616E-4 1
gene  1 9 30 -0.9139274202370026 0 1226.0 -0.9139274202370026 1
gene  1 11 30 -0.004947712210203429 0 1228.0 -0.004947712210203429 1
gene  1 12 30 0.03706723323526271 0 1229.0 0.03706723323526271 1
gene  1 13 30 0.6691868100285806 0 1230.0 0.6691868100285806 1
gene  1 16 30 0.12088043665644864 0 1233.0 0.12088043665644864 1
gene  1 18 30 0.8573305576709276 0 1235.0 0.8573305576709276 1
gene  1 20 30 -0.028786119761300973 0 1237.0 -0.028786119761300973 1
gene  1 24 30 0.7265026900176224 0 1241.0 0.7265026900176224 1
gene  1 27 30 -0.5720669675706226 0 1244.0 -0.5720669675706226 1
gene  1 28 30 -0.09846377555992093 0 1245.0 -0.09846377555992093 1
gene  1 29 30 -0.4357574777976573 0 1246.0 -0.4357574777976573 1
gene  1 30 30 0.0694611607928584 1 1247.0 0.0694611607928584 1
gene  1 34 30 -0.4744629966742952 1 1251.0 -0.4744629966742952 1
gene  1 36 30 -0.47601888127345454 1 1253.0 -0.47601888127345454 1
gene  1 37 30 0.1306689030903886 1 1254.0 0.1306689030903886 1
gene  1 38 30 0.3734917415409185 1 1255.0 0.3734917415409185 1
gene  1 41 30 0.3821267410330386 1 1258.0 0.3821267410330386 1
gene  1 42 30 -0.13273304675084707 1 1259.0 -0.13273304675084707 1
gene  1 2 34 -0.2939096555552067 0 1387.0 -0.2939096555552067 1
gene  1 3 34 0.6538181533846092 0 1388.0 0.6538181533846092 1
gene  1 5 34 -0.9394483115179738 0 1390.0 -0.9394483115179738 1
gene  1 6 34 -0.8938680411223373 0 1391.0 -0.8938680411223373 1
gene  1 11 34 -0.6963995147194005 0 1396.0 -0.6963995147194005 1
gene  1 12 34 0.15755365205303762 0 1397.0 0.15755365205303762 1
gene  1 17 34 -0.3994097913708709 0 1402.0 -0.3994097913708709 1
gene  1 19 34 -0.03468763665849483 0 1404.0 -0.03468763665849483 1
gene  1 24 34 0.06378797765686871 0 1409.0 0.06378797765686871 1
gene  1 25 34 -0.38141384852505744 0 1410.0 -0.38141384852505744 1
gene  1 28 34 0.5750910056386962 0 1413.0 0.5750910056386962 1
gene  1 29 34 -0.002737983484049147 0 1414.0 -0.002737983484049147 1
gene  1 35 34 0.0745552958473455 1 1420.0 0.0745552958473455 1
gene  1 37 34 0.0030493170167793615 1 1422.0 0.0030493170167793615 1
gene  1 38 34 -0.4057699473115975 1 1423.0 -0.4057699473115975 1
gene  1 1 35 0.13224020110244816 0 1428.0 0.13224020110244816 1
gene  1 2 35 0.48856457826821625 0 1429.0 0.48856457826821625 1
gene  1 3 35 0.7143297888001401 0 1430.0 0.7143297888001401 1
gene  1 4 35 0.7545661554660369 0 1431.0 0.7545661554660369 1
gene  1 5 35 0.004108081070826971 0 1432.0 0.004108081070826971 1
gene  1 6 35 -0.138091044495683 0 1433.0 -0.138091044495683 1
gene  1 10 35 0.006061629447737757 0 1437.0 0.006061629447737757 1
gene  1 11 35 -0.4668677634983373 0 1438.0 -0.4668677634983373 1
gene  1 17 35 0.1817665854067321 0 1444.0 0.1817665854067321 1
gene  1 20 35 -0.3278096750009893 0 1447.0 -0.3278096750009893 1
gene  1 21 35 0.6176335363240125 0 1448.0 0.6176335363240125 1
gene  1 23 35 0.09274831883463562 0 1450.0 0.09274831883463562 1
gene  1 25 35 0.17529425569056484 0 1452.0 0.17529425569056484 1
gene  1 27 35 0.008258997784639625 0 1454.0 0.008258997784639625 1
gene  1 30 35 5.452072350345394E-4 0 1457.0 5.452072350345394E-4 1
gene  1 35 35 -0.6118333424650895 1 1462.0 -0.6118333424650895 1
gene  1 37 35 -0.6776718658174584 1 1464.0 -0.6776718658174584 1
gene  1 38 35 -0.7987365858738117 1 1465.0 -0.7987365858738117 1
gene  1 40 35 0.0010778399708725518 1 1467.0 0.0010778399708725518 1
gene  1 3 36 0.24436916950555873 0 1472.0 0.24436916950555873 1
gene  1 5 36 -0.6979937888056671 0 1474.0 -0.6979937888056671 1
gene  1 9 36 0.006672396660921616 0 1478.0 0.006672396660921616 1
gene  1 10 36 5.74235919117676E-4 0 1479.0 5.74235919117676E-4 1
gene  1 12 36 0.004604589102800281 0 1481.0 0.004604589102800281 1
gene  1 13 36 -0.11137712716113712 0 1482.0 -0.11137712716113712 1
gene  1 19 36 -0.007923754974260469 0 1488.0 -0.007923754974260469 1
gene  1 20 36 0.8025868909065926 0 1489.0 0.8025868909065926 1
gene  1 23 36 0.004841883446203295 0 1492.0 0.004841883446203295 1
gene  1 27 36 -0.6960048166928319 0 1496.0 -0.6960048166928319 1
gene  1 29 36 0.3805533059714011 0 1498.0 0.3805533059714011 1
gene  1 30 36 0.007321869494096465 0 1499.0 0.007321869494096465 1
gene  1 34 36 -0.8225542674880182 0 1503.0 -0.8225542674880182 1
gene  1 35 36 -0.06309064130893238 0 1504.0 -0.06309064130893238 1
gene  1 37 36 0.12548974360558188 1 1506.0 0.12548974360558188 0
gene  1 38 36 -0.4597773588220322 1 1507.0 -0.4597773588220322 1
gene  1 39 36 0.6539143141151323 1 1508.0 0.6539143141151323 1
gene  1 42 36 0.9164013574846083 1 1511.0 0.9164013574846083 1
gene  1 2 37 -0.004738291853696461 0 1513.0 -0.004738291853696461 1
gene  1 3 37 0.12685547788159998 0 1514.0 0.12685547788159998 1
gene  1 4 37 -0.007677613673609276 0 1515.0 -0.007677613673609276 1
gene  1 5 37 -0.6470123650758881 0 1516.0 -0.6470123650758881 1
gene  1 6 37 -0.5383603463451089 0 1517.0 -0.5383603463451089 1
gene  1 8 37 0.6733780382230709 0 1519.0 0.6733780382230709 1
gene  1 9 37 0.7007299439283751 0 1520.0 0.7007299439283751 1
gene  1 11 37 -0.0073138924315914065 0 1522.0 -0.0073138924315914065 1
gene  1 13 37 -0.799003148721794 0 1524.0 -0.799003148721794 1
gene  1 14 37 -0.03308218882197833 0 1525.0 -0.03308218882197833 1
gene  1 16 37 0.6429631693798087 0 1527.0 0.6429631693798087 1
gene  1 19 37 0.3264070463100638 0 1530.0 0.3264070463100638 1
gene  1 21 37 -0.8595310691155201 0 1532.0 -0.8595310691155201 1
gene  1 25 37 -0.005957642274418491 0 1536.0 -0.005957642274418491 1
gene  1 28 37 0.0022135048212094093 0 1539.0 0.0022135048212094093 1
gene  1 40 37 0.19153020666196566 1 1551.0 0.19153020666196566 1
gene  1 42 37 0.6550041317671736 1 1553.0 0.6550041317671736 1
gene  1 2 38 -0.7864920799028581 0 1555.0 -0.7864920799028581 1
gene  1 6 38 -0.5198799375712266 0 1559.0 -0.5198799375712266 1
gene  1 9 38 0.7415812097008293 0 1562.0 0.7415812097008293 1
gene  1 10 38 0.16761946135414543 0 1563.0 0.16761946135414543 1
gene  1 14 38 0.7089701954244015 0 1567.0 0.7089701954244015 1
gene  1 18 38 -0.28627291379267344 0 1571.0 -0.28627291379267344 1
gene  1 20 38 0.5588415942907139 0 1573.0 0.5588415942907139 1
gene  1 21 38 -0.7442213682597995 0 1574.0 -0.7442213682597995 1
gene  1 23 38 0.3082270560761019 0 1576.0 0.3082270560761019 1
gene  1 24 38 -0.7266093860568571 0 1577.0 -0.7266093860568571 1
gene  1 25 38 -3.490714698582942E-4 0 1578.0 -3.490714698582942E-4 1
gene  1 26 38 0.23684149229834536 0 1579.0 0.23684149229834536 1
gene  1 27 38 0.9859372310011578 0 1580.0 0.9859372310011578 1
gene  1 28 38 0.24529115408830113 0 1581.0 0.24529115408830113 1
gene  1 30 38 -0.00569147345041681 0 1583.0 -0.00569147345041681 1
gene  1 34 38 0.005071208847816029 0 1587.0 0.005071208847816029 1
gene  1 35 38 -0.3050779223344857 0 1588.0 -0.3050779223344857 1
gene  1 37 38 -0.33533699594900057 0 1590.0 -0.33533699594900057 1
gene  1 39 38 0.4468460768825943 1 1592.0 0.4468460768825943 1
gene  1 1 39 -0.2629878545952168 0 1596.0 -0.2629878545952168 1
gene  1 6 39 0.6583156058835788 0 1601.0 0.6583156058835788 1
gene  1 7 39 0.15256290409889953 0 1602.0 0.15256290409889953 1
gene  1 8 39 0.33958060120781025 0 1603.0 0.33958060120781025 1
gene  1 11 39 -0.8675533167471079 0 1606.0 -0.8675533167471079 1
gene  1 12 39 0.703133259601232 0 1607.0 0.703133259601232 1
gene  1 13 39 -0.004792521705366505 0 1608.0 -0.004792521705366505 1
gene  1 15 39 0.001590535981690222 0 1610.0 0.001590535981690222 1
gene  1 17 39 -0.1285901567751977 0 1612.0 -0.1285901567751977 1
gene  1 21 39 0.008621558843701981 0 1616.0 0.008621558843701981 1
gene  1 22 39 -0.002513719739331373 0 1617.0 -0.002513719739331373 1
gene  1 25 39 -0.004942459626589961 0 1620.0 -0.004942459626589961 1
gene  1 27 39 -0.003187000981410407 0 1622.0 -0.003187000981410407 1
gene  1 28 39 0.7037934348318474 0 1623.0 0.7037934348318474 1
gene  1 29 39 -0.8455816124541802 0 1624.0 -0.8455816124541802 1
gene  1 30 39 0.6374485320568151 0 1625.0 0.6374485320568151 1
gene  1 34 39 0.009807276905413252 0 1629.0 0.009807276905413252 1
gene  1 36 39 -0.11862969538813863 0 1631.0 -0.11862969538813863 1
gene  1 37 39 0.5302526042533987 0 1632.0 0.5302526042533987 1
gene  1 38 39 0.6557419453737345 0 1633.0 0.6557419453737345 1
gene  1 40 39 -0.3375756800467522 1 1635.0 -0.3375756800467522 1
gene  1 41 39 -0.18194791576546812 1 1636.0 -0.18194791576546812 1
gene  1 2 40 -0.15146299263927715 0 1639.0 -0.15146299263927715 1
gene  1 9 40 0.006779905196203667 0 1646.0 0.006779905196203667 1
gene  1 11 40 0.4773832586989566 0 1648.0 0.4773832586989566 1
gene  1 12 40 0.42966558374032493 0 1649.0 0.42966558374032493 1
gene  1 13 40 -0.00928411913230102 0 1650.0 -0.00928411913230102 1
gene  1 14 40 -0.00710259257124057 0 1651.0 -0.00710259257124057 1
gene  1 19 40 0.3024170215837855 0 1656.0 0.3024170215837855 1
gene  1 20 40 0.4109220022399126 0 1657.0 0.4109220022399126 1
gene  1 21 40 -0.9231603345570344 0 1658.0 -0.9231603345570344 1
gene  1 26 40 -0.006122667482614041 0 1663.0 -0.006122667482614041 1
gene  1 27 40 -0.6873831317156855 0 1664.0 -0.6873831317156855 1
gene  1 30 40 0.15307064950108604 0 1667.0 0.15307064950108604 1
gene  1 37 40 0.9257825938591752 0 1674.0 0.9257825938591752 1
gene  1 38 40 -0.15567225180115918 0 1675.0 -0.15567225180115918 1
gene  1 2 41 -0.3934272676234482 0 1681.0 -0.3934272676234482 1
gene  1 3 41 0.58918152471396 0 1682.0 0.58918152471396 1
gene  1 4 41 0.24336639182068312 0 1683.0 0.24336639182068312 1
gene  1 8 41 0.4954307906407553 0 1687.0 0.4954307906407553 1
gene  1 10 41 -0.5779056692732659 0 1689.0 -0.5779056692732659 1
gene  1 12 41 0.017700212199027954 0 1691.0 0.017700212199027954 1
gene  1 14 41 0.3737697582767566 0 1693.0 0.3737697582767566 1
gene  1 16 41 -0.4387299304026458 0 1695.0 -0.4387299304026458 1
gene  1 22 41 0.4164837334572407 0 1701.0 0.4164837334572407 1
gene  1 24 41 0.6561219438952883 0 1703.0 0.6561219438952883 1
gene  1 26 41 -0.00395279856910123 0 1705.0 -0.00395279856910123 1
gene  1 28 41 0.005559525138567949 0 1707.0 0.005559525138567949 1
gene  1 29 41 -0.7447704479232637 0 1708.0 -0.7447704479232637 1
gene  1 30 41 0.8706569104060157 0 1709.0 0.8706569104060157 1
gene  1 36 41 0.23470814856422195 0 1715.0 0.23470814856422195 1
gene  1 41 41 -0.09565854111170524 1 1720.0 -0.09565854111170524 1
gene  1 2 42 0.1824866420458072 0 1723.0 0.1824866420458072 1
gene  1 4 42 -0.18115122656671914 0 1725.0 -0.18115122656671914 1
gene  1 5 42 -0.9994227312816479 0 1726.0 -0.9994227312816479 1
gene  1 6 42 0.31719306114489065 0 1727.0 0.31719306114489065 1
gene  1 9 42 -0.003917196413070866 0 1730.0 -0.003917196413070866 1
gene  1 10 42 -0.0012787412273713317 0 1731.0 -0.0012787412273713317 1
gene  1 12 42 -0.6400225705283682 0 1733.0 -0.6400225705283682 1
gene  1 15 42 0.4638007752744676 0 1736.0 0.4638007752744676 1
gene  1 20 42 -0.7221508851257682 0 1741.0 -0.7221508851257682 1
gene  1 21 42 0.009385692403057441 0 1742.0 0.009385692403057441 1
gene  1 22 42 -0.7068393056624448 0 1743.0 -0.7068393056624448 1
gene  1 23 42 0.008737798064887696 0 1744.0 0.008737798064887696 1
gene  1 25 42 -0.21628805921033883 0 1746.0 -0.21628805921033883 1
gene  1 26 42 0.43121342951942665 0 1747.0 0.43121342951942665 1
gene  1 27 42 -0.12331717086907297 0 1748.0 -0.12331717086907297 1
gene  1 28 42 0.26682538593866323 0 1749.0 0.26682538593866323 1
gene  1 30 42 0.652119825161224 0 1751.0 0.652119825161224 1
gene  1 34 42 -0.008230979022683407 0 1755.0 -0.008230979022683407 1
gene  1 35 42 0.2841381024048612 0 1756.0 0.2841381024048612 1
gene  1 36 42 0.03686702880105701 0 1757.0 0.03686702880105701 1
gene  1 37 42 -0.6941954697137098 0 1758.0 -0.6941954697137098 1
gene  1 38 42 -0.13667637054242904 0 1759.0 -0.13667637054242904 1
gene  1 39 42 -0.004246811299378266 0 1760.0 -0.004246811299378266 1
gene  1 40 42 0.00985215363223691 0 1761.0 0.00985215363223691 1
gene  1 41 42 0.8441578967128656 0 1762.0 0.8441578967128656 1
gene  1 38 144 1.0099477176806992 1 1967.0 1.0099477176806992 1
gene  1 144 35 -0.795535327528748 0 1968.0 -0.795535327528748 1
gene  1 24 197 0.990694700350562 0 2073.0 0.990694700350562 1
gene  1 197 30 -0.002479360833767025 0 2074.0 -0.002479360833767025 1
gene  1 40 264 1.0 1 2207.0 1.0 1
gene  1 264 39 -0.3504700399587737 0 2208.0 -0.3504700399587737 0
gene  1 2 1035 1.0 0 3749.0 0.0 1
gene  1 1035 42 0.1824866420458072 0 3750.0 0.0 1
gene  1 2 1072 1.0 0 3823.0 0.0 1
gene  1 1072 38 -0.7864920799028581 0 3824.0 0.0 1
gene  1 17 1206 1.0 0 4091.0 0.0 1
gene  1 1206 35 0.1817665854067321 0 4092.0 0.0 1
gene  1 23 1252 1.0 0 4183.0 0.0 1
gene  1 1252 35 0.09274831883463562 0 4184.0 0.0 1
gene  1 264 1287 1.0 0 4253.0 0.0 1
gene  1 1287 39 -0.3504700399587737 0 4254.0 0.0 0
gene  1 7 1300 1.0 0 4279.0 0.0 1
gene  1 1300 29 0.4010919217089807 0 4280.0 0.0 1
gene  1 21 1305 1.0 0 4289.0 0.0 1
gene  1 1305 40 -0.9231603345570344 0 4290.0 0.0 1
gene  1 35 1336 1.0 1 4351.0 0.0 1
gene  1 1336 35 -0.6118333424650895 0 4352.0 0.0 1
gene  1 13 1647 1.0 0 4973.0 0.0 1
gene  1 1647 39 -0.004792521705366505 0 4974.0 0.0 1
gene  1 1287 1709 1.0 0 5097.0 0.0 1
gene  1 1709 39 -0.3504700399587737 0 5098.0 0.0 1
gene  1 25 1747 1.0 0 5173.0 0.0 1
gene  1 1747 35 0.17529425569056484 0 5174.0 0.0 1
gene  1 37 1803 1.0 1 5285.0 0.0 1
gene  1 1803 36 0.12548974360558188 0 5286.0 0.0 1
genomeend 4
/* Organism # 005 Fitness:  0.000 Error:  0.000                      */
genomestart  5
trait 1 0.0 0.0 0.0 0.0 0.0 0.0 0.0 0.0 
node 1 1 1 1
node 2 1 1 1
node 3 1 1 1
node 4 1 1 1
node 5 1 1 1
node 6 1 1 1
node 7 1 1 1
node 8 1 1 1
node 9 1 1 1
node 10 1 1 1
node 11 1 1 1
node 12 1 1 1
node 13 1 1 1
node 14 1 1 1
node 15 1 1 1
node 16 1 1 1
node 17 1 1 1
node 18 1 1 1
node 19 1 1 1
node 20 1 1 1
node 21 1 1 1
node 22 1 1 1
node 23 1 1 1
node 24 1 1 1
node 25 1 1 1
node 26 1 1 1
node 27 1 1 1
node 28 1 1 3
node 29 1 0 0
node 30 1 0 0
node 34 1 0 2
node 35 1 0 2
node 36 1 0 2
node 37 1 0 2
node 38 1 0 2
node 39 1 0 2
node 40 1 0 2
node 41 1 0 2
node 42 1 0 2
node 144 1 0 0
node 197 1 0 0
node 264 1 0 0
node 1035 1 0 0
node 1072 1 0 0
node 1206 1 0 0
node 1252 1 0 0
node 1287 1 0 0
node 1300 1 0 0
node 1305 1 0 0
node 1336 1 0 0
node 1647 1 0 0
node 1709 1 0 0
node 1747 1 0 0
node 1803 1 0 0
gene  1 2 29 -5.309847363782184E-4 0 1177.0 -5.309847363782184E-4 1
gene  1 3 29 0.035272727111199 0 1178.0 0.035272727111199 1
gene  1 4 29 -5.928194293430267E-4 0 1179.0 -5.928194293430267E-4 1
gene  1 5 29 -0.15142023935834292 0 1180.0 -0.15142023935834292 1
gene  1 6 29 0.25463750675013025 0 1181.0 0.25463750675013025 1
gene  1 7 29 0.4010919217089807 0 1182.0 0.4010919217089807 1
gene  1 9 29 -0.6143981261301993 0 1184.0 -0.6143981261301993 1
gene  1 10 29 -0.00968079073903383 0 1185.0 -0.00968079073903383 1
gene  1 11 29 0.003335717977055851 0 1186.0 0.003335717977055851 1
gene  1 13 29 0.4691578539790256 0 1188.0 0.4691578539790256 1
gene  1 15 29 0.898105981746662 0 1190.0 0.898105981746662 1
gene  1 17 29 0.16931849814074074 0 1192.0 0.16931849814074074 1
gene  1 20 29 0.21659343429437522 0 1195.0 0.21659343429437522 1
gene  1 23 29 0.18123528225219332 0 1198.0 0.18123528225219332 1
gene  1 24 29 0.8493986237750013 0 1199.0 0.8493986237750013 1
gene  1 25 29 0.004236326047229089 0 1200.0 0.004236326047229089 1
gene  1 36 29 0.05064842767669181 1 1211.0 0.05064842767669181 1
gene  1 37 29 0.20807446290202006 1 1212.0 0.20807446290202006 1
gene  1 39 29 0.6403265369979857 1 1214.0 0.6403265369979857 1
gene  1 40 29 -0.8429364783121962 1 1215.0 -0.8429364783121962 1
gene  1 42 29 0.45866307167810294 1 1217.0 0.45866307167810294 1
gene  1 2 30 -0.007511479336431922 0 1219.0 -0.007511479336431922 1
gene  1 4 30 -0.8390218484966001 0 1221.0 -0.8390218484966001 1
gene  1 6 30 0.28676177892888294 0 1223.0 0.28676177892888294 1
gene  1 8 30 -6.395362929817616E-4 0 1225.0 -6.395362929817616E-4 1
gene  1 9 30 -0.9139274202370026 0 1226.0 -0.9139274202370026 1
gene  1 11 30 -0.004947712210203429 0 1228.0 -0.004947712210203429 1
gene  1 12 30 0.03706723323526271 0 1229.0 0.03706723323526271 1
gene  1 13 30 0.6691868100285806 0 1230.0 0.6691868100285806 1
gene  1 16 30 0.12088043665644864 0 1233.0 0.12088043665644864 1
gene  1 18 30 0.8573305576709276 0 1235.0 0.8573305576709276 1
gene  1 20 30 -0.028786119761300973 0 1237.0 -0.028786119761300973 1
gene  1 24 30 0.7265026900176224 0 1241.0 0.7265026900176224 1
gene  1 27 30 -0.5720669675706226 0 1244.0 -0.5720669675706226 1
gene  1 28 30 -0.09846377555992093 0 1245.0 -0.09846377555992093 1
gene  1 29 30 -0.4357574777976573 0 1246.0 -0.4357574777976573 1
gene  1 30 30 0.0694611607928584 1 1247.0 0.0694611607928584 1
gene  1 34 30 -0.4744629966742952 1 1251.0 -0.4744629966742952 1
gene  1 36 30 -0.47601888127345454 1 1253.0 -0.47601888127345454 1
gene  1 37 30 0.1306689030903886 1 1254.0 0.1306689030903886 1
gene  1 38 30 0.3734917415409185 1 1255.0 0.3734917415409185 1
gene  1 41 30 0.3821267410330386 1 1258.0 0.3821267410330386 1
gene  1 42 30 -0.13273304675084707 1 1259.0 -0.13273304675084707 1
gene  1 2 34 -0.2939096555552067 0 1387.0 -0.2939096555552067 1
gene  1 3 34 0.6538181533846092 0 1388.0 0.6538181533846092 1
gene  1 5 34 -0.9394483115179738 0 1390.0 -0.9394483115179738 1
gene  1 6 34 -0.8938680411223373 0 1391.0 -0.8938680411223373 1
gene  1 11 34 -0.6963995147194005 0 1396.0 -0.6963995147194005 1
gene  1 12 34 0.15755365205303762 0 1397.0 0.15755365205303762 1
gene  1 17 34 -0.3994097913708709 0 1402.0 -0.3994097913708709 1
gene  1 19 34 -0.03468763665849483 0 1404.0 -0.03468763665849483 1
gene  1 24 34 0.06378797765686871 0 1409.0 0.06378797765686871 1
gene  1 25 34 -0.38141384852505744 0 1410.0 -0.38141384852505744 1
gene  1 28 34 0.5750910056386962 0 1413.0 0.5750910056386962 1
gene  1 29 34 -0.002737983484049147 0 1414.0 -0.002737983484049147 1
gene  1 35 34 0.0745552958473455 1 1420.0 0.0745552958473455 1
gene  1 37 34 0.0030493170167793615 1 1422.0 0.0030493170167793615 1
gene  1 38 34 -0.4057699473115975 1 1423.0 -0.4057699473115975 1
gene  1 1 35 0.13224020110244816 0 1428.0 0.13224020110244816 1
gene  1 2 35 0.48856457826821625 0 1429.0 0.48856457826821625 1
gene  1 3 35 0.7143297888001401 0 1430.0 0.7143297888001401 1
gene  1 4 35 0.7545661554660369 0 1431.0 0.7545661554660369 1
gene  1 5 35 0.004108081070826971 0 1432.0 0.004108081070826971 1
gene  1 6 35 -0.138091044495683 0 1433.0 -0.138091044495683 1
gene  1 10 35 0.006061629447737757 0 1437.0 0.006061629447737757 1
gene  1 11 35 -0.4668677634983373 0 1438.0 -0.4668677634983373 1
gene  1 17 35 0.1817665854067321 0 1444.0 0.1817665854067321 1
gene  1 20 35 -0.3278096750009893 0 1447.0 -0.3278096750009893 1
gene  1 21 35 0.6176335363240125 0 1448.0 0.6176335363240125 1
gene  1 23 35 0.09274831883463562 0 1450.0 0.09274831883463562 1
gene  1 25 35 0.17529425569056484 0 1452.0 0.17529425569056484 1
gene  1 27 35 0.008258997784639625 0 1454.0 0.008258997784639625 1
gene  1 30 35 5.452072350345394E-4 0 1457.0 5.452072350345394E-4 1
gene  1 35 35 -0.6118333424650895 1 1462.0 -0.6118333424650895 1
gene  1 37 35 -0.6776718658174584 1 1464.0 -0.6776718658174584 1
gene  1 38 35 -0.7987365858738117 1 1465.0 -0.7987365858738117 1
gene  1 40 35 0.0010778399708725518 1 1467.0 0.0010778399708725518 1
gene  1 3 36 0.24436916950555873 0 1472.0 0.24436916950555873 1
gene  1 5 36 -0.6979937888056671 0 1474.0 -0.6979937888056671 1
gene  1 9 36 0.006672396660921616 0 1478.0 0.006672396660921616 1
gene  1 10 36 5.74235919117676E-4 0 1479.0 5.74235919117676E-4 1
gene  1 12 36 0.004604589102800281 0 1481.0 0.004604589102800281 1
gene  1 13 36 -0.11137712716113712 0 1482.0 -0.11137712716113712 1
gene  1 19 36 -0.007923754974260469 0 1488.0 -0.007923754974260469 1
gene  1 20 36 0.8025868909065926 0 1489.0 0.8025868909065926 1
gene  1 23 36 0.004841883446203295 0 1492.0 0.004841883446203295 1
gene  1 27 36 -0.6960048166928319 0 1496.0 -0.6960048166928319 1
gene  1 29 36 0.3805533059714011 0 1498.0 0.3805533059714011 1
gene  1 30 36 0.007321869494096465 0 1499.0 0.007321869494096465 1
gene  1 34 36 -0.8225542674880182 0 1503.0 -0.8225542674880182 1
gene  1 35 36 -0.06309064130893238 0 1504.0 -0.06309064130893238 1
gene  1 37 36 0.12548974360558188 1 1506.0 0.12548974360558188 0
gene  1 38 36 -0.4597773588220322 1 1507.0 -0.4597773588220322 1
gene  1 39 36 0.6539143141151323 1 1508.0 0.6539143141151323 1
gene  1 42 36 0.9164013574846083 1 1511.0 0.9164013574846083 1
gene  1 2 37 -0.004738291853696461 0 1513.0 -0.004738291853696461 1
gene  1 3 37 0.12685547788159998 0 1514.0 0.12685547788159998 1
gene  1 4 37 -0.007677613673609276 0 1515.0 -0.007677613673609276 1
gene  1 5 37 -0.6470123650758881 0 1516.0 -0.6470123650758881 1
gene  1 6 37 -0.5383603463451089 0 1517.0 -0.5383603463451089 1
gene  1 8 37 0.6733780382230709 0 1519.0 0.6733780382230709 1
gene  1 9 37 0.7007299439283751 0 1520.0 0.7007299439283751 1
gene  1 11 37 -0.0073138924315914065 0 1522.0 -0.0073138924315914065 1
gene  1 13 37 -0.799003148721794 0 1524.0 -0.799003148721794 1
gene  1 14 37 -0.03308218882197833 0 1525.0 -0.03308218882197833 1
gene  1 16 37 0.6429631693798087 0 1527.0 0.6429631693798087 1
gene  1 19 37 0.3264070463100638 0 1530.0 0.3264070463100638 1
gene  1 21 37 -0.8595310691155201 0 1532.0 -0.8595310691155201 1
gene  1 25 37 -0.005957642274418491 0 1536.0 -0.005957642274418491 1
gene  1 28 37 0.0022135048212094093 0 1539.0 0.0022135048212094093 1
gene  1 40 37 0.19153020666196566 1 1551.0 0.19153020666196566 1
gene  1 42 37 0.6550041317671736 1 1553.0 0.6550041317671736 1
gene  1 2 38 -0.7864920799028581 0 1555.0 -0.7864920799028581 1
gene  1 6 38 -0.5198799375712266 0 1559.0 -0.5198799375712266 1
gene  1 9 38 0.7415812097008293 0 1562.0 0.7415812097008293 1
gene  1 10 38 0.16761946135414543 0 1563.0 0.16761946135414543 1
gene  1 14 38 0.7089701954244015 0 1567.0 0.7089701954244015 1
gene  1 18 38 -0.28627291379267344 0 1571.0 -0.28627291379267344 1
gene  1 20 38 0.5588415942907139 0 1573.0 0.5588415942907139 1
gene  1 21 38 -0.7442213682597995 0 1574.0 -0.7442213682597995 1
gene  1 23 38 0.3082270560761019 0 1576.0 0.3082270560761019 1
gene  1 24 38 -0.7266093860568571 0 1577.0 -0.7266093860568571 1
gene  1 25 38 -3.490714698582942E-4 0 1578.0 -3.490714698582942E-4 1
gene  1 26 38 0.23684149229834536 0 1579.0 0.23684149229834536 1
gene  1 27 38 0.9859372310011578 0 1580.0 0.9859372310011578 1
gene  1 28 38 0.24529115408830113 0 1581.0 0.24529115408830113 1
gene  1 30 38 -0.00569147345041681 0 1583.0 -0.00569147345041681 1
gene  1 34 38 0.005071208847816029 0 1587.0 0.005071208847816029 1
gene  1 35 38 -0.3050779223344857 0 1588.0 -0.3050779223344857 1
gene  1 37 38 -0.33533699594900057 0 1590.0 -0.33533699594900057 1
gene  1 39 38 0.4468460768825943 1 1592.0 0.4468460768825943 1
gene  1 1 39 -0.2629878545952168 0 1596.0 -0.2629878545952168 1
gene  1 6 39 0.6583156058835788 0 1601.0 0.6583156058835788 1
gene  1 7 39 0.15256290409889953 0 1602.0 0.15256290409889953 1
gene  1 8 39 0.33958060120781025 0 1603.0 0.33958060120781025 1
gene  1 11 39 -0.8675533167471079 0 1606.0 -0.8675533167471079 1
gene  1 12 39 0.703133259601232 0 1607.0 0.703133259601232 1
gene  1 13 39 -0.004792521705366505 0 1608.0 -0.004792521705366505 1
gene  1 15 39 0.001590535981690222 0 1610.0 0.001590535981690222 1
gene  1 17 39 -0.1285901567751977 0 1612.0 -0.1285901567751977 1
gene  1 21 39 0.008621558843701981 0 1616.0 0.008621558843701981 1
gene  1 22 39 -0.002513719739331373 0 1617.0 -0.002513719739331373 1
gene  1 25 39 -0.004942459626589961 0 1620.0 -0.004942459626589961 1
gene  1 27 39 -0.003187000981410407 0 1622.0 -0.003187000981410407 1
gene  1 28 39 0.7037934348318474 0 1623.0 0.7037934348318474 1
gene  1 29 39 -0.8455816124541802 0 1624.0 -0.8455816124541802 1
gene  1 30 39 0.6374485320568151 0 1625.0 0.6374485320568151 1
gene  1 34 39 0.009807276905413252 0 1629.0 0.009807276905413252 1
gene  1 36 39 -0.11862969538813863 0 1631.0 -0.11862969538813863 1
gene  1 37 39 0.5302526042533987 0 1632.0 0.5302526042533987 1
gene  1 38 39 0.6557419453737345 0 1633.0 0.6557419453737345 1
gene  1 40 39 -0.3375756800467522 1 1635.0 -0.3375756800467522 1
gene  1 41 39 -0.18194791576546812 1 1636.0 -0.18194791576546812 1
gene  1 2 40 -0.15146299263927715 0 1639.0 -0.15146299263927715 1
gene  1 9 40 0.006779905196203667 0 1646.0 0.006779905196203667 1
gene  1 11 40 0.4773832586989566 0 1648.0 0.4773832586989566 1
gene  1 12 40 0.42966558374032493 0 1649.0 0.42966558374032493 1
gene  1 13 40 -0.00928411913230102 0 1650.0 -0.00928411913230102 1
gene  1 14 40 -0.00710259257124057 0 1651.0 -0.00710259257124057 1
gene  1 19 40 0.3024170215837855 0 1656.0 0.3024170215837855 1
gene  1 20 40 0.4109220022399126 0 1657.0 0.4109220022399126 1
gene  1 21 40 -0.9231603345570344 0 1658.0 -0.9231603345570344 1
gene  1 26 40 -0.006122667482614041 0 1663.0 -0.006122667482614041 1
gene  1 27 40 -0.6873831317156855 0 1664.0 -0.6873831317156855 1
gene  1 30 40 0.15307064950108604 0 1667.0 0.15307064950108604 1
gene  1 37 40 0.9257825938591752 0 1674.0 0.9257825938591752 1
gene  1 38 40 -0.15567225180115918 0 1675.0 -0.15567225180115918 1
gene  1 2 41 -0.3934272676234482 0 1681.0 -0.3934272676234482 1
gene  1 3 41 0.58918152471396 0 1682.0 0.58918152471396 1
gene  1 4 41 0.24336639182068312 0 1683.0 0.24336639182068312 1
gene  1 8 41 0.4954307906407553 0 1687.0 0.4954307906407553 1
gene  1 10 41 -0.5779056692732659 0 1689.0 -0.5779056692732659 1
gene  1 12 41 0.017700212199027954 0 1691.0 0.017700212199027954 1
gene  1 14 41 0.3737697582767566 0 1693.0 0.3737697582767566 1
gene  1 16 41 -0.4387299304026458 0 1695.0 -0.4387299304026458 1
gene  1 22 41 0.4164837334572407 0 1701.0 0.4164837334572407 1
gene  1 24 41 0.6561219438952883 0 1703.0 0.6561219438952883 1
gene  1 26 41 -0.00395279856910123 0 1705.0 -0.00395279856910123 1
gene  1 28 41 0.005559525138567949 0 1707.0 0.005559525138567949 1
gene  1 29 41 -0.7447704479232637 0 1708.0 -0.7447704479232637 1
gene  1 30 41 0.8706569104060157 0 1709.0 0.8706569104060157 1
gene  1 36 41 0.23470814856422195 0 1715.0 0.23470814856422195 1
gene  1 41 41 -0.09565854111170524 1 1720.0 -0.09565854111170524 1
gene  1 2 42 0.1824866420458072 0 1723.0 0.1824866420458072 1
gene  1 4 42 -0.18115122656671914 0 1725.0 -0.18115122656671914 1
gene  1 5 42 -0.9994227312816479 0 1726.0 -0.9994227312816479 1
gene  1 6 42 0.31719306114489065 0 1727.0 0.31719306114489065 1
gene  1 9 42 -0.003917196413070866 0 1730.0 -0.003917196413070866 1
gene  1 10 42 -0.0012787412273713317 0 1731.0 -0.0012787412273713317 1
gene  1 12 42 -0.6400225705283682 0 1733.0 -0.6400225705283682 1
gene  1 15 42 0.4638007752744676 0 1736.0 0.4638007752744676 1
gene  1 20 42 -0.7221508851257682 0 1741.0 -0.7221508851257682 1
gene  1 21 42 0.009385692403057441 0 1742.0 0.009385692403057441 1
gene  1 22 42 -0.7068393056624448 0 1743.0 -0.7068393056624448 1
gene  1 23 42 0.008737798064887696 0 1744.0 0.008737798064887696 1
gene  1 25 42 -0.21628805921033883 0 1746.0 -0.21628805921033883 1
gene  1 26 42 0.43121342951942665 0 1747.0 0.43121342951942665 1
gene  1 27 42 -0.12331717086907297 0 1748.0 -0.12331717086907297 1
gene  1 28 42 0.26682538593866323 0 1749.0 0.26682538593866323 1
gene  1 30 42 0.652119825161224 0 1751.0 0.652119825161224 1
gene  1 34 42 -0.008230979022683407 0 1755.0 -0.008230979022683407 1
gene  1 35 42 0.2841381024048612 0 1756.0 0.2841381024048612 1
gene  1 36 42 0.03686702880105701 0 1757.0 0.03686702880105701 1
gene  1 37 42 -0.6941954697137098 0 1758.0 -0.6941954697137098 1
gene  1 38 42 -0.13667637054242904 0 1759.0 -0.13667637054242904 1
gene  1 39 42 -0.004246811299378266 0 1760.0 -0.004246811299378266 1
gene  1 40 42 0.00985215363223691 0 1761.0 0.00985215363223691 1
gene  1 41 42 0.8441578967128656 0 1762.0 0.8441578967128656 1
gene  1 38 144 1.0099477176806992 1 1967.0 1.0099477176806992 1
gene  1 144 35 -0.795535327528748 0 1968.0 -0.795535327528748 1
gene  1 24 197 0.990694700350562 0 2073.0 0.990694700350562 1
gene  1 197 30 -0.002479360833767025 0 2074.0 -0.002479360833767025 1
gene  1 40 264 1.0 1 2207.0 1.0 1
gene  1 264 39 -0.3504700399587737 0 2208.0 -0.3504700399587737 0
gene  1 2 1035 1.0 0 3749.0 0.0 1
gene  1 1035 42 0.1824866420458072 0 3750.0 0.0 1
gene  1 2 1072 1.0 0 3823.0 0.0 1
gene  1 1072 38 -0.7864920799028581 0 3824.0 0.0 1
gene  1 17 1206 1.0 0 4091.0 0.0 1
gene  1 1206 35 0.1817665854067321 0 4092.0 0.0 1
gene  1 23 1252 1.0 0 4183.0 0.0 1
gene  1 1252 35 0.09274831883463562 0 4184.0 0.0 1
gene  1 264 1287 1.0 0 4253.0 0.0 1
gene  1 1287 39 -0.3504700399587737 0 4254.0 0.0 0
gene  1 7 1300 1.0 0 4279.0 0.0 1
gene  1 1300 29 0.4010919217089807 0 4280.0 0.0 1
gene  1 21 1305 1.0 0 4289.0 0.0 1
gene  1 1305 40 -0.9231603345570344 0 4290.0 0.0 1
gene  1 35 1336 1.0 1 4351.0 0.0 1
gene  1 1336 35 -0.6118333424650895 0 4352.0 0.0 1
gene  1 13 1647 1.0 0 4973.0 0.0 1
gene  1 1647 39 -0.004792521705366505 0 4974.0 0.0 1
gene  1 1287 1709 1.0 0 5097.0 0.0 1
gene  1 1709 39 -0.3504700399587737 0 5098.0 0.0 1
gene  1 25 1747 1.0 0 5173.0 0.0 1
gene  1 1747 35 0.17529425569056484 0 5174.0 0.0 1
gene  1 37 1803 1.0 1 5285.0 0.0 1
gene  1 1803 36 0.12548974360558188 0 5286.0 0.0 1
genomeend 5
/* Organism # 006 Fitness:  0.000 Error:  0.000                      */
genomestart  6
trait 1 0.0 0.0 0.0 0.0 0.0 0.0 0.0 0.0 
node 1 1 1 1
node 2 1 1 1
node 3 1 1 1
node 4 1 1 1
node 5 1 1 1
node 6 1 1 1
node 7 1 1 1
node 8 1 1 1
node 9 1 1 1
node 10 1 1 1
node 11 1 1 1
node 12 1 1 1
node 13 1 1 1
node 14 1 1 1
node 15 1 1 1
node 16 1 1 1
node 17 1 1 1
node 18 1 1 1
node 19 1 1 1
node 20 1 1 1
node 21 1 1 1
node 22 1 1 1
node 23 1 1 1
node 24 1 1 1
node 25 1 1 1
node 26 1 1 1
node 27 1 1 1
node 28 1 1 3
node 29 1 0 0
node 30 1 0 0
node 34 1 0 2
node 35 1 0 2
node 36 1 0 2
node 37 1 0 2
node 38 1 0 2
node 39 1 0 2
node 40 1 0 2
node 41 1 0 2
node 42 1 0 2
node 144 1 0 0
node 197 1 0 0
node 264 1 0 0
node 1035 1 0 0
node 1072 1 0 0
node 1206 1 0 0
node 1252 1 0 0
node 1287 1 0 0
node 1300 1 0 0
node 1305 1 0 0
node 1336 1 0 0
node 1647 1 0 0
node 1709 1 0 0
node 1747 1 0 0
node 1803 1 0 0
gene  1 2 29 -5.309847363782184E-4 0 1177.0 -5.309847363782184E-4 1
gene  1 3 29 0.035272727111199 0 1178.0 0.035272727111199 1
gene  1 4 29 -5.928194293430267E-4 0 1179.0 -5.928194293430267E-4 1
gene  1 5 29 -0.15142023935834292 0 1180.0 -0.15142023935834292 1
gene  1 6 29 0.25463750675013025 0 1181.0 0.25463750675013025 1
gene  1 7 29 0.4010919217089807 0 1182.0 0.4010919217089807 1
gene  1 9 29 -0.6143981261301993 0 1184.0 -0.6143981261301993 1
gene  1 10 29 -0.00968079073903383 0 1185.0 -0.00968079073903383 1
gene  1 11 29 0.003335717977055851 0 1186.0 0.003335717977055851 1
gene  1 13 29 0.4691578539790256 0 1188.0 0.4691578539790256 1
gene  1 15 29 0.898105981746662 0 1190.0 0.898105981746662 1
gene  1 17 29 0.16931849814074074 0 1192.0 0.16931849814074074 1
gene  1 20 29 0.21659343429437522 0 1195.0 0.21659343429437522 1
gene  1 23 29 0.18123528225219332 0 1198.0 0.18123528225219332 1
gene  1 24 29 0.8493986237750013 0 1199.0 0.8493986237750013 1
gene  1 25 29 0.004236326047229089 0 1200.0 0.004236326047229089 1
gene  1 36 29 0.05064842767669181 1 1211.0 0.05064842767669181 1
gene  1 37 29 0.20807446290202006 1 1212.0 0.20807446290202006 1
gene  1 39 29 0.6403265369979857 1 1214.0 0.6403265369979857 1
gene  1 40 29 -0.8429364783121962 1 1215.0 -0.8429364783121962 1
gene  1 42 29 0.45866307167810294 1 1217.0 0.45866307167810294 1
gene  1 2 30 -0.007511479336431922 0 1219.0 -0.007511479336431922 1
gene  1 4 30 -0.8390218484966001 0 1221.0 -0.8390218484966001 1
gene  1 6 30 0.28676177892888294 0 1223.0 0.28676177892888294 1
gene  1 8 30 -6.395362929817616E-4 0 1225.0 -6.395362929817616E-4 1
gene  1 9 30 -0.9139274202370026 0 1226.0 -0.9139274202370026 1
gene  1 11 30 -0.004947712210203429 0 1228.0 -0.004947712210203429 1
gene  1 12 30 0.03706723323526271 0 1229.0 0.03706723323526271 1
gene  1 13 30 0.6691868100285806 0 1230.0 0.6691868100285806 1
gene  1 16 30 0.12088043665644864 0 1233.0 0.12088043665644864 1
gene  1 18 30 0.8573305576709276 0 1235.0 0.8573305576709276 1
gene  1 20 30 -0.028786119761300973 0 1237.0 -0.028786119761300973 1
gene  1 24 30 0.7265026900176224 0 1241.0 0.7265026900176224 1
gene  1 27 30 -0.5720669675706226 0 1244.0 -0.5720669675706226 1
gene  1 28 30 -0.09846377555992093 0 1245.0 -0.09846377555992093 1
gene  1 29 30 -0.4357574777976573 0 1246.0 -0.4357574777976573 1
gene  1 30 30 0.0694611607928584 1 1247.0 0.0694611607928584 1
gene  1 34 30 -0.4744629966742952 1 1251.0 -0.4744629966742952 1
gene  1 36 30 -0.47601888127345454 1 1253.0 -0.47601888127345454 1
gene  1 37 30 0.1306689030903886 1 1254.0 0.1306689030903886 1
gene  1 38 30 0.3734917415409185 1 1255.0 0.3734917415409185 1
gene  1 41 30 0.3821267410330386 1 1258.0 0.3821267410330386 1
gene  1 42 30 -0.13273304675084707 1 1259.0 -0.13273304675084707 1
gene  1 2 34 -0.2939096555552067 0 1387.0 -0.2939096555552067 1
gene  1 3 34 0.6538181533846092 0 1388.0 0.6538181533846092 1
gene  1 5 34 -0.9394483115179738 0 1390.0 -0.9394483115179738 1
gene  1 6 34 -0.8938680411223373 0 1391.0 -0.8938680411223373 1
gene  1 11 34 -0.6963995147194005 0 1396.0 -0.6963995147194005 1
gene  1 12 34 0.15755365205303762 0 1397.0 0.15755365205303762 1
gene  1 17 34 -0.3994097913708709 0 1402.0 -0.3994097913708709 1
gene  1 19 34 -0.03468763665849483 0 1404.0 -0.03468763665849483 1
gene  1 24 34 0.06378797765686871 0 1409.0 0.06378797765686871 1
gene  1 25 34 -0.38141384852505744 0 1410.0 -0.38141384852505744 1
gene  1 28 34 0.5750910056386962 0 1413.0 0.5750910056386962 1
gene  1 29 34 -0.002737983484049147 0 1414.0 -0.002737983484049147 1
gene  1 35 34 0.0745552958473455 1 1420.0 0.0745552958473455 1
gene  1 37 34 0.0030493170167793615 1 1422.0 0.0030493170167793615 1
gene  1 38 34 -0.4057699473115975 1 1423.0 -0.4057699473115975 1
