/* Species # 074         : (size= 100) (AvfFit= 4.446) (Age= 1000.000)  */
/*-------------------------------------------------------------------*/
/* Organism # 000 Fitness: - 8.462 Error:  0.000                      */
genomestart  0
trait 1 0.0 0.0 0.0 0.0 0.0 0.0 0.0 0.0 
node 1 1 1 1
node 2 1 1 1
node 3 1 1 1
node 4 1 1 1
node 5 1 1 1
node 6 1 1 1
node 7 1 1 1
node 8 1 1 1
node 9 1 1 1
node 10 1 1 1
node 11 1 1 1
node 12 1 1 1
node 13 1 1 1
node 14 1 1 1
node 15 1 1 1
node 16 1 1 1
node 17 1 1 1
node 18 1 1 1
node 19 1 1 1
node 20 1 1 1
node 21 1 1 1
node 22 1 1 1
node 23 1 1 1
node 24 1 1 1
node 25 1 1 1
node 26 1 1 1
node 27 1 1 1
node 28 1 1 3
node 29 1 0 0
node 30 1 0 0
node 31 1 0 0
node 34 1 0 2
node 35 1 0 2
node 36 1 0 2
node 37 1 0 2
node 38 1 0 2
node 39 1 0 2
node 40 1 0 2
node 41 1 0 2
node 42 1 0 2
node 43 1 0 0
node 273 1 0 0
node 498 1 0 0
node 597 1 0 0
node 665 1 0 0
node 714 1 0 0
node 782 1 0 0
node 810 1 0 0
node 832 1 0 0
node 858 1 0 0
node 976 1 0 0
node 1016 1 0 0
node 1573 1 0 0
node 1694 1 0 0
node 1774 1 0 0
node 1858 1 0 0
node 1916 1 0 0
node 1958 1 0 0
node 1992 1 0 0
node 2121 1 0 0
node 2293 1 0 0
node 2530 1 0 0
node 3042 1 0 0
node 3067 1 0 0
node 3184 1 0 0
node 3230 1 0 0
node 3351 1 0 0
node 3430 1 0 0
node 3451 1 0 0
node 3513 1 0 0
node 3542 1 0 0
node 3723 1 0 0
node 3734 1 0 0
node 3824 1 0 0
node 3894 1 0 0
node 4191 1 0 0
node 4238 1 0 0
node 4276 1 0 0
node 4292 1 0 0
node 4586 1 0 0
node 4664 1 0 0
node 4952 1 0 0
node 4973 1 0 0
node 5019 1 0 0
node 5055 1 0 0
node 5092 1 0 0
node 5181 1 0 0
node 5206 1 0 0
node 5436 1 0 0
node 5651 1 0 0
node 5705 1 0 0
node 5827 1 0 0
node 5958 1 0 0
node 5977 1 0 0
node 6035 1 0 0
node 6082 1 0 0
node 6232 1 0 0
node 6367 1 0 0
node 6389 1 0 0
node 6637 1 0 0
node 6740 1 0 0
node 7007 1 0 0
node 7069 1 0 0
node 7157 1 0 0
node 7196 1 0 0
node 7241 1 0 0
node 7297 1 0 0
node 7370 1 0 0
node 7510 1 0 0
node 7574 1 0 0
node 7631 1 0 0
node 7654 1 0 0
node 7872 1 0 0
node 7931 1 0 0
node 8095 1 0 0
node 8112 1 0 0
node 8200 1 0 0
node 8313 1 0 0
node 8364 1 0 0
node 8548 1 0 0
node 8581 1 0 0
node 8750 1 0 0
node 8793 1 0 0
node 8828 1 0 0
node 8869 1 0 0
node 9166 1 0 0
node 9422 1 0 0
node 9557 1 0 0
node 9633 1 0 0
node 9772 1 0 0
node 9853 1 0 0
node 9932 1 0 0
node 10057 1 0 0
node 10130 1 0 0
node 10202 1 0 0
node 10223 1 0 0
node 10403 1 0 0
node 10465 1 0 0
node 10628 1 0 0
node 10667 1 0 0
node 10686 1 0 0
node 10705 1 0 0
node 10713 1 0 0
node 10771 1 0 0
node 11019 1 0 0
node 11039 1 0 0
node 11070 1 0 0
node 11149 1 0 0
node 11178 1 0 0
node 11242 1 0 0
node 11306 1 0 0
node 11596 1 0 0
node 11728 1 0 0
node 11799 1 0 0
node 11875 1 0 0
node 11896 1 0 0
node 12000 1 0 0
node 12075 1 0 0
node 12343 1 0 0
node 12462 1 0 0
node 12483 1 0 0
node 12547 1 0 0
node 12623 1 0 0
node 12786 1 0 0
node 12824 1 0 0
node 12934 1 0 0
node 13348 1 0 0
node 13377 1 0 0
node 13429 1 0 0
node 13518 1 0 0
node 13616 1 0 0
node 13798 1 0 0
node 13840 1 0 0
node 13990 1 0 0
node 14000 1 0 0
node 14026 1 0 0
node 14157 1 0 0
node 14280 1 0 0
node 14381 1 0 0
node 14620 1 0 0
node 14685 1 0 0
node 14802 1 0 0
node 14827 1 0 0
node 14962 1 0 0
node 15085 1 0 0
node 15159 1 0 0
node 15174 1 0 0
node 15249 1 0 0
node 15344 1 0 0
node 15466 1 0 0
node 15473 1 0 0
gene  1 1 29 1.829596921481668E-5 0 1176.0 1.829596921481668E-5 1
gene  1 3 29 0.0029073284605717516 0 1178.0 0.0029073284605717516 1
gene  1 6 29 0.023733281489176854 0 1181.0 0.023733281489176854 1
gene  1 8 29 -0.0017240110645022387 0 1183.0 -0.0017240110645022387 1
gene  1 9 29 0.007990754213327272 0 1184.0 0.007990754213327272 0
gene  1 10 29 0.4966206782923397 0 1185.0 0.4966206782923397 1
gene  1 12 29 -0.007925504331261091 0 1187.0 -0.007925504331261091 1
gene  1 13 29 0.007119148662669569 0 1188.0 0.007119148662669569 1
gene  1 15 29 -0.06023025859342589 0 1190.0 -0.06023025859342589 1
gene  1 16 29 0.9559307670169809 0 1191.0 0.9559307670169809 1
gene  1 18 29 0.024249434499314555 0 1193.0 0.024249434499314555 1
gene  1 19 29 0.8228978567451114 0 1194.0 0.8228978567451114 1
gene  1 20 29 0.009527984612563604 0 1195.0 0.009527984612563604 1
gene  1 21 29 -0.023454763778322982 0 1196.0 -0.023454763778322982 1
gene  1 22 29 -0.9311712610716849 0 1197.0 -0.9311712610716849 0
gene  1 28 29 0.012080040166885986 0 1203.0 0.012080040166885986 1
gene  1 31 29 -0.6492207791252672 1 1206.0 -0.6492207791252672 1
gene  1 34 29 0.025816328230698106 1 1209.0 0.025816328230698106 1
gene  1 35 29 -0.0018430364385358564 1 1210.0 -0.0018430364385358564 1
gene  1 36 29 0.0038353767051199613 1 1211.0 0.0038353767051199613 1
gene  1 39 29 -0.029784549413543075 1 1214.0 -0.029784549413543075 1
gene  1 40 29 -0.004860774869520613 1 1215.0 -0.004860774869520613 1
gene  1 1 30 0.005391393612582326 0 1218.0 0.005391393612582326 1
gene  1 3 30 0.016885632492031257 0 1220.0 0.016885632492031257 1
gene  1 4 30 -0.8614295652860805 0 1221.0 -0.8614295652860805 1
gene  1 7 30 0.008869612812096464 0 1224.0 0.008869612812096464 1
gene  1 8 30 -0.04252623687773875 0 1225.0 -0.04252623687773875 0
gene  1 9 30 -0.036372359673629735 0 1226.0 -0.036372359673629735 1
gene  1 10 30 -0.0016936369013992995 0 1227.0 -0.0016936369013992995 1
gene  1 12 30 0.03985963363240144 0 1229.0 0.03985963363240144 1
gene  1 16 30 -0.006748382929431664 0 1233.0 -0.006748382929431664 1
gene  1 18 30 -0.021234781149352545 0 1235.0 -0.021234781149352545 0
gene  1 20 30 0.013218391236696653 0 1237.0 0.013218391236696653 1
gene  1 22 30 -0.004083948778201507 0 1239.0 -0.004083948778201507 1
gene  1 24 30 -0.024001336775847218 0 1241.0 -0.024001336775847218 1
gene  1 28 30 -0.023502129138731905 0 1245.0 -0.023502129138731905 1
gene  1 29 30 -2.4475569693781403E-4 0 1246.0 -2.4475569693781403E-4 1
gene  1 30 30 -0.031842113682829166 1 1247.0 -0.031842113682829166 1
gene  1 31 30 -0.06332447301508885 1 1248.0 -0.06332447301508885 1
gene  1 34 30 0.003608956203799525 1 1251.0 0.003608956203799525 1
gene  1 35 30 0.008968294215388747 1 1252.0 0.008968294215388747 0
gene  1 1 31 0.005311875042152692 0 1260.0 0.005311875042152692 1
gene  1 2 31 -0.35078709950510484 0 1261.0 -0.35078709950510484 1
gene  1 4 31 0.01933034318553849 0 1263.0 0.01933034318553849 1
gene  1 5 31 -0.0012954210159503658 0 1264.0 -0.0012954210159503658 0
gene  1 6 31 -0.016834297676227395 0 1265.0 -0.016834297676227395 0
gene  1 7 31 -0.013618374650367637 0 1266.0 -0.013618374650367637 0
gene  1 13 31 0.02394583992613203 0 1272.0 0.02394583992613203 1
gene  1 14 31 0.03762002507894127 0 1273.0 0.03762002507894127 1
gene  1 15 31 0.008960092652523257 0 1274.0 0.008960092652523257 1
gene  1 16 31 0.7443755902512514 0 1275.0 0.7443755902512514 1
gene  1 20 31 0.01451092128794847 0 1279.0 0.01451092128794847 1
gene  1 24 31 -0.0034029933061697744 0 1283.0 -0.0034029933061697744 0
gene  1 26 31 0.02864018601576561 0 1285.0 0.02864018601576561 1
gene  1 27 31 0.023014054810588602 0 1286.0 0.023014054810588602 1
gene  1 28 31 0.00646990950972978 0 1287.0 0.00646990950972978 1
gene  1 31 31 0.06921599548140431 1 1290.0 0.06921599548140431 1
gene  1 34 31 -0.029123136253812507 1 1293.0 -0.029123136253812507 1
gene  1 36 31 -2.78285287974904E-4 1 1295.0 -2.78285287974904E-4 0
gene  1 40 31 -0.0035178883863648857 1 1299.0 -0.0035178883863648857 1
gene  1 8 34 -0.8764452249287634 0 1393.0 -0.8764452249287634 1
gene  1 10 34 -0.04053064033116486 0 1395.0 -0.04053064033116486 0
gene  1 12 34 -0.013418769622602928 0 1397.0 -0.013418769622602928 1
gene  1 13 34 0.05558103289409473 0 1398.0 0.05558103289409473 0
gene  1 14 34 -0.03172068991054469 0 1399.0 -0.03172068991054469 0
gene  1 15 34 0.03941148107611063 0 1400.0 0.03941148107611063 1
gene  1 18 34 0.006801400912274367 0 1403.0 0.006801400912274367 0
gene  1 19 34 -0.016261697694692108 0 1404.0 -0.016261697694692108 1
gene  1 20 34 -0.004646871275625293 0 1405.0 -0.004646871275625293 0
gene  1 23 34 -0.0026845970081629195 0 1408.0 -0.0026845970081629195 1
gene  1 25 34 -0.0120990430951303 0 1410.0 -0.0120990430951303 1
gene  1 27 34 -0.8568403814410184 0 1412.0 -0.8568403814410184 0
gene  1 29 34 0.015454769035438184 0 1414.0 0.015454769035438184 1
gene  1 30 34 0.007690552558609428 0 1415.0 0.007690552558609428 1
gene  1 31 34 0.010858363033236312 0 1416.0 0.010858363033236312 0
gene  1 36 34 -0.015370646098925437 1 1421.0 -0.015370646098925437 1
gene  1 37 34 0.9796263422844536 1 1422.0 0.9796263422844536 1
gene  1 38 34 0.023629570001115246 1 1423.0 0.023629570001115246 1
gene  1 39 34 0.018985003622087562 1 1424.0 0.018985003622087562 1
gene  1 41 34 -0.010529826089582733 1 1426.0 -0.010529826089582733 1
gene  1 1 35 0.041304685121704085 0 1428.0 0.041304685121704085 0
gene  1 2 35 0.03777929390763415 0 1429.0 0.03777929390763415 1
gene  1 3 35 -0.004979354221790673 0 1430.0 -0.004979354221790673 1
gene  1 4 35 0.00863482923391437 0 1431.0 0.00863482923391437 1
gene  1 5 35 0.010567878251631737 0 1432.0 0.010567878251631737 1
gene  1 12 35 0.7133950591995868 0 1439.0 0.7133950591995868 1
gene  1 13 35 0.008390437157107484 0 1440.0 0.008390437157107484 1
gene  1 14 35 0.006868411170362494 0 1441.0 0.006868411170362494 0
gene  1 21 35 -0.008721472673054769 0 1448.0 -0.008721472673054769 0
gene  1 24 35 0.02272177979489018 0 1451.0 0.02272177979489018 1
gene  1 25 35 5.894656100981248E-4 0 1452.0 5.894656100981248E-4 1
gene  1 26 35 0.03236528819194928 0 1453.0 0.03236528819194928 1
gene  1 27 35 0.12435102928279643 0 1454.0 0.12435102928279643 1
gene  1 28 35 -0.0033663119104962785 0 1455.0 -0.0033663119104962785 1
gene  1 31 35 0.09022512182166584 0 1458.0 0.09022512182166584 1
gene  1 34 35 0.04002530463029018 0 1461.0 0.04002530463029018 0
gene  1 37 35 -0.9958064303728885 1 1464.0 -0.9958064303728885 1
gene  1 38 35 0.05354755237337008 1 1465.0 0.05354755237337008 1
gene  1 41 35 0.007807614485449847 1 1468.0 0.007807614485449847 1
gene  1 1 36 0.03918185010013416 0 1470.0 0.03918185010013416 1
gene  1 4 36 -0.017385096275976633 0 1473.0 -0.017385096275976633 1
gene  1 5 36 0.022304513285464466 0 1474.0 0.022304513285464466 0
gene  1 6 36 -0.015701626277245452 0 1475.0 -0.015701626277245452 1
gene  1 8 36 -0.0062921557344831 0 1477.0 -0.0062921557344831 1
gene  1 9 36 0.0022168310736155016 0 1478.0 0.0022168310736155016 1
gene  1 10 36 -0.2643215804403616 0 1479.0 -0.2643215804403616 1
gene  1 15 36 0.05891233824905666 0 1484.0 0.05891233824905666 1
gene  1 17 36 -0.010821743022952024 0 1486.0 -0.010821743022952024 1
gene  1 19 36 -0.0013688866471773197 0 1488.0 -0.0013688866471773197 1
gene  1 21 36 0.0022162217961227025 0 1490.0 0.0022162217961227025 1
gene  1 23 36 0.04153561329583065 0 1492.0 0.04153561329583065 0
gene  1 24 36 0.9269523780489191 0 1493.0 0.9269523780489191 1
gene  1 26 36 0.027564493447521154 0 1495.0 0.027564493447521154 0
gene  1 27 36 0.017137304654951897 0 1496.0 0.017137304654951897 1
gene  1 28 36 -0.018655295743606227 0 1497.0 -0.018655295743606227 1
gene  1 29 36 0.041261487751686095 0 1498.0 0.041261487751686095 1
gene  1 30 36 0.012581181234997001 0 1499.0 0.012581181234997001 1
gene  1 36 36 -0.029798573237771755 1 1505.0 -0.029798573237771755 0
gene  1 38 36 0.478556026857816 1 1507.0 0.478556026857816 1
gene  1 40 36 0.01965188218884527 1 1509.0 0.01965188218884527 1
gene  1 41 36 -0.003996988258130723 1 1510.0 -0.003996988258130723 0
gene  1 3 37 -0.01692059327749884 0 1514.0 -0.01692059327749884 1
gene  1 5 37 0.012820510263669144 0 1516.0 0.012820510263669144 1
gene  1 6 37 -0.024948044776155635 0 1517.0 -0.024948044776155635 1
gene  1 7 37 0.06834021693223648 0 1518.0 0.06834021693223648 0
gene  1 8 37 -0.007059644657232794 0 1519.0 -0.007059644657232794 1
gene  1 10 37 0.010749680659924262 0 1521.0 0.010749680659924262 1
gene  1 11 37 -0.014698185797504405 0 1522.0 -0.014698185797504405 0
gene  1 14 37 -0.0016552320370446872 0 1525.0 -0.0016552320370446872 1
gene  1 15 37 -0.008985579097239803 0 1526.0 -0.008985579097239803 1
gene  1 19 37 -0.0020492220183091336 0 1530.0 -0.0020492220183091336 1
gene  1 20 37 0.022517677546614368 0 1531.0 0.022517677546614368 1
gene  1 22 37 -0.033311271470152205 0 1533.0 -0.033311271470152205 1
gene  1 25 37 -0.049603762397816734 0 1536.0 -0.049603762397816734 1
gene  1 27 37 0.6875555988155455 0 1538.0 0.6875555988155455 1
gene  1 29 37 -0.01696066583268968 0 1540.0 -0.01696066583268968 1
gene  1 30 37 -0.015180904603752344 0 1541.0 -0.015180904603752344 0
gene  1 35 37 -0.03278014019746815 0 1546.0 -0.03278014019746815 0
gene  1 37 37 -0.0794404329138593 1 1548.0 -0.0794404329138593 1
gene  1 40 37 0.009476028041373022 1 1551.0 0.009476028041373022 1
gene  1 42 37 0.0029351941789972818 1 1553.0 0.0029351941789972818 1
gene  1 2 38 0.43351668323648485 0 1555.0 0.43351668323648485 1
gene  1 4 38 0.03556362363568371 0 1557.0 0.03556362363568371 1
gene  1 5 38 0.0010447364920603414 0 1558.0 0.0010447364920603414 0
gene  1 6 38 0.019056257422598897 0 1559.0 0.019056257422598897 0
gene  1 8 38 0.04128099157369178 0 1561.0 0.04128099157369178 1
gene  1 10 38 -0.011903826434030915 0 1563.0 -0.011903826434030915 0
gene  1 11 38 -0.008141831018275762 0 1564.0 -0.008141831018275762 1
gene  1 12 38 -0.020986340077624975 0 1565.0 -0.020986340077624975 1
gene  1 16 38 0.01578019557439046 0 1569.0 0.01578019557439046 1
gene  1 17 38 -0.007509393472477015 0 1570.0 -0.007509393472477015 1
gene  1 18 38 0.016691468581427647 0 1571.0 0.016691468581427647 0
gene  1 21 38 -0.0677847634065975 0 1574.0 -0.0677847634065975 1
gene  1 22 38 -0.022101803362263705 0 1575.0 -0.022101803362263705 1
gene  1 23 38 3.513975081183905E-4 0 1576.0 3.513975081183905E-4 1
gene  1 25 38 -0.01982904265212275 0 1578.0 -0.01982904265212275 0
gene  1 29 38 0.01106151612681405 0 1582.0 0.01106151612681405 1
gene  1 35 38 -0.015309345613642403 0 1588.0 -0.015309345613642403 1
gene  1 36 38 -0.31960273939185235 0 1589.0 -0.31960273939185235 1
gene  1 37 38 0.001317737604210085 0 1590.0 0.001317737604210085 0
gene  1 38 38 0.012289806905492277 1 1591.0 0.012289806905492277 1
gene  1 39 38 -0.00159255635986976 1 1592.0 -0.00159255635986976 1
gene  1 40 38 0.03147349537096542 1 1593.0 0.03147349537096542 0
gene  1 42 38 0.043013122265082 1 1595.0 0.043013122265082 1
gene  1 2 39 -0.009030987294036012 0 1597.0 -0.009030987294036012 1
gene  1 5 39 -0.036259743995810126 0 1600.0 -0.036259743995810126 0
gene  1 6 39 0.026314032977507076 0 1601.0 0.026314032977507076 0
gene  1 7 39 0.02159823546394416 0 1602.0 0.02159823546394416 1
gene  1 9 39 0.003960421163299671 0 1604.0 0.003960421163299671 0
gene  1 12 39 0.016995165821409766 0 1607.0 0.016995165821409766 1
gene  1 13 39 0.022478843595919173 0 1608.0 0.022478843595919173 1
gene  1 15 39 0.05900757434204738 0 1610.0 0.05900757434204738 1
gene  1 16 39 -0.029918553561479648 0 1611.0 -0.029918553561479648 1
gene  1 17 39 0.019259483729270978 0 1612.0 0.019259483729270978 1
gene  1 18 39 -0.04104752879442385 0 1613.0 -0.04104752879442385 1
gene  1 24 39 0.45419124851876247 0 1619.0 0.45419124851876247 0
gene  1 25 39 0.05114522653483274 0 1620.0 0.05114522653483274 1
gene  1 28 39 0.031207557503070513 0 1623.0 0.031207557503070513 1
gene  1 31 39 0.009838115254141414 0 1626.0 0.009838115254141414 0
gene  1 36 39 -0.03302158567742699 0 1631.0 -0.03302158567742699 1
gene  1 37 39 -0.00544197481311496 0 1632.0 -0.00544197481311496 1
gene  1 38 39 -0.02026350873640126 0 1633.0 -0.02026350873640126 1
gene  1 40 39 0.018678287651530994 1 1635.0 0.018678287651530994 1
gene  1 2 40 0.9054347208348632 0 1639.0 0.9054347208348632 1
gene  1 5 40 0.2554369750670026 0 1642.0 0.2554369750670026 1
gene  1 7 40 -0.02411726023227136 0 1644.0 -0.02411726023227136 0
gene  1 9 40 -0.001740694481028984 0 1646.0 -0.001740694481028984 1
gene  1 10 40 -0.047602415267170545 0 1647.0 -0.047602415267170545 0
gene  1 11 40 -0.08067342543995583 0 1648.0 -0.08067342543995583 1
gene  1 14 40 0.01167491184742294 0 1651.0 0.01167491184742294 0
gene  1 16 40 0.007573819612043399 0 1653.0 0.007573819612043399 1
gene  1 20 40 0.43910475944239136 0 1657.0 0.43910475944239136 0
gene  1 25 40 -0.007901554519310964 0 1662.0 -0.007901554519310964 1
gene  1 27 40 0.007468508576197189 0 1664.0 0.007468508576197189 1
gene  1 29 40 -0.014849688168769387 0 1666.0 -0.014849688168769387 1
gene  1 34 40 0.011903151523634765 0 1671.0 0.011903151523634765 1
gene  1 36 40 -0.06305724044388973 0 1673.0 -0.06305724044388973 1
gene  1 37 40 0.004813201972468346 0 1674.0 0.004813201972468346 1
gene  1 39 40 0.013103464666132207 0 1676.0 0.013103464666132207 0
gene  1 41 40 -0.008347868761479024 1 1678.0 -0.008347868761479024 1
gene  1 42 40 0.030649931296500746 1 1679.0 0.030649931296500746 1
gene  1 4 41 0.04226506100377996 0 1683.0 0.04226506100377996 1
gene  1 5 41 -0.007035010953673044 0 1684.0 -0.007035010953673044 1
gene  1 6 41 -0.0012639143985153116 0 1685.0 -0.0012639143985153116 0
gene  1 12 41 -0.05760328020141182 0 1691.0 -0.05760328020141182 1
gene  1 14 41 -0.033446360257901375 0 1693.0 -0.033446360257901375 1
gene  1 16 41 -0.01915886368653541 0 1695.0 -0.01915886368653541 1
gene  1 20 41 0.0015346948889636805 0 1699.0 0.0015346948889636805 1
gene  1 21 41 8.580546567183447E-4 0 1700.0 8.580546567183447E-4 1
gene  1 24 41 0.004333431454023366 0 1703.0 0.004333431454023366 1
gene  1 28 41 0.004543401155023815 0 1707.0 0.004543401155023815 1
gene  1 30 41 -0.012029172814233696 0 1709.0 -0.012029172814233696 0
gene  1 31 41 0.013736866913306764 0 1710.0 0.013736866913306764 0
gene  1 38 41 0.0017367702287337155 0 1717.0 0.0017367702287337155 1
gene  1 40 41 0.08671322125693434 0 1719.0 0.08671322125693434 1
gene  1 41 41 0.07042990504628956 1 1720.0 0.07042990504628956 1
gene  1 42 41 -0.002843909565741245 1 1721.0 -0.002843909565741245 1
gene  1 1 42 -0.008361317430009368 0 1722.0 -0.008361317430009368 1
gene  1 3 42 0.008124967789772581 0 1724.0 0.008124967789772581 1
gene  1 4 42 0.03941173645924825 0 1725.0 0.03941173645924825 1
gene  1 8 42 0.011648470464503114 0 1729.0 0.011648470464503114 1
gene  1 10 42 0.009824277735616943 0 1731.0 0.009824277735616943 1
gene  1 11 42 0.03173450272951264 0 1732.0 0.03173450272951264 1
gene  1 12 42 0.0169669523525144 0 1733.0 0.0169669523525144 0
gene  1 16 42 -0.04383378425321083 0 1737.0 -0.04383378425321083 1
gene  1 17 42 0.0822435010170935 0 1738.0 0.0822435010170935 1
gene  1 23 42 0.03767749649611391 0 1744.0 0.03767749649611391 1
gene  1 24 42 -0.003376402107567052 0 1745.0 -0.003376402107567052 0
gene  1 25 42 -0.04021910694639253 0 1746.0 -0.04021910694639253 1
gene  1 26 42 0.010773894118001342 0 1747.0 0.010773894118001342 1
gene  1 29 42 0.003902045703642344 0 1750.0 0.003902045703642344 0
gene  1 31 42 -0.8167741782102328 0 1752.0 -0.8167741782102328 1
gene  1 34 42 0.017564132276231156 0 1755.0 0.017564132276231156 1
gene  1 36 42 0.0330729215554991 0 1757.0 0.0330729215554991 0
gene  1 40 42 0.01029837606386759 0 1761.0 0.01029837606386759 0
gene  1 41 43 -0.018432899439529388 1 1765.0 -0.018432899439529388 1
gene  1 43 35 0.03603199859454283 0 1766.0 0.03603199859454283 1
gene  1 41 273 -0.009825527001782332 1 2225.0 -0.009825527001782332 0
gene  1 273 34 -0.009543243634261298 0 2226.0 -0.009543243634261298 0
gene  1 20 498 0.03779449627108541 0 2675.0 0.03779449627108541 1
gene  1 498 37 -0.019980352220586188 0 2676.0 -0.019980352220586188 0
gene  1 21 597 0.012825431282793846 0 2873.0 0.012825431282793846 1
gene  1 597 41 0.010253462325182032 0 2874.0 0.010253462325182032 1
gene  1 20 665 0.012351319148897769 0 3009.0 0.012351319148897769 1
gene  1 665 498 -0.07648340302303781 0 3010.0 -0.07648340302303781 1
gene  1 42 714 -0.0014522758760973544 1 3107.0 -0.0014522758760973544 1
gene  1 714 41 -0.007327788420560022 0 3108.0 -0.007327788420560022 1
gene  1 16 782 -0.014877424629078704 0 3243.0 -0.014877424629078704 1
gene  1 782 31 -0.018094269235037163 0 3244.0 -0.018094269235037163 1
gene  1 26 810 -0.0321573582037992 0 3299.0 -0.0321573582037992 1
gene  1 810 35 0.01390175461324528 0 3300.0 0.01390175461324528 1
gene  1 6 832 0.0048647825199749075 0 3343.0 0.0048647825199749075 0
gene  1 832 37 0.0053766146602555855 0 3344.0 0.0053766146602555855 1
gene  1 6 858 -0.019312484292302867 0 3395.0 -0.019312484292302867 1
gene  1 858 41 -0.006888585785276874 0 3396.0 -0.006888585785276874 0
gene  1 18 976 0.0021278709604056686 0 3631.0 0.0021278709604056686 1
gene  1 976 29 -0.049448660754525524 0 3632.0 -0.049448660754525524 1
gene  1 3 1016 -0.001353885666745049 0 3711.0 -0.001353885666745049 1
gene  1 1016 35 -0.011638105666830817 0 3712.0 -0.011638105666830817 0
gene  1 5 1573 -0.06493667414980611 0 4825.0 -0.06493667414980611 0
gene  1 1573 36 0.005143170726731607 0 4826.0 0.005143170726731607 1
gene  1 14 1694 0.017624719429055122 0 5067.0 0.017624719429055122 0
gene  1 1694 34 0.003563282642032436 0 5068.0 0.003563282642032436 1
gene  1 31 1774 -2.625787500672109E-4 0 5227.0 -2.625787500672109E-4 1
gene  1 1774 41 0.014853675061428024 0 5228.0 0.014853675061428024 1
gene  1 16 1858 -0.03743382617654629 0 5395.0 -0.03743382617654629 1
gene  1 1858 38 0.0010570145489902719 0 5396.0 0.0010570145489902719 1
gene  1 3 1916 -0.011824543267538984 0 5511.0 -0.011824543267538984 0
gene  1 1916 35 0.017699671258375977 0 5512.0 0.017699671258375977 0
gene  1 27 1958 -0.00447013685706522 0 5595.0 -0.00447013685706522 0
gene  1 1958 31 0.01249670909655235 0 5596.0 0.01249670909655235 1
gene  1 14 1992 -0.0018858316915791352 0 5663.0 -0.0018858316915791352 0
gene  1 1992 1694 -0.02731756019698467 0 5664.0 -0.02731756019698467 0
gene  1 1 2121 0.008148849368139015 0 5921.0 0.008148849368139015 1
gene  1 2121 30 0.008278549827949993 0 5922.0 0.008278549827949993 0
gene  1 1992 2293 -0.007641902636984925 0 6265.0 -0.007641902636984925 1
gene  1 2293 1694 -0.011663163039961955 0 6266.0 -0.011663163039961955 1
gene  1 31 2530 0.031527907842080816 1 6739.0 0.031527907842080816 1
gene  1 2530 30 0.05488994431234995 0 6740.0 0.05488994431234995 1
gene  1 42 3042 -0.020821146812389293 1 7763.0 -0.020821146812389293 1
gene  1 3042 38 -0.0020025713122344925 0 7764.0 -0.0020025713122344925 0
gene  1 34 3067 -0.032966667232952065 0 7813.0 -0.032966667232952065 0
gene  1 3067 35 -0.006089329248430247 0 7814.0 -0.006089329248430247 1
gene  1 42 3184 0.017049906186302526 1 8047.0 0.017049906186302526 0
gene  1 3184 41 0.05204150940161877 0 8048.0 0.05204150940161877 1
gene  1 20 3230 -0.03574738104620712 0 8139.0 -0.03574738104620712 1
gene  1 3230 37 0.08573115555334196 0 8140.0 0.08573115555334196 0
gene  1 22 3351 -0.018938240420172267 0 8381.0 -0.018938240420172267 1
gene  1 3351 30 0.004339797284161689 0 8382.0 0.004339797284161689 1
gene  1 27 3430 -0.0060170248943798715 0 8539.0 -0.0060170248943798715 1
gene  1 3430 37 0.008509115298985574 0 8540.0 0.008509115298985574 1
gene  1 2121 3451 0.030410217413256127 0 8581.0 0.030410217413256127 0
gene  1 3451 30 0.004985158325448553 0 8582.0 0.004985158325448553 1
gene  1 5 3513 0.0225464429635339 0 8705.0 0.0225464429635339 1
gene  1 3513 31 -0.004537367430245116 0 8706.0 -0.004537367430245116 1
gene  1 38 3542 -0.022178335968431568 1 8763.0 -0.022178335968431568 1
gene  1 3542 38 -0.0332925079819489 0 8764.0 -0.0332925079819489 0
gene  1 6 3723 -0.03539770803759887 0 9125.0 -0.03539770803759887 0
gene  1 3723 37 -0.02854030232311039 0 9126.0 -0.02854030232311039 1
gene  1 2 3734 0.002551769369582591 0 9147.0 0.002551769369582591 0
gene  1 3734 35 -0.014336614294268251 0 9148.0 -0.014336614294268251 1
gene  1 38 3824 0.0030942903655202404 1 9327.0 0.0030942903655202404 1
gene  1 3824 3542 -0.006395391711299878 0 9328.0 -0.006395391711299878 0
gene  1 21 3894 0.0023358907241774517 0 9467.0 0.0023358907241774517 1
gene  1 3894 29 -0.017155947341558453 0 9468.0 -0.017155947341558453 0
gene  1 1916 4191 -0.007385625745736043 0 10061.0 -0.007385625745736043 0
gene  1 4191 35 0.023522560881987536 0 10062.0 0.023522560881987536 1
gene  1 31 4238 -0.010944587364521932 1 10155.0 -0.010944587364521932 1
gene  1 4238 30 0.032430385401021534 0 10156.0 0.032430385401021534 1
gene  1 39 4276 -0.047495408839096226 1 10231.0 -0.047495408839096226 1
gene  1 4276 29 0.0026605888586326955 0 10232.0 0.0026605888586326955 1
gene  1 13 4292 -0.0032867702421117634 0 10263.0 -0.0032867702421117634 1
gene  1 4292 29 -0.0314907807802247 0 10264.0 -0.0314907807802247 1
gene  1 25 4586 0.009870805434759522 0 10851.0 0.009870805434759522 0
gene  1 4586 38 0.006532282988168344 0 10852.0 0.006532282988168344 1
gene  1 6 4664 -0.002482075790744921 0 11007.0 -0.002482075790744921 1
gene  1 4664 832 -0.0015194644268886638 0 11008.0 -0.0015194644268886638 0
gene  1 31 4952 0.01992761990067822 0 11583.0 0.01992761990067822 1
gene  1 4952 39 -0.004475846346416595 0 11584.0 -0.004475846346416595 0
gene  1 2121 4973 0.015221388595774286 0 11625.0 0.015221388595774286 1
gene  1 4973 30 -0.01241829412238013 0 11626.0 -0.01241829412238013 1
gene  1 29 5019 0.019114290429678882 0 11717.0 0.019114290429678882 1
gene  1 5019 42 0.012334589318515752 0 11718.0 0.012334589318515752 0
gene  1 1016 5055 0.012795183470008308 0 11789.0 0.012795183470008308 1
gene  1 5055 35 3.149953193839466E-4 0 11790.0 3.149953193839466E-4 0
gene  1 36 5092 0.0072781765471082085 1 11863.0 0.0072781765471082085 0
gene  1 5092 36 -0.00880223195304445 0 11864.0 -0.00880223195304445 1
gene  1 6 5181 -0.0026055434861905584 0 12041.0 -0.0026055434861905584 1
gene  1 5181 39 0.0031354773814178706 0 12042.0 0.0031354773814178706 1
gene  1 14 5206 -0.021522169606663387 0 12091.0 -0.021522169606663387 1
gene  1 5206 35 -4.845637918083922E-4 0 12092.0 -4.845637918083922E-4 1
gene  1 10 5436 0.010504245126785987 0 12551.0 0.010504245126785987 1
gene  1 5436 34 0.04116950932264367 0 12552.0 0.04116950932264367 1
gene  1 24 5651 -0.005105153349356251 0 12981.0 -0.005105153349356251 0
gene  1 5651 31 -0.014251118013430967 0 12982.0 -0.014251118013430967 1
gene  1 2121 5705 0.03096268580182263 0 13089.0 0.03096268580182263 1
gene  1 5705 3451 -0.006731417078222689 0 13090.0 -0.006731417078222689 0
gene  1 5 5827 -0.05519389057055327 0 13333.0 -0.05519389057055327 1
gene  1 5827 38 -0.006116429124816446 0 13334.0 -0.006116429124816446 1
gene  1 14 5958 0.003156103580192466 0 13595.0 0.003156103580192466 1
gene  1 5958 34 -0.0152598807968307 0 13596.0 -0.0152598807968307 1
gene  1 782 5977 -0.02583638128774749 0 13633.0 -0.02583638128774749 1
gene  1 5977 31 -0.017543821668845647 0 13634.0 -0.017543821668845647 1
gene  1 6 6035 0.01699368668754483 0 13749.0 0.01699368668754483 1
gene  1 6035 31 0.040198939311989215 0 13750.0 0.040198939311989215 1
gene  1 34 6082 0.01927790513236988 0 13843.0 0.01927790513236988 1
gene  1 6082 3067 -0.020070406742098104 0 13844.0 -0.020070406742098104 1
gene  1 24 6232 0.01987012120733917 0 14143.0 0.01987012120733917 0
gene  1 6232 5651 0.020904189042678413 0 14144.0 0.020904189042678413 1
gene  1 1916 6367 0.005143343779817212 0 14413.0 0.005143343779817212 1
gene  1 6367 4191 -0.02767428663862325 0 14414.0 -0.02767428663862325 0
gene  1 6 6389 0.004574965186579588 0 14457.0 0.004574965186579588 1
gene  1 6389 38 -0.04417296442078481 0 14458.0 -0.04417296442078481 1
gene  1 20 6637 0.010408172918862112 0 14953.0 0.010408172918862112 1
gene  1 6637 34 0.013341954172993959 0 14954.0 0.013341954172993959 1
gene  1 6367 6740 -0.009092108394766835 0 15159.0 -0.009092108394766835 1
gene  1 6740 4191 0.05223606698400151 0 15160.0 0.05223606698400151 1
gene  1 36 7007 0.025723402703003585 1 15693.0 0.025723402703003585 1
gene  1 7007 5092 -0.0054380154660316204 0 15694.0 -0.0054380154660316204 1
gene  1 25 7069 0.014340548917947211 0 15817.0 0.014340548917947211 1
gene  1 7069 4586 0.048734505677903536 0 15818.0 0.048734505677903536 1
gene  1 273 7157 -0.01000645288094747 0 15993.0 -0.01000645288094747 1
gene  1 7157 34 0.05024974210886443 0 15994.0 0.05024974210886443 1
gene  1 498 7196 -0.0056179544531031215 0 16071.0 -0.0056179544531031215 1
gene  1 7196 37 -0.02992008399194815 0 16072.0 -0.02992008399194815 1
gene  1 10 7241 -0.0031418493474025533 0 16161.0 -0.0031418493474025533 0
gene  1 7241 40 -0.02204907836901435 0 16162.0 -0.02204907836901435 1
gene  1 11 7297 -0.005580618912341547 0 16273.0 -0.005580618912341547 1
gene  1 7297 37 -0.013973142713173476 0 16274.0 -0.013973142713173476 0
gene  1 27 7370 0.04578108475593645 0 16419.0 0.04578108475593645 1
gene  1 7370 1958 0.03580005352127036 0 16420.0 0.03580005352127036 1
gene  1 40 7510 -0.05061776561689243 0 16699.0 -0.05061776561689243 1
gene  1 7510 42 -0.031401216809253105 0 16700.0 -0.031401216809253105 1
gene  1 858 7574 0.01868081521499715 0 16827.0 0.01868081521499715 1
gene  1 7574 41 -0.04461284699372542 0 16828.0 -0.04461284699372542 1
gene  1 3 7631 -0.008900374511588066 0 16941.0 -0.008900374511588066 1
gene  1 7631 29 0.013445055391530144 0 16942.0 0.013445055391530144 1
gene  1 1 7654 0.006493484558587189 0 16987.0 0.006493484558587189 0
gene  1 7654 35 -0.00811554323811272 0 16988.0 -0.00811554323811272 1
gene  1 14 7872 -0.03433302365659757 0 17423.0 -0.03433302365659757 1
gene  1 7872 1694 -0.008065926606579704 0 17424.0 -0.008065926606579704 0
gene  1 36 7931 0.06393313647892457 0 17541.0 0.06393313647892457 1
gene  1 7931 42 0.015195170411565505 0 17542.0 0.015195170411565505 1
gene  1 18 8095 -0.047002957348986484 0 17869.0 -0.047002957348986484 0
gene  1 8095 30 0.008865924259769998 0 17870.0 0.008865924259769998 1
gene  1 22 8112 0.01567965522935099 0 17903.0 0.01567965522935099 1
gene  1 8112 29 -0.02107506283986773 0 17904.0 -0.02107506283986773 1
gene  1 10 8200 -0.008819286576409622 0 18079.0 -0.008819286576409622 1
gene  1 8200 38 -0.009806483648912574 0 18080.0 -0.009806483648912574 1
gene  1 37 8313 0.027670657633674035 0 18305.0 0.027670657633674035 0
gene  1 8313 38 0.005380094750361881 0 18306.0 0.005380094750361881 1
gene  1 6 8364 -0.016552358468951093 0 18407.0 -0.016552358468951093 1
gene  1 8364 3723 0.002728710836188866 0 18408.0 0.002728710836188866 1
gene  1 35 8548 -0.014190868855603445 1 18775.0 -0.014190868855603445 1
gene  1 8548 30 -0.010635736460214335 0 18776.0 -0.010635736460214335 0
gene  1 3042 8581 0.023786648892104842 0 18841.0 0.023786648892104842 1
gene  1 8581 38 -0.05161565285581784 0 18842.0 -0.05161565285581784 1
gene  1 3230 8750 -0.059829720865850415 0 19179.0 -0.059829720865850415 0
gene  1 8750 37 -0.01450317964424628 0 19180.0 -0.01450317964424628 1
gene  1 3230 8793 -0.03127473671421499 0 19265.0 -0.03127473671421499 0
gene  1 8793 8750 -0.022084239091749835 0 19266.0 -0.022084239091749835 1
gene  1 9 8828 -4.0535600886579606E-5 0 19335.0 -4.0535600886579606E-5 0
gene  1 8828 39 0.026654884205115952 0 19336.0 0.026654884205115952 1
gene  1 36 8869 -0.02541670674726266 1 19417.0 -0.02541670674726266 1
gene  1 8869 31 0.008053460725041595 0 19418.0 0.008053460725041595 1
gene  1 5055 9166 -0.03714553089058817 0 20011.0 -0.03714553089058817 1
gene  1 9166 35 -0.01392963457910883 0 20012.0 -0.01392963457910883 1
gene  1 41 9422 0.0034454020932520547 1 20523.0 0.0034454020932520547 0
gene  1 9422 273 0.03381206726351977 0 20524.0 0.03381206726351977 1
gene  1 42 9557 -0.03985742494245227 1 20793.0 -0.03985742494245227 1
gene  1 9557 3184 8.787179041706201E-4 0 20794.0 8.787179041706201E-4 1
gene  1 10 9633 0.012617083983803528 0 20945.0 0.012617083983803528 1
gene  1 9633 7241 0.0010349461411894925 0 20946.0 0.0010349461411894925 1
gene  1 34 9772 -0.0018565654757488124 0 21223.0 -0.0018565654757488124 1
gene  1 9772 35 0.011045660416833473 0 21224.0 0.011045660416833473 1
gene  1 4952 9853 -0.022700664891469668 0 21385.0 -0.022700664891469668 0
gene  1 9853 39 0.02836796846215159 0 21386.0 0.02836796846215159 0
gene  1 14 9932 -0.011522520567991093 0 21543.0 -0.011522520567991093 1
gene  1 9932 40 -0.0014767129803460654 0 21544.0 -0.0014767129803460654 1
gene  1 7 10057 0.03193117848589689 0 21793.0 0.03193117848589689 1
gene  1 10057 31 -0.015255087574002187 0 21794.0 -0.015255087574002187 1
gene  1 1916 10130 0.003101764069634778 0 21939.0 0.003101764069634778 1
gene  1 10130 35 -0.037671405067029734 0 21940.0 -0.037671405067029734 0
gene  1 5 10202 0.020651408993802987 0 22083.0 0.020651408993802987 1
gene  1 10202 1573 0.010121667244398 0 22084.0 0.010121667244398 1
gene  1 37 10223 -0.00332653390145945 0 22125.0 -0.00332653390145945 1
gene  1 10223 8313 0.03131423086054025 0 22126.0 0.03131423086054025 1
gene  1 14 10403 8.399433434289568E-4 0 22485.0 8.399433434289568E-4 1
gene  1 10403 1992 -0.005810358196165086 0 22486.0 -0.005810358196165086 1
gene  1 24 10465 0.006878112168795692 0 22609.0 0.006878112168795692 0
gene  1 10465 39 0.0026767259882505513 0 22610.0 0.0026767259882505513 1
gene  1 40 10628 -0.008586067244511242 1 22935.0 -0.008586067244511242 0
gene  1 10628 38 0.0057726398139132 0 22936.0 0.0057726398139132 1
gene  1 7297 10667 -0.00903297258755288 0 23013.0 -0.00903297258755288 1
gene  1 10667 37 -0.00886551645849357 0 23014.0 -0.00886551645849357 1
gene  1 9 10686 -0.0035378220136214836 0 23051.0 -0.0035378220136214836 1
gene  1 10686 29 0.007541223416638198 0 23052.0 0.007541223416638198 1
gene  1 23 10705 -0.012514575101145608 0 23089.0 -0.012514575101145608 1
gene  1 10705 36 -0.02886512488375852 0 23090.0 -0.02886512488375852 1
gene  1 7872 10713 -0.017020137475678127 0 23105.0 -0.017020137475678127 0
gene  1 10713 1694 -0.00654552565834895 0 23106.0 -0.00654552565834895 1
gene  1 6 10771 -0.0021892734269517867 0 23221.0 -0.0021892734269517867 1
gene  1 10771 41 -7.141865396916411E-4 0 23222.0 -7.141865396916411E-4 1
gene  1 31 11019 0.001523945196046369 0 23717.0 0.001523945196046369 1
gene  1 11019 41 0.022376523115164193 0 23718.0 0.022376523115164193 1
gene  1 7872 11039 0.0032348172385822894 0 23757.0 0.0032348172385822894 1
gene  1 11039 10713 0.00997259357065859 0 23758.0 0.00997259357065859 1
gene  1 5 11070 0.005027863347228635 0 23819.0 0.005027863347228635 1
gene  1 11070 39 -0.0026163049698364653 0 23820.0 -0.0026163049698364653 1
gene  1 40 11149 0.009753553866263897 1 23977.0 0.009753553866263897 1
gene  1 11149 10628 -0.020047537717615752 0 23978.0 -0.020047537717615752 1
gene  1 35 11178 -0.015180614167333111 0 24035.0 -0.015180614167333111 1
gene  1 11178 37 -0.002491285954606962 0 24036.0 -0.002491285954606962 1
gene  1 1992 11242 0.01170098192824684 0 24163.0 0.01170098192824684 1
gene  1 11242 1694 -0.02091544698731713 0 24164.0 -0.02091544698731713 1
gene  1 4952 11306 -4.093765591410862E-5 0 24291.0 -4.093765591410862E-5 1
gene  1 11306 9853 2.1705732224843594E-6 0 24292.0 2.1705732224843594E-6 1
gene  1 5 11596 -0.025904102515915104 0 24871.0 -0.025904102515915104 1
gene  1 11596 31 0.005297917292923988 0 24872.0 0.005297917292923988 1
gene  1 18 11728 -0.014595854208358468 0 25135.0 -0.014595854208358468 1
gene  1 11728 8095 0.009648040602786755 0 25136.0 0.009648040602786755 0
gene  1 18 11799 -0.0027245776287141204 0 25277.0 -0.0027245776287141204 1
gene  1 11799 38 -0.008732451414337275 0 25278.0 -0.008732451414337275 1
gene  1 5705 11875 -0.005785202797188613 0 25429.0 -0.005785202797188613 1
gene  1 11875 3451 0.01188868439270101 0 25430.0 0.01188868439270101 0
gene  1 3542 11896 0.0031298090261865077 0 25471.0 0.0031298090261865077 0
gene  1 11896 38 0.01664126956446979 0 25472.0 0.01664126956446979 1
gene  1 39 12000 0.0078910965471704 0 25679.0 0.0078910965471704 1
gene  1 12000 40 -0.03242332012540544 0 25680.0 -0.03242332012540544 1
gene  1 24 12075 0.028056239829003238 0 25829.0 0.028056239829003238 1
gene  1 12075 10465 -0.012385323514031675 0 25830.0 -0.012385323514031675 1
gene  1 1 12343 -1.0060343821328283E-5 0 26365.0 -1.0060343821328283E-5 1
gene  1 12343 7654 -3.9248467953840755E-4 0 26366.0 -3.9248467953840755E-4 1
gene  1 8548 12462 -0.0020166109523488116 0 26603.0 -0.0020166109523488116 1
gene  1 12462 30 -8.429527886054822E-4 0 26604.0 -8.429527886054822E-4 1
gene  1 31 12483 -7.932346492384678E-4 0 26645.0 -7.932346492384678E-4 1
gene  1 12483 34 -0.011647162967680504 0 26646.0 -0.011647162967680504 1
gene  1 30 12547 -0.007834590656119047 0 26773.0 -0.007834590656119047 1
gene  1 12547 41 0.004927683776554615 0 26774.0 0.004927683776554615 1
gene  1 2 12623 -0.011501606765507476 0 26925.0 -0.011501606765507476 1
gene  1 12623 3734 -9.953733534990164E-4 0 26926.0 -9.953733534990164E-4 1
gene  1 4664 12786 -0.005474351152901228 0 27251.0 -0.005474351152901228 1
gene  1 12786 832 -0.0013806024744171747 0 27252.0 -0.0013806024744171747 1
gene  1 3230 12824 -0.003739694994126578 0 27327.0 -0.003739694994126578 1
gene  1 12824 8793 0.013986310515426797 0 27328.0 0.013986310515426797 1
gene  1 3 12934 0.010512807574110342 0 27547.0 0.010512807574110342 0
gene  1 12934 1916 -0.012737250935123167 0 27548.0 -0.012737250935123167 1
gene  1 30 13348 0.0189279666909875 0 28375.0 0.0189279666909875 1
gene  1 13348 37 0.006334644703383927 0 28376.0 0.006334644703383927 1
gene  1 7 13377 -9.230744958023218E-4 0 28433.0 -9.230744958023218E-4 1
gene  1 13377 37 -0.017279153856411173 0 28434.0 -0.017279153856411173 1
gene  1 10130 13429 -0.01198355278382297 0 28537.0 -0.01198355278382297 1
gene  1 13429 35 0.002427237374795936 0 28538.0 0.002427237374795936 1
gene  1 41 13518 1.8876613800278405E-4 1 28715.0 1.8876613800278405E-4 1
gene  1 13518 36 0.0023097942891077356 0 28716.0 0.0023097942891077356 1
gene  1 7 13616 -0.005117091604671671 0 28911.0 -0.005117091604671671 1
gene  1 13616 40 0.004358338611807063 0 28912.0 0.004358338611807063 1
gene  1 27 13798 1.0307433062414797 0 29275.0 1.0307433062414797 1
gene  1 13798 34 -0.8215504949122728 0 29276.0 -0.8215504949122728 1
gene  1 9 13840 0.005520510213915972 0 29359.0 0.005520510213915972 1
gene  1 13840 8828 0.0014785265286190175 0 29360.0 0.0014785265286190175 1
gene  1 3824 13990 -0.005821189798616166 0 29659.0 -0.005821189798616166 1
gene  1 13990 3542 -0.007548877028499438 0 29660.0 -0.007548877028499438 1
gene  1 11875 14000 0.004470099107593676 0 29679.0 0.004470099107593676 1
gene  1 14000 3451 0.007476621465822432 0 29680.0 0.007476621465822432 1
gene  1 3 14026 -0.005299739048033511 0 29731.0 -0.005299739048033511 1
gene  1 14026 12934 0.007799595765135102 0 29732.0 0.007799595765135102 1
gene  1 24 14157 -0.005218742241535877 0 29993.0 -0.005218742241535877 1
gene  1 14157 6232 -0.009428370285454436 0 29994.0 -0.009428370285454436 1
gene  1 9853 14280 -0.005895527096404887 0 30239.0 -0.005895527096404887 1
gene  1 14280 39 -0.0055189061497468665 0 30240.0 -0.0055189061497468665 1
gene  1 26 14381 0.01988905313451663 0 30441.0 0.01988905313451663 1
gene  1 14381 36 -0.018500740638054337 0 30442.0 -0.018500740638054337 1
gene  1 8 14620 -0.022053805834799385 0 30919.0 -0.022053805834799385 1
gene  1 14620 30 0.008025855208227569 0 30920.0 0.008025855208227569 1
gene  1 21 14685 -0.0031778301237163887 0 31049.0 -0.0031778301237163887 0
gene  1 14685 35 -3.8199508836718205E-4 0 31050.0 -3.8199508836718205E-4 0
gene  1 11728 14802 0.9951545993968355 0 31283.0 0.9951545993968355 1
gene  1 14802 8095 -0.002616147013047916 0 31284.0 -0.002616147013047916 1
gene  1 3894 14827 0.9818091067646687 0 31333.0 0.9818091067646687 1
gene  1 14827 29 0.04193317671503041 0 31334.0 0.04193317671503041 1
gene  1 21 14962 0.014198345345027629 0 31603.0 0.014198345345027629 1
gene  1 14962 14685 1.0077583610225032 0 31604.0 1.0077583610225032 1
gene  1 18 15085 0.0015306231390407143 0 31849.0 0.0015306231390407143 1
gene  1 15085 34 0.0051720392621792885 0 31850.0 0.0051720392621792885 1
gene  1 24 15159 1.0058066907170569 0 31997.0 1.0058066907170569 1
gene  1 15159 42 -0.01060952502930445 0 31998.0 -0.01060952502930445 1
gene  1 5019 15174 0.0033763159139883437 0 32027.0 0.0033763159139883437 1
gene  1 15174 42 -7.009711742841329E-4 0 32028.0 -7.009711742841329E-4 1
gene  1 20 15249 1.0031875170266453 0 32177.0 1.0031875170266453 1
gene  1 15249 40 0.4421970833658116 0 32178.0 0.4421970833658116 1
gene  1 14685 15344 0.9906315431340975 0 32367.0 0.9906315431340975 1
gene  1 15344 35 -0.0013034931703005217 0 32368.0 -0.0013034931703005217 1
gene  1 41 15466 0.9956474071244609 1 32611.0 0.9956474071244609 1
gene  1 15466 9422 -0.020713064458475178 0 32612.0 -0.020713064458475178 1
gene  1 3542 15473 1.0001149795622826 0 32625.0 1.0001149795622826 1
gene  1 15473 11896 0.0031298090261865077 0 32626.0 0.0031298090261865077 1
genomeend 0
/* Organism # 001 Fitness: - 3.615 Error:  0.000                      */
genomestart  1
trait 1 0.0 0.0 0.0 0.0 0.0 0.0 0.0 0.0 
node 1 1 1 1
node 2 1 1 1
node 3 1 1 1
node 4 1 1 1
node 5 1 1 1
node 6 1 1 1
node 7 1 1 1
node 8 1 1 1
node 9 1 1 1
node 10 1 1 1
node 11 1 1 1
node 12 1 1 1
node 13 1 1 1
node 14 1 1 1
node 15 1 1 1
node 16 1 1 1
node 17 1 1 1
node 18 1 1 1
node 19 1 1 1
node 20 1 1 1
node 21 1 1 1
node 22 1 1 1
node 23 1 1 1
node 24 1 1 1
node 25 1 1 1
node 26 1 1 1
node 27 1 1 1
node 28 1 1 3
node 29 1 0 0
node 30 1 0 0
node 31 1 0 0
node 34 1 0 2
node 35 1 0 2
node 36 1 0 2
node 37 1 0 2
node 38 1 0 2
node 39 1 0 2
node 40 1 0 2
node 41 1 0 2
node 42 1 0 2
node 43 1 0 0
node 273 1 0 0
node 498 1 0 0
node 597 1 0 0
node 665 1 0 0
node 714 1 0 0
node 782 1 0 0
node 810 1 0 0
node 832 1 0 0
node 858 1 0 0
node 976 1 0 0
node 1016 1 0 0
node 1573 1 0 0
node 1694 1 0 0
node 1774 1 0 0
node 1858 1 0 0
node 1916 1 0 0
node 1958 1 0 0
node 1992 1 0 0
node 2121 1 0 0
node 2293 1 0 0
node 2530 1 0 0
node 3042 1 0 0
node 3067 1 0 0
node 3184 1 0 0
node 3230 1 0 0
node 3351 1 0 0
node 3430 1 0 0
node 3451 1 0 0
node 3513 1 0 0
node 3542 1 0 0
node 3723 1 0 0
node 3734 1 0 0
node 3824 1 0 0
node 3894 1 0 0
node 4191 1 0 0
node 4238 1 0 0
node 4276 1 0 0
node 4292 1 0 0
node 4586 1 0 0
node 4664 1 0 0
node 4952 1 0 0
node 4973 1 0 0
node 5019 1 0 0
node 5055 1 0 0
node 5092 1 0 0
node 5181 1 0 0
node 5206 1 0 0
node 5436 1 0 0
node 5651 1 0 0
node 5705 1 0 0
node 5827 1 0 0
node 5958 1 0 0
node 5977 1 0 0
node 6035 1 0 0
node 6082 1 0 0
node 6232 1 0 0
node 6367 1 0 0
node 6389 1 0 0
node 6637 1 0 0
node 6740 1 0 0
node 7007 1 0 0
node 7069 1 0 0
node 7157 1 0 0
node 7196 1 0 0
node 7241 1 0 0
node 7297 1 0 0
node 7370 1 0 0
node 7510 1 0 0
node 7574 1 0 0
node 7631 1 0 0
node 7654 1 0 0
node 7872 1 0 0
node 7931 1 0 0
node 8095 1 0 0
node 8112 1 0 0
node 8200 1 0 0
node 8313 1 0 0
node 8364 1 0 0
node 8548 1 0 0
node 8581 1 0 0
node 8750 1 0 0
node 8793 1 0 0
node 8828 1 0 0
node 8869 1 0 0
node 9166 1 0 0
node 9422 1 0 0
node 9557 1 0 0
node 9633 1 0 0
node 9772 1 0 0
node 9853 1 0 0
node 9932 1 0 0
node 10057 1 0 0
node 10130 1 0 0
node 10202 1 0 0
node 10223 1 0 0
node 10403 1 0 0
node 10465 1 0 0
node 10628 1 0 0
node 10667 1 0 0
node 10686 1 0 0
node 10705 1 0 0
node 10713 1 0 0
node 10771 1 0 0
node 11019 1 0 0
node 11039 1 0 0
node 11070 1 0 0
node 11149 1 0 0
node 11178 1 0 0
node 11242 1 0 0
node 11306 1 0 0
node 11596 1 0 0
node 11728 1 0 0
node 11799 1 0 0
node 11875 1 0 0
node 11896 1 0 0
node 12000 1 0 0
node 12075 1 0 0
node 12343 1 0 0
node 12462 1 0 0
node 12483 1 0 0
node 12547 1 0 0
node 12623 1 0 0
node 12786 1 0 0
node 12824 1 0 0
node 12934 1 0 0
node 13348 1 0 0
node 13377 1 0 0
node 13429 1 0 0
node 13518 1 0 0
node 13616 1 0 0
node 13798 1 0 0
node 13840 1 0 0
node 13990 1 0 0
node 14000 1 0 0
node 14026 1 0 0
node 14157 1 0 0
node 14280 1 0 0
node 14381 1 0 0
node 14620 1 0 0
node 14685 1 0 0
node 14802 1 0 0
node 14827 1 0 0
node 14962 1 0 0
node 15085 1 0 0
node 15159 1 0 0
node 15174 1 0 0
node 15249 1 0 0
node 15344 1 0 0
node 15466 1 0 0
node 15473 1 0 0
gene  1 1 29 0.004839002585399571 0 1176.0 0.004839002585399571 1
gene  1 3 29 0.012587149502470172 0 1178.0 0.012587149502470172 1
gene  1 6 29 0.021912400709645584 0 1181.0 0.021912400709645584 1
gene  1 8 29 0.008096795336157704 0 1183.0 0.008096795336157704 1
gene  1 9 29 0.004501915920009264 0 1184.0 0.004501915920009264 0
gene  1 10 29 0.49253922409457235 0 1185.0 0.49253922409457235 1
gene  1 12 29 -0.004619828119839081 0 1187.0 -0.004619828119839081 1
gene  1 13 29 -8.050744973525537E-4 0 1188.0 -8.050744973525537E-4 1
gene  1 15 29 -0.057127501445141796 0 1190.0 -0.057127501445141796 1
gene  1 16 29 0.9459355818849822 0 1191.0 0.9459355818849822 1
gene  1 18 29 0.03510398137787024 0 1193.0 0.03510398137787024 1
gene  1 19 29 0.8107484245154498 0 1194.0 0.8107484245154498 1
gene  1 20 29 0.006017920385876459 0 1195.0 0.006017920385876459 1
gene  1 21 29 -0.018463189089171033 0 1196.0 -0.018463189089171033 1
gene  1 22 29 -0.9279740782612441 0 1197.0 -0.9279740782612441 0
gene  1 28 29 -3.726926497710486E-4 0 1203.0 -3.726926497710486E-4 1
gene  1 31 29 -0.6477298125693599 1 1206.0 -0.6477298125693599 1
gene  1 34 29 0.01811630071483192 1 1209.0 0.01811630071483192 1
gene  1 35 29 0.010229926806642498 1 1210.0 0.010229926806642498 1
gene  1 36 29 0.0036857183463224613 1 1211.0 0.0036857183463224613 1
gene  1 39 29 -0.037677308411612515 1 1214.0 -0.037677308411612515 1
gene  1 40 29 0.0024063587056276335 1 1215.0 0.0024063587056276335 1
gene  1 1 30 3.6890670744133946E-4 0 1218.0 3.6890670744133946E-4 1
gene  1 3 30 0.019990342804765058 0 1220.0 0.019990342804765058 1
gene  1 4 30 -0.8641281081029397 0 1221.0 -0.8641281081029397 1
gene  1 7 30 0.004279285666165111 0 1224.0 0.004279285666165111 1
gene  1 8 30 -0.039735471815093355 0 1225.0 -0.039735471815093355 0
gene  1 9 30 -0.047429322391479824 0 1226.0 -0.047429322391479824 1
gene  1 10 30 -0.011773379435006856 0 1227.0 -0.011773379435006856 1
gene  1 12 30 0.037443346415295745 0 1229.0 0.037443346415295745 1
gene  1 16 30 0.0020509754723058255 0 1233.0 0.0020509754723058255 1
gene  1 18 30 -0.00860292753440358 0 1235.0 -0.00860292753440358 0
gene  1 20 30 0.03275294245607389 0 1237.0 0.03275294245607389 1
gene  1 22 30 -0.0015411246164530224 0 1239.0 -0.0015411246164530224 1
gene  1 24 30 -0.023127908634515214 0 1241.0 -0.023127908634515214 1
gene  1 28 30 -0.014569085188106682 0 1245.0 -0.014569085188106682 1
gene  1 29 30 -0.010117593182139298 0 1246.0 -0.010117593182139298 1
gene  1 30 30 -0.03247835853058649 1 1247.0 -0.03247835853058649 1
gene  1 31 30 -0.0783536243222363 1 1248.0 -0.0783536243222363 1
gene  1 34 30 -0.002230403988198132 1 1251.0 -0.002230403988198132 1
gene  1 35 30 0.006066427875740397 1 1252.0 0.006066427875740397 0
gene  1 1 31 0.016520026162517208 0 1260.0 0.016520026162517208 1
gene  1 2 31 -0.35166392839356275 0 1261.0 -0.35166392839356275 1
gene  1 4 31 0.011228190028178084 0 1263.0 0.011228190028178084 1
gene  1 5 31 0.009894176287815757 0 1264.0 0.009894176287815757 0
gene  1 6 31 -0.017181744102417712 0 1265.0 -0.017181744102417712 0
gene  1 7 31 -0.025770922677572434 0 1266.0 -0.025770922677572434 0
gene  1 13 31 0.021393088116106775 0 1272.0 0.021393088116106775 1
gene  1 14 31 0.044472873761823184 0 1273.0 0.044472873761823184 1
gene  1 15 31 0.0028652673366780426 0 1274.0 0.0028652673366780426 1
gene  1 16 31 0.7575133726741153 0 1275.0 0.7575133726741153 1
gene  1 20 31 0.009606153126962657 0 1279.0 0.009606153126962657 1
gene  1 24 31 -0.009030760271395743 0 1283.0 -0.009030760271395743 0
gene  1 26 31 0.02803923430674074 0 1285.0 0.02803923430674074 1
gene  1 27 31 0.03212298662509596 0 1286.0 0.03212298662509596 1
gene  1 28 31 0.004788290176874689 0 1287.0 0.004788290176874689 1
gene  1 31 31 0.07380291086788385 1 1290.0 0.07380291086788385 1
gene  1 34 31 -0.03315578233762979 1 1293.0 -0.03315578233762979 1
gene  1 36 31 0.017971084299928945 1 1295.0 0.017971084299928945 0
gene  1 40 31 -0.0019564002869480812 1 1299.0 -0.0019564002869480812 1
gene  1 8 34 -0.8599493593762275 0 1393.0 -0.8599493593762275 1
gene  1 10 34 -0.04361778206260601 0 1395.0 -0.04361778206260601 0
gene  1 12 34 -0.004593389328324977 0 1397.0 -0.004593389328324977 1
gene  1 13 34 0.04652413087367079 0 1398.0 0.04652413087367079 0
gene  1 14 34 -0.025707168514345635 0 1399.0 -0.025707168514345635 0
gene  1 15 34 0.033026552368576344 0 1400.0 0.033026552368576344 1
gene  1 18 34 -3.6602477853501353E-4 0 1403.0 -3.6602477853501353E-4 0
gene  1 19 34 -0.016373513406955646 0 1404.0 -0.016373513406955646 1
gene  1 20 34 -0.008737035357901088 0 1405.0 -0.008737035357901088 0
gene  1 23 34 0.001581211757506062 0 1408.0 0.001581211757506062 1
gene  1 25 34 -0.013326573277565801 0 1410.0 -0.013326573277565801 1
gene  1 27 34 -0.8519030951222193 0 1412.0 -0.8519030951222193 0
gene  1 29 34 -0.0040706049199315635 0 1414.0 -0.0040706049199315635 1
gene  1 30 34 0.005793708117378622 0 1415.0 0.005793708117378622 1
gene  1 31 34 0.004267184220613588 0 1416.0 0.004267184220613588 0
gene  1 36 34 -0.011167456938927291 1 1421.0 -0.011167456938927291 1
gene  1 37 34 0.9750901486958803 1 1422.0 0.9750901486958803 1
gene  1 38 34 0.021617068142474476 1 1423.0 0.021617068142474476 1
gene  1 39 34 0.020459140306080204 1 1424.0 0.020459140306080204 1
gene  1 41 34 -0.016810586848168062 1 1426.0 -0.016810586848168062 1
gene  1 1 35 0.02881761369265529 0 1428.0 0.02881761369265529 0
gene  1 2 35 0.03404416299886306 0 1429.0 0.03404416299886306 1
gene  1 3 35 -2.555608284258242E-4 0 1430.0 -2.555608284258242E-4 1
gene  1 4 35 0.014655517775062646 0 1431.0 0.014655517775062646 1
gene  1 5 35 0.008272481794306475 0 1432.0 0.008272481794306475 1
gene  1 12 35 0.7115933632915689 0 1439.0 0.7115933632915689 1
gene  1 13 35 -0.001969160949784567 0 1440.0 -0.001969160949784567 1
gene  1 14 35 0.01130144971130565 0 1441.0 0.01130144971130565 0
gene  1 21 35 -0.003350415911949718 0 1448.0 -0.003350415911949718 0
gene  1 24 35 0.03299108459819586 0 1451.0 0.03299108459819586 1
gene  1 25 35 0.008218582118686138 0 1452.0 0.008218582118686138 1
gene  1 26 35 0.023647407243940023 0 1453.0 0.023647407243940023 1
gene  1 27 35 0.10833285584250592 0 1454.0 0.10833285584250592 1
gene  1 28 35 0.0026258616821441586 0 1455.0 0.0026258616821441586 1
gene  1 31 35 0.07333567138210972 0 1458.0 0.07333567138210972 1
gene  1 34 35 0.0359813180020952 0 1461.0 0.0359813180020952 0
gene  1 37 35 -0.9988598919368674 1 1464.0 -0.9988598919368674 1
gene  1 38 35 0.038751403729216566 1 1465.0 0.038751403729216566 1
gene  1 41 35 -0.0072144765455882725 1 1468.0 -0.0072144765455882725 1
gene  1 1 36 0.03960625007538142 0 1470.0 0.03960625007538142 1
gene  1 4 36 -0.01710338585746917 0 1473.0 -0.01710338585746917 1
gene  1 5 36 0.0260936092421368 0 1474.0 0.0260936092421368 0
gene  1 6 36 -0.009886131754908054 0 1475.0 -0.009886131754908054 1
gene  1 8 36 0.002887039919991649 0 1477.0 0.002887039919991649 1
gene  1 9 36 0.016392867663092742 0 1478.0 0.016392867663092742 1
gene  1 10 36 -0.2533897754630048 0 1479.0 -0.2533897754630048 1
gene  1 15 36 0.06143119155720242 0 1484.0 0.06143119155720242 1
gene  1 17 36 -0.005030071292230295 0 1486.0 -0.005030071292230295 1
gene  1 19 36 -0.004474452506798399 0 1488.0 -0.004474452506798399 1
gene  1 21 36 -0.010489022665615449 0 1490.0 -0.010489022665615449 1
gene  1 23 36 0.041946802635416516 0 1492.0 0.041946802635416516 0
gene  1 24 36 0.9243797667063463 0 1493.0 0.9243797667063463 1
gene  1 26 36 0.025987726483266707 0 1495.0 0.025987726483266707 0
gene  1 27 36 0.010886933737998485 0 1496.0 0.010886933737998485 1
gene  1 28 36 -0.004572830851369225 0 1497.0 -0.004572830851369225 1
gene  1 29 36 0.03540456419418407 0 1498.0 0.03540456419418407 1
gene  1 30 36 -0.0022639262781538085 0 1499.0 -0.0022639262781538085 1
gene  1 36 36 -0.018061817506502157 1 1505.0 -0.018061817506502157 0
gene  1 38 36 0.4955884032933581 1 1507.0 0.4955884032933581 1
gene  1 40 36 0.003062772307403357 1 1509.0 0.003062772307403357 1
gene  1 41 36 7.804099539576205E-5 1 1510.0 7.804099539576205E-5 0
gene  1 3 37 -0.026970285828567583 0 1514.0 -0.026970285828567583 1
gene  1 5 37 0.0014599912790451428 0 1516.0 0.0014599912790451428 1
gene  1 6 37 -0.016163933580166073 0 1517.0 -0.016163933580166073 1
gene  1 7 37 0.06201669451496324 0 1518.0 0.06201669451496324 0
gene  1 8 37 0.010612685872428352 0 1519.0 0.010612685872428352 1
gene  1 10 37 -0.005173357320404668 0 1521.0 -0.005173357320404668 1
gene  1 11 37 -0.0033851878347050035 0 1522.0 -0.0033851878347050035 0
gene  1 14 37 0.008070955302053252 0 1525.0 0.008070955302053252 1
gene  1 15 37 0.003928125989402489 0 1526.0 0.003928125989402489 1
gene  1 19 37 -0.0026358917814335373 0 1530.0 -0.0026358917814335373 1
gene  1 20 37 0.021417623765087622 0 1531.0 0.021417623765087622 1
gene  1 22 37 -0.03600765722200811 0 1533.0 -0.03600765722200811 1
gene  1 25 37 -0.0669073581119319 0 1536.0 -0.0669073581119319 1
gene  1 27 37 0.6858532814201821 0 1538.0 0.6858532814201821 1
gene  1 29 37 -0.025764324188448266 0 1540.0 -0.025764324188448266 1
gene  1 30 37 -0.003931408700383095 0 1541.0 -0.003931408700383095 0
gene  1 35 37 -0.02116510856334875 0 1546.0 -0.02116510856334875 0
gene  1 37 37 -0.07309887781342797 1 1548.0 -0.07309887781342797 1
gene  1 40 37 0.004088601183132125 1 1551.0 0.004088601183132125 1
gene  1 42 37 -0.00911105611497751 1 1553.0 -0.00911105611497751 1
gene  1 2 38 0.4345068003247127 0 1555.0 0.4345068003247127 1
gene  1 4 38 0.03823623057517634 0 1557.0 0.03823623057517634 1
gene  1 5 38 0.0031811962413140207 0 1558.0 0.0031811962413140207 0
gene  1 6 38 0.01263568796564769 0 1559.0 0.01263568796564769 0
gene  1 8 38 0.0360110784176187 0 1561.0 0.0360110784176187 1
gene  1 10 38 -0.021403374547278805 0 1563.0 -0.021403374547278805 0
gene  1 11 38 -0.009519308596451989 0 1564.0 -0.009519308596451989 1
gene  1 12 38 -0.013477956590694814 0 1565.0 -0.013477956590694814 1
gene  1 16 38 -9.412282794284809E-4 0 1569.0 -9.412282794284809E-4 1
gene  1 17 38 0.008656193325441437 0 1570.0 0.008656193325441437 1
gene  1 18 38 0.015639289153023747 0 1571.0 0.015639289153023747 0
gene  1 21 38 -0.07543206654214951 0 1574.0 -0.07543206654214951 1
gene  1 22 38 -0.014842371677530032 0 1575.0 -0.014842371677530032 1
gene  1 23 38 0.008436564225503408 0 1576.0 0.008436564225503408 1
gene  1 25 38 -0.030567616916286566 0 1578.0 -0.030567616916286566 0
gene  1 29 38 0.007087677269406537 0 1582.0 0.007087677269406537 1
gene  1 35 38 -0.006460267372662514 0 1588.0 -0.006460267372662514 1
gene  1 36 38 -0.32414127928205666 0 1589.0 -0.32414127928205666 1
gene  1 37 38 -0.0026740256738395363 0 1590.0 -0.0026740256738395363 0
gene  1 38 38 0.005649158023728059 1 1591.0 0.005649158023728059 1
gene  1 39 38 0.00321694322881176 1 1592.0 0.00321694322881176 1
gene  1 40 38 0.030171238295974456 1 1593.0 0.030171238295974456 0
gene  1 42 38 0.04196673718937284 1 1595.0 0.04196673718937284 1
gene  1 2 39 -0.0087361911288526 0 1597.0 -0.0087361911288526 1
gene  1 5 39 -0.031065335469105615 0 1600.0 -0.031065335469105615 0
gene  1 6 39 0.023932157393215973 0 1601.0 0.023932157393215973 0
gene  1 7 39 0.014439932570493683 0 1602.0 0.014439932570493683 1
gene  1 9 39 0.006415614414099962 0 1604.0 0.006415614414099962 0
gene  1 12 39 0.01911944027142018 0 1607.0 0.01911944027142018 1
gene  1 13 39 0.024053389159721262 0 1608.0 0.024053389159721262 1
gene  1 15 39 0.055500758211333115 0 1610.0 0.055500758211333115 1
gene  1 16 39 -0.011083623012190845 0 1611.0 -0.011083623012190845 1
gene  1 17 39 0.0246087455986568 0 1612.0 0.0246087455986568 1
gene  1 18 39 -0.03873122577105863 0 1613.0 -0.03873122577105863 1
gene  1 24 39 0.45996722383271993 0 1619.0 0.45996722383271993 0
gene  1 25 39 0.0525697245555415 0 1620.0 0.0525697245555415 1
gene  1 28 39 0.022776461852994555 0 1623.0 0.022776461852994555 1
gene  1 31 39 0.023005110931178192 0 1626.0 0.023005110931178192 0
gene  1 36 39 -0.017703508454599337 0 1631.0 -0.017703508454599337 1
gene  1 37 39 -8.137833852857514E-4 0 1632.0 -8.137833852857514E-4 1
gene  1 38 39 -0.0207912013622341 0 1633.0 -0.0207912013622341 1
gene  1 40 39 0.021336555435060016 1 1635.0 0.021336555435060016 1
gene  1 2 40 0.8981578896132435 0 1639.0 0.8981578896132435 1
gene  1 5 40 0.2522587718257412 0 1642.0 0.2522587718257412 1
gene  1 7 40 -0.014455456879593686 0 1644.0 -0.014455456879593686 0
gene  1 9 40 -0.0021468232009235226 0 1646.0 -0.0021468232009235226 1
gene  1 10 40 -0.044748958913435465 0 1647.0 -0.044748958913435465 0
gene  1 11 40 -0.07983402271558783 0 1648.0 -0.07983402271558783 1
gene  1 14 40 0.0028085301280439323 0 1651.0 0.0028085301280439323 0
gene  1 16 40 -0.008116554129719207 0 1653.0 -0.008116554129719207 1
gene  1 20 40 0.44585704367572326 0 1657.0 0.44585704367572326 0
gene  1 25 40 -0.014020104314601402 0 1662.0 -0.014020104314601402 1
gene  1 27 40 0.01158422195167277 0 1664.0 0.01158422195167277 1
gene  1 29 40 -0.006494814143188268 0 1666.0 -0.006494814143188268 1
gene  1 34 40 0.005941240468004675 0 1671.0 0.005941240468004675 1
gene  1 36 40 -0.051713611237769054 0 1673.0 -0.051713611237769054 1
gene  1 37 40 -0.008571799670678695 0 1674.0 -0.008571799670678695 1
gene  1 39 40 0.009773603961668332 0 1676.0 0.009773603961668332 0
gene  1 41 40 0.006242240222925766 1 1678.0 0.006242240222925766 1
gene  1 42 40 0.02986689715899565 1 1679.0 0.02986689715899565 1
gene  1 4 41 0.0486179285696289 0 1683.0 0.0486179285696289 1
gene  1 5 41 -0.004851948099041605 0 1684.0 -0.004851948099041605 1
gene  1 6 41 0.006064459264138983 0 1685.0 0.006064459264138983 0
gene  1 12 41 -0.050147302903235866 0 1691.0 -0.050147302903235866 1
gene  1 14 41 -0.032158390418068866 0 1693.0 -0.032158390418068866 1
gene  1 16 41 -0.015822407989520487 0 1695.0 -0.015822407989520487 1
gene  1 20 41 1.2587424536723065E-4 0 1699.0 1.2587424536723065E-4 1
gene  1 21 41 0.009073455757358566 0 1700.0 0.009073455757358566 1
gene  1 24 41 0.0019622837715001402 0 1703.0 0.0019622837715001402 1
gene  1 28 41 0.007860509014273853 0 1707.0 0.007860509014273853 1
gene  1 30 41 -0.006420385346752002 0 1709.0 -0.006420385346752002 0
gene  1 31 41 0.012880748225405235 0 1710.0 0.012880748225405235 0
gene  1 38 41 0.0015768407704291835 0 1717.0 0.0015768407704291835 1
gene  1 40 41 0.07139474890591713 0 1719.0 0.07139474890591713 1
gene  1 41 41 0.06779835047679257 1 1720.0 0.06779835047679257 1
gene  1 42 41 -0.0015007309785900625 1 1721.0 -0.0015007309785900625 1
gene  1 1 42 -0.005448408745527495 0 1722.0 -0.005448408745527495 1
gene  1 3 42 0.013976492295352128 0 1724.0 0.013976492295352128 1
gene  1 4 42 0.03652416886655143 0 1725.0 0.03652416886655143 1
gene  1 8 42 0.004342921957110027 0 1729.0 0.004342921957110027 1
gene  1 10 42 0.024351413948323478 0 1731.0 0.024351413948323478 1
gene  1 11 42 0.018518205706067214 0 1732.0 0.018518205706067214 1
gene  1 12 42 0.003564354354574061 0 1733.0 0.003564354354574061 0
gene  1 16 42 -0.029265458683005487 0 1737.0 -0.029265458683005487 1
gene  1 17 42 0.07199835230480235 0 1738.0 0.07199835230480235 1
gene  1 23 42 0.03417812891673497 0 1744.0 0.03417812891673497 1
gene  1 24 42 -0.012990964844537545 0 1745.0 -0.012990964844537545 0
gene  1 25 42 -0.029777053025003348 0 1746.0 -0.029777053025003348 1
gene  1 26 42 4.899525216303996E-4 0 1747.0 4.899525216303996E-4 1
gene  1 29 42 0.014664827211134407 0 1750.0 0.014664827211134407 0
gene  1 31 42 -0.8143133464368725 0 1752.0 -0.8143133464368725 1
gene  1 34 42 0.005947193634250385 0 1755.0 0.005947193634250385 1
gene  1 36 42 0.027785977579831152 0 1757.0 0.027785977579831152 0
gene  1 40 42 -0.00459088553268393 0 1761.0 -0.00459088553268393 0
gene  1 41 43 -0.028841645487132788 1 1765.0 -0.028841645487132788 1
gene  1 43 35 0.04055617701022675 0 1766.0 0.04055617701022675 1
gene  1 41 273 0.004676075235078211 1 2225.0 0.004676075235078211 0
gene  1 273 34 -0.004173281633373026 0 2226.0 -0.004173281633373026 0
gene  1 20 498 0.03456424288021094 0 2675.0 0.03456424288021094 1
gene  1 498 37 -0.024550282997842336 0 2676.0 -0.024550282997842336 0
gene  1 21 597 -0.006544029669328177 0 2873.0 -0.006544029669328177 1
gene  1 597 41 0.010291393389912015 0 2874.0 0.010291393389912015 1
gene  1 20 665 0.022918824254133278 0 3009.0 0.022918824254133278 1
gene  1 665 498 -0.0778153216168595 0 3010.0 -0.0778153216168595 1
gene  1 42 714 -0.0057431810684836285 1 3107.0 -0.0057431810684836285 1
gene  1 714 41 -0.0037874473972276156 0 3108.0 -0.0037874473972276156 1
gene  1 16 782 -0.019727284737428984 0 3243.0 -0.019727284737428984 1
gene  1 782 31 -0.004158213284312327 0 3244.0 -0.004158213284312327 1
gene  1 26 810 -0.018719860181408143 0 3299.0 -0.018719860181408143 1
gene  1 810 35 0.02400233221197889 0 3300.0 0.02400233221197889 1
gene  1 6 832 -0.012572965706531335 0 3343.0 -0.012572965706531335 0
gene  1 832 37 0.009060059940034006 0 3344.0 0.009060059940034006 1
gene  1 6 858 -0.017032651413327184 0 3395.0 -0.017032651413327184 1
gene  1 858 41 -0.012211284860770475 0 3396.0 -0.012211284860770475 0
gene  1 18 976 0.009156693673296927 0 3631.0 0.009156693673296927 1
gene  1 976 29 -0.04277889490181373 0 3632.0 -0.04277889490181373 1
gene  1 3 1016 -0.0039032031208883324 0 3711.0 -0.0039032031208883324 1
gene  1 1016 35 -0.010936492618514149 0 3712.0 -0.010936492618514149 0
gene  1 5 1573 -0.06250947716627567 0 4825.0 -0.06250947716627567 0
gene  1 1573 36 0.005481670791462502 0 4826.0 0.005481670791462502 1
gene  1 14 1694 0.01726354974328967 0 5067.0 0.01726354974328967 0
gene  1 1694 34 -0.007323127051924528 0 5068.0 -0.007323127051924528 1
gene  1 31 1774 -0.00388825003067782 0 5227.0 -0.00388825003067782 1
gene  1 1774 41 0.015650645977310015 0 5228.0 0.015650645977310015 1
gene  1 16 1858 -0.03710840879014479 0 5395.0 -0.03710840879014479 1
gene  1 1858 38 -0.0119314889494622 0 5396.0 -0.0119314889494622 1
gene  1 3 1916 -0.026046195543840932 0 5511.0 -0.026046195543840932 0
gene  1 1916 35 0.012383542387763255 0 5512.0 0.012383542387763255 0
gene  1 27 1958 0.003468373311619542 0 5595.0 0.003468373311619542 0
gene  1 1958 31 0.01185817224978796 0 5596.0 0.01185817224978796 1
gene  1 14 1992 0.01484210763345114 0 5663.0 0.01484210763345114 0
gene  1 1992 1694 -0.02996575869748311 0 5664.0 -0.02996575869748311 0
gene  1 1 2121 0.013623026246614893 0 5921.0 0.013623026246614893 1
gene  1 2121 30 0.011895115350741642 0 5922.0 0.011895115350741642 0
gene  1 1992 2293 -0.008492025413709999 0 6265.0 -0.008492025413709999 1
gene  1 2293 1694 0.0048401772333272405 0 6266.0 0.0048401772333272405 1
gene  1 31 2530 0.04147286919260454 1 6739.0 0.04147286919260454 1
gene  1 2530 30 0.062237482507171496 0 6740.0 0.062237482507171496 1
gene  1 42 3042 -0.02465759706887667 1 7763.0 -0.02465759706887667 1
gene  1 3042 38 -0.003748576422354335 0 7764.0 -0.003748576422354335 0
gene  1 34 3067 -0.03555169692441975 0 7813.0 -0.03555169692441975 0
gene  1 3067 35 -0.0068781558191037245 0 7814.0 -0.0068781558191037245 1
gene  1 42 3184 0.004296042530043166 1 8047.0 0.004296042530043166 0
gene  1 3184 41 0.045014216446835315 0 8048.0 0.045014216446835315 1
gene  1 20 3230 -0.03399260571395281 0 8139.0 -0.03399260571395281 1
gene  1 3230 37 0.08736488247916832 0 8140.0 0.08736488247916832 0
gene  1 22 3351 -0.024608947991887085 0 8381.0 -0.024608947991887085 1
gene  1 3351 30 -0.007273153889502392 0 8382.0 -0.007273153889502392 1
gene  1 27 3430 -0.007733683949806074 0 8539.0 -0.007733683949806074 1
gene  1 3430 37 0.003917034479683957 0 8540.0 0.003917034479683957 1
gene  1 2121 3451 0.03887776377245548 0 8581.0 0.03887776377245548 0
gene  1 3451 30 0.007253417440116197 0 8582.0 0.007253417440116197 1
gene  1 5 3513 0.025867531775596343 0 8705.0 0.025867531775596343 1
gene  1 3513 31 -0.016616902990402575 0 8706.0 -0.016616902990402575 1
gene  1 38 3542 -0.017167740901210732 1 8763.0 -0.017167740901210732 1
gene  1 3542 38 -0.026688109991946894 0 8764.0 -0.026688109991946894 0
gene  1 6 3723 -0.04569637893819096 0 9125.0 -0.04569637893819096 0
gene  1 3723 37 -0.012883095488732742 0 9126.0 -0.012883095488732742 1
gene  1 2 3734 -9.52469829440878E-4 0 9147.0 -9.52469829440878E-4 0
gene  1 3734 35 -0.016084960464787388 0 9148.0 -0.016084960464787388 1
gene  1 38 3824 -0.002075236906969505 1 9327.0 -0.002075236906969505 1
gene  1 3824 3542 0.0016372908719761176 0 9328.0 0.0016372908719761176 0
gene  1 21 3894 0.014352995505228554 0 9467.0 0.014352995505228554 1
gene  1 3894 29 -0.01887465789989193 0 9468.0 -0.01887465789989193 0
gene  1 1916 4191 -0.005992799115284289 0 10061.0 -0.005992799115284289 0
gene  1 4191 35 0.022641483550326795 0 10062.0 0.022641483550326795 1
gene  1 31 4238 0.0017182014149405953 1 10155.0 0.0017182014149405953 1
gene  1 4238 30 0.015865311746269366 0 10156.0 0.015865311746269366 1
gene  1 39 4276 -0.048471951602373414 1 10231.0 -0.048471951602373414 1
gene  1 4276 29 0.0038200544436048983 0 10232.0 0.0038200544436048983 1
gene  1 13 4292 -0.00795476011956303 0 10263.0 -0.00795476011956303 1
gene  1 4292 29 -0.02776063573905294 0 10264.0 -0.02776063573905294 1
gene  1 25 4586 0.008457009709108093 0 10851.0 0.008457009709108093 0
gene  1 4586 38 -0.0056249935582884944 0 10852.0 -0.0056249935582884944 1
gene  1 6 4664 0.010792631224089988 0 11007.0 0.010792631224089988 1
gene  1 4664 832 -0.012054113846599483 0 11008.0 -0.012054113846599483 0
gene  1 31 4952 0.010518023235864215 0 11583.0 0.010518023235864215 1
gene  1 4952 39 -0.0029373132653193663 0 11584.0 -0.0029373132653193663 0
gene  1 2121 4973 0.018269656744613838 0 11625.0 0.018269656744613838 1
gene  1 4973 30 -0.012842399815166959 0 11626.0 -0.012842399815166959 1
gene  1 29 5019 0.021536399464165905 0 11717.0 0.021536399464165905 1
gene  1 5019 42 0.0019835681617834614 0 11718.0 0.0019835681617834614 0
gene  1 1016 5055 0.00495224578617416 0 11789.0 0.00495224578617416 1
gene  1 5055 35 0.006112500265890016 0 11790.0 0.006112500265890016 0
gene  1 36 5092 0.010601279789185774 1 11863.0 0.010601279789185774 0
gene  1 5092 36 -0.019435673411507308 0 11864.0 -0.019435673411507308 1
gene  1 6 5181 -0.00951373890875042 0 12041.0 -0.00951373890875042 1
gene  1 5181 39 0.012177395681832235 0 12042.0 0.012177395681832235 1
gene  1 14 5206 -0.01350061501564239 0 12091.0 -0.01350061501564239 1
gene  1 5206 35 -0.005360847432136632 0 12092.0 -0.005360847432136632 1
gene  1 10 5436 0.01706720035045183 0 12551.0 0.01706720035045183 1
gene  1 5436 34 0.029425384112933974 0 12552.0 0.029425384112933974 1
gene  1 24 5651 0.001145565833129715 0 12981.0 0.001145565833129715 0
gene  1 5651 31 -0.020055703716257155 0 12982.0 -0.020055703716257155 1
gene  1 2121 5705 0.02349740630534637 0 13089.0 0.02349740630534637 1
gene  1 5705 3451 0.002204884108205997 0 13090.0 0.002204884108205997 0
gene  1 5 5827 -0.050698686613421105 0 13333.0 -0.050698686613421105 1
gene  1 5827 38 0.004402469814184096 0 13334.0 0.004402469814184096 1
gene  1 14 5958 -0.0034335837161963033 0 13595.0 -0.0034335837161963033 1
gene  1 5958 34 -4.1020928410961943E-4 0 13596.0 -4.1020928410961943E-4 1
gene  1 782 5977 -0.042874304426252244 0 13633.0 -0.042874304426252244 1
gene  1 5977 31 -0.013440958295590694 0 13634.0 -0.013440958295590694 1
gene  1 6 6035 0.013061759471164926 0 13749.0 0.013061759471164926 1
gene  1 6035 31 0.030289828306679565 0 13750.0 0.030289828306679565 1
gene  1 34 6082 0.026081699600466947 0 13843.0 0.026081699600466947 1
gene  1 6082 3067 -0.024428938187997684 0 13844.0 -0.024428938187997684 1
gene  1 24 6232 0.022047032519029248 0 14143.0 0.022047032519029248 0
gene  1 6232 5651 0.02041065774186717 0 14144.0 0.02041065774186717 1
gene  1 1916 6367 -0.0029401763887620534 0 14413.0 -0.0029401763887620534 1
gene  1 6367 4191 -0.009853649518261768 0 14414.0 -0.009853649518261768 0
gene  1 6 6389 -0.007480942150537671 0 14457.0 -0.007480942150537671 1
gene  1 6389 38 -0.02956460405146948 0 14458.0 -0.02956460405146948 1
gene  1 20 6637 0.003358300357564379 0 14953.0 0.003358300357564379 1
gene  1 6637 34 0.013039578079323388 0 14954.0 0.013039578079323388 1
gene  1 6367 6740 -0.0030658950652447028 0 15159.0 -0.0030658950652447028 1
gene  1 6740 4191 0.05280193918499719 0 15160.0 0.05280193918499719 1
gene  1 36 7007 0.027196302918435472 1 15693.0 0.027196302918435472 1
gene  1 7007 5092 0.003470567692522032 0 15694.0 0.003470567692522032 1
gene  1 25 7069 0.010556778219108942 0 15817.0 0.010556778219108942 1
gene  1 7069 4586 0.033077343894006093 0 15818.0 0.033077343894006093 1
gene  1 273 7157 -0.010619942895357268 0 15993.0 -0.010619942895357268 1
gene  1 7157 34 0.06470762537951698 0 15994.0 0.06470762537951698 1
gene  1 498 7196 -0.006917470840318318 0 16071.0 -0.006917470840318318 1
gene  1 7196 37 -0.021973898884180942 0 16072.0 -0.021973898884180942 1
gene  1 10 7241 0.003803668447947296 0 16161.0 0.003803668447947296 0
gene  1 7241 40 -0.017560204594265782 0 16162.0 -0.017560204594265782 1
gene  1 11 7297 0.010340853790276437 0 16273.0 0.010340853790276437 1
gene  1 7297 37 -0.0102123257605859 0 16274.0 -0.0102123257605859 0
gene  1 27 7370 0.038929594043573705 0 16419.0 0.038929594043573705 1
gene  1 7370 1958 0.04298463139151262 0 16420.0 0.04298463139151262 1
gene  1 40 7510 -0.051796979894007195 0 16699.0 -0.051796979894007195 1
gene  1 7510 42 -0.02894643069494498 0 16700.0 -0.02894643069494498 1
gene  1 858 7574 0.034654337268005965 0 16827.0 0.034654337268005965 1
gene  1 7574 41 -0.061750703217381464 0 16828.0 -0.061750703217381464 1
gene  1 3 7631 -0.015468612910352269 0 16941.0 -0.015468612910352269 1
gene  1 7631 29 0.0059835466437973914 0 16942.0 0.0059835466437973914 1
gene  1 1 7654 0.007911947432089181 0 16987.0 0.007911947432089181 0
gene  1 7654 35 -0.01764458895983511 0 16988.0 -0.01764458895983511 1
gene  1 14 7872 -0.03707760557338789 0 17423.0 -0.03707760557338789 1
gene  1 7872 1694 -0.02105708889008977 0 17424.0 -0.02105708889008977 0
gene  1 36 7931 0.06385196500546714 0 17541.0 0.06385196500546714 1
gene  1 7931 42 0.01156864111863759 0 17542.0 0.01156864111863759 1
gene  1 18 8095 -0.0576595542581639 0 17869.0 -0.0576595542581639 0
gene  1 8095 30 0.0039055317968193417 0 17870.0 0.0039055317968193417 1
gene  1 22 8112 0.017595026415175477 0 17903.0 0.017595026415175477 1
gene  1 8112 29 -0.03181816435458024 0 17904.0 -0.03181816435458024 1
gene  1 10 8200 -0.01740465559411344 0 18079.0 -0.01740465559411344 1
gene  1 8200 38 0.004936611857642283 0 18080.0 0.004936611857642283 1
gene  1 37 8313 0.02464594752469256 0 18305.0 0.02464594752469256 0
gene  1 8313 38 -0.0024504367594895566 0 18306.0 -0.0024504367594895566 1
gene  1 6 8364 -0.026066518398375583 0 18407.0 -0.026066518398375583 1
gene  1 8364 3723 -0.0010794074314208766 0 18408.0 -0.0010794074314208766 1
gene  1 35 8548 -0.006611421083666828 1 18775.0 -0.006611421083666828 1
gene  1 8548 30 -0.011498438022289932 0 18776.0 -0.011498438022289932 0
gene  1 3042 8581 0.017667739968696018 0 18841.0 0.017667739968696018 1
gene  1 8581 38 -0.048802930820792574 0 18842.0 -0.048802930820792574 1
gene  1 3230 8750 -0.05348035677600085 0 19179.0 -0.05348035677600085 0
gene  1 8750 37 -0.004980484918577501 0 19180.0 -0.004980484918577501 1
gene  1 3230 8793 -0.029030327373899288 0 19265.0 -0.029030327373899288 0
gene  1 8793 8750 -0.020317842824947432 0 19266.0 -0.020317842824947432 1
gene  1 9 8828 0.014115670261348924 0 19335.0 0.014115670261348924 0
gene  1 8828 39 0.0376418880345718 0 19336.0 0.0376418880345718 1
gene  1 36 8869 -0.01358005499487621 1 19417.0 -0.01358005499487621 1
gene  1 8869 31 0.007040159127195413 0 19418.0 0.007040159127195413 1
gene  1 5055 9166 -0.03768489443749485 0 20011.0 -0.03768489443749485 1
gene  1 9166 35 0.003133071618802716 0 20012.0 0.003133071618802716 1
gene  1 41 9422 0.0032270274052928916 1 20523.0 0.0032270274052928916 0
gene  1 9422 273 0.02941174052464152 0 20524.0 0.02941174052464152 1
gene  1 42 9557 -0.026848859075000675 1 20793.0 -0.026848859075000675 1
gene  1 9557 3184 0.006583315558665434 0 20794.0 0.006583315558665434 1
gene  1 10 9633 0.0106829892922441 0 20945.0 0.0106829892922441 1
gene  1 9633 7241 -0.012390443708850854 0 20946.0 -0.012390443708850854 1
gene  1 34 9772 1.5062488041995854E-4 0 21223.0 1.5062488041995854E-4 1
gene  1 9772 35 0.0024994134648952896 0 21224.0 0.0024994134648952896 1
gene  1 4952 9853 -0.01532840233036752 0 21385.0 -0.01532840233036752 0
gene  1 9853 39 0.01908439282955244 0 21386.0 0.01908439282955244 0
gene  1 14 9932 -0.023303303049087544 0 21543.0 -0.023303303049087544 1
gene  1 9932 40 0.014093990621890273 0 21544.0 0.014093990621890273 1
gene  1 7 10057 0.02666076346924927 0 21793.0 0.02666076346924927 1
gene  1 10057 31 -0.010096236874472492 0 21794.0 -0.010096236874472492 1
gene  1 1916 10130 0.004849762247147851 0 21939.0 0.004849762247147851 1
gene  1 10130 35 -0.038640028920510425 0 21940.0 -0.038640028920510425 0
gene  1 5 10202 0.020315504415962894 0 22083.0 0.020315504415962894 1
gene  1 10202 1573 -0.006467437041405016 0 22084.0 -0.006467437041405016 1
gene  1 37 10223 -0.0018656154909740116 0 22125.0 -0.0018656154909740116 1
gene  1 10223 8313 0.01763151247006316 0 22126.0 0.01763151247006316 1
gene  1 14 10403 -0.006332486492672124 0 22485.0 -0.006332486492672124 1
gene  1 10403 1992 -0.011466003117468789 0 22486.0 -0.011466003117468789 1
gene  1 24 10465 0.0032771252610453716 0 22609.0 0.0032771252610453716 0
gene  1 10465 39 -0.0015551725250473377 0 22610.0 -0.0015551725250473377 1
gene  1 40 10628 0.004733835825765847 1 22935.0 0.004733835825765847 0
gene  1 10628 38 0.0057726398139132 0 22936.0 0.0057726398139132 1
gene  1 7297 10667 -5.661140398651121E-4 0 23013.0 -5.661140398651121E-4 1
gene  1 10667 37 -0.009944812761824894 0 23014.0 -0.009944812761824894 1
gene  1 9 10686 -0.00948635158583525 0 23051.0 -0.00948635158583525 1
gene  1 10686 29 0.006269535796740481 0 23052.0 0.006269535796740481 1
gene  1 23 10705 4.4474497961188077E-4 0 23089.0 4.4474497961188077E-4 1
gene  1 10705 36 -0.02370011556728816 0 23090.0 -0.02370011556728816 1
gene  1 7872 10713 -0.022133928008363918 0 23105.0 -0.022133928008363918 0
gene  1 10713 1694 -0.003543555519896111 0 23106.0 -0.003543555519896111 1
gene  1 6 10771 0.020659000386006 0 23221.0 0.020659000386006 1
gene  1 10771 41 0.0018556883258536109 0 23222.0 0.0018556883258536109 1
gene  1 31 11019 -0.008163492317908423 0 23717.0 -0.008163492317908423 1
gene  1 11019 41 -0.005006497488463771 0 23718.0 -0.005006497488463771 1
gene  1 7872 11039 0.011618274207883222 0 23757.0 0.011618274207883222 1
gene  1 11039 10713 -0.0027549310123187163 0 23758.0 -0.0027549310123187163 1
gene  1 5 11070 -0.0012137076071622992 0 23819.0 -0.0012137076071622992 1
gene  1 11070 39 0.004226797301411286 0 23820.0 0.004226797301411286 1
gene  1 40 11149 0.005727504058045375 1 23977.0 0.005727504058045375 1
gene  1 11149 10628 -0.013976007502796726 0 23978.0 -0.013976007502796726 1
gene  1 35 11178 -0.013796153140264692 0 24035.0 -0.013796153140264692 1
gene  1 11178 37 -0.01072415614080114 0 24036.0 -0.01072415614080114 1
gene  1 1992 11242 0.01170098192824684 0 24163.0 0.01170098192824684 1
gene  1 11242 1694 -0.005773199304786751 0 24164.0 -0.005773199304786751 1
gene  1 4952 11306 0.0051861227512626715 0 24291.0 0.0051861227512626715 1
gene  1 11306 9853 6.730254707784223E-4 0 24292.0 6.730254707784223E-4 1
gene  1 5 11596 -0.007304615663689296 0 24871.0 -0.007304615663689296 1
gene  1 11596 31 7.193186767664424E-4 0 24872.0 7.193186767664424E-4 1
gene  1 18 11728 -0.010201576279456007 0 25135.0 -0.010201576279456007 1
gene  1 11728 8095 0.01745208402105062 0 25136.0 0.01745208402105062 0
gene  1 18 11799 -1.7261118054282681E-4 0 25277.0 -1.7261118054282681E-4 1
gene  1 11799 38 -0.03670821995139671 0 25278.0 -0.03670821995139671 1
gene  1 5705 11875 -0.010252783910249808 0 25429.0 -0.010252783910249808 1
gene  1 11875 3451 -0.0012110563871479173 0 25430.0 -0.0012110563871479173 0
gene  1 3542 11896 0.009796625506251053 0 25471.0 0.009796625506251053 0
gene  1 11896 38 0.008114913129824519 0 25472.0 0.008114913129824519 1
gene  1 39 12000 0.015828941779494614 0 25679.0 0.015828941779494614 1
gene  1 12000 40 -0.033877819787352464 0 25680.0 -0.033877819787352464 1
gene  1 24 12075 -0.005605800775457806 0 25829.0 -0.005605800775457806 1
gene  1 12075 10465 -0.0017375538661810064 0 25830.0 -0.0017375538661810064 1
gene  1 1 12343 2.765589125972927E-4 0 26365.0 2.765589125972927E-4 1
gene  1 12343 7654 0.0030708148991341077 0 26366.0 0.0030708148991341077 1
gene  1 8548 12462 -0.002983936609394021 0 26603.0 -0.002983936609394021 1
gene  1 12462 30 0.007158458130073139 0 26604.0 0.007158458130073139 1
gene  1 31 12483 -0.002470402571249015 0 26645.0 -0.002470402571249015 1
gene  1 12483 34 0.002440249690319486 0 26646.0 0.002440249690319486 1
gene  1 30 12547 -0.007834590656119047 0 26773.0 -0.007834590656119047 1
gene  1 12547 41 -0.002182260068497851 0 26774.0 -0.002182260068497851 1
gene  1 2 12623 0.001221810853686993 0 26925.0 0.001221810853686993 1
gene  1 12623 3734 0.004284773719084542 0 26926.0 0.004284773719084542 1
gene  1 4664 12786 -7.760141871579907E-4 0 27251.0 -7.760141871579907E-4 1
gene  1 12786 832 -0.008068606219962911 0 27252.0 -0.008068606219962911 1
gene  1 3230 12824 -0.0012158028646679674 0 27327.0 -0.0012158028646679674 1
gene  1 12824 8793 0.015210011483805207 0 27328.0 0.015210011483805207 1
gene  1 3 12934 0.00949731793255613 0 27547.0 0.00949731793255613 0
gene  1 12934 1916 -0.023024047152268634 0 27548.0 -0.023024047152268634 1
gene  1 30 13348 0.017320920746670895 0 28375.0 0.017320920746670895 1
gene  1 13348 37 -0.0021184607094590635 0 28376.0 -0.0021184607094590635 1
gene  1 7 13377 -0.005795551809261456 0 28433.0 -0.005795551809261456 1
gene  1 13377 37 -0.008710246552421296 0 28434.0 -0.008710246552421296 1
gene  1 10130 13429 -0.003688254431592026 0 28537.0 -0.003688254431592026 1
gene  1 13429 35 -0.0072253021018057716 0 28538.0 -0.0072253021018057716 1
gene  1 41 13518 0.0033258903615036063 1 28715.0 0.0033258903615036063 1
gene  1 13518 36 0.007977526494660268 0 28716.0 0.007977526494660268 1
gene  1 7 13616 5.687294551550877E-4 0 28911.0 5.687294551550877E-4 1
gene  1 13616 40 8.223249053108924E-4 0 28912.0 8.223249053108924E-4 1
gene  1 27 13798 1.0358886658457058 0 29275.0 1.0358886658457058 1
gene  1 13798 34 -0.8215504949122728 0 29276.0 -0.8215504949122728 1
gene  1 9 13840 0.005296590675366644 0 29359.0 0.005296590675366644 1
gene  1 13840 8828 -0.003174822324221005 0 29360.0 -0.003174822324221005 1
gene  1 3824 13990 -0.007041409344639675 0 29659.0 -0.007041409344639675 1
gene  1 13990 3542 0.0066875370585843825 0 29660.0 0.0066875370585843825 1
gene  1 11875 14000 -0.0037508441156800143 0 29679.0 -0.0037508441156800143 1
gene  1 14000 3451 0.025997997371344644 0 29680.0 0.025997997371344644 1
gene  1 3 14026 -0.008346379967827208 0 29731.0 -0.008346379967827208 1
gene  1 14026 12934 0.012354900571633456 0 29732.0 0.012354900571633456 1
gene  1 24 14157 -0.002989498075543449 0 29993.0 -0.002989498075543449 1
gene  1 14157 6232 -0.0070367273916105465 0 29994.0 -0.0070367273916105465 1
gene  1 9853 14280 -0.005895527096404887 0 30239.0 -0.005895527096404887 1
gene  1 14280 39 -0.0055189061497468665 0 30240.0 -0.0055189061497468665 1
gene  1 26 14381 0.01528940130049642 0 30441.0 0.01528940130049642 1
gene  1 14381 36 -0.009709825541259126 0 30442.0 -0.009709825541259126 1
gene  1 8 14620 -0.020378688593020305 0 30919.0 -0.020378688593020305 1
gene  1 14620 30 0.008025855208227569 0 30920.0 0.008025855208227569 1
gene  1 21 14685 -0.012572004538910084 0 31049.0 -0.012572004538910084 0
gene  1 14685 35 0.0017315687947990744 0 31050.0 0.0017315687947990744 0
gene  1 11728 14802 1.004758103565087 0 31283.0 1.004758103565087 1
gene  1 14802 8095 -0.002616147013047916 0 31284.0 -0.002616147013047916 1
gene  1 3894 14827 0.9804502873584501 0 31333.0 0.9804502873584501 1
gene  1 14827 29 -0.0032120533263082884 0 31334.0 -0.0032120533263082884 1
gene  1 21 14962 7.122603670454298E-4 0 31603.0 7.122603670454298E-4 1
gene  1 14962 14685 1.0131795983622771 0 31604.0 1.0131795983622771 1
gene  1 18 15085 -0.009989797834583453 0 31849.0 -0.009989797834583453 1
gene  1 15085 34 -0.002741138363771033 0 31850.0 -0.002741138363771033 1
gene  1 24 15159 1.0000716724574201 0 31997.0 1.0000716724574201 1
gene  1 15159 42 -0.002111097181801347 0 31998.0 -0.002111097181801347 1
gene  1 5019 15174 0.0033763159139883437 0 32027.0 0.0033763159139883437 1
gene  1 15174 42 -0.005189133898351267 0 32028.0 -0.005189133898351267 1
gene  1 20 15249 0.9928003499608742 0 32177.0 0.9928003499608742 1
gene  1 15249 40 0.44236569110063306 0 32178.0 0.44236569110063306 1
gene  1 14685 15344 0.9959322878951485 0 32367.0 0.9959322878951485 1
gene  1 15344 35 -0.008863763036587282 0 32368.0 -0.008863763036587282 1
gene  1 41 15466 0.0051351547585129645 1 32611.0 0.0051351547585129645 1
gene  1 15466 9422 -0.007438059172394247 0 32612.0 -0.007438059172394247 1
gene  1 3542 15473 1.0 0 32625.0 1.0 1
gene  1 15473 11896 0.0031298090261865077 0 32626.0 0.0031298090261865077 1
genomeend 1
/* Organism # 002 Fitness: - 1.449 Error:  0.000                      */
genomestart  2
trait 1 0.0 0.0 0.0 0.0 0.0 0.0 0.0 0.0 
node 1 1 1 1
node 2 1 1 1
node 3 1 1 1
node 4 1 1 1
node 5 1 1 1
node 6 1 1 1
node 7 1 1 1
node 8 1 1 1
node 9 1 1 1
node 10 1 1 1
node 11 1 1 1
node 12 1 1 1
node 13 1 1 1
node 14 1 1 1
node 15 1 1 1
node 16 1 1 1
node 17 1 1 1
node 18 1 1 1
node 19 1 1 1
node 20 1 1 1
node 21 1 1 1
node 22 1 1 1
node 23 1 1 1
node 24 1 1 1
node 25 1 1 1
node 26 1 1 1
node 27 1 1 1
node 28 1 1 3
node 29 1 0 0
node 30 1 0 0
node 31 1 0 0
node 34 1 0 2
node 35 1 0 2
node 36 1 0 2
node 37 1 0 2
node 38 1 0 2
node 39 1 0 2
node 40 1 0 2
node 41 1 0 2
node 42 1 0 2
node 43 1 0 0
node 273 1 0 0
node 498 1 0 0
node 597 1 0 0
node 665 1 0 0
node 714 1 0 0
node 782 1 0 0
node 810 1 0 0
node 832 1 0 0
node 858 1 0 0
node 976 1 0 0
node 1016 1 0 0
node 1573 1 0 0
node 1694 1 0 0
node 1774 1 0 0
node 1858 1 0 0
node 1916 1 0 0
node 1958 1 0 0
node 1992 1 0 0
node 2121 1 0 0
node 2293 1 0 0
node 2530 1 0 0
node 3042 1 0 0
node 3067 1 0 0
node 3184 1 0 0
node 3230 1 0 0
node 3351 1 0 0
node 3430 1 0 0
node 3451 1 0 0
node 3513 1 0 0
node 3542 1 0 0
node 3723 1 0 0
node 3734 1 0 0
node 3824 1 0 0
node 3894 1 0 0
node 4191 1 0 0
node 4238 1 0 0
node 4276 1 0 0
node 4292 1 0 0
node 4586 1 0 0
node 4664 1 0 0
node 4952 1 0 0
node 4973 1 0 0
node 5019 1 0 0
node 5055 1 0 0
node 5092 1 0 0
node 5181 1 0 0
node 5206 1 0 0
node 5436 1 0 0
node 5651 1 0 0
node 5705 1 0 0
node 5827 1 0 0
node 5958 1 0 0
node 5977 1 0 0
node 6035 1 0 0
node 6082 1 0 0
node 6232 1 0 0
node 6367 1 0 0
node 6389 1 0 0
node 6637 1 0 0
node 6740 1 0 0
node 7007 1 0 0
node 7069 1 0 0
node 7157 1 0 0
node 7196 1 0 0
node 7241 1 0 0
node 7297 1 0 0
node 7370 1 0 0
node 7510 1 0 0
node 7574 1 0 0
node 7631 1 0 0
node 7654 1 0 0
node 7872 1 0 0
node 7931 1 0 0
node 8095 1 0 0
node 8112 1 0 0
node 8200 1 0 0
node 8313 1 0 0
node 8364 1 0 0
node 8548 1 0 0
node 8581 1 0 0
node 8750 1 0 0
node 8793 1 0 0
node 8828 1 0 0
node 8869 1 0 0
node 9166 1 0 0
node 9422 1 0 0
node 9557 1 0 0
node 9633 1 0 0
node 9772 1 0 0
node 9853 1 0 0
node 9932 1 0 0
node 10057 1 0 0
node 10130 1 0 0
node 10202 1 0 0
node 10223 1 0 0
node 10403 1 0 0
node 10465 1 0 0
node 10628 1 0 0
node 10667 1 0 0
node 10686 1 0 0
node 10705 1 0 0
node 10713 1 0 0
node 10771 1 0 0
node 11019 1 0 0
node 11039 1 0 0
node 11070 1 0 0
node 11149 1 0 0
node 11178 1 0 0
node 11242 1 0 0
node 11306 1 0 0
node 11596 1 0 0
node 11728 1 0 0
node 11799 1 0 0
node 11875 1 0 0
node 11896 1 0 0
node 12000 1 0 0
node 12075 1 0 0
node 12343 1 0 0
node 12462 1 0 0
node 12483 1 0 0
node 12547 1 0 0
node 12623 1 0 0
node 12786 1 0 0
node 12824 1 0 0
node 12934 1 0 0
node 13348 1 0 0
node 13377 1 0 0
node 13429 1 0 0
node 13518 1 0 0
node 13616 1 0 0
node 13798 1 0 0
node 13840 1 0 0
node 13990 1 0 0
node 14000 1 0 0
node 14026 1 0 0
node 14157 1 0 0
node 14280 1 0 0
node 14381 1 0 0
node 14620 1 0 0
node 14685 1 0 0
node 14802 1 0 0
node 14827 1 0 0
node 14962 1 0 0
node 15085 1 0 0
node 15159 1 0 0
node 15174 1 0 0
node 15249 1 0 0
node 15344 1 0 0
node 15466 1 0 0
node 15473 1 0 0
gene  1 1 29 0.003910515152540424 0 1176.0 0.003910515152540424 1
gene  1 3 29 0.01125572503283352 0 1178.0 0.01125572503283352 1
gene  1 6 29 0.014928028475475738 0 1181.0 0.014928028475475738 1
gene  1 8 29 0.006036046668220675 0 1183.0 0.006036046668220675 1
gene  1 9 29 0.013482830446824821 0 1184.0 0.013482830446824821 0
gene  1 10 29 0.49662766205427816 0 1185.0 0.49662766205427816 1
gene  1 12 29 1.360237328150958E-5 0 1187.0 1.360237328150958E-5 1
gene  1 13 29 -0.0027290419896129348 0 1188.0 -0.0027290419896129348 1
gene  1 15 29 -0.05385190299594141 0 1190.0 -0.05385190299594141 1
gene  1 16 29 0.9499833991085397 0 1191.0 0.9499833991085397 1
gene  1 18 29 0.029242821867900927 0 1193.0 0.029242821867900927 1
gene  1 19 29 0.8152805607757204 0 1194.0 0.8152805607757204 1
gene  1 20 29 0.011742238662607063 0 1195.0 0.011742238662607063 1
gene  1 21 29 -0.020581240832065764 0 1196.0 -0.020581240832065764 1
gene  1 22 29 -0.9238875679436312 0 1197.0 -0.9238875679436312 0
gene  1 28 29 0.009416313999721322 0 1203.0 0.009416313999721322 1
gene  1 31 29 -0.6553908075029744 1 1206.0 -0.6553908075029744 1
gene  1 34 29 0.022794615347702166 1 1209.0 0.022794615347702166 1
gene  1 35 29 4.2504356501802515E-4 1 1210.0 4.2504356501802515E-4 1
gene  1 36 29 -0.0040004422916435365 1 1211.0 -0.0040004422916435365 1
gene  1 39 29 -0.027965478308748515 1 1214.0 -0.027965478308748515 1
gene  1 40 29 8.028567391765804E-5 1 1215.0 8.028567391765804E-5 1
gene  1 1 30 0.008038929319598714 0 1218.0 0.008038929319598714 1
gene  1 3 30 0.02237455499149579 0 1220.0 0.02237455499149579 1
gene  1 4 30 -0.858024347196709 0 1221.0 -0.858024347196709 1
gene  1 7 30 0.011836251178133653 0 1224.0 0.011836251178133653 1
gene  1 8 30 -0.04797496747256406 0 1225.0 -0.04797496747256406 0
gene  1 9 30 -0.038812006488878774 0 1226.0 -0.038812006488878774 1
gene  1 10 30 -0.003686256166177279 0 1227.0 -0.003686256166177279 1
gene  1 12 30 0.03208574731801539 0 1229.0 0.03208574731801539 1
gene  1 16 30 -0.005710774485303409 0 1233.0 -0.005710774485303409 1
gene  1 18 30 -0.01563130662221854 0 1235.0 -0.01563130662221854 0
gene  1 20 30 0.02293765199057629 0 1237.0 0.02293765199057629 1
gene  1 22 30 0.00200666658886846 0 1239.0 0.00200666658886846 1
gene  1 24 30 -0.019358370197813807 0 1241.0 -0.019358370197813807 1
gene  1 28 30 -0.01458250443011009 0 1245.0 -0.01458250443011009 1
gene  1 29 30 -0.007552754344449169 0 1246.0 -0.007552754344449169 1
gene  1 30 30 -0.03581877398107729 1 1247.0 -0.03581877398107729 1
gene  1 31 30 -0.06881230894549617 1 1248.0 -0.06881230894549617 1
gene  1 34 30 0.002100578238281947 1 1251.0 0.002100578238281947 1
gene  1 35 30 0.006032508626159273 1 1252.0 0.006032508626159273 0
gene  1 1 31 0.011828367998085707 0 1260.0 0.011828367998085707 1
gene  1 2 31 -0.348978531393943 0 1261.0 -0.348978531393943 1
gene  1 4 31 0.01977624128443802 0 1263.0 0.01977624128443802 1
gene  1 5 31 0.00661196682288844 0 1264.0 0.00661196682288844 0
gene  1 6 31 -0.023564928332633562 0 1265.0 -0.023564928332633562 0
gene  1 7 31 -0.02212462165904415 0 1266.0 -0.02212462165904415 0
gene  1 13 31 0.014270210858284626 0 1272.0 0.014270210858284626 1
gene  1 14 31 0.04442285334256686 0 1273.0 0.04442285334256686 1
gene  1 15 31 0.0010700587183366242 0 1274.0 0.0010700587183366242 1
gene  1 16 31 0.749260802433988 0 1275.0 0.749260802433988 1
gene  1 20 31 0.012792870614389384 0 1279.0 0.012792870614389384 1
gene  1 24 31 -0.009343310952932338 0 1283.0 -0.009343310952932338 0
gene  1 26 31 0.019564957083403105 0 1285.0 0.019564957083403105 1
gene  1 27 31 0.027709852960012254 0 1286.0 0.027709852960012254 1
gene  1 28 31 -0.0010552462278270742 0 1287.0 -0.0010552462278270742 1
gene  1 31 31 0.07350055174053545 1 1290.0 0.07350055174053545 1
gene  1 34 31 -0.031211818713487313 1 1293.0 -0.031211818713487313 1
gene  1 36 31 0.00838492352338041 1 1295.0 0.00838492352338041 0
gene  1 40 31 -0.008822301048696921 1 1299.0 -0.008822301048696921 1
gene  1 8 34 -0.8673514428779043 0 1393.0 -0.8673514428779043 1
gene  1 10 34 -0.045534471403159346 0 1395.0 -0.045534471403159346 0
gene  1 12 34 -0.0035728465254253354 0 1397.0 -0.0035728465254253354 1
gene  1 13 34 0.05170112896587278 0 1398.0 0.05170112896587278 0
gene  1 14 34 -0.027229379161993375 0 1399.0 -0.027229379161993375 0
gene  1 15 34 0.03892678360363923 0 1400.0 0.03892678360363923 1
gene  1 18 34 9.383509351679276E-4 0 1403.0 9.383509351679276E-4 0
gene  1 19 34 -0.011906456630184015 0 1404.0 -0.011906456630184015 1
gene  1 20 34 -0.0014310366034552859 0 1405.0 -0.0014310366034552859 0
gene  1 23 34 0.002587950319855677 0 1408.0 0.002587950319855677 1
gene  1 25 34 -0.0175413055460763 0 1410.0 -0.0175413055460763 1
gene  1 27 34 -0.8529384399809903 0 1412.0 -0.8529384399809903 0
gene  1 29 34 0.005864338830090472 0 1414.0 0.005864338830090472 1
gene  1 30 34 0.01380617769058214 0 1415.0 0.01380617769058214 1
gene  1 31 34 0.014252084524937328 0 1416.0 0.014252084524937328 0
gene  1 36 34 -0.01282546462546364 1 1421.0 -0.01282546462546364 1
gene  1 37 34 0.9712385103793705 1 1422.0 0.9712385103793705 1
gene  1 38 34 0.023541083156281426 1 1423.0 0.023541083156281426 1
gene  1 39 34 0.020364909665075405 1 1424.0 0.020364909665075405 1
gene  1 41 34 -0.008327921090264279 1 1426.0 -0.008327921090264279 1
gene  1 1 35 0.03231709259590353 0 1428.0 0.03231709259590353 0
gene  1 2 35 0.030427896035284868 0 1429.0 0.030427896035284868 1
gene  1 3 35 0.002460026059611516 0 1430.0 0.002460026059611516 1
gene  1 4 35 0.011643448199131093 0 1431.0 0.011643448199131093 1
gene  1 5 35 0.005726371808054754 0 1432.0 0.005726371808054754 1
gene  1 12 35 0.7048460457329303 0 1439.0 0.7048460457329303 1
gene  1 13 35 0.0026995546477270108 0 1440.0 0.0026995546477270108 1
gene  1 14 35 0.001427348112617759 0 1441.0 0.001427348112617759 0
gene  1 21 35 -0.012424646854309964 0 1448.0 -0.012424646854309964 0
gene  1 24 35 0.032042968171803944 0 1451.0 0.032042968171803944 1
gene  1 25 35 0.007482597666871303 0 1452.0 0.007482597666871303 1
gene  1 26 35 0.0274880511868296 0 1453.0 0.0274880511868296 1
gene  1 27 35 0.11750546895461154 0 1454.0 0.11750546895461154 1
gene  1 28 35 -0.0025202150182395563 0 1455.0 -0.0025202150182395563 1
gene  1 31 35 0.08191560521811724 0 1458.0 0.08191560521811724 1
gene  1 34 35 0.044335028134058166 0 1461.0 0.044335028134058166 0
gene  1 37 35 -0.9916160401257306 1 1464.0 -0.9916160401257306 1
gene  1 38 35 0.04507308897809688 1 1465.0 0.04507308897809688 1
gene  1 41 35 9.432462701293096E-5 1 1468.0 9.432462701293096E-5 1
gene  1 1 36 0.0479941460967171 0 1470.0 0.0479941460967171 1
gene  1 4 36 -0.02148758955812271 0 1473.0 -0.02148758955812271 1
gene  1 5 36 0.018474581930638168 0 1474.0 0.018474581930638168 0
gene  1 6 36 -0.00940196444482865 0 1475.0 -0.00940196444482865 1
gene  1 8 36 -0.002024488370595155 0 1477.0 -0.002024488370595155 1
gene  1 9 36 0.012068579148319093 0 1478.0 0.012068579148319093 1
gene  1 10 36 -0.2561220574291971 0 1479.0 -0.2561220574291971 1
gene  1 15 36 0.0578907086984006 0 1484.0 0.0578907086984006 1
gene  1 17 36 -0.012466599906429156 0 1486.0 -0.012466599906429156 1
gene  1 19 36 -0.0026687758134399508 0 1488.0 -0.0026687758134399508 1
gene  1 21 36 -0.0013273605255290115 0 1490.0 -0.0013273605255290115 1
gene  1 23 36 0.042091328663852394 0 1492.0 0.042091328663852394 0
gene  1 24 36 0.9318241207160277 0 1493.0 0.9318241207160277 1
gene  1 26 36 0.035772103493036854 0 1495.0 0.035772103493036854 0
gene  1 27 36 0.007728179307255662 0 1496.0 0.007728179307255662 1
gene  1 28 36 -0.013460491642435951 0 1497.0 -0.013460491642435951 1
gene  1 29 36 0.0363661186067574 0 1498.0 0.0363661186067574 1
gene  1 30 36 0.005329779378605073 0 1499.0 0.005329779378605073 1
gene  1 36 36 -0.0200030828875536 1 1505.0 -0.0200030828875536 0
gene  1 38 36 0.4873207303647236 1 1507.0 0.4873207303647236 1
gene  1 40 36 0.010759176156824927 1 1509.0 0.010759176156824927 1
gene  1 41 36 0.0020584388564982717 1 1510.0 0.0020584388564982717 0
gene  1 3 37 -0.02634723035091297 0 1514.0 -0.02634723035091297 1
gene  1 5 37 0.006001292218578156 0 1516.0 0.006001292218578156 1
gene  1 6 37 -0.02240829317043428 0 1517.0 -0.02240829317043428 1
gene  1 7 37 0.06279901458469513 0 1518.0 0.06279901458469513 0
gene  1 8 37 6.696014597009532E-4 0 1519.0 6.696014597009532E-4 1
gene  1 10 37 0.004370057767873773 0 1521.0 0.004370057767873773 1
gene  1 11 37 -0.009960334954378064 0 1522.0 -0.009960334954378064 0
gene  1 14 37 0.0023752395358504035 0 1525.0 0.0023752395358504035 1
gene  1 15 37 -0.0036181095887268602 0 1526.0 -0.0036181095887268602 1
gene  1 19 37 0.005137076950605473 0 1530.0 0.005137076950605473 1
gene  1 20 37 0.012595382363227107 0 1531.0 0.012595382363227107 1
gene  1 22 37 -0.04206292425789637 0 1533.0 -0.04206292425789637 1
gene  1 25 37 -0.05928388881767711 0 1536.0 -0.05928388881767711 1
gene  1 27 37 0.6940602093570353 0 1538.0 0.6940602093570353 1
gene  1 29 37 -0.025908585177149692 0 1540.0 -0.025908585177149692 1
gene  1 30 37 -0.0054422435332408745 0 1541.0 -0.0054422435332408745 0
gene  1 35 37 -0.028270745063987388 0 1546.0 -0.028270745063987388 0
gene  1 37 37 -0.06944118011953404 1 1548.0 -0.06944118011953404 1
gene  1 40 37 0.001289607861102323 1 1551.0 0.001289607861102323 1
gene  1 42 37 -0.005272309477653138 1 1553.0 -0.005272309477653138 1
gene  1 2 38 0.42614122679712946 0 1555.0 0.42614122679712946 1
gene  1 4 38 0.036494031192989704 0 1557.0 0.036494031192989704 1
gene  1 5 38 0.010770978616641714 0 1558.0 0.010770978616641714 0
gene  1 6 38 0.0221355928019735 0 1559.0 0.0221355928019735 0
gene  1 8 38 0.045162649557687756 0 1561.0 0.045162649557687756 1
gene  1 10 38 -0.014047845953753921 0 1563.0 -0.014047845953753921 0
gene  1 11 38 -0.0011393063971062633 0 1564.0 -0.0011393063971062633 1
gene  1 12 38 -0.02027542778385753 0 1565.0 -0.02027542778385753 1
gene  1 16 38 0.006039246423211495 0 1569.0 0.006039246423211495 1
gene  1 17 38 5.745773381010391E-4 0 1570.0 5.745773381010391E-4 1
gene  1 18 38 0.02427647321089386 0 1571.0 0.02427647321089386 0
gene  1 21 38 -0.06727415761152777 0 1574.0 -0.06727415761152777 1
gene  1 22 38 -0.017625169800159435 0 1575.0 -0.017625169800159435 1
gene  1 23 38 0.0030976952707153626 0 1576.0 0.0030976952707153626 1
gene  1 25 38 -0.022546904553532747 0 1578.0 -0.022546904553532747 0
gene  1 29 38 0.014031622432386929 0 1582.0 0.014031622432386929 1
gene  1 35 38 -0.010091605400442866 0 1588.0 -0.010091605400442866 1
gene  1 36 38 -0.32897171807270115 0 1589.0 -0.32897171807270115 1
gene  1 37 38 -0.00394026056973474 0 1590.0 -0.00394026056973474 0
gene  1 38 38 0.00945763395474238 1 1591.0 0.00945763395474238 1
gene  1 39 38 -0.0036916635613758885 1 1592.0 -0.0036916635613758885 1
gene  1 40 38 0.03776663164852671 1 1593.0 0.03776663164852671 0
gene  1 42 38 0.03367653334043707 1 1595.0 0.03367653334043707 1
gene  1 2 39 -0.01237151259031494 0 1597.0 -0.01237151259031494 1
gene  1 5 39 -0.026684819065433858 0 1600.0 -0.026684819065433858 0
gene  1 6 39 0.029588400175631364 0 1601.0 0.029588400175631364 0
gene  1 7 39 0.015567080023050857 0 1602.0 0.015567080023050857 1
gene  1 9 39 3.901568773237052E-4 0 1604.0 3.901568773237052E-4 0
gene  1 12 39 0.010078089224148486 0 1607.0 0.010078089224148486 1
gene  1 13 39 0.019137102375511035 0 1608.0 0.019137102375511035 1
gene  1 15 39 0.05304874138753415 0 1610.0 0.05304874138753415 1
gene  1 16 39 -0.020817760696759332 0 1611.0 -0.020817760696759332 1
gene  1 17 39 0.01853950749192638 0 1612.0 0.01853950749192638 1
gene  1 18 39 -0.04776345197606947 0 1613.0 -0.04776345197606947 1
gene  1 24 39 0.46177288328298005 0 1619.0 0.46177288328298005 0
gene  1 25 39 0.05339184142053463 0 1620.0 0.05339184142053463 1
gene  1 28 39 0.023943243454075308 0 1623.0 0.023943243454075308 1
gene  1 31 39 0.017107895053968356 0 1626.0 0.017107895053968356 0
gene  1 36 39 -0.026555763104952952 0 1631.0 -0.026555763104952952 1
gene  1 37 39 3.349110066139492E-4 0 1632.0 3.349110066139492E-4 1
gene  1 38 39 -0.021228009813799423 0 1633.0 -0.021228009813799423 1
gene  1 40 39 0.013326936756950524 1 1635.0 0.013326936756950524 1
gene  1 2 40 0.8981415586732924 0 1639.0 0.8981415586732924 1
gene  1 5 40 0.24673879730912007 0 1642.0 0.24673879730912007 1
gene  1 7 40 -0.02428600159061732 0 1644.0 -0.02428600159061732 0
gene  1 9 40 -0.009381303008205685 0 1646.0 -0.009381303008205685 1
gene  1 10 40 -0.04226858091707082 0 1647.0 -0.04226858091707082 0
gene  1 11 40 -0.08367980735962187 0 1648.0 -0.08367980735962187 1
gene  1 14 40 0.007079537428685363 0 1651.0 0.007079537428685363 0
gene  1 16 40 -0.0014983033446978665 0 1653.0 -0.0014983033446978665 1
gene  1 20 40 0.4439345594268183 0 1657.0 0.4439345594268183 0
gene  1 25 40 -0.006715038212530194 0 1662.0 -0.006715038212530194 1
gene  1 27 40 0.006026495163308467 0 1664.0 0.006026495163308467 1
gene  1 29 40 -0.014786197897016986 0 1666.0 -0.014786197897016986 1
gene  1 34 40 0.004410238952494242 0 1671.0 0.004410238952494242 1
gene  1 36 40 -0.053956555580090014 0 1673.0 -0.053956555580090014 1
gene  1 37 40 3.8184054601549285E-4 0 1674.0 3.8184054601549285E-4 1
gene  1 39 40 0.01862927618255121 0 1676.0 0.01862927618255121 0
gene  1 41 40 1.5438881488479776E-4 1 1678.0 1.5438881488479776E-4 1
gene  1 42 40 0.028354332387845994 1 1679.0 0.028354332387845994 1
gene  1 4 41 0.0442295812986164 0 1683.0 0.0442295812986164 1
gene  1 5 41 0.0018879970231830577 0 1684.0 0.0018879970231830577 1
gene  1 6 41 -0.0013809315246917924 0 1685.0 -0.0013809315246917924 0
gene  1 12 41 -0.05378664025892709 0 1691.0 -0.05378664025892709 1
gene  1 14 41 -0.02813343264585044 0 1693.0 -0.02813343264585044 1
gene  1 16 41 -0.015798373231672474 0 1695.0 -0.015798373231672474 1
gene  1 20 41 0.00518501180206457 0 1699.0 0.00518501180206457 1
gene  1 21 41 0.003422030462264394 0 1700.0 0.003422030462264394 1
gene  1 24 41 2.9707523838231535E-4 0 1703.0 2.9707523838231535E-4 1
gene  1 28 41 0.0015098811204594872 0 1707.0 0.0015098811204594872 1
gene  1 30 41 -0.012169632713080204 0 1709.0 -0.012169632713080204 0
gene  1 31 41 0.007846896902340101 0 1710.0 0.007846896902340101 0
gene  1 38 41 0.006914768295578692 0 1717.0 0.006914768295578692 1
gene  1 40 41 0.07880503366735078 0 1719.0 0.07880503366735078 1
gene  1 41 41 0.06653800555450895 1 1720.0 0.06653800555450895 1
gene  1 42 41 -4.118178948434893E-4 1 1721.0 -4.118178948434893E-4 1
gene  1 1 42 -0.01069994493716645 0 1722.0 -0.01069994493716645 1
gene  1 3 42 0.013268616241356612 0 1724.0 0.013268616241356612 1
gene  1 4 42 0.04255293336429647 0 1725.0 0.04255293336429647 1
gene  1 8 42 0.003036995497754551 0 1729.0 0.003036995497754551 1
gene  1 10 42 0.015343303600925133 0 1731.0 0.015343303600925133 1
gene  1 11 42 0.026497243055050648 0 1732.0 0.026497243055050648 1
gene  1 12 42 0.007313201567240864 0 1733.0 0.007313201567240864 0
gene  1 16 42 -0.03542603775858098 0 1737.0 -0.03542603775858098 1
gene  1 17 42 0.07408270452163115 0 1738.0 0.07408270452163115 1
gene  1 23 42 0.04194992140147452 0 1744.0 0.04194992140147452 1
gene  1 24 42 -0.010391142023750886 0 1745.0 -0.010391142023750886 0
gene  1 25 42 -0.037076149322864106 0 1746.0 -0.037076149322864106 1
gene  1 26 42 0.008177106247558264 0 1747.0 0.008177106247558264 1
gene  1 29 42 0.009805993715128584 0 1750.0 0.009805993715128584 0
gene  1 31 42 -0.8138735049327016 0 1752.0 -0.8138735049327016 1
gene  1 34 42 0.008201644506204754 0 1755.0 0.008201644506204754 1
gene  1 36 42 0.03617151890734976 0 1757.0 0.03617151890734976 0
gene  1 40 42 0.005195510335343279 0 1761.0 0.005195510335343279 0
gene  1 41 43 -0.02601605923476942 1 1765.0 -0.02601605923476942 1
gene  1 43 35 0.04140534862813039 0 1766.0 0.04140534862813039 1
gene  1 41 273 -0.001021608265591693 1 2225.0 -0.001021608265591693 0
gene  1 273 34 -0.002221973187761966 0 2226.0 -0.002221973187761966 0
