/* Species # 003         : (size= 003) (AvfFit= 76.812) (Age= 2.000)  */
/*-------------------------------------------------------------------*/
/* Organism # 000 Fitness:  0.000 Error:  0.000                      */
genomestart  0
trait 1 0.0 0.0 0.0 0.0 0.0 0.0 0.0 0.0 
node 1 1 1 1
node 2 1 1 1
node 3 1 1 1
node 4 1 1 1
node 5 1 1 1
node 6 1 1 1
node 7 1 1 1
node 8 1 1 1
node 9 1 1 1
node 10 1 1 1
node 11 1 1 1
node 12 1 1 1
node 13 1 1 1
node 14 1 1 1
node 15 1 1 1
node 16 1 1 1
node 17 1 1 1
node 18 1 1 1
node 19 1 1 1
node 20 1 1 1
node 21 1 1 1
node 22 1 1 1
node 23 1 1 1
node 24 1 1 1
node 25 1 1 1
node 26 1 1 1
node 27 1 1 1
node 28 1 1 3
node 29 1 0 0
node 30 1 0 0
node 31 1 0 0
node 34 1 0 2
node 35 1 0 2
node 36 1 0 2
node 37 1 0 2
node 38 1 0 2
node 39 1 0 2
node 40 1 0 2
node 41 1 0 2
node 42 1 0 2
node 43 1 0 0
gene  1 2 29 0.7305803806856196 0 1177.0 0.7305803806856196 1
gene  1 4 29 0.27908504925505906 0 1179.0 0.27908504925505906 1
gene  1 6 29 -0.3745587057702764 0 1181.0 -0.3745587057702764 1
gene  1 8 29 -0.5700805679043079 0 1183.0 -0.5700805679043079 1
gene  1 15 29 -0.6646204571377342 0 1190.0 -0.6646204571377342 1
gene  1 16 29 -0.34247783405123466 0 1191.0 -0.34247783405123466 1
gene  1 17 29 -0.7842736294585234 0 1192.0 -0.7842736294585234 1
gene  1 18 29 0.12324378132594516 0 1193.0 0.12324378132594516 1
gene  1 23 29 0.3118198330298577 0 1198.0 0.3118198330298577 1
gene  1 24 29 -0.8773869216437895 0 1199.0 -0.8773869216437895 1
gene  1 26 29 -0.580826473867728 0 1201.0 -0.580826473867728 1
gene  1 28 29 0.6818989680734897 0 1203.0 0.6818989680734897 1
gene  1 30 29 0.722640115253041 1 1205.0 0.722640115253041 1
gene  1 34 29 -0.5757607437543042 1 1209.0 -0.5757607437543042 1
gene  1 35 29 -0.9582270829751282 1 1210.0 -0.9582270829751282 1
gene  1 37 29 -0.5926482548563589 1 1212.0 -0.5926482548563589 1
gene  1 38 29 0.3280605962426911 1 1213.0 0.3280605962426911 1
gene  1 40 29 -0.7112363264602262 1 1215.0 -0.7112363264602262 1
gene  1 6 30 0.6318821576676544 0 1223.0 0.6318821576676544 1
gene  1 8 30 -0.2890400443097725 0 1225.0 -0.2890400443097725 1
gene  1 9 30 0.048953092821103605 0 1226.0 0.048953092821103605 1
gene  1 15 30 -0.7888779795673749 0 1232.0 -0.7888779795673749 1
gene  1 16 30 0.36655578686971524 0 1233.0 0.36655578686971524 1
gene  1 17 30 -0.5443603316438963 0 1234.0 -0.5443603316438963 1
gene  1 21 30 0.41635848905987305 0 1238.0 0.41635848905987305 1
gene  1 22 30 -0.8368697452544362 0 1239.0 -0.8368697452544362 1
gene  1 25 30 0.32477822991155125 0 1242.0 0.32477822991155125 1
gene  1 26 30 -0.32538386987099666 0 1243.0 -0.32538386987099666 1
gene  1 29 30 -0.4838113512337119 0 1246.0 -0.4838113512337119 1
gene  1 30 30 -0.8915439402413552 1 1247.0 -0.8915439402413552 1
gene  1 31 30 -0.4371094672447312 1 1248.0 -0.4371094672447312 1
gene  1 37 30 0.05488601952065886 1 1254.0 0.05488601952065886 1
gene  1 38 30 0.43583414068434134 1 1255.0 0.43583414068434134 1
gene  1 39 30 0.34877607715570946 1 1256.0 0.34877607715570946 1
gene  1 40 30 0.26765511844736967 1 1257.0 0.26765511844736967 1
gene  1 41 30 -0.27825087515619273 1 1258.0 -0.27825087515619273 1
gene  1 42 30 0.9630924061604068 1 1259.0 0.9630924061604068 1
gene  1 1 31 0.2685974171970812 0 1260.0 0.2685974171970812 1
gene  1 3 31 0.1914528165335736 0 1262.0 0.1914528165335736 1
gene  1 4 31 0.7468180945590791 0 1263.0 0.7468180945590791 1
gene  1 6 31 0.5174766599372731 0 1265.0 0.5174766599372731 1
gene  1 7 31 -0.20028885954861297 0 1266.0 -0.20028885954861297 1
gene  1 10 31 0.28373969961792855 0 1269.0 0.28373969961792855 1
gene  1 15 31 0.3567927545325915 0 1274.0 0.3567927545325915 1
gene  1 16 31 0.2969376719658845 0 1275.0 0.2969376719658845 1
gene  1 17 31 -0.5885093836032951 0 1276.0 -0.5885093836032951 1
gene  1 19 31 -0.4229983288875572 0 1278.0 -0.4229983288875572 1
gene  1 20 31 0.593576059762329 0 1279.0 0.593576059762329 1
gene  1 22 31 -0.2920068869173936 0 1281.0 -0.2920068869173936 1
gene  1 23 31 0.6953448667993187 0 1282.0 0.6953448667993187 1
gene  1 24 31 -0.3677550487846446 0 1283.0 -0.3677550487846446 1
gene  1 26 31 0.5501088463644976 0 1285.0 0.5501088463644976 1
gene  1 27 31 0.48971634553749477 0 1286.0 0.48971634553749477 1
gene  1 28 31 -0.2685767018807861 0 1287.0 -0.2685767018807861 1
gene  1 29 31 -0.2284381053237794 0 1288.0 -0.2284381053237794 1
gene  1 30 31 0.9339861331015629 0 1289.0 0.9339861331015629 1
gene  1 34 31 0.6465999265238608 1 1293.0 0.6465999265238608 1
gene  1 35 31 -0.8648798650341236 1 1294.0 -0.8648798650341236 1
gene  1 38 31 -0.9266442444720109 1 1297.0 -0.9266442444720109 1
gene  1 40 31 0.018295255035893243 1 1299.0 0.018295255035893243 1
gene  1 41 31 0.16549339054836498 1 1300.0 0.16549339054836498 1
gene  1 1 34 0.9318538585664186 0 1386.0 0.9318538585664186 0
gene  1 2 34 0.13072563184643993 0 1387.0 0.13072563184643993 1
gene  1 6 34 0.2888333908152122 0 1391.0 0.2888333908152122 1
gene  1 8 34 0.030211490144288478 0 1393.0 0.030211490144288478 1
gene  1 12 34 0.020432837110950897 0 1397.0 0.020432837110950897 1
gene  1 14 34 -0.35389422395997605 0 1399.0 -0.35389422395997605 1
gene  1 16 34 0.7059220798513961 0 1401.0 0.7059220798513961 1
gene  1 18 34 -0.44150024738234606 0 1403.0 -0.44150024738234606 1
gene  1 20 34 0.06685241097324424 0 1405.0 0.06685241097324424 1
gene  1 21 34 -0.5836160279892287 0 1406.0 -0.5836160279892287 1
gene  1 22 34 -0.439683031181328 0 1407.0 -0.439683031181328 1
gene  1 23 34 -0.46494851773979484 0 1408.0 -0.46494851773979484 1
gene  1 24 34 0.7003830607952254 0 1409.0 0.7003830607952254 1
gene  1 25 34 0.022878358173581193 0 1410.0 0.022878358173581193 1
gene  1 26 34 0.607474047895409 0 1411.0 0.607474047895409 1
gene  1 27 34 -0.3391775034370178 0 1412.0 -0.3391775034370178 1
gene  1 29 34 0.3207632220995972 0 1414.0 0.3207632220995972 1
gene  1 31 34 -0.4182808743424449 0 1416.0 -0.4182808743424449 1
gene  1 34 34 0.692181471294044 1 1419.0 0.692181471294044 1
gene  1 35 34 -0.027369561113101848 1 1420.0 -0.027369561113101848 1
gene  1 37 34 -0.9908446454346803 1 1422.0 -0.9908446454346803 1
gene  1 42 34 -0.5395193719857393 1 1427.0 -0.5395193719857393 1
gene  1 6 35 -0.7480782634656991 0 1433.0 -0.7480782634656991 1
gene  1 7 35 0.538178855317952 0 1434.0 0.538178855317952 1
gene  1 8 35 0.4204338367879953 0 1435.0 0.4204338367879953 1
gene  1 11 35 0.781772245387078 0 1438.0 0.781772245387078 1
gene  1 12 35 -0.3017117027020192 0 1439.0 -0.3017117027020192 1
gene  1 13 35 -0.6387956128119452 0 1440.0 -0.6387956128119452 1
gene  1 14 35 -0.813595440407714 0 1441.0 -0.813595440407714 1
gene  1 16 35 -0.5682067673041828 0 1443.0 -0.5682067673041828 1
gene  1 18 35 0.6703821144645086 0 1445.0 0.6703821144645086 1
gene  1 22 35 0.9632961279074992 0 1449.0 0.9632961279074992 1
gene  1 24 35 -0.6225599502141064 0 1451.0 -0.6225599502141064 1
gene  1 25 35 0.325117405557135 0 1452.0 0.325117405557135 1
gene  1 26 35 -0.6886920243792072 0 1453.0 -0.6886920243792072 1
gene  1 28 35 -0.547657434096031 0 1455.0 -0.547657434096031 1
gene  1 31 35 0.22751853775652164 0 1458.0 0.22751853775652164 1
gene  1 35 35 0.7372859791328107 1 1462.0 0.7372859791328107 1
gene  1 37 35 -0.03973379656375742 1 1464.0 -0.03973379656375742 1
gene  1 38 35 -0.34758531919042834 1 1465.0 -0.34758531919042834 1
gene  1 7 36 -0.8455258393969753 0 1476.0 -0.8455258393969753 1
gene  1 8 36 -0.8255844226755168 0 1477.0 -0.8255844226755168 1
gene  1 11 36 0.3139710807513134 0 1480.0 0.3139710807513134 1
gene  1 13 36 0.8996012975070655 0 1482.0 0.8996012975070655 1
gene  1 14 36 0.08788627261619819 0 1483.0 0.08788627261619819 1
gene  1 16 36 -0.041569304518255135 0 1485.0 -0.041569304518255135 1
gene  1 19 36 -0.894855983648316 0 1488.0 -0.894855983648316 1
gene  1 23 36 0.5370440908839401 0 1492.0 0.5370440908839401 1
gene  1 27 36 -0.23005607493600377 0 1496.0 -0.23005607493600377 1
gene  1 28 36 0.0731660331709253 0 1497.0 0.0731660331709253 1
gene  1 29 36 0.9216856991447923 0 1498.0 0.9216856991447923 1
gene  1 35 36 -0.2725191349503101 0 1504.0 -0.2725191349503101 1
gene  1 39 36 0.5494179779597742 1 1508.0 0.5494179779597742 1
gene  1 40 36 0.7892010717051533 1 1509.0 0.7892010717051533 1
gene  1 1 37 0.07999359837184405 0 1512.0 0.07999359837184405 1
gene  1 4 37 -0.8930112124033174 0 1515.0 -0.8930112124033174 1
gene  1 6 37 -0.8143166445516631 0 1517.0 -0.8143166445516631 1
gene  1 7 37 -0.7155873188065678 0 1518.0 -0.7155873188065678 1
gene  1 8 37 -0.28761319280318354 0 1519.0 -0.28761319280318354 1
gene  1 11 37 -0.0038658262698763046 0 1522.0 -0.0038658262698763046 1
gene  1 17 37 -0.8843946688663756 0 1528.0 -0.8843946688663756 1
gene  1 19 37 -0.48884309674796245 0 1530.0 -0.48884309674796245 1
gene  1 20 37 0.49705430853501953 0 1531.0 0.49705430853501953 1
gene  1 21 37 -0.7080291580722197 0 1532.0 -0.7080291580722197 1
gene  1 23 37 0.29133054404925385 0 1534.0 0.29133054404925385 1
gene  1 24 37 -0.8391502474894988 0 1535.0 -0.8391502474894988 1
gene  1 25 37 -0.6354625790167865 0 1536.0 -0.6354625790167865 1
gene  1 27 37 0.5565706649802911 0 1538.0 0.5565706649802911 1
gene  1 28 37 0.9162148854739154 0 1539.0 0.9162148854739154 1
gene  1 29 37 0.14052822703095802 0 1540.0 0.14052822703095802 1
gene  1 30 37 -0.012550508822525508 0 1541.0 -0.012550508822525508 1
gene  1 31 37 -0.07923087954342789 0 1542.0 -0.07923087954342789 1
gene  1 34 37 -0.4425494796255699 0 1545.0 -0.4425494796255699 1
gene  1 36 37 0.3644862917914704 0 1547.0 0.3644862917914704 1
gene  1 37 37 0.5017142806042351 1 1548.0 0.5017142806042351 1
gene  1 38 37 -0.05754569689982658 1 1549.0 -0.05754569689982658 1
gene  1 40 37 -0.04162812465569754 1 1551.0 -0.04162812465569754 1
gene  1 2 38 -0.17966377854947124 0 1555.0 -0.17966377854947124 1
gene  1 5 38 0.14419017950407076 0 1558.0 0.14419017950407076 1
gene  1 6 38 0.18038257487569387 0 1559.0 0.18038257487569387 1
gene  1 8 38 0.8111496525028913 0 1561.0 0.8111496525028913 1
gene  1 9 38 0.8567960654122022 0 1562.0 0.8567960654122022 1
gene  1 11 38 -0.04153127985260241 0 1564.0 -0.04153127985260241 1
gene  1 13 38 0.499239049492456 0 1566.0 0.499239049492456 1
gene  1 14 38 -0.33148314976810955 0 1567.0 -0.33148314976810955 1
gene  1 18 38 0.82854846605609 0 1571.0 0.82854846605609 1
gene  1 20 38 0.03575281294601429 0 1573.0 0.03575281294601429 1
gene  1 22 38 -0.3395341899700792 0 1575.0 -0.3395341899700792 1
gene  1 23 38 -0.49209645246485145 0 1576.0 -0.49209645246485145 1
gene  1 25 38 0.08941228445985461 0 1578.0 0.08941228445985461 1
gene  1 27 38 -0.5739289847694566 0 1580.0 -0.5739289847694566 1
gene  1 28 38 -0.9198765398639146 0 1581.0 -0.9198765398639146 1
gene  1 30 38 0.56018065286207 0 1583.0 0.56018065286207 1
gene  1 31 38 -0.8333996828622947 0 1584.0 -0.8333996828622947 1
gene  1 37 38 0.7064262059438046 0 1590.0 0.7064262059438046 1
gene  1 1 39 0.7637999221220821 0 1596.0 0.7637999221220821 1
gene  1 2 39 -0.5732491981008067 0 1597.0 -0.5732491981008067 1
gene  1 3 39 -0.6575309764365884 0 1598.0 -0.6575309764365884 1
gene  1 5 39 0.563805294451483 0 1600.0 0.563805294451483 1
gene  1 6 39 0.17197999109061635 0 1601.0 0.17197999109061635 1
gene  1 7 39 0.21812100445872318 0 1602.0 0.21812100445872318 1
gene  1 9 39 0.5072710114764326 0 1604.0 0.5072710114764326 1
gene  1 10 39 -0.13206875144832209 0 1605.0 -0.13206875144832209 1
gene  1 11 39 -0.15611134463122656 0 1606.0 -0.15611134463122656 1
gene  1 13 39 -0.7627537523113638 0 1608.0 -0.7627537523113638 1
gene  1 15 39 -0.11571286417648696 0 1610.0 -0.11571286417648696 1
gene  1 16 39 -0.2315960366927261 0 1611.0 -0.2315960366927261 1
gene  1 17 39 -0.6514465598473352 0 1612.0 -0.6514465598473352 1
gene  1 18 39 0.6092892352436579 0 1613.0 0.6092892352436579 1
gene  1 20 39 0.6603723095275265 0 1615.0 0.6603723095275265 1
gene  1 22 39 -0.3809006126747607 0 1617.0 -0.3809006126747607 1
gene  1 24 39 0.8408558016171844 0 1619.0 0.8408558016171844 1
gene  1 25 39 -0.08269734564357378 0 1620.0 -0.08269734564357378 1
gene  1 27 39 -0.5082652547233443 0 1622.0 -0.5082652547233443 1
gene  1 28 39 -0.5682353334375722 0 1623.0 -0.5682353334375722 1
gene  1 31 39 0.5909179118791943 0 1626.0 0.5909179118791943 1
gene  1 34 39 -0.027721398868490454 0 1629.0 -0.027721398868490454 1
gene  1 35 39 -0.37918731792571947 0 1630.0 -0.37918731792571947 1
gene  1 38 39 0.7849168093275255 0 1633.0 0.7849168093275255 1
gene  1 40 39 -0.35613343179871926 1 1635.0 -0.35613343179871926 1
gene  1 2 40 -0.19747670434481268 0 1639.0 -0.19747670434481268 1
gene  1 4 40 0.7758723588850518 0 1641.0 0.7758723588850518 1
gene  1 5 40 -0.7137644554456696 0 1642.0 -0.7137644554456696 1
gene  1 6 40 -0.22136415165972378 0 1643.0 -0.22136415165972378 1
gene  1 9 40 0.741947560446729 0 1646.0 0.741947560446729 1
gene  1 11 40 0.7144175230254826 0 1648.0 0.7144175230254826 1
gene  1 15 40 0.9808537929931721 0 1652.0 0.9808537929931721 1
gene  1 21 40 -0.7799362129930988 0 1658.0 -0.7799362129930988 1
gene  1 22 40 0.9775566658763878 0 1659.0 0.9775566658763878 1
gene  1 23 40 0.35484951591874236 0 1660.0 0.35484951591874236 1
gene  1 24 40 -0.43234652049086564 0 1661.0 -0.43234652049086564 1
gene  1 27 40 0.27475211286312806 0 1664.0 0.27475211286312806 1
gene  1 29 40 0.09560861453059377 0 1666.0 0.09560861453059377 1
gene  1 34 40 0.1551624103095094 0 1671.0 0.1551624103095094 1
gene  1 35 40 -0.6008304439942892 0 1672.0 -0.6008304439942892 1
gene  1 37 40 -0.3358726397564924 0 1674.0 -0.3358726397564924 1
gene  1 39 40 -0.2752736303484473 0 1676.0 -0.2752736303484473 1
gene  1 42 40 0.33715528296313846 1 1679.0 0.33715528296313846 1
gene  1 1 41 -0.7846089381393763 0 1680.0 -0.7846089381393763 1
gene  1 2 41 0.938363465351666 0 1681.0 0.938363465351666 1
gene  1 3 41 0.4552954245373164 0 1682.0 0.4552954245373164 1
gene  1 4 41 0.3028805041070922 0 1683.0 0.3028805041070922 1
gene  1 6 41 0.432823452672189 0 1685.0 0.432823452672189 1
gene  1 8 41 -0.07113247214274043 0 1687.0 -0.07113247214274043 1
gene  1 10 41 -0.6090643110607915 0 1689.0 -0.6090643110607915 1
gene  1 11 41 0.8298023713547227 0 1690.0 0.8298023713547227 1
gene  1 14 41 0.06014909501028354 0 1693.0 0.06014909501028354 1
gene  1 15 41 0.4777728123605579 0 1694.0 0.4777728123605579 1
gene  1 16 41 -0.0032603166293661 0 1695.0 -0.0032603166293661 1
gene  1 18 41 0.4135571528687343 0 1697.0 0.4135571528687343 1
gene  1 19 41 0.004925992593892148 0 1698.0 0.004925992593892148 1
gene  1 20 41 0.6152056060671065 0 1699.0 0.6152056060671065 1
gene  1 23 41 0.5159770246932069 0 1702.0 0.5159770246932069 1
gene  1 25 41 -0.6415667136560891 0 1704.0 -0.6415667136560891 1
gene  1 26 41 -0.5887030614429555 0 1705.0 -0.5887030614429555 1
gene  1 31 41 -0.32069184813304974 0 1710.0 -0.32069184813304974 1
gene  1 34 41 0.4830029784604708 0 1713.0 0.4830029784604708 1
gene  1 35 41 -0.4501387205150411 0 1714.0 -0.4501387205150411 1
gene  1 36 41 -0.7748775707684693 0 1715.0 -0.7748775707684693 1
gene  1 1 42 0.2124400782229161 0 1722.0 0.2124400782229161 1
gene  1 2 42 0.739549084096902 0 1723.0 0.739549084096902 1
gene  1 3 42 0.13290185715806624 0 1724.0 0.13290185715806624 1
gene  1 4 42 -0.1978913535242075 0 1725.0 -0.1978913535242075 1
gene  1 7 42 -0.43783069485928583 0 1728.0 -0.43783069485928583 1
gene  1 10 42 0.9598335635423623 0 1731.0 0.9598335635423623 1
gene  1 13 42 -0.9796752391943129 0 1734.0 -0.9796752391943129 1
gene  1 15 42 -0.427642636062742 0 1736.0 -0.427642636062742 1
gene  1 16 42 0.3748439679126272 0 1737.0 0.3748439679126272 1
gene  1 17 42 0.17111097579302925 0 1738.0 0.17111097579302925 1
gene  1 18 42 0.9917230739663971 0 1739.0 0.9917230739663971 1
gene  1 20 42 -0.8286191689979528 0 1741.0 -0.8286191689979528 1
gene  1 21 42 -0.36962260267180047 0 1742.0 -0.36962260267180047 1
gene  1 22 42 -0.4563682654981096 0 1743.0 -0.4563682654981096 1
gene  1 27 42 0.6607463959544223 0 1748.0 0.6607463959544223 1
gene  1 28 42 0.19885345313273417 0 1749.0 0.19885345313273417 1
gene  1 36 42 -0.6236067296950408 0 1757.0 -0.6236067296950408 1
gene  1 40 42 -0.5573038042202706 0 1761.0 -0.5573038042202706 1
gene  1 41 42 0.843234230118447 0 1762.0 0.843234230118447 1
gene  1 1 43 1.0 0 1765.0 0.0 1
gene  1 43 34 0.9318538585664186 0 1766.0 0.0 1
genomeend 0
/* Organism # 001 Fitness:  0.000 Error:  0.000                      */
genomestart  1
trait 1 0.0 0.0 0.0 0.0 0.0 0.0 0.0 0.0 
node 1 1 1 1
node 2 1 1 1
node 3 1 1 1
node 4 1 1 1
node 5 1 1 1
node 6 1 1 1
node 7 1 1 1
node 8 1 1 1
node 9 1 1 1
node 10 1 1 1
node 11 1 1 1
node 12 1 1 1
node 13 1 1 1
node 14 1 1 1
node 15 1 1 1
node 16 1 1 1
node 17 1 1 1
node 18 1 1 1
node 19 1 1 1
node 20 1 1 1
node 21 1 1 1
node 22 1 1 1
node 23 1 1 1
node 24 1 1 1
node 25 1 1 1
node 26 1 1 1
node 27 1 1 1
node 28 1 1 3
node 29 1 0 0
node 30 1 0 0
node 31 1 0 0
node 34 1 0 2
node 35 1 0 2
node 36 1 0 2
node 37 1 0 2
node 38 1 0 2
node 39 1 0 2
node 40 1 0 2
node 41 1 0 2
node 42 1 0 2
gene  1 2 29 0.7305803806856196 0 1177.0 0.7305803806856196 1
gene  1 4 29 0.27908504925505906 0 1179.0 0.27908504925505906 1
gene  1 6 29 -0.3745587057702764 0 1181.0 -0.3745587057702764 1
gene  1 8 29 -0.5700805679043079 0 1183.0 -0.5700805679043079 1
gene  1 15 29 -0.6646204571377342 0 1190.0 -0.6646204571377342 1
gene  1 16 29 -0.34247783405123466 0 1191.0 -0.34247783405123466 1
gene  1 17 29 -0.7842736294585234 0 1192.0 -0.7842736294585234 1
gene  1 18 29 0.12324378132594516 0 1193.0 0.12324378132594516 1
gene  1 23 29 0.3118198330298577 0 1198.0 0.3118198330298577 1
gene  1 24 29 -0.8773869216437895 0 1199.0 -0.8773869216437895 1
gene  1 26 29 -0.580826473867728 0 1201.0 -0.580826473867728 1
gene  1 28 29 0.6818989680734897 0 1203.0 0.6818989680734897 1
gene  1 30 29 0.722640115253041 1 1205.0 0.722640115253041 1
gene  1 34 29 -0.5757607437543042 1 1209.0 -0.5757607437543042 1
gene  1 35 29 -0.9582270829751282 1 1210.0 -0.9582270829751282 1
gene  1 37 29 -0.5926482548563589 1 1212.0 -0.5926482548563589 1
gene  1 38 29 0.3280605962426911 1 1213.0 0.3280605962426911 1
gene  1 40 29 -0.7112363264602262 1 1215.0 -0.7112363264602262 1
gene  1 6 30 0.6318821576676544 0 1223.0 0.6318821576676544 1
gene  1 8 30 -0.2890400443097725 0 1225.0 -0.2890400443097725 1
gene  1 9 30 0.048953092821103605 0 1226.0 0.048953092821103605 1
gene  1 15 30 -0.7888779795673749 0 1232.0 -0.7888779795673749 1
gene  1 16 30 0.36655578686971524 0 1233.0 0.36655578686971524 1
gene  1 17 30 -0.5443603316438963 0 1234.0 -0.5443603316438963 1
gene  1 21 30 0.41635848905987305 0 1238.0 0.41635848905987305 1
gene  1 22 30 -0.8368697452544362 0 1239.0 -0.8368697452544362 1
gene  1 25 30 0.32477822991155125 0 1242.0 0.32477822991155125 1
gene  1 26 30 -0.32538386987099666 0 1243.0 -0.32538386987099666 1
gene  1 29 30 -0.4838113512337119 0 1246.0 -0.4838113512337119 1
gene  1 30 30 -0.8915439402413552 1 1247.0 -0.8915439402413552 1
gene  1 31 30 -0.4371094672447312 1 1248.0 -0.4371094672447312 1
gene  1 37 30 0.05488601952065886 1 1254.0 0.05488601952065886 1
gene  1 38 30 0.43583414068434134 1 1255.0 0.43583414068434134 1
gene  1 39 30 0.34877607715570946 1 1256.0 0.34877607715570946 1
gene  1 40 30 0.26765511844736967 1 1257.0 0.26765511844736967 1
gene  1 41 30 -0.27825087515619273 1 1258.0 -0.27825087515619273 1
gene  1 42 30 0.9630924061604068 1 1259.0 0.9630924061604068 1
gene  1 1 31 0.2685974171970812 0 1260.0 0.2685974171970812 1
gene  1 3 31 0.1914528165335736 0 1262.0 0.1914528165335736 1
gene  1 4 31 0.7468180945590791 0 1263.0 0.7468180945590791 1
gene  1 6 31 0.5174766599372731 0 1265.0 0.5174766599372731 1
gene  1 7 31 -0.20028885954861297 0 1266.0 -0.20028885954861297 1
gene  1 10 31 0.28373969961792855 0 1269.0 0.28373969961792855 1
gene  1 15 31 0.3567927545325915 0 1274.0 0.3567927545325915 1
gene  1 16 31 0.2969376719658845 0 1275.0 0.2969376719658845 1
gene  1 17 31 -0.5885093836032951 0 1276.0 -0.5885093836032951 1
gene  1 19 31 -0.4229983288875572 0 1278.0 -0.4229983288875572 1
gene  1 20 31 0.593576059762329 0 1279.0 0.593576059762329 1
gene  1 22 31 -0.2920068869173936 0 1281.0 -0.2920068869173936 1
gene  1 23 31 0.6953448667993187 0 1282.0 0.6953448667993187 1
gene  1 24 31 -0.3677550487846446 0 1283.0 -0.3677550487846446 1
gene  1 26 31 0.5501088463644976 0 1285.0 0.5501088463644976 1
gene  1 27 31 0.48971634553749477 0 1286.0 0.48971634553749477 1
gene  1 28 31 -0.2685767018807861 0 1287.0 -0.2685767018807861 1
gene  1 29 31 -0.2284381053237794 0 1288.0 -0.2284381053237794 1
gene  1 30 31 0.9339861331015629 0 1289.0 0.9339861331015629 1
gene  1 34 31 0.6465999265238608 1 1293.0 0.6465999265238608 1
gene  1 35 31 -0.8648798650341236 1 1294.0 -0.8648798650341236 1
gene  1 38 31 -0.9266442444720109 1 1297.0 -0.9266442444720109 1
gene  1 40 31 0.018295255035893243 1 1299.0 0.018295255035893243 1
gene  1 41 31 0.16549339054836498 1 1300.0 0.16549339054836498 1
gene  1 1 34 0.9318538585664186 0 1386.0 0.9318538585664186 1
gene  1 2 34 0.13072563184643993 0 1387.0 0.13072563184643993 1
gene  1 6 34 0.2888333908152122 0 1391.0 0.2888333908152122 1
gene  1 8 34 0.030211490144288478 0 1393.0 0.030211490144288478 1
gene  1 12 34 0.020432837110950897 0 1397.0 0.020432837110950897 1
gene  1 14 34 -0.35389422395997605 0 1399.0 -0.35389422395997605 1
gene  1 16 34 0.7059220798513961 0 1401.0 0.7059220798513961 1
gene  1 18 34 -0.44150024738234606 0 1403.0 -0.44150024738234606 1
gene  1 20 34 0.06685241097324424 0 1405.0 0.06685241097324424 1
gene  1 21 34 -0.5836160279892287 0 1406.0 -0.5836160279892287 1
gene  1 22 34 -0.439683031181328 0 1407.0 -0.439683031181328 1
gene  1 23 34 -0.46494851773979484 0 1408.0 -0.46494851773979484 1
gene  1 24 34 0.7003830607952254 0 1409.0 0.7003830607952254 1
gene  1 25 34 0.022878358173581193 0 1410.0 0.022878358173581193 1
gene  1 26 34 0.607474047895409 0 1411.0 0.607474047895409 1
gene  1 27 34 -0.3391775034370178 0 1412.0 -0.3391775034370178 1
gene  1 29 34 0.3207632220995972 0 1414.0 0.3207632220995972 1
gene  1 31 34 -0.4182808743424449 0 1416.0 -0.4182808743424449 1
gene  1 34 34 0.692181471294044 1 1419.0 0.692181471294044 1
gene  1 35 34 -0.027369561113101848 1 1420.0 -0.027369561113101848 1
gene  1 37 34 -0.9908446454346803 1 1422.0 -0.9908446454346803 1
gene  1 42 34 -0.5395193719857393 1 1427.0 -0.5395193719857393 1
gene  1 6 35 -0.7480782634656991 0 1433.0 -0.7480782634656991 1
gene  1 7 35 0.538178855317952 0 1434.0 0.538178855317952 1
gene  1 8 35 0.4204338367879953 0 1435.0 0.4204338367879953 1
gene  1 11 35 0.781772245387078 0 1438.0 0.781772245387078 1
gene  1 12 35 -0.3017117027020192 0 1439.0 -0.3017117027020192 1
gene  1 13 35 -0.6387956128119452 0 1440.0 -0.6387956128119452 1
gene  1 14 35 -0.813595440407714 0 1441.0 -0.813595440407714 1
gene  1 16 35 -0.5682067673041828 0 1443.0 -0.5682067673041828 1
gene  1 18 35 0.6703821144645086 0 1445.0 0.6703821144645086 1
gene  1 22 35 0.9632961279074992 0 1449.0 0.9632961279074992 1
gene  1 24 35 -0.6225599502141064 0 1451.0 -0.6225599502141064 1
gene  1 25 35 0.325117405557135 0 1452.0 0.325117405557135 1
gene  1 26 35 -0.6886920243792072 0 1453.0 -0.6886920243792072 1
gene  1 28 35 -0.547657434096031 0 1455.0 -0.547657434096031 1
gene  1 31 35 0.22751853775652164 0 1458.0 0.22751853775652164 1
gene  1 35 35 0.7372859791328107 1 1462.0 0.7372859791328107 1
gene  1 37 35 -0.03973379656375742 1 1464.0 -0.03973379656375742 1
gene  1 38 35 -0.34758531919042834 1 1465.0 -0.34758531919042834 1
gene  1 7 36 -0.8455258393969753 0 1476.0 -0.8455258393969753 1
gene  1 8 36 -0.8255844226755168 0 1477.0 -0.8255844226755168 1
gene  1 11 36 0.3139710807513134 0 1480.0 0.3139710807513134 1
gene  1 13 36 0.8996012975070655 0 1482.0 0.8996012975070655 1
gene  1 14 36 0.08788627261619819 0 1483.0 0.08788627261619819 1
gene  1 16 36 -0.041569304518255135 0 1485.0 -0.041569304518255135 1
gene  1 19 36 -0.894855983648316 0 1488.0 -0.894855983648316 1
gene  1 23 36 0.5370440908839401 0 1492.0 0.5370440908839401 1
gene  1 27 36 -0.23005607493600377 0 1496.0 -0.23005607493600377 1
gene  1 28 36 0.0731660331709253 0 1497.0 0.0731660331709253 1
gene  1 29 36 0.9216856991447923 0 1498.0 0.9216856991447923 1
gene  1 35 36 -0.2725191349503101 0 1504.0 -0.2725191349503101 1
gene  1 39 36 0.5494179779597742 1 1508.0 0.5494179779597742 1
gene  1 40 36 0.7892010717051533 1 1509.0 0.7892010717051533 1
gene  1 1 37 0.07999359837184405 0 1512.0 0.07999359837184405 1
gene  1 4 37 -0.8930112124033174 0 1515.0 -0.8930112124033174 1
gene  1 6 37 -0.8143166445516631 0 1517.0 -0.8143166445516631 1
gene  1 7 37 -0.7155873188065678 0 1518.0 -0.7155873188065678 1
gene  1 8 37 -0.28761319280318354 0 1519.0 -0.28761319280318354 1
gene  1 11 37 -0.0038658262698763046 0 1522.0 -0.0038658262698763046 1
gene  1 17 37 -0.8843946688663756 0 1528.0 -0.8843946688663756 1
gene  1 19 37 -0.48884309674796245 0 1530.0 -0.48884309674796245 1
gene  1 20 37 0.49705430853501953 0 1531.0 0.49705430853501953 1
gene  1 21 37 -0.7080291580722197 0 1532.0 -0.7080291580722197 1
gene  1 23 37 0.29133054404925385 0 1534.0 0.29133054404925385 1
gene  1 24 37 -0.8391502474894988 0 1535.0 -0.8391502474894988 1
gene  1 25 37 -0.6354625790167865 0 1536.0 -0.6354625790167865 1
gene  1 27 37 0.5565706649802911 0 1538.0 0.5565706649802911 1
gene  1 28 37 0.9162148854739154 0 1539.0 0.9162148854739154 1
gene  1 29 37 0.14052822703095802 0 1540.0 0.14052822703095802 1
gene  1 30 37 -0.012550508822525508 0 1541.0 -0.012550508822525508 1
gene  1 31 37 -0.07923087954342789 0 1542.0 -0.07923087954342789 1
gene  1 34 37 -0.4425494796255699 0 1545.0 -0.4425494796255699 1
gene  1 36 37 0.3644862917914704 0 1547.0 0.3644862917914704 1
gene  1 37 37 0.5017142806042351 1 1548.0 0.5017142806042351 1
gene  1 38 37 -0.05754569689982658 1 1549.0 -0.05754569689982658 1
gene  1 40 37 -0.04162812465569754 1 1551.0 -0.04162812465569754 1
gene  1 2 38 -0.17966377854947124 0 1555.0 -0.17966377854947124 1
gene  1 5 38 0.14419017950407076 0 1558.0 0.14419017950407076 1
gene  1 6 38 0.18038257487569387 0 1559.0 0.18038257487569387 1
gene  1 8 38 0.8111496525028913 0 1561.0 0.8111496525028913 1
gene  1 9 38 0.8567960654122022 0 1562.0 0.8567960654122022 1
gene  1 11 38 -0.04153127985260241 0 1564.0 -0.04153127985260241 1
gene  1 13 38 0.499239049492456 0 1566.0 0.499239049492456 1
gene  1 14 38 -0.33148314976810955 0 1567.0 -0.33148314976810955 1
gene  1 18 38 0.82854846605609 0 1571.0 0.82854846605609 1
gene  1 20 38 0.03575281294601429 0 1573.0 0.03575281294601429 1
gene  1 22 38 -0.3395341899700792 0 1575.0 -0.3395341899700792 1
gene  1 23 38 -0.49209645246485145 0 1576.0 -0.49209645246485145 1
gene  1 25 38 0.08941228445985461 0 1578.0 0.08941228445985461 1
gene  1 27 38 -0.5739289847694566 0 1580.0 -0.5739289847694566 1
gene  1 28 38 -0.9198765398639146 0 1581.0 -0.9198765398639146 1
gene  1 30 38 0.56018065286207 0 1583.0 0.56018065286207 1
gene  1 31 38 -0.8333996828622947 0 1584.0 -0.8333996828622947 1
gene  1 37 38 0.7064262059438046 0 1590.0 0.7064262059438046 1
gene  1 1 39 0.7637999221220821 0 1596.0 0.7637999221220821 1
gene  1 2 39 -0.5732491981008067 0 1597.0 -0.5732491981008067 1
gene  1 3 39 -0.6575309764365884 0 1598.0 -0.6575309764365884 1
gene  1 5 39 0.563805294451483 0 1600.0 0.563805294451483 1
gene  1 6 39 0.17197999109061635 0 1601.0 0.17197999109061635 1
gene  1 7 39 0.21812100445872318 0 1602.0 0.21812100445872318 1
gene  1 9 39 0.5072710114764326 0 1604.0 0.5072710114764326 1
gene  1 10 39 -0.13206875144832209 0 1605.0 -0.13206875144832209 1
gene  1 11 39 -0.15611134463122656 0 1606.0 -0.15611134463122656 1
gene  1 13 39 -0.7627537523113638 0 1608.0 -0.7627537523113638 1
gene  1 15 39 -0.11571286417648696 0 1610.0 -0.11571286417648696 1
gene  1 16 39 -0.2315960366927261 0 1611.0 -0.2315960366927261 1
gene  1 17 39 -0.6514465598473352 0 1612.0 -0.6514465598473352 1
gene  1 18 39 0.6092892352436579 0 1613.0 0.6092892352436579 1
gene  1 20 39 0.6603723095275265 0 1615.0 0.6603723095275265 1
gene  1 22 39 -0.3809006126747607 0 1617.0 -0.3809006126747607 1
gene  1 24 39 0.8408558016171844 0 1619.0 0.8408558016171844 1
gene  1 25 39 -0.08269734564357378 0 1620.0 -0.08269734564357378 1
gene  1 27 39 -0.5082652547233443 0 1622.0 -0.5082652547233443 1
gene  1 28 39 -0.5682353334375722 0 1623.0 -0.5682353334375722 1
gene  1 31 39 0.5909179118791943 0 1626.0 0.5909179118791943 1
gene  1 34 39 -0.027721398868490454 0 1629.0 -0.027721398868490454 1
gene  1 35 39 -0.37918731792571947 0 1630.0 -0.37918731792571947 1
gene  1 38 39 0.7849168093275255 0 1633.0 0.7849168093275255 1
gene  1 40 39 -0.35613343179871926 1 1635.0 -0.35613343179871926 1
gene  1 2 40 -0.19747670434481268 0 1639.0 -0.19747670434481268 1
gene  1 4 40 0.7758723588850518 0 1641.0 0.7758723588850518 1
gene  1 5 40 -0.7137644554456696 0 1642.0 -0.7137644554456696 1
gene  1 6 40 -0.22136415165972378 0 1643.0 -0.22136415165972378 1
gene  1 9 40 0.741947560446729 0 1646.0 0.741947560446729 1
gene  1 11 40 0.7144175230254826 0 1648.0 0.7144175230254826 1
gene  1 15 40 0.9808537929931721 0 1652.0 0.9808537929931721 1
gene  1 21 40 -0.7799362129930988 0 1658.0 -0.7799362129930988 1
gene  1 22 40 0.9775566658763878 0 1659.0 0.9775566658763878 1
gene  1 23 40 0.35484951591874236 0 1660.0 0.35484951591874236 1
gene  1 24 40 -0.43234652049086564 0 1661.0 -0.43234652049086564 1
gene  1 27 40 0.27475211286312806 0 1664.0 0.27475211286312806 1
gene  1 29 40 0.09560861453059377 0 1666.0 0.09560861453059377 1
gene  1 34 40 0.1551624103095094 0 1671.0 0.1551624103095094 1
gene  1 35 40 -0.6008304439942892 0 1672.0 -0.6008304439942892 1
gene  1 37 40 -0.3358726397564924 0 1674.0 -0.3358726397564924 1
gene  1 39 40 -0.2752736303484473 0 1676.0 -0.2752736303484473 1
gene  1 42 40 0.33715528296313846 1 1679.0 0.33715528296313846 1
gene  1 1 41 -0.7846089381393763 0 1680.0 -0.7846089381393763 1
gene  1 2 41 0.938363465351666 0 1681.0 0.938363465351666 1
gene  1 3 41 0.4552954245373164 0 1682.0 0.4552954245373164 1
gene  1 4 41 0.3028805041070922 0 1683.0 0.3028805041070922 1
gene  1 6 41 0.432823452672189 0 1685.0 0.432823452672189 1
gene  1 8 41 -0.07113247214274043 0 1687.0 -0.07113247214274043 1
gene  1 10 41 -0.6090643110607915 0 1689.0 -0.6090643110607915 1
gene  1 11 41 0.8298023713547227 0 1690.0 0.8298023713547227 1
gene  1 14 41 0.06014909501028354 0 1693.0 0.06014909501028354 1
gene  1 15 41 0.4777728123605579 0 1694.0 0.4777728123605579 1
gene  1 16 41 -0.0032603166293661 0 1695.0 -0.0032603166293661 1
gene  1 18 41 0.4135571528687343 0 1697.0 0.4135571528687343 1
gene  1 19 41 0.004925992593892148 0 1698.0 0.004925992593892148 1
gene  1 20 41 0.6152056060671065 0 1699.0 0.6152056060671065 1
gene  1 23 41 0.5159770246932069 0 1702.0 0.5159770246932069 1
gene  1 25 41 -0.6415667136560891 0 1704.0 -0.6415667136560891 1
gene  1 26 41 -0.5887030614429555 0 1705.0 -0.5887030614429555 1
gene  1 31 41 -0.32069184813304974 0 1710.0 -0.32069184813304974 1
gene  1 34 41 0.4830029784604708 0 1713.0 0.4830029784604708 1
gene  1 35 41 -0.4501387205150411 0 1714.0 -0.4501387205150411 1
gene  1 36 41 -0.7748775707684693 0 1715.0 -0.7748775707684693 1
gene  1 1 42 0.2124400782229161 0 1722.0 0.2124400782229161 1
gene  1 2 42 0.739549084096902 0 1723.0 0.739549084096902 1
gene  1 3 42 0.13290185715806624 0 1724.0 0.13290185715806624 1
gene  1 4 42 -0.1978913535242075 0 1725.0 -0.1978913535242075 1
gene  1 7 42 -0.43783069485928583 0 1728.0 -0.43783069485928583 1
gene  1 10 42 0.9598335635423623 0 1731.0 0.9598335635423623 1
gene  1 13 42 -0.9796752391943129 0 1734.0 -0.9796752391943129 1
gene  1 15 42 -0.427642636062742 0 1736.0 -0.427642636062742 1
gene  1 16 42 0.3748439679126272 0 1737.0 0.3748439679126272 1
gene  1 17 42 0.17111097579302925 0 1738.0 0.17111097579302925 1
gene  1 18 42 0.9917230739663971 0 1739.0 0.9917230739663971 1
gene  1 20 42 -0.8286191689979528 0 1741.0 -0.8286191689979528 1
gene  1 21 42 -0.36962260267180047 0 1742.0 -0.36962260267180047 1
gene  1 22 42 -0.4563682654981096 0 1743.0 -0.4563682654981096 1
gene  1 27 42 0.6607463959544223 0 1748.0 0.6607463959544223 1
gene  1 28 42 0.19885345313273417 0 1749.0 0.19885345313273417 1
gene  1 36 42 -0.6236067296950408 0 1757.0 -0.6236067296950408 1
gene  1 40 42 -0.5573038042202706 0 1761.0 -0.5573038042202706 1
gene  1 41 42 0.843234230118447 0 1762.0 0.843234230118447 1
genomeend 1
/* Organism # 002 Fitness:  0.000 Error:  0.000                      */
genomestart  2
trait 1 0.0 0.0 0.0 0.0 0.0 0.0 0.0 0.0 
node 1 1 1 1
node 2 1 1 1
node 3 1 1 1
node 4 1 1 1
node 5 1 1 1
node 6 1 1 1
node 7 1 1 1
node 8 1 1 1
node 9 1 1 1
node 10 1 1 1
node 11 1 1 1
node 12 1 1 1
node 13 1 1 1
node 14 1 1 1
node 15 1 1 1
node 16 1 1 1
node 17 1 1 1
node 18 1 1 1
node 19 1 1 1
node 20 1 1 1
node 21 1 1 1
node 22 1 1 1
node 23 1 1 1
node 24 1 1 1
node 25 1 1 1
node 26 1 1 1
node 27 1 1 1
node 28 1 1 3
node 29 1 0 0
node 30 1 0 0
node 31 1 0 0
node 34 1 0 2
node 35 1 0 2
node 36 1 0 2
node 37 1 0 2
node 38 1 0 2
node 39 1 0 2
node 40 1 0 2
node 41 1 0 2
node 42 1 0 2
gene  1 2 29 0.7305803806856196 0 1177.0 0.7305803806856196 1
gene  1 4 29 0.27908504925505906 0 1179.0 0.27908504925505906 1
gene  1 6 29 -0.3745587057702764 0 1181.0 -0.3745587057702764 1
gene  1 8 29 -0.5700805679043079 0 1183.0 -0.5700805679043079 1
gene  1 15 29 -0.6646204571377342 0 1190.0 -0.6646204571377342 1
gene  1 16 29 -0.34247783405123466 0 1191.0 -0.34247783405123466 1
gene  1 17 29 -0.7842736294585234 0 1192.0 -0.7842736294585234 1
gene  1 18 29 0.12324378132594516 0 1193.0 0.12324378132594516 1
gene  1 23 29 0.3118198330298577 0 1198.0 0.3118198330298577 1
gene  1 24 29 -0.8773869216437895 0 1199.0 -0.8773869216437895 1
gene  1 26 29 -0.580826473867728 0 1201.0 -0.580826473867728 1
gene  1 28 29 0.6818989680734897 0 1203.0 0.6818989680734897 1
gene  1 30 29 0.722640115253041 1 1205.0 0.722640115253041 1
gene  1 34 29 -0.5757607437543042 1 1209.0 -0.5757607437543042 1
gene  1 35 29 -0.9582270829751282 1 1210.0 -0.9582270829751282 1
gene  1 37 29 -0.5926482548563589 1 1212.0 -0.5926482548563589 1
gene  1 38 29 0.3280605962426911 1 1213.0 0.3280605962426911 1
gene  1 40 29 -0.7112363264602262 1 1215.0 -0.7112363264602262 1
gene  1 6 30 0.6318821576676544 0 1223.0 0.6318821576676544 1
gene  1 8 30 -0.2890400443097725 0 1225.0 -0.2890400443097725 1
gene  1 9 30 0.048953092821103605 0 1226.0 0.048953092821103605 1
gene  1 15 30 -0.7888779795673749 0 1232.0 -0.7888779795673749 1
gene  1 16 30 0.36655578686971524 0 1233.0 0.36655578686971524 1
gene  1 17 30 -0.5443603316438963 0 1234.0 -0.5443603316438963 1
gene  1 21 30 0.41635848905987305 0 1238.0 0.41635848905987305 1
gene  1 22 30 -0.8368697452544362 0 1239.0 -0.8368697452544362 1
gene  1 25 30 0.32477822991155125 0 1242.0 0.32477822991155125 1
gene  1 26 30 -0.32538386987099666 0 1243.0 -0.32538386987099666 1
gene  1 29 30 -0.4838113512337119 0 1246.0 -0.4838113512337119 1
gene  1 30 30 -0.8915439402413552 1 1247.0 -0.8915439402413552 1
gene  1 31 30 -0.4371094672447312 1 1248.0 -0.4371094672447312 1
gene  1 37 30 0.05488601952065886 1 1254.0 0.05488601952065886 1
gene  1 38 30 0.43583414068434134 1 1255.0 0.43583414068434134 1
gene  1 39 30 0.34877607715570946 1 1256.0 0.34877607715570946 1
gene  1 40 30 0.26765511844736967 1 1257.0 0.26765511844736967 1
gene  1 41 30 -0.27825087515619273 1 1258.0 -0.27825087515619273 1
gene  1 42 30 0.9630924061604068 1 1259.0 0.9630924061604068 1
gene  1 1 31 0.2685974171970812 0 1260.0 0.2685974171970812 1
gene  1 3 31 0.1914528165335736 0 1262.0 0.1914528165335736 1
gene  1 4 31 0.7468180945590791 0 1263.0 0.7468180945590791 1
gene  1 6 31 0.5174766599372731 0 1265.0 0.5174766599372731 1
gene  1 7 31 -0.20028885954861297 0 1266.0 -0.20028885954861297 1
gene  1 10 31 0.28373969961792855 0 1269.0 0.28373969961792855 1
gene  1 15 31 0.3567927545325915 0 1274.0 0.3567927545325915 1
gene  1 16 31 0.2969376719658845 0 1275.0 0.2969376719658845 1
gene  1 17 31 -0.5885093836032951 0 1276.0 -0.5885093836032951 1
gene  1 19 31 -0.4229983288875572 0 1278.0 -0.4229983288875572 1
gene  1 20 31 0.593576059762329 0 1279.0 0.593576059762329 1
gene  1 22 31 -0.2920068869173936 0 1281.0 -0.2920068869173936 1
gene  1 23 31 0.6953448667993187 0 1282.0 0.6953448667993187 1
gene  1 24 31 -0.3677550487846446 0 1283.0 -0.3677550487846446 1
gene  1 26 31 0.5501088463644976 0 1285.0 0.5501088463644976 1
gene  1 27 31 0.48971634553749477 0 1286.0 0.48971634553749477 1
gene  1 28 31 -0.2685767018807861 0 1287.0 -0.2685767018807861 1
gene  1 29 31 -0.2284381053237794 0 1288.0 -0.2284381053237794 1
gene  1 30 31 0.9339861331015629 0 1289.0 0.9339861331015629 1
gene  1 34 31 0.6465999265238608 1 1293.0 0.6465999265238608 1
gene  1 35 31 -0.8648798650341236 1 1294.0 -0.8648798650341236 1
gene  1 38 31 -0.9266442444720109 1 1297.0 -0.9266442444720109 1
gene  1 40 31 0.018295255035893243 1 1299.0 0.018295255035893243 1
gene  1 41 31 0.16549339054836498 1 1300.0 0.16549339054836498 1
gene  1 1 34 0.9318538585664186 0 1386.0 0.9318538585664186 1
gene  1 2 34 0.13072563184643993 0 1387.0 0.13072563184643993 1
gene  1 6 34 0.2888333908152122 0 1391.0 0.2888333908152122 1
gene  1 8 34 0.030211490144288478 0 1393.0 0.030211490144288478 1
gene  1 12 34 0.020432837110950897 0 1397.0 0.020432837110950897 1
gene  1 14 34 -0.35389422395997605 0 1399.0 -0.35389422395997605 1
gene  1 16 34 0.7059220798513961 0 1401.0 0.7059220798513961 1
gene  1 18 34 -0.44150024738234606 0 1403.0 -0.44150024738234606 1
gene  1 20 34 0.06685241097324424 0 1405.0 0.06685241097324424 1
gene  1 21 34 -0.5836160279892287 0 1406.0 -0.5836160279892287 1
gene  1 22 34 -0.439683031181328 0 1407.0 -0.439683031181328 1
gene  1 23 34 -0.46494851773979484 0 1408.0 -0.46494851773979484 1
gene  1 24 34 0.7003830607952254 0 1409.0 0.7003830607952254 1
gene  1 25 34 0.022878358173581193 0 1410.0 0.022878358173581193 1
gene  1 26 34 0.607474047895409 0 1411.0 0.607474047895409 1
gene  1 27 34 -0.3391775034370178 0 1412.0 -0.3391775034370178 1
gene  1 29 34 0.3207632220995972 0 1414.0 0.3207632220995972 1
gene  1 31 34 -0.4182808743424449 0 1416.0 -0.4182808743424449 1
gene  1 34 34 0.692181471294044 1 1419.0 0.692181471294044 1
gene  1 35 34 -0.027369561113101848 1 1420.0 -0.027369561113101848 1
gene  1 37 34 -0.9908446454346803 1 1422.0 -0.9908446454346803 1
gene  1 42 34 -0.5395193719857393 1 1427.0 -0.5395193719857393 1
gene  1 6 35 -0.7480782634656991 0 1433.0 -0.7480782634656991 1
gene  1 7 35 0.538178855317952 0 1434.0 0.538178855317952 1
gene  1 8 35 0.4204338367879953 0 1435.0 0.4204338367879953 1
gene  1 11 35 0.781772245387078 0 1438.0 0.781772245387078 1
gene  1 12 35 -0.3017117027020192 0 1439.0 -0.3017117027020192 1
gene  1 13 35 -0.6387956128119452 0 1440.0 -0.6387956128119452 1
gene  1 14 35 -0.813595440407714 0 1441.0 -0.813595440407714 1
gene  1 16 35 -0.5682067673041828 0 1443.0 -0.5682067673041828 1
gene  1 18 35 0.6703821144645086 0 1445.0 0.6703821144645086 1
gene  1 22 35 0.9632961279074992 0 1449.0 0.9632961279074992 1
gene  1 24 35 -0.6225599502141064 0 1451.0 -0.6225599502141064 1
gene  1 25 35 0.325117405557135 0 1452.0 0.325117405557135 1
gene  1 26 35 -0.6886920243792072 0 1453.0 -0.6886920243792072 1
gene  1 28 35 -0.547657434096031 0 1455.0 -0.547657434096031 1
gene  1 31 35 0.22751853775652164 0 1458.0 0.22751853775652164 1
gene  1 35 35 0.7372859791328107 1 1462.0 0.7372859791328107 1
gene  1 37 35 -0.03973379656375742 1 1464.0 -0.03973379656375742 1
gene  1 38 35 -0.34758531919042834 1 1465.0 -0.34758531919042834 1
gene  1 7 36 -0.8455258393969753 0 1476.0 -0.8455258393969753 1
gene  1 8 36 -0.8255844226755168 0 1477.0 -0.8255844226755168 1
gene  1 11 36 0.3139710807513134 0 1480.0 0.3139710807513134 1
gene  1 13 36 0.8996012975070655 0 1482.0 0.8996012975070655 1
gene  1 14 36 0.08788627261619819 0 1483.0 0.08788627261619819 1
gene  1 16 36 -0.041569304518255135 0 1485.0 -0.041569304518255135 1
gene  1 19 36 -0.894855983648316 0 1488.0 -0.894855983648316 1
gene  1 23 36 0.5370440908839401 0 1492.0 0.5370440908839401 1
gene  1 27 36 -0.23005607493600377 0 1496.0 -0.23005607493600377 1
gene  1 28 36 0.0731660331709253 0 1497.0 0.0731660331709253 1
gene  1 29 36 0.9216856991447923 0 1498.0 0.9216856991447923 1
gene  1 35 36 -0.2725191349503101 0 1504.0 -0.2725191349503101 1
gene  1 39 36 0.5494179779597742 1 1508.0 0.5494179779597742 1
gene  1 40 36 0.7892010717051533 1 1509.0 0.7892010717051533 1
gene  1 1 37 0.07999359837184405 0 1512.0 0.07999359837184405 1
gene  1 4 37 -0.8930112124033174 0 1515.0 -0.8930112124033174 1
gene  1 6 37 -0.8143166445516631 0 1517.0 -0.8143166445516631 1
gene  1 7 37 -0.7155873188065678 0 1518.0 -0.7155873188065678 1
gene  1 8 37 -0.28761319280318354 0 1519.0 -0.28761319280318354 1
gene  1 11 37 -0.0038658262698763046 0 1522.0 -0.0038658262698763046 1
gene  1 17 37 -0.8843946688663756 0 1528.0 -0.8843946688663756 1
gene  1 19 37 -0.48884309674796245 0 1530.0 -0.48884309674796245 1
gene  1 20 37 0.49705430853501953 0 1531.0 0.49705430853501953 1
gene  1 21 37 -0.7080291580722197 0 1532.0 -0.7080291580722197 1
gene  1 23 37 0.29133054404925385 0 1534.0 0.29133054404925385 1
gene  1 24 37 -0.8391502474894988 0 1535.0 -0.8391502474894988 1
gene  1 25 37 -0.6354625790167865 0 1536.0 -0.6354625790167865 1
gene  1 27 37 0.5565706649802911 0 1538.0 0.5565706649802911 1
gene  1 28 37 0.9162148854739154 0 1539.0 0.9162148854739154 1
gene  1 29 37 0.14052822703095802 0 1540.0 0.14052822703095802 1
gene  1 30 37 -0.012550508822525508 0 1541.0 -0.012550508822525508 1
gene  1 31 37 -0.07923087954342789 0 1542.0 -0.07923087954342789 1
gene  1 34 37 -0.4425494796255699 0 1545.0 -0.4425494796255699 1
gene  1 36 37 0.3644862917914704 0 1547.0 0.3644862917914704 1
gene  1 37 37 0.5017142806042351 1 1548.0 0.5017142806042351 1
gene  1 38 37 -0.05754569689982658 1 1549.0 -0.05754569689982658 1
gene  1 40 37 -0.04162812465569754 1 1551.0 -0.04162812465569754 1
gene  1 2 38 -0.17966377854947124 0 1555.0 -0.17966377854947124 1
gene  1 5 38 0.14419017950407076 0 1558.0 0.14419017950407076 1
gene  1 6 38 0.18038257487569387 0 1559.0 0.18038257487569387 1
gene  1 8 38 0.8111496525028913 0 1561.0 0.8111496525028913 1
gene  1 9 38 0.8567960654122022 0 1562.0 0.8567960654122022 1
gene  1 11 38 -0.04153127985260241 0 1564.0 -0.04153127985260241 1
gene  1 13 38 0.499239049492456 0 1566.0 0.499239049492456 1
gene  1 14 38 -0.33148314976810955 0 1567.0 -0.33148314976810955 1
gene  1 18 38 0.82854846605609 0 1571.0 0.82854846605609 1
gene  1 20 38 0.03575281294601429 0 1573.0 0.03575281294601429 1
gene  1 22 38 -0.3395341899700792 0 1575.0 -0.3395341899700792 1
gene  1 23 38 -0.49209645246485145 0 1576.0 -0.49209645246485145 1
gene  1 25 38 0.08941228445985461 0 1578.0 0.08941228445985461 1
gene  1 27 38 -0.5739289847694566 0 1580.0 -0.5739289847694566 1
gene  1 28 38 -0.9198765398639146 0 1581.0 -0.9198765398639146 1
gene  1 30 38 0.56018065286207 0 1583.0 0.56018065286207 1
gene  1 31 38 -0.8333996828622947 0 1584.0 -0.8333996828622947 1
gene  1 37 38 0.7064262059438046 0 1590.0 0.7064262059438046 1
gene  1 1 39 0.7637999221220821 0 1596.0 0.7637999221220821 1
gene  1 2 39 -0.5732491981008067 0 1597.0 -0.5732491981008067 1
gene  1 3 39 -0.6575309764365884 0 1598.0 -0.6575309764365884 1
gene  1 5 39 0.563805294451483 0 1600.0 0.563805294451483 1
gene  1 6 39 0.17197999109061635 0 1601.0 0.17197999109061635 1
gene  1 7 39 0.21812100445872318 0 1602.0 0.21812100445872318 1
gene  1 9 39 0.5072710114764326 0 1604.0 0.5072710114764326 1
gene  1 10 39 -0.13206875144832209 0 1605.0 -0.13206875144832209 1
gene  1 11 39 -0.15611134463122656 0 1606.0 -0.15611134463122656 1
gene  1 13 39 -0.7627537523113638 0 1608.0 -0.7627537523113638 1
gene  1 15 39 -0.11571286417648696 0 1610.0 -0.11571286417648696 1
gene  1 16 39 -0.2315960366927261 0 1611.0 -0.2315960366927261 1
gene  1 17 39 -0.6514465598473352 0 1612.0 -0.6514465598473352 1
gene  1 18 39 0.6092892352436579 0 1613.0 0.6092892352436579 1
gene  1 20 39 0.6603723095275265 0 1615.0 0.6603723095275265 1
gene  1 22 39 -0.3809006126747607 0 1617.0 -0.3809006126747607 1
gene  1 24 39 0.8408558016171844 0 1619.0 0.8408558016171844 1
gene  1 25 39 -0.08269734564357378 0 1620.0 -0.08269734564357378 1
gene  1 27 39 -0.5082652547233443 0 1622.0 -0.5082652547233443 1
gene  1 28 39 -0.5682353334375722 0 1623.0 -0.5682353334375722 1
gene  1 31 39 0.5909179118791943 0 1626.0 0.5909179118791943 1
gene  1 34 39 -0.027721398868490454 0 1629.0 -0.027721398868490454 1
gene  1 35 39 -0.37918731792571947 0 1630.0 -0.37918731792571947 1
gene  1 38 39 0.7849168093275255 0 1633.0 0.7849168093275255 1
gene  1 40 39 -0.35613343179871926 1 1635.0 -0.35613343179871926 1
gene  1 2 40 -0.19747670434481268 0 1639.0 -0.19747670434481268 1
gene  1 4 40 0.7758723588850518 0 1641.0 0.7758723588850518 1
gene  1 5 40 -0.7137644554456696 0 1642.0 -0.7137644554456696 1
gene  1 6 40 -0.22136415165972378 0 1643.0 -0.22136415165972378 1
gene  1 9 40 0.741947560446729 0 1646.0 0.741947560446729 1
gene  1 11 40 0.7144175230254826 0 1648.0 0.7144175230254826 1
gene  1 15 40 0.9808537929931721 0 1652.0 0.9808537929931721 1
gene  1 21 40 -0.7799362129930988 0 1658.0 -0.7799362129930988 1
gene  1 22 40 0.9775566658763878 0 1659.0 0.9775566658763878 1
gene  1 23 40 0.35484951591874236 0 1660.0 0.35484951591874236 1
gene  1 24 40 -0.43234652049086564 0 1661.0 -0.43234652049086564 1
gene  1 27 40 0.27475211286312806 0 1664.0 0.27475211286312806 1
gene  1 29 40 0.09560861453059377 0 1666.0 0.09560861453059377 1
gene  1 34 40 0.1551624103095094 0 1671.0 0.1551624103095094 1
gene  1 35 40 -0.6008304439942892 0 1672.0 -0.6008304439942892 1
gene  1 37 40 -0.3358726397564924 0 1674.0 -0.3358726397564924 1
gene  1 39 40 -0.2752736303484473 0 1676.0 -0.2752736303484473 1
gene  1 42 40 0.33715528296313846 1 1679.0 0.33715528296313846 1
gene  1 1 41 -0.7846089381393763 0 1680.0 -0.7846089381393763 1
gene  1 2 41 0.938363465351666 0 1681.0 0.938363465351666 1
gene  1 3 41 0.4552954245373164 0 1682.0 0.4552954245373164 1
gene  1 4 41 0.3028805041070922 0 1683.0 0.3028805041070922 1
gene  1 6 41 0.432823452672189 0 1685.0 0.432823452672189 1
gene  1 8 41 -0.07113247214274043 0 1687.0 -0.07113247214274043 1
gene  1 10 41 -0.6090643110607915 0 1689.0 -0.6090643110607915 1
gene  1 11 41 0.8298023713547227 0 1690.0 0.8298023713547227 1
gene  1 14 41 0.06014909501028354 0 1693.0 0.06014909501028354 1
gene  1 15 41 0.4777728123605579 0 1694.0 0.4777728123605579 1
gene  1 16 41 -0.0032603166293661 0 1695.0 -0.0032603166293661 1
gene  1 18 41 0.4135571528687343 0 1697.0 0.4135571528687343 1
gene  1 19 41 0.004925992593892148 0 1698.0 0.004925992593892148 1
gene  1 20 41 0.6152056060671065 0 1699.0 0.6152056060671065 1
gene  1 23 41 0.5159770246932069 0 1702.0 0.5159770246932069 1
gene  1 25 41 -0.6415667136560891 0 1704.0 -0.6415667136560891 1
gene  1 26 41 -0.5887030614429555 0 1705.0 -0.5887030614429555 1
gene  1 31 41 -0.32069184813304974 0 1710.0 -0.32069184813304974 1
gene  1 34 41 0.4830029784604708 0 1713.0 0.4830029784604708 1
gene  1 35 41 -0.4501387205150411 0 1714.0 -0.4501387205150411 1
gene  1 36 41 -0.7748775707684693 0 1715.0 -0.7748775707684693 1
gene  1 1 42 0.2124400782229161 0 1722.0 0.2124400782229161 1
gene  1 2 42 0.739549084096902 0 1723.0 0.739549084096902 1
gene  1 3 42 0.13290185715806624 0 1724.0 0.13290185715806624 1
gene  1 4 42 -0.1978913535242075 0 1725.0 -0.1978913535242075 1
gene  1 7 42 -0.43783069485928583 0 1728.0 -0.43783069485928583 1
gene  1 10 42 0.9598335635423623 0 1731.0 0.9598335635423623 1
gene  1 13 42 -0.9796752391943129 0 1734.0 -0.9796752391943129 1
gene  1 15 42 -0.427642636062742 0 1736.0 -0.427642636062742 1
gene  1 16 42 0.3748439679126272 0 1737.0 0.3748439679126272 1
gene  1 17 42 0.17111097579302925 0 1738.0 0.17111097579302925 1
gene  1 18 42 0.9917230739663971 0 1739.0 0.9917230739663971 1
gene  1 20 42 -0.8286191689979528 0 1741.0 -0.8286191689979528 1
gene  1 21 42 -0.36962260267180047 0 1742.0 -0.36962260267180047 1
gene  1 22 42 -0.4563682654981096 0 1743.0 -0.4563682654981096 1
gene  1 27 42 0.6607463959544223 0 1748.0 0.6607463959544223 1
gene  1 28 42 0.19885345313273417 0 1749.0 0.19885345313273417 1
gene  1 36 42 -0.6236067296950408 0 1757.0 -0.6236067296950408 1
gene  1 40 42 -0.5573038042202706 0 1761.0 -0.5573038042202706 1
gene  1 41 42 0.843234230118447 0 1762.0 0.843234230118447 1
genomeend 2
/*-------------------------------------------------------------------*/
/* Species # 006         : (size= 002) (AvfFit= 31.838) (Age= 2.000)  */
/*-------------------------------------------------------------------*/
/* Organism # 003 Fitness:  0.000 Error:  0.000                      */
genomestart  3
trait 1 0.0 0.0 0.0 0.0 0.0 0.0 0.0 0.0 
node 1 1 1 1
node 2 1 1 1
node 3 1 1 1
node 4 1 1 1
node 5 1 1 1
node 6 1 1 1
node 7 1 1 1
node 8 1 1 1
node 9 1 1 1
node 10 1 1 1
node 11 1 1 1
node 12 1 1 1
node 13 1 1 1
node 14 1 1 1
node 15 1 1 1
node 16 1 1 1
node 17 1 1 1
node 18 1 1 1
node 19 1 1 1
node 20 1 1 1
node 21 1 1 1
node 22 1 1 1
node 23 1 1 1
node 24 1 1 1
node 25 1 1 1
node 26 1 1 1
node 27 1 1 1
node 28 1 1 3
node 29 1 0 0
node 34 1 0 2
node 35 1 0 2
node 36 1 0 2
node 37 1 0 2
node 38 1 0 2
node 39 1 0 2
node 40 1 0 2
node 41 1 0 2
node 42 1 0 2
gene  1 1 29 -0.26914529864655445 0 1176.0 -0.26914529864655445 1
gene  1 4 29 -0.96591479607836 0 1179.0 -0.96591479607836 1
gene  1 13 29 -0.09691889932397246 0 1188.0 -0.09691889932397246 1
gene  1 14 29 -0.9052076767910485 0 1189.0 -0.9052076767910485 1
gene  1 16 29 0.596263072465675 0 1191.0 0.596263072465675 1
gene  1 17 29 -0.5338337491753894 0 1192.0 -0.5338337491753894 1
gene  1 19 29 -0.4816674683048566 0 1194.0 -0.4816674683048566 1
gene  1 20 29 0.5677804493534645 0 1195.0 0.5677804493534645 1
gene  1 21 29 0.14680022823571304 0 1196.0 0.14680022823571304 1
gene  1 22 29 0.48663202169187425 0 1197.0 0.48663202169187425 1
gene  1 26 29 0.5045787428403729 0 1201.0 0.5045787428403729 1
gene  1 27 29 -0.43626760333397163 0 1202.0 -0.43626760333397163 1
gene  1 29 29 0.11254588138782817 1 1204.0 0.11254588138782817 1
gene  1 36 29 0.1730042733589312 1 1211.0 0.1730042733589312 1
gene  1 37 29 0.3594857170816341 1 1212.0 0.3594857170816341 1
gene  1 39 29 -0.5561411026632628 1 1214.0 -0.5561411026632628 1
gene  1 40 29 -0.7219390559281171 1 1215.0 -0.7219390559281171 1
gene  1 42 29 0.5400877965256228 1 1217.0 0.5400877965256228 1
gene  1 2 34 -0.6908040662701704 0 1387.0 -0.6908040662701704 1
gene  1 3 34 0.8446097839253135 0 1388.0 0.8446097839253135 1
gene  1 6 34 0.3457536740196985 0 1391.0 0.3457536740196985 1
gene  1 8 34 -0.8441752274904635 0 1393.0 -0.8441752274904635 1
gene  1 11 34 -0.8473416747363741 0 1396.0 -0.8473416747363741 1
gene  1 13 34 -0.8154952541507069 0 1398.0 -0.8154952541507069 1
gene  1 16 34 -0.5894188707528405 0 1401.0 -0.5894188707528405 1
gene  1 17 34 -0.8611191321342346 0 1402.0 -0.8611191321342346 1
gene  1 20 34 -0.383622516497668 0 1405.0 -0.383622516497668 1
gene  1 21 34 -0.8294892153099546 0 1406.0 -0.8294892153099546 1
gene  1 22 34 0.1375086052520541 0 1407.0 0.1375086052520541 1
gene  1 23 34 0.06900046271302374 0 1408.0 0.06900046271302374 1
gene  1 28 34 0.9651230253614052 0 1413.0 0.9651230253614052 1
gene  1 29 34 -0.30153334601427106 0 1414.0 -0.30153334601427106 1
gene  1 37 34 0.6496605899378777 1 1422.0 0.6496605899378777 1
gene  1 38 34 -0.6026479291968684 1 1423.0 -0.6026479291968684 1
gene  1 40 34 0.82430032745103 1 1425.0 0.82430032745103 1
gene  1 5 35 -0.5157717939205254 0 1432.0 -0.5157717939205254 1
gene  1 8 35 -0.9878706535910822 0 1435.0 -0.9878706535910822 1
gene  1 10 35 0.6939514404197995 0 1437.0 0.6939514404197995 1
gene  1 11 35 -0.6510519034890427 0 1438.0 -0.6510519034890427 1
gene  1 14 35 0.18084392168422447 0 1441.0 0.18084392168422447 1
gene  1 15 35 0.6868565880078586 0 1442.0 0.6868565880078586 1
gene  1 16 35 0.7559933891643733 0 1443.0 0.7559933891643733 1
gene  1 17 35 0.8555704516547517 0 1444.0 0.8555704516547517 1
gene  1 18 35 0.007536426874474089 0 1445.0 0.007536426874474089 1
gene  1 20 35 0.8629729916100413 0 1447.0 0.8629729916100413 1
gene  1 21 35 0.41958347688110387 0 1448.0 0.41958347688110387 1
gene  1 23 35 0.5066136589217881 0 1450.0 0.5066136589217881 1
gene  1 24 35 0.16968944349684711 0 1451.0 0.16968944349684711 1
gene  1 26 35 0.7408345371444358 0 1453.0 0.7408345371444358 1
gene  1 27 35 0.3489601302391909 0 1454.0 0.3489601302391909 1
gene  1 28 35 -0.5890318349381167 0 1455.0 -0.5890318349381167 1
gene  1 29 35 -0.8898246192721065 0 1456.0 -0.8898246192721065 1
gene  1 37 35 0.005099728579491591 1 1464.0 0.005099728579491591 1
gene  1 39 35 0.9447208485111835 1 1466.0 0.9447208485111835 1
gene  1 40 35 0.1279045933784717 1 1467.0 0.1279045933784717 1
gene  1 1 36 0.804679309995975 0 1470.0 0.804679309995975 1
gene  1 3 36 -0.14937827288486416 0 1472.0 -0.14937827288486416 1
gene  1 4 36 0.4663492646386064 0 1473.0 0.4663492646386064 1
gene  1 5 36 -0.9516160235618434 0 1474.0 -0.9516160235618434 1
gene  1 6 36 -0.5535074758174796 0 1475.0 -0.5535074758174796 1
gene  1 8 36 0.5834323754091305 0 1477.0 0.5834323754091305 1
gene  1 11 36 -0.28827409641683055 0 1480.0 -0.28827409641683055 1
gene  1 12 36 0.5933146306010526 0 1481.0 0.5933146306010526 1
gene  1 14 36 0.8938446972305809 0 1483.0 0.8938446972305809 1
gene  1 15 36 -0.20909511873034503 0 1484.0 -0.20909511873034503 1
gene  1 16 36 -0.04086012523372884 0 1485.0 -0.04086012523372884 1
gene  1 18 36 0.9119940955298554 0 1487.0 0.9119940955298554 1
gene  1 19 36 0.8949972603090862 0 1488.0 0.8949972603090862 1
gene  1 20 36 -0.5168552993206984 0 1489.0 -0.5168552993206984 1
gene  1 23 36 0.11409871980518105 0 1492.0 0.11409871980518105 1
gene  1 27 36 -0.2253122088641779 0 1496.0 -0.2253122088641779 1
gene  1 28 36 0.5577525724560045 0 1497.0 0.5577525724560045 1
gene  1 29 36 -0.5679583071366583 0 1498.0 -0.5679583071366583 1
gene  1 34 36 0.23442018850061663 0 1503.0 0.23442018850061663 1
gene  1 35 36 0.032523195802131144 0 1504.0 0.032523195802131144 1
gene  1 39 36 -0.8380385899009296 1 1508.0 -0.8380385899009296 1
gene  1 40 36 -0.8871247510982585 1 1509.0 -0.8871247510982585 1
gene  1 42 36 -0.6157493017826867 1 1511.0 -0.6157493017826867 1
gene  1 5 37 0.13570032458572567 0 1516.0 0.13570032458572567 1
gene  1 7 37 -0.1501793005343347 0 1518.0 -0.1501793005343347 1
gene  1 9 37 -0.7214423117178796 0 1520.0 -0.7214423117178796 1
gene  1 10 37 -0.07080153228356989 0 1521.0 -0.07080153228356989 1
gene  1 11 37 0.18080845867477335 0 1522.0 0.18080845867477335 1
gene  1 13 37 -0.23907218265296737 0 1524.0 -0.23907218265296737 1
gene  1 16 37 0.04136989706204397 0 1527.0 0.04136989706204397 1
gene  1 17 37 0.718178726388048 0 1528.0 0.718178726388048 1
gene  1 19 37 -0.2990639672014628 0 1530.0 -0.2990639672014628 1
gene  1 21 37 -0.9464968038978082 0 1532.0 -0.9464968038978082 1
gene  1 23 37 0.3367078029898103 0 1534.0 0.3367078029898103 1
gene  1 24 37 0.7899523712353268 0 1535.0 0.7899523712353268 1
gene  1 28 37 0.7671831326691972 0 1539.0 0.7671831326691972 1
gene  1 34 37 0.07067194598230186 0 1545.0 0.07067194598230186 1
gene  1 36 37 0.757308311834939 0 1547.0 0.757308311834939 1
gene  1 39 37 -0.02237736007833302 1 1550.0 -0.02237736007833302 1
gene  1 40 37 0.9782313905358732 1 1551.0 0.9782313905358732 1
gene  1 42 37 0.8053072296645558 1 1553.0 0.8053072296645558 1
gene  1 4 38 -0.5755822579677223 0 1557.0 -0.5755822579677223 1
gene  1 6 38 0.17279226209841303 0 1559.0 0.17279226209841303 1
gene  1 7 38 -0.7503855404377869 0 1560.0 -0.7503855404377869 1
gene  1 10 38 0.3293139262801359 0 1563.0 0.3293139262801359 1
gene  1 11 38 -0.7127228547374179 0 1564.0 -0.7127228547374179 1
gene  1 14 38 0.0566423909690531 0 1567.0 0.0566423909690531 1
gene  1 17 38 -0.24842232078370396 0 1570.0 -0.24842232078370396 1
gene  1 18 38 0.04499477732055068 0 1571.0 0.04499477732055068 1
gene  1 20 38 -0.12712068111095687 0 1573.0 -0.12712068111095687 1
gene  1 21 38 -0.8322900761737989 0 1574.0 -0.8322900761737989 1
gene  1 25 38 0.8734388949656683 0 1578.0 0.8734388949656683 1
gene  1 26 38 0.8842434000871712 0 1579.0 0.8842434000871712 1
gene  1 27 38 0.9626603168447697 0 1580.0 0.9626603168447697 1
gene  1 29 38 0.004612721398211561 0 1582.0 0.004612721398211561 1
gene  1 34 38 -0.13335864377295714 0 1587.0 -0.13335864377295714 1
gene  1 36 38 0.531746224142341 0 1589.0 0.531746224142341 1
gene  1 37 38 -0.2943210828814935 0 1590.0 -0.2943210828814935 1
gene  1 41 38 0.18246443975946425 1 1594.0 0.18246443975946425 1
gene  1 2 39 0.15521592879166834 0 1597.0 0.15521592879166834 1
gene  1 3 39 0.4734645026473423 0 1598.0 0.4734645026473423 1
gene  1 6 39 0.18347680333458083 0 1601.0 0.18347680333458083 1
gene  1 8 39 -0.15540040048075443 0 1603.0 -0.15540040048075443 1
gene  1 13 39 0.4769641108579322 0 1608.0 0.4769641108579322 1
gene  1 18 39 0.44922452971466875 0 1613.0 0.44922452971466875 1
gene  1 20 39 0.20710714022971077 0 1615.0 0.20710714022971077 1
gene  1 21 39 -0.48151592744535077 0 1616.0 -0.48151592744535077 1
gene  1 25 39 0.5703969506556092 0 1620.0 0.5703969506556092 1
gene  1 26 39 0.260883993787864 0 1621.0 0.260883993787864 1
gene  1 28 39 0.09226846528364574 0 1623.0 0.09226846528364574 1
gene  1 29 39 -0.865094549964487 0 1624.0 -0.865094549964487 1
gene  1 34 39 0.1283811950495931 0 1629.0 0.1283811950495931 1
gene  1 36 39 -0.41246243727448473 0 1631.0 -0.41246243727448473 1
gene  1 38 39 0.05498050960278367 0 1633.0 0.05498050960278367 1
gene  1 41 39 -0.9986213166141078 1 1636.0 -0.9986213166141078 1
gene  1 4 40 -0.10150711528756007 0 1641.0 -0.10150711528756007 1
gene  1 7 40 -0.7953994678906193 0 1644.0 -0.7953994678906193 1
gene  1 8 40 0.6933907940880387 0 1645.0 0.6933907940880387 1
gene  1 10 40 -0.8316093305889022 0 1647.0 -0.8316093305889022 1
gene  1 12 40 -0.31588525291721303 0 1649.0 -0.31588525291721303 1
gene  1 16 40 0.49967644008338585 0 1653.0 0.49967644008338585 1
gene  1 17 40 0.14778376289225859 0 1654.0 0.14778376289225859 1
gene  1 19 40 -0.9759903050343633 0 1656.0 -0.9759903050343633 1
gene  1 23 40 -0.9414441865168544 0 1660.0 -0.9414441865168544 1
gene  1 24 40 -0.8582290373542295 0 1661.0 -0.8582290373542295 1
gene  1 25 40 0.84068306460847 0 1662.0 0.84068306460847 1
gene  1 26 40 -0.9662926444009006 0 1663.0 -0.9662926444009006 1
gene  1 34 40 0.22687714307614582 0 1671.0 0.22687714307614582 1
gene  1 35 40 -0.4055834167048483 0 1672.0 -0.4055834167048483 1
gene  1 37 40 -0.6218043287889037 0 1674.0 -0.6218043287889037 1
gene  1 38 40 -0.6486049573995755 0 1675.0 -0.6486049573995755 1
gene  1 41 40 -0.5633855273778962 1 1678.0 -0.5633855273778962 1
gene  1 2 41 0.549038459525161 0 1681.0 0.549038459525161 1
gene  1 3 41 0.03467904417106915 0 1682.0 0.03467904417106915 1
gene  1 7 41 0.09590765654947708 0 1686.0 0.09590765654947708 1
gene  1 8 41 -0.7964873111591578 0 1687.0 -0.7964873111591578 1
gene  1 9 41 -0.2684358189869841 0 1688.0 -0.2684358189869841 1
gene  1 10 41 0.7109885518707004 0 1689.0 0.7109885518707004 1
gene  1 14 41 0.1436333456827431 0 1693.0 0.1436333456827431 1
gene  1 17 41 0.6571894086879879 0 1696.0 0.6571894086879879 1
gene  1 18 41 0.04442849936205673 0 1697.0 0.04442849936205673 1
gene  1 24 41 -0.3984992537629277 0 1703.0 -0.3984992537629277 1
gene  1 25 41 0.14754443073259604 0 1704.0 0.14754443073259604 1
gene  1 27 41 0.536425926663615 0 1706.0 0.536425926663615 1
gene  1 28 41 -0.7903736000983127 0 1707.0 -0.7903736000983127 1
gene  1 34 41 -0.6993243407160117 0 1713.0 -0.6993243407160117 1
gene  1 38 41 -0.6098284020131534 0 1717.0 -0.6098284020131534 1
gene  1 41 41 0.5573818986404445 1 1720.0 0.5573818986404445 1
gene  1 2 42 -0.7641038387873673 0 1723.0 -0.7641038387873673 1
gene  1 5 42 0.39428357712888695 0 1726.0 0.39428357712888695 1
gene  1 7 42 0.3567146464536005 0 1728.0 0.3567146464536005 1
gene  1 8 42 0.9085650830844046 0 1729.0 0.9085650830844046 1
gene  1 9 42 -0.05682436210971786 0 1730.0 -0.05682436210971786 1
gene  1 10 42 0.9604898362284077 0 1731.0 0.9604898362284077 1
gene  1 13 42 -0.4242933850286783 0 1734.0 -0.4242933850286783 1
gene  1 15 42 -0.7575477425846874 0 1736.0 -0.7575477425846874 1
gene  1 16 42 0.20055230205950114 0 1737.0 0.20055230205950114 1
gene  1 19 42 0.053937576634699 0 1740.0 0.053937576634699 1
gene  1 23 42 -0.3953268495327176 0 1744.0 -0.3953268495327176 1
gene  1 24 42 0.2643407814164622 0 1745.0 0.2643407814164622 1
gene  1 27 42 0.9655654120989441 0 1748.0 0.9655654120989441 1
gene  1 29 42 -0.8746543753044153 0 1750.0 -0.8746543753044153 1
gene  1 34 42 -0.7898163925019522 0 1755.0 -0.7898163925019522 1
gene  1 35 42 -0.41941954408082105 0 1756.0 -0.41941954408082105 1
gene  1 38 42 0.40732111428787343 0 1759.0 0.40732111428787343 1
gene  1 39 42 0.3036298972875774 0 1760.0 0.3036298972875774 1
genomeend 3
/* Organism # 004 Fitness:  0.000 Error:  0.000                      */
genomestart  4
trait 1 0.0 0.0 0.0 0.0 0.0 0.0 0.0 0.0 
node 1 1 1 1
node 2 1 1 1
node 3 1 1 1
node 4 1 1 1
node 5 1 1 1
node 6 1 1 1
node 7 1 1 1
node 8 1 1 1
node 9 1 1 1
node 10 1 1 1
node 11 1 1 1
node 12 1 1 1
node 13 1 1 1
node 14 1 1 1
node 15 1 1 1
node 16 1 1 1
node 17 1 1 1
node 18 1 1 1
node 19 1 1 1
node 20 1 1 1
node 21 1 1 1
node 22 1 1 1
node 23 1 1 1
node 24 1 1 1
node 25 1 1 1
node 26 1 1 1
node 27 1 1 1
node 28 1 1 3
node 29 1 0 0
node 34 1 0 2
node 35 1 0 2
node 36 1 0 2
node 37 1 0 2
node 38 1 0 2
node 39 1 0 2
node 40 1 0 2
node 41 1 0 2
node 42 1 0 2
node 54 1 0 0
gene  1 1 29 -0.26914529864655445 0 1176.0 -0.26914529864655445 1
gene  1 4 29 -0.96591479607836 0 1179.0 -0.96591479607836 1
gene  1 13 29 -0.09691889932397246 0 1188.0 -0.09691889932397246 1
gene  1 14 29 -0.9052076767910485 0 1189.0 -0.9052076767910485 1
gene  1 16 29 0.596263072465675 0 1191.0 0.596263072465675 1
gene  1 17 29 -0.5338337491753894 0 1192.0 -0.5338337491753894 1
gene  1 19 29 -0.4816674683048566 0 1194.0 -0.4816674683048566 1
gene  1 20 29 0.5677804493534645 0 1195.0 0.5677804493534645 1
gene  1 21 29 0.14680022823571304 0 1196.0 0.14680022823571304 1
gene  1 22 29 0.48663202169187425 0 1197.0 0.48663202169187425 1
gene  1 26 29 0.5045787428403729 0 1201.0 0.5045787428403729 1
gene  1 27 29 -0.43626760333397163 0 1202.0 -0.43626760333397163 1
gene  1 29 29 0.11254588138782817 1 1204.0 0.11254588138782817 1
gene  1 36 29 0.1730042733589312 1 1211.0 0.1730042733589312 1
gene  1 37 29 0.3594857170816341 1 1212.0 0.3594857170816341 1
gene  1 39 29 -0.5561411026632628 1 1214.0 -0.5561411026632628 1
gene  1 40 29 -0.7219390559281171 1 1215.0 -0.7219390559281171 1
gene  1 42 29 0.5400877965256228 1 1217.0 0.5400877965256228 1
gene  1 2 34 -0.6908040662701704 0 1387.0 -0.6908040662701704 1
gene  1 3 34 0.8446097839253135 0 1388.0 0.8446097839253135 1
gene  1 6 34 0.3457536740196985 0 1391.0 0.3457536740196985 1
gene  1 8 34 -0.8441752274904635 0 1393.0 -0.8441752274904635 1
gene  1 11 34 -0.8473416747363741 0 1396.0 -0.8473416747363741 1
gene  1 13 34 -0.8154952541507069 0 1398.0 -0.8154952541507069 1
gene  1 16 34 -0.5894188707528405 0 1401.0 -0.5894188707528405 1
gene  1 17 34 -0.8611191321342346 0 1402.0 -0.8611191321342346 1
gene  1 20 34 -0.383622516497668 0 1405.0 -0.383622516497668 1
gene  1 21 34 -0.8294892153099546 0 1406.0 -0.8294892153099546 1
gene  1 22 34 0.1375086052520541 0 1407.0 0.1375086052520541 1
gene  1 23 34 0.06900046271302374 0 1408.0 0.06900046271302374 1
gene  1 28 34 0.9651230253614052 0 1413.0 0.9651230253614052 1
gene  1 29 34 -0.30153334601427106 0 1414.0 -0.30153334601427106 1
gene  1 37 34 0.6496605899378777 1 1422.0 0.6496605899378777 0
gene  1 38 34 -0.6026479291968684 1 1423.0 -0.6026479291968684 1
gene  1 40 34 0.82430032745103 1 1425.0 0.82430032745103 1
gene  1 5 35 -0.5157717939205254 0 1432.0 -0.5157717939205254 1
gene  1 8 35 -0.9878706535910822 0 1435.0 -0.9878706535910822 1
gene  1 10 35 0.6939514404197995 0 1437.0 0.6939514404197995 1
gene  1 11 35 -0.6510519034890427 0 1438.0 -0.6510519034890427 1
gene  1 14 35 0.18084392168422447 0 1441.0 0.18084392168422447 1
gene  1 15 35 0.6868565880078586 0 1442.0 0.6868565880078586 1
gene  1 16 35 0.7559933891643733 0 1443.0 0.7559933891643733 1
gene  1 17 35 0.8555704516547517 0 1444.0 0.8555704516547517 1
gene  1 18 35 0.007536426874474089 0 1445.0 0.007536426874474089 1
gene  1 20 35 0.8629729916100413 0 1447.0 0.8629729916100413 1
gene  1 21 35 0.41958347688110387 0 1448.0 0.41958347688110387 1
gene  1 23 35 0.5066136589217881 0 1450.0 0.5066136589217881 1
gene  1 24 35 0.16968944349684711 0 1451.0 0.16968944349684711 1
gene  1 26 35 0.7408345371444358 0 1453.0 0.7408345371444358 1
gene  1 27 35 0.3489601302391909 0 1454.0 0.3489601302391909 1
gene  1 28 35 -0.5890318349381167 0 1455.0 -0.5890318349381167 1
gene  1 29 35 -0.8898246192721065 0 1456.0 -0.8898246192721065 1
gene  1 37 35 0.005099728579491591 1 1464.0 0.005099728579491591 1
gene  1 39 35 0.9447208485111835 1 1466.0 0.9447208485111835 1
gene  1 40 35 0.1279045933784717 1 1467.0 0.1279045933784717 1
gene  1 1 36 0.804679309995975 0 1470.0 0.804679309995975 1
gene  1 3 36 -0.14937827288486416 0 1472.0 -0.14937827288486416 1
gene  1 4 36 0.4663492646386064 0 1473.0 0.4663492646386064 1
gene  1 5 36 -0.9516160235618434 0 1474.0 -0.9516160235618434 1
gene  1 6 36 -0.5535074758174796 0 1475.0 -0.5535074758174796 1
gene  1 8 36 0.5834323754091305 0 1477.0 0.5834323754091305 1
gene  1 11 36 -0.28827409641683055 0 1480.0 -0.28827409641683055 1
gene  1 12 36 0.5933146306010526 0 1481.0 0.5933146306010526 1
gene  1 14 36 0.8938446972305809 0 1483.0 0.8938446972305809 1
gene  1 15 36 -0.20909511873034503 0 1484.0 -0.20909511873034503 1
gene  1 16 36 -0.04086012523372884 0 1485.0 -0.04086012523372884 1
gene  1 18 36 0.9119940955298554 0 1487.0 0.9119940955298554 1
gene  1 19 36 0.8949972603090862 0 1488.0 0.8949972603090862 1
gene  1 20 36 -0.5168552993206984 0 1489.0 -0.5168552993206984 1
gene  1 23 36 0.11409871980518105 0 1492.0 0.11409871980518105 1
gene  1 27 36 -0.2253122088641779 0 1496.0 -0.2253122088641779 1
gene  1 28 36 0.5577525724560045 0 1497.0 0.5577525724560045 1
gene  1 29 36 -0.5679583071366583 0 1498.0 -0.5679583071366583 1
gene  1 34 36 0.23442018850061663 0 1503.0 0.23442018850061663 1
gene  1 35 36 0.032523195802131144 0 1504.0 0.032523195802131144 1
gene  1 39 36 -0.8380385899009296 1 1508.0 -0.8380385899009296 1
gene  1 40 36 -0.8871247510982585 1 1509.0 -0.8871247510982585 1
gene  1 42 36 -0.6157493017826867 1 1511.0 -0.6157493017826867 1
gene  1 5 37 0.13570032458572567 0 1516.0 0.13570032458572567 1
gene  1 7 37 -0.1501793005343347 0 1518.0 -0.1501793005343347 1
gene  1 9 37 -0.7214423117178796 0 1520.0 -0.7214423117178796 1
gene  1 10 37 -0.07080153228356989 0 1521.0 -0.07080153228356989 1
gene  1 11 37 0.18080845867477335 0 1522.0 0.18080845867477335 1
gene  1 13 37 -0.23907218265296737 0 1524.0 -0.23907218265296737 1
gene  1 16 37 0.04136989706204397 0 1527.0 0.04136989706204397 1
gene  1 17 37 0.718178726388048 0 1528.0 0.718178726388048 1
gene  1 19 37 -0.2990639672014628 0 1530.0 -0.2990639672014628 1
gene  1 21 37 -0.9464968038978082 0 1532.0 -0.9464968038978082 1
gene  1 23 37 0.3367078029898103 0 1534.0 0.3367078029898103 1
gene  1 24 37 0.7899523712353268 0 1535.0 0.7899523712353268 1
gene  1 28 37 0.7671831326691972 0 1539.0 0.7671831326691972 1
gene  1 34 37 0.07067194598230186 0 1545.0 0.07067194598230186 1
gene  1 36 37 0.757308311834939 0 1547.0 0.757308311834939 1
gene  1 39 37 -0.02237736007833302 1 1550.0 -0.02237736007833302 1
gene  1 40 37 0.9782313905358732 1 1551.0 0.9782313905358732 1
gene  1 42 37 0.8053072296645558 1 1553.0 0.8053072296645558 1
gene  1 4 38 -0.5755822579677223 0 1557.0 -0.5755822579677223 1
gene  1 6 38 0.17279226209841303 0 1559.0 0.17279226209841303 1
gene  1 7 38 -0.7503855404377869 0 1560.0 -0.7503855404377869 1
gene  1 10 38 0.3293139262801359 0 1563.0 0.3293139262801359 1
gene  1 11 38 -0.7127228547374179 0 1564.0 -0.7127228547374179 1
gene  1 14 38 0.0566423909690531 0 1567.0 0.0566423909690531 1
gene  1 17 38 -0.24842232078370396 0 1570.0 -0.24842232078370396 1
gene  1 18 38 0.04499477732055068 0 1571.0 0.04499477732055068 1
gene  1 20 38 -0.12712068111095687 0 1573.0 -0.12712068111095687 1
gene  1 21 38 -0.8322900761737989 0 1574.0 -0.8322900761737989 1
gene  1 25 38 0.8734388949656683 0 1578.0 0.8734388949656683 1
gene  1 26 38 0.8842434000871712 0 1579.0 0.8842434000871712 1
gene  1 27 38 0.9626603168447697 0 1580.0 0.9626603168447697 1
gene  1 29 38 0.004612721398211561 0 1582.0 0.004612721398211561 1
gene  1 34 38 -0.13335864377295714 0 1587.0 -0.13335864377295714 1
gene  1 36 38 0.531746224142341 0 1589.0 0.531746224142341 1
gene  1 37 38 -0.2943210828814935 0 1590.0 -0.2943210828814935 1
gene  1 41 38 0.18246443975946425 1 1594.0 0.18246443975946425 1
gene  1 2 39 0.15521592879166834 0 1597.0 0.15521592879166834 1
gene  1 3 39 0.4734645026473423 0 1598.0 0.4734645026473423 1
gene  1 6 39 0.18347680333458083 0 1601.0 0.18347680333458083 1
gene  1 8 39 -0.15540040048075443 0 1603.0 -0.15540040048075443 1
gene  1 13 39 0.4769641108579322 0 1608.0 0.4769641108579322 1
gene  1 18 39 0.44922452971466875 0 1613.0 0.44922452971466875 1
gene  1 20 39 0.20710714022971077 0 1615.0 0.20710714022971077 1
gene  1 21 39 -0.48151592744535077 0 1616.0 -0.48151592744535077 1
gene  1 25 39 0.5703969506556092 0 1620.0 0.5703969506556092 1
gene  1 26 39 0.260883993787864 0 1621.0 0.260883993787864 1
gene  1 28 39 0.09226846528364574 0 1623.0 0.09226846528364574 1
gene  1 29 39 -0.865094549964487 0 1624.0 -0.865094549964487 1
gene  1 34 39 0.1283811950495931 0 1629.0 0.1283811950495931 1
gene  1 36 39 -0.41246243727448473 0 1631.0 -0.41246243727448473 1
gene  1 38 39 0.05498050960278367 0 1633.0 0.05498050960278367 1
gene  1 41 39 -0.9986213166141078 1 1636.0 -0.9986213166141078 1
gene  1 4 40 -0.10150711528756007 0 1641.0 -0.10150711528756007 1
gene  1 7 40 -0.7953994678906193 0 1644.0 -0.7953994678906193 1
gene  1 8 40 0.6933907940880387 0 1645.0 0.6933907940880387 1
gene  1 10 40 -0.8316093305889022 0 1647.0 -0.8316093305889022 1
gene  1 12 40 -0.31588525291721303 0 1649.0 -0.31588525291721303 1
gene  1 16 40 0.49967644008338585 0 1653.0 0.49967644008338585 1
gene  1 17 40 0.14778376289225859 0 1654.0 0.14778376289225859 1
gene  1 19 40 -0.9759903050343633 0 1656.0 -0.9759903050343633 1
gene  1 23 40 -0.9414441865168544 0 1660.0 -0.9414441865168544 1
gene  1 24 40 -0.8582290373542295 0 1661.0 -0.8582290373542295 1
gene  1 25 40 0.84068306460847 0 1662.0 0.84068306460847 1
gene  1 26 40 -0.9662926444009006 0 1663.0 -0.9662926444009006 1
gene  1 34 40 0.22687714307614582 0 1671.0 0.22687714307614582 1
gene  1 35 40 -0.4055834167048483 0 1672.0 -0.4055834167048483 1
gene  1 37 40 -0.6218043287889037 0 1674.0 -0.6218043287889037 1
gene  1 38 40 -0.6486049573995755 0 1675.0 -0.6486049573995755 1
gene  1 41 40 -0.5633855273778962 1 1678.0 -0.5633855273778962 1
gene  1 2 41 0.549038459525161 0 1681.0 0.549038459525161 1
gene  1 3 41 0.03467904417106915 0 1682.0 0.03467904417106915 1
gene  1 7 41 0.09590765654947708 0 1686.0 0.09590765654947708 1
gene  1 8 41 -0.7964873111591578 0 1687.0 -0.7964873111591578 1
gene  1 9 41 -0.2684358189869841 0 1688.0 -0.2684358189869841 1
gene  1 10 41 0.7109885518707004 0 1689.0 0.7109885518707004 1
gene  1 14 41 0.1436333456827431 0 1693.0 0.1436333456827431 1
gene  1 17 41 0.6571894086879879 0 1696.0 0.6571894086879879 1
gene  1 18 41 0.04442849936205673 0 1697.0 0.04442849936205673 1
gene  1 24 41 -0.3984992537629277 0 1703.0 -0.3984992537629277 1
gene  1 25 41 0.14754443073259604 0 1704.0 0.14754443073259604 1
gene  1 27 41 0.536425926663615 0 1706.0 0.536425926663615 1
gene  1 28 41 -0.7903736000983127 0 1707.0 -0.7903736000983127 1
gene  1 34 41 -0.6993243407160117 0 1713.0 -0.6993243407160117 1
gene  1 38 41 -0.6098284020131534 0 1717.0 -0.6098284020131534 1
gene  1 41 41 0.5573818986404445 1 1720.0 0.5573818986404445 1
gene  1 2 42 -0.7641038387873673 0 1723.0 -0.7641038387873673 1
gene  1 5 42 0.39428357712888695 0 1726.0 0.39428357712888695 1
gene  1 7 42 0.3567146464536005 0 1728.0 0.3567146464536005 1
gene  1 8 42 0.9085650830844046 0 1729.0 0.9085650830844046 1
gene  1 9 42 -0.05682436210971786 0 1730.0 -0.05682436210971786 1
gene  1 10 42 0.9604898362284077 0 1731.0 0.9604898362284077 1
gene  1 13 42 -0.4242933850286783 0 1734.0 -0.4242933850286783 1
gene  1 15 42 -0.7575477425846874 0 1736.0 -0.7575477425846874 1
gene  1 16 42 0.20055230205950114 0 1737.0 0.20055230205950114 1
gene  1 19 42 0.053937576634699 0 1740.0 0.053937576634699 1
gene  1 23 42 -0.3953268495327176 0 1744.0 -0.3953268495327176 1
gene  1 24 42 0.2643407814164622 0 1745.0 0.2643407814164622 1
gene  1 27 42 0.9655654120989441 0 1748.0 0.9655654120989441 1
gene  1 29 42 -0.8746543753044153 0 1750.0 -0.8746543753044153 1
gene  1 34 42 -0.7898163925019522 0 1755.0 -0.7898163925019522 1
gene  1 35 42 -0.41941954408082105 0 1756.0 -0.41941954408082105 1
gene  1 38 42 0.40732111428787343 0 1759.0 0.40732111428787343 1
gene  1 39 42 0.3036298972875774 0 1760.0 0.3036298972875774 1
gene  1 37 54 1.0 1 1787.0 0.0 1
gene  1 54 34 0.6496605899378777 0 1788.0 0.0 1
genomeend 4
/*-------------------------------------------------------------------*/
/* Species # 009         : (size= 002) (AvfFit= 28.768) (Age= 2.000)  */
/*-------------------------------------------------------------------*/
/* Organism # 005 Fitness:  0.000 Error:  0.000                      */
genomestart  5
trait 1 0.0 0.0 0.0 0.0 0.0 0.0 0.0 0.0 
node 1 1 1 1
node 2 1 1 1
node 3 1 1 1
node 4 1 1 1
node 5 1 1 1
node 6 1 1 1
node 7 1 1 1
node 8 1 1 1
node 9 1 1 1
node 10 1 1 1
node 11 1 1 1
node 12 1 1 1
node 13 1 1 1
node 14 1 1 1
node 15 1 1 1
node 16 1 1 1
node 17 1 1 1
node 18 1 1 1
node 19 1 1 1
node 20 1 1 1
node 21 1 1 1
node 22 1 1 1
node 23 1 1 1
node 24 1 1 1
node 25 1 1 1
node 26 1 1 1
node 27 1 1 1
node 28 1 1 3
node 29 1 0 0
node 30 1 0 0
node 34 1 0 2
node 35 1 0 2
node 36 1 0 2
node 37 1 0 2
node 38 1 0 2
node 39 1 0 2
node 40 1 0 2
node 41 1 0 2
node 42 1 0 2
gene  1 2 29 -0.9068579487661299 0 1177.0 -0.9068579487661299 1
gene  1 3 29 -0.9156207299985026 0 1178.0 -0.9156207299985026 1
gene  1 4 29 0.21557822908447444 0 1179.0 0.21557822908447444 1
gene  1 9 29 -0.7612822555478514 0 1184.0 -0.7612822555478514 1
gene  1 10 29 0.5538298788312709 0 1185.0 0.5538298788312709 1
gene  1 13 29 0.307539999002605 0 1188.0 0.307539999002605 1
gene  1 14 29 0.6199719164398125 0 1189.0 0.6199719164398125 1
gene  1 15 29 -0.03683495213239363 0 1190.0 -0.03683495213239363 1
gene  1 16 29 0.6134591775828985 0 1191.0 0.6134591775828985 1
gene  1 17 29 -0.16765136687086457 0 1192.0 -0.16765136687086457 1
gene  1 21 29 -0.4063856918135782 0 1196.0 -0.4063856918135782 1
gene  1 23 29 0.06814226557450209 0 1198.0 0.06814226557450209 1
gene  1 24 29 -0.6051127373936375 0 1199.0 -0.6051127373936375 1
gene  1 25 29 0.11186485970628435 0 1200.0 0.11186485970628435 1
gene  1 28 29 -0.42381650729008336 0 1203.0 -0.42381650729008336 1
gene  1 35 29 -0.500998504861114 1 1210.0 -0.500998504861114 1
gene  1 37 29 0.19127500739219472 1 1212.0 0.19127500739219472 1
gene  1 38 29 0.06209313523556881 1 1213.0 0.06209313523556881 1
gene  1 39 29 -0.9084333160197062 1 1214.0 -0.9084333160197062 1
gene  1 42 29 -0.7550890237444122 1 1217.0 -0.7550890237444122 1
gene  1 1 30 0.1649868421471936 0 1218.0 0.1649868421471936 1
gene  1 2 30 -0.39509261907593674 0 1219.0 -0.39509261907593674 1
gene  1 4 30 0.8511423948956779 0 1221.0 0.8511423948956779 1
gene  1 5 30 -0.4774919080558663 0 1222.0 -0.4774919080558663 1
gene  1 6 30 0.9780134356453354 0 1223.0 0.9780134356453354 1
gene  1 8 30 0.9056915097938703 0 1225.0 0.9056915097938703 1
gene  1 14 30 -0.1823761722259486 0 1231.0 -0.1823761722259486 1
gene  1 15 30 -0.5976268942863661 0 1232.0 -0.5976268942863661 1
gene  1 18 30 -0.14467124652946473 0 1235.0 -0.14467124652946473 1
gene  1 19 30 0.5073043833834447 0 1236.0 0.5073043833834447 1
gene  1 20 30 0.9662148647516764 0 1237.0 0.9662148647516764 1
gene  1 23 30 0.15176987991114488 0 1240.0 0.15176987991114488 1
gene  1 24 30 -0.4201975487475984 0 1241.0 -0.4201975487475984 1
gene  1 25 30 -0.09398004276704375 0 1242.0 -0.09398004276704375 1
gene  1 28 30 -0.6060898586803098 0 1245.0 -0.6060898586803098 1
gene  1 29 30 -0.6998878784528012 0 1246.0 -0.6998878784528012 1
gene  1 34 30 0.6768878829166909 1 1251.0 0.6768878829166909 1
gene  1 35 30 -0.2573370228971593 1 1252.0 -0.2573370228971593 1
gene  1 36 30 -0.026738743730071013 1 1253.0 -0.026738743730071013 1
gene  1 37 30 0.3128561844897588 1 1254.0 0.3128561844897588 1
gene  1 38 30 0.7345888268219977 1 1255.0 0.7345888268219977 1
gene  1 39 30 0.19114931898568 1 1256.0 0.19114931898568 1
gene  1 41 30 -0.9713560747416321 1 1258.0 -0.9713560747416321 1
gene  1 2 34 -0.5463266829503014 0 1387.0 -0.5463266829503014 1
gene  1 3 34 -0.6275258095113837 0 1388.0 -0.6275258095113837 1
gene  1 4 34 0.6504668412047826 0 1389.0 0.6504668412047826 1
gene  1 5 34 0.8579574490767876 0 1390.0 0.8579574490767876 1
gene  1 9 34 0.8677198965124455 0 1394.0 0.8677198965124455 1
gene  1 13 34 0.47424749316891646 0 1398.0 0.47424749316891646 1
gene  1 15 34 0.9572820429532015 0 1400.0 0.9572820429532015 1
gene  1 17 34 0.10316518254475082 0 1402.0 0.10316518254475082 1
gene  1 19 34 -0.7909959219613846 0 1404.0 -0.7909959219613846 1
gene  1 20 34 0.0634415086722967 0 1405.0 0.0634415086722967 1
gene  1 21 34 0.8790465835429038 0 1406.0 0.8790465835429038 1
gene  1 22 34 0.8326297926936728 0 1407.0 0.8326297926936728 1
gene  1 23 34 -0.6728675558379298 0 1408.0 -0.6728675558379298 1
gene  1 24 34 0.7616511652018741 0 1409.0 0.7616511652018741 1
gene  1 27 34 0.5398419857322427 0 1412.0 0.5398419857322427 1
gene  1 28 34 -0.4521908552053131 0 1413.0 -0.4521908552053131 1
gene  1 29 34 -0.2036825922394654 0 1414.0 -0.2036825922394654 1
gene  1 36 34 0.41000659750256707 1 1421.0 0.41000659750256707 1
gene  1 37 34 -0.06862927831835808 1 1422.0 -0.06862927831835808 1
gene  1 38 34 -0.5091003127474641 1 1423.0 -0.5091003127474641 1
gene  1 40 34 0.10292056982845454 1 1425.0 0.10292056982845454 1
gene  1 2 35 0.510862280802485 0 1429.0 0.510862280802485 1
gene  1 4 35 0.32853221840525304 0 1431.0 0.32853221840525304 1
gene  1 5 35 -0.5940001775231484 0 1432.0 -0.5940001775231484 1
gene  1 6 35 -0.216601189572715 0 1433.0 -0.216601189572715 1
gene  1 7 35 -0.4509610420813731 0 1434.0 -0.4509610420813731 1
gene  1 9 35 -0.11121271490274265 0 1436.0 -0.11121271490274265 1
gene  1 14 35 0.047061416810782686 0 1441.0 0.047061416810782686 1
gene  1 16 35 0.9722361486283019 0 1443.0 0.9722361486283019 1
gene  1 18 35 0.48905575838504345 0 1445.0 0.48905575838504345 1
gene  1 19 35 -0.5986141703240712 0 1446.0 -0.5986141703240712 1
gene  1 21 35 0.8703201748621403 0 1448.0 0.8703201748621403 1
gene  1 24 35 -0.1335020015529813 0 1451.0 -0.1335020015529813 1
gene  1 27 35 0.21082416549362093 0 1454.0 0.21082416549362093 1
gene  1 30 35 -0.5900912918162855 0 1457.0 -0.5900912918162855 1
gene  1 35 35 -0.30673864466496514 1 1462.0 -0.30673864466496514 1
gene  1 37 35 0.7156691821900455 1 1464.0 0.7156691821900455 1
gene  1 40 35 0.5647885076910832 1 1467.0 0.5647885076910832 1
gene  1 41 35 -0.03750540723010065 1 1468.0 -0.03750540723010065 1
gene  1 1 36 -0.9281897109031768 0 1470.0 -0.9281897109031768 1
gene  1 2 36 -0.27496831549450884 0 1471.0 -0.27496831549450884 1
gene  1 4 36 0.11656137048979742 0 1473.0 0.11656137048979742 1
gene  1 5 36 -0.31740248599836196 0 1474.0 -0.31740248599836196 1
gene  1 6 36 0.04211280679631413 0 1475.0 0.04211280679631413 1
gene  1 8 36 -0.11836159495012166 0 1477.0 -0.11836159495012166 1
gene  1 10 36 0.9562127994291492 0 1479.0 0.9562127994291492 1
gene  1 14 36 -0.5629510289284594 0 1483.0 -0.5629510289284594 1
gene  1 17 36 -0.6520833596338429 0 1486.0 -0.6520833596338429 1
gene  1 18 36 -0.13933949821037928 0 1487.0 -0.13933949821037928 1
gene  1 21 36 -0.660400293595514 0 1490.0 -0.660400293595514 1
gene  1 22 36 0.36580725969814487 0 1491.0 0.36580725969814487 1
gene  1 23 36 -0.822426206019187 0 1492.0 -0.822426206019187 1
gene  1 24 36 -0.3619847400736532 0 1493.0 -0.3619847400736532 1
gene  1 25 36 0.7270053355733573 0 1494.0 0.7270053355733573 1
gene  1 27 36 -0.49828974841993734 0 1496.0 -0.49828974841993734 1
gene  1 28 36 -0.9421017427947295 0 1497.0 -0.9421017427947295 1
gene  1 29 36 -0.05811135482321039 0 1498.0 -0.05811135482321039 1
gene  1 35 36 0.07963450416547824 0 1504.0 0.07963450416547824 1
gene  1 36 36 0.6798451908429635 1 1505.0 0.6798451908429635 1
gene  1 38 36 -0.25860230978242815 1 1507.0 -0.25860230978242815 1
gene  1 40 36 -0.7261491711467001 1 1509.0 -0.7261491711467001 1
gene  1 1 37 0.18110509048820445 0 1512.0 0.18110509048820445 1
gene  1 3 37 -0.17131252434991928 0 1514.0 -0.17131252434991928 1
gene  1 5 37 0.9680806181231619 0 1516.0 0.9680806181231619 1
gene  1 6 37 -0.8178291879306315 0 1517.0 -0.8178291879306315 1
gene  1 7 37 0.33194913749513977 0 1518.0 0.33194913749513977 1
gene  1 8 37 -0.4003567902166276 0 1519.0 -0.4003567902166276 1
gene  1 9 37 -0.7723413000306855 0 1520.0 -0.7723413000306855 1
gene  1 10 37 -0.9487359216909381 0 1521.0 -0.9487359216909381 1
gene  1 11 37 -0.17942214408597523 0 1522.0 -0.17942214408597523 1
gene  1 12 37 0.3479382865620544 0 1523.0 0.3479382865620544 1
gene  1 13 37 0.9249789296382251 0 1524.0 0.9249789296382251 1
gene  1 15 37 -0.30740282448631806 0 1526.0 -0.30740282448631806 1
gene  1 16 37 0.8762473995840522 0 1527.0 0.8762473995840522 1
gene  1 20 37 -0.9269665497425471 0 1531.0 -0.9269665497425471 1
gene  1 21 37 0.5255370366329453 0 1532.0 0.5255370366329453 1
gene  1 29 37 -0.007691504998683207 0 1540.0 -0.007691504998683207 1
gene  1 30 37 -0.7425013617023062 0 1541.0 -0.7425013617023062 1
gene  1 34 37 -0.60040737341155 0 1545.0 -0.60040737341155 1
gene  1 35 37 -0.9291635524543814 0 1546.0 -0.9291635524543814 1
gene  1 36 37 0.43043740506009065 0 1547.0 0.43043740506009065 1
gene  1 38 37 -0.46915263801683005 1 1549.0 -0.46915263801683005 1
gene  1 41 37 0.4789725834597681 1 1552.0 0.4789725834597681 1
gene  1 42 37 0.22629311607820557 1 1553.0 0.22629311607820557 1
gene  1 2 38 0.93936892892433 0 1555.0 0.93936892892433 1
gene  1 4 38 0.6126936609874131 0 1557.0 0.6126936609874131 1
gene  1 7 38 0.7419203241181418 0 1560.0 0.7419203241181418 1
gene  1 9 38 0.5282166391771792 0 1562.0 0.5282166391771792 1
gene  1 10 38 -0.2965872995780421 0 1563.0 -0.2965872995780421 1
gene  1 11 38 -0.3563058952545911 0 1564.0 -0.3563058952545911 1
gene  1 12 38 0.49408957929387787 0 1565.0 0.49408957929387787 1
gene  1 15 38 -0.34519934806419106 0 1568.0 -0.34519934806419106 1
gene  1 16 38 -0.25478497480000006 0 1569.0 -0.25478497480000006 1
gene  1 18 38 -0.7277092870871532 0 1571.0 -0.7277092870871532 1
gene  1 19 38 -0.8356261497059175 0 1572.0 -0.8356261497059175 1
gene  1 20 38 0.3486489468178702 0 1573.0 0.3486489468178702 1
gene  1 23 38 -0.07410468983776552 0 1576.0 -0.07410468983776552 1
gene  1 24 38 0.8752739497433287 0 1577.0 0.8752739497433287 1
gene  1 28 38 0.6273438725692849 0 1581.0 0.6273438725692849 1
gene  1 29 38 -0.8116620391301839 0 1582.0 -0.8116620391301839 1
gene  1 35 38 -0.5552043912249822 0 1588.0 -0.5552043912249822 1
gene  1 37 38 0.8044966889160745 0 1590.0 0.8044966889160745 1
gene  1 39 38 -0.005590559218766722 1 1592.0 -0.005590559218766722 1
gene  1 41 38 -0.6764107526779878 1 1594.0 -0.6764107526779878 1
gene  1 8 39 -0.8476688142189875 0 1603.0 -0.8476688142189875 1
gene  1 9 39 -0.593328596407283 0 1604.0 -0.593328596407283 1
gene  1 10 39 -0.37902060581511 0 1605.0 -0.37902060581511 1
gene  1 13 39 -0.5149645723126074 0 1608.0 -0.5149645723126074 1
gene  1 16 39 0.08224916749470157 0 1611.0 0.08224916749470157 1
gene  1 17 39 0.44821172175226587 0 1612.0 0.44821172175226587 1
gene  1 19 39 0.3408514250615825 0 1614.0 0.3408514250615825 1
gene  1 20 39 -0.2543492560677134 0 1615.0 -0.2543492560677134 1
gene  1 26 39 -0.381245441775667 0 1621.0 -0.381245441775667 1
gene  1 27 39 -0.6785526821773473 0 1622.0 -0.6785526821773473 1
gene  1 28 39 0.49091474820809333 0 1623.0 0.49091474820809333 1
gene  1 30 39 -0.9083679512576501 0 1625.0 -0.9083679512576501 1
gene  1 37 39 -0.1652717128557395 0 1632.0 -0.1652717128557395 1
gene  1 39 39 -0.38561180586267474 1 1634.0 -0.38561180586267474 1
gene  1 40 39 -0.5908951235276103 1 1635.0 -0.5908951235276103 1
gene  1 1 40 0.2887695279748336 0 1638.0 0.2887695279748336 1
gene  1 2 40 -0.8351403065168829 0 1639.0 -0.8351403065168829 1
gene  1 3 40 -0.24667432507291964 0 1640.0 -0.24667432507291964 1
gene  1 4 40 -0.2042393626063279 0 1641.0 -0.2042393626063279 1
gene  1 7 40 0.706943118721851 0 1644.0 0.706943118721851 1
gene  1 8 40 0.8500183479134797 0 1645.0 0.8500183479134797 1
gene  1 10 40 -0.5755299716241602 0 1647.0 -0.5755299716241602 1
gene  1 13 40 -0.10186423750585416 0 1650.0 -0.10186423750585416 1
gene  1 15 40 0.5840139804060199 0 1652.0 0.5840139804060199 1
gene  1 21 40 0.22957458582923662 0 1658.0 0.22957458582923662 1
gene  1 23 40 0.9387254675280553 0 1660.0 0.9387254675280553 1
gene  1 24 40 0.2703956752375436 0 1661.0 0.2703956752375436 1
gene  1 25 40 -0.08096003419060271 0 1662.0 -0.08096003419060271 1
gene  1 27 40 0.407649809929973 0 1664.0 0.407649809929973 1
gene  1 28 40 0.07115421002365407 0 1665.0 0.07115421002365407 1
gene  1 29 40 0.5375332361239809 0 1666.0 0.5375332361239809 1
gene  1 34 40 0.8694826532535042 0 1671.0 0.8694826532535042 1
gene  1 35 40 0.7840242300991751 0 1672.0 0.7840242300991751 1
gene  1 37 40 0.9660668154139588 0 1674.0 0.9660668154139588 1
gene  1 38 40 -0.24741175753468203 0 1675.0 -0.24741175753468203 1
gene  1 39 40 -0.8765414368472562 0 1676.0 -0.8765414368472562 1
gene  1 3 41 -0.9319736862576937 0 1682.0 -0.9319736862576937 1
gene  1 4 41 0.5996578956748573 0 1683.0 0.5996578956748573 1
gene  1 5 41 -0.3675656854913205 0 1684.0 -0.3675656854913205 1
gene  1 8 41 -0.7477751771396285 0 1687.0 -0.7477751771396285 1
gene  1 9 41 -0.19222928045597798 0 1688.0 -0.19222928045597798 1
gene  1 11 41 0.3095158646704623 0 1690.0 0.3095158646704623 1
gene  1 13 41 -0.1002072295459644 0 1692.0 -0.1002072295459644 1
gene  1 14 41 0.24392183892496788 0 1693.0 0.24392183892496788 1
gene  1 16 41 0.8352830533119789 0 1695.0 0.8352830533119789 1
gene  1 18 41 0.8842970340614903 0 1697.0 0.8842970340614903 1
gene  1 19 41 0.8877931334727673 0 1698.0 0.8877931334727673 1
gene  1 20 41 0.27564190671306044 0 1699.0 0.27564190671306044 1
gene  1 24 41 -0.4171929517741273 0 1703.0 -0.4171929517741273 1
gene  1 26 41 0.678260755124734 0 1705.0 0.678260755124734 1
gene  1 27 41 0.4519441842861559 0 1706.0 0.4519441842861559 1
gene  1 28 41 -0.6210348736916771 0 1707.0 -0.6210348736916771 1
gene  1 29 41 0.7494849649016951 0 1708.0 0.7494849649016951 1
gene  1 30 41 -0.7624106592825578 0 1709.0 -0.7624106592825578 1
gene  1 35 41 -0.6632318558325485 0 1714.0 -0.6632318558325485 1
gene  1 39 41 0.9911913476968665 0 1718.0 0.9911913476968665 1
gene  1 42 41 -0.7086550861936921 1 1721.0 -0.7086550861936921 1
gene  1 4 42 -0.22193728472539864 0 1725.0 -0.22193728472539864 1
gene  1 7 42 0.006574699265192607 0 1728.0 0.006574699265192607 1
gene  1 8 42 0.30628558582763243 0 1729.0 0.30628558582763243 1
gene  1 9 42 0.12924083483857318 0 1730.0 0.12924083483857318 1
gene  1 12 42 -0.14983126218576936 0 1733.0 -0.14983126218576936 1
gene  1 19 42 -0.7542810137820937 0 1740.0 -0.7542810137820937 1
gene  1 21 42 0.2213065445685667 0 1742.0 0.2213065445685667 1
gene  1 22 42 -0.2574376033058192 0 1743.0 -0.2574376033058192 1
gene  1 23 42 0.8456924876821313 0 1744.0 0.8456924876821313 1
gene  1 26 42 -0.6792981500431579 0 1747.0 -0.6792981500431579 1
gene  1 27 42 0.8592465135921358 0 1748.0 0.8592465135921358 1
gene  1 29 42 -0.7376304297048887 0 1750.0 -0.7376304297048887 1
gene  1 34 42 0.8680315736464175 0 1755.0 0.8680315736464175 1
gene  1 35 42 0.9000214886175316 0 1756.0 0.9000214886175316 1
gene  1 36 42 -0.7424830775499519 0 1757.0 -0.7424830775499519 1
gene  1 38 42 0.20672481012095079 0 1759.0 0.20672481012095079 1
gene  1 39 42 -0.3032525827296031 0 1760.0 -0.3032525827296031 1
gene  1 40 42 0.8319922877440274 0 1761.0 0.8319922877440274 1
genomeend 5
/* Organism # 006 Fitness:  0.000 Error:  0.000                      */
genomestart  6
trait 1 0.0 0.0 0.0 0.0 0.0 0.0 0.0 0.0 
node 1 1 1 1
node 2 1 1 1
node 3 1 1 1
node 4 1 1 1
node 5 1 1 1
node 6 1 1 1
node 7 1 1 1
node 8 1 1 1
node 9 1 1 1
node 10 1 1 1
node 11 1 1 1
node 12 1 1 1
node 13 1 1 1
node 14 1 1 1
node 15 1 1 1
node 16 1 1 1
node 17 1 1 1
node 18 1 1 1
node 19 1 1 1
node 20 1 1 1
node 21 1 1 1
node 22 1 1 1
node 23 1 1 1
node 24 1 1 1
node 25 1 1 1
node 26 1 1 1
node 27 1 1 1
node 28 1 1 3
node 29 1 0 0
node 30 1 0 0
node 34 1 0 2
node 35 1 0 2
node 36 1 0 2
node 37 1 0 2
node 38 1 0 2
node 39 1 0 2
node 40 1 0 2
node 41 1 0 2
node 42 1 0 2
gene  1 2 29 -0.9068579487661299 0 1177.0 -0.9068579487661299 1
gene  1 3 29 -0.9156207299985026 0 1178.0 -0.9156207299985026 1
gene  1 4 29 0.21557822908447444 0 1179.0 0.21557822908447444 1
gene  1 9 29 -0.7612822555478514 0 1184.0 -0.7612822555478514 1
gene  1 10 29 0.5538298788312709 0 1185.0 0.5538298788312709 1
gene  1 13 29 0.307539999002605 0 1188.0 0.307539999002605 1
gene  1 14 29 0.6199719164398125 0 1189.0 0.6199719164398125 1
gene  1 15 29 -0.03683495213239363 0 1190.0 -0.03683495213239363 1
gene  1 16 29 0.6134591775828985 0 1191.0 0.6134591775828985 1
gene  1 17 29 -0.16765136687086457 0 1192.0 -0.16765136687086457 1
gene  1 21 29 -0.4063856918135782 0 1196.0 -0.4063856918135782 1
gene  1 23 29 0.06814226557450209 0 1198.0 0.06814226557450209 1
gene  1 24 29 -0.6051127373936375 0 1199.0 -0.6051127373936375 1
gene  1 25 29 0.11186485970628435 0 1200.0 0.11186485970628435 1
gene  1 28 29 -0.42381650729008336 0 1203.0 -0.42381650729008336 1
gene  1 35 29 -0.500998504861114 1 1210.0 -0.500998504861114 1
gene  1 37 29 0.19127500739219472 1 1212.0 0.19127500739219472 1
gene  1 38 29 0.06209313523556881 1 1213.0 0.06209313523556881 1
gene  1 39 29 -0.9084333160197062 1 1214.0 -0.9084333160197062 1
gene  1 42 29 -0.7550890237444122 1 1217.0 -0.7550890237444122 1
gene  1 1 30 0.1649868421471936 0 1218.0 0.1649868421471936 1
gene  1 2 30 -0.39509261907593674 0 1219.0 -0.39509261907593674 1
gene  1 4 30 0.8511423948956779 0 1221.0 0.8511423948956779 1
gene  1 5 30 -0.4774919080558663 0 1222.0 -0.4774919080558663 1
gene  1 6 30 0.9780134356453354 0 1223.0 0.9780134356453354 1
gene  1 8 30 0.9056915097938703 0 1225.0 0.9056915097938703 1
gene  1 14 30 -0.1823761722259486 0 1231.0 -0.1823761722259486 1
gene  1 15 30 -0.5976268942863661 0 1232.0 -0.5976268942863661 1
gene  1 18 30 -0.14467124652946473 0 1235.0 -0.14467124652946473 1
gene  1 19 30 0.5073043833834447 0 1236.0 0.5073043833834447 1
gene  1 20 30 0.9662148647516764 0 1237.0 0.9662148647516764 1
gene  1 23 30 0.15176987991114488 0 1240.0 0.15176987991114488 1
gene  1 24 30 -0.4201975487475984 0 1241.0 -0.4201975487475984 1
gene  1 25 30 -0.09398004276704375 0 1242.0 -0.09398004276704375 1
gene  1 28 30 -0.6060898586803098 0 1245.0 -0.6060898586803098 1
gene  1 29 30 -0.6998878784528012 0 1246.0 -0.6998878784528012 1
gene  1 34 30 0.6768878829166909 1 1251.0 0.6768878829166909 1
gene  1 35 30 -0.2573370228971593 1 1252.0 -0.2573370228971593 1
gene  1 36 30 -0.026738743730071013 1 1253.0 -0.026738743730071013 1
gene  1 37 30 0.3128561844897588 1 1254.0 0.3128561844897588 1
gene  1 38 30 0.7345888268219977 1 1255.0 0.7345888268219977 1
gene  1 39 30 0.19114931898568 1 1256.0 0.19114931898568 1
gene  1 41 30 -0.9713560747416321 1 1258.0 -0.9713560747416321 1
gene  1 2 34 -0.5463266829503014 0 1387.0 -0.5463266829503014 1
gene  1 3 34 -0.6275258095113837 0 1388.0 -0.6275258095113837 1
gene  1 4 34 0.6504668412047826 0 1389.0 0.6504668412047826 1
gene  1 5 34 0.8579574490767876 0 1390.0 0.8579574490767876 1
gene  1 9 34 0.8677198965124455 0 1394.0 0.8677198965124455 1
gene  1 13 34 0.47424749316891646 0 1398.0 0.47424749316891646 1
gene  1 15 34 0.9572820429532015 0 1400.0 0.9572820429532015 1
gene  1 17 34 0.10316518254475082 0 1402.0 0.10316518254475082 1
gene  1 19 34 -0.7909959219613846 0 1404.0 -0.7909959219613846 1
gene  1 20 34 0.0634415086722967 0 1405.0 0.0634415086722967 1
gene  1 21 34 0.8790465835429038 0 1406.0 0.8790465835429038 1
gene  1 22 34 0.8326297926936728 0 1407.0 0.8326297926936728 1
gene  1 23 34 -0.6728675558379298 0 1408.0 -0.6728675558379298 1
gene  1 24 34 0.7616511652018741 0 1409.0 0.7616511652018741 1
gene  1 27 34 0.5398419857322427 0 1412.0 0.5398419857322427 1
gene  1 28 34 -0.4521908552053131 0 1413.0 -0.4521908552053131 1
gene  1 29 34 -0.2036825922394654 0 1414.0 -0.2036825922394654 1
gene  1 36 34 0.41000659750256707 1 1421.0 0.41000659750256707 1
gene  1 37 34 -0.06862927831835808 1 1422.0 -0.06862927831835808 1
gene  1 38 34 -0.5091003127474641 1 1423.0 -0.5091003127474641 1
gene  1 40 34 0.10292056982845454 1 1425.0 0.10292056982845454 1
gene  1 2 35 0.510862280802485 0 1429.0 0.510862280802485 1
gene  1 4 35 0.32853221840525304 0 1431.0 0.32853221840525304 1
gene  1 5 35 -0.5940001775231484 0 1432.0 -0.5940001775231484 1
gene  1 6 35 -0.216601189572715 0 1433.0 -0.216601189572715 1
gene  1 7 35 -0.4509610420813731 0 1434.0 -0.4509610420813731 1
gene  1 9 35 -0.11121271490274265 0 1436.0 -0.11121271490274265 1
gene  1 14 35 0.047061416810782686 0 1441.0 0.047061416810782686 1
gene  1 16 35 0.9722361486283019 0 1443.0 0.9722361486283019 1
gene  1 18 35 0.48905575838504345 0 1445.0 0.48905575838504345 1
gene  1 19 35 -0.5986141703240712 0 1446.0 -0.5986141703240712 1
gene  1 21 35 0.8703201748621403 0 1448.0 0.8703201748621403 1
gene  1 24 35 -0.1335020015529813 0 1451.0 -0.1335020015529813 1
gene  1 27 35 0.21082416549362093 0 1454.0 0.21082416549362093 1
gene  1 30 35 -0.5900912918162855 0 1457.0 -0.5900912918162855 1
gene  1 35 35 -0.30673864466496514 1 1462.0 -0.30673864466496514 1
gene  1 37 35 0.7156691821900455 1 1464.0 0.7156691821900455 1
gene  1 40 35 0.5647885076910832 1 1467.0 0.5647885076910832 1
gene  1 41 35 -0.03750540723010065 1 1468.0 -0.03750540723010065 1
gene  1 1 36 -0.9281897109031768 0 1470.0 -0.9281897109031768 1
gene  1 2 36 -0.27496831549450884 0 1471.0 -0.27496831549450884 1
gene  1 4 36 0.11656137048979742 0 1473.0 0.11656137048979742 1
gene  1 5 36 -0.31740248599836196 0 1474.0 -0.31740248599836196 1
gene  1 6 36 0.04211280679631413 0 1475.0 0.04211280679631413 1
gene  1 8 36 -0.11836159495012166 0 1477.0 -0.11836159495012166 1
gene  1 10 36 0.9562127994291492 0 1479.0 0.9562127994291492 1
gene  1 14 36 -0.5629510289284594 0 1483.0 -0.5629510289284594 1
gene  1 17 36 -0.6520833596338429 0 1486.0 -0.6520833596338429 1
gene  1 18 36 -0.13933949821037928 0 1487.0 -0.13933949821037928 1
gene  1 21 36 -0.660400293595514 0 1490.0 -0.660400293595514 1
gene  1 22 36 0.36580725969814487 0 1491.0 0.36580725969814487 1
gene  1 23 36 -0.822426206019187 0 1492.0 -0.822426206019187 1
gene  1 24 36 -0.3619847400736532 0 1493.0 -0.3619847400736532 1
gene  1 25 36 0.7270053355733573 0 1494.0 0.7270053355733573 1
gene  1 27 36 -0.49828974841993734 0 1496.0 -0.49828974841993734 1
gene  1 28 36 -0.9421017427947295 0 1497.0 -0.9421017427947295 1
gene  1 29 36 -0.05811135482321039 0 1498.0 -0.05811135482321039 1
gene  1 35 36 0.07963450416547824 0 1504.0 0.07963450416547824 1
gene  1 36 36 0.6798451908429635 1 1505.0 0.6798451908429635 1
gene  1 38 36 -0.25860230978242815 1 1507.0 -0.25860230978242815 1
gene  1 40 36 -0.7261491711467001 1 1509.0 -0.7261491711467001 1
gene  1 1 37 0.18110509048820445 0 1512.0 0.18110509048820445 1
gene  1 3 37 -0.17131252434991928 0 1514.0 -0.17131252434991928 1
gene  1 5 37 0.9680806181231619 0 1516.0 0.9680806181231619 1
gene  1 6 37 -0.8178291879306315 0 1517.0 -0.8178291879306315 1
gene  1 7 37 0.33194913749513977 0 1518.0 0.33194913749513977 1
gene  1 8 37 -0.4003567902166276 0 1519.0 -0.4003567902166276 1
gene  1 9 37 -0.7723413000306855 0 1520.0 -0.7723413000306855 1
gene  1 10 37 -0.9487359216909381 0 1521.0 -0.9487359216909381 1
gene  1 11 37 -0.17942214408597523 0 1522.0 -0.17942214408597523 1
gene  1 12 37 0.3479382865620544 0 1523.0 0.3479382865620544 1
gene  1 13 37 0.9249789296382251 0 1524.0 0.9249789296382251 1
gene  1 15 37 -0.30740282448631806 0 1526.0 -0.30740282448631806 1
gene  1 16 37 0.8762473995840522 0 1527.0 0.8762473995840522 1
gene  1 20 37 -0.9269665497425471 0 1531.0 -0.9269665497425471 1
gene  1 21 37 0.5255370366329453 0 1532.0 0.5255370366329453 1
gene  1 29 37 -0.007691504998683207 0 1540.0 -0.007691504998683207 1
gene  1 30 37 -0.7425013617023062 0 1541.0 -0.7425013617023062 1
gene  1 34 37 -0.60040737341155 0 1545.0 -0.60040737341155 1
gene  1 35 37 -0.9291635524543814 0 1546.0 -0.9291635524543814 1
gene  1 36 37 0.43043740506009065 0 1547.0 0.43043740506009065 1
gene  1 38 37 -0.46915263801683005 1 1549.0 -0.46915263801683005 1
gene  1 41 37 0.4789725834597681 1 1552.0 0.4789725834597681 1
gene  1 42 37 0.22629311607820557 1 1553.0 0.22629311607820557 1
gene  1 2 38 0.93936892892433 0 1555.0 0.93936892892433 1
gene  1 4 38 0.6126936609874131 0 1557.0 0.6126936609874131 1
gene  1 7 38 0.7419203241181418 0 1560.0 0.7419203241181418 1
gene  1 9 38 0.5282166391771792 0 1562.0 0.5282166391771792 1
gene  1 10 38 -0.2965872995780421 0 1563.0 -0.2965872995780421 1
gene  1 11 38 -0.3563058952545911 0 1564.0 -0.3563058952545911 1
gene  1 12 38 0.49408957929387787 0 1565.0 0.49408957929387787 1
gene  1 15 38 -0.34519934806419106 0 1568.0 -0.34519934806419106 1
gene  1 16 38 -0.25478497480000006 0 1569.0 -0.25478497480000006 1
gene  1 18 38 -0.7277092870871532 0 1571.0 -0.7277092870871532 1
gene  1 19 38 -0.8356261497059175 0 1572.0 -0.8356261497059175 1
gene  1 20 38 0.3486489468178702 0 1573.0 0.3486489468178702 1
gene  1 23 38 -0.07410468983776552 0 1576.0 -0.07410468983776552 1
gene  1 24 38 0.8752739497433287 0 1577.0 0.8752739497433287 1
gene  1 28 38 0.6273438725692849 0 1581.0 0.6273438725692849 1
gene  1 29 38 -0.8116620391301839 0 1582.0 -0.8116620391301839 1
gene  1 35 38 -0.5552043912249822 0 1588.0 -0.5552043912249822 1
gene  1 37 38 0.8044966889160745 0 1590.0 0.8044966889160745 1
gene  1 39 38 -0.005590559218766722 1 1592.0 -0.005590559218766722 1
gene  1 41 38 -0.6764107526779878 1 1594.0 -0.6764107526779878 1
gene  1 8 39 -0.8476688142189875 0 1603.0 -0.8476688142189875 1
gene  1 9 39 -0.593328596407283 0 1604.0 -0.593328596407283 1
gene  1 10 39 -0.37902060581511 0 1605.0 -0.37902060581511 1
gene  1 13 39 -0.5149645723126074 0 1608.0 -0.5149645723126074 1
gene  1 16 39 0.08224916749470157 0 1611.0 0.08224916749470157 1
gene  1 17 39 0.44821172175226587 0 1612.0 0.44821172175226587 1
gene  1 19 39 0.3408514250615825 0 1614.0 0.3408514250615825 1
gene  1 20 39 -0.2543492560677134 0 1615.0 -0.2543492560677134 1
gene  1 26 39 -0.381245441775667 0 1621.0 -0.381245441775667 1
gene  1 27 39 -0.6785526821773473 0 1622.0 -0.6785526821773473 1
gene  1 28 39 0.49091474820809333 0 1623.0 0.49091474820809333 1
gene  1 30 39 -0.9083679512576501 0 1625.0 -0.9083679512576501 1
gene  1 37 39 -0.1652717128557395 0 1632.0 -0.1652717128557395 1
gene  1 39 39 -0.38561180586267474 1 1634.0 -0.38561180586267474 1
gene  1 40 39 -0.5908951235276103 1 1635.0 -0.5908951235276103 1
gene  1 1 40 0.2887695279748336 0 1638.0 0.2887695279748336 1
gene  1 2 40 -0.8351403065168829 0 1639.0 -0.8351403065168829 1
gene  1 3 40 -0.24667432507291964 0 1640.0 -0.24667432507291964 1
gene  1 4 40 -0.2042393626063279 0 1641.0 -0.2042393626063279 1
gene  1 7 40 0.706943118721851 0 1644.0 0.706943118721851 1
gene  1 8 40 0.8500183479134797 0 1645.0 0.8500183479134797 1
