/* Species # 003         : (size= 002) (AvfFit= 40.245) (Age= 2.000)  */
/*-------------------------------------------------------------------*/
/* Organism # 000 Fitness:  0.000 Error:  0.000                      */
genomestart  0
trait 1 0.0 0.0 0.0 0.0 0.0 0.0 0.0 0.0 
node 1 1 1 1
node 2 1 1 1
node 3 1 1 1
node 4 1 1 1
node 5 1 1 1
node 6 1 1 1
node 7 1 1 1
node 8 1 1 1
node 9 1 1 1
node 10 1 1 1
node 11 1 1 1
node 12 1 1 1
node 13 1 1 1
node 14 1 1 1
node 15 1 1 1
node 16 1 1 1
node 17 1 1 1
node 18 1 1 1
node 19 1 1 1
node 20 1 1 1
node 21 1 1 1
node 22 1 1 1
node 23 1 1 1
node 24 1 1 1
node 25 1 1 1
node 26 1 1 1
node 27 1 1 1
node 28 1 1 3
node 29 1 0 0
node 30 1 0 0
node 34 1 0 2
node 35 1 0 2
node 36 1 0 2
node 37 1 0 2
node 38 1 0 2
node 39 1 0 2
node 40 1 0 2
node 41 1 0 2
node 42 1 0 2
gene  1 1 29 0.6096956243239613 0 1176.0 0.6096956243239613 1
gene  1 3 29 -0.707767590128736 0 1178.0 -0.707767590128736 1
gene  1 4 29 0.7360545578124301 0 1179.0 0.7360545578124301 1
gene  1 7 29 -0.21212068484104762 0 1182.0 -0.21212068484104762 1
gene  1 8 29 -0.6955512566017039 0 1183.0 -0.6955512566017039 1
gene  1 10 29 0.16989381422165029 0 1185.0 0.16989381422165029 1
gene  1 13 29 -0.2622665951056121 0 1188.0 -0.2622665951056121 1
gene  1 19 29 -0.09536746454514511 0 1194.0 -0.09536746454514511 1
gene  1 21 29 0.6063754769300369 0 1196.0 0.6063754769300369 1
gene  1 23 29 0.7517931396601035 0 1198.0 0.7517931396601035 1
gene  1 25 29 0.9147242117443009 0 1200.0 0.9147242117443009 1
gene  1 26 29 -0.14109400455165122 0 1201.0 -0.14109400455165122 1
gene  1 28 29 0.20293120137424592 0 1203.0 0.20293120137424592 1
gene  1 30 29 0.7634132496732718 1 1205.0 0.7634132496732718 1
gene  1 37 29 -0.05270138347278008 1 1212.0 -0.05270138347278008 1
gene  1 41 29 0.08075048861018297 1 1216.0 0.08075048861018297 1
gene  1 3 30 -0.6413869141441412 0 1220.0 -0.6413869141441412 1
gene  1 4 30 -0.9096290769184668 0 1221.0 -0.9096290769184668 1
gene  1 5 30 -0.935448915194419 0 1222.0 -0.935448915194419 1
gene  1 7 30 0.745480377466571 0 1224.0 0.745480377466571 1
gene  1 10 30 0.13349133467708563 0 1227.0 0.13349133467708563 1
gene  1 15 30 0.951152863949049 0 1232.0 0.951152863949049 1
gene  1 16 30 0.5343388735027325 0 1233.0 0.5343388735027325 1
gene  1 17 30 -0.17888397339842022 0 1234.0 -0.17888397339842022 1
gene  1 18 30 0.5740840681319492 0 1235.0 0.5740840681319492 1
gene  1 19 30 -0.2842212863209369 0 1236.0 -0.2842212863209369 1
gene  1 21 30 0.22998706086970055 0 1238.0 0.22998706086970055 1
gene  1 22 30 0.1952036743020803 0 1239.0 0.1952036743020803 1
gene  1 23 30 -0.09195302712538134 0 1240.0 -0.09195302712538134 1
gene  1 25 30 0.3267996610457511 0 1242.0 0.3267996610457511 1
gene  1 26 30 -0.5310858041218007 0 1243.0 -0.5310858041218007 1
gene  1 28 30 0.38310702604671976 0 1245.0 0.38310702604671976 1
gene  1 35 30 0.8652555666402841 1 1252.0 0.8652555666402841 1
gene  1 37 30 -0.2095815528624715 1 1254.0 -0.2095815528624715 1
gene  1 38 30 -0.3380502073840379 1 1255.0 -0.3380502073840379 1
gene  1 39 30 0.5705372520604854 1 1256.0 0.5705372520604854 1
gene  1 1 34 0.15843116118078737 0 1386.0 0.15843116118078737 1
gene  1 3 34 0.13957272003276333 0 1388.0 0.13957272003276333 1
gene  1 4 34 -0.7224155155848176 0 1389.0 -0.7224155155848176 1
gene  1 5 34 0.8435879449498139 0 1390.0 0.8435879449498139 1
gene  1 6 34 0.09800820400719268 0 1391.0 0.09800820400719268 1
gene  1 7 34 0.11319555424849859 0 1392.0 0.11319555424849859 1
gene  1 10 34 -0.402414781180482 0 1395.0 -0.402414781180482 1
gene  1 11 34 0.08739398627347184 0 1396.0 0.08739398627347184 1
gene  1 12 34 0.30857768720058065 0 1397.0 0.30857768720058065 1
gene  1 17 34 -0.25717185744092674 0 1402.0 -0.25717185744092674 1
gene  1 18 34 0.3758858341708037 0 1403.0 0.3758858341708037 1
gene  1 19 34 0.7218374889071846 0 1404.0 0.7218374889071846 1
gene  1 20 34 0.01048069037644861 0 1405.0 0.01048069037644861 1
gene  1 21 34 -0.7433535577948075 0 1406.0 -0.7433535577948075 1
gene  1 22 34 0.6925495326383612 0 1407.0 0.6925495326383612 1
gene  1 24 34 0.41854905125631814 0 1409.0 0.41854905125631814 1
gene  1 26 34 0.35481758645198413 0 1411.0 0.35481758645198413 1
gene  1 30 34 0.9044612443676467 0 1415.0 0.9044612443676467 1
gene  1 36 34 -0.38708827936827395 1 1421.0 -0.38708827936827395 1
gene  1 37 34 -0.48421850155954893 1 1422.0 -0.48421850155954893 1
gene  1 38 34 -0.690992077251059 1 1423.0 -0.690992077251059 1
gene  1 42 34 0.2395221486928838 1 1427.0 0.2395221486928838 1
gene  1 1 35 -0.7900291438434371 0 1428.0 -0.7900291438434371 1
gene  1 5 35 0.7014634992940428 0 1432.0 0.7014634992940428 1
gene  1 8 35 -0.6632854561914635 0 1435.0 -0.6632854561914635 1
gene  1 9 35 0.4807137182579183 0 1436.0 0.4807137182579183 1
gene  1 14 35 0.032271332789548635 0 1441.0 0.032271332789548635 1
gene  1 17 35 0.45217023897644704 0 1444.0 0.45217023897644704 1
gene  1 18 35 0.7864244469823857 0 1445.0 0.7864244469823857 1
gene  1 21 35 -0.7592282668315093 0 1448.0 -0.7592282668315093 1
gene  1 23 35 0.6676369409687192 0 1450.0 0.6676369409687192 1
gene  1 26 35 -0.17591525935084107 0 1453.0 -0.17591525935084107 1
gene  1 28 35 -0.7106410915700122 0 1455.0 -0.7106410915700122 1
gene  1 30 35 -0.2904685166931773 0 1457.0 -0.2904685166931773 1
gene  1 35 35 0.17188861556442914 1 1462.0 0.17188861556442914 1
gene  1 38 35 -0.7012802192141444 1 1465.0 -0.7012802192141444 1
gene  1 39 35 0.24358438504586677 1 1466.0 0.24358438504586677 1
gene  1 41 35 0.45402679926018863 1 1468.0 0.45402679926018863 1
gene  1 42 35 0.21144262713670503 1 1469.0 0.21144262713670503 1
gene  1 1 36 -0.8409335981902677 0 1470.0 -0.8409335981902677 1
gene  1 5 36 0.3232629205586207 0 1474.0 0.3232629205586207 1
gene  1 8 36 -0.8990313353132156 0 1477.0 -0.8990313353132156 1
gene  1 10 36 -0.19508043440795153 0 1479.0 -0.19508043440795153 1
gene  1 12 36 -0.26949994065665817 0 1481.0 -0.26949994065665817 1
gene  1 13 36 0.2409838339950915 0 1482.0 0.2409838339950915 1
gene  1 15 36 0.5099758952389589 0 1484.0 0.5099758952389589 1
gene  1 16 36 0.7712738451734339 0 1485.0 0.7712738451734339 1
gene  1 17 36 -0.06057154377388063 0 1486.0 -0.06057154377388063 1
gene  1 18 36 0.1883882658398469 0 1487.0 0.1883882658398469 1
gene  1 19 36 -0.043372389821084045 0 1488.0 -0.043372389821084045 1
gene  1 23 36 -0.7656051551031675 0 1492.0 -0.7656051551031675 1
gene  1 25 36 0.09671544244129693 0 1494.0 0.09671544244129693 1
gene  1 27 36 -0.5749255342087765 0 1496.0 -0.5749255342087765 1
gene  1 28 36 -0.7346447358290106 0 1497.0 -0.7346447358290106 1
gene  1 35 36 0.07988295050107852 0 1504.0 0.07988295050107852 1
gene  1 36 36 -0.6818408254701913 1 1505.0 -0.6818408254701913 1
gene  1 38 36 -0.9425900408501668 1 1507.0 -0.9425900408501668 1
gene  1 1 37 -0.5926546190049731 0 1512.0 -0.5926546190049731 1
gene  1 3 37 -0.41899454543344605 0 1514.0 -0.41899454543344605 1
gene  1 5 37 0.17354734889341472 0 1516.0 0.17354734889341472 1
gene  1 6 37 -0.8389740562578633 0 1517.0 -0.8389740562578633 1
gene  1 7 37 -0.7830307830574452 0 1518.0 -0.7830307830574452 1
gene  1 8 37 -0.3547433378046164 0 1519.0 -0.3547433378046164 1
gene  1 12 37 0.9556718275646391 0 1523.0 0.9556718275646391 1
gene  1 13 37 -0.8275493394825689 0 1524.0 -0.8275493394825689 1
gene  1 14 37 0.9598508979009397 0 1525.0 0.9598508979009397 1
gene  1 17 37 -0.2687149254651886 0 1528.0 -0.2687149254651886 1
gene  1 19 37 0.026669017251821914 0 1530.0 0.026669017251821914 1
gene  1 20 37 -0.2798383516611084 0 1531.0 -0.2798383516611084 1
gene  1 21 37 0.5688646044075273 0 1532.0 0.5688646044075273 1
gene  1 22 37 -0.5887925442122306 0 1533.0 -0.5887925442122306 1
gene  1 23 37 0.37305096473308563 0 1534.0 0.37305096473308563 1
gene  1 26 37 -0.5564042385090061 0 1537.0 -0.5564042385090061 1
gene  1 27 37 0.6168852882498707 0 1538.0 0.6168852882498707 1
gene  1 29 37 0.5058741930617476 0 1540.0 0.5058741930617476 1
gene  1 34 37 -0.9110961112889898 0 1545.0 -0.9110961112889898 1
gene  1 36 37 0.22538747679836768 0 1547.0 0.22538747679836768 1
gene  1 38 37 0.7056320048822701 1 1549.0 0.7056320048822701 1
gene  1 40 37 -0.9475719528334237 1 1551.0 -0.9475719528334237 1
gene  1 41 37 -0.44352664128215935 1 1552.0 -0.44352664128215935 1
gene  1 42 37 0.6560247931859752 1 1553.0 0.6560247931859752 1
gene  1 2 38 0.9604604124861756 0 1555.0 0.9604604124861756 1
gene  1 3 38 0.022522081387771786 0 1556.0 0.022522081387771786 1
gene  1 4 38 -0.9168140430388342 0 1557.0 -0.9168140430388342 1
gene  1 5 38 -0.46196609928821775 0 1558.0 -0.46196609928821775 1
gene  1 8 38 0.9632452670537031 0 1561.0 0.9632452670537031 1
gene  1 10 38 -0.8200961376730351 0 1563.0 -0.8200961376730351 1
gene  1 11 38 -0.45206384647069375 0 1564.0 -0.45206384647069375 1
gene  1 12 38 -0.1413852774668677 0 1565.0 -0.1413852774668677 1
gene  1 13 38 0.714209552221768 0 1566.0 0.714209552221768 1
gene  1 15 38 -0.35284920068416104 0 1568.0 -0.35284920068416104 1
gene  1 17 38 -0.6277747029077181 0 1570.0 -0.6277747029077181 1
gene  1 20 38 -0.888371814006974 0 1573.0 -0.888371814006974 1
gene  1 23 38 -0.7116458770928867 0 1576.0 -0.7116458770928867 1
gene  1 24 38 0.4194168913406212 0 1577.0 0.4194168913406212 1
gene  1 27 38 0.33276676413072204 0 1580.0 0.33276676413072204 1
gene  1 28 38 0.9377743993435222 0 1581.0 0.9377743993435222 1
gene  1 36 38 -0.33503783394065034 0 1589.0 -0.33503783394065034 1
gene  1 37 38 -0.20959802864118526 0 1590.0 -0.20959802864118526 1
gene  1 41 38 0.9957073374966063 1 1594.0 0.9957073374966063 1
gene  1 42 38 0.19280178969937234 1 1595.0 0.19280178969937234 1
gene  1 1 39 0.15172391216581949 0 1596.0 0.15172391216581949 1
gene  1 2 39 0.8962309643526342 0 1597.0 0.8962309643526342 1
gene  1 3 39 -0.9942778059471102 0 1598.0 -0.9942778059471102 1
gene  1 4 39 0.9949046995473 0 1599.0 0.9949046995473 1
gene  1 7 39 0.5174948387279604 0 1602.0 0.5174948387279604 1
gene  1 8 39 -0.194756981044247 0 1603.0 -0.194756981044247 1
gene  1 9 39 -0.7093526590851944 0 1604.0 -0.7093526590851944 1
gene  1 10 39 -0.18677130036537803 0 1605.0 -0.18677130036537803 1
gene  1 11 39 -0.8067895283073956 0 1606.0 -0.8067895283073956 1
gene  1 12 39 0.715012197842788 0 1607.0 0.715012197842788 1
gene  1 13 39 0.7217004376493606 0 1608.0 0.7217004376493606 1
gene  1 14 39 -0.5340530072094011 0 1609.0 -0.5340530072094011 1
gene  1 15 39 -0.8597460929278373 0 1610.0 -0.8597460929278373 1
gene  1 16 39 0.7841163315598475 0 1611.0 0.7841163315598475 1
gene  1 23 39 0.5516435805677348 0 1618.0 0.5516435805677348 1
gene  1 28 39 -0.7864521623724363 0 1623.0 -0.7864521623724363 1
gene  1 29 39 -0.26443465023387935 0 1624.0 -0.26443465023387935 1
gene  1 34 39 -0.547032490699942 0 1629.0 -0.547032490699942 1
gene  1 38 39 -0.6636821454243507 0 1633.0 -0.6636821454243507 1
gene  1 39 39 0.3351835615239377 1 1634.0 0.3351835615239377 1
gene  1 41 39 -0.06818858667962235 1 1636.0 -0.06818858667962235 1
gene  1 2 40 0.4245227420219555 0 1639.0 0.4245227420219555 1
gene  1 3 40 0.0430196643306302 0 1640.0 0.0430196643306302 1
gene  1 6 40 0.45707453660199604 0 1643.0 0.45707453660199604 1
gene  1 7 40 0.5189739575069469 0 1644.0 0.5189739575069469 1
gene  1 11 40 0.15826795873507238 0 1648.0 0.15826795873507238 1
gene  1 13 40 0.8908333629119571 0 1650.0 0.8908333629119571 1
gene  1 16 40 -0.40557624053341523 0 1653.0 -0.40557624053341523 1
gene  1 17 40 0.7349812867756667 0 1654.0 0.7349812867756667 1
gene  1 19 40 0.5406766630049901 0 1656.0 0.5406766630049901 1
gene  1 21 40 0.06847660051305249 0 1658.0 0.06847660051305249 1
gene  1 22 40 0.22998036884686668 0 1659.0 0.22998036884686668 1
gene  1 23 40 0.46875584999572706 0 1660.0 0.46875584999572706 1
gene  1 24 40 -0.7125703235204311 0 1661.0 -0.7125703235204311 1
gene  1 25 40 -0.08294664217936865 0 1662.0 -0.08294664217936865 1
gene  1 30 40 0.7748022403068132 0 1667.0 0.7748022403068132 1
gene  1 35 40 0.7237385096463055 0 1672.0 0.7237385096463055 1
gene  1 36 40 -0.4250753291428152 0 1673.0 -0.4250753291428152 1
gene  1 38 40 0.17911629755557668 0 1675.0 0.17911629755557668 1
gene  1 39 40 -0.16461291298634584 0 1676.0 -0.16461291298634584 1
gene  1 42 40 0.17048567855214858 1 1679.0 0.17048567855214858 1
gene  1 4 41 -0.5716158529986423 0 1683.0 -0.5716158529986423 1
gene  1 5 41 -0.5675199955551034 0 1684.0 -0.5675199955551034 1
gene  1 8 41 0.532960233638949 0 1687.0 0.532960233638949 1
gene  1 15 41 -0.5433605689968928 0 1694.0 -0.5433605689968928 1
gene  1 17 41 -0.38021098627725625 0 1696.0 -0.38021098627725625 1
gene  1 21 41 0.8458767308600145 0 1700.0 0.8458767308600145 1
gene  1 24 41 0.359171031923632 0 1703.0 0.359171031923632 1
gene  1 26 41 0.3443054869459803 0 1705.0 0.3443054869459803 1
gene  1 27 41 0.05302704668170033 0 1706.0 0.05302704668170033 1
gene  1 29 41 -0.19087693886731205 0 1708.0 -0.19087693886731205 1
gene  1 34 41 0.5699059721466389 0 1713.0 0.5699059721466389 1
gene  1 36 41 0.7784526385237259 0 1715.0 0.7784526385237259 1
gene  1 37 41 -0.09639255184435158 0 1716.0 -0.09639255184435158 1
gene  1 38 41 -0.12378526738984053 0 1717.0 -0.12378526738984053 1
gene  1 40 41 -0.31385324968250794 0 1719.0 -0.31385324968250794 1
gene  1 1 42 0.3587252488761623 0 1722.0 0.3587252488761623 1
gene  1 2 42 0.7066952086101279 0 1723.0 0.7066952086101279 1
gene  1 4 42 0.3557150441063872 0 1725.0 0.3557150441063872 1
gene  1 5 42 -0.7827790140919497 0 1726.0 -0.7827790140919497 1
gene  1 6 42 0.6770091689120895 0 1727.0 0.6770091689120895 1
gene  1 8 42 0.08156632451353019 0 1729.0 0.08156632451353019 1
gene  1 15 42 -0.9594930366001243 0 1736.0 -0.9594930366001243 1
gene  1 19 42 0.6195613475559485 0 1740.0 0.6195613475559485 1
gene  1 20 42 0.5036028709003273 0 1741.0 0.5036028709003273 1
gene  1 22 42 -0.4867147533953754 0 1743.0 -0.4867147533953754 1
gene  1 24 42 -0.5052041200692975 0 1745.0 -0.5052041200692975 1
gene  1 25 42 -0.7974500785943456 0 1746.0 -0.7974500785943456 1
gene  1 26 42 0.3720181405227728 0 1747.0 0.3720181405227728 1
gene  1 27 42 0.011269471728163283 0 1748.0 0.011269471728163283 1
gene  1 29 42 -0.7430117217509646 0 1750.0 -0.7430117217509646 1
gene  1 30 42 0.5826283863128539 0 1751.0 0.5826283863128539 1
gene  1 35 42 0.782221773626001 0 1756.0 0.782221773626001 1
gene  1 36 42 -0.7324730661645505 0 1757.0 -0.7324730661645505 1
gene  1 37 42 -0.37379349966577147 0 1758.0 -0.37379349966577147 1
gene  1 40 42 -0.4965833971538923 0 1761.0 -0.4965833971538923 1
genomeend 0
/* Organism # 001 Fitness:  0.000 Error:  0.000                      */
genomestart  1
trait 1 0.0 0.0 0.0 0.0 0.0 0.0 0.0 0.0 
node 1 1 1 1
node 2 1 1 1
node 3 1 1 1
node 4 1 1 1
node 5 1 1 1
node 6 1 1 1
node 7 1 1 1
node 8 1 1 1
node 9 1 1 1
node 10 1 1 1
node 11 1 1 1
node 12 1 1 1
node 13 1 1 1
node 14 1 1 1
node 15 1 1 1
node 16 1 1 1
node 17 1 1 1
node 18 1 1 1
node 19 1 1 1
node 20 1 1 1
node 21 1 1 1
node 22 1 1 1
node 23 1 1 1
node 24 1 1 1
node 25 1 1 1
node 26 1 1 1
node 27 1 1 1
node 28 1 1 3
node 29 1 0 0
node 30 1 0 0
node 34 1 0 2
node 35 1 0 2
node 36 1 0 2
node 37 1 0 2
node 38 1 0 2
node 39 1 0 2
node 40 1 0 2
node 41 1 0 2
node 42 1 0 2
gene  1 1 29 0.6096956243239613 0 1176.0 0.6096956243239613 1
gene  1 3 29 -0.707767590128736 0 1178.0 -0.707767590128736 1
gene  1 4 29 0.7360545578124301 0 1179.0 0.7360545578124301 1
gene  1 7 29 -0.21212068484104762 0 1182.0 -0.21212068484104762 1
gene  1 8 29 -0.6955512566017039 0 1183.0 -0.6955512566017039 1
gene  1 10 29 0.16989381422165029 0 1185.0 0.16989381422165029 1
gene  1 13 29 -0.2622665951056121 0 1188.0 -0.2622665951056121 1
gene  1 19 29 -0.09536746454514511 0 1194.0 -0.09536746454514511 1
gene  1 21 29 0.6063754769300369 0 1196.0 0.6063754769300369 1
gene  1 23 29 0.7517931396601035 0 1198.0 0.7517931396601035 1
gene  1 25 29 0.9147242117443009 0 1200.0 0.9147242117443009 1
gene  1 26 29 -0.14109400455165122 0 1201.0 -0.14109400455165122 1
gene  1 28 29 0.20293120137424592 0 1203.0 0.20293120137424592 1
gene  1 30 29 0.7634132496732718 1 1205.0 0.7634132496732718 1
gene  1 37 29 -0.05270138347278008 1 1212.0 -0.05270138347278008 1
gene  1 41 29 0.08075048861018297 1 1216.0 0.08075048861018297 1
gene  1 3 30 -0.6413869141441412 0 1220.0 -0.6413869141441412 1
gene  1 4 30 -0.9096290769184668 0 1221.0 -0.9096290769184668 1
gene  1 5 30 -0.935448915194419 0 1222.0 -0.935448915194419 1
gene  1 7 30 0.745480377466571 0 1224.0 0.745480377466571 1
gene  1 10 30 0.13349133467708563 0 1227.0 0.13349133467708563 1
gene  1 15 30 0.951152863949049 0 1232.0 0.951152863949049 1
gene  1 16 30 0.5343388735027325 0 1233.0 0.5343388735027325 1
gene  1 17 30 -0.17888397339842022 0 1234.0 -0.17888397339842022 1
gene  1 18 30 0.5740840681319492 0 1235.0 0.5740840681319492 1
gene  1 19 30 -0.2842212863209369 0 1236.0 -0.2842212863209369 1
gene  1 21 30 0.22998706086970055 0 1238.0 0.22998706086970055 1
gene  1 22 30 0.1952036743020803 0 1239.0 0.1952036743020803 1
gene  1 23 30 -0.09195302712538134 0 1240.0 -0.09195302712538134 1
gene  1 25 30 0.3267996610457511 0 1242.0 0.3267996610457511 1
gene  1 26 30 -0.5310858041218007 0 1243.0 -0.5310858041218007 1
gene  1 28 30 0.38310702604671976 0 1245.0 0.38310702604671976 1
gene  1 35 30 0.8652555666402841 1 1252.0 0.8652555666402841 1
gene  1 37 30 -0.2095815528624715 1 1254.0 -0.2095815528624715 1
gene  1 38 30 -0.3380502073840379 1 1255.0 -0.3380502073840379 1
gene  1 39 30 0.5705372520604854 1 1256.0 0.5705372520604854 1
gene  1 1 34 0.15843116118078737 0 1386.0 0.15843116118078737 1
gene  1 3 34 0.13957272003276333 0 1388.0 0.13957272003276333 1
gene  1 4 34 -0.7224155155848176 0 1389.0 -0.7224155155848176 1
gene  1 5 34 0.8435879449498139 0 1390.0 0.8435879449498139 1
gene  1 6 34 0.09800820400719268 0 1391.0 0.09800820400719268 1
gene  1 7 34 0.11319555424849859 0 1392.0 0.11319555424849859 1
gene  1 10 34 -0.402414781180482 0 1395.0 -0.402414781180482 1
gene  1 11 34 0.08739398627347184 0 1396.0 0.08739398627347184 1
gene  1 12 34 0.30857768720058065 0 1397.0 0.30857768720058065 1
gene  1 17 34 -0.25717185744092674 0 1402.0 -0.25717185744092674 1
gene  1 18 34 0.3758858341708037 0 1403.0 0.3758858341708037 1
gene  1 19 34 0.7218374889071846 0 1404.0 0.7218374889071846 1
gene  1 20 34 0.01048069037644861 0 1405.0 0.01048069037644861 1
gene  1 21 34 -0.7433535577948075 0 1406.0 -0.7433535577948075 1
gene  1 22 34 0.6925495326383612 0 1407.0 0.6925495326383612 1
gene  1 24 34 0.41854905125631814 0 1409.0 0.41854905125631814 1
gene  1 26 34 0.35481758645198413 0 1411.0 0.35481758645198413 1
gene  1 30 34 0.9044612443676467 0 1415.0 0.9044612443676467 1
gene  1 36 34 -0.38708827936827395 1 1421.0 -0.38708827936827395 1
gene  1 37 34 -0.48421850155954893 1 1422.0 -0.48421850155954893 1
gene  1 38 34 -0.690992077251059 1 1423.0 -0.690992077251059 1
gene  1 42 34 0.2395221486928838 1 1427.0 0.2395221486928838 1
gene  1 1 35 -0.7900291438434371 0 1428.0 -0.7900291438434371 1
gene  1 5 35 0.7014634992940428 0 1432.0 0.7014634992940428 1
gene  1 8 35 -0.6632854561914635 0 1435.0 -0.6632854561914635 1
gene  1 9 35 0.4807137182579183 0 1436.0 0.4807137182579183 1
gene  1 14 35 0.032271332789548635 0 1441.0 0.032271332789548635 1
gene  1 17 35 0.45217023897644704 0 1444.0 0.45217023897644704 1
gene  1 18 35 0.7864244469823857 0 1445.0 0.7864244469823857 1
gene  1 21 35 -0.7592282668315093 0 1448.0 -0.7592282668315093 1
gene  1 23 35 0.6676369409687192 0 1450.0 0.6676369409687192 1
gene  1 26 35 -0.17591525935084107 0 1453.0 -0.17591525935084107 1
gene  1 28 35 -0.7106410915700122 0 1455.0 -0.7106410915700122 1
gene  1 30 35 -0.2904685166931773 0 1457.0 -0.2904685166931773 1
gene  1 35 35 0.17188861556442914 1 1462.0 0.17188861556442914 1
gene  1 38 35 -0.7012802192141444 1 1465.0 -0.7012802192141444 1
gene  1 39 35 0.24358438504586677 1 1466.0 0.24358438504586677 1
gene  1 41 35 0.45402679926018863 1 1468.0 0.45402679926018863 1
gene  1 42 35 0.21144262713670503 1 1469.0 0.21144262713670503 1
gene  1 1 36 -0.8409335981902677 0 1470.0 -0.8409335981902677 1
gene  1 5 36 0.3232629205586207 0 1474.0 0.3232629205586207 1
gene  1 8 36 -0.8990313353132156 0 1477.0 -0.8990313353132156 1
gene  1 10 36 -0.19508043440795153 0 1479.0 -0.19508043440795153 1
gene  1 12 36 -0.26949994065665817 0 1481.0 -0.26949994065665817 1
gene  1 13 36 0.2409838339950915 0 1482.0 0.2409838339950915 1
gene  1 15 36 0.5099758952389589 0 1484.0 0.5099758952389589 1
gene  1 16 36 0.7712738451734339 0 1485.0 0.7712738451734339 1
gene  1 17 36 -0.06057154377388063 0 1486.0 -0.06057154377388063 1
gene  1 18 36 0.1883882658398469 0 1487.0 0.1883882658398469 1
gene  1 19 36 -0.043372389821084045 0 1488.0 -0.043372389821084045 1
gene  1 23 36 -0.7656051551031675 0 1492.0 -0.7656051551031675 1
gene  1 25 36 0.09671544244129693 0 1494.0 0.09671544244129693 1
gene  1 27 36 -0.5749255342087765 0 1496.0 -0.5749255342087765 1
gene  1 28 36 -0.7346447358290106 0 1497.0 -0.7346447358290106 1
gene  1 35 36 0.07988295050107852 0 1504.0 0.07988295050107852 1
gene  1 36 36 -0.6818408254701913 1 1505.0 -0.6818408254701913 1
gene  1 38 36 -0.9425900408501668 1 1507.0 -0.9425900408501668 1
gene  1 1 37 -0.5926546190049731 0 1512.0 -0.5926546190049731 1
gene  1 3 37 -0.41899454543344605 0 1514.0 -0.41899454543344605 1
gene  1 5 37 0.17354734889341472 0 1516.0 0.17354734889341472 1
gene  1 6 37 -0.8389740562578633 0 1517.0 -0.8389740562578633 1
gene  1 7 37 -0.7830307830574452 0 1518.0 -0.7830307830574452 1
gene  1 8 37 -0.3547433378046164 0 1519.0 -0.3547433378046164 1
gene  1 12 37 0.9556718275646391 0 1523.0 0.9556718275646391 1
gene  1 13 37 -0.8275493394825689 0 1524.0 -0.8275493394825689 1
gene  1 14 37 0.9598508979009397 0 1525.0 0.9598508979009397 1
gene  1 17 37 -0.2687149254651886 0 1528.0 -0.2687149254651886 1
gene  1 19 37 0.026669017251821914 0 1530.0 0.026669017251821914 1
gene  1 20 37 -0.2798383516611084 0 1531.0 -0.2798383516611084 1
gene  1 21 37 0.5688646044075273 0 1532.0 0.5688646044075273 1
gene  1 22 37 -0.5887925442122306 0 1533.0 -0.5887925442122306 1
gene  1 23 37 0.37305096473308563 0 1534.0 0.37305096473308563 1
gene  1 26 37 -0.5564042385090061 0 1537.0 -0.5564042385090061 1
gene  1 27 37 0.6168852882498707 0 1538.0 0.6168852882498707 1
gene  1 29 37 0.5058741930617476 0 1540.0 0.5058741930617476 1
gene  1 34 37 -0.9110961112889898 0 1545.0 -0.9110961112889898 1
gene  1 36 37 0.22538747679836768 0 1547.0 0.22538747679836768 1
gene  1 38 37 0.7056320048822701 1 1549.0 0.7056320048822701 1
gene  1 40 37 -0.9475719528334237 1 1551.0 -0.9475719528334237 1
gene  1 41 37 -0.44352664128215935 1 1552.0 -0.44352664128215935 1
gene  1 42 37 0.6560247931859752 1 1553.0 0.6560247931859752 1
gene  1 2 38 0.9604604124861756 0 1555.0 0.9604604124861756 1
gene  1 3 38 0.022522081387771786 0 1556.0 0.022522081387771786 1
gene  1 4 38 -0.9168140430388342 0 1557.0 -0.9168140430388342 1
gene  1 5 38 -0.46196609928821775 0 1558.0 -0.46196609928821775 1
gene  1 8 38 0.9632452670537031 0 1561.0 0.9632452670537031 1
gene  1 10 38 -0.8200961376730351 0 1563.0 -0.8200961376730351 1
gene  1 11 38 -0.45206384647069375 0 1564.0 -0.45206384647069375 1
gene  1 12 38 -0.1413852774668677 0 1565.0 -0.1413852774668677 1
gene  1 13 38 0.714209552221768 0 1566.0 0.714209552221768 1
gene  1 15 38 -0.35284920068416104 0 1568.0 -0.35284920068416104 1
gene  1 17 38 -0.6277747029077181 0 1570.0 -0.6277747029077181 1
gene  1 20 38 -0.888371814006974 0 1573.0 -0.888371814006974 1
gene  1 23 38 -0.7116458770928867 0 1576.0 -0.7116458770928867 1
gene  1 24 38 0.4194168913406212 0 1577.0 0.4194168913406212 1
gene  1 27 38 0.33276676413072204 0 1580.0 0.33276676413072204 1
gene  1 28 38 0.9377743993435222 0 1581.0 0.9377743993435222 1
gene  1 36 38 -0.33503783394065034 0 1589.0 -0.33503783394065034 1
gene  1 37 38 -0.20959802864118526 0 1590.0 -0.20959802864118526 1
gene  1 41 38 0.9957073374966063 1 1594.0 0.9957073374966063 1
gene  1 42 38 0.19280178969937234 1 1595.0 0.19280178969937234 1
gene  1 1 39 0.15172391216581949 0 1596.0 0.15172391216581949 1
gene  1 2 39 0.8962309643526342 0 1597.0 0.8962309643526342 1
gene  1 3 39 -0.9942778059471102 0 1598.0 -0.9942778059471102 1
gene  1 4 39 0.9949046995473 0 1599.0 0.9949046995473 1
gene  1 7 39 0.5174948387279604 0 1602.0 0.5174948387279604 1
gene  1 8 39 -0.194756981044247 0 1603.0 -0.194756981044247 1
gene  1 9 39 -0.7093526590851944 0 1604.0 -0.7093526590851944 1
gene  1 10 39 -0.18677130036537803 0 1605.0 -0.18677130036537803 1
gene  1 11 39 -0.8067895283073956 0 1606.0 -0.8067895283073956 1
gene  1 12 39 0.715012197842788 0 1607.0 0.715012197842788 1
gene  1 13 39 0.7217004376493606 0 1608.0 0.7217004376493606 1
gene  1 14 39 -0.5340530072094011 0 1609.0 -0.5340530072094011 1
gene  1 15 39 -0.8597460929278373 0 1610.0 -0.8597460929278373 1
gene  1 16 39 0.7841163315598475 0 1611.0 0.7841163315598475 1
gene  1 23 39 0.5516435805677348 0 1618.0 0.5516435805677348 1
gene  1 28 39 -0.7864521623724363 0 1623.0 -0.7864521623724363 1
gene  1 29 39 -0.26443465023387935 0 1624.0 -0.26443465023387935 1
gene  1 34 39 -0.547032490699942 0 1629.0 -0.547032490699942 1
gene  1 38 39 -0.6636821454243507 0 1633.0 -0.6636821454243507 1
gene  1 39 39 0.3351835615239377 1 1634.0 0.3351835615239377 1
gene  1 41 39 -0.06818858667962235 1 1636.0 -0.06818858667962235 1
gene  1 2 40 0.4245227420219555 0 1639.0 0.4245227420219555 1
gene  1 3 40 0.0430196643306302 0 1640.0 0.0430196643306302 1
gene  1 6 40 0.45707453660199604 0 1643.0 0.45707453660199604 1
gene  1 7 40 0.5189739575069469 0 1644.0 0.5189739575069469 1
gene  1 11 40 0.15826795873507238 0 1648.0 0.15826795873507238 1
gene  1 13 40 0.8908333629119571 0 1650.0 0.8908333629119571 1
gene  1 16 40 -0.40557624053341523 0 1653.0 -0.40557624053341523 1
gene  1 17 40 0.7349812867756667 0 1654.0 0.7349812867756667 1
gene  1 19 40 0.5406766630049901 0 1656.0 0.5406766630049901 1
gene  1 21 40 0.06847660051305249 0 1658.0 0.06847660051305249 1
gene  1 22 40 0.22998036884686668 0 1659.0 0.22998036884686668 1
gene  1 23 40 0.46875584999572706 0 1660.0 0.46875584999572706 1
gene  1 24 40 -0.7125703235204311 0 1661.0 -0.7125703235204311 1
gene  1 25 40 -0.08294664217936865 0 1662.0 -0.08294664217936865 1
gene  1 30 40 0.7748022403068132 0 1667.0 0.7748022403068132 1
gene  1 35 40 0.7237385096463055 0 1672.0 0.7237385096463055 1
gene  1 36 40 -0.4250753291428152 0 1673.0 -0.4250753291428152 1
gene  1 38 40 0.17911629755557668 0 1675.0 0.17911629755557668 1
gene  1 39 40 -0.16461291298634584 0 1676.0 -0.16461291298634584 1
gene  1 42 40 0.17048567855214858 1 1679.0 0.17048567855214858 1
gene  1 4 41 -0.5716158529986423 0 1683.0 -0.5716158529986423 1
gene  1 5 41 -0.5675199955551034 0 1684.0 -0.5675199955551034 1
gene  1 8 41 0.532960233638949 0 1687.0 0.532960233638949 1
gene  1 15 41 -0.5433605689968928 0 1694.0 -0.5433605689968928 1
gene  1 17 41 -0.38021098627725625 0 1696.0 -0.38021098627725625 1
gene  1 21 41 0.8458767308600145 0 1700.0 0.8458767308600145 1
gene  1 24 41 0.359171031923632 0 1703.0 0.359171031923632 1
gene  1 26 41 0.3443054869459803 0 1705.0 0.3443054869459803 1
gene  1 27 41 0.05302704668170033 0 1706.0 0.05302704668170033 1
gene  1 29 41 -0.19087693886731205 0 1708.0 -0.19087693886731205 1
gene  1 34 41 0.5699059721466389 0 1713.0 0.5699059721466389 1
gene  1 36 41 0.7784526385237259 0 1715.0 0.7784526385237259 1
gene  1 37 41 -0.09639255184435158 0 1716.0 -0.09639255184435158 1
gene  1 38 41 -0.12378526738984053 0 1717.0 -0.12378526738984053 1
gene  1 40 41 -0.31385324968250794 0 1719.0 -0.31385324968250794 1
gene  1 1 42 0.3587252488761623 0 1722.0 0.3587252488761623 1
gene  1 2 42 0.7066952086101279 0 1723.0 0.7066952086101279 1
gene  1 4 42 0.3557150441063872 0 1725.0 0.3557150441063872 1
gene  1 5 42 -0.7827790140919497 0 1726.0 -0.7827790140919497 1
gene  1 6 42 0.6770091689120895 0 1727.0 0.6770091689120895 1
gene  1 8 42 0.08156632451353019 0 1729.0 0.08156632451353019 1
gene  1 15 42 -0.9594930366001243 0 1736.0 -0.9594930366001243 1
gene  1 19 42 0.6195613475559485 0 1740.0 0.6195613475559485 1
gene  1 20 42 0.5036028709003273 0 1741.0 0.5036028709003273 1
gene  1 22 42 -0.4867147533953754 0 1743.0 -0.4867147533953754 1
gene  1 24 42 -0.5052041200692975 0 1745.0 -0.5052041200692975 1
gene  1 25 42 -0.7974500785943456 0 1746.0 -0.7974500785943456 1
gene  1 26 42 0.3720181405227728 0 1747.0 0.3720181405227728 1
gene  1 27 42 0.011269471728163283 0 1748.0 0.011269471728163283 1
gene  1 29 42 -0.7430117217509646 0 1750.0 -0.7430117217509646 1
gene  1 30 42 0.5826283863128539 0 1751.0 0.5826283863128539 1
gene  1 35 42 0.782221773626001 0 1756.0 0.782221773626001 1
gene  1 36 42 -0.7324730661645505 0 1757.0 -0.7324730661645505 1
gene  1 37 42 -0.37379349966577147 0 1758.0 -0.37379349966577147 1
gene  1 40 42 -0.4965833971538923 0 1761.0 -0.4965833971538923 1
genomeend 1
/*-------------------------------------------------------------------*/
/* Species # 004         : (size= 004) (AvfFit= 68.667) (Age= 2.000)  */
/*-------------------------------------------------------------------*/
/* Organism # 002 Fitness:  0.000 Error:  0.000                      */
genomestart  2
trait 1 0.0 0.0 0.0 0.0 0.0 0.0 0.0 0.0 
node 1 1 1 1
node 2 1 1 1
node 3 1 1 1
node 4 1 1 1
node 5 1 1 1
node 6 1 1 1
node 7 1 1 1
node 8 1 1 1
node 9 1 1 1
node 10 1 1 1
node 11 1 1 1
node 12 1 1 1
node 13 1 1 1
node 14 1 1 1
node 15 1 1 1
node 16 1 1 1
node 17 1 1 1
node 18 1 1 1
node 19 1 1 1
node 20 1 1 1
node 21 1 1 1
node 22 1 1 1
node 23 1 1 1
node 24 1 1 1
node 25 1 1 1
node 26 1 1 1
node 27 1 1 1
node 28 1 1 3
node 34 1 0 2
node 35 1 0 2
node 36 1 0 2
node 37 1 0 2
node 38 1 0 2
node 39 1 0 2
node 40 1 0 2
node 41 1 0 2
node 42 1 0 2
gene  1 1 34 0.457830481082828 0 1386.0 0.457830481082828 1
gene  1 2 34 -0.8913627157878496 0 1387.0 -0.8913627157878496 1
gene  1 5 34 -0.47060841752252447 0 1390.0 -0.47060841752252447 1
gene  1 7 34 -0.13240223088484315 0 1392.0 -0.13240223088484315 1
gene  1 8 34 0.03961357284431011 0 1393.0 0.03961357284431011 1
gene  1 12 34 -0.47665879687701884 0 1397.0 -0.47665879687701884 1
gene  1 16 34 0.258853375872368 0 1401.0 0.258853375872368 1
gene  1 19 34 0.8433674678680643 0 1404.0 0.8433674678680643 1
gene  1 21 34 -0.8679133709739161 0 1406.0 -0.8679133709739161 1
gene  1 35 34 -0.6807112870501978 1 1420.0 -0.6807112870501978 1
gene  1 36 34 -0.3778408204331688 1 1421.0 -0.3778408204331688 1
gene  1 39 34 -0.24184481965902616 1 1424.0 -0.24184481965902616 1
gene  1 5 35 0.43286156346717075 0 1432.0 0.43286156346717075 1
gene  1 7 35 0.5417124197938834 0 1434.0 0.5417124197938834 1
gene  1 8 35 0.32353303755706164 0 1435.0 0.32353303755706164 1
gene  1 9 35 0.7439380561689642 0 1436.0 0.7439380561689642 1
gene  1 11 35 -0.6100905121274958 0 1438.0 -0.6100905121274958 1
gene  1 12 35 -0.45780579826735757 0 1439.0 -0.45780579826735757 1
gene  1 14 35 -0.2797858840734462 0 1441.0 -0.2797858840734462 1
gene  1 15 35 -0.19018983401953948 0 1442.0 -0.19018983401953948 1
gene  1 16 35 -0.5493772321552425 0 1443.0 -0.5493772321552425 1
gene  1 17 35 0.24566618508470695 0 1444.0 0.24566618508470695 1
gene  1 19 35 -0.8263138687841021 0 1446.0 -0.8263138687841021 1
gene  1 20 35 0.27615771875477124 0 1447.0 0.27615771875477124 1
gene  1 21 35 -0.3406749084263192 0 1448.0 -0.3406749084263192 1
gene  1 23 35 -0.15999047290808588 0 1450.0 -0.15999047290808588 1
gene  1 24 35 0.07630965078842766 0 1451.0 0.07630965078842766 1
gene  1 35 35 0.7555452490957508 1 1462.0 0.7555452490957508 1
gene  1 36 35 -0.38548397351507624 1 1463.0 -0.38548397351507624 1
gene  1 42 35 0.07507769918133833 1 1469.0 0.07507769918133833 1
gene  1 3 36 0.19874047802835793 0 1472.0 0.19874047802835793 1
gene  1 7 36 0.08137086525208326 0 1476.0 0.08137086525208326 1
gene  1 8 36 -0.6336189943502721 0 1477.0 -0.6336189943502721 1
gene  1 9 36 0.6540092120845349 0 1478.0 0.6540092120845349 1
gene  1 14 36 0.28842039033623645 0 1483.0 0.28842039033623645 1
gene  1 16 36 0.31939212651014737 0 1485.0 0.31939212651014737 1
gene  1 17 36 0.35921109187759814 0 1486.0 0.35921109187759814 1
gene  1 18 36 0.37635336426109134 0 1487.0 0.37635336426109134 1
gene  1 20 36 -0.9582908291057213 0 1489.0 -0.9582908291057213 1
gene  1 22 36 0.26416792276162615 0 1491.0 0.26416792276162615 1
gene  1 23 36 0.21575276605434512 0 1492.0 0.21575276605434512 1
gene  1 25 36 -0.723729319876744 0 1494.0 -0.723729319876744 1
gene  1 27 36 0.9493829529260095 0 1496.0 0.9493829529260095 1
gene  1 28 36 0.9783366312769521 0 1497.0 0.9783366312769521 1
gene  1 34 36 -0.1830272280511115 0 1503.0 -0.1830272280511115 1
gene  1 35 36 0.7677583439614031 0 1504.0 0.7677583439614031 1
gene  1 36 36 -0.700498789377022 1 1505.0 -0.700498789377022 1
gene  1 37 36 -0.5233906976681549 1 1506.0 -0.5233906976681549 1
gene  1 39 36 -0.18812585006558413 1 1508.0 -0.18812585006558413 1
gene  1 40 36 -0.4225740480960778 1 1509.0 -0.4225740480960778 1
gene  1 3 37 0.7669333106081792 0 1514.0 0.7669333106081792 1
gene  1 4 37 0.5657905271768011 0 1515.0 0.5657905271768011 1
gene  1 7 37 -0.6220768051027331 0 1518.0 -0.6220768051027331 1
gene  1 9 37 0.9416940387935802 0 1520.0 0.9416940387935802 1
gene  1 10 37 0.4101348233414319 0 1521.0 0.4101348233414319 1
gene  1 12 37 -0.2329067377827918 0 1523.0 -0.2329067377827918 1
gene  1 15 37 0.3908936540053545 0 1526.0 0.3908936540053545 1
gene  1 16 37 0.006087687847912138 0 1527.0 0.006087687847912138 1
gene  1 17 37 0.6420117760524956 0 1528.0 0.6420117760524956 1
gene  1 18 37 0.013114821838550172 0 1529.0 0.013114821838550172 1
gene  1 22 37 0.22748825104734238 0 1533.0 0.22748825104734238 1
gene  1 24 37 0.2879984755340729 0 1535.0 0.2879984755340729 1
gene  1 25 37 0.6519616703399201 0 1536.0 0.6519616703399201 1
gene  1 26 37 0.39436345205235535 0 1537.0 0.39436345205235535 1
gene  1 34 37 0.6756334228496582 0 1545.0 0.6756334228496582 1
gene  1 37 37 -0.42665817081599233 1 1548.0 -0.42665817081599233 1
gene  1 39 37 0.38431645032387063 1 1550.0 0.38431645032387063 1
gene  1 41 37 -0.11355069137696239 1 1552.0 -0.11355069137696239 1
gene  1 3 38 -0.8501437024862689 0 1556.0 -0.8501437024862689 1
gene  1 4 38 0.3325018145824927 0 1557.0 0.3325018145824927 1
gene  1 5 38 0.19083872372015787 0 1558.0 0.19083872372015787 1
gene  1 7 38 -0.43979678622257146 0 1560.0 -0.43979678622257146 1
gene  1 8 38 -0.9241706467611794 0 1561.0 -0.9241706467611794 1
gene  1 12 38 -0.9827742872581793 0 1565.0 -0.9827742872581793 1
gene  1 16 38 -0.938611355050291 0 1569.0 -0.938611355050291 1
gene  1 19 38 0.47980054615544165 0 1572.0 0.47980054615544165 1
gene  1 22 38 -0.42486958164995936 0 1575.0 -0.42486958164995936 1
gene  1 23 38 -0.8922959710701143 0 1576.0 -0.8922959710701143 1
gene  1 34 38 0.7989575677619555 0 1587.0 0.7989575677619555 1
gene  1 40 38 0.5113829321755807 1 1593.0 0.5113829321755807 1
gene  1 2 39 0.1969421570433607 0 1597.0 0.1969421570433607 1
gene  1 3 39 0.16929511727603663 0 1598.0 0.16929511727603663 1
gene  1 5 39 -0.6281062258532939 0 1600.0 -0.6281062258532939 1
gene  1 7 39 -0.30741162398457 0 1602.0 -0.30741162398457 1
gene  1 10 39 0.16832817963971958 0 1605.0 0.16832817963971958 1
gene  1 11 39 -0.10015307139844376 0 1606.0 -0.10015307139844376 1
gene  1 13 39 -0.4347481963516383 0 1608.0 -0.4347481963516383 1
gene  1 17 39 0.08878649040342201 0 1612.0 0.08878649040342201 1
gene  1 20 39 -0.40661725951190886 0 1615.0 -0.40661725951190886 1
gene  1 24 39 0.07306232402751667 0 1619.0 0.07306232402751667 1
gene  1 26 39 -0.8323579771495012 0 1621.0 -0.8323579771495012 1
gene  1 28 39 0.47115283297551946 0 1623.0 0.47115283297551946 1
gene  1 35 39 -0.9559609043346384 0 1630.0 -0.9559609043346384 1
gene  1 37 39 -0.04525543494237905 0 1632.0 -0.04525543494237905 1
gene  1 38 39 -0.6235033968244537 0 1633.0 -0.6235033968244537 1
gene  1 40 39 -0.6714715501820246 1 1635.0 -0.6714715501820246 1
gene  1 41 39 0.3941436859537266 1 1636.0 0.3941436859537266 1
gene  1 42 39 -0.7997859097516127 1 1637.0 -0.7997859097516127 1
gene  1 5 40 -0.1470266185710819 0 1642.0 -0.1470266185710819 1
gene  1 6 40 0.49036560416774233 0 1643.0 0.49036560416774233 1
gene  1 8 40 0.23415331306476217 0 1645.0 0.23415331306476217 1
gene  1 9 40 -0.7158747207566196 0 1646.0 -0.7158747207566196 1
gene  1 10 40 0.734027097124354 0 1647.0 0.734027097124354 1
gene  1 11 40 -0.6540069661603146 0 1648.0 -0.6540069661603146 1
gene  1 12 40 0.234580472806715 0 1649.0 0.234580472806715 1
gene  1 13 40 -0.40348704194584395 0 1650.0 -0.40348704194584395 1
gene  1 15 40 0.42145117851466507 0 1652.0 0.42145117851466507 1
gene  1 16 40 -0.0018075137512093553 0 1653.0 -0.0018075137512093553 1
gene  1 18 40 -0.38336326406997556 0 1655.0 -0.38336326406997556 1
gene  1 19 40 0.2118656525325091 0 1656.0 0.2118656525325091 1
gene  1 25 40 0.9286195798383864 0 1662.0 0.9286195798383864 1
gene  1 27 40 -0.5568108620557213 0 1664.0 -0.5568108620557213 1
gene  1 28 40 0.019025027240394676 0 1665.0 0.019025027240394676 1
gene  1 35 40 0.6188821639568212 0 1672.0 0.6188821639568212 1
gene  1 37 40 0.1373940452179484 0 1674.0 0.1373940452179484 1
gene  1 40 40 -0.5747974940242151 1 1677.0 -0.5747974940242151 1
gene  1 42 40 0.9762734471289803 1 1679.0 0.9762734471289803 1
gene  1 1 41 -0.8208158763182034 0 1680.0 -0.8208158763182034 1
gene  1 4 41 -0.8654707171319128 0 1683.0 -0.8654707171319128 1
gene  1 6 41 -0.3929433038458777 0 1685.0 -0.3929433038458777 1
gene  1 8 41 -0.24663706148167752 0 1687.0 -0.24663706148167752 1
gene  1 9 41 0.36994426868030617 0 1688.0 0.36994426868030617 1
gene  1 11 41 0.3784349212694512 0 1690.0 0.3784349212694512 1
gene  1 13 41 -0.9935095776571841 0 1692.0 -0.9935095776571841 1
gene  1 14 41 -0.8720996379668607 0 1693.0 -0.8720996379668607 1
gene  1 16 41 0.5214198772831006 0 1695.0 0.5214198772831006 1
gene  1 17 41 -0.7530401221120889 0 1696.0 -0.7530401221120889 1
gene  1 19 41 0.16347064800494515 0 1698.0 0.16347064800494515 1
gene  1 23 41 -0.31720766220426544 0 1702.0 -0.31720766220426544 1
gene  1 24 41 0.544479637996906 0 1703.0 0.544479637996906 1
gene  1 25 41 -0.14437834828300566 0 1704.0 -0.14437834828300566 1
gene  1 26 41 0.5150522303764027 0 1705.0 0.5150522303764027 1
gene  1 27 41 0.5540069187841075 0 1706.0 0.5540069187841075 1
gene  1 36 41 0.7911217224964385 0 1715.0 0.7911217224964385 1
gene  1 42 41 -0.09526091092457778 1 1721.0 -0.09526091092457778 1
gene  1 1 42 0.27958858621940597 0 1722.0 0.27958858621940597 1
gene  1 2 42 0.4399163358923154 0 1723.0 0.4399163358923154 1
gene  1 3 42 0.8849084494524599 0 1724.0 0.8849084494524599 1
gene  1 5 42 0.988671747934422 0 1726.0 0.988671747934422 1
gene  1 6 42 -0.08950811640356582 0 1727.0 -0.08950811640356582 1
gene  1 7 42 0.551155747233203 0 1728.0 0.551155747233203 1
gene  1 8 42 -0.2522980655499081 0 1729.0 -0.2522980655499081 1
gene  1 10 42 -0.4244113726226093 0 1731.0 -0.4244113726226093 1
gene  1 11 42 0.10910525417864825 0 1732.0 0.10910525417864825 1
gene  1 12 42 -0.5678651751128623 0 1733.0 -0.5678651751128623 1
gene  1 13 42 0.04954067073702739 0 1734.0 0.04954067073702739 1
gene  1 15 42 -0.8992134582098829 0 1736.0 -0.8992134582098829 1
gene  1 20 42 -0.09939951136951874 0 1741.0 -0.09939951136951874 1
gene  1 22 42 0.19022077590650766 0 1743.0 0.19022077590650766 1
gene  1 24 42 -0.6922287051351362 0 1745.0 -0.6922287051351362 1
gene  1 26 42 0.49525708500327126 0 1747.0 0.49525708500327126 1
gene  1 27 42 0.8380497861796555 0 1748.0 0.8380497861796555 1
gene  1 28 42 -0.730673614197879 0 1749.0 -0.730673614197879 1
gene  1 39 42 0.9464892671074637 0 1760.0 0.9464892671074637 1
gene  1 40 42 -0.004063407338782632 0 1761.0 -0.004063407338782632 1
gene  1 41 42 0.841082626481536 0 1762.0 0.841082626481536 1
genomeend 2
/* Organism # 003 Fitness:  0.000 Error:  0.000                      */
genomestart  3
trait 1 0.0 0.0 0.0 0.0 0.0 0.0 0.0 0.0 
node 1 1 1 1
node 2 1 1 1
node 3 1 1 1
node 4 1 1 1
node 5 1 1 1
node 6 1 1 1
node 7 1 1 1
node 8 1 1 1
node 9 1 1 1
node 10 1 1 1
node 11 1 1 1
node 12 1 1 1
node 13 1 1 1
node 14 1 1 1
node 15 1 1 1
node 16 1 1 1
node 17 1 1 1
node 18 1 1 1
node 19 1 1 1
node 20 1 1 1
node 21 1 1 1
node 22 1 1 1
node 23 1 1 1
node 24 1 1 1
node 25 1 1 1
node 26 1 1 1
node 27 1 1 1
node 28 1 1 3
node 34 1 0 2
node 35 1 0 2
node 36 1 0 2
node 37 1 0 2
node 38 1 0 2
node 39 1 0 2
node 40 1 0 2
node 41 1 0 2
node 42 1 0 2
gene  1 1 34 0.457830481082828 0 1386.0 0.457830481082828 1
gene  1 2 34 -0.8913627157878496 0 1387.0 -0.8913627157878496 1
gene  1 5 34 -0.47060841752252447 0 1390.0 -0.47060841752252447 1
gene  1 7 34 -0.13240223088484315 0 1392.0 -0.13240223088484315 1
gene  1 8 34 0.03961357284431011 0 1393.0 0.03961357284431011 1
gene  1 12 34 -0.47665879687701884 0 1397.0 -0.47665879687701884 1
gene  1 16 34 0.258853375872368 0 1401.0 0.258853375872368 1
gene  1 19 34 0.8433674678680643 0 1404.0 0.8433674678680643 1
gene  1 21 34 -0.8679133709739161 0 1406.0 -0.8679133709739161 1
gene  1 35 34 -0.6807112870501978 1 1420.0 -0.6807112870501978 1
gene  1 36 34 -0.3778408204331688 1 1421.0 -0.3778408204331688 1
gene  1 39 34 -0.24184481965902616 1 1424.0 -0.24184481965902616 1
gene  1 5 35 0.43286156346717075 0 1432.0 0.43286156346717075 1
gene  1 7 35 0.5417124197938834 0 1434.0 0.5417124197938834 1
gene  1 8 35 0.32353303755706164 0 1435.0 0.32353303755706164 1
gene  1 9 35 0.7439380561689642 0 1436.0 0.7439380561689642 1
gene  1 11 35 -0.6100905121274958 0 1438.0 -0.6100905121274958 1
gene  1 12 35 -0.45780579826735757 0 1439.0 -0.45780579826735757 1
gene  1 14 35 -0.2797858840734462 0 1441.0 -0.2797858840734462 1
gene  1 15 35 -0.19018983401953948 0 1442.0 -0.19018983401953948 1
gene  1 16 35 -0.5493772321552425 0 1443.0 -0.5493772321552425 1
gene  1 17 35 0.24566618508470695 0 1444.0 0.24566618508470695 1
gene  1 19 35 -0.8263138687841021 0 1446.0 -0.8263138687841021 1
gene  1 20 35 0.27615771875477124 0 1447.0 0.27615771875477124 1
gene  1 21 35 -0.3406749084263192 0 1448.0 -0.3406749084263192 1
gene  1 23 35 -0.15999047290808588 0 1450.0 -0.15999047290808588 1
gene  1 24 35 0.07630965078842766 0 1451.0 0.07630965078842766 1
gene  1 35 35 0.7555452490957508 1 1462.0 0.7555452490957508 1
gene  1 36 35 -0.38548397351507624 1 1463.0 -0.38548397351507624 1
gene  1 42 35 0.07507769918133833 1 1469.0 0.07507769918133833 1
gene  1 3 36 0.19874047802835793 0 1472.0 0.19874047802835793 1
gene  1 7 36 0.08137086525208326 0 1476.0 0.08137086525208326 1
gene  1 8 36 -0.6336189943502721 0 1477.0 -0.6336189943502721 1
gene  1 9 36 0.6540092120845349 0 1478.0 0.6540092120845349 1
gene  1 14 36 0.28842039033623645 0 1483.0 0.28842039033623645 1
gene  1 16 36 0.31939212651014737 0 1485.0 0.31939212651014737 1
gene  1 17 36 0.35921109187759814 0 1486.0 0.35921109187759814 1
gene  1 18 36 0.37635336426109134 0 1487.0 0.37635336426109134 1
gene  1 20 36 -0.9582908291057213 0 1489.0 -0.9582908291057213 1
gene  1 22 36 0.26416792276162615 0 1491.0 0.26416792276162615 1
gene  1 23 36 0.21575276605434512 0 1492.0 0.21575276605434512 1
gene  1 25 36 -0.723729319876744 0 1494.0 -0.723729319876744 1
gene  1 27 36 0.9493829529260095 0 1496.0 0.9493829529260095 1
gene  1 28 36 0.9783366312769521 0 1497.0 0.9783366312769521 1
gene  1 34 36 -0.1830272280511115 0 1503.0 -0.1830272280511115 1
gene  1 35 36 0.7677583439614031 0 1504.0 0.7677583439614031 1
gene  1 36 36 -0.700498789377022 1 1505.0 -0.700498789377022 1
gene  1 37 36 -0.5233906976681549 1 1506.0 -0.5233906976681549 1
gene  1 39 36 -0.18812585006558413 1 1508.0 -0.18812585006558413 1
gene  1 40 36 -0.4225740480960778 1 1509.0 -0.4225740480960778 1
gene  1 3 37 0.7669333106081792 0 1514.0 0.7669333106081792 1
gene  1 4 37 0.5657905271768011 0 1515.0 0.5657905271768011 1
gene  1 7 37 -0.6220768051027331 0 1518.0 -0.6220768051027331 1
gene  1 9 37 0.9416940387935802 0 1520.0 0.9416940387935802 1
gene  1 10 37 0.4101348233414319 0 1521.0 0.4101348233414319 1
gene  1 12 37 -0.2329067377827918 0 1523.0 -0.2329067377827918 1
gene  1 15 37 0.3908936540053545 0 1526.0 0.3908936540053545 1
gene  1 16 37 0.006087687847912138 0 1527.0 0.006087687847912138 1
gene  1 17 37 0.6420117760524956 0 1528.0 0.6420117760524956 1
gene  1 18 37 0.013114821838550172 0 1529.0 0.013114821838550172 1
gene  1 22 37 0.22748825104734238 0 1533.0 0.22748825104734238 1
gene  1 24 37 0.2879984755340729 0 1535.0 0.2879984755340729 1
gene  1 25 37 0.6519616703399201 0 1536.0 0.6519616703399201 1
gene  1 26 37 0.39436345205235535 0 1537.0 0.39436345205235535 1
gene  1 34 37 0.6756334228496582 0 1545.0 0.6756334228496582 1
gene  1 37 37 -0.42665817081599233 1 1548.0 -0.42665817081599233 1
gene  1 39 37 0.38431645032387063 1 1550.0 0.38431645032387063 1
gene  1 41 37 -0.11355069137696239 1 1552.0 -0.11355069137696239 1
gene  1 3 38 -0.8501437024862689 0 1556.0 -0.8501437024862689 1
gene  1 4 38 0.3325018145824927 0 1557.0 0.3325018145824927 1
gene  1 5 38 0.19083872372015787 0 1558.0 0.19083872372015787 1
gene  1 7 38 -0.43979678622257146 0 1560.0 -0.43979678622257146 1
gene  1 8 38 -0.9241706467611794 0 1561.0 -0.9241706467611794 1
gene  1 12 38 -0.9827742872581793 0 1565.0 -0.9827742872581793 1
gene  1 16 38 -0.938611355050291 0 1569.0 -0.938611355050291 1
gene  1 19 38 0.47980054615544165 0 1572.0 0.47980054615544165 1
gene  1 22 38 -0.42486958164995936 0 1575.0 -0.42486958164995936 1
gene  1 23 38 -0.8922959710701143 0 1576.0 -0.8922959710701143 1
gene  1 34 38 0.7989575677619555 0 1587.0 0.7989575677619555 1
gene  1 40 38 0.5113829321755807 1 1593.0 0.5113829321755807 1
gene  1 2 39 0.1969421570433607 0 1597.0 0.1969421570433607 1
gene  1 3 39 0.16929511727603663 0 1598.0 0.16929511727603663 1
gene  1 5 39 -0.6281062258532939 0 1600.0 -0.6281062258532939 1
gene  1 7 39 -0.30741162398457 0 1602.0 -0.30741162398457 1
gene  1 10 39 0.16832817963971958 0 1605.0 0.16832817963971958 1
gene  1 11 39 -0.10015307139844376 0 1606.0 -0.10015307139844376 1
gene  1 13 39 -0.4347481963516383 0 1608.0 -0.4347481963516383 1
gene  1 17 39 0.08878649040342201 0 1612.0 0.08878649040342201 1
gene  1 20 39 -0.40661725951190886 0 1615.0 -0.40661725951190886 1
gene  1 24 39 0.07306232402751667 0 1619.0 0.07306232402751667 1
gene  1 26 39 -0.8323579771495012 0 1621.0 -0.8323579771495012 1
gene  1 28 39 0.47115283297551946 0 1623.0 0.47115283297551946 1
gene  1 35 39 -0.9559609043346384 0 1630.0 -0.9559609043346384 1
gene  1 37 39 -0.04525543494237905 0 1632.0 -0.04525543494237905 1
gene  1 38 39 -0.6235033968244537 0 1633.0 -0.6235033968244537 1
gene  1 40 39 -0.6714715501820246 1 1635.0 -0.6714715501820246 1
gene  1 41 39 0.3941436859537266 1 1636.0 0.3941436859537266 1
gene  1 42 39 -0.7997859097516127 1 1637.0 -0.7997859097516127 1
gene  1 5 40 -0.1470266185710819 0 1642.0 -0.1470266185710819 1
gene  1 6 40 0.49036560416774233 0 1643.0 0.49036560416774233 1
gene  1 8 40 0.23415331306476217 0 1645.0 0.23415331306476217 1
gene  1 9 40 -0.7158747207566196 0 1646.0 -0.7158747207566196 1
gene  1 10 40 0.734027097124354 0 1647.0 0.734027097124354 1
gene  1 11 40 -0.6540069661603146 0 1648.0 -0.6540069661603146 1
gene  1 12 40 0.234580472806715 0 1649.0 0.234580472806715 1
gene  1 13 40 -0.40348704194584395 0 1650.0 -0.40348704194584395 1
gene  1 15 40 0.42145117851466507 0 1652.0 0.42145117851466507 1
gene  1 16 40 -0.0018075137512093553 0 1653.0 -0.0018075137512093553 1
gene  1 18 40 -0.38336326406997556 0 1655.0 -0.38336326406997556 1
gene  1 19 40 0.2118656525325091 0 1656.0 0.2118656525325091 1
gene  1 25 40 0.9286195798383864 0 1662.0 0.9286195798383864 1
gene  1 27 40 -0.5568108620557213 0 1664.0 -0.5568108620557213 1
gene  1 28 40 0.019025027240394676 0 1665.0 0.019025027240394676 1
gene  1 35 40 0.6188821639568212 0 1672.0 0.6188821639568212 1
gene  1 37 40 0.1373940452179484 0 1674.0 0.1373940452179484 1
gene  1 40 40 -0.5747974940242151 1 1677.0 -0.5747974940242151 1
gene  1 42 40 0.9762734471289803 1 1679.0 0.9762734471289803 1
gene  1 1 41 -0.8208158763182034 0 1680.0 -0.8208158763182034 1
gene  1 4 41 -0.8654707171319128 0 1683.0 -0.8654707171319128 1
gene  1 6 41 -0.3929433038458777 0 1685.0 -0.3929433038458777 1
gene  1 8 41 -0.24663706148167752 0 1687.0 -0.24663706148167752 1
gene  1 9 41 0.36994426868030617 0 1688.0 0.36994426868030617 1
gene  1 11 41 0.3784349212694512 0 1690.0 0.3784349212694512 1
gene  1 13 41 -0.9935095776571841 0 1692.0 -0.9935095776571841 1
gene  1 14 41 -0.8720996379668607 0 1693.0 -0.8720996379668607 1
gene  1 16 41 0.5214198772831006 0 1695.0 0.5214198772831006 1
gene  1 17 41 -0.7530401221120889 0 1696.0 -0.7530401221120889 1
gene  1 19 41 0.16347064800494515 0 1698.0 0.16347064800494515 1
gene  1 23 41 -0.31720766220426544 0 1702.0 -0.31720766220426544 1
gene  1 24 41 0.544479637996906 0 1703.0 0.544479637996906 1
gene  1 25 41 -0.14437834828300566 0 1704.0 -0.14437834828300566 1
gene  1 26 41 0.5150522303764027 0 1705.0 0.5150522303764027 1
gene  1 27 41 0.5540069187841075 0 1706.0 0.5540069187841075 1
gene  1 36 41 0.7911217224964385 0 1715.0 0.7911217224964385 1
gene  1 42 41 -0.09526091092457778 1 1721.0 -0.09526091092457778 1
gene  1 1 42 0.27958858621940597 0 1722.0 0.27958858621940597 1
gene  1 2 42 0.4399163358923154 0 1723.0 0.4399163358923154 1
gene  1 3 42 0.8849084494524599 0 1724.0 0.8849084494524599 1
gene  1 5 42 0.988671747934422 0 1726.0 0.988671747934422 1
gene  1 6 42 -0.08950811640356582 0 1727.0 -0.08950811640356582 1
gene  1 7 42 0.551155747233203 0 1728.0 0.551155747233203 1
gene  1 8 42 -0.2522980655499081 0 1729.0 -0.2522980655499081 1
gene  1 10 42 -0.4244113726226093 0 1731.0 -0.4244113726226093 1
gene  1 11 42 0.10910525417864825 0 1732.0 0.10910525417864825 1
gene  1 12 42 -0.5678651751128623 0 1733.0 -0.5678651751128623 1
gene  1 13 42 0.04954067073702739 0 1734.0 0.04954067073702739 1
gene  1 15 42 -0.8992134582098829 0 1736.0 -0.8992134582098829 1
gene  1 20 42 -0.09939951136951874 0 1741.0 -0.09939951136951874 1
gene  1 22 42 0.19022077590650766 0 1743.0 0.19022077590650766 1
gene  1 24 42 -0.6922287051351362 0 1745.0 -0.6922287051351362 1
gene  1 26 42 0.49525708500327126 0 1747.0 0.49525708500327126 1
gene  1 27 42 0.8380497861796555 0 1748.0 0.8380497861796555 1
gene  1 28 42 -0.730673614197879 0 1749.0 -0.730673614197879 1
gene  1 39 42 0.9464892671074637 0 1760.0 0.9464892671074637 1
gene  1 40 42 -0.004063407338782632 0 1761.0 -0.004063407338782632 1
gene  1 41 42 0.841082626481536 0 1762.0 0.841082626481536 1
genomeend 3
/* Organism # 004 Fitness:  0.000 Error:  0.000                      */
genomestart  4
trait 1 0.0 0.0 0.0 0.0 0.0 0.0 0.0 0.0 
node 1 1 1 1
node 2 1 1 1
node 3 1 1 1
node 4 1 1 1
node 5 1 1 1
node 6 1 1 1
node 7 1 1 1
node 8 1 1 1
node 9 1 1 1
node 10 1 1 1
node 11 1 1 1
node 12 1 1 1
node 13 1 1 1
node 14 1 1 1
node 15 1 1 1
node 16 1 1 1
node 17 1 1 1
node 18 1 1 1
node 19 1 1 1
node 20 1 1 1
node 21 1 1 1
node 22 1 1 1
node 23 1 1 1
node 24 1 1 1
node 25 1 1 1
node 26 1 1 1
node 27 1 1 1
node 28 1 1 3
node 34 1 0 2
node 35 1 0 2
node 36 1 0 2
node 37 1 0 2
node 38 1 0 2
node 39 1 0 2
node 40 1 0 2
node 41 1 0 2
node 42 1 0 2
gene  1 1 34 0.457830481082828 0 1386.0 0.457830481082828 1
gene  1 2 34 -0.8913627157878496 0 1387.0 -0.8913627157878496 1
gene  1 5 34 -0.47060841752252447 0 1390.0 -0.47060841752252447 1
gene  1 7 34 -0.13240223088484315 0 1392.0 -0.13240223088484315 1
gene  1 8 34 0.03961357284431011 0 1393.0 0.03961357284431011 1
gene  1 12 34 -0.47665879687701884 0 1397.0 -0.47665879687701884 1
gene  1 16 34 0.258853375872368 0 1401.0 0.258853375872368 1
gene  1 19 34 0.8433674678680643 0 1404.0 0.8433674678680643 1
gene  1 21 34 -0.8679133709739161 0 1406.0 -0.8679133709739161 1
gene  1 35 34 -0.6807112870501978 1 1420.0 -0.6807112870501978 1
gene  1 36 34 -0.3778408204331688 1 1421.0 -0.3778408204331688 1
gene  1 39 34 -0.24184481965902616 1 1424.0 -0.24184481965902616 1
gene  1 5 35 0.43286156346717075 0 1432.0 0.43286156346717075 1
gene  1 7 35 0.5417124197938834 0 1434.0 0.5417124197938834 1
gene  1 8 35 0.32353303755706164 0 1435.0 0.32353303755706164 1
gene  1 9 35 0.7439380561689642 0 1436.0 0.7439380561689642 1
gene  1 11 35 -0.6100905121274958 0 1438.0 -0.6100905121274958 1
gene  1 12 35 -0.45780579826735757 0 1439.0 -0.45780579826735757 1
gene  1 14 35 -0.2797858840734462 0 1441.0 -0.2797858840734462 1
gene  1 15 35 -0.19018983401953948 0 1442.0 -0.19018983401953948 1
gene  1 16 35 -0.5493772321552425 0 1443.0 -0.5493772321552425 1
gene  1 17 35 0.24566618508470695 0 1444.0 0.24566618508470695 1
gene  1 19 35 -0.8263138687841021 0 1446.0 -0.8263138687841021 1
gene  1 20 35 0.27615771875477124 0 1447.0 0.27615771875477124 1
gene  1 21 35 -0.3406749084263192 0 1448.0 -0.3406749084263192 1
gene  1 23 35 -0.15999047290808588 0 1450.0 -0.15999047290808588 1
gene  1 24 35 0.07630965078842766 0 1451.0 0.07630965078842766 1
gene  1 35 35 0.7555452490957508 1 1462.0 0.7555452490957508 1
gene  1 36 35 -0.38548397351507624 1 1463.0 -0.38548397351507624 1
gene  1 42 35 0.07507769918133833 1 1469.0 0.07507769918133833 1
gene  1 3 36 0.19874047802835793 0 1472.0 0.19874047802835793 1
gene  1 7 36 0.08137086525208326 0 1476.0 0.08137086525208326 1
gene  1 8 36 -0.6336189943502721 0 1477.0 -0.6336189943502721 1
gene  1 9 36 0.6540092120845349 0 1478.0 0.6540092120845349 1
gene  1 14 36 0.28842039033623645 0 1483.0 0.28842039033623645 1
gene  1 16 36 0.31939212651014737 0 1485.0 0.31939212651014737 1
gene  1 17 36 0.35921109187759814 0 1486.0 0.35921109187759814 1
gene  1 18 36 0.37635336426109134 0 1487.0 0.37635336426109134 1
gene  1 20 36 -0.9582908291057213 0 1489.0 -0.9582908291057213 1
gene  1 22 36 0.26416792276162615 0 1491.0 0.26416792276162615 1
gene  1 23 36 0.21575276605434512 0 1492.0 0.21575276605434512 1
gene  1 25 36 -0.723729319876744 0 1494.0 -0.723729319876744 1
gene  1 27 36 0.9493829529260095 0 1496.0 0.9493829529260095 1
gene  1 28 36 0.9783366312769521 0 1497.0 0.9783366312769521 1
gene  1 34 36 -0.1830272280511115 0 1503.0 -0.1830272280511115 1
gene  1 35 36 0.7677583439614031 0 1504.0 0.7677583439614031 1
gene  1 36 36 -0.700498789377022 1 1505.0 -0.700498789377022 1
gene  1 37 36 -0.5233906976681549 1 1506.0 -0.5233906976681549 1
gene  1 39 36 -0.18812585006558413 1 1508.0 -0.18812585006558413 1
gene  1 40 36 -0.4225740480960778 1 1509.0 -0.4225740480960778 1
gene  1 3 37 0.7669333106081792 0 1514.0 0.7669333106081792 1
gene  1 4 37 0.5657905271768011 0 1515.0 0.5657905271768011 1
gene  1 7 37 -0.6220768051027331 0 1518.0 -0.6220768051027331 1
gene  1 9 37 0.9416940387935802 0 1520.0 0.9416940387935802 1
gene  1 10 37 0.4101348233414319 0 1521.0 0.4101348233414319 1
gene  1 12 37 -0.2329067377827918 0 1523.0 -0.2329067377827918 1
gene  1 15 37 0.3908936540053545 0 1526.0 0.3908936540053545 1
gene  1 16 37 0.006087687847912138 0 1527.0 0.006087687847912138 1
gene  1 17 37 0.6420117760524956 0 1528.0 0.6420117760524956 1
gene  1 18 37 0.013114821838550172 0 1529.0 0.013114821838550172 1
gene  1 22 37 0.22748825104734238 0 1533.0 0.22748825104734238 1
gene  1 24 37 0.2879984755340729 0 1535.0 0.2879984755340729 1
gene  1 25 37 0.6519616703399201 0 1536.0 0.6519616703399201 1
gene  1 26 37 0.39436345205235535 0 1537.0 0.39436345205235535 1
gene  1 34 37 0.6756334228496582 0 1545.0 0.6756334228496582 1
gene  1 37 37 -0.42665817081599233 1 1548.0 -0.42665817081599233 1
gene  1 39 37 0.38431645032387063 1 1550.0 0.38431645032387063 1
gene  1 41 37 -0.11355069137696239 1 1552.0 -0.11355069137696239 1
gene  1 3 38 -0.8501437024862689 0 1556.0 -0.8501437024862689 1
gene  1 4 38 0.3325018145824927 0 1557.0 0.3325018145824927 1
gene  1 5 38 0.19083872372015787 0 1558.0 0.19083872372015787 1
gene  1 7 38 -0.43979678622257146 0 1560.0 -0.43979678622257146 1
gene  1 8 38 -0.9241706467611794 0 1561.0 -0.9241706467611794 1
gene  1 12 38 -0.9827742872581793 0 1565.0 -0.9827742872581793 1
gene  1 16 38 -0.938611355050291 0 1569.0 -0.938611355050291 1
gene  1 19 38 0.47980054615544165 0 1572.0 0.47980054615544165 1
gene  1 22 38 -0.42486958164995936 0 1575.0 -0.42486958164995936 1
gene  1 23 38 -0.8922959710701143 0 1576.0 -0.8922959710701143 1
gene  1 34 38 0.7989575677619555 0 1587.0 0.7989575677619555 1
gene  1 40 38 0.5113829321755807 1 1593.0 0.5113829321755807 1
gene  1 2 39 0.1969421570433607 0 1597.0 0.1969421570433607 1
gene  1 3 39 0.16929511727603663 0 1598.0 0.16929511727603663 1
gene  1 5 39 -0.6281062258532939 0 1600.0 -0.6281062258532939 1
gene  1 7 39 -0.30741162398457 0 1602.0 -0.30741162398457 1
gene  1 10 39 0.16832817963971958 0 1605.0 0.16832817963971958 1
gene  1 11 39 -0.10015307139844376 0 1606.0 -0.10015307139844376 1
gene  1 13 39 -0.4347481963516383 0 1608.0 -0.4347481963516383 1
gene  1 17 39 0.08878649040342201 0 1612.0 0.08878649040342201 1
gene  1 20 39 -0.40661725951190886 0 1615.0 -0.40661725951190886 1
gene  1 24 39 0.07306232402751667 0 1619.0 0.07306232402751667 1
gene  1 26 39 -0.8323579771495012 0 1621.0 -0.8323579771495012 1
gene  1 28 39 0.47115283297551946 0 1623.0 0.47115283297551946 1
gene  1 35 39 -0.9559609043346384 0 1630.0 -0.9559609043346384 1
gene  1 37 39 -0.04525543494237905 0 1632.0 -0.04525543494237905 1
gene  1 38 39 -0.6235033968244537 0 1633.0 -0.6235033968244537 1
gene  1 40 39 -0.6714715501820246 1 1635.0 -0.6714715501820246 1
gene  1 41 39 0.3941436859537266 1 1636.0 0.3941436859537266 1
gene  1 42 39 -0.7997859097516127 1 1637.0 -0.7997859097516127 1
gene  1 5 40 -0.1470266185710819 0 1642.0 -0.1470266185710819 1
gene  1 6 40 0.49036560416774233 0 1643.0 0.49036560416774233 1
gene  1 8 40 0.23415331306476217 0 1645.0 0.23415331306476217 1
gene  1 9 40 -0.7158747207566196 0 1646.0 -0.7158747207566196 1
gene  1 10 40 0.734027097124354 0 1647.0 0.734027097124354 1
gene  1 11 40 -0.6540069661603146 0 1648.0 -0.6540069661603146 1
gene  1 12 40 0.234580472806715 0 1649.0 0.234580472806715 1
gene  1 13 40 -0.40348704194584395 0 1650.0 -0.40348704194584395 1
gene  1 15 40 0.42145117851466507 0 1652.0 0.42145117851466507 1
gene  1 16 40 -0.0018075137512093553 0 1653.0 -0.0018075137512093553 1
gene  1 18 40 -0.38336326406997556 0 1655.0 -0.38336326406997556 1
gene  1 19 40 0.2118656525325091 0 1656.0 0.2118656525325091 1
gene  1 25 40 0.9286195798383864 0 1662.0 0.9286195798383864 1
gene  1 27 40 -0.5568108620557213 0 1664.0 -0.5568108620557213 1
gene  1 28 40 0.019025027240394676 0 1665.0 0.019025027240394676 1
gene  1 35 40 0.6188821639568212 0 1672.0 0.6188821639568212 1
gene  1 37 40 0.1373940452179484 0 1674.0 0.1373940452179484 1
gene  1 40 40 -0.5747974940242151 1 1677.0 -0.5747974940242151 1
gene  1 42 40 0.9762734471289803 1 1679.0 0.9762734471289803 1
gene  1 1 41 -0.8208158763182034 0 1680.0 -0.8208158763182034 1
gene  1 4 41 -0.8654707171319128 0 1683.0 -0.8654707171319128 1
gene  1 6 41 -0.3929433038458777 0 1685.0 -0.3929433038458777 1
gene  1 8 41 -0.24663706148167752 0 1687.0 -0.24663706148167752 1
gene  1 9 41 0.36994426868030617 0 1688.0 0.36994426868030617 1
gene  1 11 41 0.3784349212694512 0 1690.0 0.3784349212694512 1
gene  1 13 41 -0.9935095776571841 0 1692.0 -0.9935095776571841 1
gene  1 14 41 -0.8720996379668607 0 1693.0 -0.8720996379668607 1
gene  1 16 41 0.5214198772831006 0 1695.0 0.5214198772831006 1
gene  1 17 41 -0.7530401221120889 0 1696.0 -0.7530401221120889 1
gene  1 19 41 0.16347064800494515 0 1698.0 0.16347064800494515 1
gene  1 23 41 -0.31720766220426544 0 1702.0 -0.31720766220426544 1
gene  1 24 41 0.544479637996906 0 1703.0 0.544479637996906 1
gene  1 25 41 -0.14437834828300566 0 1704.0 -0.14437834828300566 1
gene  1 26 41 0.5150522303764027 0 1705.0 0.5150522303764027 1
gene  1 27 41 0.5540069187841075 0 1706.0 0.5540069187841075 1
gene  1 36 41 0.7911217224964385 0 1715.0 0.7911217224964385 1
gene  1 42 41 -0.09526091092457778 1 1721.0 -0.09526091092457778 1
gene  1 1 42 0.27958858621940597 0 1722.0 0.27958858621940597 1
gene  1 2 42 0.4399163358923154 0 1723.0 0.4399163358923154 1
gene  1 3 42 0.8849084494524599 0 1724.0 0.8849084494524599 1
gene  1 5 42 0.988671747934422 0 1726.0 0.988671747934422 1
gene  1 6 42 -0.08950811640356582 0 1727.0 -0.08950811640356582 1
gene  1 7 42 0.551155747233203 0 1728.0 0.551155747233203 1
gene  1 8 42 -0.2522980655499081 0 1729.0 -0.2522980655499081 1
gene  1 10 42 -0.4244113726226093 0 1731.0 -0.4244113726226093 1
gene  1 11 42 0.10910525417864825 0 1732.0 0.10910525417864825 1
gene  1 12 42 -0.5678651751128623 0 1733.0 -0.5678651751128623 1
gene  1 13 42 0.04954067073702739 0 1734.0 0.04954067073702739 1
gene  1 15 42 -0.8992134582098829 0 1736.0 -0.8992134582098829 1
gene  1 20 42 -0.09939951136951874 0 1741.0 -0.09939951136951874 1
gene  1 22 42 0.19022077590650766 0 1743.0 0.19022077590650766 1
gene  1 24 42 -0.6922287051351362 0 1745.0 -0.6922287051351362 1
gene  1 26 42 0.49525708500327126 0 1747.0 0.49525708500327126 1
gene  1 27 42 0.8380497861796555 0 1748.0 0.8380497861796555 1
gene  1 28 42 -0.730673614197879 0 1749.0 -0.730673614197879 1
gene  1 39 42 0.9464892671074637 0 1760.0 0.9464892671074637 1
gene  1 40 42 -0.004063407338782632 0 1761.0 -0.004063407338782632 1
gene  1 41 42 0.841082626481536 0 1762.0 0.841082626481536 1
genomeend 4
/* Organism # 005 Fitness:  0.000 Error:  0.000                      */
genomestart  5
trait 1 0.0 0.0 0.0 0.0 0.0 0.0 0.0 0.0 
node 1 1 1 1
node 2 1 1 1
node 3 1 1 1
node 4 1 1 1
node 5 1 1 1
node 6 1 1 1
node 7 1 1 1
node 8 1 1 1
node 9 1 1 1
node 10 1 1 1
node 11 1 1 1
node 12 1 1 1
node 13 1 1 1
node 14 1 1 1
node 15 1 1 1
node 16 1 1 1
node 17 1 1 1
node 18 1 1 1
node 19 1 1 1
node 20 1 1 1
node 21 1 1 1
node 22 1 1 1
node 23 1 1 1
node 24 1 1 1
node 25 1 1 1
node 26 1 1 1
node 27 1 1 1
node 28 1 1 3
node 34 1 0 2
node 35 1 0 2
node 36 1 0 2
node 37 1 0 2
node 38 1 0 2
node 39 1 0 2
node 40 1 0 2
node 41 1 0 2
node 42 1 0 2
gene  1 1 34 0.457830481082828 0 1386.0 0.457830481082828 1
gene  1 2 34 -0.8913627157878496 0 1387.0 -0.8913627157878496 1
gene  1 5 34 -0.47060841752252447 0 1390.0 -0.47060841752252447 1
gene  1 7 34 -0.13240223088484315 0 1392.0 -0.13240223088484315 1
gene  1 8 34 0.03961357284431011 0 1393.0 0.03961357284431011 1
gene  1 12 34 -0.47665879687701884 0 1397.0 -0.47665879687701884 1
gene  1 16 34 0.258853375872368 0 1401.0 0.258853375872368 1
gene  1 19 34 0.8433674678680643 0 1404.0 0.8433674678680643 1
gene  1 21 34 -0.8679133709739161 0 1406.0 -0.8679133709739161 1
gene  1 35 34 -0.6807112870501978 1 1420.0 -0.6807112870501978 1
gene  1 36 34 -0.3778408204331688 1 1421.0 -0.3778408204331688 1
gene  1 39 34 -0.24184481965902616 1 1424.0 -0.24184481965902616 1
gene  1 5 35 0.43286156346717075 0 1432.0 0.43286156346717075 1
gene  1 7 35 0.5417124197938834 0 1434.0 0.5417124197938834 1
gene  1 8 35 0.32353303755706164 0 1435.0 0.32353303755706164 1
gene  1 9 35 0.7439380561689642 0 1436.0 0.7439380561689642 1
gene  1 11 35 -0.6100905121274958 0 1438.0 -0.6100905121274958 1
gene  1 12 35 -0.45780579826735757 0 1439.0 -0.45780579826735757 1
gene  1 14 35 -0.2797858840734462 0 1441.0 -0.2797858840734462 1
gene  1 15 35 -0.19018983401953948 0 1442.0 -0.19018983401953948 1
gene  1 16 35 -0.5493772321552425 0 1443.0 -0.5493772321552425 1
gene  1 17 35 0.24566618508470695 0 1444.0 0.24566618508470695 1
gene  1 19 35 -0.8263138687841021 0 1446.0 -0.8263138687841021 1
gene  1 20 35 0.27615771875477124 0 1447.0 0.27615771875477124 1
gene  1 21 35 -0.3406749084263192 0 1448.0 -0.3406749084263192 1
gene  1 23 35 -0.15999047290808588 0 1450.0 -0.15999047290808588 1
gene  1 24 35 0.07630965078842766 0 1451.0 0.07630965078842766 1
gene  1 35 35 0.7555452490957508 1 1462.0 0.7555452490957508 1
gene  1 36 35 -0.38548397351507624 1 1463.0 -0.38548397351507624 1
gene  1 42 35 0.07507769918133833 1 1469.0 0.07507769918133833 1
gene  1 3 36 0.19874047802835793 0 1472.0 0.19874047802835793 1
gene  1 7 36 0.08137086525208326 0 1476.0 0.08137086525208326 1
gene  1 8 36 -0.6336189943502721 0 1477.0 -0.6336189943502721 1
gene  1 9 36 0.6540092120845349 0 1478.0 0.6540092120845349 1
gene  1 14 36 0.28842039033623645 0 1483.0 0.28842039033623645 1
gene  1 16 36 0.31939212651014737 0 1485.0 0.31939212651014737 1
gene  1 17 36 0.35921109187759814 0 1486.0 0.35921109187759814 1
gene  1 18 36 0.37635336426109134 0 1487.0 0.37635336426109134 1
gene  1 20 36 -0.9582908291057213 0 1489.0 -0.9582908291057213 1
gene  1 22 36 0.26416792276162615 0 1491.0 0.26416792276162615 1
gene  1 23 36 0.21575276605434512 0 1492.0 0.21575276605434512 1
gene  1 25 36 -0.723729319876744 0 1494.0 -0.723729319876744 1
gene  1 27 36 0.9493829529260095 0 1496.0 0.9493829529260095 1
gene  1 28 36 0.9783366312769521 0 1497.0 0.9783366312769521 1
gene  1 34 36 -0.1830272280511115 0 1503.0 -0.1830272280511115 1
gene  1 35 36 0.7677583439614031 0 1504.0 0.7677583439614031 1
gene  1 36 36 -0.700498789377022 1 1505.0 -0.700498789377022 1
gene  1 37 36 -0.5233906976681549 1 1506.0 -0.5233906976681549 1
gene  1 39 36 -0.18812585006558413 1 1508.0 -0.18812585006558413 1
gene  1 40 36 -0.4225740480960778 1 1509.0 -0.4225740480960778 1
gene  1 3 37 0.7669333106081792 0 1514.0 0.7669333106081792 1
gene  1 4 37 0.5657905271768011 0 1515.0 0.5657905271768011 1
gene  1 7 37 -0.6220768051027331 0 1518.0 -0.6220768051027331 1
gene  1 9 37 0.9416940387935802 0 1520.0 0.9416940387935802 1
gene  1 10 37 0.4101348233414319 0 1521.0 0.4101348233414319 1
gene  1 12 37 -0.2329067377827918 0 1523.0 -0.2329067377827918 1
gene  1 15 37 0.3908936540053545 0 1526.0 0.3908936540053545 1
gene  1 16 37 0.006087687847912138 0 1527.0 0.006087687847912138 1
gene  1 17 37 0.6420117760524956 0 1528.0 0.6420117760524956 1
gene  1 18 37 0.013114821838550172 0 1529.0 0.013114821838550172 1
gene  1 22 37 0.22748825104734238 0 1533.0 0.22748825104734238 1
gene  1 24 37 0.2879984755340729 0 1535.0 0.2879984755340729 1
gene  1 25 37 0.6519616703399201 0 1536.0 0.6519616703399201 1
gene  1 26 37 0.39436345205235535 0 1537.0 0.39436345205235535 1
gene  1 34 37 0.6756334228496582 0 1545.0 0.6756334228496582 1
gene  1 37 37 -0.42665817081599233 1 1548.0 -0.42665817081599233 1
gene  1 39 37 0.38431645032387063 1 1550.0 0.38431645032387063 1
gene  1 41 37 -0.11355069137696239 1 1552.0 -0.11355069137696239 1
gene  1 3 38 -0.8501437024862689 0 1556.0 -0.8501437024862689 1
gene  1 4 38 0.3325018145824927 0 1557.0 0.3325018145824927 1
gene  1 5 38 0.19083872372015787 0 1558.0 0.19083872372015787 1
gene  1 7 38 -0.43979678622257146 0 1560.0 -0.43979678622257146 1
gene  1 8 38 -0.9241706467611794 0 1561.0 -0.9241706467611794 1
gene  1 12 38 -0.9827742872581793 0 1565.0 -0.9827742872581793 1
gene  1 16 38 -0.938611355050291 0 1569.0 -0.938611355050291 1
gene  1 19 38 0.47980054615544165 0 1572.0 0.47980054615544165 1
gene  1 22 38 -0.42486958164995936 0 1575.0 -0.42486958164995936 1
gene  1 23 38 -0.8922959710701143 0 1576.0 -0.8922959710701143 1
gene  1 34 38 0.7989575677619555 0 1587.0 0.7989575677619555 1
gene  1 40 38 0.5113829321755807 1 1593.0 0.5113829321755807 1
gene  1 2 39 0.1969421570433607 0 1597.0 0.1969421570433607 1
gene  1 3 39 0.16929511727603663 0 1598.0 0.16929511727603663 1
gene  1 5 39 -0.6281062258532939 0 1600.0 -0.6281062258532939 1
gene  1 7 39 -0.30741162398457 0 1602.0 -0.30741162398457 1
gene  1 10 39 0.16832817963971958 0 1605.0 0.16832817963971958 1
gene  1 11 39 -0.10015307139844376 0 1606.0 -0.10015307139844376 1
gene  1 13 39 -0.4347481963516383 0 1608.0 -0.4347481963516383 1
gene  1 17 39 0.08878649040342201 0 1612.0 0.08878649040342201 1
gene  1 20 39 -0.40661725951190886 0 1615.0 -0.40661725951190886 1
gene  1 24 39 0.07306232402751667 0 1619.0 0.07306232402751667 1
gene  1 26 39 -0.8323579771495012 0 1621.0 -0.8323579771495012 1
gene  1 28 39 0.47115283297551946 0 1623.0 0.47115283297551946 1
gene  1 35 39 -0.9559609043346384 0 1630.0 -0.9559609043346384 1
gene  1 37 39 -0.04525543494237905 0 1632.0 -0.04525543494237905 1
gene  1 38 39 -0.6235033968244537 0 1633.0 -0.6235033968244537 1
gene  1 40 39 -0.6714715501820246 1 1635.0 -0.6714715501820246 1
gene  1 41 39 0.3941436859537266 1 1636.0 0.3941436859537266 1
gene  1 42 39 -0.7997859097516127 1 1637.0 -0.7997859097516127 1
gene  1 5 40 -0.1470266185710819 0 1642.0 -0.1470266185710819 1
gene  1 6 40 0.49036560416774233 0 1643.0 0.49036560416774233 1
gene  1 8 40 0.23415331306476217 0 1645.0 0.23415331306476217 1
gene  1 9 40 -0.7158747207566196 0 1646.0 -0.7158747207566196 1
gene  1 10 40 0.734027097124354 0 1647.0 0.734027097124354 1
gene  1 11 40 -0.6540069661603146 0 1648.0 -0.6540069661603146 1
gene  1 12 40 0.234580472806715 0 1649.0 0.234580472806715 1
gene  1 13 40 -0.40348704194584395 0 1650.0 -0.40348704194584395 1
gene  1 15 40 0.42145117851466507 0 1652.0 0.42145117851466507 1
gene  1 16 40 -0.0018075137512093553 0 1653.0 -0.0018075137512093553 1
gene  1 18 40 -0.38336326406997556 0 1655.0 -0.38336326406997556 1
gene  1 19 40 0.2118656525325091 0 1656.0 0.2118656525325091 1
gene  1 25 40 0.9286195798383864 0 1662.0 0.9286195798383864 1
gene  1 27 40 -0.5568108620557213 0 1664.0 -0.5568108620557213 1
gene  1 28 40 0.019025027240394676 0 1665.0 0.019025027240394676 1
gene  1 35 40 0.6188821639568212 0 1672.0 0.6188821639568212 1
gene  1 37 40 0.1373940452179484 0 1674.0 0.1373940452179484 1
gene  1 40 40 -0.5747974940242151 1 1677.0 -0.5747974940242151 1
gene  1 42 40 0.9762734471289803 1 1679.0 0.9762734471289803 1
gene  1 1 41 -0.8208158763182034 0 1680.0 -0.8208158763182034 1
gene  1 4 41 -0.8654707171319128 0 1683.0 -0.8654707171319128 1
gene  1 6 41 -0.3929433038458777 0 1685.0 -0.3929433038458777 1
gene  1 8 41 -0.24663706148167752 0 1687.0 -0.24663706148167752 1
gene  1 9 41 0.36994426868030617 0 1688.0 0.36994426868030617 1
gene  1 11 41 0.3784349212694512 0 1690.0 0.3784349212694512 1
gene  1 13 41 -0.9935095776571841 0 1692.0 -0.9935095776571841 1
gene  1 14 41 -0.8720996379668607 0 1693.0 -0.8720996379668607 1
gene  1 16 41 0.5214198772831006 0 1695.0 0.5214198772831006 1
gene  1 17 41 -0.7530401221120889 0 1696.0 -0.7530401221120889 1
gene  1 19 41 0.16347064800494515 0 1698.0 0.16347064800494515 1
gene  1 23 41 -0.31720766220426544 0 1702.0 -0.31720766220426544 1
gene  1 24 41 0.544479637996906 0 1703.0 0.544479637996906 1
gene  1 25 41 -0.14437834828300566 0 1704.0 -0.14437834828300566 1
gene  1 26 41 0.5150522303764027 0 1705.0 0.5150522303764027 1
gene  1 27 41 0.5540069187841075 0 1706.0 0.5540069187841075 1
gene  1 36 41 0.7911217224964385 0 1715.0 0.7911217224964385 1
gene  1 42 41 -0.09526091092457778 1 1721.0 -0.09526091092457778 1
gene  1 1 42 0.27958858621940597 0 1722.0 0.27958858621940597 1
gene  1 2 42 0.4399163358923154 0 1723.0 0.4399163358923154 1
gene  1 3 42 0.8849084494524599 0 1724.0 0.8849084494524599 1
gene  1 5 42 0.988671747934422 0 1726.0 0.988671747934422 1
gene  1 6 42 -0.08950811640356582 0 1727.0 -0.08950811640356582 1
gene  1 7 42 0.551155747233203 0 1728.0 0.551155747233203 1
gene  1 8 42 -0.2522980655499081 0 1729.0 -0.2522980655499081 1
gene  1 10 42 -0.4244113726226093 0 1731.0 -0.4244113726226093 1
gene  1 11 42 0.10910525417864825 0 1732.0 0.10910525417864825 1
gene  1 12 42 -0.5678651751128623 0 1733.0 -0.5678651751128623 1
gene  1 13 42 0.04954067073702739 0 1734.0 0.04954067073702739 1
gene  1 15 42 -0.8992134582098829 0 1736.0 -0.8992134582098829 1
gene  1 20 42 -0.09939951136951874 0 1741.0 -0.09939951136951874 1
gene  1 22 42 0.19022077590650766 0 1743.0 0.19022077590650766 1
gene  1 24 42 -0.6922287051351362 0 1745.0 -0.6922287051351362 1
gene  1 26 42 0.49525708500327126 0 1747.0 0.49525708500327126 1
gene  1 27 42 0.8380497861796555 0 1748.0 0.8380497861796555 1
gene  1 28 42 -0.730673614197879 0 1749.0 -0.730673614197879 1
gene  1 39 42 0.9464892671074637 0 1760.0 0.9464892671074637 1
gene  1 40 42 -0.004063407338782632 0 1761.0 -0.004063407338782632 1
gene  1 41 42 0.841082626481536 0 1762.0 0.841082626481536 1
genomeend 5
/*-------------------------------------------------------------------*/
/* Species # 007         : (size= 005) (AvfFit= 64.585) (Age= 2.000)  */
/*-------------------------------------------------------------------*/
/* Organism # 006 Fitness:  0.000 Error:  0.000                      */
genomestart  6
trait 1 0.0 0.0 0.0 0.0 0.0 0.0 0.0 0.0 
node 1 1 1 1
node 2 1 1 1
node 3 1 1 1
node 4 1 1 1
node 5 1 1 1
node 6 1 1 1
node 7 1 1 1
node 8 1 1 1
node 9 1 1 1
node 10 1 1 1
node 11 1 1 1
node 12 1 1 1
node 13 1 1 1
node 14 1 1 1
node 15 1 1 1
node 16 1 1 1
node 17 1 1 1
node 18 1 1 1
node 19 1 1 1
node 20 1 1 1
node 21 1 1 1
node 22 1 1 1
node 23 1 1 1
node 24 1 1 1
node 25 1 1 1
node 26 1 1 1
node 27 1 1 1
node 28 1 1 3
node 29 1 0 0
node 30 1 0 0
node 31 1 0 0
node 34 1 0 2
node 35 1 0 2
node 36 1 0 2
node 37 1 0 2
node 38 1 0 2
node 39 1 0 2
node 40 1 0 2
node 41 1 0 2
node 42 1 0 2
gene  1 3 29 0.3481218581995694 0 1178.0 0.3481218581995694 1
gene  1 6 29 0.454815483493358 0 1181.0 0.454815483493358 1
gene  1 8 29 -0.8478777003429517 0 1183.0 -0.8478777003429517 1
gene  1 9 29 -0.7196015965015922 0 1184.0 -0.7196015965015922 1
gene  1 17 29 0.9350949621355616 0 1192.0 0.9350949621355616 1
gene  1 23 29 0.6338832279621146 0 1198.0 0.6338832279621146 1
gene  1 24 29 0.5621681641004588 0 1199.0 0.5621681641004588 1
gene  1 26 29 -0.9846208634787056 0 1201.0 -0.9846208634787056 1
gene  1 27 29 -0.2755185687906969 0 1202.0 -0.2755185687906969 1
gene  1 28 29 0.8890045661033206 0 1203.0 0.8890045661033206 1
gene  1 29 29 -0.7413217880956019 1 1204.0 -0.7413217880956019 1
gene  1 31 29 0.17857317207396717 1 1206.0 0.17857317207396717 1
gene  1 34 29 0.5957399524336336 1 1209.0 0.5957399524336336 1
gene  1 35 29 0.6546021542137486 1 1210.0 0.6546021542137486 1
gene  1 36 29 0.7813913008652144 1 1211.0 0.7813913008652144 1
gene  1 37 29 -0.13212060844328843 1 1212.0 -0.13212060844328843 1
gene  1 38 29 -0.922831332467675 1 1213.0 -0.922831332467675 1
gene  1 39 29 0.9706760673259027 1 1214.0 0.9706760673259027 1
gene  1 40 29 -0.10074957295000142 1 1215.0 -0.10074957295000142 1
gene  1 42 29 0.6097208308600778 1 1217.0 0.6097208308600778 1
gene  1 1 30 0.7390334020792484 0 1218.0 0.7390334020792484 1
gene  1 2 30 -0.9552553330113346 0 1219.0 -0.9552553330113346 1
gene  1 6 30 -0.12950164724351554 0 1223.0 -0.12950164724351554 1
gene  1 7 30 -0.25620359143931526 0 1224.0 -0.25620359143931526 1
gene  1 8 30 0.21459991926733724 0 1225.0 0.21459991926733724 1
gene  1 11 30 0.9764256685943142 0 1228.0 0.9764256685943142 1
gene  1 14 30 0.5020728897659916 0 1231.0 0.5020728897659916 1
gene  1 16 30 0.7866016881526307 0 1233.0 0.7866016881526307 1
gene  1 17 30 0.5670223359164522 0 1234.0 0.5670223359164522 1
gene  1 18 30 0.702050294388344 0 1235.0 0.702050294388344 1
gene  1 20 30 -0.3373345560448582 0 1237.0 -0.3373345560448582 1
gene  1 25 30 -0.031307503738300824 0 1242.0 -0.031307503738300824 1
gene  1 27 30 -0.31460373838395994 0 1244.0 -0.31460373838395994 1
gene  1 29 30 0.730480989056408 0 1246.0 0.730480989056408 1
gene  1 30 30 0.5210118090297436 1 1247.0 0.5210118090297436 1
gene  1 31 30 -0.9989223184073399 1 1248.0 -0.9989223184073399 1
gene  1 34 30 0.9874745861971493 1 1251.0 0.9874745861971493 1
gene  1 35 30 -0.06754201511785585 1 1252.0 -0.06754201511785585 1
gene  1 38 30 -0.2845634068259624 1 1255.0 -0.2845634068259624 1
gene  1 40 30 0.28683347182272156 1 1257.0 0.28683347182272156 1
gene  1 42 30 0.5858469979689884 1 1259.0 0.5858469979689884 1
gene  1 3 31 0.8304597358872041 0 1262.0 0.8304597358872041 1
gene  1 5 31 -0.6081092907939164 0 1264.0 -0.6081092907939164 1
gene  1 7 31 -0.3383816697211929 0 1266.0 -0.3383816697211929 1
gene  1 10 31 0.19940799517994134 0 1269.0 0.19940799517994134 1
gene  1 12 31 -0.5416845369797892 0 1271.0 -0.5416845369797892 1
gene  1 13 31 0.8015698859054788 0 1272.0 0.8015698859054788 1
gene  1 16 31 0.021130857247170676 0 1275.0 0.021130857247170676 1
gene  1 17 31 0.5484501961634625 0 1276.0 0.5484501961634625 1
gene  1 18 31 0.5850581564612397 0 1277.0 0.5850581564612397 1
gene  1 20 31 0.2616023184578198 0 1279.0 0.2616023184578198 1
gene  1 21 31 -0.2607673459660592 0 1280.0 -0.2607673459660592 1
gene  1 24 31 -0.211203291568285 0 1283.0 -0.211203291568285 1
gene  1 27 31 -0.49074707044331267 0 1286.0 -0.49074707044331267 1
gene  1 28 31 -0.8201808189963722 0 1287.0 -0.8201808189963722 1
gene  1 29 31 0.4089449336702988 0 1288.0 0.4089449336702988 1
gene  1 30 31 -0.25680480586271803 0 1289.0 -0.25680480586271803 1
gene  1 36 31 0.8978922126281802 1 1295.0 0.8978922126281802 1
gene  1 2 34 0.23615589960408734 0 1387.0 0.23615589960408734 1
gene  1 3 34 -0.22224901057151958 0 1388.0 -0.22224901057151958 1
gene  1 4 34 -0.312754476477921 0 1389.0 -0.312754476477921 1
gene  1 6 34 0.315993121676325 0 1391.0 0.315993121676325 1
gene  1 8 34 0.41059437786943864 0 1393.0 0.41059437786943864 1
gene  1 9 34 -0.7765396528721135 0 1394.0 -0.7765396528721135 1
gene  1 10 34 -0.5222296962049083 0 1395.0 -0.5222296962049083 1
gene  1 12 34 -0.21550280833514823 0 1397.0 -0.21550280833514823 1
gene  1 13 34 -0.49128688356660555 0 1398.0 -0.49128688356660555 1
gene  1 15 34 -0.001288009073056151 0 1400.0 -0.001288009073056151 1
gene  1 16 34 -0.7623688674911343 0 1401.0 -0.7623688674911343 1
gene  1 17 34 -0.8696847190320507 0 1402.0 -0.8696847190320507 1
gene  1 18 34 -0.5670140474807951 0 1403.0 -0.5670140474807951 1
gene  1 20 34 0.379059829561472 0 1405.0 0.379059829561472 1
gene  1 22 34 -0.13100127772614156 0 1407.0 -0.13100127772614156 1
gene  1 23 34 -0.6350757780348542 0 1408.0 -0.6350757780348542 1
gene  1 25 34 0.5178748335881991 0 1410.0 0.5178748335881991 1
gene  1 26 34 -0.4748099524277507 0 1411.0 -0.4748099524277507 1
gene  1 27 34 -0.40713565056929313 0 1412.0 -0.40713565056929313 1
gene  1 28 34 -0.685388228378502 0 1413.0 -0.685388228378502 1
gene  1 29 34 -0.398454127598615 0 1414.0 -0.398454127598615 1
gene  1 30 34 -0.5187985813555939 0 1415.0 -0.5187985813555939 1
gene  1 36 34 -0.6500120919428289 1 1421.0 -0.6500120919428289 1
gene  1 37 34 -0.33871624593672645 1 1422.0 -0.33871624593672645 1
gene  1 38 34 0.5844775033590447 1 1423.0 0.5844775033590447 1
gene  1 39 34 0.11826273272077037 1 1424.0 0.11826273272077037 1
gene  1 40 34 0.6322408130618461 1 1425.0 0.6322408130618461 1
gene  1 41 34 -0.07272195530673975 1 1426.0 -0.07272195530673975 1
gene  1 42 34 -0.6438753508185144 1 1427.0 -0.6438753508185144 1
gene  1 2 35 -0.09088714290732403 0 1429.0 -0.09088714290732403 1
gene  1 5 35 0.5734452156549373 0 1432.0 0.5734452156549373 1
gene  1 6 35 0.6861557677278436 0 1433.0 0.6861557677278436 1
gene  1 9 35 0.3172386841987016 0 1436.0 0.3172386841987016 1
gene  1 10 35 -0.3439094013871884 0 1437.0 -0.3439094013871884 1
gene  1 12 35 -0.9302129978049092 0 1439.0 -0.9302129978049092 1
gene  1 15 35 -0.21360012218651248 0 1442.0 -0.21360012218651248 1
gene  1 16 35 -0.16225531941029725 0 1443.0 -0.16225531941029725 1
gene  1 18 35 -0.034526259946839 0 1445.0 -0.034526259946839 1
gene  1 19 35 0.44373459432618356 0 1446.0 0.44373459432618356 1
gene  1 21 35 0.5565603354870585 0 1448.0 0.5565603354870585 1
gene  1 22 35 -0.8679966081792113 0 1449.0 -0.8679966081792113 1
gene  1 23 35 -0.9801819777343314 0 1450.0 -0.9801819777343314 1
gene  1 24 35 -0.495343852013855 0 1451.0 -0.495343852013855 1
gene  1 26 35 -0.07769156793077381 0 1453.0 -0.07769156793077381 1
gene  1 27 35 0.2483929015578321 0 1454.0 0.2483929015578321 1
gene  1 29 35 -0.4032294122484903 0 1456.0 -0.4032294122484903 1
gene  1 35 35 0.17871476412827225 1 1462.0 0.17871476412827225 1
gene  1 36 35 0.8826457620755406 1 1463.0 0.8826457620755406 1
gene  1 37 35 0.7347714905665408 1 1464.0 0.7347714905665408 1
gene  1 40 35 0.7271484829628905 1 1467.0 0.7271484829628905 1
gene  1 1 36 0.581532957761042 0 1470.0 0.581532957761042 1
gene  1 2 36 0.24922598928828632 0 1471.0 0.24922598928828632 1
gene  1 4 36 0.29419164228485173 0 1473.0 0.29419164228485173 1
gene  1 6 36 -0.8466498576664091 0 1475.0 -0.8466498576664091 1
gene  1 10 36 0.1542453867816257 0 1479.0 0.1542453867816257 1
gene  1 11 36 0.766596413385387 0 1480.0 0.766596413385387 1
gene  1 12 36 0.07713075485017806 0 1481.0 0.07713075485017806 1
gene  1 13 36 -0.2991223849340955 0 1482.0 -0.2991223849340955 1
gene  1 14 36 -0.9135662959717187 0 1483.0 -0.9135662959717187 1
gene  1 15 36 0.6254440704771252 0 1484.0 0.6254440704771252 1
gene  1 16 36 0.45286247503404076 0 1485.0 0.45286247503404076 1
gene  1 18 36 -0.2194153214567205 0 1487.0 -0.2194153214567205 1
gene  1 19 36 -0.6277297046262161 0 1488.0 -0.6277297046262161 1
gene  1 23 36 0.10732214594188871 0 1492.0 0.10732214594188871 1
gene  1 24 36 -0.11600125703350594 0 1493.0 -0.11600125703350594 1
gene  1 27 36 0.18517010383055432 0 1496.0 0.18517010383055432 1
gene  1 28 36 -0.21234450896395485 0 1497.0 -0.21234450896395485 1
gene  1 34 36 -0.40890241485582346 0 1503.0 -0.40890241485582346 1
gene  1 36 36 -0.5699311625313788 1 1505.0 -0.5699311625313788 1
gene  1 38 36 -0.7989950926431171 1 1507.0 -0.7989950926431171 1
gene  1 40 36 0.8428282216634213 1 1509.0 0.8428282216634213 1
gene  1 41 36 -0.3023774977518122 1 1510.0 -0.3023774977518122 1
gene  1 42 36 0.9233177289394402 1 1511.0 0.9233177289394402 1
gene  1 3 37 0.5217485368308113 0 1514.0 0.5217485368308113 1
gene  1 4 37 0.8838350439624479 0 1515.0 0.8838350439624479 1
gene  1 5 37 0.8715078162487326 0 1516.0 0.8715078162487326 1
gene  1 8 37 -0.7201309204199955 0 1519.0 -0.7201309204199955 1
gene  1 9 37 0.20497676107537488 0 1520.0 0.20497676107537488 1
gene  1 11 37 -0.6293018200939903 0 1522.0 -0.6293018200939903 1
gene  1 12 37 0.3154060908244152 0 1523.0 0.3154060908244152 1
gene  1 18 37 0.5914673768779557 0 1529.0 0.5914673768779557 1
gene  1 20 37 -0.47893157522962515 0 1531.0 -0.47893157522962515 1
gene  1 23 37 0.12953029860916232 0 1534.0 0.12953029860916232 1
gene  1 26 37 -0.017570010747683606 0 1537.0 -0.017570010747683606 1
gene  1 28 37 -0.23320722331551258 0 1539.0 -0.23320722331551258 1
gene  1 35 37 0.5662302140950108 0 1546.0 0.5662302140950108 1
gene  1 38 37 -0.5043018331149985 1 1549.0 -0.5043018331149985 1
gene  1 39 37 -0.22126240070794978 1 1550.0 -0.22126240070794978 1
gene  1 40 37 -0.425810492799117 1 1551.0 -0.425810492799117 1
gene  1 42 37 -0.8126608050701254 1 1553.0 -0.8126608050701254 1
gene  1 2 38 -0.1629514191190764 0 1555.0 -0.1629514191190764 1
gene  1 3 38 -0.5163254567337011 0 1556.0 -0.5163254567337011 1
gene  1 4 38 -0.10435504734292456 0 1557.0 -0.10435504734292456 1
gene  1 5 38 -0.7802893850151423 0 1558.0 -0.7802893850151423 1
gene  1 6 38 0.1925566445000303 0 1559.0 0.1925566445000303 1
gene  1 7 38 0.2560019803391781 0 1560.0 0.2560019803391781 1
gene  1 8 38 0.42562734151694404 0 1561.0 0.42562734151694404 1
gene  1 15 38 -0.8301824030195383 0 1568.0 -0.8301824030195383 1
gene  1 17 38 0.8622454654681287 0 1570.0 0.8622454654681287 1
gene  1 18 38 0.11129921118032815 0 1571.0 0.11129921118032815 1
gene  1 19 38 -0.16645645486268346 0 1572.0 -0.16645645486268346 1
gene  1 20 38 -0.8508826746583862 0 1573.0 -0.8508826746583862 1
gene  1 22 38 -0.11278769206800965 0 1575.0 -0.11278769206800965 1
gene  1 23 38 0.4077205779503351 0 1576.0 0.4077205779503351 1
gene  1 28 38 -0.9096622711196317 0 1581.0 -0.9096622711196317 1
gene  1 31 38 0.9543082324055905 0 1584.0 0.9543082324055905 1
gene  1 34 38 -0.05318134688193665 0 1587.0 -0.05318134688193665 1
gene  1 36 38 0.14453606919446071 0 1589.0 0.14453606919446071 1
gene  1 38 38 0.3514797737026655 1 1591.0 0.3514797737026655 1
gene  1 41 38 0.2748951690059215 1 1594.0 0.2748951690059215 1
gene  1 1 39 0.7263206615181952 0 1596.0 0.7263206615181952 1
gene  1 9 39 -0.6867609610078748 0 1604.0 -0.6867609610078748 1
gene  1 10 39 0.7020057621873894 0 1605.0 0.7020057621873894 1
gene  1 11 39 0.35436682833225386 0 1606.0 0.35436682833225386 1
gene  1 12 39 -0.6998576472493554 0 1607.0 -0.6998576472493554 1
gene  1 16 39 -0.8581457516168175 0 1611.0 -0.8581457516168175 1
gene  1 20 39 0.7873480259567379 0 1615.0 0.7873480259567379 1
gene  1 21 39 -0.27914736640686577 0 1616.0 -0.27914736640686577 1
gene  1 26 39 -0.7112399159521413 0 1621.0 -0.7112399159521413 1
gene  1 28 39 -0.4100965111931758 0 1623.0 -0.4100965111931758 1
gene  1 29 39 0.822375802862158 0 1624.0 0.822375802862158 1
gene  1 34 39 -0.7376850440767623 0 1629.0 -0.7376850440767623 1
gene  1 35 39 0.5821936360481326 0 1630.0 0.5821936360481326 1
gene  1 38 39 0.7537714034468039 0 1633.0 0.7537714034468039 1
gene  1 41 39 -0.3642793989529668 1 1636.0 -0.3642793989529668 1
gene  1 2 40 0.3802259577682512 0 1639.0 0.3802259577682512 1
gene  1 4 40 0.711567573054906 0 1641.0 0.711567573054906 1
gene  1 5 40 -0.12473819971951694 0 1642.0 -0.12473819971951694 1
gene  1 10 40 0.12193012064221442 0 1647.0 0.12193012064221442 1
gene  1 11 40 0.3651691418656067 0 1648.0 0.3651691418656067 1
gene  1 13 40 0.5597820101327994 0 1650.0 0.5597820101327994 1
gene  1 14 40 -0.5025047372768479 0 1651.0 -0.5025047372768479 1
gene  1 15 40 -0.7610476005268487 0 1652.0 -0.7610476005268487 1
gene  1 16 40 0.2572051188139324 0 1653.0 0.2572051188139324 1
gene  1 17 40 -0.9158312984258111 0 1654.0 -0.9158312984258111 1
gene  1 23 40 0.17880219926492014 0 1660.0 0.17880219926492014 1
gene  1 24 40 0.771561192869564 0 1661.0 0.771561192869564 1
gene  1 25 40 -0.6680295809093503 0 1662.0 -0.6680295809093503 1
gene  1 27 40 0.26094024695428586 0 1664.0 0.26094024695428586 1
gene  1 28 40 -0.7034348506216297 0 1665.0 -0.7034348506216297 1
gene  1 29 40 0.7468053790944618 0 1666.0 0.7468053790944618 1
gene  1 38 40 -0.2874465892616165 0 1675.0 -0.2874465892616165 1
gene  1 39 40 0.9430173812765805 0 1676.0 0.9430173812765805 1
gene  1 41 40 -0.4264129396038495 1 1678.0 -0.4264129396038495 1
gene  1 42 40 -0.9441964621286115 1 1679.0 -0.9441964621286115 1
gene  1 1 41 -0.49992090127321187 0 1680.0 -0.49992090127321187 1
gene  1 2 41 -0.9938050674160537 0 1681.0 -0.9938050674160537 1
gene  1 4 41 -0.18843206238579246 0 1683.0 -0.18843206238579246 1
gene  1 6 41 0.8680600926897042 0 1685.0 0.8680600926897042 1
gene  1 7 41 0.29977017553875784 0 1686.0 0.29977017553875784 1
gene  1 9 41 -0.4562889960295031 0 1688.0 -0.4562889960295031 1
gene  1 10 41 -0.12390678440324199 0 1689.0 -0.12390678440324199 1
gene  1 15 41 0.4359456825937885 0 1694.0 0.4359456825937885 1
gene  1 18 41 -0.05974449488316935 0 1697.0 -0.05974449488316935 1
gene  1 19 41 -0.8530720920762093 0 1698.0 -0.8530720920762093 1
gene  1 20 41 -0.5639323513751169 0 1699.0 -0.5639323513751169 1
gene  1 21 41 -0.3930848178182438 0 1700.0 -0.3930848178182438 1
gene  1 22 41 -0.14713636690618048 0 1701.0 -0.14713636690618048 1
gene  1 24 41 -0.5859820315180185 0 1703.0 -0.5859820315180185 1
gene  1 26 41 0.7398397196220826 0 1705.0 0.7398397196220826 1
gene  1 31 41 0.343009171512881 0 1710.0 0.343009171512881 1
gene  1 34 41 -0.8650886930936404 0 1713.0 -0.8650886930936404 1
gene  1 36 41 -0.3914910579360088 0 1715.0 -0.3914910579360088 1
gene  1 39 41 -0.2674016320813144 0 1718.0 -0.2674016320813144 1
gene  1 40 41 0.6174947361939749 0 1719.0 0.6174947361939749 1
gene  1 41 41 0.5925853706404587 1 1720.0 0.5925853706404587 1
gene  1 42 41 0.6232735614003986 1 1721.0 0.6232735614003986 1
gene  1 1 42 0.1600917181695557 0 1722.0 0.1600917181695557 1
gene  1 3 42 -0.2520791548411878 0 1724.0 -0.2520791548411878 1
gene  1 6 42 0.8447568579238286 0 1727.0 0.8447568579238286 1
gene  1 16 42 -0.8394843054846475 0 1737.0 -0.8394843054846475 1
gene  1 19 42 0.5968234514593833 0 1740.0 0.5968234514593833 1
gene  1 20 42 0.3349130127957469 0 1741.0 0.3349130127957469 1
gene  1 23 42 -0.7375277587079105 0 1744.0 -0.7375277587079105 1
gene  1 30 42 -0.5445514118811668 0 1751.0 -0.5445514118811668 1
gene  1 31 42 0.621899842161533 0 1752.0 0.621899842161533 1
gene  1 35 42 -0.711538381095124 0 1756.0 -0.711538381095124 1
gene  1 37 42 0.6510613377066058 0 1758.0 0.6510613377066058 1
gene  1 39 42 0.6892644798410703 0 1760.0 0.6892644798410703 1
gene  1 41 42 0.9459676621852752 0 1762.0 0.9459676621852752 1
gene  1 42 42 0.4455961369509541 1 1763.0 0.4455961369509541 1
genomeend 6
/* Organism # 007 Fitness:  0.000 Error:  0.000                      */
genomestart  7
trait 1 0.0 0.0 0.0 0.0 0.0 0.0 0.0 0.0 
node 1 1 1 1
node 2 1 1 1
node 3 1 1 1
node 4 1 1 1
node 5 1 1 1
node 6 1 1 1
node 7 1 1 1
node 8 1 1 1
node 9 1 1 1
node 10 1 1 1
node 11 1 1 1
node 12 1 1 1
node 13 1 1 1
node 14 1 1 1
node 15 1 1 1
node 16 1 1 1
node 17 1 1 1
node 18 1 1 1
node 19 1 1 1
node 20 1 1 1
node 21 1 1 1
node 22 1 1 1
node 23 1 1 1
node 24 1 1 1
node 25 1 1 1
node 26 1 1 1
node 27 1 1 1
node 28 1 1 3
node 29 1 0 0
node 30 1 0 0
node 31 1 0 0
node 34 1 0 2
node 35 1 0 2
node 36 1 0 2
node 37 1 0 2
node 38 1 0 2
node 39 1 0 2
node 40 1 0 2
node 41 1 0 2
node 42 1 0 2
node 51 1 0 0
gene  1 3 29 0.3481218581995694 0 1178.0 0.3481218581995694 1
gene  1 6 29 0.454815483493358 0 1181.0 0.454815483493358 1
gene  1 8 29 -0.8478777003429517 0 1183.0 -0.8478777003429517 1
gene  1 9 29 -0.7196015965015922 0 1184.0 -0.7196015965015922 1
gene  1 17 29 0.9350949621355616 0 1192.0 0.9350949621355616 1
gene  1 23 29 0.6338832279621146 0 1198.0 0.6338832279621146 1
gene  1 24 29 0.5621681641004588 0 1199.0 0.5621681641004588 1
gene  1 26 29 -0.9846208634787056 0 1201.0 -0.9846208634787056 1
gene  1 27 29 -0.2755185687906969 0 1202.0 -0.2755185687906969 1
gene  1 28 29 0.8890045661033206 0 1203.0 0.8890045661033206 1
gene  1 29 29 -0.7413217880956019 1 1204.0 -0.7413217880956019 1
gene  1 31 29 0.17857317207396717 1 1206.0 0.17857317207396717 1
gene  1 34 29 0.5957399524336336 1 1209.0 0.5957399524336336 1
gene  1 35 29 0.6546021542137486 1 1210.0 0.6546021542137486 1
gene  1 36 29 0.7813913008652144 1 1211.0 0.7813913008652144 1
gene  1 37 29 -0.13212060844328843 1 1212.0 -0.13212060844328843 1
gene  1 38 29 -0.922831332467675 1 1213.0 -0.922831332467675 1
gene  1 39 29 0.9706760673259027 1 1214.0 0.9706760673259027 1
gene  1 40 29 -0.10074957295000142 1 1215.0 -0.10074957295000142 1
gene  1 42 29 0.6097208308600778 1 1217.0 0.6097208308600778 1
gene  1 1 30 0.7390334020792484 0 1218.0 0.7390334020792484 1
gene  1 2 30 -0.9552553330113346 0 1219.0 -0.9552553330113346 1
gene  1 6 30 -0.12950164724351554 0 1223.0 -0.12950164724351554 1
gene  1 7 30 -0.25620359143931526 0 1224.0 -0.25620359143931526 1
gene  1 8 30 0.21459991926733724 0 1225.0 0.21459991926733724 1
gene  1 11 30 0.9764256685943142 0 1228.0 0.9764256685943142 1
gene  1 14 30 0.5020728897659916 0 1231.0 0.5020728897659916 1
gene  1 16 30 0.7866016881526307 0 1233.0 0.7866016881526307 1
gene  1 17 30 0.5670223359164522 0 1234.0 0.5670223359164522 1
gene  1 18 30 0.702050294388344 0 1235.0 0.702050294388344 1
gene  1 20 30 -0.3373345560448582 0 1237.0 -0.3373345560448582 1
gene  1 25 30 -0.031307503738300824 0 1242.0 -0.031307503738300824 1
gene  1 27 30 -0.31460373838395994 0 1244.0 -0.31460373838395994 1
gene  1 29 30 0.730480989056408 0 1246.0 0.730480989056408 1
gene  1 30 30 0.5210118090297436 1 1247.0 0.5210118090297436 1
gene  1 31 30 -0.9989223184073399 1 1248.0 -0.9989223184073399 1
gene  1 34 30 0.9874745861971493 1 1251.0 0.9874745861971493 1
gene  1 35 30 -0.06754201511785585 1 1252.0 -0.06754201511785585 1
gene  1 38 30 -0.2845634068259624 1 1255.0 -0.2845634068259624 1
gene  1 40 30 0.28683347182272156 1 1257.0 0.28683347182272156 1
gene  1 42 30 0.5858469979689884 1 1259.0 0.5858469979689884 1
gene  1 3 31 0.8304597358872041 0 1262.0 0.8304597358872041 1
gene  1 5 31 -0.6081092907939164 0 1264.0 -0.6081092907939164 1
gene  1 7 31 -0.3383816697211929 0 1266.0 -0.3383816697211929 1
gene  1 10 31 0.19940799517994134 0 1269.0 0.19940799517994134 1
gene  1 12 31 -0.5416845369797892 0 1271.0 -0.5416845369797892 1
gene  1 13 31 0.8015698859054788 0 1272.0 0.8015698859054788 1
gene  1 16 31 0.021130857247170676 0 1275.0 0.021130857247170676 1
gene  1 17 31 0.5484501961634625 0 1276.0 0.5484501961634625 1
gene  1 18 31 0.5850581564612397 0 1277.0 0.5850581564612397 1
gene  1 20 31 0.2616023184578198 0 1279.0 0.2616023184578198 1
gene  1 21 31 -0.2607673459660592 0 1280.0 -0.2607673459660592 1
gene  1 24 31 -0.211203291568285 0 1283.0 -0.211203291568285 1
gene  1 27 31 -0.49074707044331267 0 1286.0 -0.49074707044331267 1
gene  1 28 31 -0.8201808189963722 0 1287.0 -0.8201808189963722 1
gene  1 29 31 0.4089449336702988 0 1288.0 0.4089449336702988 1
gene  1 30 31 -0.25680480586271803 0 1289.0 -0.25680480586271803 1
gene  1 36 31 0.8978922126281802 1 1295.0 0.8978922126281802 1
gene  1 2 34 0.23615589960408734 0 1387.0 0.23615589960408734 1
gene  1 3 34 -0.22224901057151958 0 1388.0 -0.22224901057151958 1
gene  1 4 34 -0.312754476477921 0 1389.0 -0.312754476477921 1
gene  1 6 34 0.315993121676325 0 1391.0 0.315993121676325 1
gene  1 8 34 0.41059437786943864 0 1393.0 0.41059437786943864 1
gene  1 9 34 -0.7765396528721135 0 1394.0 -0.7765396528721135 1
gene  1 10 34 -0.5222296962049083 0 1395.0 -0.5222296962049083 1
gene  1 12 34 -0.21550280833514823 0 1397.0 -0.21550280833514823 1
gene  1 13 34 -0.49128688356660555 0 1398.0 -0.49128688356660555 1
gene  1 15 34 -0.001288009073056151 0 1400.0 -0.001288009073056151 1
gene  1 16 34 -0.7623688674911343 0 1401.0 -0.7623688674911343 1
gene  1 17 34 -0.8696847190320507 0 1402.0 -0.8696847190320507 1
gene  1 18 34 -0.5670140474807951 0 1403.0 -0.5670140474807951 1
gene  1 20 34 0.379059829561472 0 1405.0 0.379059829561472 1
gene  1 22 34 -0.13100127772614156 0 1407.0 -0.13100127772614156 1
gene  1 23 34 -0.6350757780348542 0 1408.0 -0.6350757780348542 1
gene  1 25 34 0.5178748335881991 0 1410.0 0.5178748335881991 1
gene  1 26 34 -0.4748099524277507 0 1411.0 -0.4748099524277507 1
gene  1 27 34 -0.40713565056929313 0 1412.0 -0.40713565056929313 1
gene  1 28 34 -0.685388228378502 0 1413.0 -0.685388228378502 1
gene  1 29 34 -0.398454127598615 0 1414.0 -0.398454127598615 1
gene  1 30 34 -0.5187985813555939 0 1415.0 -0.5187985813555939 1
gene  1 36 34 -0.6500120919428289 1 1421.0 -0.6500120919428289 1
gene  1 37 34 -0.33871624593672645 1 1422.0 -0.33871624593672645 1
gene  1 38 34 0.5844775033590447 1 1423.0 0.5844775033590447 1
gene  1 39 34 0.11826273272077037 1 1424.0 0.11826273272077037 1
gene  1 40 34 0.6322408130618461 1 1425.0 0.6322408130618461 1
gene  1 41 34 -0.07272195530673975 1 1426.0 -0.07272195530673975 1
gene  1 42 34 -0.6438753508185144 1 1427.0 -0.6438753508185144 1
gene  1 2 35 -0.09088714290732403 0 1429.0 -0.09088714290732403 1
gene  1 5 35 0.5734452156549373 0 1432.0 0.5734452156549373 1
gene  1 6 35 0.6861557677278436 0 1433.0 0.6861557677278436 1
gene  1 9 35 0.3172386841987016 0 1436.0 0.3172386841987016 1
gene  1 10 35 -0.3439094013871884 0 1437.0 -0.3439094013871884 1
gene  1 12 35 -0.9302129978049092 0 1439.0 -0.9302129978049092 1
gene  1 15 35 -0.21360012218651248 0 1442.0 -0.21360012218651248 1
gene  1 16 35 -0.16225531941029725 0 1443.0 -0.16225531941029725 1
gene  1 18 35 -0.034526259946839 0 1445.0 -0.034526259946839 1
gene  1 19 35 0.44373459432618356 0 1446.0 0.44373459432618356 1
gene  1 21 35 0.5565603354870585 0 1448.0 0.5565603354870585 1
gene  1 22 35 -0.8679966081792113 0 1449.0 -0.8679966081792113 1
gene  1 23 35 -0.9801819777343314 0 1450.0 -0.9801819777343314 1
gene  1 24 35 -0.495343852013855 0 1451.0 -0.495343852013855 1
gene  1 26 35 -0.07769156793077381 0 1453.0 -0.07769156793077381 1
gene  1 27 35 0.2483929015578321 0 1454.0 0.2483929015578321 1
gene  1 29 35 -0.4032294122484903 0 1456.0 -0.4032294122484903 1
gene  1 35 35 0.17871476412827225 1 1462.0 0.17871476412827225 0
gene  1 36 35 0.8826457620755406 1 1463.0 0.8826457620755406 1
gene  1 37 35 0.7347714905665408 1 1464.0 0.7347714905665408 1
gene  1 40 35 0.7271484829628905 1 1467.0 0.7271484829628905 1
gene  1 1 36 0.581532957761042 0 1470.0 0.581532957761042 1
gene  1 2 36 0.24922598928828632 0 1471.0 0.24922598928828632 1
gene  1 4 36 0.29419164228485173 0 1473.0 0.29419164228485173 1
gene  1 6 36 -0.8466498576664091 0 1475.0 -0.8466498576664091 1
gene  1 10 36 0.1542453867816257 0 1479.0 0.1542453867816257 1
gene  1 11 36 0.766596413385387 0 1480.0 0.766596413385387 1
gene  1 12 36 0.07713075485017806 0 1481.0 0.07713075485017806 1
gene  1 13 36 -0.2991223849340955 0 1482.0 -0.2991223849340955 1
gene  1 14 36 -0.9135662959717187 0 1483.0 -0.9135662959717187 1
gene  1 15 36 0.6254440704771252 0 1484.0 0.6254440704771252 1
gene  1 16 36 0.45286247503404076 0 1485.0 0.45286247503404076 1
gene  1 18 36 -0.2194153214567205 0 1487.0 -0.2194153214567205 1
gene  1 19 36 -0.6277297046262161 0 1488.0 -0.6277297046262161 1
gene  1 23 36 0.10732214594188871 0 1492.0 0.10732214594188871 1
gene  1 24 36 -0.11600125703350594 0 1493.0 -0.11600125703350594 1
gene  1 27 36 0.18517010383055432 0 1496.0 0.18517010383055432 1
gene  1 28 36 -0.21234450896395485 0 1497.0 -0.21234450896395485 1
gene  1 34 36 -0.40890241485582346 0 1503.0 -0.40890241485582346 1
gene  1 36 36 -0.5699311625313788 1 1505.0 -0.5699311625313788 1
gene  1 38 36 -0.7989950926431171 1 1507.0 -0.7989950926431171 1
gene  1 40 36 0.8428282216634213 1 1509.0 0.8428282216634213 1
gene  1 41 36 -0.3023774977518122 1 1510.0 -0.3023774977518122 1
gene  1 42 36 0.9233177289394402 1 1511.0 0.9233177289394402 1
gene  1 3 37 0.5217485368308113 0 1514.0 0.5217485368308113 1
gene  1 4 37 0.8838350439624479 0 1515.0 0.8838350439624479 1
gene  1 5 37 0.8715078162487326 0 1516.0 0.8715078162487326 1
gene  1 8 37 -0.7201309204199955 0 1519.0 -0.7201309204199955 1
gene  1 9 37 0.20497676107537488 0 1520.0 0.20497676107537488 1
gene  1 11 37 -0.6293018200939903 0 1522.0 -0.6293018200939903 1
gene  1 12 37 0.3154060908244152 0 1523.0 0.3154060908244152 1
gene  1 18 37 0.5914673768779557 0 1529.0 0.5914673768779557 1
gene  1 20 37 -0.47893157522962515 0 1531.0 -0.47893157522962515 1
gene  1 23 37 0.12953029860916232 0 1534.0 0.12953029860916232 1
gene  1 26 37 -0.017570010747683606 0 1537.0 -0.017570010747683606 1
gene  1 28 37 -0.23320722331551258 0 1539.0 -0.23320722331551258 1
gene  1 35 37 0.5662302140950108 0 1546.0 0.5662302140950108 1
gene  1 38 37 -0.5043018331149985 1 1549.0 -0.5043018331149985 1
gene  1 39 37 -0.22126240070794978 1 1550.0 -0.22126240070794978 1
gene  1 40 37 -0.425810492799117 1 1551.0 -0.425810492799117 1
gene  1 42 37 -0.8126608050701254 1 1553.0 -0.8126608050701254 1
gene  1 2 38 -0.1629514191190764 0 1555.0 -0.1629514191190764 1
gene  1 3 38 -0.5163254567337011 0 1556.0 -0.5163254567337011 1
gene  1 4 38 -0.10435504734292456 0 1557.0 -0.10435504734292456 1
gene  1 5 38 -0.7802893850151423 0 1558.0 -0.7802893850151423 1
gene  1 6 38 0.1925566445000303 0 1559.0 0.1925566445000303 1
gene  1 7 38 0.2560019803391781 0 1560.0 0.2560019803391781 1
gene  1 8 38 0.42562734151694404 0 1561.0 0.42562734151694404 1
gene  1 15 38 -0.8301824030195383 0 1568.0 -0.8301824030195383 1
gene  1 17 38 0.8622454654681287 0 1570.0 0.8622454654681287 1
gene  1 18 38 0.11129921118032815 0 1571.0 0.11129921118032815 1
gene  1 19 38 -0.16645645486268346 0 1572.0 -0.16645645486268346 1
gene  1 20 38 -0.8508826746583862 0 1573.0 -0.8508826746583862 1
gene  1 22 38 -0.11278769206800965 0 1575.0 -0.11278769206800965 1
gene  1 23 38 0.4077205779503351 0 1576.0 0.4077205779503351 1
gene  1 28 38 -0.9096622711196317 0 1581.0 -0.9096622711196317 1
gene  1 31 38 0.9543082324055905 0 1584.0 0.9543082324055905 1
gene  1 34 38 -0.05318134688193665 0 1587.0 -0.05318134688193665 1
gene  1 36 38 0.14453606919446071 0 1589.0 0.14453606919446071 1
gene  1 38 38 0.3514797737026655 1 1591.0 0.3514797737026655 1
gene  1 41 38 0.2748951690059215 1 1594.0 0.2748951690059215 1
gene  1 1 39 0.7263206615181952 0 1596.0 0.7263206615181952 1
gene  1 9 39 -0.6867609610078748 0 1604.0 -0.6867609610078748 1
gene  1 10 39 0.7020057621873894 0 1605.0 0.7020057621873894 1
gene  1 11 39 0.35436682833225386 0 1606.0 0.35436682833225386 1
gene  1 12 39 -0.6998576472493554 0 1607.0 -0.6998576472493554 1
