/* Species # 075         : (size= 075) (AvfFit= 0.000) (Age= 1001.000)  */
/*-------------------------------------------------------------------*/
/* Organism # 000 Fitness:  0.000 Error:  0.000                      */
genomestart  0
trait 1 0.0 0.0 0.0 0.0 0.0 0.0 0.0 0.0 
node 1 1 1 1
node 2 1 1 1
node 3 1 1 1
node 4 1 1 1
node 5 1 1 1
node 6 1 1 1
node 7 1 1 1
node 8 1 1 1
node 9 1 1 1
node 10 1 1 1
node 11 1 1 1
node 12 1 1 1
node 13 1 1 1
node 14 1 1 1
node 15 1 1 1
node 16 1 1 1
node 17 1 1 1
node 18 1 1 1
node 19 1 1 1
node 20 1 1 1
node 21 1 1 1
node 22 1 1 1
node 23 1 1 1
node 24 1 1 1
node 25 1 1 1
node 26 1 1 1
node 27 1 1 1
node 28 1 1 3
node 29 1 0 0
node 34 1 0 2
node 35 1 0 2
node 36 1 0 2
node 37 1 0 2
node 38 1 0 2
node 39 1 0 2
node 40 1 0 2
node 41 1 0 2
node 42 1 0 2
gene  1 1 29 0.6758185030671657 0 1176.0 0.6758185030671657 1
gene  1 3 29 -0.3203413988846744 0 1178.0 -0.3203413988846744 1
gene  1 5 29 0.8743010081891269 0 1180.0 0.8743010081891269 1
gene  1 7 29 0.3406603469940368 0 1182.0 0.3406603469940368 1
gene  1 8 29 0.7200226152628779 0 1183.0 0.7200226152628779 1
gene  1 10 29 0.5244824444479511 0 1185.0 0.5244824444479511 1
gene  1 11 29 -0.7327737705839141 0 1186.0 -0.7327737705839141 1
gene  1 13 29 0.21785507748728994 0 1188.0 0.21785507748728994 1
gene  1 15 29 -0.48990003286398165 0 1190.0 -0.48990003286398165 1
gene  1 20 29 -0.3644531624200944 0 1195.0 -0.3644531624200944 1
gene  1 21 29 -0.5299857891463079 0 1196.0 -0.5299857891463079 1
gene  1 22 29 -0.7934472421450228 0 1197.0 -0.7934472421450228 1
gene  1 24 29 -0.6153070957180867 0 1199.0 -0.6153070957180867 1
gene  1 25 29 0.39264844743238714 0 1200.0 0.39264844743238714 1
gene  1 27 29 0.9233521117887165 0 1202.0 0.9233521117887165 1
gene  1 29 29 0.9455302465080944 1 1204.0 0.9455302465080944 1
gene  1 36 29 0.23081129067700934 1 1211.0 0.23081129067700934 1
gene  1 37 29 0.11277435109255385 1 1212.0 0.11277435109255385 1
gene  1 38 29 -0.6249638648480899 1 1213.0 -0.6249638648480899 1
gene  1 39 29 0.13884268670963085 1 1214.0 0.13884268670963085 1
gene  1 41 29 0.5764775298120591 1 1216.0 0.5764775298120591 1
gene  1 42 29 0.3782607871012079 1 1217.0 0.3782607871012079 1
gene  1 3 34 0.47817101396480066 0 1388.0 0.47817101396480066 1
gene  1 4 34 0.45735706017845557 0 1389.0 0.45735706017845557 1
gene  1 6 34 0.37389718311308906 0 1391.0 0.37389718311308906 1
gene  1 7 34 -0.9098898132283981 0 1392.0 -0.9098898132283981 1
gene  1 8 34 0.23359593620277863 0 1393.0 0.23359593620277863 1
gene  1 9 34 -0.28798562333864464 0 1394.0 -0.28798562333864464 1
gene  1 11 34 0.9857954379245333 0 1396.0 0.9857954379245333 1
gene  1 12 34 0.6687195246977798 0 1397.0 0.6687195246977798 1
gene  1 15 34 -0.14542673165064923 0 1400.0 -0.14542673165064923 1
gene  1 16 34 0.43790264484607944 0 1401.0 0.43790264484607944 1
gene  1 17 34 -0.25888358493581154 0 1402.0 -0.25888358493581154 1
gene  1 18 34 -0.06139961364077329 0 1403.0 -0.06139961364077329 1
gene  1 19 34 -0.8710858444962427 0 1404.0 -0.8710858444962427 1
gene  1 20 34 0.6636798044520684 0 1405.0 0.6636798044520684 1
gene  1 22 34 -0.20295323555494138 0 1407.0 -0.20295323555494138 1
gene  1 23 34 0.40540316939369503 0 1408.0 0.40540316939369503 1
gene  1 25 34 0.8606206879854583 0 1410.0 0.8606206879854583 1
gene  1 29 34 -0.6952481481192784 0 1414.0 -0.6952481481192784 1
gene  1 34 34 -0.4005150341402526 1 1419.0 -0.4005150341402526 1
gene  1 41 34 0.5432963521638011 1 1426.0 0.5432963521638011 1
gene  1 1 35 -0.5845817488520947 0 1428.0 -0.5845817488520947 1
gene  1 2 35 -0.2393303635816284 0 1429.0 -0.2393303635816284 1
gene  1 7 35 -0.44341946513915764 0 1434.0 -0.44341946513915764 1
gene  1 8 35 -0.25406743615720406 0 1435.0 -0.25406743615720406 1
gene  1 9 35 0.36077794939701113 0 1436.0 0.36077794939701113 1
gene  1 11 35 0.14250141292261354 0 1438.0 0.14250141292261354 1
gene  1 16 35 0.22558465772380332 0 1443.0 0.22558465772380332 1
gene  1 17 35 -0.18624648094341245 0 1444.0 -0.18624648094341245 1
gene  1 18 35 0.9130448109188921 0 1445.0 0.9130448109188921 1
gene  1 24 35 -0.7398805354633412 0 1451.0 -0.7398805354633412 1
gene  1 26 35 0.6008001765639592 0 1453.0 0.6008001765639592 1
gene  1 29 35 -0.43694924539871793 0 1456.0 -0.43694924539871793 1
gene  1 34 35 0.012816341695772615 0 1461.0 0.012816341695772615 1
gene  1 35 35 0.3774514041678829 1 1462.0 0.3774514041678829 1
gene  1 36 35 0.5550521639727484 1 1463.0 0.5550521639727484 1
gene  1 37 35 0.8623329500483182 1 1464.0 0.8623329500483182 1
gene  1 2 36 0.9225201789302633 0 1471.0 0.9225201789302633 1
gene  1 3 36 0.4993462111760969 0 1472.0 0.4993462111760969 1
gene  1 5 36 0.5042754175469109 0 1474.0 0.5042754175469109 1
gene  1 7 36 0.4518871376991035 0 1476.0 0.4518871376991035 1
gene  1 11 36 0.8561573192442116 0 1480.0 0.8561573192442116 1
gene  1 14 36 0.4706854512627324 0 1483.0 0.4706854512627324 1
gene  1 18 36 -0.7681081139631457 0 1487.0 -0.7681081139631457 1
gene  1 19 36 0.08951225945452879 0 1488.0 0.08951225945452879 1
gene  1 20 36 0.1962964296968065 0 1489.0 0.1962964296968065 1
gene  1 23 36 0.2556797538027168 0 1492.0 0.2556797538027168 1
gene  1 25 36 -0.39220778636834863 0 1494.0 -0.39220778636834863 1
gene  1 28 36 0.2008399273947319 0 1497.0 0.2008399273947319 1
gene  1 34 36 0.8293970839173677 0 1503.0 0.8293970839173677 1
gene  1 37 36 0.09299781315713962 1 1506.0 0.09299781315713962 1
gene  1 38 36 0.796958470028422 1 1507.0 0.796958470028422 1
gene  1 40 36 0.8254833148322741 1 1509.0 0.8254833148322741 1
gene  1 1 37 -0.17604082912311703 0 1512.0 -0.17604082912311703 1
gene  1 2 37 -0.6685773801253849 0 1513.0 -0.6685773801253849 1
gene  1 3 37 -0.7668096629507946 0 1514.0 -0.7668096629507946 1
gene  1 5 37 -0.7160051393358783 0 1516.0 -0.7160051393358783 1
gene  1 6 37 0.4643323971899702 0 1517.0 0.4643323971899702 1
gene  1 8 37 0.852176780376405 0 1519.0 0.852176780376405 1
gene  1 9 37 0.9067662791814141 0 1520.0 0.9067662791814141 1
gene  1 13 37 0.047861861696845476 0 1524.0 0.047861861696845476 1
gene  1 14 37 -0.610349971789946 0 1525.0 -0.610349971789946 1
gene  1 15 37 0.5694763900542328 0 1526.0 0.5694763900542328 1
gene  1 16 37 -0.27229477520063794 0 1527.0 -0.27229477520063794 1
gene  1 17 37 -0.10630982872862071 0 1528.0 -0.10630982872862071 1
gene  1 18 37 -0.9878624806674277 0 1529.0 -0.9878624806674277 1
gene  1 19 37 0.667264252054911 0 1530.0 0.667264252054911 1
gene  1 22 37 0.6146017552437135 0 1533.0 0.6146017552437135 1
gene  1 24 37 -0.011498996985644494 0 1535.0 -0.011498996985644494 1
gene  1 25 37 -0.07125627812261415 0 1536.0 -0.07125627812261415 1
gene  1 27 37 -0.8953723247386752 0 1538.0 -0.8953723247386752 1
gene  1 34 37 0.8102285483863209 0 1545.0 0.8102285483863209 1
gene  1 36 37 0.7503659582953861 0 1547.0 0.7503659582953861 1
gene  1 41 37 0.7732646738915223 1 1552.0 0.7732646738915223 1
gene  1 42 37 0.1851404439778379 1 1553.0 0.1851404439778379 1
gene  1 4 38 -0.09441638030586841 0 1557.0 -0.09441638030586841 1
gene  1 8 38 0.836477593969075 0 1561.0 0.836477593969075 1
gene  1 10 38 0.5470827435600679 0 1563.0 0.5470827435600679 1
gene  1 11 38 0.9192182995564607 0 1564.0 0.9192182995564607 1
gene  1 13 38 0.7708308072718388 0 1566.0 0.7708308072718388 1
gene  1 15 38 -0.1340535206733222 0 1568.0 -0.1340535206733222 1
gene  1 16 38 -0.4270682755872375 0 1569.0 -0.4270682755872375 1
gene  1 18 38 -0.6397937880004573 0 1571.0 -0.6397937880004573 1
gene  1 21 38 -0.0019704176764457904 0 1574.0 -0.0019704176764457904 1
gene  1 27 38 0.3117659785580279 0 1580.0 0.3117659785580279 1
gene  1 28 38 -0.011640130357274625 0 1581.0 -0.011640130357274625 1
gene  1 29 38 -0.7695518226127028 0 1582.0 -0.7695518226127028 1
gene  1 34 38 0.01777397296340566 0 1587.0 0.01777397296340566 1
gene  1 35 38 0.07171423069328675 0 1588.0 0.07171423069328675 1
gene  1 37 38 -0.48622755022139963 0 1590.0 -0.48622755022139963 1
gene  1 41 38 -0.1688937385684921 1 1594.0 -0.1688937385684921 1
gene  1 42 38 0.8343069809203052 1 1595.0 0.8343069809203052 1
gene  1 2 39 0.49970344530306265 0 1597.0 0.49970344530306265 1
gene  1 3 39 0.6051114559180508 0 1598.0 0.6051114559180508 1
gene  1 5 39 -0.33062722562100766 0 1600.0 -0.33062722562100766 1
gene  1 6 39 0.11655804141432258 0 1601.0 0.11655804141432258 1
gene  1 9 39 -0.3595095094509553 0 1604.0 -0.3595095094509553 1
gene  1 10 39 0.7325212507178984 0 1605.0 0.7325212507178984 1
gene  1 11 39 0.43529243623388025 0 1606.0 0.43529243623388025 1
gene  1 13 39 0.7127809525469759 0 1608.0 0.7127809525469759 1
gene  1 15 39 -0.895437363602759 0 1610.0 -0.895437363602759 1
gene  1 16 39 -0.6410715593306584 0 1611.0 -0.6410715593306584 1
gene  1 24 39 -0.4317144169823445 0 1619.0 -0.4317144169823445 1
gene  1 26 39 -0.2428334626111338 0 1621.0 -0.2428334626111338 1
gene  1 27 39 -0.18781640472119154 0 1622.0 -0.18781640472119154 1
gene  1 35 39 -0.5070828758715643 0 1630.0 -0.5070828758715643 1
gene  1 36 39 0.4528387244494023 0 1631.0 0.4528387244494023 1
gene  1 37 39 0.8468135680752474 0 1632.0 0.8468135680752474 1
gene  1 38 39 0.5331272203917464 0 1633.0 0.5331272203917464 1
gene  1 39 39 0.07693960896629248 1 1634.0 0.07693960896629248 1
gene  1 41 39 -0.7703579851000193 1 1636.0 -0.7703579851000193 1
gene  1 42 39 0.24708184662168742 1 1637.0 0.24708184662168742 1
gene  1 1 40 0.8866055899981509 0 1638.0 0.8866055899981509 1
gene  1 3 40 0.12769218944089678 0 1640.0 0.12769218944089678 1
gene  1 6 40 0.7863957686027158 0 1643.0 0.7863957686027158 1
gene  1 7 40 -0.8974589794065985 0 1644.0 -0.8974589794065985 1
gene  1 11 40 -0.5371759764848015 0 1648.0 -0.5371759764848015 1
gene  1 12 40 0.3517651769317245 0 1649.0 0.3517651769317245 1
gene  1 16 40 0.26927273671539365 0 1653.0 0.26927273671539365 1
gene  1 17 40 -0.48585338211451057 0 1654.0 -0.48585338211451057 1
gene  1 18 40 -0.793565778098095 0 1655.0 -0.793565778098095 1
gene  1 19 40 0.5749350519391225 0 1656.0 0.5749350519391225 1
gene  1 21 40 -0.7852116044246474 0 1658.0 -0.7852116044246474 1
gene  1 22 40 0.015532206368685908 0 1659.0 0.015532206368685908 1
gene  1 25 40 0.19194451858531203 0 1662.0 0.19194451858531203 1
gene  1 26 40 -0.6055994208888633 0 1663.0 -0.6055994208888633 1
gene  1 34 40 -0.5401854411441157 0 1671.0 -0.5401854411441157 1
gene  1 36 40 -0.2572989348566075 0 1673.0 -0.2572989348566075 1
gene  1 40 40 0.21930943049067997 1 1677.0 0.21930943049067997 1
gene  1 1 41 -0.02056571341139868 0 1680.0 -0.02056571341139868 1
gene  1 2 41 0.21679945250848742 0 1681.0 0.21679945250848742 1
gene  1 3 41 0.4784624810450574 0 1682.0 0.4784624810450574 1
gene  1 6 41 -0.6473505591080597 0 1685.0 -0.6473505591080597 1
gene  1 8 41 -0.24880467737601197 0 1687.0 -0.24880467737601197 1
gene  1 13 41 0.8203145288764985 0 1692.0 0.8203145288764985 1
gene  1 14 41 2.4206679668736797E-5 0 1693.0 2.4206679668736797E-5 1
gene  1 15 41 -0.6373145270485665 0 1694.0 -0.6373145270485665 1
gene  1 16 41 -0.5223812402161371 0 1695.0 -0.5223812402161371 1
gene  1 19 41 0.5952426644912419 0 1698.0 0.5952426644912419 1
gene  1 24 41 0.5931997168038744 0 1703.0 0.5931997168038744 1
gene  1 27 41 0.8904480432375715 0 1706.0 0.8904480432375715 1
gene  1 28 41 0.6475071911952531 0 1707.0 0.6475071911952531 1
gene  1 35 41 -0.15831304033373772 0 1714.0 -0.15831304033373772 1
gene  1 37 41 -0.8293317681705489 0 1716.0 -0.8293317681705489 1
gene  1 38 41 0.3483280516546595 0 1717.0 0.3483280516546595 1
gene  1 39 41 -0.304645649828145 0 1718.0 -0.304645649828145 1
gene  1 40 41 0.6433470737244293 0 1719.0 0.6433470737244293 1
gene  1 2 42 0.8694161828928946 0 1723.0 0.8694161828928946 1
gene  1 5 42 0.5945292618230397 0 1726.0 0.5945292618230397 1
gene  1 7 42 0.3329995724292206 0 1728.0 0.3329995724292206 1
gene  1 8 42 0.7563821978070475 0 1729.0 0.7563821978070475 1
gene  1 13 42 0.49370642136142107 0 1734.0 0.49370642136142107 1
gene  1 18 42 -0.9597765566104067 0 1739.0 -0.9597765566104067 1
gene  1 19 42 -0.48157652365457193 0 1740.0 -0.48157652365457193 1
gene  1 22 42 -0.6923207129545851 0 1743.0 -0.6923207129545851 1
gene  1 25 42 0.3979093035919701 0 1746.0 0.3979093035919701 1
gene  1 28 42 -0.9074862956540092 0 1749.0 -0.9074862956540092 1
gene  1 29 42 -0.6282507686314256 0 1750.0 -0.6282507686314256 1
gene  1 35 42 -0.22389670999333255 0 1756.0 -0.22389670999333255 1
gene  1 36 42 0.4369382201138239 0 1757.0 0.4369382201138239 1
gene  1 42 42 -0.08030001762852745 1 1763.0 -0.08030001762852745 1
genomeend 0
/* Organism # 001 Fitness:  0.000 Error:  0.000                      */
genomestart  1
trait 1 0.0 0.0 0.0 0.0 0.0 0.0 0.0 0.0 
node 1 1 1 1
node 2 1 1 1
node 3 1 1 1
node 4 1 1 1
node 5 1 1 1
node 6 1 1 1
node 7 1 1 1
node 8 1 1 1
node 9 1 1 1
node 10 1 1 1
node 11 1 1 1
node 12 1 1 1
node 13 1 1 1
node 14 1 1 1
node 15 1 1 1
node 16 1 1 1
node 17 1 1 1
node 18 1 1 1
node 19 1 1 1
node 20 1 1 1
node 21 1 1 1
node 22 1 1 1
node 23 1 1 1
node 24 1 1 1
node 25 1 1 1
node 26 1 1 1
node 27 1 1 1
node 28 1 1 3
node 29 1 0 0
node 34 1 0 2
node 35 1 0 2
node 36 1 0 2
node 37 1 0 2
node 38 1 0 2
node 39 1 0 2
node 40 1 0 2
node 41 1 0 2
node 42 1 0 2
gene  1 1 29 0.6758185030671657 0 1176.0 0.6758185030671657 1
gene  1 3 29 -0.3203413988846744 0 1178.0 -0.3203413988846744 1
gene  1 5 29 0.8743010081891269 0 1180.0 0.8743010081891269 1
gene  1 7 29 0.3406603469940368 0 1182.0 0.3406603469940368 1
gene  1 8 29 0.7200226152628779 0 1183.0 0.7200226152628779 1
gene  1 10 29 0.5244824444479511 0 1185.0 0.5244824444479511 1
gene  1 11 29 -0.7327737705839141 0 1186.0 -0.7327737705839141 1
gene  1 13 29 0.21785507748728994 0 1188.0 0.21785507748728994 1
gene  1 15 29 -0.48990003286398165 0 1190.0 -0.48990003286398165 1
gene  1 20 29 -0.3644531624200944 0 1195.0 -0.3644531624200944 1
gene  1 21 29 -0.5299857891463079 0 1196.0 -0.5299857891463079 1
gene  1 22 29 -0.7934472421450228 0 1197.0 -0.7934472421450228 1
gene  1 24 29 -0.6153070957180867 0 1199.0 -0.6153070957180867 1
gene  1 25 29 0.39264844743238714 0 1200.0 0.39264844743238714 1
gene  1 27 29 0.9233521117887165 0 1202.0 0.9233521117887165 1
gene  1 29 29 0.9455302465080944 1 1204.0 0.9455302465080944 1
gene  1 36 29 0.23081129067700934 1 1211.0 0.23081129067700934 1
gene  1 37 29 0.11277435109255385 1 1212.0 0.11277435109255385 1
gene  1 38 29 -0.6249638648480899 1 1213.0 -0.6249638648480899 1
gene  1 39 29 0.13884268670963085 1 1214.0 0.13884268670963085 1
gene  1 41 29 0.5764775298120591 1 1216.0 0.5764775298120591 1
gene  1 42 29 0.3782607871012079 1 1217.0 0.3782607871012079 1
gene  1 3 34 0.47817101396480066 0 1388.0 0.47817101396480066 1
gene  1 4 34 0.45735706017845557 0 1389.0 0.45735706017845557 1
gene  1 6 34 0.37389718311308906 0 1391.0 0.37389718311308906 1
gene  1 7 34 -0.9098898132283981 0 1392.0 -0.9098898132283981 1
gene  1 8 34 0.23359593620277863 0 1393.0 0.23359593620277863 1
gene  1 9 34 -0.28798562333864464 0 1394.0 -0.28798562333864464 1
gene  1 11 34 0.9857954379245333 0 1396.0 0.9857954379245333 1
gene  1 12 34 0.6687195246977798 0 1397.0 0.6687195246977798 1
gene  1 15 34 -0.14542673165064923 0 1400.0 -0.14542673165064923 1
gene  1 16 34 0.43790264484607944 0 1401.0 0.43790264484607944 1
gene  1 17 34 -0.25888358493581154 0 1402.0 -0.25888358493581154 1
gene  1 18 34 -0.06139961364077329 0 1403.0 -0.06139961364077329 1
gene  1 19 34 -0.8710858444962427 0 1404.0 -0.8710858444962427 1
gene  1 20 34 0.6636798044520684 0 1405.0 0.6636798044520684 1
gene  1 22 34 -0.20295323555494138 0 1407.0 -0.20295323555494138 1
gene  1 23 34 0.40540316939369503 0 1408.0 0.40540316939369503 1
gene  1 25 34 0.8606206879854583 0 1410.0 0.8606206879854583 1
gene  1 29 34 -0.6952481481192784 0 1414.0 -0.6952481481192784 1
gene  1 34 34 -0.4005150341402526 1 1419.0 -0.4005150341402526 1
gene  1 41 34 0.5432963521638011 1 1426.0 0.5432963521638011 1
gene  1 1 35 -0.5845817488520947 0 1428.0 -0.5845817488520947 1
gene  1 2 35 -0.2393303635816284 0 1429.0 -0.2393303635816284 1
gene  1 7 35 -0.44341946513915764 0 1434.0 -0.44341946513915764 1
gene  1 8 35 -0.25406743615720406 0 1435.0 -0.25406743615720406 1
gene  1 9 35 0.36077794939701113 0 1436.0 0.36077794939701113 1
gene  1 11 35 0.14250141292261354 0 1438.0 0.14250141292261354 1
gene  1 16 35 0.22558465772380332 0 1443.0 0.22558465772380332 1
gene  1 17 35 -0.18624648094341245 0 1444.0 -0.18624648094341245 1
gene  1 18 35 0.9130448109188921 0 1445.0 0.9130448109188921 1
gene  1 24 35 -0.7398805354633412 0 1451.0 -0.7398805354633412 1
gene  1 26 35 0.6008001765639592 0 1453.0 0.6008001765639592 1
gene  1 29 35 -0.43694924539871793 0 1456.0 -0.43694924539871793 1
gene  1 34 35 0.012816341695772615 0 1461.0 0.012816341695772615 1
gene  1 35 35 0.3774514041678829 1 1462.0 0.3774514041678829 1
gene  1 36 35 0.5550521639727484 1 1463.0 0.5550521639727484 1
gene  1 37 35 0.8623329500483182 1 1464.0 0.8623329500483182 1
gene  1 2 36 0.9225201789302633 0 1471.0 0.9225201789302633 1
gene  1 3 36 0.4993462111760969 0 1472.0 0.4993462111760969 1
gene  1 5 36 0.5042754175469109 0 1474.0 0.5042754175469109 1
gene  1 7 36 0.4518871376991035 0 1476.0 0.4518871376991035 1
gene  1 11 36 0.8561573192442116 0 1480.0 0.8561573192442116 1
gene  1 14 36 0.4706854512627324 0 1483.0 0.4706854512627324 1
gene  1 18 36 -0.7681081139631457 0 1487.0 -0.7681081139631457 1
gene  1 19 36 0.08951225945452879 0 1488.0 0.08951225945452879 1
gene  1 20 36 0.1962964296968065 0 1489.0 0.1962964296968065 1
gene  1 23 36 0.2556797538027168 0 1492.0 0.2556797538027168 1
gene  1 25 36 -0.39220778636834863 0 1494.0 -0.39220778636834863 1
gene  1 28 36 0.2008399273947319 0 1497.0 0.2008399273947319 1
gene  1 34 36 0.8293970839173677 0 1503.0 0.8293970839173677 1
gene  1 37 36 0.09299781315713962 1 1506.0 0.09299781315713962 1
gene  1 38 36 0.796958470028422 1 1507.0 0.796958470028422 1
gene  1 40 36 0.8254833148322741 1 1509.0 0.8254833148322741 1
gene  1 1 37 -0.17604082912311703 0 1512.0 -0.17604082912311703 1
gene  1 2 37 -0.6685773801253849 0 1513.0 -0.6685773801253849 1
gene  1 3 37 -0.7668096629507946 0 1514.0 -0.7668096629507946 1
gene  1 5 37 -0.7160051393358783 0 1516.0 -0.7160051393358783 1
gene  1 6 37 0.4643323971899702 0 1517.0 0.4643323971899702 1
gene  1 8 37 0.852176780376405 0 1519.0 0.852176780376405 1
gene  1 9 37 0.9067662791814141 0 1520.0 0.9067662791814141 1
gene  1 13 37 0.047861861696845476 0 1524.0 0.047861861696845476 1
gene  1 14 37 -0.610349971789946 0 1525.0 -0.610349971789946 1
gene  1 15 37 0.5694763900542328 0 1526.0 0.5694763900542328 1
gene  1 16 37 -0.27229477520063794 0 1527.0 -0.27229477520063794 1
gene  1 17 37 -0.10630982872862071 0 1528.0 -0.10630982872862071 1
gene  1 18 37 -0.9878624806674277 0 1529.0 -0.9878624806674277 1
gene  1 19 37 0.667264252054911 0 1530.0 0.667264252054911 1
gene  1 22 37 0.6146017552437135 0 1533.0 0.6146017552437135 1
gene  1 24 37 -0.011498996985644494 0 1535.0 -0.011498996985644494 1
gene  1 25 37 -0.07125627812261415 0 1536.0 -0.07125627812261415 1
gene  1 27 37 -0.8953723247386752 0 1538.0 -0.8953723247386752 1
gene  1 34 37 0.8102285483863209 0 1545.0 0.8102285483863209 1
gene  1 36 37 0.7503659582953861 0 1547.0 0.7503659582953861 1
gene  1 41 37 0.7732646738915223 1 1552.0 0.7732646738915223 1
gene  1 42 37 0.1851404439778379 1 1553.0 0.1851404439778379 1
gene  1 4 38 -0.09441638030586841 0 1557.0 -0.09441638030586841 1
gene  1 8 38 0.836477593969075 0 1561.0 0.836477593969075 1
gene  1 10 38 0.5470827435600679 0 1563.0 0.5470827435600679 1
gene  1 11 38 0.9192182995564607 0 1564.0 0.9192182995564607 1
gene  1 13 38 0.7708308072718388 0 1566.0 0.7708308072718388 1
gene  1 15 38 -0.1340535206733222 0 1568.0 -0.1340535206733222 1
gene  1 16 38 -0.4270682755872375 0 1569.0 -0.4270682755872375 1
gene  1 18 38 -0.6397937880004573 0 1571.0 -0.6397937880004573 1
gene  1 21 38 -0.0019704176764457904 0 1574.0 -0.0019704176764457904 1
gene  1 27 38 0.3117659785580279 0 1580.0 0.3117659785580279 1
gene  1 28 38 -0.011640130357274625 0 1581.0 -0.011640130357274625 1
gene  1 29 38 -0.7695518226127028 0 1582.0 -0.7695518226127028 1
gene  1 34 38 0.01777397296340566 0 1587.0 0.01777397296340566 1
gene  1 35 38 0.07171423069328675 0 1588.0 0.07171423069328675 1
gene  1 37 38 -0.48622755022139963 0 1590.0 -0.48622755022139963 1
gene  1 41 38 -0.1688937385684921 1 1594.0 -0.1688937385684921 1
gene  1 42 38 0.8343069809203052 1 1595.0 0.8343069809203052 1
gene  1 2 39 0.49970344530306265 0 1597.0 0.49970344530306265 1
gene  1 3 39 0.6051114559180508 0 1598.0 0.6051114559180508 1
gene  1 5 39 -0.33062722562100766 0 1600.0 -0.33062722562100766 1
gene  1 6 39 0.11655804141432258 0 1601.0 0.11655804141432258 1
gene  1 9 39 -0.3595095094509553 0 1604.0 -0.3595095094509553 1
gene  1 10 39 0.7325212507178984 0 1605.0 0.7325212507178984 1
gene  1 11 39 0.43529243623388025 0 1606.0 0.43529243623388025 1
gene  1 13 39 0.7127809525469759 0 1608.0 0.7127809525469759 1
gene  1 15 39 -0.895437363602759 0 1610.0 -0.895437363602759 1
gene  1 16 39 -0.6410715593306584 0 1611.0 -0.6410715593306584 1
gene  1 24 39 -0.4317144169823445 0 1619.0 -0.4317144169823445 1
gene  1 26 39 -0.2428334626111338 0 1621.0 -0.2428334626111338 1
gene  1 27 39 -0.18781640472119154 0 1622.0 -0.18781640472119154 1
gene  1 35 39 -0.5070828758715643 0 1630.0 -0.5070828758715643 1
gene  1 36 39 0.4528387244494023 0 1631.0 0.4528387244494023 1
gene  1 37 39 0.8468135680752474 0 1632.0 0.8468135680752474 1
gene  1 38 39 0.5331272203917464 0 1633.0 0.5331272203917464 1
gene  1 39 39 0.07693960896629248 1 1634.0 0.07693960896629248 1
gene  1 41 39 -0.7703579851000193 1 1636.0 -0.7703579851000193 1
gene  1 42 39 0.24708184662168742 1 1637.0 0.24708184662168742 1
gene  1 1 40 0.8866055899981509 0 1638.0 0.8866055899981509 1
gene  1 3 40 0.12769218944089678 0 1640.0 0.12769218944089678 1
gene  1 6 40 0.7863957686027158 0 1643.0 0.7863957686027158 1
gene  1 7 40 -0.8974589794065985 0 1644.0 -0.8974589794065985 1
gene  1 11 40 -0.5371759764848015 0 1648.0 -0.5371759764848015 1
gene  1 12 40 0.3517651769317245 0 1649.0 0.3517651769317245 1
gene  1 16 40 0.26927273671539365 0 1653.0 0.26927273671539365 1
gene  1 17 40 -0.48585338211451057 0 1654.0 -0.48585338211451057 1
gene  1 18 40 -0.793565778098095 0 1655.0 -0.793565778098095 1
gene  1 19 40 0.5749350519391225 0 1656.0 0.5749350519391225 1
gene  1 21 40 -0.7852116044246474 0 1658.0 -0.7852116044246474 1
gene  1 22 40 0.015532206368685908 0 1659.0 0.015532206368685908 1
gene  1 25 40 0.19194451858531203 0 1662.0 0.19194451858531203 1
gene  1 26 40 -0.6055994208888633 0 1663.0 -0.6055994208888633 1
gene  1 34 40 -0.5401854411441157 0 1671.0 -0.5401854411441157 1
gene  1 36 40 -0.2572989348566075 0 1673.0 -0.2572989348566075 1
gene  1 40 40 0.21930943049067997 1 1677.0 0.21930943049067997 1
gene  1 1 41 -0.02056571341139868 0 1680.0 -0.02056571341139868 1
gene  1 2 41 0.21679945250848742 0 1681.0 0.21679945250848742 1
gene  1 3 41 0.4784624810450574 0 1682.0 0.4784624810450574 1
gene  1 6 41 -0.6473505591080597 0 1685.0 -0.6473505591080597 1
gene  1 8 41 -0.24880467737601197 0 1687.0 -0.24880467737601197 1
gene  1 13 41 0.8203145288764985 0 1692.0 0.8203145288764985 1
gene  1 14 41 2.4206679668736797E-5 0 1693.0 2.4206679668736797E-5 1
gene  1 15 41 -0.6373145270485665 0 1694.0 -0.6373145270485665 1
gene  1 16 41 -0.5223812402161371 0 1695.0 -0.5223812402161371 1
gene  1 19 41 0.5952426644912419 0 1698.0 0.5952426644912419 1
gene  1 24 41 0.5931997168038744 0 1703.0 0.5931997168038744 1
gene  1 27 41 0.8904480432375715 0 1706.0 0.8904480432375715 1
gene  1 28 41 0.6475071911952531 0 1707.0 0.6475071911952531 1
gene  1 35 41 -0.15831304033373772 0 1714.0 -0.15831304033373772 1
gene  1 37 41 -0.8293317681705489 0 1716.0 -0.8293317681705489 1
gene  1 38 41 0.3483280516546595 0 1717.0 0.3483280516546595 1
gene  1 39 41 -0.304645649828145 0 1718.0 -0.304645649828145 1
gene  1 40 41 0.6433470737244293 0 1719.0 0.6433470737244293 1
gene  1 2 42 0.8694161828928946 0 1723.0 0.8694161828928946 1
gene  1 5 42 0.5945292618230397 0 1726.0 0.5945292618230397 1
gene  1 7 42 0.3329995724292206 0 1728.0 0.3329995724292206 1
gene  1 8 42 0.7563821978070475 0 1729.0 0.7563821978070475 1
gene  1 13 42 0.49370642136142107 0 1734.0 0.49370642136142107 1
gene  1 18 42 -0.9597765566104067 0 1739.0 -0.9597765566104067 1
gene  1 19 42 -0.48157652365457193 0 1740.0 -0.48157652365457193 1
gene  1 22 42 -0.6923207129545851 0 1743.0 -0.6923207129545851 1
gene  1 25 42 0.3979093035919701 0 1746.0 0.3979093035919701 1
gene  1 28 42 -0.9074862956540092 0 1749.0 -0.9074862956540092 1
gene  1 29 42 -0.6282507686314256 0 1750.0 -0.6282507686314256 1
gene  1 35 42 -0.22389670999333255 0 1756.0 -0.22389670999333255 1
gene  1 36 42 0.4369382201138239 0 1757.0 0.4369382201138239 1
gene  1 42 42 -0.08030001762852745 1 1763.0 -0.08030001762852745 1
genomeend 1
/* Organism # 002 Fitness:  0.000 Error:  0.000                      */
genomestart  2
trait 1 0.0 0.0 0.0 0.0 0.0 0.0 0.0 0.0 
node 1 1 1 1
node 2 1 1 1
node 3 1 1 1
node 4 1 1 1
node 5 1 1 1
node 6 1 1 1
node 7 1 1 1
node 8 1 1 1
node 9 1 1 1
node 10 1 1 1
node 11 1 1 1
node 12 1 1 1
node 13 1 1 1
node 14 1 1 1
node 15 1 1 1
node 16 1 1 1
node 17 1 1 1
node 18 1 1 1
node 19 1 1 1
node 20 1 1 1
node 21 1 1 1
node 22 1 1 1
node 23 1 1 1
node 24 1 1 1
node 25 1 1 1
node 26 1 1 1
node 27 1 1 1
node 28 1 1 3
node 29 1 0 0
node 34 1 0 2
node 35 1 0 2
node 36 1 0 2
node 37 1 0 2
node 38 1 0 2
node 39 1 0 2
node 40 1 0 2
node 41 1 0 2
node 42 1 0 2
gene  1 1 29 0.6758185030671657 0 1176.0 0.6758185030671657 1
gene  1 3 29 -0.3203413988846744 0 1178.0 -0.3203413988846744 1
gene  1 5 29 0.8743010081891269 0 1180.0 0.8743010081891269 1
gene  1 7 29 0.3406603469940368 0 1182.0 0.3406603469940368 1
gene  1 8 29 0.7200226152628779 0 1183.0 0.7200226152628779 1
gene  1 10 29 0.5244824444479511 0 1185.0 0.5244824444479511 1
gene  1 11 29 -0.7327737705839141 0 1186.0 -0.7327737705839141 1
gene  1 13 29 0.21785507748728994 0 1188.0 0.21785507748728994 1
gene  1 15 29 -0.48990003286398165 0 1190.0 -0.48990003286398165 1
gene  1 20 29 -0.3644531624200944 0 1195.0 -0.3644531624200944 1
gene  1 21 29 -0.5299857891463079 0 1196.0 -0.5299857891463079 1
gene  1 22 29 -0.7934472421450228 0 1197.0 -0.7934472421450228 1
gene  1 24 29 -0.6153070957180867 0 1199.0 -0.6153070957180867 1
gene  1 25 29 0.39264844743238714 0 1200.0 0.39264844743238714 1
gene  1 27 29 0.9233521117887165 0 1202.0 0.9233521117887165 1
gene  1 29 29 0.9455302465080944 1 1204.0 0.9455302465080944 1
gene  1 36 29 0.23081129067700934 1 1211.0 0.23081129067700934 1
gene  1 37 29 0.11277435109255385 1 1212.0 0.11277435109255385 1
gene  1 38 29 -0.6249638648480899 1 1213.0 -0.6249638648480899 1
gene  1 39 29 0.13884268670963085 1 1214.0 0.13884268670963085 1
gene  1 41 29 0.5764775298120591 1 1216.0 0.5764775298120591 1
gene  1 42 29 0.3782607871012079 1 1217.0 0.3782607871012079 1
gene  1 3 34 0.47817101396480066 0 1388.0 0.47817101396480066 1
gene  1 4 34 0.45735706017845557 0 1389.0 0.45735706017845557 1
gene  1 6 34 0.37389718311308906 0 1391.0 0.37389718311308906 1
gene  1 7 34 -0.9098898132283981 0 1392.0 -0.9098898132283981 1
gene  1 8 34 0.23359593620277863 0 1393.0 0.23359593620277863 1
gene  1 9 34 -0.28798562333864464 0 1394.0 -0.28798562333864464 1
gene  1 11 34 0.9857954379245333 0 1396.0 0.9857954379245333 1
gene  1 12 34 0.6687195246977798 0 1397.0 0.6687195246977798 1
gene  1 15 34 -0.14542673165064923 0 1400.0 -0.14542673165064923 1
gene  1 16 34 0.43790264484607944 0 1401.0 0.43790264484607944 1
gene  1 17 34 -0.25888358493581154 0 1402.0 -0.25888358493581154 1
gene  1 18 34 -0.06139961364077329 0 1403.0 -0.06139961364077329 1
gene  1 19 34 -0.8710858444962427 0 1404.0 -0.8710858444962427 1
gene  1 20 34 0.6636798044520684 0 1405.0 0.6636798044520684 1
gene  1 22 34 -0.20295323555494138 0 1407.0 -0.20295323555494138 1
gene  1 23 34 0.40540316939369503 0 1408.0 0.40540316939369503 1
gene  1 25 34 0.8606206879854583 0 1410.0 0.8606206879854583 1
gene  1 29 34 -0.6952481481192784 0 1414.0 -0.6952481481192784 1
gene  1 34 34 -0.4005150341402526 1 1419.0 -0.4005150341402526 1
gene  1 41 34 0.5432963521638011 1 1426.0 0.5432963521638011 1
gene  1 1 35 -0.5845817488520947 0 1428.0 -0.5845817488520947 1
gene  1 2 35 -0.2393303635816284 0 1429.0 -0.2393303635816284 1
gene  1 7 35 -0.44341946513915764 0 1434.0 -0.44341946513915764 1
gene  1 8 35 -0.25406743615720406 0 1435.0 -0.25406743615720406 1
gene  1 9 35 0.36077794939701113 0 1436.0 0.36077794939701113 1
gene  1 11 35 0.14250141292261354 0 1438.0 0.14250141292261354 1
gene  1 16 35 0.22558465772380332 0 1443.0 0.22558465772380332 1
gene  1 17 35 -0.18624648094341245 0 1444.0 -0.18624648094341245 1
gene  1 18 35 0.9130448109188921 0 1445.0 0.9130448109188921 1
gene  1 24 35 -0.7398805354633412 0 1451.0 -0.7398805354633412 1
gene  1 26 35 0.6008001765639592 0 1453.0 0.6008001765639592 1
gene  1 29 35 -0.43694924539871793 0 1456.0 -0.43694924539871793 1
gene  1 34 35 0.012816341695772615 0 1461.0 0.012816341695772615 1
gene  1 35 35 0.3774514041678829 1 1462.0 0.3774514041678829 1
gene  1 36 35 0.5550521639727484 1 1463.0 0.5550521639727484 1
gene  1 37 35 0.8623329500483182 1 1464.0 0.8623329500483182 1
gene  1 2 36 0.9225201789302633 0 1471.0 0.9225201789302633 1
gene  1 3 36 0.4993462111760969 0 1472.0 0.4993462111760969 1
gene  1 5 36 0.5042754175469109 0 1474.0 0.5042754175469109 1
gene  1 7 36 0.4518871376991035 0 1476.0 0.4518871376991035 1
gene  1 11 36 0.8561573192442116 0 1480.0 0.8561573192442116 1
gene  1 14 36 0.4706854512627324 0 1483.0 0.4706854512627324 1
gene  1 18 36 -0.7681081139631457 0 1487.0 -0.7681081139631457 1
gene  1 19 36 0.08951225945452879 0 1488.0 0.08951225945452879 1
gene  1 20 36 0.1962964296968065 0 1489.0 0.1962964296968065 1
gene  1 23 36 0.2556797538027168 0 1492.0 0.2556797538027168 1
gene  1 25 36 -0.39220778636834863 0 1494.0 -0.39220778636834863 1
gene  1 28 36 0.2008399273947319 0 1497.0 0.2008399273947319 1
gene  1 34 36 0.8293970839173677 0 1503.0 0.8293970839173677 1
gene  1 37 36 0.09299781315713962 1 1506.0 0.09299781315713962 1
gene  1 38 36 0.796958470028422 1 1507.0 0.796958470028422 1
gene  1 40 36 0.8254833148322741 1 1509.0 0.8254833148322741 1
gene  1 1 37 -0.17604082912311703 0 1512.0 -0.17604082912311703 1
gene  1 2 37 -0.6685773801253849 0 1513.0 -0.6685773801253849 1
gene  1 3 37 -0.7668096629507946 0 1514.0 -0.7668096629507946 1
gene  1 5 37 -0.7160051393358783 0 1516.0 -0.7160051393358783 1
gene  1 6 37 0.4643323971899702 0 1517.0 0.4643323971899702 1
gene  1 8 37 0.852176780376405 0 1519.0 0.852176780376405 1
gene  1 9 37 0.9067662791814141 0 1520.0 0.9067662791814141 1
gene  1 13 37 0.047861861696845476 0 1524.0 0.047861861696845476 1
gene  1 14 37 -0.610349971789946 0 1525.0 -0.610349971789946 1
gene  1 15 37 0.5694763900542328 0 1526.0 0.5694763900542328 1
gene  1 16 37 -0.27229477520063794 0 1527.0 -0.27229477520063794 1
gene  1 17 37 -0.10630982872862071 0 1528.0 -0.10630982872862071 1
gene  1 18 37 -0.9878624806674277 0 1529.0 -0.9878624806674277 1
gene  1 19 37 0.667264252054911 0 1530.0 0.667264252054911 1
gene  1 22 37 0.6146017552437135 0 1533.0 0.6146017552437135 1
gene  1 24 37 -0.011498996985644494 0 1535.0 -0.011498996985644494 1
gene  1 25 37 -0.07125627812261415 0 1536.0 -0.07125627812261415 1
gene  1 27 37 -0.8953723247386752 0 1538.0 -0.8953723247386752 1
gene  1 34 37 0.8102285483863209 0 1545.0 0.8102285483863209 1
gene  1 36 37 0.7503659582953861 0 1547.0 0.7503659582953861 1
gene  1 41 37 0.7732646738915223 1 1552.0 0.7732646738915223 1
gene  1 42 37 0.1851404439778379 1 1553.0 0.1851404439778379 1
gene  1 4 38 -0.09441638030586841 0 1557.0 -0.09441638030586841 1
gene  1 8 38 0.836477593969075 0 1561.0 0.836477593969075 1
gene  1 10 38 0.5470827435600679 0 1563.0 0.5470827435600679 1
gene  1 11 38 0.9192182995564607 0 1564.0 0.9192182995564607 1
gene  1 13 38 0.7708308072718388 0 1566.0 0.7708308072718388 1
gene  1 15 38 -0.1340535206733222 0 1568.0 -0.1340535206733222 1
gene  1 16 38 -0.4270682755872375 0 1569.0 -0.4270682755872375 1
gene  1 18 38 -0.6397937880004573 0 1571.0 -0.6397937880004573 1
gene  1 21 38 -0.0019704176764457904 0 1574.0 -0.0019704176764457904 1
gene  1 27 38 0.3117659785580279 0 1580.0 0.3117659785580279 1
gene  1 28 38 -0.011640130357274625 0 1581.0 -0.011640130357274625 1
gene  1 29 38 -0.7695518226127028 0 1582.0 -0.7695518226127028 1
gene  1 34 38 0.01777397296340566 0 1587.0 0.01777397296340566 1
gene  1 35 38 0.07171423069328675 0 1588.0 0.07171423069328675 1
gene  1 37 38 -0.48622755022139963 0 1590.0 -0.48622755022139963 1
gene  1 41 38 -0.1688937385684921 1 1594.0 -0.1688937385684921 1
gene  1 42 38 0.8343069809203052 1 1595.0 0.8343069809203052 1
gene  1 2 39 0.49970344530306265 0 1597.0 0.49970344530306265 1
gene  1 3 39 0.6051114559180508 0 1598.0 0.6051114559180508 1
gene  1 5 39 -0.33062722562100766 0 1600.0 -0.33062722562100766 1
gene  1 6 39 0.11655804141432258 0 1601.0 0.11655804141432258 1
gene  1 9 39 -0.3595095094509553 0 1604.0 -0.3595095094509553 1
gene  1 10 39 0.7325212507178984 0 1605.0 0.7325212507178984 1
gene  1 11 39 0.43529243623388025 0 1606.0 0.43529243623388025 1
gene  1 13 39 0.7127809525469759 0 1608.0 0.7127809525469759 1
gene  1 15 39 -0.895437363602759 0 1610.0 -0.895437363602759 1
gene  1 16 39 -0.6410715593306584 0 1611.0 -0.6410715593306584 1
gene  1 24 39 -0.4317144169823445 0 1619.0 -0.4317144169823445 1
gene  1 26 39 -0.2428334626111338 0 1621.0 -0.2428334626111338 1
gene  1 27 39 -0.18781640472119154 0 1622.0 -0.18781640472119154 1
gene  1 35 39 -0.5070828758715643 0 1630.0 -0.5070828758715643 1
gene  1 36 39 0.4528387244494023 0 1631.0 0.4528387244494023 1
gene  1 37 39 0.8468135680752474 0 1632.0 0.8468135680752474 1
gene  1 38 39 0.5331272203917464 0 1633.0 0.5331272203917464 1
gene  1 39 39 0.07693960896629248 1 1634.0 0.07693960896629248 1
gene  1 41 39 -0.7703579851000193 1 1636.0 -0.7703579851000193 1
gene  1 42 39 0.24708184662168742 1 1637.0 0.24708184662168742 1
gene  1 1 40 0.8866055899981509 0 1638.0 0.8866055899981509 1
gene  1 3 40 0.12769218944089678 0 1640.0 0.12769218944089678 1
gene  1 6 40 0.7863957686027158 0 1643.0 0.7863957686027158 1
gene  1 7 40 -0.8974589794065985 0 1644.0 -0.8974589794065985 1
gene  1 11 40 -0.5371759764848015 0 1648.0 -0.5371759764848015 1
gene  1 12 40 0.3517651769317245 0 1649.0 0.3517651769317245 1
gene  1 16 40 0.26927273671539365 0 1653.0 0.26927273671539365 1
gene  1 17 40 -0.48585338211451057 0 1654.0 -0.48585338211451057 1
gene  1 18 40 -0.793565778098095 0 1655.0 -0.793565778098095 1
gene  1 19 40 0.5749350519391225 0 1656.0 0.5749350519391225 1
gene  1 21 40 -0.7852116044246474 0 1658.0 -0.7852116044246474 1
gene  1 22 40 0.015532206368685908 0 1659.0 0.015532206368685908 1
gene  1 25 40 0.19194451858531203 0 1662.0 0.19194451858531203 1
gene  1 26 40 -0.6055994208888633 0 1663.0 -0.6055994208888633 1
gene  1 34 40 -0.5401854411441157 0 1671.0 -0.5401854411441157 1
gene  1 36 40 -0.2572989348566075 0 1673.0 -0.2572989348566075 1
gene  1 40 40 0.21930943049067997 1 1677.0 0.21930943049067997 1
gene  1 1 41 -0.02056571341139868 0 1680.0 -0.02056571341139868 1
gene  1 2 41 0.21679945250848742 0 1681.0 0.21679945250848742 1
gene  1 3 41 0.4784624810450574 0 1682.0 0.4784624810450574 1
gene  1 6 41 -0.6473505591080597 0 1685.0 -0.6473505591080597 1
gene  1 8 41 -0.24880467737601197 0 1687.0 -0.24880467737601197 1
gene  1 13 41 0.8203145288764985 0 1692.0 0.8203145288764985 1
gene  1 14 41 2.4206679668736797E-5 0 1693.0 2.4206679668736797E-5 1
gene  1 15 41 -0.6373145270485665 0 1694.0 -0.6373145270485665 1
gene  1 16 41 -0.5223812402161371 0 1695.0 -0.5223812402161371 1
gene  1 19 41 0.5952426644912419 0 1698.0 0.5952426644912419 1
gene  1 24 41 0.5931997168038744 0 1703.0 0.5931997168038744 1
gene  1 27 41 0.8904480432375715 0 1706.0 0.8904480432375715 1
gene  1 28 41 0.6475071911952531 0 1707.0 0.6475071911952531 1
gene  1 35 41 -0.15831304033373772 0 1714.0 -0.15831304033373772 1
gene  1 37 41 -0.8293317681705489 0 1716.0 -0.8293317681705489 1
gene  1 38 41 0.3483280516546595 0 1717.0 0.3483280516546595 1
gene  1 39 41 -0.304645649828145 0 1718.0 -0.304645649828145 1
gene  1 40 41 0.6433470737244293 0 1719.0 0.6433470737244293 1
gene  1 2 42 0.8694161828928946 0 1723.0 0.8694161828928946 1
gene  1 5 42 0.5945292618230397 0 1726.0 0.5945292618230397 1
gene  1 7 42 0.3329995724292206 0 1728.0 0.3329995724292206 1
gene  1 8 42 0.7563821978070475 0 1729.0 0.7563821978070475 1
gene  1 13 42 0.49370642136142107 0 1734.0 0.49370642136142107 1
gene  1 18 42 -0.9597765566104067 0 1739.0 -0.9597765566104067 1
gene  1 19 42 -0.48157652365457193 0 1740.0 -0.48157652365457193 1
gene  1 22 42 -0.6923207129545851 0 1743.0 -0.6923207129545851 1
gene  1 25 42 0.3979093035919701 0 1746.0 0.3979093035919701 1
gene  1 28 42 -0.9074862956540092 0 1749.0 -0.9074862956540092 1
gene  1 29 42 -0.6282507686314256 0 1750.0 -0.6282507686314256 1
gene  1 35 42 -0.22389670999333255 0 1756.0 -0.22389670999333255 1
gene  1 36 42 0.4369382201138239 0 1757.0 0.4369382201138239 1
gene  1 42 42 -0.08030001762852745 1 1763.0 -0.08030001762852745 1
genomeend 2
/* Organism # 003 Fitness:  0.000 Error:  0.000                      */
genomestart  3
trait 1 0.0 0.0 0.0 0.0 0.0 0.0 0.0 0.0 
node 1 1 1 1
node 2 1 1 1
node 3 1 1 1
node 4 1 1 1
node 5 1 1 1
node 6 1 1 1
node 7 1 1 1
node 8 1 1 1
node 9 1 1 1
node 10 1 1 1
node 11 1 1 1
node 12 1 1 1
node 13 1 1 1
node 14 1 1 1
node 15 1 1 1
node 16 1 1 1
node 17 1 1 1
node 18 1 1 1
node 19 1 1 1
node 20 1 1 1
node 21 1 1 1
node 22 1 1 1
node 23 1 1 1
node 24 1 1 1
node 25 1 1 1
node 26 1 1 1
node 27 1 1 1
node 28 1 1 3
node 29 1 0 0
node 34 1 0 2
node 35 1 0 2
node 36 1 0 2
node 37 1 0 2
node 38 1 0 2
node 39 1 0 2
node 40 1 0 2
node 41 1 0 2
node 42 1 0 2
gene  1 1 29 0.6758185030671657 0 1176.0 0.6758185030671657 1
gene  1 3 29 -0.3203413988846744 0 1178.0 -0.3203413988846744 1
gene  1 5 29 0.8743010081891269 0 1180.0 0.8743010081891269 1
gene  1 7 29 0.3406603469940368 0 1182.0 0.3406603469940368 1
gene  1 8 29 0.7200226152628779 0 1183.0 0.7200226152628779 1
gene  1 10 29 0.5244824444479511 0 1185.0 0.5244824444479511 1
gene  1 11 29 -0.7327737705839141 0 1186.0 -0.7327737705839141 1
gene  1 13 29 0.21785507748728994 0 1188.0 0.21785507748728994 1
gene  1 15 29 -0.48990003286398165 0 1190.0 -0.48990003286398165 1
gene  1 20 29 -0.3644531624200944 0 1195.0 -0.3644531624200944 1
gene  1 21 29 -0.5299857891463079 0 1196.0 -0.5299857891463079 1
gene  1 22 29 -0.7934472421450228 0 1197.0 -0.7934472421450228 1
gene  1 24 29 -0.6153070957180867 0 1199.0 -0.6153070957180867 1
gene  1 25 29 0.39264844743238714 0 1200.0 0.39264844743238714 1
gene  1 27 29 0.9233521117887165 0 1202.0 0.9233521117887165 1
gene  1 29 29 0.9455302465080944 1 1204.0 0.9455302465080944 1
gene  1 36 29 0.23081129067700934 1 1211.0 0.23081129067700934 1
gene  1 37 29 0.11277435109255385 1 1212.0 0.11277435109255385 1
gene  1 38 29 -0.6249638648480899 1 1213.0 -0.6249638648480899 1
gene  1 39 29 0.13884268670963085 1 1214.0 0.13884268670963085 1
gene  1 41 29 0.5764775298120591 1 1216.0 0.5764775298120591 1
gene  1 42 29 0.3782607871012079 1 1217.0 0.3782607871012079 1
gene  1 3 34 0.47817101396480066 0 1388.0 0.47817101396480066 1
gene  1 4 34 0.45735706017845557 0 1389.0 0.45735706017845557 1
gene  1 6 34 0.37389718311308906 0 1391.0 0.37389718311308906 1
gene  1 7 34 -0.9098898132283981 0 1392.0 -0.9098898132283981 1
gene  1 8 34 0.23359593620277863 0 1393.0 0.23359593620277863 1
gene  1 9 34 -0.28798562333864464 0 1394.0 -0.28798562333864464 1
gene  1 11 34 0.9857954379245333 0 1396.0 0.9857954379245333 1
gene  1 12 34 0.6687195246977798 0 1397.0 0.6687195246977798 1
gene  1 15 34 -0.14542673165064923 0 1400.0 -0.14542673165064923 1
gene  1 16 34 0.43790264484607944 0 1401.0 0.43790264484607944 1
gene  1 17 34 -0.25888358493581154 0 1402.0 -0.25888358493581154 1
gene  1 18 34 -0.06139961364077329 0 1403.0 -0.06139961364077329 1
gene  1 19 34 -0.8710858444962427 0 1404.0 -0.8710858444962427 1
gene  1 20 34 0.6636798044520684 0 1405.0 0.6636798044520684 1
gene  1 22 34 -0.20295323555494138 0 1407.0 -0.20295323555494138 1
gene  1 23 34 0.40540316939369503 0 1408.0 0.40540316939369503 1
gene  1 25 34 0.8606206879854583 0 1410.0 0.8606206879854583 1
gene  1 29 34 -0.6952481481192784 0 1414.0 -0.6952481481192784 1
gene  1 34 34 -0.4005150341402526 1 1419.0 -0.4005150341402526 1
gene  1 41 34 0.5432963521638011 1 1426.0 0.5432963521638011 1
gene  1 1 35 -0.5845817488520947 0 1428.0 -0.5845817488520947 1
gene  1 2 35 -0.2393303635816284 0 1429.0 -0.2393303635816284 1
gene  1 7 35 -0.44341946513915764 0 1434.0 -0.44341946513915764 1
gene  1 8 35 -0.25406743615720406 0 1435.0 -0.25406743615720406 1
gene  1 9 35 0.36077794939701113 0 1436.0 0.36077794939701113 1
gene  1 11 35 0.14250141292261354 0 1438.0 0.14250141292261354 1
gene  1 16 35 0.22558465772380332 0 1443.0 0.22558465772380332 1
gene  1 17 35 -0.18624648094341245 0 1444.0 -0.18624648094341245 1
gene  1 18 35 0.9130448109188921 0 1445.0 0.9130448109188921 1
gene  1 24 35 -0.7398805354633412 0 1451.0 -0.7398805354633412 1
gene  1 26 35 0.6008001765639592 0 1453.0 0.6008001765639592 1
gene  1 29 35 -0.43694924539871793 0 1456.0 -0.43694924539871793 1
gene  1 34 35 0.012816341695772615 0 1461.0 0.012816341695772615 1
gene  1 35 35 0.3774514041678829 1 1462.0 0.3774514041678829 1
gene  1 36 35 0.5550521639727484 1 1463.0 0.5550521639727484 1
gene  1 37 35 0.8623329500483182 1 1464.0 0.8623329500483182 1
gene  1 2 36 0.9225201789302633 0 1471.0 0.9225201789302633 1
gene  1 3 36 0.4993462111760969 0 1472.0 0.4993462111760969 1
gene  1 5 36 0.5042754175469109 0 1474.0 0.5042754175469109 1
gene  1 7 36 0.4518871376991035 0 1476.0 0.4518871376991035 1
gene  1 11 36 0.8561573192442116 0 1480.0 0.8561573192442116 1
gene  1 14 36 0.4706854512627324 0 1483.0 0.4706854512627324 1
gene  1 18 36 -0.7681081139631457 0 1487.0 -0.7681081139631457 1
gene  1 19 36 0.08951225945452879 0 1488.0 0.08951225945452879 1
gene  1 20 36 0.1962964296968065 0 1489.0 0.1962964296968065 1
gene  1 23 36 0.2556797538027168 0 1492.0 0.2556797538027168 1
gene  1 25 36 -0.39220778636834863 0 1494.0 -0.39220778636834863 1
gene  1 28 36 0.2008399273947319 0 1497.0 0.2008399273947319 1
gene  1 34 36 0.8293970839173677 0 1503.0 0.8293970839173677 1
gene  1 37 36 0.09299781315713962 1 1506.0 0.09299781315713962 1
gene  1 38 36 0.796958470028422 1 1507.0 0.796958470028422 1
gene  1 40 36 0.8254833148322741 1 1509.0 0.8254833148322741 1
gene  1 1 37 -0.17604082912311703 0 1512.0 -0.17604082912311703 1
gene  1 2 37 -0.6685773801253849 0 1513.0 -0.6685773801253849 1
gene  1 3 37 -0.7668096629507946 0 1514.0 -0.7668096629507946 1
gene  1 5 37 -0.7160051393358783 0 1516.0 -0.7160051393358783 1
gene  1 6 37 0.4643323971899702 0 1517.0 0.4643323971899702 1
gene  1 8 37 0.852176780376405 0 1519.0 0.852176780376405 1
gene  1 9 37 0.9067662791814141 0 1520.0 0.9067662791814141 1
gene  1 13 37 0.047861861696845476 0 1524.0 0.047861861696845476 1
gene  1 14 37 -0.610349971789946 0 1525.0 -0.610349971789946 1
gene  1 15 37 0.5694763900542328 0 1526.0 0.5694763900542328 1
gene  1 16 37 -0.27229477520063794 0 1527.0 -0.27229477520063794 1
gene  1 17 37 -0.10630982872862071 0 1528.0 -0.10630982872862071 1
gene  1 18 37 -0.9878624806674277 0 1529.0 -0.9878624806674277 1
gene  1 19 37 0.667264252054911 0 1530.0 0.667264252054911 1
gene  1 22 37 0.6146017552437135 0 1533.0 0.6146017552437135 1
gene  1 24 37 -0.011498996985644494 0 1535.0 -0.011498996985644494 1
gene  1 25 37 -0.07125627812261415 0 1536.0 -0.07125627812261415 1
gene  1 27 37 -0.8953723247386752 0 1538.0 -0.8953723247386752 1
gene  1 34 37 0.8102285483863209 0 1545.0 0.8102285483863209 1
gene  1 36 37 0.7503659582953861 0 1547.0 0.7503659582953861 1
gene  1 41 37 0.7732646738915223 1 1552.0 0.7732646738915223 1
gene  1 42 37 0.1851404439778379 1 1553.0 0.1851404439778379 1
gene  1 4 38 -0.09441638030586841 0 1557.0 -0.09441638030586841 1
gene  1 8 38 0.836477593969075 0 1561.0 0.836477593969075 1
gene  1 10 38 0.5470827435600679 0 1563.0 0.5470827435600679 1
gene  1 11 38 0.9192182995564607 0 1564.0 0.9192182995564607 1
gene  1 13 38 0.7708308072718388 0 1566.0 0.7708308072718388 1
gene  1 15 38 -0.1340535206733222 0 1568.0 -0.1340535206733222 1
gene  1 16 38 -0.4270682755872375 0 1569.0 -0.4270682755872375 1
gene  1 18 38 -0.6397937880004573 0 1571.0 -0.6397937880004573 1
gene  1 21 38 -0.0019704176764457904 0 1574.0 -0.0019704176764457904 1
gene  1 27 38 0.3117659785580279 0 1580.0 0.3117659785580279 1
gene  1 28 38 -0.011640130357274625 0 1581.0 -0.011640130357274625 1
gene  1 29 38 -0.7695518226127028 0 1582.0 -0.7695518226127028 1
gene  1 34 38 0.01777397296340566 0 1587.0 0.01777397296340566 1
gene  1 35 38 0.07171423069328675 0 1588.0 0.07171423069328675 1
gene  1 37 38 -0.48622755022139963 0 1590.0 -0.48622755022139963 1
gene  1 41 38 -0.1688937385684921 1 1594.0 -0.1688937385684921 1
gene  1 42 38 0.8343069809203052 1 1595.0 0.8343069809203052 1
gene  1 2 39 0.49970344530306265 0 1597.0 0.49970344530306265 1
gene  1 3 39 0.6051114559180508 0 1598.0 0.6051114559180508 1
gene  1 5 39 -0.33062722562100766 0 1600.0 -0.33062722562100766 1
gene  1 6 39 0.11655804141432258 0 1601.0 0.11655804141432258 1
gene  1 9 39 -0.3595095094509553 0 1604.0 -0.3595095094509553 1
gene  1 10 39 0.7325212507178984 0 1605.0 0.7325212507178984 1
gene  1 11 39 0.43529243623388025 0 1606.0 0.43529243623388025 1
gene  1 13 39 0.7127809525469759 0 1608.0 0.7127809525469759 1
gene  1 15 39 -0.895437363602759 0 1610.0 -0.895437363602759 1
gene  1 16 39 -0.6410715593306584 0 1611.0 -0.6410715593306584 1
gene  1 24 39 -0.4317144169823445 0 1619.0 -0.4317144169823445 1
gene  1 26 39 -0.2428334626111338 0 1621.0 -0.2428334626111338 1
gene  1 27 39 -0.18781640472119154 0 1622.0 -0.18781640472119154 1
gene  1 35 39 -0.5070828758715643 0 1630.0 -0.5070828758715643 1
gene  1 36 39 0.4528387244494023 0 1631.0 0.4528387244494023 1
gene  1 37 39 0.8468135680752474 0 1632.0 0.8468135680752474 1
gene  1 38 39 0.5331272203917464 0 1633.0 0.5331272203917464 1
gene  1 39 39 0.07693960896629248 1 1634.0 0.07693960896629248 1
gene  1 41 39 -0.7703579851000193 1 1636.0 -0.7703579851000193 1
gene  1 42 39 0.24708184662168742 1 1637.0 0.24708184662168742 1
gene  1 1 40 0.8866055899981509 0 1638.0 0.8866055899981509 1
gene  1 3 40 0.12769218944089678 0 1640.0 0.12769218944089678 1
gene  1 6 40 0.7863957686027158 0 1643.0 0.7863957686027158 1
gene  1 7 40 -0.8974589794065985 0 1644.0 -0.8974589794065985 1
gene  1 11 40 -0.5371759764848015 0 1648.0 -0.5371759764848015 1
gene  1 12 40 0.3517651769317245 0 1649.0 0.3517651769317245 1
gene  1 16 40 0.26927273671539365 0 1653.0 0.26927273671539365 1
gene  1 17 40 -0.48585338211451057 0 1654.0 -0.48585338211451057 1
gene  1 18 40 -0.793565778098095 0 1655.0 -0.793565778098095 1
gene  1 19 40 0.5749350519391225 0 1656.0 0.5749350519391225 1
gene  1 21 40 -0.7852116044246474 0 1658.0 -0.7852116044246474 1
gene  1 22 40 0.015532206368685908 0 1659.0 0.015532206368685908 1
gene  1 25 40 0.19194451858531203 0 1662.0 0.19194451858531203 1
gene  1 26 40 -0.6055994208888633 0 1663.0 -0.6055994208888633 1
gene  1 34 40 -0.5401854411441157 0 1671.0 -0.5401854411441157 1
gene  1 36 40 -0.2572989348566075 0 1673.0 -0.2572989348566075 1
gene  1 40 40 0.21930943049067997 1 1677.0 0.21930943049067997 1
gene  1 1 41 -0.02056571341139868 0 1680.0 -0.02056571341139868 1
gene  1 2 41 0.21679945250848742 0 1681.0 0.21679945250848742 1
gene  1 3 41 0.4784624810450574 0 1682.0 0.4784624810450574 1
gene  1 6 41 -0.6473505591080597 0 1685.0 -0.6473505591080597 1
gene  1 8 41 -0.24880467737601197 0 1687.0 -0.24880467737601197 1
gene  1 13 41 0.8203145288764985 0 1692.0 0.8203145288764985 1
gene  1 14 41 2.4206679668736797E-5 0 1693.0 2.4206679668736797E-5 1
gene  1 15 41 -0.6373145270485665 0 1694.0 -0.6373145270485665 1
gene  1 16 41 -0.5223812402161371 0 1695.0 -0.5223812402161371 1
gene  1 19 41 0.5952426644912419 0 1698.0 0.5952426644912419 1
gene  1 24 41 0.5931997168038744 0 1703.0 0.5931997168038744 1
gene  1 27 41 0.8904480432375715 0 1706.0 0.8904480432375715 1
gene  1 28 41 0.6475071911952531 0 1707.0 0.6475071911952531 1
gene  1 35 41 -0.15831304033373772 0 1714.0 -0.15831304033373772 1
gene  1 37 41 -0.8293317681705489 0 1716.0 -0.8293317681705489 1
gene  1 38 41 0.3483280516546595 0 1717.0 0.3483280516546595 1
gene  1 39 41 -0.304645649828145 0 1718.0 -0.304645649828145 1
gene  1 40 41 0.6433470737244293 0 1719.0 0.6433470737244293 1
gene  1 2 42 0.8694161828928946 0 1723.0 0.8694161828928946 1
gene  1 5 42 0.5945292618230397 0 1726.0 0.5945292618230397 1
gene  1 7 42 0.3329995724292206 0 1728.0 0.3329995724292206 1
gene  1 8 42 0.7563821978070475 0 1729.0 0.7563821978070475 1
gene  1 13 42 0.49370642136142107 0 1734.0 0.49370642136142107 1
gene  1 18 42 -0.9597765566104067 0 1739.0 -0.9597765566104067 1
gene  1 19 42 -0.48157652365457193 0 1740.0 -0.48157652365457193 1
gene  1 22 42 -0.6923207129545851 0 1743.0 -0.6923207129545851 1
gene  1 25 42 0.3979093035919701 0 1746.0 0.3979093035919701 1
gene  1 28 42 -0.9074862956540092 0 1749.0 -0.9074862956540092 1
gene  1 29 42 -0.6282507686314256 0 1750.0 -0.6282507686314256 1
gene  1 35 42 -0.22389670999333255 0 1756.0 -0.22389670999333255 1
gene  1 36 42 0.4369382201138239 0 1757.0 0.4369382201138239 1
gene  1 42 42 -0.08030001762852745 1 1763.0 -0.08030001762852745 1
genomeend 3
/* Organism # 004 Fitness:  0.000 Error:  0.000                      */
genomestart  4
trait 1 0.0 0.0 0.0 0.0 0.0 0.0 0.0 0.0 
node 1 1 1 1
node 2 1 1 1
node 3 1 1 1
node 4 1 1 1
node 5 1 1 1
node 6 1 1 1
node 7 1 1 1
node 8 1 1 1
node 9 1 1 1
node 10 1 1 1
node 11 1 1 1
node 12 1 1 1
node 13 1 1 1
node 14 1 1 1
node 15 1 1 1
node 16 1 1 1
node 17 1 1 1
node 18 1 1 1
node 19 1 1 1
node 20 1 1 1
node 21 1 1 1
node 22 1 1 1
node 23 1 1 1
node 24 1 1 1
node 25 1 1 1
node 26 1 1 1
node 27 1 1 1
node 28 1 1 3
node 29 1 0 0
node 34 1 0 2
node 35 1 0 2
node 36 1 0 2
node 37 1 0 2
node 38 1 0 2
node 39 1 0 2
node 40 1 0 2
node 41 1 0 2
node 42 1 0 2
gene  1 1 29 0.6758185030671657 0 1176.0 0.6758185030671657 1
gene  1 3 29 -0.3203413988846744 0 1178.0 -0.3203413988846744 1
gene  1 5 29 0.8743010081891269 0 1180.0 0.8743010081891269 1
gene  1 7 29 0.3406603469940368 0 1182.0 0.3406603469940368 1
gene  1 8 29 0.7200226152628779 0 1183.0 0.7200226152628779 1
gene  1 10 29 0.5244824444479511 0 1185.0 0.5244824444479511 1
gene  1 11 29 -0.7327737705839141 0 1186.0 -0.7327737705839141 1
gene  1 13 29 0.21785507748728994 0 1188.0 0.21785507748728994 1
gene  1 15 29 -0.48990003286398165 0 1190.0 -0.48990003286398165 1
gene  1 20 29 -0.3644531624200944 0 1195.0 -0.3644531624200944 1
gene  1 21 29 -0.5299857891463079 0 1196.0 -0.5299857891463079 1
gene  1 22 29 -0.7934472421450228 0 1197.0 -0.7934472421450228 1
gene  1 24 29 -0.6153070957180867 0 1199.0 -0.6153070957180867 1
gene  1 25 29 0.39264844743238714 0 1200.0 0.39264844743238714 1
gene  1 27 29 0.9233521117887165 0 1202.0 0.9233521117887165 1
gene  1 29 29 0.9455302465080944 1 1204.0 0.9455302465080944 1
gene  1 36 29 0.23081129067700934 1 1211.0 0.23081129067700934 1
gene  1 37 29 0.11277435109255385 1 1212.0 0.11277435109255385 1
gene  1 38 29 -0.6249638648480899 1 1213.0 -0.6249638648480899 1
gene  1 39 29 0.13884268670963085 1 1214.0 0.13884268670963085 1
gene  1 41 29 0.5764775298120591 1 1216.0 0.5764775298120591 1
gene  1 42 29 0.3782607871012079 1 1217.0 0.3782607871012079 1
gene  1 3 34 0.47817101396480066 0 1388.0 0.47817101396480066 1
gene  1 4 34 0.45735706017845557 0 1389.0 0.45735706017845557 1
gene  1 6 34 0.37389718311308906 0 1391.0 0.37389718311308906 1
gene  1 7 34 -0.9098898132283981 0 1392.0 -0.9098898132283981 1
gene  1 8 34 0.23359593620277863 0 1393.0 0.23359593620277863 1
gene  1 9 34 -0.28798562333864464 0 1394.0 -0.28798562333864464 1
gene  1 11 34 0.9857954379245333 0 1396.0 0.9857954379245333 1
gene  1 12 34 0.6687195246977798 0 1397.0 0.6687195246977798 1
gene  1 15 34 -0.14542673165064923 0 1400.0 -0.14542673165064923 1
gene  1 16 34 0.43790264484607944 0 1401.0 0.43790264484607944 1
gene  1 17 34 -0.25888358493581154 0 1402.0 -0.25888358493581154 1
gene  1 18 34 -0.06139961364077329 0 1403.0 -0.06139961364077329 1
gene  1 19 34 -0.8710858444962427 0 1404.0 -0.8710858444962427 1
gene  1 20 34 0.6636798044520684 0 1405.0 0.6636798044520684 1
gene  1 22 34 -0.20295323555494138 0 1407.0 -0.20295323555494138 1
gene  1 23 34 0.40540316939369503 0 1408.0 0.40540316939369503 1
gene  1 25 34 0.8606206879854583 0 1410.0 0.8606206879854583 1
gene  1 29 34 -0.6952481481192784 0 1414.0 -0.6952481481192784 1
gene  1 34 34 -0.4005150341402526 1 1419.0 -0.4005150341402526 1
gene  1 41 34 0.5432963521638011 1 1426.0 0.5432963521638011 1
gene  1 1 35 -0.5845817488520947 0 1428.0 -0.5845817488520947 1
gene  1 2 35 -0.2393303635816284 0 1429.0 -0.2393303635816284 1
gene  1 7 35 -0.44341946513915764 0 1434.0 -0.44341946513915764 1
gene  1 8 35 -0.25406743615720406 0 1435.0 -0.25406743615720406 1
gene  1 9 35 0.36077794939701113 0 1436.0 0.36077794939701113 1
gene  1 11 35 0.14250141292261354 0 1438.0 0.14250141292261354 1
gene  1 16 35 0.22558465772380332 0 1443.0 0.22558465772380332 1
gene  1 17 35 -0.18624648094341245 0 1444.0 -0.18624648094341245 1
gene  1 18 35 0.9130448109188921 0 1445.0 0.9130448109188921 1
gene  1 24 35 -0.7398805354633412 0 1451.0 -0.7398805354633412 1
gene  1 26 35 0.6008001765639592 0 1453.0 0.6008001765639592 1
gene  1 29 35 -0.43694924539871793 0 1456.0 -0.43694924539871793 1
gene  1 34 35 0.012816341695772615 0 1461.0 0.012816341695772615 1
gene  1 35 35 0.3774514041678829 1 1462.0 0.3774514041678829 1
gene  1 36 35 0.5550521639727484 1 1463.0 0.5550521639727484 1
gene  1 37 35 0.8623329500483182 1 1464.0 0.8623329500483182 1
gene  1 2 36 0.9225201789302633 0 1471.0 0.9225201789302633 1
gene  1 3 36 0.4993462111760969 0 1472.0 0.4993462111760969 1
gene  1 5 36 0.5042754175469109 0 1474.0 0.5042754175469109 1
gene  1 7 36 0.4518871376991035 0 1476.0 0.4518871376991035 1
gene  1 11 36 0.8561573192442116 0 1480.0 0.8561573192442116 1
gene  1 14 36 0.4706854512627324 0 1483.0 0.4706854512627324 1
gene  1 18 36 -0.7681081139631457 0 1487.0 -0.7681081139631457 1
gene  1 19 36 0.08951225945452879 0 1488.0 0.08951225945452879 1
gene  1 20 36 0.1962964296968065 0 1489.0 0.1962964296968065 1
gene  1 23 36 0.2556797538027168 0 1492.0 0.2556797538027168 1
gene  1 25 36 -0.39220778636834863 0 1494.0 -0.39220778636834863 1
gene  1 28 36 0.2008399273947319 0 1497.0 0.2008399273947319 1
gene  1 34 36 0.8293970839173677 0 1503.0 0.8293970839173677 1
gene  1 37 36 0.09299781315713962 1 1506.0 0.09299781315713962 1
gene  1 38 36 0.796958470028422 1 1507.0 0.796958470028422 1
gene  1 40 36 0.8254833148322741 1 1509.0 0.8254833148322741 1
gene  1 1 37 -0.17604082912311703 0 1512.0 -0.17604082912311703 1
gene  1 2 37 -0.6685773801253849 0 1513.0 -0.6685773801253849 1
gene  1 3 37 -0.7668096629507946 0 1514.0 -0.7668096629507946 1
gene  1 5 37 -0.7160051393358783 0 1516.0 -0.7160051393358783 1
gene  1 6 37 0.4643323971899702 0 1517.0 0.4643323971899702 1
gene  1 8 37 0.852176780376405 0 1519.0 0.852176780376405 1
gene  1 9 37 0.9067662791814141 0 1520.0 0.9067662791814141 1
gene  1 13 37 0.047861861696845476 0 1524.0 0.047861861696845476 1
gene  1 14 37 -0.610349971789946 0 1525.0 -0.610349971789946 1
gene  1 15 37 0.5694763900542328 0 1526.0 0.5694763900542328 1
gene  1 16 37 -0.27229477520063794 0 1527.0 -0.27229477520063794 1
gene  1 17 37 -0.10630982872862071 0 1528.0 -0.10630982872862071 1
gene  1 18 37 -0.9878624806674277 0 1529.0 -0.9878624806674277 1
gene  1 19 37 0.667264252054911 0 1530.0 0.667264252054911 1
gene  1 22 37 0.6146017552437135 0 1533.0 0.6146017552437135 1
gene  1 24 37 -0.011498996985644494 0 1535.0 -0.011498996985644494 1
gene  1 25 37 -0.07125627812261415 0 1536.0 -0.07125627812261415 1
gene  1 27 37 -0.8953723247386752 0 1538.0 -0.8953723247386752 1
gene  1 34 37 0.8102285483863209 0 1545.0 0.8102285483863209 1
gene  1 36 37 0.7503659582953861 0 1547.0 0.7503659582953861 1
gene  1 41 37 0.7732646738915223 1 1552.0 0.7732646738915223 1
gene  1 42 37 0.1851404439778379 1 1553.0 0.1851404439778379 1
gene  1 4 38 -0.09441638030586841 0 1557.0 -0.09441638030586841 1
gene  1 8 38 0.836477593969075 0 1561.0 0.836477593969075 1
gene  1 10 38 0.5470827435600679 0 1563.0 0.5470827435600679 1
gene  1 11 38 0.9192182995564607 0 1564.0 0.9192182995564607 1
gene  1 13 38 0.7708308072718388 0 1566.0 0.7708308072718388 1
gene  1 15 38 -0.1340535206733222 0 1568.0 -0.1340535206733222 1
gene  1 16 38 -0.4270682755872375 0 1569.0 -0.4270682755872375 1
gene  1 18 38 -0.6397937880004573 0 1571.0 -0.6397937880004573 1
gene  1 21 38 -0.0019704176764457904 0 1574.0 -0.0019704176764457904 1
gene  1 27 38 0.3117659785580279 0 1580.0 0.3117659785580279 1
gene  1 28 38 -0.011640130357274625 0 1581.0 -0.011640130357274625 1
gene  1 29 38 -0.7695518226127028 0 1582.0 -0.7695518226127028 1
gene  1 34 38 0.01777397296340566 0 1587.0 0.01777397296340566 1
gene  1 35 38 0.07171423069328675 0 1588.0 0.07171423069328675 1
gene  1 37 38 -0.48622755022139963 0 1590.0 -0.48622755022139963 1
gene  1 41 38 -0.1688937385684921 1 1594.0 -0.1688937385684921 1
gene  1 42 38 0.8343069809203052 1 1595.0 0.8343069809203052 1
gene  1 2 39 0.49970344530306265 0 1597.0 0.49970344530306265 1
gene  1 3 39 0.6051114559180508 0 1598.0 0.6051114559180508 1
gene  1 5 39 -0.33062722562100766 0 1600.0 -0.33062722562100766 1
gene  1 6 39 0.11655804141432258 0 1601.0 0.11655804141432258 1
gene  1 9 39 -0.3595095094509553 0 1604.0 -0.3595095094509553 1
gene  1 10 39 0.7325212507178984 0 1605.0 0.7325212507178984 1
gene  1 11 39 0.43529243623388025 0 1606.0 0.43529243623388025 1
gene  1 13 39 0.7127809525469759 0 1608.0 0.7127809525469759 1
gene  1 15 39 -0.895437363602759 0 1610.0 -0.895437363602759 1
gene  1 16 39 -0.6410715593306584 0 1611.0 -0.6410715593306584 1
gene  1 24 39 -0.4317144169823445 0 1619.0 -0.4317144169823445 1
gene  1 26 39 -0.2428334626111338 0 1621.0 -0.2428334626111338 1
gene  1 27 39 -0.18781640472119154 0 1622.0 -0.18781640472119154 1
gene  1 35 39 -0.5070828758715643 0 1630.0 -0.5070828758715643 1
gene  1 36 39 0.4528387244494023 0 1631.0 0.4528387244494023 1
gene  1 37 39 0.8468135680752474 0 1632.0 0.8468135680752474 1
gene  1 38 39 0.5331272203917464 0 1633.0 0.5331272203917464 1
gene  1 39 39 0.07693960896629248 1 1634.0 0.07693960896629248 1
gene  1 41 39 -0.7703579851000193 1 1636.0 -0.7703579851000193 1
gene  1 42 39 0.24708184662168742 1 1637.0 0.24708184662168742 1
gene  1 1 40 0.8866055899981509 0 1638.0 0.8866055899981509 1
gene  1 3 40 0.12769218944089678 0 1640.0 0.12769218944089678 1
gene  1 6 40 0.7863957686027158 0 1643.0 0.7863957686027158 1
gene  1 7 40 -0.8974589794065985 0 1644.0 -0.8974589794065985 1
gene  1 11 40 -0.5371759764848015 0 1648.0 -0.5371759764848015 1
gene  1 12 40 0.3517651769317245 0 1649.0 0.3517651769317245 1
gene  1 16 40 0.26927273671539365 0 1653.0 0.26927273671539365 1
gene  1 17 40 -0.48585338211451057 0 1654.0 -0.48585338211451057 1
gene  1 18 40 -0.793565778098095 0 1655.0 -0.793565778098095 1
gene  1 19 40 0.5749350519391225 0 1656.0 0.5749350519391225 1
gene  1 21 40 -0.7852116044246474 0 1658.0 -0.7852116044246474 1
gene  1 22 40 0.015532206368685908 0 1659.0 0.015532206368685908 1
gene  1 25 40 0.19194451858531203 0 1662.0 0.19194451858531203 1
gene  1 26 40 -0.6055994208888633 0 1663.0 -0.6055994208888633 1
gene  1 34 40 -0.5401854411441157 0 1671.0 -0.5401854411441157 1
gene  1 36 40 -0.2572989348566075 0 1673.0 -0.2572989348566075 1
gene  1 40 40 0.21930943049067997 1 1677.0 0.21930943049067997 1
gene  1 1 41 -0.02056571341139868 0 1680.0 -0.02056571341139868 1
gene  1 2 41 0.21679945250848742 0 1681.0 0.21679945250848742 1
gene  1 3 41 0.4784624810450574 0 1682.0 0.4784624810450574 1
gene  1 6 41 -0.6473505591080597 0 1685.0 -0.6473505591080597 1
gene  1 8 41 -0.24880467737601197 0 1687.0 -0.24880467737601197 1
gene  1 13 41 0.8203145288764985 0 1692.0 0.8203145288764985 1
gene  1 14 41 2.4206679668736797E-5 0 1693.0 2.4206679668736797E-5 1
gene  1 15 41 -0.6373145270485665 0 1694.0 -0.6373145270485665 1
gene  1 16 41 -0.5223812402161371 0 1695.0 -0.5223812402161371 1
gene  1 19 41 0.5952426644912419 0 1698.0 0.5952426644912419 1
gene  1 24 41 0.5931997168038744 0 1703.0 0.5931997168038744 1
gene  1 27 41 0.8904480432375715 0 1706.0 0.8904480432375715 1
gene  1 28 41 0.6475071911952531 0 1707.0 0.6475071911952531 1
gene  1 35 41 -0.15831304033373772 0 1714.0 -0.15831304033373772 1
gene  1 37 41 -0.8293317681705489 0 1716.0 -0.8293317681705489 1
gene  1 38 41 0.3483280516546595 0 1717.0 0.3483280516546595 1
gene  1 39 41 -0.304645649828145 0 1718.0 -0.304645649828145 1
gene  1 40 41 0.6433470737244293 0 1719.0 0.6433470737244293 1
gene  1 2 42 0.8694161828928946 0 1723.0 0.8694161828928946 1
gene  1 5 42 0.5945292618230397 0 1726.0 0.5945292618230397 1
gene  1 7 42 0.3329995724292206 0 1728.0 0.3329995724292206 1
gene  1 8 42 0.7563821978070475 0 1729.0 0.7563821978070475 1
gene  1 13 42 0.49370642136142107 0 1734.0 0.49370642136142107 1
gene  1 18 42 -0.9597765566104067 0 1739.0 -0.9597765566104067 1
gene  1 19 42 -0.48157652365457193 0 1740.0 -0.48157652365457193 1
gene  1 22 42 -0.6923207129545851 0 1743.0 -0.6923207129545851 1
gene  1 25 42 0.3979093035919701 0 1746.0 0.3979093035919701 1
gene  1 28 42 -0.9074862956540092 0 1749.0 -0.9074862956540092 1
gene  1 29 42 -0.6282507686314256 0 1750.0 -0.6282507686314256 1
gene  1 35 42 -0.22389670999333255 0 1756.0 -0.22389670999333255 1
gene  1 36 42 0.4369382201138239 0 1757.0 0.4369382201138239 1
gene  1 42 42 -0.08030001762852745 1 1763.0 -0.08030001762852745 1
genomeend 4
/* Organism # 005 Fitness:  0.000 Error:  0.000                      */
genomestart  5
trait 1 0.0 0.0 0.0 0.0 0.0 0.0 0.0 0.0 
node 1 1 1 1
node 2 1 1 1
node 3 1 1 1
node 4 1 1 1
node 5 1 1 1
node 6 1 1 1
node 7 1 1 1
node 8 1 1 1
node 9 1 1 1
node 10 1 1 1
node 11 1 1 1
node 12 1 1 1
node 13 1 1 1
node 14 1 1 1
node 15 1 1 1
node 16 1 1 1
node 17 1 1 1
node 18 1 1 1
node 19 1 1 1
node 20 1 1 1
node 21 1 1 1
node 22 1 1 1
node 23 1 1 1
node 24 1 1 1
node 25 1 1 1
node 26 1 1 1
node 27 1 1 1
node 28 1 1 3
node 29 1 0 0
node 34 1 0 2
node 35 1 0 2
node 36 1 0 2
node 37 1 0 2
node 38 1 0 2
node 39 1 0 2
node 40 1 0 2
node 41 1 0 2
node 42 1 0 2
gene  1 1 29 0.6758185030671657 0 1176.0 0.6758185030671657 1
gene  1 3 29 -0.3203413988846744 0 1178.0 -0.3203413988846744 1
gene  1 5 29 0.8743010081891269 0 1180.0 0.8743010081891269 1
gene  1 7 29 0.3406603469940368 0 1182.0 0.3406603469940368 1
gene  1 8 29 0.7200226152628779 0 1183.0 0.7200226152628779 1
gene  1 10 29 0.5244824444479511 0 1185.0 0.5244824444479511 1
gene  1 11 29 -0.7327737705839141 0 1186.0 -0.7327737705839141 1
gene  1 13 29 0.21785507748728994 0 1188.0 0.21785507748728994 1
gene  1 15 29 -0.48990003286398165 0 1190.0 -0.48990003286398165 1
gene  1 20 29 -0.3644531624200944 0 1195.0 -0.3644531624200944 1
gene  1 21 29 -0.5299857891463079 0 1196.0 -0.5299857891463079 1
gene  1 22 29 -0.7934472421450228 0 1197.0 -0.7934472421450228 1
gene  1 24 29 -0.6153070957180867 0 1199.0 -0.6153070957180867 1
gene  1 25 29 0.39264844743238714 0 1200.0 0.39264844743238714 1
gene  1 27 29 0.9233521117887165 0 1202.0 0.9233521117887165 1
gene  1 29 29 0.9455302465080944 1 1204.0 0.9455302465080944 1
gene  1 36 29 0.23081129067700934 1 1211.0 0.23081129067700934 1
gene  1 37 29 0.11277435109255385 1 1212.0 0.11277435109255385 1
gene  1 38 29 -0.6249638648480899 1 1213.0 -0.6249638648480899 1
gene  1 39 29 0.13884268670963085 1 1214.0 0.13884268670963085 1
gene  1 41 29 0.5764775298120591 1 1216.0 0.5764775298120591 1
gene  1 42 29 0.3782607871012079 1 1217.0 0.3782607871012079 1
gene  1 3 34 0.47817101396480066 0 1388.0 0.47817101396480066 1
gene  1 4 34 0.45735706017845557 0 1389.0 0.45735706017845557 1
gene  1 6 34 0.37389718311308906 0 1391.0 0.37389718311308906 1
gene  1 7 34 -0.9098898132283981 0 1392.0 -0.9098898132283981 1
gene  1 8 34 0.23359593620277863 0 1393.0 0.23359593620277863 1
gene  1 9 34 -0.28798562333864464 0 1394.0 -0.28798562333864464 1
gene  1 11 34 0.9857954379245333 0 1396.0 0.9857954379245333 1
gene  1 12 34 0.6687195246977798 0 1397.0 0.6687195246977798 1
gene  1 15 34 -0.14542673165064923 0 1400.0 -0.14542673165064923 1
gene  1 16 34 0.43790264484607944 0 1401.0 0.43790264484607944 1
gene  1 17 34 -0.25888358493581154 0 1402.0 -0.25888358493581154 1
gene  1 18 34 -0.06139961364077329 0 1403.0 -0.06139961364077329 1
gene  1 19 34 -0.8710858444962427 0 1404.0 -0.8710858444962427 1
gene  1 20 34 0.6636798044520684 0 1405.0 0.6636798044520684 1
gene  1 22 34 -0.20295323555494138 0 1407.0 -0.20295323555494138 1
gene  1 23 34 0.40540316939369503 0 1408.0 0.40540316939369503 1
gene  1 25 34 0.8606206879854583 0 1410.0 0.8606206879854583 1
gene  1 29 34 -0.6952481481192784 0 1414.0 -0.6952481481192784 1
gene  1 34 34 -0.4005150341402526 1 1419.0 -0.4005150341402526 1
gene  1 41 34 0.5432963521638011 1 1426.0 0.5432963521638011 1
gene  1 1 35 -0.5845817488520947 0 1428.0 -0.5845817488520947 1
gene  1 2 35 -0.2393303635816284 0 1429.0 -0.2393303635816284 1
gene  1 7 35 -0.44341946513915764 0 1434.0 -0.44341946513915764 1
gene  1 8 35 -0.25406743615720406 0 1435.0 -0.25406743615720406 1
gene  1 9 35 0.36077794939701113 0 1436.0 0.36077794939701113 1
gene  1 11 35 0.14250141292261354 0 1438.0 0.14250141292261354 1
gene  1 16 35 0.22558465772380332 0 1443.0 0.22558465772380332 1
gene  1 17 35 -0.18624648094341245 0 1444.0 -0.18624648094341245 1
gene  1 18 35 0.9130448109188921 0 1445.0 0.9130448109188921 1
gene  1 24 35 -0.7398805354633412 0 1451.0 -0.7398805354633412 1
gene  1 26 35 0.6008001765639592 0 1453.0 0.6008001765639592 1
gene  1 29 35 -0.43694924539871793 0 1456.0 -0.43694924539871793 1
gene  1 34 35 0.012816341695772615 0 1461.0 0.012816341695772615 1
gene  1 35 35 0.3774514041678829 1 1462.0 0.3774514041678829 1
gene  1 36 35 0.5550521639727484 1 1463.0 0.5550521639727484 1
gene  1 37 35 0.8623329500483182 1 1464.0 0.8623329500483182 1
gene  1 2 36 0.9225201789302633 0 1471.0 0.9225201789302633 1
gene  1 3 36 0.4993462111760969 0 1472.0 0.4993462111760969 1
gene  1 5 36 0.5042754175469109 0 1474.0 0.5042754175469109 1
gene  1 7 36 0.4518871376991035 0 1476.0 0.4518871376991035 1
gene  1 11 36 0.8561573192442116 0 1480.0 0.8561573192442116 1
gene  1 14 36 0.4706854512627324 0 1483.0 0.4706854512627324 1
gene  1 18 36 -0.7681081139631457 0 1487.0 -0.7681081139631457 1
gene  1 19 36 0.08951225945452879 0 1488.0 0.08951225945452879 1
gene  1 20 36 0.1962964296968065 0 1489.0 0.1962964296968065 1
gene  1 23 36 0.2556797538027168 0 1492.0 0.2556797538027168 1
gene  1 25 36 -0.39220778636834863 0 1494.0 -0.39220778636834863 1
gene  1 28 36 0.2008399273947319 0 1497.0 0.2008399273947319 1
gene  1 34 36 0.8293970839173677 0 1503.0 0.8293970839173677 1
gene  1 37 36 0.09299781315713962 1 1506.0 0.09299781315713962 1
gene  1 38 36 0.796958470028422 1 1507.0 0.796958470028422 1
gene  1 40 36 0.8254833148322741 1 1509.0 0.8254833148322741 1
gene  1 1 37 -0.17604082912311703 0 1512.0 -0.17604082912311703 1
gene  1 2 37 -0.6685773801253849 0 1513.0 -0.6685773801253849 1
gene  1 3 37 -0.7668096629507946 0 1514.0 -0.7668096629507946 1
gene  1 5 37 -0.7160051393358783 0 1516.0 -0.7160051393358783 1
gene  1 6 37 0.4643323971899702 0 1517.0 0.4643323971899702 1
gene  1 8 37 0.852176780376405 0 1519.0 0.852176780376405 1
gene  1 9 37 0.9067662791814141 0 1520.0 0.9067662791814141 1
gene  1 13 37 0.047861861696845476 0 1524.0 0.047861861696845476 1
gene  1 14 37 -0.610349971789946 0 1525.0 -0.610349971789946 1
gene  1 15 37 0.5694763900542328 0 1526.0 0.5694763900542328 1
gene  1 16 37 -0.27229477520063794 0 1527.0 -0.27229477520063794 1
gene  1 17 37 -0.10630982872862071 0 1528.0 -0.10630982872862071 1
gene  1 18 37 -0.9878624806674277 0 1529.0 -0.9878624806674277 1
gene  1 19 37 0.667264252054911 0 1530.0 0.667264252054911 1
gene  1 22 37 0.6146017552437135 0 1533.0 0.6146017552437135 1
gene  1 24 37 -0.011498996985644494 0 1535.0 -0.011498996985644494 1
gene  1 25 37 -0.07125627812261415 0 1536.0 -0.07125627812261415 1
gene  1 27 37 -0.8953723247386752 0 1538.0 -0.8953723247386752 1
gene  1 34 37 0.8102285483863209 0 1545.0 0.8102285483863209 1
gene  1 36 37 0.7503659582953861 0 1547.0 0.7503659582953861 1
gene  1 41 37 0.7732646738915223 1 1552.0 0.7732646738915223 1
gene  1 42 37 0.1851404439778379 1 1553.0 0.1851404439778379 1
gene  1 4 38 -0.09441638030586841 0 1557.0 -0.09441638030586841 1
gene  1 8 38 0.836477593969075 0 1561.0 0.836477593969075 1
gene  1 10 38 0.5470827435600679 0 1563.0 0.5470827435600679 1
gene  1 11 38 0.9192182995564607 0 1564.0 0.9192182995564607 1
gene  1 13 38 0.7708308072718388 0 1566.0 0.7708308072718388 1
gene  1 15 38 -0.1340535206733222 0 1568.0 -0.1340535206733222 1
gene  1 16 38 -0.4270682755872375 0 1569.0 -0.4270682755872375 1
gene  1 18 38 -0.6397937880004573 0 1571.0 -0.6397937880004573 1
gene  1 21 38 -0.0019704176764457904 0 1574.0 -0.0019704176764457904 1
gene  1 27 38 0.3117659785580279 0 1580.0 0.3117659785580279 1
gene  1 28 38 -0.011640130357274625 0 1581.0 -0.011640130357274625 1
gene  1 29 38 -0.7695518226127028 0 1582.0 -0.7695518226127028 1
gene  1 34 38 0.01777397296340566 0 1587.0 0.01777397296340566 1
gene  1 35 38 0.07171423069328675 0 1588.0 0.07171423069328675 1
gene  1 37 38 -0.48622755022139963 0 1590.0 -0.48622755022139963 1
gene  1 41 38 -0.1688937385684921 1 1594.0 -0.1688937385684921 1
gene  1 42 38 0.8343069809203052 1 1595.0 0.8343069809203052 1
gene  1 2 39 0.49970344530306265 0 1597.0 0.49970344530306265 1
gene  1 3 39 0.6051114559180508 0 1598.0 0.6051114559180508 1
gene  1 5 39 -0.33062722562100766 0 1600.0 -0.33062722562100766 1
gene  1 6 39 0.11655804141432258 0 1601.0 0.11655804141432258 1
gene  1 9 39 -0.3595095094509553 0 1604.0 -0.3595095094509553 1
gene  1 10 39 0.7325212507178984 0 1605.0 0.7325212507178984 1
gene  1 11 39 0.43529243623388025 0 1606.0 0.43529243623388025 1
gene  1 13 39 0.7127809525469759 0 1608.0 0.7127809525469759 1
gene  1 15 39 -0.895437363602759 0 1610.0 -0.895437363602759 1
gene  1 16 39 -0.6410715593306584 0 1611.0 -0.6410715593306584 1
gene  1 24 39 -0.4317144169823445 0 1619.0 -0.4317144169823445 1
gene  1 26 39 -0.2428334626111338 0 1621.0 -0.2428334626111338 1
gene  1 27 39 -0.18781640472119154 0 1622.0 -0.18781640472119154 1
gene  1 35 39 -0.5070828758715643 0 1630.0 -0.5070828758715643 1
gene  1 36 39 0.4528387244494023 0 1631.0 0.4528387244494023 1
gene  1 37 39 0.8468135680752474 0 1632.0 0.8468135680752474 1
gene  1 38 39 0.5331272203917464 0 1633.0 0.5331272203917464 1
gene  1 39 39 0.07693960896629248 1 1634.0 0.07693960896629248 1
gene  1 41 39 -0.7703579851000193 1 1636.0 -0.7703579851000193 1
gene  1 42 39 0.24708184662168742 1 1637.0 0.24708184662168742 1
gene  1 1 40 0.8866055899981509 0 1638.0 0.8866055899981509 1
gene  1 3 40 0.12769218944089678 0 1640.0 0.12769218944089678 1
gene  1 6 40 0.7863957686027158 0 1643.0 0.7863957686027158 1
gene  1 7 40 -0.8974589794065985 0 1644.0 -0.8974589794065985 1
gene  1 11 40 -0.5371759764848015 0 1648.0 -0.5371759764848015 1
gene  1 12 40 0.3517651769317245 0 1649.0 0.3517651769317245 1
gene  1 16 40 0.26927273671539365 0 1653.0 0.26927273671539365 1
gene  1 17 40 -0.48585338211451057 0 1654.0 -0.48585338211451057 1
gene  1 18 40 -0.793565778098095 0 1655.0 -0.793565778098095 1
gene  1 19 40 0.5749350519391225 0 1656.0 0.5749350519391225 1
gene  1 21 40 -0.7852116044246474 0 1658.0 -0.7852116044246474 1
gene  1 22 40 0.015532206368685908 0 1659.0 0.015532206368685908 1
gene  1 25 40 0.19194451858531203 0 1662.0 0.19194451858531203 1
gene  1 26 40 -0.6055994208888633 0 1663.0 -0.6055994208888633 1
gene  1 34 40 -0.5401854411441157 0 1671.0 -0.5401854411441157 1
gene  1 36 40 -0.2572989348566075 0 1673.0 -0.2572989348566075 1
gene  1 40 40 0.21930943049067997 1 1677.0 0.21930943049067997 1
gene  1 1 41 -0.02056571341139868 0 1680.0 -0.02056571341139868 1
gene  1 2 41 0.21679945250848742 0 1681.0 0.21679945250848742 1
gene  1 3 41 0.4784624810450574 0 1682.0 0.4784624810450574 1
gene  1 6 41 -0.6473505591080597 0 1685.0 -0.6473505591080597 1
gene  1 8 41 -0.24880467737601197 0 1687.0 -0.24880467737601197 1
gene  1 13 41 0.8203145288764985 0 1692.0 0.8203145288764985 1
gene  1 14 41 2.4206679668736797E-5 0 1693.0 2.4206679668736797E-5 1
gene  1 15 41 -0.6373145270485665 0 1694.0 -0.6373145270485665 1
gene  1 16 41 -0.5223812402161371 0 1695.0 -0.5223812402161371 1
gene  1 19 41 0.5952426644912419 0 1698.0 0.5952426644912419 1
gene  1 24 41 0.5931997168038744 0 1703.0 0.5931997168038744 1
gene  1 27 41 0.8904480432375715 0 1706.0 0.8904480432375715 1
gene  1 28 41 0.6475071911952531 0 1707.0 0.6475071911952531 1
gene  1 35 41 -0.15831304033373772 0 1714.0 -0.15831304033373772 1
gene  1 37 41 -0.8293317681705489 0 1716.0 -0.8293317681705489 1
gene  1 38 41 0.3483280516546595 0 1717.0 0.3483280516546595 1
gene  1 39 41 -0.304645649828145 0 1718.0 -0.304645649828145 1
gene  1 40 41 0.6433470737244293 0 1719.0 0.6433470737244293 1
gene  1 2 42 0.8694161828928946 0 1723.0 0.8694161828928946 1
gene  1 5 42 0.5945292618230397 0 1726.0 0.5945292618230397 1
gene  1 7 42 0.3329995724292206 0 1728.0 0.3329995724292206 1
gene  1 8 42 0.7563821978070475 0 1729.0 0.7563821978070475 1
gene  1 13 42 0.49370642136142107 0 1734.0 0.49370642136142107 1
gene  1 18 42 -0.9597765566104067 0 1739.0 -0.9597765566104067 1
gene  1 19 42 -0.48157652365457193 0 1740.0 -0.48157652365457193 1
gene  1 22 42 -0.6923207129545851 0 1743.0 -0.6923207129545851 1
gene  1 25 42 0.3979093035919701 0 1746.0 0.3979093035919701 1
gene  1 28 42 -0.9074862956540092 0 1749.0 -0.9074862956540092 1
gene  1 29 42 -0.6282507686314256 0 1750.0 -0.6282507686314256 1
gene  1 35 42 -0.22389670999333255 0 1756.0 -0.22389670999333255 1
gene  1 36 42 0.4369382201138239 0 1757.0 0.4369382201138239 1
gene  1 42 42 -0.08030001762852745 1 1763.0 -0.08030001762852745 1
genomeend 5
/* Organism # 006 Fitness:  0.000 Error:  0.000                      */
genomestart  6
trait 1 0.0 0.0 0.0 0.0 0.0 0.0 0.0 0.0 
node 1 1 1 1
node 2 1 1 1
node 3 1 1 1
node 4 1 1 1
node 5 1 1 1
node 6 1 1 1
node 7 1 1 1
node 8 1 1 1
node 9 1 1 1
node 10 1 1 1
node 11 1 1 1
node 12 1 1 1
node 13 1 1 1
node 14 1 1 1
node 15 1 1 1
node 16 1 1 1
node 17 1 1 1
node 18 1 1 1
node 19 1 1 1
node 20 1 1 1
node 21 1 1 1
node 22 1 1 1
node 23 1 1 1
node 24 1 1 1
node 25 1 1 1
node 26 1 1 1
node 27 1 1 1
node 28 1 1 3
node 29 1 0 0
node 34 1 0 2
node 35 1 0 2
node 36 1 0 2
node 37 1 0 2
node 38 1 0 2
node 39 1 0 2
node 40 1 0 2
node 41 1 0 2
node 42 1 0 2
gene  1 1 29 0.6758185030671657 0 1176.0 0.6758185030671657 1
gene  1 3 29 -0.3203413988846744 0 1178.0 -0.3203413988846744 1
gene  1 5 29 0.8743010081891269 0 1180.0 0.8743010081891269 1
gene  1 7 29 0.3406603469940368 0 1182.0 0.3406603469940368 1
gene  1 8 29 0.7200226152628779 0 1183.0 0.7200226152628779 1
gene  1 10 29 0.5244824444479511 0 1185.0 0.5244824444479511 1
gene  1 11 29 -0.7327737705839141 0 1186.0 -0.7327737705839141 1
gene  1 13 29 0.21785507748728994 0 1188.0 0.21785507748728994 1
gene  1 15 29 -0.48990003286398165 0 1190.0 -0.48990003286398165 1
gene  1 20 29 -0.3644531624200944 0 1195.0 -0.3644531624200944 1
gene  1 21 29 -0.5299857891463079 0 1196.0 -0.5299857891463079 1
gene  1 22 29 -0.7934472421450228 0 1197.0 -0.7934472421450228 1
gene  1 24 29 -0.6153070957180867 0 1199.0 -0.6153070957180867 1
gene  1 25 29 0.39264844743238714 0 1200.0 0.39264844743238714 1
gene  1 27 29 0.9233521117887165 0 1202.0 0.9233521117887165 1
gene  1 29 29 0.9455302465080944 1 1204.0 0.9455302465080944 1
gene  1 36 29 0.23081129067700934 1 1211.0 0.23081129067700934 1
gene  1 37 29 0.11277435109255385 1 1212.0 0.11277435109255385 1
gene  1 38 29 -0.6249638648480899 1 1213.0 -0.6249638648480899 1
gene  1 39 29 0.13884268670963085 1 1214.0 0.13884268670963085 1
gene  1 41 29 0.5764775298120591 1 1216.0 0.5764775298120591 1
gene  1 42 29 0.3782607871012079 1 1217.0 0.3782607871012079 1
gene  1 3 34 0.47817101396480066 0 1388.0 0.47817101396480066 1
gene  1 4 34 0.45735706017845557 0 1389.0 0.45735706017845557 1
gene  1 6 34 0.37389718311308906 0 1391.0 0.37389718311308906 1
gene  1 7 34 -0.9098898132283981 0 1392.0 -0.9098898132283981 1
gene  1 8 34 0.23359593620277863 0 1393.0 0.23359593620277863 1
gene  1 9 34 -0.28798562333864464 0 1394.0 -0.28798562333864464 1
gene  1 11 34 0.9857954379245333 0 1396.0 0.9857954379245333 1
gene  1 12 34 0.6687195246977798 0 1397.0 0.6687195246977798 1
gene  1 15 34 -0.14542673165064923 0 1400.0 -0.14542673165064923 1
gene  1 16 34 0.43790264484607944 0 1401.0 0.43790264484607944 1
gene  1 17 34 -0.25888358493581154 0 1402.0 -0.25888358493581154 1
gene  1 18 34 -0.06139961364077329 0 1403.0 -0.06139961364077329 1
gene  1 19 34 -0.8710858444962427 0 1404.0 -0.8710858444962427 1
gene  1 20 34 0.6636798044520684 0 1405.0 0.6636798044520684 1
gene  1 22 34 -0.20295323555494138 0 1407.0 -0.20295323555494138 1
gene  1 23 34 0.40540316939369503 0 1408.0 0.40540316939369503 1
gene  1 25 34 0.8606206879854583 0 1410.0 0.8606206879854583 1
gene  1 29 34 -0.6952481481192784 0 1414.0 -0.6952481481192784 1
gene  1 34 34 -0.4005150341402526 1 1419.0 -0.4005150341402526 1
gene  1 41 34 0.5432963521638011 1 1426.0 0.5432963521638011 1
gene  1 1 35 -0.5845817488520947 0 1428.0 -0.5845817488520947 1
gene  1 2 35 -0.2393303635816284 0 1429.0 -0.2393303635816284 1
gene  1 7 35 -0.44341946513915764 0 1434.0 -0.44341946513915764 1
gene  1 8 35 -0.25406743615720406 0 1435.0 -0.25406743615720406 1
gene  1 9 35 0.36077794939701113 0 1436.0 0.36077794939701113 1
gene  1 11 35 0.14250141292261354 0 1438.0 0.14250141292261354 1
gene  1 16 35 0.22558465772380332 0 1443.0 0.22558465772380332 1
gene  1 17 35 -0.18624648094341245 0 1444.0 -0.18624648094341245 1
gene  1 18 35 0.9130448109188921 0 1445.0 0.9130448109188921 1
gene  1 24 35 -0.7398805354633412 0 1451.0 -0.7398805354633412 1
gene  1 26 35 0.6008001765639592 0 1453.0 0.6008001765639592 1
gene  1 29 35 -0.43694924539871793 0 1456.0 -0.43694924539871793 1
gene  1 34 35 0.012816341695772615 0 1461.0 0.012816341695772615 1
gene  1 35 35 0.3774514041678829 1 1462.0 0.3774514041678829 1
gene  1 36 35 0.5550521639727484 1 1463.0 0.5550521639727484 1
gene  1 37 35 0.8623329500483182 1 1464.0 0.8623329500483182 1
gene  1 2 36 0.9225201789302633 0 1471.0 0.9225201789302633 1
gene  1 3 36 0.4993462111760969 0 1472.0 0.4993462111760969 1
gene  1 5 36 0.5042754175469109 0 1474.0 0.5042754175469109 1
gene  1 7 36 0.4518871376991035 0 1476.0 0.4518871376991035 1
gene  1 11 36 0.8561573192442116 0 1480.0 0.8561573192442116 1
gene  1 14 36 0.4706854512627324 0 1483.0 0.4706854512627324 1
gene  1 18 36 -0.7681081139631457 0 1487.0 -0.7681081139631457 1
gene  1 19 36 0.08951225945452879 0 1488.0 0.08951225945452879 1
gene  1 20 36 0.1962964296968065 0 1489.0 0.1962964296968065 1
gene  1 23 36 0.2556797538027168 0 1492.0 0.2556797538027168 1
gene  1 25 36 -0.39220778636834863 0 1494.0 -0.39220778636834863 1
gene  1 28 36 0.2008399273947319 0 1497.0 0.2008399273947319 1
gene  1 34 36 0.8293970839173677 0 1503.0 0.8293970839173677 1
gene  1 37 36 0.09299781315713962 1 1506.0 0.09299781315713962 1
gene  1 38 36 0.796958470028422 1 1507.0 0.796958470028422 1
gene  1 40 36 0.8254833148322741 1 1509.0 0.8254833148322741 1
gene  1 1 37 -0.17604082912311703 0 1512.0 -0.17604082912311703 1
gene  1 2 37 -0.6685773801253849 0 1513.0 -0.6685773801253849 1
gene  1 3 37 -0.7668096629507946 0 1514.0 -0.7668096629507946 1
gene  1 5 37 -0.7160051393358783 0 1516.0 -0.7160051393358783 1
gene  1 6 37 0.4643323971899702 0 1517.0 0.4643323971899702 1
gene  1 8 37 0.852176780376405 0 1519.0 0.852176780376405 1
gene  1 9 37 0.9067662791814141 0 1520.0 0.9067662791814141 1
gene  1 13 37 0.047861861696845476 0 1524.0 0.047861861696845476 1
gene  1 14 37 -0.610349971789946 0 1525.0 -0.610349971789946 1
gene  1 15 37 0.5694763900542328 0 1526.0 0.5694763900542328 1
gene  1 16 37 -0.27229477520063794 0 1527.0 -0.27229477520063794 1
gene  1 17 37 -0.10630982872862071 0 1528.0 -0.10630982872862071 1
gene  1 18 37 -0.9878624806674277 0 1529.0 -0.9878624806674277 1
gene  1 19 37 0.667264252054911 0 1530.0 0.667264252054911 1
gene  1 22 37 0.6146017552437135 0 1533.0 0.6146017552437135 1
gene  1 24 37 -0.011498996985644494 0 1535.0 -0.011498996985644494 1
gene  1 25 37 -0.07125627812261415 0 1536.0 -0.07125627812261415 1
gene  1 27 37 -0.8953723247386752 0 1538.0 -0.8953723247386752 1
gene  1 34 37 0.8102285483863209 0 1545.0 0.8102285483863209 1
gene  1 36 37 0.7503659582953861 0 1547.0 0.7503659582953861 1
gene  1 41 37 0.7732646738915223 1 1552.0 0.7732646738915223 1
gene  1 42 37 0.1851404439778379 1 1553.0 0.1851404439778379 1
gene  1 4 38 -0.09441638030586841 0 1557.0 -0.09441638030586841 1
gene  1 8 38 0.836477593969075 0 1561.0 0.836477593969075 1
gene  1 10 38 0.5470827435600679 0 1563.0 0.5470827435600679 1
gene  1 11 38 0.9192182995564607 0 1564.0 0.9192182995564607 1
gene  1 13 38 0.7708308072718388 0 1566.0 0.7708308072718388 1
gene  1 15 38 -0.1340535206733222 0 1568.0 -0.1340535206733222 1
gene  1 16 38 -0.4270682755872375 0 1569.0 -0.4270682755872375 1
gene  1 18 38 -0.6397937880004573 0 1571.0 -0.6397937880004573 1
gene  1 21 38 -0.0019704176764457904 0 1574.0 -0.0019704176764457904 1
gene  1 27 38 0.3117659785580279 0 1580.0 0.3117659785580279 1
gene  1 28 38 -0.011640130357274625 0 1581.0 -0.011640130357274625 1
gene  1 29 38 -0.7695518226127028 0 1582.0 -0.7695518226127028 1
gene  1 34 38 0.01777397296340566 0 1587.0 0.01777397296340566 1
gene  1 35 38 0.07171423069328675 0 1588.0 0.07171423069328675 1
gene  1 37 38 -0.48622755022139963 0 1590.0 -0.48622755022139963 1
gene  1 41 38 -0.1688937385684921 1 1594.0 -0.1688937385684921 1
gene  1 42 38 0.8343069809203052 1 1595.0 0.8343069809203052 1
gene  1 2 39 0.49970344530306265 0 1597.0 0.49970344530306265 1
gene  1 3 39 0.6051114559180508 0 1598.0 0.6051114559180508 1
gene  1 5 39 -0.33062722562100766 0 1600.0 -0.33062722562100766 1
gene  1 6 39 0.11655804141432258 0 1601.0 0.11655804141432258 1
gene  1 9 39 -0.3595095094509553 0 1604.0 -0.3595095094509553 1
gene  1 10 39 0.7325212507178984 0 1605.0 0.7325212507178984 1
gene  1 11 39 0.43529243623388025 0 1606.0 0.43529243623388025 1
gene  1 13 39 0.7127809525469759 0 1608.0 0.7127809525469759 1
gene  1 15 39 -0.895437363602759 0 1610.0 -0.895437363602759 1
gene  1 16 39 -0.6410715593306584 0 1611.0 -0.6410715593306584 1
gene  1 24 39 -0.4317144169823445 0 1619.0 -0.4317144169823445 1
gene  1 26 39 -0.2428334626111338 0 1621.0 -0.2428334626111338 1
gene  1 27 39 -0.18781640472119154 0 1622.0 -0.18781640472119154 1
gene  1 35 39 -0.5070828758715643 0 1630.0 -0.5070828758715643 1
gene  1 36 39 0.4528387244494023 0 1631.0 0.4528387244494023 1
gene  1 37 39 0.8468135680752474 0 1632.0 0.8468135680752474 1
gene  1 38 39 0.5331272203917464 0 1633.0 0.5331272203917464 1
gene  1 39 39 0.07693960896629248 1 1634.0 0.07693960896629248 1
gene  1 41 39 -0.7703579851000193 1 1636.0 -0.7703579851000193 1
gene  1 42 39 0.24708184662168742 1 1637.0 0.24708184662168742 1
gene  1 1 40 0.8866055899981509 0 1638.0 0.8866055899981509 1
gene  1 3 40 0.12769218944089678 0 1640.0 0.12769218944089678 1
gene  1 6 40 0.7863957686027158 0 1643.0 0.7863957686027158 1
gene  1 7 40 -0.8974589794065985 0 1644.0 -0.8974589794065985 1
gene  1 11 40 -0.5371759764848015 0 1648.0 -0.5371759764848015 1
gene  1 12 40 0.3517651769317245 0 1649.0 0.3517651769317245 1
gene  1 16 40 0.26927273671539365 0 1653.0 0.26927273671539365 1
gene  1 17 40 -0.48585338211451057 0 1654.0 -0.48585338211451057 1
gene  1 18 40 -0.793565778098095 0 1655.0 -0.793565778098095 1
gene  1 19 40 0.5749350519391225 0 1656.0 0.5749350519391225 1
gene  1 21 40 -0.7852116044246474 0 1658.0 -0.7852116044246474 1
gene  1 22 40 0.015532206368685908 0 1659.0 0.015532206368685908 1
gene  1 25 40 0.19194451858531203 0 1662.0 0.19194451858531203 1
gene  1 26 40 -0.6055994208888633 0 1663.0 -0.6055994208888633 1
gene  1 34 40 -0.5401854411441157 0 1671.0 -0.5401854411441157 1
gene  1 36 40 -0.2572989348566075 0 1673.0 -0.2572989348566075 1
gene  1 40 40 0.21930943049067997 1 1677.0 0.21930943049067997 1
gene  1 1 41 -0.02056571341139868 0 1680.0 -0.02056571341139868 1
gene  1 2 41 0.21679945250848742 0 1681.0 0.21679945250848742 1
gene  1 3 41 0.4784624810450574 0 1682.0 0.4784624810450574 1
gene  1 6 41 -0.6473505591080597 0 1685.0 -0.6473505591080597 1
gene  1 8 41 -0.24880467737601197 0 1687.0 -0.24880467737601197 1
gene  1 13 41 0.8203145288764985 0 1692.0 0.8203145288764985 1
gene  1 14 41 2.4206679668736797E-5 0 1693.0 2.4206679668736797E-5 1
gene  1 15 41 -0.6373145270485665 0 1694.0 -0.6373145270485665 1
gene  1 16 41 -0.5223812402161371 0 1695.0 -0.5223812402161371 1
gene  1 19 41 0.5952426644912419 0 1698.0 0.5952426644912419 1
gene  1 24 41 0.5931997168038744 0 1703.0 0.5931997168038744 1
gene  1 27 41 0.8904480432375715 0 1706.0 0.8904480432375715 1
gene  1 28 41 0.6475071911952531 0 1707.0 0.6475071911952531 1
gene  1 35 41 -0.15831304033373772 0 1714.0 -0.15831304033373772 1
gene  1 37 41 -0.8293317681705489 0 1716.0 -0.8293317681705489 1
gene  1 38 41 0.3483280516546595 0 1717.0 0.3483280516546595 1
gene  1 39 41 -0.304645649828145 0 1718.0 -0.304645649828145 1
gene  1 40 41 0.6433470737244293 0 1719.0 0.6433470737244293 1
gene  1 2 42 0.8694161828928946 0 1723.0 0.8694161828928946 1
gene  1 5 42 0.5945292618230397 0 1726.0 0.5945292618230397 1
gene  1 7 42 0.3329995724292206 0 1728.0 0.3329995724292206 1
gene  1 8 42 0.7563821978070475 0 1729.0 0.7563821978070475 1
gene  1 13 42 0.49370642136142107 0 1734.0 0.49370642136142107 1
gene  1 18 42 -0.9597765566104067 0 1739.0 -0.9597765566104067 1
gene  1 19 42 -0.48157652365457193 0 1740.0 -0.48157652365457193 1
gene  1 22 42 -0.6923207129545851 0 1743.0 -0.6923207129545851 1
gene  1 25 42 0.3979093035919701 0 1746.0 0.3979093035919701 1
gene  1 28 42 -0.9074862956540092 0 1749.0 -0.9074862956540092 1
gene  1 29 42 -0.6282507686314256 0 1750.0 -0.6282507686314256 1
gene  1 35 42 -0.22389670999333255 0 1756.0 -0.22389670999333255 1
gene  1 36 42 0.4369382201138239 0 1757.0 0.4369382201138239 1
gene  1 42 42 -0.08030001762852745 1 1763.0 -0.08030001762852745 1
genomeend 6
/* Organism # 007 Fitness:  0.000 Error:  0.000                      */
genomestart  7
trait 1 0.0 0.0 0.0 0.0 0.0 0.0 0.0 0.0 
node 1 1 1 1
node 2 1 1 1
node 3 1 1 1
node 4 1 1 1
node 5 1 1 1
node 6 1 1 1
node 7 1 1 1
node 8 1 1 1
node 9 1 1 1
node 10 1 1 1
node 11 1 1 1
node 12 1 1 1
node 13 1 1 1
node 14 1 1 1
node 15 1 1 1
node 16 1 1 1
node 17 1 1 1
node 18 1 1 1
node 19 1 1 1
node 20 1 1 1
node 21 1 1 1
node 22 1 1 1
node 23 1 1 1
node 24 1 1 1
node 25 1 1 1
node 26 1 1 1
node 27 1 1 1
node 28 1 1 3
node 29 1 0 0
node 34 1 0 2
node 35 1 0 2
node 36 1 0 2
node 37 1 0 2
node 38 1 0 2
node 39 1 0 2
node 40 1 0 2
node 41 1 0 2
node 42 1 0 2
gene  1 1 29 0.6758185030671657 0 1176.0 0.6758185030671657 1
gene  1 3 29 -0.3203413988846744 0 1178.0 -0.3203413988846744 1
gene  1 5 29 0.8743010081891269 0 1180.0 0.8743010081891269 1
gene  1 7 29 0.3406603469940368 0 1182.0 0.3406603469940368 1
gene  1 8 29 0.7200226152628779 0 1183.0 0.7200226152628779 1
gene  1 10 29 0.5244824444479511 0 1185.0 0.5244824444479511 1
gene  1 11 29 -0.7327737705839141 0 1186.0 -0.7327737705839141 1
gene  1 13 29 0.21785507748728994 0 1188.0 0.21785507748728994 1
gene  1 15 29 -0.48990003286398165 0 1190.0 -0.48990003286398165 1
gene  1 20 29 -0.3644531624200944 0 1195.0 -0.3644531624200944 1
gene  1 21 29 -0.5299857891463079 0 1196.0 -0.5299857891463079 1
gene  1 22 29 -0.7934472421450228 0 1197.0 -0.7934472421450228 1
gene  1 24 29 -0.6153070957180867 0 1199.0 -0.6153070957180867 1
gene  1 25 29 0.39264844743238714 0 1200.0 0.39264844743238714 1
gene  1 27 29 0.9233521117887165 0 1202.0 0.9233521117887165 1
gene  1 29 29 0.9455302465080944 1 1204.0 0.9455302465080944 1
gene  1 36 29 0.23081129067700934 1 1211.0 0.23081129067700934 1
gene  1 37 29 0.11277435109255385 1 1212.0 0.11277435109255385 1
gene  1 38 29 -0.6249638648480899 1 1213.0 -0.6249638648480899 1
gene  1 39 29 0.13884268670963085 1 1214.0 0.13884268670963085 1
gene  1 41 29 0.5764775298120591 1 1216.0 0.5764775298120591 1
gene  1 42 29 0.3782607871012079 1 1217.0 0.3782607871012079 1
gene  1 3 34 0.47817101396480066 0 1388.0 0.47817101396480066 1
gene  1 4 34 0.45735706017845557 0 1389.0 0.45735706017845557 1
gene  1 6 34 0.37389718311308906 0 1391.0 0.37389718311308906 1
gene  1 7 34 -0.9098898132283981 0 1392.0 -0.9098898132283981 1
gene  1 8 34 0.23359593620277863 0 1393.0 0.23359593620277863 1
gene  1 9 34 -0.28798562333864464 0 1394.0 -0.28798562333864464 1
gene  1 11 34 0.9857954379245333 0 1396.0 0.9857954379245333 1
gene  1 12 34 0.6687195246977798 0 1397.0 0.6687195246977798 1
gene  1 15 34 -0.14542673165064923 0 1400.0 -0.14542673165064923 1
gene  1 16 34 0.43790264484607944 0 1401.0 0.43790264484607944 1
gene  1 17 34 -0.25888358493581154 0 1402.0 -0.25888358493581154 1
gene  1 18 34 -0.06139961364077329 0 1403.0 -0.06139961364077329 1
gene  1 19 34 -0.8710858444962427 0 1404.0 -0.8710858444962427 1
gene  1 20 34 0.6636798044520684 0 1405.0 0.6636798044520684 1
gene  1 22 34 -0.20295323555494138 0 1407.0 -0.20295323555494138 1
gene  1 23 34 0.40540316939369503 0 1408.0 0.40540316939369503 1
gene  1 25 34 0.8606206879854583 0 1410.0 0.8606206879854583 1
gene  1 29 34 -0.6952481481192784 0 1414.0 -0.6952481481192784 1
gene  1 34 34 -0.4005150341402526 1 1419.0 -0.4005150341402526 1
gene  1 41 34 0.5432963521638011 1 1426.0 0.5432963521638011 1
gene  1 1 35 -0.5845817488520947 0 1428.0 -0.5845817488520947 1
gene  1 2 35 -0.2393303635816284 0 1429.0 -0.2393303635816284 1
gene  1 7 35 -0.44341946513915764 0 1434.0 -0.44341946513915764 1
gene  1 8 35 -0.25406743615720406 0 1435.0 -0.25406743615720406 1
gene  1 9 35 0.36077794939701113 0 1436.0 0.36077794939701113 1
gene  1 11 35 0.14250141292261354 0 1438.0 0.14250141292261354 1
gene  1 16 35 0.22558465772380332 0 1443.0 0.22558465772380332 1
gene  1 17 35 -0.18624648094341245 0 1444.0 -0.18624648094341245 1
gene  1 18 35 0.9130448109188921 0 1445.0 0.9130448109188921 1
gene  1 24 35 -0.7398805354633412 0 1451.0 -0.7398805354633412 1
gene  1 26 35 0.6008001765639592 0 1453.0 0.6008001765639592 1
gene  1 29 35 -0.43694924539871793 0 1456.0 -0.43694924539871793 1
gene  1 34 35 0.012816341695772615 0 1461.0 0.012816341695772615 1
gene  1 35 35 0.3774514041678829 1 1462.0 0.3774514041678829 1
gene  1 36 35 0.5550521639727484 1 1463.0 0.5550521639727484 1
gene  1 37 35 0.8623329500483182 1 1464.0 0.8623329500483182 1
gene  1 2 36 0.9225201789302633 0 1471.0 0.9225201789302633 1
gene  1 3 36 0.4993462111760969 0 1472.0 0.4993462111760969 1
gene  1 5 36 0.5042754175469109 0 1474.0 0.5042754175469109 1
gene  1 7 36 0.4518871376991035 0 1476.0 0.4518871376991035 1
gene  1 11 36 0.8561573192442116 0 1480.0 0.8561573192442116 1
gene  1 14 36 0.4706854512627324 0 1483.0 0.4706854512627324 1
gene  1 18 36 -0.7681081139631457 0 1487.0 -0.7681081139631457 1
gene  1 19 36 0.08951225945452879 0 1488.0 0.08951225945452879 1
gene  1 20 36 0.1962964296968065 0 1489.0 0.1962964296968065 1
gene  1 23 36 0.2556797538027168 0 1492.0 0.2556797538027168 1
gene  1 25 36 -0.39220778636834863 0 1494.0 -0.39220778636834863 1
gene  1 28 36 0.2008399273947319 0 1497.0 0.2008399273947319 1
gene  1 34 36 0.8293970839173677 0 1503.0 0.8293970839173677 1
gene  1 37 36 0.09299781315713962 1 1506.0 0.09299781315713962 1
gene  1 38 36 0.796958470028422 1 1507.0 0.796958470028422 1
gene  1 40 36 0.8254833148322741 1 1509.0 0.8254833148322741 1
gene  1 1 37 -0.17604082912311703 0 1512.0 -0.17604082912311703 1
gene  1 2 37 -0.6685773801253849 0 1513.0 -0.6685773801253849 1
gene  1 3 37 -0.7668096629507946 0 1514.0 -0.7668096629507946 1
gene  1 5 37 -0.7160051393358783 0 1516.0 -0.7160051393358783 1
gene  1 6 37 0.4643323971899702 0 1517.0 0.4643323971899702 1
gene  1 8 37 0.852176780376405 0 1519.0 0.852176780376405 1
gene  1 9 37 0.9067662791814141 0 1520.0 0.9067662791814141 1
gene  1 13 37 0.047861861696845476 0 1524.0 0.047861861696845476 1
gene  1 14 37 -0.610349971789946 0 1525.0 -0.610349971789946 1
gene  1 15 37 0.5694763900542328 0 1526.0 0.5694763900542328 1
gene  1 16 37 -0.27229477520063794 0 1527.0 -0.27229477520063794 1
gene  1 17 37 -0.10630982872862071 0 1528.0 -0.10630982872862071 1
gene  1 18 37 -0.9878624806674277 0 1529.0 -0.9878624806674277 1
gene  1 19 37 0.667264252054911 0 1530.0 0.667264252054911 1
gene  1 22 37 0.6146017552437135 0 1533.0 0.6146017552437135 1
gene  1 24 37 -0.011498996985644494 0 1535.0 -0.011498996985644494 1
gene  1 25 37 -0.07125627812261415 0 1536.0 -0.07125627812261415 1
gene  1 27 37 -0.8953723247386752 0 1538.0 -0.8953723247386752 1
gene  1 34 37 0.8102285483863209 0 1545.0 0.8102285483863209 1
gene  1 36 37 0.7503659582953861 0 1547.0 0.7503659582953861 1
gene  1 41 37 0.7732646738915223 1 1552.0 0.7732646738915223 1
gene  1 42 37 0.1851404439778379 1 1553.0 0.1851404439778379 1
gene  1 4 38 -0.09441638030586841 0 1557.0 -0.09441638030586841 1
gene  1 8 38 0.836477593969075 0 1561.0 0.836477593969075 1
gene  1 10 38 0.5470827435600679 0 1563.0 0.5470827435600679 1
gene  1 11 38 0.9192182995564607 0 1564.0 0.9192182995564607 1
gene  1 13 38 0.7708308072718388 0 1566.0 0.7708308072718388 1
gene  1 15 38 -0.1340535206733222 0 1568.0 -0.1340535206733222 1
gene  1 16 38 -0.4270682755872375 0 1569.0 -0.4270682755872375 1
gene  1 18 38 -0.6397937880004573 0 1571.0 -0.6397937880004573 1
gene  1 21 38 -0.0019704176764457904 0 1574.0 -0.0019704176764457904 1
gene  1 27 38 0.3117659785580279 0 1580.0 0.3117659785580279 1
gene  1 28 38 -0.011640130357274625 0 1581.0 -0.011640130357274625 1
gene  1 29 38 -0.7695518226127028 0 1582.0 -0.7695518226127028 1
gene  1 34 38 0.01777397296340566 0 1587.0 0.01777397296340566 1
gene  1 35 38 0.07171423069328675 0 1588.0 0.07171423069328675 1
gene  1 37 38 -0.48622755022139963 0 1590.0 -0.48622755022139963 1
gene  1 41 38 -0.1688937385684921 1 1594.0 -0.1688937385684921 1
gene  1 42 38 0.8343069809203052 1 1595.0 0.8343069809203052 1
gene  1 2 39 0.49970344530306265 0 1597.0 0.49970344530306265 1
gene  1 3 39 0.6051114559180508 0 1598.0 0.6051114559180508 1
gene  1 5 39 -0.33062722562100766 0 1600.0 -0.33062722562100766 1
gene  1 6 39 0.11655804141432258 0 1601.0 0.11655804141432258 1
gene  1 9 39 -0.3595095094509553 0 1604.0 -0.3595095094509553 1
gene  1 10 39 0.7325212507178984 0 1605.0 0.7325212507178984 1
gene  1 11 39 0.43529243623388025 0 1606.0 0.43529243623388025 1
gene  1 13 39 0.7127809525469759 0 1608.0 0.7127809525469759 1
gene  1 15 39 -0.895437363602759 0 1610.0 -0.895437363602759 1
gene  1 16 39 -0.6410715593306584 0 1611.0 -0.6410715593306584 1
gene  1 24 39 -0.4317144169823445 0 1619.0 -0.4317144169823445 1
gene  1 26 39 -0.2428334626111338 0 1621.0 -0.2428334626111338 1
gene  1 27 39 -0.18781640472119154 0 1622.0 -0.18781640472119154 1
gene  1 35 39 -0.5070828758715643 0 1630.0 -0.5070828758715643 1
gene  1 36 39 0.4528387244494023 0 1631.0 0.4528387244494023 1
gene  1 37 39 0.8468135680752474 0 1632.0 0.8468135680752474 1
gene  1 38 39 0.5331272203917464 0 1633.0 0.5331272203917464 1
gene  1 39 39 0.07693960896629248 1 1634.0 0.07693960896629248 1
gene  1 41 39 -0.7703579851000193 1 1636.0 -0.7703579851000193 1
gene  1 42 39 0.24708184662168742 1 1637.0 0.24708184662168742 1
gene  1 1 40 0.8866055899981509 0 1638.0 0.8866055899981509 1
gene  1 3 40 0.12769218944089678 0 1640.0 0.12769218944089678 1
gene  1 6 40 0.7863957686027158 0 1643.0 0.7863957686027158 1
gene  1 7 40 -0.8974589794065985 0 1644.0 -0.8974589794065985 1
gene  1 11 40 -0.5371759764848015 0 1648.0 -0.5371759764848015 1
gene  1 12 40 0.3517651769317245 0 1649.0 0.3517651769317245 1
gene  1 16 40 0.26927273671539365 0 1653.0 0.26927273671539365 1
gene  1 17 40 -0.48585338211451057 0 1654.0 -0.48585338211451057 1
gene  1 18 40 -0.793565778098095 0 1655.0 -0.793565778098095 1
gene  1 19 40 0.5749350519391225 0 1656.0 0.5749350519391225 1
gene  1 21 40 -0.7852116044246474 0 1658.0 -0.7852116044246474 1
gene  1 22 40 0.015532206368685908 0 1659.0 0.015532206368685908 1
gene  1 25 40 0.19194451858531203 0 1662.0 0.19194451858531203 1
gene  1 26 40 -0.6055994208888633 0 1663.0 -0.6055994208888633 1
gene  1 34 40 -0.5401854411441157 0 1671.0 -0.5401854411441157 1
gene  1 36 40 -0.2572989348566075 0 1673.0 -0.2572989348566075 1
gene  1 40 40 0.21930943049067997 1 1677.0 0.21930943049067997 1
gene  1 1 41 -0.02056571341139868 0 1680.0 -0.02056571341139868 1
gene  1 2 41 0.21679945250848742 0 1681.0 0.21679945250848742 1
gene  1 3 41 0.4784624810450574 0 1682.0 0.4784624810450574 1
gene  1 6 41 -0.6473505591080597 0 1685.0 -0.6473505591080597 1
gene  1 8 41 -0.24880467737601197 0 1687.0 -0.24880467737601197 1
gene  1 13 41 0.8203145288764985 0 1692.0 0.8203145288764985 1
gene  1 14 41 2.4206679668736797E-5 0 1693.0 2.4206679668736797E-5 1
gene  1 15 41 -0.6373145270485665 0 1694.0 -0.6373145270485665 1
gene  1 16 41 -0.5223812402161371 0 1695.0 -0.5223812402161371 1
gene  1 19 41 0.5952426644912419 0 1698.0 0.5952426644912419 1
gene  1 24 41 0.5931997168038744 0 1703.0 0.5931997168038744 1
gene  1 27 41 0.8904480432375715 0 1706.0 0.8904480432375715 1
gene  1 28 41 0.6475071911952531 0 1707.0 0.6475071911952531 1
gene  1 35 41 -0.15831304033373772 0 1714.0 -0.15831304033373772 1
gene  1 37 41 -0.8293317681705489 0 1716.0 -0.8293317681705489 1
gene  1 38 41 0.3483280516546595 0 1717.0 0.3483280516546595 1
gene  1 39 41 -0.304645649828145 0 1718.0 -0.304645649828145 1
gene  1 40 41 0.6433470737244293 0 1719.0 0.6433470737244293 1
gene  1 2 42 0.8694161828928946 0 1723.0 0.8694161828928946 1
gene  1 5 42 0.5945292618230397 0 1726.0 0.5945292618230397 1
gene  1 7 42 0.3329995724292206 0 1728.0 0.3329995724292206 1
gene  1 8 42 0.7563821978070475 0 1729.0 0.7563821978070475 1
gene  1 13 42 0.49370642136142107 0 1734.0 0.49370642136142107 1
gene  1 18 42 -0.9597765566104067 0 1739.0 -0.9597765566104067 1
gene  1 19 42 -0.48157652365457193 0 1740.0 -0.48157652365457193 1
gene  1 22 42 -0.6923207129545851 0 1743.0 -0.6923207129545851 1
gene  1 25 42 0.3979093035919701 0 1746.0 0.3979093035919701 1
gene  1 28 42 -0.9074862956540092 0 1749.0 -0.9074862956540092 1
gene  1 29 42 -0.6282507686314256 0 1750.0 -0.6282507686314256 1
gene  1 35 42 -0.22389670999333255 0 1756.0 -0.22389670999333255 1
gene  1 36 42 0.4369382201138239 0 1757.0 0.4369382201138239 1
gene  1 42 42 -0.08030001762852745 1 1763.0 -0.08030001762852745 1
genomeend 7
/* Organism # 008 Fitness:  0.000 Error:  0.000                      */
genomestart  8
trait 1 0.0 0.0 0.0 0.0 0.0 0.0 0.0 0.0 
node 1 1 1 1
node 2 1 1 1
node 3 1 1 1
node 4 1 1 1
node 5 1 1 1
node 6 1 1 1
node 7 1 1 1
node 8 1 1 1
node 9 1 1 1
node 10 1 1 1
node 11 1 1 1
node 12 1 1 1
node 13 1 1 1
node 14 1 1 1
node 15 1 1 1
node 16 1 1 1
node 17 1 1 1
node 18 1 1 1
node 19 1 1 1
node 20 1 1 1
node 21 1 1 1
node 22 1 1 1
node 23 1 1 1
node 24 1 1 1
node 25 1 1 1
node 26 1 1 1
node 27 1 1 1
node 28 1 1 3
node 29 1 0 0
node 34 1 0 2
node 35 1 0 2
node 36 1 0 2
node 37 1 0 2
node 38 1 0 2
node 39 1 0 2
node 40 1 0 2
node 41 1 0 2
node 42 1 0 2
gene  1 1 29 0.6758185030671657 0 1176.0 0.6758185030671657 1
gene  1 3 29 -0.3203413988846744 0 1178.0 -0.3203413988846744 1
gene  1 5 29 0.8743010081891269 0 1180.0 0.8743010081891269 1
gene  1 7 29 0.3406603469940368 0 1182.0 0.3406603469940368 1
