/* Species # 075         : (size= 075) (AvfFit= 0.000) (Age= 301.000)  */
/*-------------------------------------------------------------------*/
/* Organism # 000 Fitness:  0.000 Error:  0.000                      */
genomestart  0
trait 1 0.0 0.0 0.0 0.0 0.0 0.0 0.0 0.0 
node 1 1 1 1
node 2 1 1 1
node 3 1 1 1
node 4 1 1 1
node 5 1 1 1
node 6 1 1 1
node 7 1 1 1
node 8 1 1 1
node 9 1 1 1
node 10 1 1 1
node 11 1 1 1
node 12 1 1 1
node 13 1 1 1
node 14 1 1 1
node 15 1 1 1
node 16 1 1 1
node 17 1 1 1
node 18 1 1 1
node 19 1 1 1
node 20 1 1 1
node 21 1 1 1
node 22 1 1 1
node 23 1 1 1
node 24 1 1 1
node 25 1 1 1
node 26 1 1 1
node 27 1 1 1
node 28 1 1 3
node 34 1 0 2
node 35 1 0 2
node 36 1 0 2
node 37 1 0 2
node 38 1 0 2
node 39 1 0 2
node 40 1 0 2
node 41 1 0 2
node 42 1 0 2
gene  1 4 34 -0.7421089364730132 0 1389.0 -0.7421089364730132 1
gene  1 5 34 0.24823525940790148 0 1390.0 0.24823525940790148 1
gene  1 8 34 -0.7001735399343197 0 1393.0 -0.7001735399343197 1
gene  1 10 34 0.30773556461245266 0 1395.0 0.30773556461245266 1
gene  1 12 34 -0.25726360350057775 0 1397.0 -0.25726360350057775 1
gene  1 13 34 -0.7464693969768006 0 1398.0 -0.7464693969768006 1
gene  1 16 34 -0.8969002659168158 0 1401.0 -0.8969002659168158 1
gene  1 18 34 0.04379178639345094 0 1403.0 0.04379178639345094 1
gene  1 19 34 -0.24757502777236928 0 1404.0 -0.24757502777236928 1
gene  1 20 34 0.08620124973048959 0 1405.0 0.08620124973048959 1
gene  1 21 34 0.10982365454239573 0 1406.0 0.10982365454239573 1
gene  1 22 34 -0.557891117147745 0 1407.0 -0.557891117147745 1
gene  1 23 34 0.08874007553240404 0 1408.0 0.08874007553240404 1
gene  1 25 34 0.4309551209775484 0 1410.0 0.4309551209775484 1
gene  1 26 34 0.6595988914927147 0 1411.0 0.6595988914927147 1
gene  1 27 34 0.12649572292799427 0 1412.0 0.12649572292799427 1
gene  1 36 34 0.27390323557127383 1 1421.0 0.27390323557127383 1
gene  1 37 34 0.8619693563132723 1 1422.0 0.8619693563132723 1
gene  1 41 34 -0.2835996344606918 1 1426.0 -0.2835996344606918 1
gene  1 3 35 -0.2835622610330577 0 1430.0 -0.2835622610330577 1
gene  1 4 35 0.18500127826269275 0 1431.0 0.18500127826269275 1
gene  1 6 35 -0.616333916046429 0 1433.0 -0.616333916046429 1
gene  1 9 35 0.012420239677106149 0 1436.0 0.012420239677106149 1
gene  1 11 35 -0.16257924064582885 0 1438.0 -0.16257924064582885 1
gene  1 15 35 -0.9594351983674351 0 1442.0 -0.9594351983674351 1
gene  1 19 35 -0.6101916279728683 0 1446.0 -0.6101916279728683 1
gene  1 20 35 -0.5527020903175044 0 1447.0 -0.5527020903175044 1
gene  1 21 35 0.5486338062009665 0 1448.0 0.5486338062009665 1
gene  1 22 35 0.40967255896065125 0 1449.0 0.40967255896065125 1
gene  1 24 35 -0.11590983454752979 0 1451.0 -0.11590983454752979 1
gene  1 25 35 -0.43155735619256963 0 1452.0 -0.43155735619256963 1
gene  1 34 35 -0.5459538530665337 0 1461.0 -0.5459538530665337 1
gene  1 37 35 0.49939248504153555 1 1464.0 0.49939248504153555 1
gene  1 38 35 0.3405509650727345 1 1465.0 0.3405509650727345 1
gene  1 39 35 0.34361316637586303 1 1466.0 0.34361316637586303 1
gene  1 41 35 -0.03148093271962904 1 1468.0 -0.03148093271962904 1
gene  1 42 35 -0.5248548860536107 1 1469.0 -0.5248548860536107 1
gene  1 1 36 0.8987628041288347 0 1470.0 0.8987628041288347 1
gene  1 4 36 0.009027207029493445 0 1473.0 0.009027207029493445 1
gene  1 5 36 -0.633545974586073 0 1474.0 -0.633545974586073 1
gene  1 11 36 0.39918709205220726 0 1480.0 0.39918709205220726 1
gene  1 12 36 -0.17016161523660522 0 1481.0 -0.17016161523660522 1
gene  1 16 36 -0.8655544789954823 0 1485.0 -0.8655544789954823 1
gene  1 17 36 0.16011731945599206 0 1486.0 0.16011731945599206 1
gene  1 18 36 0.02949413828743186 0 1487.0 0.02949413828743186 1
gene  1 21 36 0.08505679310381686 0 1490.0 0.08505679310381686 1
gene  1 23 36 0.9050692954484028 0 1492.0 0.9050692954484028 1
gene  1 24 36 0.5637226596469731 0 1493.0 0.5637226596469731 1
gene  1 25 36 0.9357447927653101 0 1494.0 0.9357447927653101 1
gene  1 26 36 -0.47050433846388684 0 1495.0 -0.47050433846388684 1
gene  1 34 36 0.3594347636238927 0 1503.0 0.3594347636238927 1
gene  1 37 36 0.32723936118363917 1 1506.0 0.32723936118363917 1
gene  1 38 36 0.9442732582629172 1 1507.0 0.9442732582629172 1
gene  1 39 36 -0.11059195637872077 1 1508.0 -0.11059195637872077 1
gene  1 41 36 0.03621324570278439 1 1510.0 0.03621324570278439 1
gene  1 2 37 -0.7904012973061642 0 1513.0 -0.7904012973061642 1
gene  1 3 37 -0.9398475305562727 0 1514.0 -0.9398475305562727 1
gene  1 5 37 -0.7018399267230115 0 1516.0 -0.7018399267230115 1
gene  1 7 37 -0.3047417495974766 0 1518.0 -0.3047417495974766 1
gene  1 9 37 0.4120643172805336 0 1520.0 0.4120643172805336 1
gene  1 12 37 -0.4553498812827833 0 1523.0 -0.4553498812827833 1
gene  1 19 37 0.9098131432408123 0 1530.0 0.9098131432408123 1
gene  1 22 37 -0.8002545800647182 0 1533.0 -0.8002545800647182 1
gene  1 27 37 0.3258546576365188 0 1538.0 0.3258546576365188 1
gene  1 28 37 0.9783218332999231 0 1539.0 0.9783218332999231 1
gene  1 37 37 0.42152024033147273 1 1548.0 0.42152024033147273 1
gene  1 38 37 -0.22008944087184312 1 1549.0 -0.22008944087184312 1
gene  1 40 37 -0.1415251294057257 1 1551.0 -0.1415251294057257 1
gene  1 3 38 -0.6544582711142225 0 1556.0 -0.6544582711142225 1
gene  1 9 38 -0.8268390576968869 0 1562.0 -0.8268390576968869 1
gene  1 10 38 -0.3630105401230186 0 1563.0 -0.3630105401230186 1
gene  1 11 38 -0.6627619731867889 0 1564.0 -0.6627619731867889 1
gene  1 12 38 0.9494706491564349 0 1565.0 0.9494706491564349 1
gene  1 13 38 -0.10984334479985147 0 1566.0 -0.10984334479985147 1
gene  1 16 38 0.15114051485769664 0 1569.0 0.15114051485769664 1
gene  1 20 38 0.7227977474576205 0 1573.0 0.7227977474576205 1
gene  1 21 38 0.40683866428742765 0 1574.0 0.40683866428742765 1
gene  1 22 38 0.6681778686283091 0 1575.0 0.6681778686283091 1
gene  1 23 38 0.4741104328332544 0 1576.0 0.4741104328332544 1
gene  1 24 38 -0.41734555193578193 0 1577.0 -0.41734555193578193 1
gene  1 25 38 -0.008465928064300354 0 1578.0 -0.008465928064300354 1
gene  1 27 38 0.9580754190661428 0 1580.0 0.9580754190661428 1
gene  1 37 38 -0.6163811295924438 0 1590.0 -0.6163811295924438 1
gene  1 41 38 -0.6723017783852826 1 1594.0 -0.6723017783852826 1
gene  1 42 38 0.6411532288056123 1 1595.0 0.6411532288056123 1
gene  1 1 39 -0.8586467221518014 0 1596.0 -0.8586467221518014 1
gene  1 2 39 -0.9402080783669534 0 1597.0 -0.9402080783669534 1
gene  1 5 39 -0.9004715326706101 0 1600.0 -0.9004715326706101 1
gene  1 8 39 -0.6114898623521817 0 1603.0 -0.6114898623521817 1
gene  1 9 39 0.607988721821256 0 1604.0 0.607988721821256 1
gene  1 11 39 -0.6767330499070582 0 1606.0 -0.6767330499070582 1
gene  1 12 39 -0.853228589473296 0 1607.0 -0.853228589473296 1
gene  1 18 39 0.08699301002104054 0 1613.0 0.08699301002104054 1
gene  1 19 39 -0.053613696988352166 0 1614.0 -0.053613696988352166 1
gene  1 23 39 0.7638866510673182 0 1618.0 0.7638866510673182 1
gene  1 25 39 0.08238263068176022 0 1620.0 0.08238263068176022 1
gene  1 27 39 0.3082330593114203 0 1622.0 0.3082330593114203 1
gene  1 35 39 0.020741838310423644 0 1630.0 0.020741838310423644 1
gene  1 36 39 0.9092464260113872 0 1631.0 0.9092464260113872 1
gene  1 37 39 0.41431550267167616 0 1632.0 0.41431550267167616 1
gene  1 40 39 0.685775136486646 1 1635.0 0.685775136486646 1
gene  1 1 40 0.7960330683864854 0 1638.0 0.7960330683864854 1
gene  1 2 40 0.5551587751894606 0 1639.0 0.5551587751894606 1
gene  1 4 40 0.7692696042624008 0 1641.0 0.7692696042624008 1
gene  1 6 40 0.721927750406669 0 1643.0 0.721927750406669 1
gene  1 12 40 0.18515426997811746 0 1649.0 0.18515426997811746 1
gene  1 15 40 0.3981233988333662 0 1652.0 0.3981233988333662 1
gene  1 17 40 -0.5969985765524332 0 1654.0 -0.5969985765524332 1
gene  1 19 40 0.5697752051029353 0 1656.0 0.5697752051029353 1
gene  1 22 40 0.8858455654070612 0 1659.0 0.8858455654070612 1
gene  1 26 40 0.13984804275302043 0 1663.0 0.13984804275302043 1
gene  1 28 40 0.25617732657454717 0 1665.0 0.25617732657454717 1
gene  1 34 40 0.9344153831945217 0 1671.0 0.9344153831945217 1
gene  1 35 40 0.25140479621028045 0 1672.0 0.25140479621028045 1
gene  1 36 40 0.40808166099645815 0 1673.0 0.40808166099645815 1
gene  1 41 40 -0.2462408647353359 1 1678.0 -0.2462408647353359 1
gene  1 42 40 -0.6417353233799912 1 1679.0 -0.6417353233799912 1
gene  1 1 41 0.052167659991653736 0 1680.0 0.052167659991653736 1
gene  1 2 41 -0.3252705524386511 0 1681.0 -0.3252705524386511 1
gene  1 3 41 -0.26078020675631497 0 1682.0 -0.26078020675631497 1
gene  1 4 41 0.24081706139392645 0 1683.0 0.24081706139392645 1
gene  1 7 41 -0.8959090105896762 0 1686.0 -0.8959090105896762 1
gene  1 8 41 0.17557372995904863 0 1687.0 0.17557372995904863 1
gene  1 9 41 -0.3222463250094969 0 1688.0 -0.3222463250094969 1
gene  1 10 41 0.3939329673629959 0 1689.0 0.3939329673629959 1
gene  1 13 41 0.2852943124324795 0 1692.0 0.2852943124324795 1
gene  1 14 41 0.5385177585054867 0 1693.0 0.5385177585054867 1
gene  1 18 41 -0.5763512372679771 0 1697.0 -0.5763512372679771 1
gene  1 19 41 0.9541968705640955 0 1698.0 0.9541968705640955 1
gene  1 21 41 -0.2866082784944054 0 1700.0 -0.2866082784944054 1
gene  1 23 41 0.2426367291387368 0 1702.0 0.2426367291387368 1
gene  1 24 41 -0.765934667413345 0 1703.0 -0.765934667413345 1
gene  1 25 41 -0.6807915687788848 0 1704.0 -0.6807915687788848 1
gene  1 26 41 -0.7958926658011373 0 1705.0 -0.7958926658011373 1
gene  1 27 41 -0.526275463240804 0 1706.0 -0.526275463240804 1
gene  1 28 41 0.6097874377763819 0 1707.0 0.6097874377763819 1
gene  1 35 41 0.6251771745076967 0 1714.0 0.6251771745076967 1
gene  1 37 41 0.925128886443269 0 1716.0 0.925128886443269 1
gene  1 38 41 -0.9661541703330626 0 1717.0 -0.9661541703330626 1
gene  1 39 41 0.7204657214388823 0 1718.0 0.7204657214388823 1
gene  1 40 41 -0.7030590692342363 0 1719.0 -0.7030590692342363 1
gene  1 42 41 0.022864388344099207 1 1721.0 0.022864388344099207 1
gene  1 1 42 0.4974954138596669 0 1722.0 0.4974954138596669 1
gene  1 3 42 -0.7918439310142282 0 1724.0 -0.7918439310142282 1
gene  1 8 42 0.6947863486079096 0 1729.0 0.6947863486079096 1
gene  1 12 42 -0.8932466096443952 0 1733.0 -0.8932466096443952 1
gene  1 13 42 -0.26206966934436393 0 1734.0 -0.26206966934436393 1
gene  1 15 42 -0.3542661588139744 0 1736.0 -0.3542661588139744 1
gene  1 16 42 0.4742757516442525 0 1737.0 0.4742757516442525 1
gene  1 17 42 0.4092068785178873 0 1738.0 0.4092068785178873 1
gene  1 19 42 0.0013702050043983283 0 1740.0 0.0013702050043983283 1
gene  1 22 42 0.7617677285984951 0 1743.0 0.7617677285984951 1
gene  1 23 42 -0.2208892565255166 0 1744.0 -0.2208892565255166 1
gene  1 26 42 0.6258186256597896 0 1747.0 0.6258186256597896 1
gene  1 27 42 0.28960041164133843 0 1748.0 0.28960041164133843 1
gene  1 28 42 0.367925541204041 0 1749.0 0.367925541204041 1
gene  1 34 42 0.5216980904472753 0 1755.0 0.5216980904472753 1
gene  1 35 42 -0.806804363803835 0 1756.0 -0.806804363803835 1
gene  1 37 42 -0.4629435425227876 0 1758.0 -0.4629435425227876 1
gene  1 39 42 -0.2373115976345921 0 1760.0 -0.2373115976345921 1
gene  1 42 42 -0.9093709088694181 1 1763.0 -0.9093709088694181 1
genomeend 0
/* Organism # 001 Fitness:  0.000 Error:  0.000                      */
genomestart  1
trait 1 0.0 0.0 0.0 0.0 0.0 0.0 0.0 0.0 
node 1 1 1 1
node 2 1 1 1
node 3 1 1 1
node 4 1 1 1
node 5 1 1 1
node 6 1 1 1
node 7 1 1 1
node 8 1 1 1
node 9 1 1 1
node 10 1 1 1
node 11 1 1 1
node 12 1 1 1
node 13 1 1 1
node 14 1 1 1
node 15 1 1 1
node 16 1 1 1
node 17 1 1 1
node 18 1 1 1
node 19 1 1 1
node 20 1 1 1
node 21 1 1 1
node 22 1 1 1
node 23 1 1 1
node 24 1 1 1
node 25 1 1 1
node 26 1 1 1
node 27 1 1 1
node 28 1 1 3
node 34 1 0 2
node 35 1 0 2
node 36 1 0 2
node 37 1 0 2
node 38 1 0 2
node 39 1 0 2
node 40 1 0 2
node 41 1 0 2
node 42 1 0 2
gene  1 4 34 -0.7421089364730132 0 1389.0 -0.7421089364730132 1
gene  1 5 34 0.24823525940790148 0 1390.0 0.24823525940790148 1
gene  1 8 34 -0.7001735399343197 0 1393.0 -0.7001735399343197 1
gene  1 10 34 0.30773556461245266 0 1395.0 0.30773556461245266 1
gene  1 12 34 -0.25726360350057775 0 1397.0 -0.25726360350057775 1
gene  1 13 34 -0.7464693969768006 0 1398.0 -0.7464693969768006 1
gene  1 16 34 -0.8969002659168158 0 1401.0 -0.8969002659168158 1
gene  1 18 34 0.04379178639345094 0 1403.0 0.04379178639345094 1
gene  1 19 34 -0.24757502777236928 0 1404.0 -0.24757502777236928 1
gene  1 20 34 0.08620124973048959 0 1405.0 0.08620124973048959 1
gene  1 21 34 0.10982365454239573 0 1406.0 0.10982365454239573 1
gene  1 22 34 -0.557891117147745 0 1407.0 -0.557891117147745 1
gene  1 23 34 0.08874007553240404 0 1408.0 0.08874007553240404 1
gene  1 25 34 0.4309551209775484 0 1410.0 0.4309551209775484 1
gene  1 26 34 0.6595988914927147 0 1411.0 0.6595988914927147 1
gene  1 27 34 0.12649572292799427 0 1412.0 0.12649572292799427 1
gene  1 36 34 0.27390323557127383 1 1421.0 0.27390323557127383 1
gene  1 37 34 0.8619693563132723 1 1422.0 0.8619693563132723 1
gene  1 41 34 -0.2835996344606918 1 1426.0 -0.2835996344606918 1
gene  1 3 35 -0.2835622610330577 0 1430.0 -0.2835622610330577 1
gene  1 4 35 0.18500127826269275 0 1431.0 0.18500127826269275 1
gene  1 6 35 -0.616333916046429 0 1433.0 -0.616333916046429 1
gene  1 9 35 0.012420239677106149 0 1436.0 0.012420239677106149 1
gene  1 11 35 -0.16257924064582885 0 1438.0 -0.16257924064582885 1
gene  1 15 35 -0.9594351983674351 0 1442.0 -0.9594351983674351 1
gene  1 19 35 -0.6101916279728683 0 1446.0 -0.6101916279728683 1
gene  1 20 35 -0.5527020903175044 0 1447.0 -0.5527020903175044 1
gene  1 21 35 0.5486338062009665 0 1448.0 0.5486338062009665 1
gene  1 22 35 0.40967255896065125 0 1449.0 0.40967255896065125 1
gene  1 24 35 -0.11590983454752979 0 1451.0 -0.11590983454752979 1
gene  1 25 35 -0.43155735619256963 0 1452.0 -0.43155735619256963 1
gene  1 34 35 -0.5459538530665337 0 1461.0 -0.5459538530665337 1
gene  1 37 35 0.49939248504153555 1 1464.0 0.49939248504153555 1
gene  1 38 35 0.3405509650727345 1 1465.0 0.3405509650727345 1
gene  1 39 35 0.34361316637586303 1 1466.0 0.34361316637586303 1
gene  1 41 35 -0.03148093271962904 1 1468.0 -0.03148093271962904 1
gene  1 42 35 -0.5248548860536107 1 1469.0 -0.5248548860536107 1
gene  1 1 36 0.8987628041288347 0 1470.0 0.8987628041288347 1
gene  1 4 36 0.009027207029493445 0 1473.0 0.009027207029493445 1
gene  1 5 36 -0.633545974586073 0 1474.0 -0.633545974586073 1
gene  1 11 36 0.39918709205220726 0 1480.0 0.39918709205220726 1
gene  1 12 36 -0.17016161523660522 0 1481.0 -0.17016161523660522 1
gene  1 16 36 -0.8655544789954823 0 1485.0 -0.8655544789954823 1
gene  1 17 36 0.16011731945599206 0 1486.0 0.16011731945599206 1
gene  1 18 36 0.02949413828743186 0 1487.0 0.02949413828743186 1
gene  1 21 36 0.08505679310381686 0 1490.0 0.08505679310381686 1
gene  1 23 36 0.9050692954484028 0 1492.0 0.9050692954484028 1
gene  1 24 36 0.5637226596469731 0 1493.0 0.5637226596469731 1
gene  1 25 36 0.9357447927653101 0 1494.0 0.9357447927653101 1
gene  1 26 36 -0.47050433846388684 0 1495.0 -0.47050433846388684 1
gene  1 34 36 0.3594347636238927 0 1503.0 0.3594347636238927 1
gene  1 37 36 0.32723936118363917 1 1506.0 0.32723936118363917 1
gene  1 38 36 0.9442732582629172 1 1507.0 0.9442732582629172 1
gene  1 39 36 -0.11059195637872077 1 1508.0 -0.11059195637872077 1
gene  1 41 36 0.03621324570278439 1 1510.0 0.03621324570278439 1
gene  1 2 37 -0.7904012973061642 0 1513.0 -0.7904012973061642 1
gene  1 3 37 -0.9398475305562727 0 1514.0 -0.9398475305562727 1
gene  1 5 37 -0.7018399267230115 0 1516.0 -0.7018399267230115 1
gene  1 7 37 -0.3047417495974766 0 1518.0 -0.3047417495974766 1
gene  1 9 37 0.4120643172805336 0 1520.0 0.4120643172805336 1
gene  1 12 37 -0.4553498812827833 0 1523.0 -0.4553498812827833 1
gene  1 19 37 0.9098131432408123 0 1530.0 0.9098131432408123 1
gene  1 22 37 -0.8002545800647182 0 1533.0 -0.8002545800647182 1
gene  1 27 37 0.3258546576365188 0 1538.0 0.3258546576365188 1
gene  1 28 37 0.9783218332999231 0 1539.0 0.9783218332999231 1
gene  1 37 37 0.42152024033147273 1 1548.0 0.42152024033147273 1
gene  1 38 37 -0.22008944087184312 1 1549.0 -0.22008944087184312 1
gene  1 40 37 -0.1415251294057257 1 1551.0 -0.1415251294057257 1
gene  1 3 38 -0.6544582711142225 0 1556.0 -0.6544582711142225 1
gene  1 9 38 -0.8268390576968869 0 1562.0 -0.8268390576968869 1
gene  1 10 38 -0.3630105401230186 0 1563.0 -0.3630105401230186 1
gene  1 11 38 -0.6627619731867889 0 1564.0 -0.6627619731867889 1
gene  1 12 38 0.9494706491564349 0 1565.0 0.9494706491564349 1
gene  1 13 38 -0.10984334479985147 0 1566.0 -0.10984334479985147 1
gene  1 16 38 0.15114051485769664 0 1569.0 0.15114051485769664 1
gene  1 20 38 0.7227977474576205 0 1573.0 0.7227977474576205 1
gene  1 21 38 0.40683866428742765 0 1574.0 0.40683866428742765 1
gene  1 22 38 0.6681778686283091 0 1575.0 0.6681778686283091 1
gene  1 23 38 0.4741104328332544 0 1576.0 0.4741104328332544 1
gene  1 24 38 -0.41734555193578193 0 1577.0 -0.41734555193578193 1
gene  1 25 38 -0.008465928064300354 0 1578.0 -0.008465928064300354 1
gene  1 27 38 0.9580754190661428 0 1580.0 0.9580754190661428 1
gene  1 37 38 -0.6163811295924438 0 1590.0 -0.6163811295924438 1
gene  1 41 38 -0.6723017783852826 1 1594.0 -0.6723017783852826 1
gene  1 42 38 0.6411532288056123 1 1595.0 0.6411532288056123 1
gene  1 1 39 -0.8586467221518014 0 1596.0 -0.8586467221518014 1
gene  1 2 39 -0.9402080783669534 0 1597.0 -0.9402080783669534 1
gene  1 5 39 -0.9004715326706101 0 1600.0 -0.9004715326706101 1
gene  1 8 39 -0.6114898623521817 0 1603.0 -0.6114898623521817 1
gene  1 9 39 0.607988721821256 0 1604.0 0.607988721821256 1
gene  1 11 39 -0.6767330499070582 0 1606.0 -0.6767330499070582 1
gene  1 12 39 -0.853228589473296 0 1607.0 -0.853228589473296 1
gene  1 18 39 0.08699301002104054 0 1613.0 0.08699301002104054 1
gene  1 19 39 -0.053613696988352166 0 1614.0 -0.053613696988352166 1
gene  1 23 39 0.7638866510673182 0 1618.0 0.7638866510673182 1
gene  1 25 39 0.08238263068176022 0 1620.0 0.08238263068176022 1
gene  1 27 39 0.3082330593114203 0 1622.0 0.3082330593114203 1
gene  1 35 39 0.020741838310423644 0 1630.0 0.020741838310423644 1
gene  1 36 39 0.9092464260113872 0 1631.0 0.9092464260113872 1
gene  1 37 39 0.41431550267167616 0 1632.0 0.41431550267167616 1
gene  1 40 39 0.685775136486646 1 1635.0 0.685775136486646 1
gene  1 1 40 0.7960330683864854 0 1638.0 0.7960330683864854 1
gene  1 2 40 0.5551587751894606 0 1639.0 0.5551587751894606 1
gene  1 4 40 0.7692696042624008 0 1641.0 0.7692696042624008 1
gene  1 6 40 0.721927750406669 0 1643.0 0.721927750406669 1
gene  1 12 40 0.18515426997811746 0 1649.0 0.18515426997811746 1
gene  1 15 40 0.3981233988333662 0 1652.0 0.3981233988333662 1
gene  1 17 40 -0.5969985765524332 0 1654.0 -0.5969985765524332 1
gene  1 19 40 0.5697752051029353 0 1656.0 0.5697752051029353 1
gene  1 22 40 0.8858455654070612 0 1659.0 0.8858455654070612 1
gene  1 26 40 0.13984804275302043 0 1663.0 0.13984804275302043 1
gene  1 28 40 0.25617732657454717 0 1665.0 0.25617732657454717 1
gene  1 34 40 0.9344153831945217 0 1671.0 0.9344153831945217 1
gene  1 35 40 0.25140479621028045 0 1672.0 0.25140479621028045 1
gene  1 36 40 0.40808166099645815 0 1673.0 0.40808166099645815 1
gene  1 41 40 -0.2462408647353359 1 1678.0 -0.2462408647353359 1
gene  1 42 40 -0.6417353233799912 1 1679.0 -0.6417353233799912 1
gene  1 1 41 0.052167659991653736 0 1680.0 0.052167659991653736 1
gene  1 2 41 -0.3252705524386511 0 1681.0 -0.3252705524386511 1
gene  1 3 41 -0.26078020675631497 0 1682.0 -0.26078020675631497 1
gene  1 4 41 0.24081706139392645 0 1683.0 0.24081706139392645 1
gene  1 7 41 -0.8959090105896762 0 1686.0 -0.8959090105896762 1
gene  1 8 41 0.17557372995904863 0 1687.0 0.17557372995904863 1
gene  1 9 41 -0.3222463250094969 0 1688.0 -0.3222463250094969 1
gene  1 10 41 0.3939329673629959 0 1689.0 0.3939329673629959 1
gene  1 13 41 0.2852943124324795 0 1692.0 0.2852943124324795 1
gene  1 14 41 0.5385177585054867 0 1693.0 0.5385177585054867 1
gene  1 18 41 -0.5763512372679771 0 1697.0 -0.5763512372679771 1
gene  1 19 41 0.9541968705640955 0 1698.0 0.9541968705640955 1
gene  1 21 41 -0.2866082784944054 0 1700.0 -0.2866082784944054 1
gene  1 23 41 0.2426367291387368 0 1702.0 0.2426367291387368 1
gene  1 24 41 -0.765934667413345 0 1703.0 -0.765934667413345 1
gene  1 25 41 -0.6807915687788848 0 1704.0 -0.6807915687788848 1
gene  1 26 41 -0.7958926658011373 0 1705.0 -0.7958926658011373 1
gene  1 27 41 -0.526275463240804 0 1706.0 -0.526275463240804 1
gene  1 28 41 0.6097874377763819 0 1707.0 0.6097874377763819 1
gene  1 35 41 0.6251771745076967 0 1714.0 0.6251771745076967 1
gene  1 37 41 0.925128886443269 0 1716.0 0.925128886443269 1
gene  1 38 41 -0.9661541703330626 0 1717.0 -0.9661541703330626 1
gene  1 39 41 0.7204657214388823 0 1718.0 0.7204657214388823 1
gene  1 40 41 -0.7030590692342363 0 1719.0 -0.7030590692342363 1
gene  1 42 41 0.022864388344099207 1 1721.0 0.022864388344099207 1
gene  1 1 42 0.4974954138596669 0 1722.0 0.4974954138596669 1
gene  1 3 42 -0.7918439310142282 0 1724.0 -0.7918439310142282 1
gene  1 8 42 0.6947863486079096 0 1729.0 0.6947863486079096 1
gene  1 12 42 -0.8932466096443952 0 1733.0 -0.8932466096443952 1
gene  1 13 42 -0.26206966934436393 0 1734.0 -0.26206966934436393 1
gene  1 15 42 -0.3542661588139744 0 1736.0 -0.3542661588139744 1
gene  1 16 42 0.4742757516442525 0 1737.0 0.4742757516442525 1
gene  1 17 42 0.4092068785178873 0 1738.0 0.4092068785178873 1
gene  1 19 42 0.0013702050043983283 0 1740.0 0.0013702050043983283 1
gene  1 22 42 0.7617677285984951 0 1743.0 0.7617677285984951 1
gene  1 23 42 -0.2208892565255166 0 1744.0 -0.2208892565255166 1
gene  1 26 42 0.6258186256597896 0 1747.0 0.6258186256597896 1
gene  1 27 42 0.28960041164133843 0 1748.0 0.28960041164133843 1
gene  1 28 42 0.367925541204041 0 1749.0 0.367925541204041 1
gene  1 34 42 0.5216980904472753 0 1755.0 0.5216980904472753 1
gene  1 35 42 -0.806804363803835 0 1756.0 -0.806804363803835 1
gene  1 37 42 -0.4629435425227876 0 1758.0 -0.4629435425227876 1
gene  1 39 42 -0.2373115976345921 0 1760.0 -0.2373115976345921 1
gene  1 42 42 -0.9093709088694181 1 1763.0 -0.9093709088694181 1
genomeend 1
/* Organism # 002 Fitness:  0.000 Error:  0.000                      */
genomestart  2
trait 1 0.0 0.0 0.0 0.0 0.0 0.0 0.0 0.0 
node 1 1 1 1
node 2 1 1 1
node 3 1 1 1
node 4 1 1 1
node 5 1 1 1
node 6 1 1 1
node 7 1 1 1
node 8 1 1 1
node 9 1 1 1
node 10 1 1 1
node 11 1 1 1
node 12 1 1 1
node 13 1 1 1
node 14 1 1 1
node 15 1 1 1
node 16 1 1 1
node 17 1 1 1
node 18 1 1 1
node 19 1 1 1
node 20 1 1 1
node 21 1 1 1
node 22 1 1 1
node 23 1 1 1
node 24 1 1 1
node 25 1 1 1
node 26 1 1 1
node 27 1 1 1
node 28 1 1 3
node 34 1 0 2
node 35 1 0 2
node 36 1 0 2
node 37 1 0 2
node 38 1 0 2
node 39 1 0 2
node 40 1 0 2
node 41 1 0 2
node 42 1 0 2
gene  1 4 34 -0.7421089364730132 0 1389.0 -0.7421089364730132 1
gene  1 5 34 0.24823525940790148 0 1390.0 0.24823525940790148 1
gene  1 8 34 -0.7001735399343197 0 1393.0 -0.7001735399343197 1
gene  1 10 34 0.30773556461245266 0 1395.0 0.30773556461245266 1
gene  1 12 34 -0.25726360350057775 0 1397.0 -0.25726360350057775 1
gene  1 13 34 -0.7464693969768006 0 1398.0 -0.7464693969768006 1
gene  1 16 34 -0.8969002659168158 0 1401.0 -0.8969002659168158 1
gene  1 18 34 0.04379178639345094 0 1403.0 0.04379178639345094 1
gene  1 19 34 -0.24757502777236928 0 1404.0 -0.24757502777236928 1
gene  1 20 34 0.08620124973048959 0 1405.0 0.08620124973048959 1
gene  1 21 34 0.10982365454239573 0 1406.0 0.10982365454239573 1
gene  1 22 34 -0.557891117147745 0 1407.0 -0.557891117147745 1
gene  1 23 34 0.08874007553240404 0 1408.0 0.08874007553240404 1
gene  1 25 34 0.4309551209775484 0 1410.0 0.4309551209775484 1
gene  1 26 34 0.6595988914927147 0 1411.0 0.6595988914927147 1
gene  1 27 34 0.12649572292799427 0 1412.0 0.12649572292799427 1
gene  1 36 34 0.27390323557127383 1 1421.0 0.27390323557127383 1
gene  1 37 34 0.8619693563132723 1 1422.0 0.8619693563132723 1
gene  1 41 34 -0.2835996344606918 1 1426.0 -0.2835996344606918 1
gene  1 3 35 -0.2835622610330577 0 1430.0 -0.2835622610330577 1
gene  1 4 35 0.18500127826269275 0 1431.0 0.18500127826269275 1
gene  1 6 35 -0.616333916046429 0 1433.0 -0.616333916046429 1
gene  1 9 35 0.012420239677106149 0 1436.0 0.012420239677106149 1
gene  1 11 35 -0.16257924064582885 0 1438.0 -0.16257924064582885 1
gene  1 15 35 -0.9594351983674351 0 1442.0 -0.9594351983674351 1
gene  1 19 35 -0.6101916279728683 0 1446.0 -0.6101916279728683 1
gene  1 20 35 -0.5527020903175044 0 1447.0 -0.5527020903175044 1
gene  1 21 35 0.5486338062009665 0 1448.0 0.5486338062009665 1
gene  1 22 35 0.40967255896065125 0 1449.0 0.40967255896065125 1
gene  1 24 35 -0.11590983454752979 0 1451.0 -0.11590983454752979 1
gene  1 25 35 -0.43155735619256963 0 1452.0 -0.43155735619256963 1
gene  1 34 35 -0.5459538530665337 0 1461.0 -0.5459538530665337 1
gene  1 37 35 0.49939248504153555 1 1464.0 0.49939248504153555 1
gene  1 38 35 0.3405509650727345 1 1465.0 0.3405509650727345 1
gene  1 39 35 0.34361316637586303 1 1466.0 0.34361316637586303 1
gene  1 41 35 -0.03148093271962904 1 1468.0 -0.03148093271962904 1
gene  1 42 35 -0.5248548860536107 1 1469.0 -0.5248548860536107 1
gene  1 1 36 0.8987628041288347 0 1470.0 0.8987628041288347 1
gene  1 4 36 0.009027207029493445 0 1473.0 0.009027207029493445 1
gene  1 5 36 -0.633545974586073 0 1474.0 -0.633545974586073 1
gene  1 11 36 0.39918709205220726 0 1480.0 0.39918709205220726 1
gene  1 12 36 -0.17016161523660522 0 1481.0 -0.17016161523660522 1
gene  1 16 36 -0.8655544789954823 0 1485.0 -0.8655544789954823 1
gene  1 17 36 0.16011731945599206 0 1486.0 0.16011731945599206 1
gene  1 18 36 0.02949413828743186 0 1487.0 0.02949413828743186 1
gene  1 21 36 0.08505679310381686 0 1490.0 0.08505679310381686 1
gene  1 23 36 0.9050692954484028 0 1492.0 0.9050692954484028 1
gene  1 24 36 0.5637226596469731 0 1493.0 0.5637226596469731 1
gene  1 25 36 0.9357447927653101 0 1494.0 0.9357447927653101 1
gene  1 26 36 -0.47050433846388684 0 1495.0 -0.47050433846388684 1
gene  1 34 36 0.3594347636238927 0 1503.0 0.3594347636238927 1
gene  1 37 36 0.32723936118363917 1 1506.0 0.32723936118363917 1
gene  1 38 36 0.9442732582629172 1 1507.0 0.9442732582629172 1
gene  1 39 36 -0.11059195637872077 1 1508.0 -0.11059195637872077 1
gene  1 41 36 0.03621324570278439 1 1510.0 0.03621324570278439 1
gene  1 2 37 -0.7904012973061642 0 1513.0 -0.7904012973061642 1
gene  1 3 37 -0.9398475305562727 0 1514.0 -0.9398475305562727 1
gene  1 5 37 -0.7018399267230115 0 1516.0 -0.7018399267230115 1
gene  1 7 37 -0.3047417495974766 0 1518.0 -0.3047417495974766 1
gene  1 9 37 0.4120643172805336 0 1520.0 0.4120643172805336 1
gene  1 12 37 -0.4553498812827833 0 1523.0 -0.4553498812827833 1
gene  1 19 37 0.9098131432408123 0 1530.0 0.9098131432408123 1
gene  1 22 37 -0.8002545800647182 0 1533.0 -0.8002545800647182 1
gene  1 27 37 0.3258546576365188 0 1538.0 0.3258546576365188 1
gene  1 28 37 0.9783218332999231 0 1539.0 0.9783218332999231 1
gene  1 37 37 0.42152024033147273 1 1548.0 0.42152024033147273 1
gene  1 38 37 -0.22008944087184312 1 1549.0 -0.22008944087184312 1
gene  1 40 37 -0.1415251294057257 1 1551.0 -0.1415251294057257 1
gene  1 3 38 -0.6544582711142225 0 1556.0 -0.6544582711142225 1
gene  1 9 38 -0.8268390576968869 0 1562.0 -0.8268390576968869 1
gene  1 10 38 -0.3630105401230186 0 1563.0 -0.3630105401230186 1
gene  1 11 38 -0.6627619731867889 0 1564.0 -0.6627619731867889 1
gene  1 12 38 0.9494706491564349 0 1565.0 0.9494706491564349 1
gene  1 13 38 -0.10984334479985147 0 1566.0 -0.10984334479985147 1
gene  1 16 38 0.15114051485769664 0 1569.0 0.15114051485769664 1
gene  1 20 38 0.7227977474576205 0 1573.0 0.7227977474576205 1
gene  1 21 38 0.40683866428742765 0 1574.0 0.40683866428742765 1
gene  1 22 38 0.6681778686283091 0 1575.0 0.6681778686283091 1
gene  1 23 38 0.4741104328332544 0 1576.0 0.4741104328332544 1
gene  1 24 38 -0.41734555193578193 0 1577.0 -0.41734555193578193 1
gene  1 25 38 -0.008465928064300354 0 1578.0 -0.008465928064300354 1
gene  1 27 38 0.9580754190661428 0 1580.0 0.9580754190661428 1
gene  1 37 38 -0.6163811295924438 0 1590.0 -0.6163811295924438 1
gene  1 41 38 -0.6723017783852826 1 1594.0 -0.6723017783852826 1
gene  1 42 38 0.6411532288056123 1 1595.0 0.6411532288056123 1
gene  1 1 39 -0.8586467221518014 0 1596.0 -0.8586467221518014 1
gene  1 2 39 -0.9402080783669534 0 1597.0 -0.9402080783669534 1
gene  1 5 39 -0.9004715326706101 0 1600.0 -0.9004715326706101 1
gene  1 8 39 -0.6114898623521817 0 1603.0 -0.6114898623521817 1
gene  1 9 39 0.607988721821256 0 1604.0 0.607988721821256 1
gene  1 11 39 -0.6767330499070582 0 1606.0 -0.6767330499070582 1
gene  1 12 39 -0.853228589473296 0 1607.0 -0.853228589473296 1
gene  1 18 39 0.08699301002104054 0 1613.0 0.08699301002104054 1
gene  1 19 39 -0.053613696988352166 0 1614.0 -0.053613696988352166 1
gene  1 23 39 0.7638866510673182 0 1618.0 0.7638866510673182 1
gene  1 25 39 0.08238263068176022 0 1620.0 0.08238263068176022 1
gene  1 27 39 0.3082330593114203 0 1622.0 0.3082330593114203 1
gene  1 35 39 0.020741838310423644 0 1630.0 0.020741838310423644 1
gene  1 36 39 0.9092464260113872 0 1631.0 0.9092464260113872 1
gene  1 37 39 0.41431550267167616 0 1632.0 0.41431550267167616 1
gene  1 40 39 0.685775136486646 1 1635.0 0.685775136486646 1
gene  1 1 40 0.7960330683864854 0 1638.0 0.7960330683864854 1
gene  1 2 40 0.5551587751894606 0 1639.0 0.5551587751894606 1
gene  1 4 40 0.7692696042624008 0 1641.0 0.7692696042624008 1
gene  1 6 40 0.721927750406669 0 1643.0 0.721927750406669 1
gene  1 12 40 0.18515426997811746 0 1649.0 0.18515426997811746 1
gene  1 15 40 0.3981233988333662 0 1652.0 0.3981233988333662 1
gene  1 17 40 -0.5969985765524332 0 1654.0 -0.5969985765524332 1
gene  1 19 40 0.5697752051029353 0 1656.0 0.5697752051029353 1
gene  1 22 40 0.8858455654070612 0 1659.0 0.8858455654070612 1
gene  1 26 40 0.13984804275302043 0 1663.0 0.13984804275302043 1
gene  1 28 40 0.25617732657454717 0 1665.0 0.25617732657454717 1
gene  1 34 40 0.9344153831945217 0 1671.0 0.9344153831945217 1
gene  1 35 40 0.25140479621028045 0 1672.0 0.25140479621028045 1
gene  1 36 40 0.40808166099645815 0 1673.0 0.40808166099645815 1
gene  1 41 40 -0.2462408647353359 1 1678.0 -0.2462408647353359 1
gene  1 42 40 -0.6417353233799912 1 1679.0 -0.6417353233799912 1
gene  1 1 41 0.052167659991653736 0 1680.0 0.052167659991653736 1
gene  1 2 41 -0.3252705524386511 0 1681.0 -0.3252705524386511 1
gene  1 3 41 -0.26078020675631497 0 1682.0 -0.26078020675631497 1
gene  1 4 41 0.24081706139392645 0 1683.0 0.24081706139392645 1
gene  1 7 41 -0.8959090105896762 0 1686.0 -0.8959090105896762 1
gene  1 8 41 0.17557372995904863 0 1687.0 0.17557372995904863 1
gene  1 9 41 -0.3222463250094969 0 1688.0 -0.3222463250094969 1
gene  1 10 41 0.3939329673629959 0 1689.0 0.3939329673629959 1
gene  1 13 41 0.2852943124324795 0 1692.0 0.2852943124324795 1
gene  1 14 41 0.5385177585054867 0 1693.0 0.5385177585054867 1
gene  1 18 41 -0.5763512372679771 0 1697.0 -0.5763512372679771 1
gene  1 19 41 0.9541968705640955 0 1698.0 0.9541968705640955 1
gene  1 21 41 -0.2866082784944054 0 1700.0 -0.2866082784944054 1
gene  1 23 41 0.2426367291387368 0 1702.0 0.2426367291387368 1
gene  1 24 41 -0.765934667413345 0 1703.0 -0.765934667413345 1
gene  1 25 41 -0.6807915687788848 0 1704.0 -0.6807915687788848 1
gene  1 26 41 -0.7958926658011373 0 1705.0 -0.7958926658011373 1
gene  1 27 41 -0.526275463240804 0 1706.0 -0.526275463240804 1
gene  1 28 41 0.6097874377763819 0 1707.0 0.6097874377763819 1
gene  1 35 41 0.6251771745076967 0 1714.0 0.6251771745076967 1
gene  1 37 41 0.925128886443269 0 1716.0 0.925128886443269 1
gene  1 38 41 -0.9661541703330626 0 1717.0 -0.9661541703330626 1
gene  1 39 41 0.7204657214388823 0 1718.0 0.7204657214388823 1
gene  1 40 41 -0.7030590692342363 0 1719.0 -0.7030590692342363 1
gene  1 42 41 0.022864388344099207 1 1721.0 0.022864388344099207 1
gene  1 1 42 0.4974954138596669 0 1722.0 0.4974954138596669 1
gene  1 3 42 -0.7918439310142282 0 1724.0 -0.7918439310142282 1
gene  1 8 42 0.6947863486079096 0 1729.0 0.6947863486079096 1
gene  1 12 42 -0.8932466096443952 0 1733.0 -0.8932466096443952 1
gene  1 13 42 -0.26206966934436393 0 1734.0 -0.26206966934436393 1
gene  1 15 42 -0.3542661588139744 0 1736.0 -0.3542661588139744 1
gene  1 16 42 0.4742757516442525 0 1737.0 0.4742757516442525 1
gene  1 17 42 0.4092068785178873 0 1738.0 0.4092068785178873 1
gene  1 19 42 0.0013702050043983283 0 1740.0 0.0013702050043983283 1
gene  1 22 42 0.7617677285984951 0 1743.0 0.7617677285984951 1
gene  1 23 42 -0.2208892565255166 0 1744.0 -0.2208892565255166 1
gene  1 26 42 0.6258186256597896 0 1747.0 0.6258186256597896 1
gene  1 27 42 0.28960041164133843 0 1748.0 0.28960041164133843 1
gene  1 28 42 0.367925541204041 0 1749.0 0.367925541204041 1
gene  1 34 42 0.5216980904472753 0 1755.0 0.5216980904472753 1
gene  1 35 42 -0.806804363803835 0 1756.0 -0.806804363803835 1
gene  1 37 42 -0.4629435425227876 0 1758.0 -0.4629435425227876 1
gene  1 39 42 -0.2373115976345921 0 1760.0 -0.2373115976345921 1
gene  1 42 42 -0.9093709088694181 1 1763.0 -0.9093709088694181 1
genomeend 2
/* Organism # 003 Fitness:  0.000 Error:  0.000                      */
genomestart  3
trait 1 0.0 0.0 0.0 0.0 0.0 0.0 0.0 0.0 
node 1 1 1 1
node 2 1 1 1
node 3 1 1 1
node 4 1 1 1
node 5 1 1 1
node 6 1 1 1
node 7 1 1 1
node 8 1 1 1
node 9 1 1 1
node 10 1 1 1
node 11 1 1 1
node 12 1 1 1
node 13 1 1 1
node 14 1 1 1
node 15 1 1 1
node 16 1 1 1
node 17 1 1 1
node 18 1 1 1
node 19 1 1 1
node 20 1 1 1
node 21 1 1 1
node 22 1 1 1
node 23 1 1 1
node 24 1 1 1
node 25 1 1 1
node 26 1 1 1
node 27 1 1 1
node 28 1 1 3
node 34 1 0 2
node 35 1 0 2
node 36 1 0 2
node 37 1 0 2
node 38 1 0 2
node 39 1 0 2
node 40 1 0 2
node 41 1 0 2
node 42 1 0 2
gene  1 4 34 -0.7421089364730132 0 1389.0 -0.7421089364730132 1
gene  1 5 34 0.24823525940790148 0 1390.0 0.24823525940790148 1
gene  1 8 34 -0.7001735399343197 0 1393.0 -0.7001735399343197 1
gene  1 10 34 0.30773556461245266 0 1395.0 0.30773556461245266 1
gene  1 12 34 -0.25726360350057775 0 1397.0 -0.25726360350057775 1
gene  1 13 34 -0.7464693969768006 0 1398.0 -0.7464693969768006 1
gene  1 16 34 -0.8969002659168158 0 1401.0 -0.8969002659168158 1
gene  1 18 34 0.04379178639345094 0 1403.0 0.04379178639345094 1
gene  1 19 34 -0.24757502777236928 0 1404.0 -0.24757502777236928 1
gene  1 20 34 0.08620124973048959 0 1405.0 0.08620124973048959 1
gene  1 21 34 0.10982365454239573 0 1406.0 0.10982365454239573 1
gene  1 22 34 -0.557891117147745 0 1407.0 -0.557891117147745 1
gene  1 23 34 0.08874007553240404 0 1408.0 0.08874007553240404 1
gene  1 25 34 0.4309551209775484 0 1410.0 0.4309551209775484 1
gene  1 26 34 0.6595988914927147 0 1411.0 0.6595988914927147 1
gene  1 27 34 0.12649572292799427 0 1412.0 0.12649572292799427 1
gene  1 36 34 0.27390323557127383 1 1421.0 0.27390323557127383 1
gene  1 37 34 0.8619693563132723 1 1422.0 0.8619693563132723 1
gene  1 41 34 -0.2835996344606918 1 1426.0 -0.2835996344606918 1
gene  1 3 35 -0.2835622610330577 0 1430.0 -0.2835622610330577 1
gene  1 4 35 0.18500127826269275 0 1431.0 0.18500127826269275 1
gene  1 6 35 -0.616333916046429 0 1433.0 -0.616333916046429 1
gene  1 9 35 0.012420239677106149 0 1436.0 0.012420239677106149 1
gene  1 11 35 -0.16257924064582885 0 1438.0 -0.16257924064582885 1
gene  1 15 35 -0.9594351983674351 0 1442.0 -0.9594351983674351 1
gene  1 19 35 -0.6101916279728683 0 1446.0 -0.6101916279728683 1
gene  1 20 35 -0.5527020903175044 0 1447.0 -0.5527020903175044 1
gene  1 21 35 0.5486338062009665 0 1448.0 0.5486338062009665 1
gene  1 22 35 0.40967255896065125 0 1449.0 0.40967255896065125 1
gene  1 24 35 -0.11590983454752979 0 1451.0 -0.11590983454752979 1
gene  1 25 35 -0.43155735619256963 0 1452.0 -0.43155735619256963 1
gene  1 34 35 -0.5459538530665337 0 1461.0 -0.5459538530665337 1
gene  1 37 35 0.49939248504153555 1 1464.0 0.49939248504153555 1
gene  1 38 35 0.3405509650727345 1 1465.0 0.3405509650727345 1
gene  1 39 35 0.34361316637586303 1 1466.0 0.34361316637586303 1
gene  1 41 35 -0.03148093271962904 1 1468.0 -0.03148093271962904 1
gene  1 42 35 -0.5248548860536107 1 1469.0 -0.5248548860536107 1
gene  1 1 36 0.8987628041288347 0 1470.0 0.8987628041288347 1
gene  1 4 36 0.009027207029493445 0 1473.0 0.009027207029493445 1
gene  1 5 36 -0.633545974586073 0 1474.0 -0.633545974586073 1
gene  1 11 36 0.39918709205220726 0 1480.0 0.39918709205220726 1
gene  1 12 36 -0.17016161523660522 0 1481.0 -0.17016161523660522 1
gene  1 16 36 -0.8655544789954823 0 1485.0 -0.8655544789954823 1
gene  1 17 36 0.16011731945599206 0 1486.0 0.16011731945599206 1
gene  1 18 36 0.02949413828743186 0 1487.0 0.02949413828743186 1
gene  1 21 36 0.08505679310381686 0 1490.0 0.08505679310381686 1
gene  1 23 36 0.9050692954484028 0 1492.0 0.9050692954484028 1
gene  1 24 36 0.5637226596469731 0 1493.0 0.5637226596469731 1
gene  1 25 36 0.9357447927653101 0 1494.0 0.9357447927653101 1
gene  1 26 36 -0.47050433846388684 0 1495.0 -0.47050433846388684 1
gene  1 34 36 0.3594347636238927 0 1503.0 0.3594347636238927 1
gene  1 37 36 0.32723936118363917 1 1506.0 0.32723936118363917 1
gene  1 38 36 0.9442732582629172 1 1507.0 0.9442732582629172 1
gene  1 39 36 -0.11059195637872077 1 1508.0 -0.11059195637872077 1
gene  1 41 36 0.03621324570278439 1 1510.0 0.03621324570278439 1
gene  1 2 37 -0.7904012973061642 0 1513.0 -0.7904012973061642 1
gene  1 3 37 -0.9398475305562727 0 1514.0 -0.9398475305562727 1
gene  1 5 37 -0.7018399267230115 0 1516.0 -0.7018399267230115 1
gene  1 7 37 -0.3047417495974766 0 1518.0 -0.3047417495974766 1
gene  1 9 37 0.4120643172805336 0 1520.0 0.4120643172805336 1
gene  1 12 37 -0.4553498812827833 0 1523.0 -0.4553498812827833 1
gene  1 19 37 0.9098131432408123 0 1530.0 0.9098131432408123 1
gene  1 22 37 -0.8002545800647182 0 1533.0 -0.8002545800647182 1
gene  1 27 37 0.3258546576365188 0 1538.0 0.3258546576365188 1
gene  1 28 37 0.9783218332999231 0 1539.0 0.9783218332999231 1
gene  1 37 37 0.42152024033147273 1 1548.0 0.42152024033147273 1
gene  1 38 37 -0.22008944087184312 1 1549.0 -0.22008944087184312 1
gene  1 40 37 -0.1415251294057257 1 1551.0 -0.1415251294057257 1
gene  1 3 38 -0.6544582711142225 0 1556.0 -0.6544582711142225 1
gene  1 9 38 -0.8268390576968869 0 1562.0 -0.8268390576968869 1
gene  1 10 38 -0.3630105401230186 0 1563.0 -0.3630105401230186 1
gene  1 11 38 -0.6627619731867889 0 1564.0 -0.6627619731867889 1
gene  1 12 38 0.9494706491564349 0 1565.0 0.9494706491564349 1
gene  1 13 38 -0.10984334479985147 0 1566.0 -0.10984334479985147 1
gene  1 16 38 0.15114051485769664 0 1569.0 0.15114051485769664 1
gene  1 20 38 0.7227977474576205 0 1573.0 0.7227977474576205 1
gene  1 21 38 0.40683866428742765 0 1574.0 0.40683866428742765 1
gene  1 22 38 0.6681778686283091 0 1575.0 0.6681778686283091 1
gene  1 23 38 0.4741104328332544 0 1576.0 0.4741104328332544 1
gene  1 24 38 -0.41734555193578193 0 1577.0 -0.41734555193578193 1
gene  1 25 38 -0.008465928064300354 0 1578.0 -0.008465928064300354 1
gene  1 27 38 0.9580754190661428 0 1580.0 0.9580754190661428 1
gene  1 37 38 -0.6163811295924438 0 1590.0 -0.6163811295924438 1
gene  1 41 38 -0.6723017783852826 1 1594.0 -0.6723017783852826 1
gene  1 42 38 0.6411532288056123 1 1595.0 0.6411532288056123 1
gene  1 1 39 -0.8586467221518014 0 1596.0 -0.8586467221518014 1
gene  1 2 39 -0.9402080783669534 0 1597.0 -0.9402080783669534 1
gene  1 5 39 -0.9004715326706101 0 1600.0 -0.9004715326706101 1
gene  1 8 39 -0.6114898623521817 0 1603.0 -0.6114898623521817 1
gene  1 9 39 0.607988721821256 0 1604.0 0.607988721821256 1
gene  1 11 39 -0.6767330499070582 0 1606.0 -0.6767330499070582 1
gene  1 12 39 -0.853228589473296 0 1607.0 -0.853228589473296 1
gene  1 18 39 0.08699301002104054 0 1613.0 0.08699301002104054 1
gene  1 19 39 -0.053613696988352166 0 1614.0 -0.053613696988352166 1
gene  1 23 39 0.7638866510673182 0 1618.0 0.7638866510673182 1
gene  1 25 39 0.08238263068176022 0 1620.0 0.08238263068176022 1
gene  1 27 39 0.3082330593114203 0 1622.0 0.3082330593114203 1
gene  1 35 39 0.020741838310423644 0 1630.0 0.020741838310423644 1
gene  1 36 39 0.9092464260113872 0 1631.0 0.9092464260113872 1
gene  1 37 39 0.41431550267167616 0 1632.0 0.41431550267167616 1
gene  1 40 39 0.685775136486646 1 1635.0 0.685775136486646 1
gene  1 1 40 0.7960330683864854 0 1638.0 0.7960330683864854 1
gene  1 2 40 0.5551587751894606 0 1639.0 0.5551587751894606 1
gene  1 4 40 0.7692696042624008 0 1641.0 0.7692696042624008 1
gene  1 6 40 0.721927750406669 0 1643.0 0.721927750406669 1
gene  1 12 40 0.18515426997811746 0 1649.0 0.18515426997811746 1
gene  1 15 40 0.3981233988333662 0 1652.0 0.3981233988333662 1
gene  1 17 40 -0.5969985765524332 0 1654.0 -0.5969985765524332 1
gene  1 19 40 0.5697752051029353 0 1656.0 0.5697752051029353 1
gene  1 22 40 0.8858455654070612 0 1659.0 0.8858455654070612 1
gene  1 26 40 0.13984804275302043 0 1663.0 0.13984804275302043 1
gene  1 28 40 0.25617732657454717 0 1665.0 0.25617732657454717 1
gene  1 34 40 0.9344153831945217 0 1671.0 0.9344153831945217 1
gene  1 35 40 0.25140479621028045 0 1672.0 0.25140479621028045 1
gene  1 36 40 0.40808166099645815 0 1673.0 0.40808166099645815 1
gene  1 41 40 -0.2462408647353359 1 1678.0 -0.2462408647353359 1
gene  1 42 40 -0.6417353233799912 1 1679.0 -0.6417353233799912 1
gene  1 1 41 0.052167659991653736 0 1680.0 0.052167659991653736 1
gene  1 2 41 -0.3252705524386511 0 1681.0 -0.3252705524386511 1
gene  1 3 41 -0.26078020675631497 0 1682.0 -0.26078020675631497 1
gene  1 4 41 0.24081706139392645 0 1683.0 0.24081706139392645 1
gene  1 7 41 -0.8959090105896762 0 1686.0 -0.8959090105896762 1
gene  1 8 41 0.17557372995904863 0 1687.0 0.17557372995904863 1
gene  1 9 41 -0.3222463250094969 0 1688.0 -0.3222463250094969 1
gene  1 10 41 0.3939329673629959 0 1689.0 0.3939329673629959 1
gene  1 13 41 0.2852943124324795 0 1692.0 0.2852943124324795 1
gene  1 14 41 0.5385177585054867 0 1693.0 0.5385177585054867 1
gene  1 18 41 -0.5763512372679771 0 1697.0 -0.5763512372679771 1
gene  1 19 41 0.9541968705640955 0 1698.0 0.9541968705640955 1
gene  1 21 41 -0.2866082784944054 0 1700.0 -0.2866082784944054 1
gene  1 23 41 0.2426367291387368 0 1702.0 0.2426367291387368 1
gene  1 24 41 -0.765934667413345 0 1703.0 -0.765934667413345 1
gene  1 25 41 -0.6807915687788848 0 1704.0 -0.6807915687788848 1
gene  1 26 41 -0.7958926658011373 0 1705.0 -0.7958926658011373 1
gene  1 27 41 -0.526275463240804 0 1706.0 -0.526275463240804 1
gene  1 28 41 0.6097874377763819 0 1707.0 0.6097874377763819 1
gene  1 35 41 0.6251771745076967 0 1714.0 0.6251771745076967 1
gene  1 37 41 0.925128886443269 0 1716.0 0.925128886443269 1
gene  1 38 41 -0.9661541703330626 0 1717.0 -0.9661541703330626 1
gene  1 39 41 0.7204657214388823 0 1718.0 0.7204657214388823 1
gene  1 40 41 -0.7030590692342363 0 1719.0 -0.7030590692342363 1
gene  1 42 41 0.022864388344099207 1 1721.0 0.022864388344099207 1
gene  1 1 42 0.4974954138596669 0 1722.0 0.4974954138596669 1
gene  1 3 42 -0.7918439310142282 0 1724.0 -0.7918439310142282 1
gene  1 8 42 0.6947863486079096 0 1729.0 0.6947863486079096 1
gene  1 12 42 -0.8932466096443952 0 1733.0 -0.8932466096443952 1
gene  1 13 42 -0.26206966934436393 0 1734.0 -0.26206966934436393 1
gene  1 15 42 -0.3542661588139744 0 1736.0 -0.3542661588139744 1
gene  1 16 42 0.4742757516442525 0 1737.0 0.4742757516442525 1
gene  1 17 42 0.4092068785178873 0 1738.0 0.4092068785178873 1
gene  1 19 42 0.0013702050043983283 0 1740.0 0.0013702050043983283 1
gene  1 22 42 0.7617677285984951 0 1743.0 0.7617677285984951 1
gene  1 23 42 -0.2208892565255166 0 1744.0 -0.2208892565255166 1
gene  1 26 42 0.6258186256597896 0 1747.0 0.6258186256597896 1
gene  1 27 42 0.28960041164133843 0 1748.0 0.28960041164133843 1
gene  1 28 42 0.367925541204041 0 1749.0 0.367925541204041 1
gene  1 34 42 0.5216980904472753 0 1755.0 0.5216980904472753 1
gene  1 35 42 -0.806804363803835 0 1756.0 -0.806804363803835 1
gene  1 37 42 -0.4629435425227876 0 1758.0 -0.4629435425227876 1
gene  1 39 42 -0.2373115976345921 0 1760.0 -0.2373115976345921 1
gene  1 42 42 -0.9093709088694181 1 1763.0 -0.9093709088694181 1
genomeend 3
/* Organism # 004 Fitness:  0.000 Error:  0.000                      */
genomestart  4
trait 1 0.0 0.0 0.0 0.0 0.0 0.0 0.0 0.0 
node 1 1 1 1
node 2 1 1 1
node 3 1 1 1
node 4 1 1 1
node 5 1 1 1
node 6 1 1 1
node 7 1 1 1
node 8 1 1 1
node 9 1 1 1
node 10 1 1 1
node 11 1 1 1
node 12 1 1 1
node 13 1 1 1
node 14 1 1 1
node 15 1 1 1
node 16 1 1 1
node 17 1 1 1
node 18 1 1 1
node 19 1 1 1
node 20 1 1 1
node 21 1 1 1
node 22 1 1 1
node 23 1 1 1
node 24 1 1 1
node 25 1 1 1
node 26 1 1 1
node 27 1 1 1
node 28 1 1 3
node 34 1 0 2
node 35 1 0 2
node 36 1 0 2
node 37 1 0 2
node 38 1 0 2
node 39 1 0 2
node 40 1 0 2
node 41 1 0 2
node 42 1 0 2
gene  1 4 34 -0.7421089364730132 0 1389.0 -0.7421089364730132 1
gene  1 5 34 0.24823525940790148 0 1390.0 0.24823525940790148 1
gene  1 8 34 -0.7001735399343197 0 1393.0 -0.7001735399343197 1
gene  1 10 34 0.30773556461245266 0 1395.0 0.30773556461245266 1
gene  1 12 34 -0.25726360350057775 0 1397.0 -0.25726360350057775 1
gene  1 13 34 -0.7464693969768006 0 1398.0 -0.7464693969768006 1
gene  1 16 34 -0.8969002659168158 0 1401.0 -0.8969002659168158 1
gene  1 18 34 0.04379178639345094 0 1403.0 0.04379178639345094 1
gene  1 19 34 -0.24757502777236928 0 1404.0 -0.24757502777236928 1
gene  1 20 34 0.08620124973048959 0 1405.0 0.08620124973048959 1
gene  1 21 34 0.10982365454239573 0 1406.0 0.10982365454239573 1
gene  1 22 34 -0.557891117147745 0 1407.0 -0.557891117147745 1
gene  1 23 34 0.08874007553240404 0 1408.0 0.08874007553240404 1
gene  1 25 34 0.4309551209775484 0 1410.0 0.4309551209775484 1
gene  1 26 34 0.6595988914927147 0 1411.0 0.6595988914927147 1
gene  1 27 34 0.12649572292799427 0 1412.0 0.12649572292799427 1
gene  1 36 34 0.27390323557127383 1 1421.0 0.27390323557127383 1
gene  1 37 34 0.8619693563132723 1 1422.0 0.8619693563132723 1
gene  1 41 34 -0.2835996344606918 1 1426.0 -0.2835996344606918 1
gene  1 3 35 -0.2835622610330577 0 1430.0 -0.2835622610330577 1
gene  1 4 35 0.18500127826269275 0 1431.0 0.18500127826269275 1
gene  1 6 35 -0.616333916046429 0 1433.0 -0.616333916046429 1
gene  1 9 35 0.012420239677106149 0 1436.0 0.012420239677106149 1
gene  1 11 35 -0.16257924064582885 0 1438.0 -0.16257924064582885 1
gene  1 15 35 -0.9594351983674351 0 1442.0 -0.9594351983674351 1
gene  1 19 35 -0.6101916279728683 0 1446.0 -0.6101916279728683 1
gene  1 20 35 -0.5527020903175044 0 1447.0 -0.5527020903175044 1
gene  1 21 35 0.5486338062009665 0 1448.0 0.5486338062009665 1
gene  1 22 35 0.40967255896065125 0 1449.0 0.40967255896065125 1
gene  1 24 35 -0.11590983454752979 0 1451.0 -0.11590983454752979 1
gene  1 25 35 -0.43155735619256963 0 1452.0 -0.43155735619256963 1
gene  1 34 35 -0.5459538530665337 0 1461.0 -0.5459538530665337 1
gene  1 37 35 0.49939248504153555 1 1464.0 0.49939248504153555 1
gene  1 38 35 0.3405509650727345 1 1465.0 0.3405509650727345 1
gene  1 39 35 0.34361316637586303 1 1466.0 0.34361316637586303 1
gene  1 41 35 -0.03148093271962904 1 1468.0 -0.03148093271962904 1
gene  1 42 35 -0.5248548860536107 1 1469.0 -0.5248548860536107 1
gene  1 1 36 0.8987628041288347 0 1470.0 0.8987628041288347 1
gene  1 4 36 0.009027207029493445 0 1473.0 0.009027207029493445 1
gene  1 5 36 -0.633545974586073 0 1474.0 -0.633545974586073 1
gene  1 11 36 0.39918709205220726 0 1480.0 0.39918709205220726 1
gene  1 12 36 -0.17016161523660522 0 1481.0 -0.17016161523660522 1
gene  1 16 36 -0.8655544789954823 0 1485.0 -0.8655544789954823 1
gene  1 17 36 0.16011731945599206 0 1486.0 0.16011731945599206 1
gene  1 18 36 0.02949413828743186 0 1487.0 0.02949413828743186 1
gene  1 21 36 0.08505679310381686 0 1490.0 0.08505679310381686 1
gene  1 23 36 0.9050692954484028 0 1492.0 0.9050692954484028 1
gene  1 24 36 0.5637226596469731 0 1493.0 0.5637226596469731 1
gene  1 25 36 0.9357447927653101 0 1494.0 0.9357447927653101 1
gene  1 26 36 -0.47050433846388684 0 1495.0 -0.47050433846388684 1
gene  1 34 36 0.3594347636238927 0 1503.0 0.3594347636238927 1
gene  1 37 36 0.32723936118363917 1 1506.0 0.32723936118363917 1
gene  1 38 36 0.9442732582629172 1 1507.0 0.9442732582629172 1
gene  1 39 36 -0.11059195637872077 1 1508.0 -0.11059195637872077 1
gene  1 41 36 0.03621324570278439 1 1510.0 0.03621324570278439 1
gene  1 2 37 -0.7904012973061642 0 1513.0 -0.7904012973061642 1
gene  1 3 37 -0.9398475305562727 0 1514.0 -0.9398475305562727 1
gene  1 5 37 -0.7018399267230115 0 1516.0 -0.7018399267230115 1
gene  1 7 37 -0.3047417495974766 0 1518.0 -0.3047417495974766 1
gene  1 9 37 0.4120643172805336 0 1520.0 0.4120643172805336 1
gene  1 12 37 -0.4553498812827833 0 1523.0 -0.4553498812827833 1
gene  1 19 37 0.9098131432408123 0 1530.0 0.9098131432408123 1
gene  1 22 37 -0.8002545800647182 0 1533.0 -0.8002545800647182 1
gene  1 27 37 0.3258546576365188 0 1538.0 0.3258546576365188 1
gene  1 28 37 0.9783218332999231 0 1539.0 0.9783218332999231 1
gene  1 37 37 0.42152024033147273 1 1548.0 0.42152024033147273 1
gene  1 38 37 -0.22008944087184312 1 1549.0 -0.22008944087184312 1
gene  1 40 37 -0.1415251294057257 1 1551.0 -0.1415251294057257 1
gene  1 3 38 -0.6544582711142225 0 1556.0 -0.6544582711142225 1
gene  1 9 38 -0.8268390576968869 0 1562.0 -0.8268390576968869 1
gene  1 10 38 -0.3630105401230186 0 1563.0 -0.3630105401230186 1
gene  1 11 38 -0.6627619731867889 0 1564.0 -0.6627619731867889 1
gene  1 12 38 0.9494706491564349 0 1565.0 0.9494706491564349 1
gene  1 13 38 -0.10984334479985147 0 1566.0 -0.10984334479985147 1
gene  1 16 38 0.15114051485769664 0 1569.0 0.15114051485769664 1
gene  1 20 38 0.7227977474576205 0 1573.0 0.7227977474576205 1
gene  1 21 38 0.40683866428742765 0 1574.0 0.40683866428742765 1
gene  1 22 38 0.6681778686283091 0 1575.0 0.6681778686283091 1
gene  1 23 38 0.4741104328332544 0 1576.0 0.4741104328332544 1
gene  1 24 38 -0.41734555193578193 0 1577.0 -0.41734555193578193 1
gene  1 25 38 -0.008465928064300354 0 1578.0 -0.008465928064300354 1
gene  1 27 38 0.9580754190661428 0 1580.0 0.9580754190661428 1
gene  1 37 38 -0.6163811295924438 0 1590.0 -0.6163811295924438 1
gene  1 41 38 -0.6723017783852826 1 1594.0 -0.6723017783852826 1
gene  1 42 38 0.6411532288056123 1 1595.0 0.6411532288056123 1
gene  1 1 39 -0.8586467221518014 0 1596.0 -0.8586467221518014 1
gene  1 2 39 -0.9402080783669534 0 1597.0 -0.9402080783669534 1
gene  1 5 39 -0.9004715326706101 0 1600.0 -0.9004715326706101 1
gene  1 8 39 -0.6114898623521817 0 1603.0 -0.6114898623521817 1
gene  1 9 39 0.607988721821256 0 1604.0 0.607988721821256 1
gene  1 11 39 -0.6767330499070582 0 1606.0 -0.6767330499070582 1
gene  1 12 39 -0.853228589473296 0 1607.0 -0.853228589473296 1
gene  1 18 39 0.08699301002104054 0 1613.0 0.08699301002104054 1
gene  1 19 39 -0.053613696988352166 0 1614.0 -0.053613696988352166 1
gene  1 23 39 0.7638866510673182 0 1618.0 0.7638866510673182 1
gene  1 25 39 0.08238263068176022 0 1620.0 0.08238263068176022 1
gene  1 27 39 0.3082330593114203 0 1622.0 0.3082330593114203 1
gene  1 35 39 0.020741838310423644 0 1630.0 0.020741838310423644 1
gene  1 36 39 0.9092464260113872 0 1631.0 0.9092464260113872 1
gene  1 37 39 0.41431550267167616 0 1632.0 0.41431550267167616 1
gene  1 40 39 0.685775136486646 1 1635.0 0.685775136486646 1
gene  1 1 40 0.7960330683864854 0 1638.0 0.7960330683864854 1
gene  1 2 40 0.5551587751894606 0 1639.0 0.5551587751894606 1
gene  1 4 40 0.7692696042624008 0 1641.0 0.7692696042624008 1
gene  1 6 40 0.721927750406669 0 1643.0 0.721927750406669 1
gene  1 12 40 0.18515426997811746 0 1649.0 0.18515426997811746 1
gene  1 15 40 0.3981233988333662 0 1652.0 0.3981233988333662 1
gene  1 17 40 -0.5969985765524332 0 1654.0 -0.5969985765524332 1
gene  1 19 40 0.5697752051029353 0 1656.0 0.5697752051029353 1
gene  1 22 40 0.8858455654070612 0 1659.0 0.8858455654070612 1
gene  1 26 40 0.13984804275302043 0 1663.0 0.13984804275302043 1
gene  1 28 40 0.25617732657454717 0 1665.0 0.25617732657454717 1
gene  1 34 40 0.9344153831945217 0 1671.0 0.9344153831945217 1
gene  1 35 40 0.25140479621028045 0 1672.0 0.25140479621028045 1
gene  1 36 40 0.40808166099645815 0 1673.0 0.40808166099645815 1
gene  1 41 40 -0.2462408647353359 1 1678.0 -0.2462408647353359 1
gene  1 42 40 -0.6417353233799912 1 1679.0 -0.6417353233799912 1
gene  1 1 41 0.052167659991653736 0 1680.0 0.052167659991653736 1
gene  1 2 41 -0.3252705524386511 0 1681.0 -0.3252705524386511 1
gene  1 3 41 -0.26078020675631497 0 1682.0 -0.26078020675631497 1
gene  1 4 41 0.24081706139392645 0 1683.0 0.24081706139392645 1
gene  1 7 41 -0.8959090105896762 0 1686.0 -0.8959090105896762 1
gene  1 8 41 0.17557372995904863 0 1687.0 0.17557372995904863 1
gene  1 9 41 -0.3222463250094969 0 1688.0 -0.3222463250094969 1
gene  1 10 41 0.3939329673629959 0 1689.0 0.3939329673629959 1
gene  1 13 41 0.2852943124324795 0 1692.0 0.2852943124324795 1
gene  1 14 41 0.5385177585054867 0 1693.0 0.5385177585054867 1
gene  1 18 41 -0.5763512372679771 0 1697.0 -0.5763512372679771 1
gene  1 19 41 0.9541968705640955 0 1698.0 0.9541968705640955 1
gene  1 21 41 -0.2866082784944054 0 1700.0 -0.2866082784944054 1
gene  1 23 41 0.2426367291387368 0 1702.0 0.2426367291387368 1
gene  1 24 41 -0.765934667413345 0 1703.0 -0.765934667413345 1
gene  1 25 41 -0.6807915687788848 0 1704.0 -0.6807915687788848 1
gene  1 26 41 -0.7958926658011373 0 1705.0 -0.7958926658011373 1
gene  1 27 41 -0.526275463240804 0 1706.0 -0.526275463240804 1
gene  1 28 41 0.6097874377763819 0 1707.0 0.6097874377763819 1
gene  1 35 41 0.6251771745076967 0 1714.0 0.6251771745076967 1
gene  1 37 41 0.925128886443269 0 1716.0 0.925128886443269 1
gene  1 38 41 -0.9661541703330626 0 1717.0 -0.9661541703330626 1
gene  1 39 41 0.7204657214388823 0 1718.0 0.7204657214388823 1
gene  1 40 41 -0.7030590692342363 0 1719.0 -0.7030590692342363 1
gene  1 42 41 0.022864388344099207 1 1721.0 0.022864388344099207 1
gene  1 1 42 0.4974954138596669 0 1722.0 0.4974954138596669 1
gene  1 3 42 -0.7918439310142282 0 1724.0 -0.7918439310142282 1
gene  1 8 42 0.6947863486079096 0 1729.0 0.6947863486079096 1
gene  1 12 42 -0.8932466096443952 0 1733.0 -0.8932466096443952 1
gene  1 13 42 -0.26206966934436393 0 1734.0 -0.26206966934436393 1
gene  1 15 42 -0.3542661588139744 0 1736.0 -0.3542661588139744 1
gene  1 16 42 0.4742757516442525 0 1737.0 0.4742757516442525 1
gene  1 17 42 0.4092068785178873 0 1738.0 0.4092068785178873 1
gene  1 19 42 0.0013702050043983283 0 1740.0 0.0013702050043983283 1
gene  1 22 42 0.7617677285984951 0 1743.0 0.7617677285984951 1
gene  1 23 42 -0.2208892565255166 0 1744.0 -0.2208892565255166 1
gene  1 26 42 0.6258186256597896 0 1747.0 0.6258186256597896 1
gene  1 27 42 0.28960041164133843 0 1748.0 0.28960041164133843 1
gene  1 28 42 0.367925541204041 0 1749.0 0.367925541204041 1
gene  1 34 42 0.5216980904472753 0 1755.0 0.5216980904472753 1
gene  1 35 42 -0.806804363803835 0 1756.0 -0.806804363803835 1
gene  1 37 42 -0.4629435425227876 0 1758.0 -0.4629435425227876 1
gene  1 39 42 -0.2373115976345921 0 1760.0 -0.2373115976345921 1
gene  1 42 42 -0.9093709088694181 1 1763.0 -0.9093709088694181 1
genomeend 4
/* Organism # 005 Fitness:  0.000 Error:  0.000                      */
genomestart  5
trait 1 0.0 0.0 0.0 0.0 0.0 0.0 0.0 0.0 
node 1 1 1 1
node 2 1 1 1
node 3 1 1 1
node 4 1 1 1
node 5 1 1 1
node 6 1 1 1
node 7 1 1 1
node 8 1 1 1
node 9 1 1 1
node 10 1 1 1
node 11 1 1 1
node 12 1 1 1
node 13 1 1 1
node 14 1 1 1
node 15 1 1 1
node 16 1 1 1
node 17 1 1 1
node 18 1 1 1
node 19 1 1 1
node 20 1 1 1
node 21 1 1 1
node 22 1 1 1
node 23 1 1 1
node 24 1 1 1
node 25 1 1 1
node 26 1 1 1
node 27 1 1 1
node 28 1 1 3
node 34 1 0 2
node 35 1 0 2
node 36 1 0 2
node 37 1 0 2
node 38 1 0 2
node 39 1 0 2
node 40 1 0 2
node 41 1 0 2
node 42 1 0 2
gene  1 4 34 -0.7421089364730132 0 1389.0 -0.7421089364730132 1
gene  1 5 34 0.24823525940790148 0 1390.0 0.24823525940790148 1
gene  1 8 34 -0.7001735399343197 0 1393.0 -0.7001735399343197 1
gene  1 10 34 0.30773556461245266 0 1395.0 0.30773556461245266 1
gene  1 12 34 -0.25726360350057775 0 1397.0 -0.25726360350057775 1
gene  1 13 34 -0.7464693969768006 0 1398.0 -0.7464693969768006 1
gene  1 16 34 -0.8969002659168158 0 1401.0 -0.8969002659168158 1
gene  1 18 34 0.04379178639345094 0 1403.0 0.04379178639345094 1
gene  1 19 34 -0.24757502777236928 0 1404.0 -0.24757502777236928 1
gene  1 20 34 0.08620124973048959 0 1405.0 0.08620124973048959 1
gene  1 21 34 0.10982365454239573 0 1406.0 0.10982365454239573 1
gene  1 22 34 -0.557891117147745 0 1407.0 -0.557891117147745 1
gene  1 23 34 0.08874007553240404 0 1408.0 0.08874007553240404 1
gene  1 25 34 0.4309551209775484 0 1410.0 0.4309551209775484 1
gene  1 26 34 0.6595988914927147 0 1411.0 0.6595988914927147 1
gene  1 27 34 0.12649572292799427 0 1412.0 0.12649572292799427 1
gene  1 36 34 0.27390323557127383 1 1421.0 0.27390323557127383 1
gene  1 37 34 0.8619693563132723 1 1422.0 0.8619693563132723 1
gene  1 41 34 -0.2835996344606918 1 1426.0 -0.2835996344606918 1
gene  1 3 35 -0.2835622610330577 0 1430.0 -0.2835622610330577 1
gene  1 4 35 0.18500127826269275 0 1431.0 0.18500127826269275 1
gene  1 6 35 -0.616333916046429 0 1433.0 -0.616333916046429 1
gene  1 9 35 0.012420239677106149 0 1436.0 0.012420239677106149 1
gene  1 11 35 -0.16257924064582885 0 1438.0 -0.16257924064582885 1
gene  1 15 35 -0.9594351983674351 0 1442.0 -0.9594351983674351 1
gene  1 19 35 -0.6101916279728683 0 1446.0 -0.6101916279728683 1
gene  1 20 35 -0.5527020903175044 0 1447.0 -0.5527020903175044 1
gene  1 21 35 0.5486338062009665 0 1448.0 0.5486338062009665 1
gene  1 22 35 0.40967255896065125 0 1449.0 0.40967255896065125 1
gene  1 24 35 -0.11590983454752979 0 1451.0 -0.11590983454752979 1
gene  1 25 35 -0.43155735619256963 0 1452.0 -0.43155735619256963 1
gene  1 34 35 -0.5459538530665337 0 1461.0 -0.5459538530665337 1
gene  1 37 35 0.49939248504153555 1 1464.0 0.49939248504153555 1
gene  1 38 35 0.3405509650727345 1 1465.0 0.3405509650727345 1
gene  1 39 35 0.34361316637586303 1 1466.0 0.34361316637586303 1
gene  1 41 35 -0.03148093271962904 1 1468.0 -0.03148093271962904 1
gene  1 42 35 -0.5248548860536107 1 1469.0 -0.5248548860536107 1
gene  1 1 36 0.8987628041288347 0 1470.0 0.8987628041288347 1
gene  1 4 36 0.009027207029493445 0 1473.0 0.009027207029493445 1
gene  1 5 36 -0.633545974586073 0 1474.0 -0.633545974586073 1
gene  1 11 36 0.39918709205220726 0 1480.0 0.39918709205220726 1
gene  1 12 36 -0.17016161523660522 0 1481.0 -0.17016161523660522 1
gene  1 16 36 -0.8655544789954823 0 1485.0 -0.8655544789954823 1
gene  1 17 36 0.16011731945599206 0 1486.0 0.16011731945599206 1
gene  1 18 36 0.02949413828743186 0 1487.0 0.02949413828743186 1
gene  1 21 36 0.08505679310381686 0 1490.0 0.08505679310381686 1
gene  1 23 36 0.9050692954484028 0 1492.0 0.9050692954484028 1
gene  1 24 36 0.5637226596469731 0 1493.0 0.5637226596469731 1
gene  1 25 36 0.9357447927653101 0 1494.0 0.9357447927653101 1
gene  1 26 36 -0.47050433846388684 0 1495.0 -0.47050433846388684 1
gene  1 34 36 0.3594347636238927 0 1503.0 0.3594347636238927 1
gene  1 37 36 0.32723936118363917 1 1506.0 0.32723936118363917 1
gene  1 38 36 0.9442732582629172 1 1507.0 0.9442732582629172 1
gene  1 39 36 -0.11059195637872077 1 1508.0 -0.11059195637872077 1
gene  1 41 36 0.03621324570278439 1 1510.0 0.03621324570278439 1
gene  1 2 37 -0.7904012973061642 0 1513.0 -0.7904012973061642 1
gene  1 3 37 -0.9398475305562727 0 1514.0 -0.9398475305562727 1
gene  1 5 37 -0.7018399267230115 0 1516.0 -0.7018399267230115 1
gene  1 7 37 -0.3047417495974766 0 1518.0 -0.3047417495974766 1
gene  1 9 37 0.4120643172805336 0 1520.0 0.4120643172805336 1
gene  1 12 37 -0.4553498812827833 0 1523.0 -0.4553498812827833 1
gene  1 19 37 0.9098131432408123 0 1530.0 0.9098131432408123 1
gene  1 22 37 -0.8002545800647182 0 1533.0 -0.8002545800647182 1
gene  1 27 37 0.3258546576365188 0 1538.0 0.3258546576365188 1
gene  1 28 37 0.9783218332999231 0 1539.0 0.9783218332999231 1
gene  1 37 37 0.42152024033147273 1 1548.0 0.42152024033147273 1
gene  1 38 37 -0.22008944087184312 1 1549.0 -0.22008944087184312 1
gene  1 40 37 -0.1415251294057257 1 1551.0 -0.1415251294057257 1
gene  1 3 38 -0.6544582711142225 0 1556.0 -0.6544582711142225 1
gene  1 9 38 -0.8268390576968869 0 1562.0 -0.8268390576968869 1
gene  1 10 38 -0.3630105401230186 0 1563.0 -0.3630105401230186 1
gene  1 11 38 -0.6627619731867889 0 1564.0 -0.6627619731867889 1
gene  1 12 38 0.9494706491564349 0 1565.0 0.9494706491564349 1
gene  1 13 38 -0.10984334479985147 0 1566.0 -0.10984334479985147 1
gene  1 16 38 0.15114051485769664 0 1569.0 0.15114051485769664 1
gene  1 20 38 0.7227977474576205 0 1573.0 0.7227977474576205 1
gene  1 21 38 0.40683866428742765 0 1574.0 0.40683866428742765 1
gene  1 22 38 0.6681778686283091 0 1575.0 0.6681778686283091 1
gene  1 23 38 0.4741104328332544 0 1576.0 0.4741104328332544 1
gene  1 24 38 -0.41734555193578193 0 1577.0 -0.41734555193578193 1
gene  1 25 38 -0.008465928064300354 0 1578.0 -0.008465928064300354 1
gene  1 27 38 0.9580754190661428 0 1580.0 0.9580754190661428 1
gene  1 37 38 -0.6163811295924438 0 1590.0 -0.6163811295924438 1
gene  1 41 38 -0.6723017783852826 1 1594.0 -0.6723017783852826 1
gene  1 42 38 0.6411532288056123 1 1595.0 0.6411532288056123 1
gene  1 1 39 -0.8586467221518014 0 1596.0 -0.8586467221518014 1
gene  1 2 39 -0.9402080783669534 0 1597.0 -0.9402080783669534 1
gene  1 5 39 -0.9004715326706101 0 1600.0 -0.9004715326706101 1
gene  1 8 39 -0.6114898623521817 0 1603.0 -0.6114898623521817 1
gene  1 9 39 0.607988721821256 0 1604.0 0.607988721821256 1
gene  1 11 39 -0.6767330499070582 0 1606.0 -0.6767330499070582 1
gene  1 12 39 -0.853228589473296 0 1607.0 -0.853228589473296 1
gene  1 18 39 0.08699301002104054 0 1613.0 0.08699301002104054 1
gene  1 19 39 -0.053613696988352166 0 1614.0 -0.053613696988352166 1
gene  1 23 39 0.7638866510673182 0 1618.0 0.7638866510673182 1
gene  1 25 39 0.08238263068176022 0 1620.0 0.08238263068176022 1
gene  1 27 39 0.3082330593114203 0 1622.0 0.3082330593114203 1
gene  1 35 39 0.020741838310423644 0 1630.0 0.020741838310423644 1
gene  1 36 39 0.9092464260113872 0 1631.0 0.9092464260113872 1
gene  1 37 39 0.41431550267167616 0 1632.0 0.41431550267167616 1
gene  1 40 39 0.685775136486646 1 1635.0 0.685775136486646 1
gene  1 1 40 0.7960330683864854 0 1638.0 0.7960330683864854 1
gene  1 2 40 0.5551587751894606 0 1639.0 0.5551587751894606 1
gene  1 4 40 0.7692696042624008 0 1641.0 0.7692696042624008 1
gene  1 6 40 0.721927750406669 0 1643.0 0.721927750406669 1
gene  1 12 40 0.18515426997811746 0 1649.0 0.18515426997811746 1
gene  1 15 40 0.3981233988333662 0 1652.0 0.3981233988333662 1
gene  1 17 40 -0.5969985765524332 0 1654.0 -0.5969985765524332 1
gene  1 19 40 0.5697752051029353 0 1656.0 0.5697752051029353 1
gene  1 22 40 0.8858455654070612 0 1659.0 0.8858455654070612 1
gene  1 26 40 0.13984804275302043 0 1663.0 0.13984804275302043 1
gene  1 28 40 0.25617732657454717 0 1665.0 0.25617732657454717 1
gene  1 34 40 0.9344153831945217 0 1671.0 0.9344153831945217 1
gene  1 35 40 0.25140479621028045 0 1672.0 0.25140479621028045 1
gene  1 36 40 0.40808166099645815 0 1673.0 0.40808166099645815 1
gene  1 41 40 -0.2462408647353359 1 1678.0 -0.2462408647353359 1
gene  1 42 40 -0.6417353233799912 1 1679.0 -0.6417353233799912 1
gene  1 1 41 0.052167659991653736 0 1680.0 0.052167659991653736 1
gene  1 2 41 -0.3252705524386511 0 1681.0 -0.3252705524386511 1
gene  1 3 41 -0.26078020675631497 0 1682.0 -0.26078020675631497 1
gene  1 4 41 0.24081706139392645 0 1683.0 0.24081706139392645 1
gene  1 7 41 -0.8959090105896762 0 1686.0 -0.8959090105896762 1
gene  1 8 41 0.17557372995904863 0 1687.0 0.17557372995904863 1
gene  1 9 41 -0.3222463250094969 0 1688.0 -0.3222463250094969 1
gene  1 10 41 0.3939329673629959 0 1689.0 0.3939329673629959 1
gene  1 13 41 0.2852943124324795 0 1692.0 0.2852943124324795 1
gene  1 14 41 0.5385177585054867 0 1693.0 0.5385177585054867 1
gene  1 18 41 -0.5763512372679771 0 1697.0 -0.5763512372679771 1
gene  1 19 41 0.9541968705640955 0 1698.0 0.9541968705640955 1
gene  1 21 41 -0.2866082784944054 0 1700.0 -0.2866082784944054 1
gene  1 23 41 0.2426367291387368 0 1702.0 0.2426367291387368 1
gene  1 24 41 -0.765934667413345 0 1703.0 -0.765934667413345 1
gene  1 25 41 -0.6807915687788848 0 1704.0 -0.6807915687788848 1
gene  1 26 41 -0.7958926658011373 0 1705.0 -0.7958926658011373 1
gene  1 27 41 -0.526275463240804 0 1706.0 -0.526275463240804 1
gene  1 28 41 0.6097874377763819 0 1707.0 0.6097874377763819 1
gene  1 35 41 0.6251771745076967 0 1714.0 0.6251771745076967 1
gene  1 37 41 0.925128886443269 0 1716.0 0.925128886443269 1
gene  1 38 41 -0.9661541703330626 0 1717.0 -0.9661541703330626 1
gene  1 39 41 0.7204657214388823 0 1718.0 0.7204657214388823 1
gene  1 40 41 -0.7030590692342363 0 1719.0 -0.7030590692342363 1
gene  1 42 41 0.022864388344099207 1 1721.0 0.022864388344099207 1
gene  1 1 42 0.4974954138596669 0 1722.0 0.4974954138596669 1
gene  1 3 42 -0.7918439310142282 0 1724.0 -0.7918439310142282 1
gene  1 8 42 0.6947863486079096 0 1729.0 0.6947863486079096 1
gene  1 12 42 -0.8932466096443952 0 1733.0 -0.8932466096443952 1
gene  1 13 42 -0.26206966934436393 0 1734.0 -0.26206966934436393 1
gene  1 15 42 -0.3542661588139744 0 1736.0 -0.3542661588139744 1
gene  1 16 42 0.4742757516442525 0 1737.0 0.4742757516442525 1
gene  1 17 42 0.4092068785178873 0 1738.0 0.4092068785178873 1
gene  1 19 42 0.0013702050043983283 0 1740.0 0.0013702050043983283 1
gene  1 22 42 0.7617677285984951 0 1743.0 0.7617677285984951 1
gene  1 23 42 -0.2208892565255166 0 1744.0 -0.2208892565255166 1
gene  1 26 42 0.6258186256597896 0 1747.0 0.6258186256597896 1
gene  1 27 42 0.28960041164133843 0 1748.0 0.28960041164133843 1
gene  1 28 42 0.367925541204041 0 1749.0 0.367925541204041 1
gene  1 34 42 0.5216980904472753 0 1755.0 0.5216980904472753 1
gene  1 35 42 -0.806804363803835 0 1756.0 -0.806804363803835 1
gene  1 37 42 -0.4629435425227876 0 1758.0 -0.4629435425227876 1
gene  1 39 42 -0.2373115976345921 0 1760.0 -0.2373115976345921 1
gene  1 42 42 -0.9093709088694181 1 1763.0 -0.9093709088694181 1
genomeend 5
/* Organism # 006 Fitness:  0.000 Error:  0.000                      */
genomestart  6
trait 1 0.0 0.0 0.0 0.0 0.0 0.0 0.0 0.0 
node 1 1 1 1
node 2 1 1 1
node 3 1 1 1
node 4 1 1 1
node 5 1 1 1
node 6 1 1 1
node 7 1 1 1
node 8 1 1 1
node 9 1 1 1
node 10 1 1 1
node 11 1 1 1
node 12 1 1 1
node 13 1 1 1
node 14 1 1 1
node 15 1 1 1
node 16 1 1 1
node 17 1 1 1
node 18 1 1 1
node 19 1 1 1
node 20 1 1 1
node 21 1 1 1
node 22 1 1 1
node 23 1 1 1
node 24 1 1 1
node 25 1 1 1
node 26 1 1 1
node 27 1 1 1
node 28 1 1 3
node 34 1 0 2
node 35 1 0 2
node 36 1 0 2
node 37 1 0 2
node 38 1 0 2
node 39 1 0 2
node 40 1 0 2
node 41 1 0 2
node 42 1 0 2
gene  1 4 34 -0.7421089364730132 0 1389.0 -0.7421089364730132 1
gene  1 5 34 0.24823525940790148 0 1390.0 0.24823525940790148 1
gene  1 8 34 -0.7001735399343197 0 1393.0 -0.7001735399343197 1
gene  1 10 34 0.30773556461245266 0 1395.0 0.30773556461245266 1
gene  1 12 34 -0.25726360350057775 0 1397.0 -0.25726360350057775 1
gene  1 13 34 -0.7464693969768006 0 1398.0 -0.7464693969768006 1
gene  1 16 34 -0.8969002659168158 0 1401.0 -0.8969002659168158 1
gene  1 18 34 0.04379178639345094 0 1403.0 0.04379178639345094 1
gene  1 19 34 -0.24757502777236928 0 1404.0 -0.24757502777236928 1
gene  1 20 34 0.08620124973048959 0 1405.0 0.08620124973048959 1
gene  1 21 34 0.10982365454239573 0 1406.0 0.10982365454239573 1
gene  1 22 34 -0.557891117147745 0 1407.0 -0.557891117147745 1
gene  1 23 34 0.08874007553240404 0 1408.0 0.08874007553240404 1
gene  1 25 34 0.4309551209775484 0 1410.0 0.4309551209775484 1
gene  1 26 34 0.6595988914927147 0 1411.0 0.6595988914927147 1
gene  1 27 34 0.12649572292799427 0 1412.0 0.12649572292799427 1
gene  1 36 34 0.27390323557127383 1 1421.0 0.27390323557127383 1
gene  1 37 34 0.8619693563132723 1 1422.0 0.8619693563132723 1
gene  1 41 34 -0.2835996344606918 1 1426.0 -0.2835996344606918 1
gene  1 3 35 -0.2835622610330577 0 1430.0 -0.2835622610330577 1
gene  1 4 35 0.18500127826269275 0 1431.0 0.18500127826269275 1
gene  1 6 35 -0.616333916046429 0 1433.0 -0.616333916046429 1
gene  1 9 35 0.012420239677106149 0 1436.0 0.012420239677106149 1
gene  1 11 35 -0.16257924064582885 0 1438.0 -0.16257924064582885 1
gene  1 15 35 -0.9594351983674351 0 1442.0 -0.9594351983674351 1
gene  1 19 35 -0.6101916279728683 0 1446.0 -0.6101916279728683 1
gene  1 20 35 -0.5527020903175044 0 1447.0 -0.5527020903175044 1
gene  1 21 35 0.5486338062009665 0 1448.0 0.5486338062009665 1
gene  1 22 35 0.40967255896065125 0 1449.0 0.40967255896065125 1
gene  1 24 35 -0.11590983454752979 0 1451.0 -0.11590983454752979 1
gene  1 25 35 -0.43155735619256963 0 1452.0 -0.43155735619256963 1
gene  1 34 35 -0.5459538530665337 0 1461.0 -0.5459538530665337 1
gene  1 37 35 0.49939248504153555 1 1464.0 0.49939248504153555 1
gene  1 38 35 0.3405509650727345 1 1465.0 0.3405509650727345 1
gene  1 39 35 0.34361316637586303 1 1466.0 0.34361316637586303 1
gene  1 41 35 -0.03148093271962904 1 1468.0 -0.03148093271962904 1
gene  1 42 35 -0.5248548860536107 1 1469.0 -0.5248548860536107 1
gene  1 1 36 0.8987628041288347 0 1470.0 0.8987628041288347 1
gene  1 4 36 0.009027207029493445 0 1473.0 0.009027207029493445 1
gene  1 5 36 -0.633545974586073 0 1474.0 -0.633545974586073 1
gene  1 11 36 0.39918709205220726 0 1480.0 0.39918709205220726 1
gene  1 12 36 -0.17016161523660522 0 1481.0 -0.17016161523660522 1
gene  1 16 36 -0.8655544789954823 0 1485.0 -0.8655544789954823 1
gene  1 17 36 0.16011731945599206 0 1486.0 0.16011731945599206 1
gene  1 18 36 0.02949413828743186 0 1487.0 0.02949413828743186 1
gene  1 21 36 0.08505679310381686 0 1490.0 0.08505679310381686 1
gene  1 23 36 0.9050692954484028 0 1492.0 0.9050692954484028 1
gene  1 24 36 0.5637226596469731 0 1493.0 0.5637226596469731 1
gene  1 25 36 0.9357447927653101 0 1494.0 0.9357447927653101 1
gene  1 26 36 -0.47050433846388684 0 1495.0 -0.47050433846388684 1
gene  1 34 36 0.3594347636238927 0 1503.0 0.3594347636238927 1
gene  1 37 36 0.32723936118363917 1 1506.0 0.32723936118363917 1
gene  1 38 36 0.9442732582629172 1 1507.0 0.9442732582629172 1
gene  1 39 36 -0.11059195637872077 1 1508.0 -0.11059195637872077 1
gene  1 41 36 0.03621324570278439 1 1510.0 0.03621324570278439 1
gene  1 2 37 -0.7904012973061642 0 1513.0 -0.7904012973061642 1
gene  1 3 37 -0.9398475305562727 0 1514.0 -0.9398475305562727 1
gene  1 5 37 -0.7018399267230115 0 1516.0 -0.7018399267230115 1
gene  1 7 37 -0.3047417495974766 0 1518.0 -0.3047417495974766 1
gene  1 9 37 0.4120643172805336 0 1520.0 0.4120643172805336 1
gene  1 12 37 -0.4553498812827833 0 1523.0 -0.4553498812827833 1
gene  1 19 37 0.9098131432408123 0 1530.0 0.9098131432408123 1
gene  1 22 37 -0.8002545800647182 0 1533.0 -0.8002545800647182 1
gene  1 27 37 0.3258546576365188 0 1538.0 0.3258546576365188 1
gene  1 28 37 0.9783218332999231 0 1539.0 0.9783218332999231 1
gene  1 37 37 0.42152024033147273 1 1548.0 0.42152024033147273 1
gene  1 38 37 -0.22008944087184312 1 1549.0 -0.22008944087184312 1
gene  1 40 37 -0.1415251294057257 1 1551.0 -0.1415251294057257 1
gene  1 3 38 -0.6544582711142225 0 1556.0 -0.6544582711142225 1
gene  1 9 38 -0.8268390576968869 0 1562.0 -0.8268390576968869 1
gene  1 10 38 -0.3630105401230186 0 1563.0 -0.3630105401230186 1
gene  1 11 38 -0.6627619731867889 0 1564.0 -0.6627619731867889 1
gene  1 12 38 0.9494706491564349 0 1565.0 0.9494706491564349 1
gene  1 13 38 -0.10984334479985147 0 1566.0 -0.10984334479985147 1
gene  1 16 38 0.15114051485769664 0 1569.0 0.15114051485769664 1
gene  1 20 38 0.7227977474576205 0 1573.0 0.7227977474576205 1
gene  1 21 38 0.40683866428742765 0 1574.0 0.40683866428742765 1
gene  1 22 38 0.6681778686283091 0 1575.0 0.6681778686283091 1
gene  1 23 38 0.4741104328332544 0 1576.0 0.4741104328332544 1
gene  1 24 38 -0.41734555193578193 0 1577.0 -0.41734555193578193 1
gene  1 25 38 -0.008465928064300354 0 1578.0 -0.008465928064300354 1
gene  1 27 38 0.9580754190661428 0 1580.0 0.9580754190661428 1
gene  1 37 38 -0.6163811295924438 0 1590.0 -0.6163811295924438 1
gene  1 41 38 -0.6723017783852826 1 1594.0 -0.6723017783852826 1
gene  1 42 38 0.6411532288056123 1 1595.0 0.6411532288056123 1
gene  1 1 39 -0.8586467221518014 0 1596.0 -0.8586467221518014 1
gene  1 2 39 -0.9402080783669534 0 1597.0 -0.9402080783669534 1
gene  1 5 39 -0.9004715326706101 0 1600.0 -0.9004715326706101 1
gene  1 8 39 -0.6114898623521817 0 1603.0 -0.6114898623521817 1
gene  1 9 39 0.607988721821256 0 1604.0 0.607988721821256 1
gene  1 11 39 -0.6767330499070582 0 1606.0 -0.6767330499070582 1
gene  1 12 39 -0.853228589473296 0 1607.0 -0.853228589473296 1
gene  1 18 39 0.08699301002104054 0 1613.0 0.08699301002104054 1
gene  1 19 39 -0.053613696988352166 0 1614.0 -0.053613696988352166 1
gene  1 23 39 0.7638866510673182 0 1618.0 0.7638866510673182 1
gene  1 25 39 0.08238263068176022 0 1620.0 0.08238263068176022 1
gene  1 27 39 0.3082330593114203 0 1622.0 0.3082330593114203 1
gene  1 35 39 0.020741838310423644 0 1630.0 0.020741838310423644 1
gene  1 36 39 0.9092464260113872 0 1631.0 0.9092464260113872 1
gene  1 37 39 0.41431550267167616 0 1632.0 0.41431550267167616 1
gene  1 40 39 0.685775136486646 1 1635.0 0.685775136486646 1
gene  1 1 40 0.7960330683864854 0 1638.0 0.7960330683864854 1
gene  1 2 40 0.5551587751894606 0 1639.0 0.5551587751894606 1
gene  1 4 40 0.7692696042624008 0 1641.0 0.7692696042624008 1
gene  1 6 40 0.721927750406669 0 1643.0 0.721927750406669 1
gene  1 12 40 0.18515426997811746 0 1649.0 0.18515426997811746 1
gene  1 15 40 0.3981233988333662 0 1652.0 0.3981233988333662 1
gene  1 17 40 -0.5969985765524332 0 1654.0 -0.5969985765524332 1
gene  1 19 40 0.5697752051029353 0 1656.0 0.5697752051029353 1
gene  1 22 40 0.8858455654070612 0 1659.0 0.8858455654070612 1
gene  1 26 40 0.13984804275302043 0 1663.0 0.13984804275302043 1
gene  1 28 40 0.25617732657454717 0 1665.0 0.25617732657454717 1
gene  1 34 40 0.9344153831945217 0 1671.0 0.9344153831945217 1
gene  1 35 40 0.25140479621028045 0 1672.0 0.25140479621028045 1
gene  1 36 40 0.40808166099645815 0 1673.0 0.40808166099645815 1
gene  1 41 40 -0.2462408647353359 1 1678.0 -0.2462408647353359 1
gene  1 42 40 -0.6417353233799912 1 1679.0 -0.6417353233799912 1
gene  1 1 41 0.052167659991653736 0 1680.0 0.052167659991653736 1
gene  1 2 41 -0.3252705524386511 0 1681.0 -0.3252705524386511 1
gene  1 3 41 -0.26078020675631497 0 1682.0 -0.26078020675631497 1
gene  1 4 41 0.24081706139392645 0 1683.0 0.24081706139392645 1
gene  1 7 41 -0.8959090105896762 0 1686.0 -0.8959090105896762 1
gene  1 8 41 0.17557372995904863 0 1687.0 0.17557372995904863 1
gene  1 9 41 -0.3222463250094969 0 1688.0 -0.3222463250094969 1
gene  1 10 41 0.3939329673629959 0 1689.0 0.3939329673629959 1
gene  1 13 41 0.2852943124324795 0 1692.0 0.2852943124324795 1
gene  1 14 41 0.5385177585054867 0 1693.0 0.5385177585054867 1
gene  1 18 41 -0.5763512372679771 0 1697.0 -0.5763512372679771 1
gene  1 19 41 0.9541968705640955 0 1698.0 0.9541968705640955 1
gene  1 21 41 -0.2866082784944054 0 1700.0 -0.2866082784944054 1
gene  1 23 41 0.2426367291387368 0 1702.0 0.2426367291387368 1
gene  1 24 41 -0.765934667413345 0 1703.0 -0.765934667413345 1
gene  1 25 41 -0.6807915687788848 0 1704.0 -0.6807915687788848 1
gene  1 26 41 -0.7958926658011373 0 1705.0 -0.7958926658011373 1
gene  1 27 41 -0.526275463240804 0 1706.0 -0.526275463240804 1
gene  1 28 41 0.6097874377763819 0 1707.0 0.6097874377763819 1
gene  1 35 41 0.6251771745076967 0 1714.0 0.6251771745076967 1
gene  1 37 41 0.925128886443269 0 1716.0 0.925128886443269 1
gene  1 38 41 -0.9661541703330626 0 1717.0 -0.9661541703330626 1
gene  1 39 41 0.7204657214388823 0 1718.0 0.7204657214388823 1
gene  1 40 41 -0.7030590692342363 0 1719.0 -0.7030590692342363 1
gene  1 42 41 0.022864388344099207 1 1721.0 0.022864388344099207 1
gene  1 1 42 0.4974954138596669 0 1722.0 0.4974954138596669 1
gene  1 3 42 -0.7918439310142282 0 1724.0 -0.7918439310142282 1
gene  1 8 42 0.6947863486079096 0 1729.0 0.6947863486079096 1
gene  1 12 42 -0.8932466096443952 0 1733.0 -0.8932466096443952 1
gene  1 13 42 -0.26206966934436393 0 1734.0 -0.26206966934436393 1
gene  1 15 42 -0.3542661588139744 0 1736.0 -0.3542661588139744 1
gene  1 16 42 0.4742757516442525 0 1737.0 0.4742757516442525 1
gene  1 17 42 0.4092068785178873 0 1738.0 0.4092068785178873 1
gene  1 19 42 0.0013702050043983283 0 1740.0 0.0013702050043983283 1
gene  1 22 42 0.7617677285984951 0 1743.0 0.7617677285984951 1
gene  1 23 42 -0.2208892565255166 0 1744.0 -0.2208892565255166 1
gene  1 26 42 0.6258186256597896 0 1747.0 0.6258186256597896 1
gene  1 27 42 0.28960041164133843 0 1748.0 0.28960041164133843 1
gene  1 28 42 0.367925541204041 0 1749.0 0.367925541204041 1
gene  1 34 42 0.5216980904472753 0 1755.0 0.5216980904472753 1
gene  1 35 42 -0.806804363803835 0 1756.0 -0.806804363803835 1
gene  1 37 42 -0.4629435425227876 0 1758.0 -0.4629435425227876 1
gene  1 39 42 -0.2373115976345921 0 1760.0 -0.2373115976345921 1
gene  1 42 42 -0.9093709088694181 1 1763.0 -0.9093709088694181 1
genomeend 6
/* Organism # 007 Fitness:  0.000 Error:  0.000                      */
genomestart  7
trait 1 0.0 0.0 0.0 0.0 0.0 0.0 0.0 0.0 
node 1 1 1 1
node 2 1 1 1
node 3 1 1 1
node 4 1 1 1
node 5 1 1 1
node 6 1 1 1
node 7 1 1 1
node 8 1 1 1
node 9 1 1 1
node 10 1 1 1
node 11 1 1 1
node 12 1 1 1
node 13 1 1 1
node 14 1 1 1
node 15 1 1 1
node 16 1 1 1
node 17 1 1 1
node 18 1 1 1
node 19 1 1 1
node 20 1 1 1
node 21 1 1 1
node 22 1 1 1
node 23 1 1 1
node 24 1 1 1
node 25 1 1 1
node 26 1 1 1
node 27 1 1 1
node 28 1 1 3
node 34 1 0 2
node 35 1 0 2
node 36 1 0 2
node 37 1 0 2
node 38 1 0 2
node 39 1 0 2
node 40 1 0 2
node 41 1 0 2
node 42 1 0 2
gene  1 4 34 -0.7421089364730132 0 1389.0 -0.7421089364730132 1
gene  1 5 34 0.24823525940790148 0 1390.0 0.24823525940790148 1
gene  1 8 34 -0.7001735399343197 0 1393.0 -0.7001735399343197 1
gene  1 10 34 0.30773556461245266 0 1395.0 0.30773556461245266 1
gene  1 12 34 -0.25726360350057775 0 1397.0 -0.25726360350057775 1
gene  1 13 34 -0.7464693969768006 0 1398.0 -0.7464693969768006 1
gene  1 16 34 -0.8969002659168158 0 1401.0 -0.8969002659168158 1
gene  1 18 34 0.04379178639345094 0 1403.0 0.04379178639345094 1
gene  1 19 34 -0.24757502777236928 0 1404.0 -0.24757502777236928 1
gene  1 20 34 0.08620124973048959 0 1405.0 0.08620124973048959 1
gene  1 21 34 0.10982365454239573 0 1406.0 0.10982365454239573 1
gene  1 22 34 -0.557891117147745 0 1407.0 -0.557891117147745 1
gene  1 23 34 0.08874007553240404 0 1408.0 0.08874007553240404 1
gene  1 25 34 0.4309551209775484 0 1410.0 0.4309551209775484 1
gene  1 26 34 0.6595988914927147 0 1411.0 0.6595988914927147 1
gene  1 27 34 0.12649572292799427 0 1412.0 0.12649572292799427 1
gene  1 36 34 0.27390323557127383 1 1421.0 0.27390323557127383 1
gene  1 37 34 0.8619693563132723 1 1422.0 0.8619693563132723 1
gene  1 41 34 -0.2835996344606918 1 1426.0 -0.2835996344606918 1
gene  1 3 35 -0.2835622610330577 0 1430.0 -0.2835622610330577 1
gene  1 4 35 0.18500127826269275 0 1431.0 0.18500127826269275 1
gene  1 6 35 -0.616333916046429 0 1433.0 -0.616333916046429 1
gene  1 9 35 0.012420239677106149 0 1436.0 0.012420239677106149 1
gene  1 11 35 -0.16257924064582885 0 1438.0 -0.16257924064582885 1
gene  1 15 35 -0.9594351983674351 0 1442.0 -0.9594351983674351 1
gene  1 19 35 -0.6101916279728683 0 1446.0 -0.6101916279728683 1
gene  1 20 35 -0.5527020903175044 0 1447.0 -0.5527020903175044 1
gene  1 21 35 0.5486338062009665 0 1448.0 0.5486338062009665 1
gene  1 22 35 0.40967255896065125 0 1449.0 0.40967255896065125 1
gene  1 24 35 -0.11590983454752979 0 1451.0 -0.11590983454752979 1
gene  1 25 35 -0.43155735619256963 0 1452.0 -0.43155735619256963 1
gene  1 34 35 -0.5459538530665337 0 1461.0 -0.5459538530665337 1
gene  1 37 35 0.49939248504153555 1 1464.0 0.49939248504153555 1
gene  1 38 35 0.3405509650727345 1 1465.0 0.3405509650727345 1
gene  1 39 35 0.34361316637586303 1 1466.0 0.34361316637586303 1
gene  1 41 35 -0.03148093271962904 1 1468.0 -0.03148093271962904 1
gene  1 42 35 -0.5248548860536107 1 1469.0 -0.5248548860536107 1
gene  1 1 36 0.8987628041288347 0 1470.0 0.8987628041288347 1
gene  1 4 36 0.009027207029493445 0 1473.0 0.009027207029493445 1
gene  1 5 36 -0.633545974586073 0 1474.0 -0.633545974586073 1
gene  1 11 36 0.39918709205220726 0 1480.0 0.39918709205220726 1
gene  1 12 36 -0.17016161523660522 0 1481.0 -0.17016161523660522 1
gene  1 16 36 -0.8655544789954823 0 1485.0 -0.8655544789954823 1
gene  1 17 36 0.16011731945599206 0 1486.0 0.16011731945599206 1
gene  1 18 36 0.02949413828743186 0 1487.0 0.02949413828743186 1
gene  1 21 36 0.08505679310381686 0 1490.0 0.08505679310381686 1
gene  1 23 36 0.9050692954484028 0 1492.0 0.9050692954484028 1
gene  1 24 36 0.5637226596469731 0 1493.0 0.5637226596469731 1
gene  1 25 36 0.9357447927653101 0 1494.0 0.9357447927653101 1
gene  1 26 36 -0.47050433846388684 0 1495.0 -0.47050433846388684 1
gene  1 34 36 0.3594347636238927 0 1503.0 0.3594347636238927 1
gene  1 37 36 0.32723936118363917 1 1506.0 0.32723936118363917 1
gene  1 38 36 0.9442732582629172 1 1507.0 0.9442732582629172 1
gene  1 39 36 -0.11059195637872077 1 1508.0 -0.11059195637872077 1
gene  1 41 36 0.03621324570278439 1 1510.0 0.03621324570278439 1
gene  1 2 37 -0.7904012973061642 0 1513.0 -0.7904012973061642 1
gene  1 3 37 -0.9398475305562727 0 1514.0 -0.9398475305562727 1
gene  1 5 37 -0.7018399267230115 0 1516.0 -0.7018399267230115 1
gene  1 7 37 -0.3047417495974766 0 1518.0 -0.3047417495974766 1
gene  1 9 37 0.4120643172805336 0 1520.0 0.4120643172805336 1
gene  1 12 37 -0.4553498812827833 0 1523.0 -0.4553498812827833 1
gene  1 19 37 0.9098131432408123 0 1530.0 0.9098131432408123 1
gene  1 22 37 -0.8002545800647182 0 1533.0 -0.8002545800647182 1
gene  1 27 37 0.3258546576365188 0 1538.0 0.3258546576365188 1
gene  1 28 37 0.9783218332999231 0 1539.0 0.9783218332999231 1
gene  1 37 37 0.42152024033147273 1 1548.0 0.42152024033147273 1
gene  1 38 37 -0.22008944087184312 1 1549.0 -0.22008944087184312 1
gene  1 40 37 -0.1415251294057257 1 1551.0 -0.1415251294057257 1
gene  1 3 38 -0.6544582711142225 0 1556.0 -0.6544582711142225 1
gene  1 9 38 -0.8268390576968869 0 1562.0 -0.8268390576968869 1
gene  1 10 38 -0.3630105401230186 0 1563.0 -0.3630105401230186 1
gene  1 11 38 -0.6627619731867889 0 1564.0 -0.6627619731867889 1
gene  1 12 38 0.9494706491564349 0 1565.0 0.9494706491564349 1
gene  1 13 38 -0.10984334479985147 0 1566.0 -0.10984334479985147 1
gene  1 16 38 0.15114051485769664 0 1569.0 0.15114051485769664 1
gene  1 20 38 0.7227977474576205 0 1573.0 0.7227977474576205 1
gene  1 21 38 0.40683866428742765 0 1574.0 0.40683866428742765 1
gene  1 22 38 0.6681778686283091 0 1575.0 0.6681778686283091 1
gene  1 23 38 0.4741104328332544 0 1576.0 0.4741104328332544 1
gene  1 24 38 -0.41734555193578193 0 1577.0 -0.41734555193578193 1
gene  1 25 38 -0.008465928064300354 0 1578.0 -0.008465928064300354 1
gene  1 27 38 0.9580754190661428 0 1580.0 0.9580754190661428 1
gene  1 37 38 -0.6163811295924438 0 1590.0 -0.6163811295924438 1
gene  1 41 38 -0.6723017783852826 1 1594.0 -0.6723017783852826 1
gene  1 42 38 0.6411532288056123 1 1595.0 0.6411532288056123 1
gene  1 1 39 -0.8586467221518014 0 1596.0 -0.8586467221518014 1
gene  1 2 39 -0.9402080783669534 0 1597.0 -0.9402080783669534 1
gene  1 5 39 -0.9004715326706101 0 1600.0 -0.9004715326706101 1
gene  1 8 39 -0.6114898623521817 0 1603.0 -0.6114898623521817 1
gene  1 9 39 0.607988721821256 0 1604.0 0.607988721821256 1
gene  1 11 39 -0.6767330499070582 0 1606.0 -0.6767330499070582 1
gene  1 12 39 -0.853228589473296 0 1607.0 -0.853228589473296 1
gene  1 18 39 0.08699301002104054 0 1613.0 0.08699301002104054 1
gene  1 19 39 -0.053613696988352166 0 1614.0 -0.053613696988352166 1
gene  1 23 39 0.7638866510673182 0 1618.0 0.7638866510673182 1
gene  1 25 39 0.08238263068176022 0 1620.0 0.08238263068176022 1
gene  1 27 39 0.3082330593114203 0 1622.0 0.3082330593114203 1
gene  1 35 39 0.020741838310423644 0 1630.0 0.020741838310423644 1
gene  1 36 39 0.9092464260113872 0 1631.0 0.9092464260113872 1
gene  1 37 39 0.41431550267167616 0 1632.0 0.41431550267167616 1
gene  1 40 39 0.685775136486646 1 1635.0 0.685775136486646 1
gene  1 1 40 0.7960330683864854 0 1638.0 0.7960330683864854 1
gene  1 2 40 0.5551587751894606 0 1639.0 0.5551587751894606 1
gene  1 4 40 0.7692696042624008 0 1641.0 0.7692696042624008 1
gene  1 6 40 0.721927750406669 0 1643.0 0.721927750406669 1
gene  1 12 40 0.18515426997811746 0 1649.0 0.18515426997811746 1
gene  1 15 40 0.3981233988333662 0 1652.0 0.3981233988333662 1
gene  1 17 40 -0.5969985765524332 0 1654.0 -0.5969985765524332 1
gene  1 19 40 0.5697752051029353 0 1656.0 0.5697752051029353 1
gene  1 22 40 0.8858455654070612 0 1659.0 0.8858455654070612 1
gene  1 26 40 0.13984804275302043 0 1663.0 0.13984804275302043 1
gene  1 28 40 0.25617732657454717 0 1665.0 0.25617732657454717 1
gene  1 34 40 0.9344153831945217 0 1671.0 0.9344153831945217 1
gene  1 35 40 0.25140479621028045 0 1672.0 0.25140479621028045 1
gene  1 36 40 0.40808166099645815 0 1673.0 0.40808166099645815 1
gene  1 41 40 -0.2462408647353359 1 1678.0 -0.2462408647353359 1
gene  1 42 40 -0.6417353233799912 1 1679.0 -0.6417353233799912 1
gene  1 1 41 0.052167659991653736 0 1680.0 0.052167659991653736 1
gene  1 2 41 -0.3252705524386511 0 1681.0 -0.3252705524386511 1
gene  1 3 41 -0.26078020675631497 0 1682.0 -0.26078020675631497 1
gene  1 4 41 0.24081706139392645 0 1683.0 0.24081706139392645 1
gene  1 7 41 -0.8959090105896762 0 1686.0 -0.8959090105896762 1
gene  1 8 41 0.17557372995904863 0 1687.0 0.17557372995904863 1
gene  1 9 41 -0.3222463250094969 0 1688.0 -0.3222463250094969 1
gene  1 10 41 0.3939329673629959 0 1689.0 0.3939329673629959 1
gene  1 13 41 0.2852943124324795 0 1692.0 0.2852943124324795 1
gene  1 14 41 0.5385177585054867 0 1693.0 0.5385177585054867 1
gene  1 18 41 -0.5763512372679771 0 1697.0 -0.5763512372679771 1
gene  1 19 41 0.9541968705640955 0 1698.0 0.9541968705640955 1
gene  1 21 41 -0.2866082784944054 0 1700.0 -0.2866082784944054 1
gene  1 23 41 0.2426367291387368 0 1702.0 0.2426367291387368 1
gene  1 24 41 -0.765934667413345 0 1703.0 -0.765934667413345 1
gene  1 25 41 -0.6807915687788848 0 1704.0 -0.6807915687788848 1
gene  1 26 41 -0.7958926658011373 0 1705.0 -0.7958926658011373 1
gene  1 27 41 -0.526275463240804 0 1706.0 -0.526275463240804 1
gene  1 28 41 0.6097874377763819 0 1707.0 0.6097874377763819 1
gene  1 35 41 0.6251771745076967 0 1714.0 0.6251771745076967 1
gene  1 37 41 0.925128886443269 0 1716.0 0.925128886443269 1
gene  1 38 41 -0.9661541703330626 0 1717.0 -0.9661541703330626 1
gene  1 39 41 0.7204657214388823 0 1718.0 0.7204657214388823 1
gene  1 40 41 -0.7030590692342363 0 1719.0 -0.7030590692342363 1
gene  1 42 41 0.022864388344099207 1 1721.0 0.022864388344099207 1
gene  1 1 42 0.4974954138596669 0 1722.0 0.4974954138596669 1
gene  1 3 42 -0.7918439310142282 0 1724.0 -0.7918439310142282 1
gene  1 8 42 0.6947863486079096 0 1729.0 0.6947863486079096 1
gene  1 12 42 -0.8932466096443952 0 1733.0 -0.8932466096443952 1
gene  1 13 42 -0.26206966934436393 0 1734.0 -0.26206966934436393 1
gene  1 15 42 -0.3542661588139744 0 1736.0 -0.3542661588139744 1
gene  1 16 42 0.4742757516442525 0 1737.0 0.4742757516442525 1
gene  1 17 42 0.4092068785178873 0 1738.0 0.4092068785178873 1
gene  1 19 42 0.0013702050043983283 0 1740.0 0.0013702050043983283 1
gene  1 22 42 0.7617677285984951 0 1743.0 0.7617677285984951 1
gene  1 23 42 -0.2208892565255166 0 1744.0 -0.2208892565255166 1
gene  1 26 42 0.6258186256597896 0 1747.0 0.6258186256597896 1
gene  1 27 42 0.28960041164133843 0 1748.0 0.28960041164133843 1
gene  1 28 42 0.367925541204041 0 1749.0 0.367925541204041 1
gene  1 34 42 0.5216980904472753 0 1755.0 0.5216980904472753 1
gene  1 35 42 -0.806804363803835 0 1756.0 -0.806804363803835 1
gene  1 37 42 -0.4629435425227876 0 1758.0 -0.4629435425227876 1
gene  1 39 42 -0.2373115976345921 0 1760.0 -0.2373115976345921 1
gene  1 42 42 -0.9093709088694181 1 1763.0 -0.9093709088694181 1
genomeend 7
/* Organism # 008 Fitness:  0.000 Error:  0.000                      */
genomestart  8
trait 1 0.0 0.0 0.0 0.0 0.0 0.0 0.0 0.0 
node 1 1 1 1
node 2 1 1 1
node 3 1 1 1
node 4 1 1 1
node 5 1 1 1
node 6 1 1 1
node 7 1 1 1
node 8 1 1 1
node 9 1 1 1
node 10 1 1 1
node 11 1 1 1
node 12 1 1 1
node 13 1 1 1
node 14 1 1 1
node 15 1 1 1
node 16 1 1 1
node 17 1 1 1
node 18 1 1 1
node 19 1 1 1
node 20 1 1 1
node 21 1 1 1
node 22 1 1 1
node 23 1 1 1
node 24 1 1 1
node 25 1 1 1
node 26 1 1 1
node 27 1 1 1
node 28 1 1 3
node 34 1 0 2
node 35 1 0 2
node 36 1 0 2
node 37 1 0 2
node 38 1 0 2
node 39 1 0 2
node 40 1 0 2
node 41 1 0 2
node 42 1 0 2
gene  1 4 34 -0.7421089364730132 0 1389.0 -0.7421089364730132 1
gene  1 5 34 0.24823525940790148 0 1390.0 0.24823525940790148 1
gene  1 8 34 -0.7001735399343197 0 1393.0 -0.7001735399343197 1
gene  1 10 34 0.30773556461245266 0 1395.0 0.30773556461245266 1
gene  1 12 34 -0.25726360350057775 0 1397.0 -0.25726360350057775 1
gene  1 13 34 -0.7464693969768006 0 1398.0 -0.7464693969768006 1
gene  1 16 34 -0.8969002659168158 0 1401.0 -0.8969002659168158 1
gene  1 18 34 0.04379178639345094 0 1403.0 0.04379178639345094 1
gene  1 19 34 -0.24757502777236928 0 1404.0 -0.24757502777236928 1
gene  1 20 34 0.08620124973048959 0 1405.0 0.08620124973048959 1
gene  1 21 34 0.10982365454239573 0 1406.0 0.10982365454239573 1
gene  1 22 34 -0.557891117147745 0 1407.0 -0.557891117147745 1
gene  1 23 34 0.08874007553240404 0 1408.0 0.08874007553240404 1
gene  1 25 34 0.4309551209775484 0 1410.0 0.4309551209775484 1
gene  1 26 34 0.6595988914927147 0 1411.0 0.6595988914927147 1
gene  1 27 34 0.12649572292799427 0 1412.0 0.12649572292799427 1
gene  1 36 34 0.27390323557127383 1 1421.0 0.27390323557127383 1
gene  1 37 34 0.8619693563132723 1 1422.0 0.8619693563132723 1
gene  1 41 34 -0.2835996344606918 1 1426.0 -0.2835996344606918 1
gene  1 3 35 -0.2835622610330577 0 1430.0 -0.2835622610330577 1
gene  1 4 35 0.18500127826269275 0 1431.0 0.18500127826269275 1
gene  1 6 35 -0.616333916046429 0 1433.0 -0.616333916046429 1
gene  1 9 35 0.012420239677106149 0 1436.0 0.012420239677106149 1
gene  1 11 35 -0.16257924064582885 0 1438.0 -0.16257924064582885 1
gene  1 15 35 -0.9594351983674351 0 1442.0 -0.9594351983674351 1
gene  1 19 35 -0.6101916279728683 0 1446.0 -0.6101916279728683 1
gene  1 20 35 -0.5527020903175044 0 1447.0 -0.5527020903175044 1
gene  1 21 35 0.5486338062009665 0 1448.0 0.5486338062009665 1
gene  1 22 35 0.40967255896065125 0 1449.0 0.40967255896065125 1
gene  1 24 35 -0.11590983454752979 0 1451.0 -0.11590983454752979 1
gene  1 25 35 -0.43155735619256963 0 1452.0 -0.43155735619256963 1
gene  1 34 35 -0.5459538530665337 0 1461.0 -0.5459538530665337 1
gene  1 37 35 0.49939248504153555 1 1464.0 0.49939248504153555 1
gene  1 38 35 0.3405509650727345 1 1465.0 0.3405509650727345 1
gene  1 39 35 0.34361316637586303 1 1466.0 0.34361316637586303 1
gene  1 41 35 -0.03148093271962904 1 1468.0 -0.03148093271962904 1
gene  1 42 35 -0.5248548860536107 1 1469.0 -0.5248548860536107 1
gene  1 1 36 0.8987628041288347 0 1470.0 0.8987628041288347 1
gene  1 4 36 0.009027207029493445 0 1473.0 0.009027207029493445 1
gene  1 5 36 -0.633545974586073 0 1474.0 -0.633545974586073 1
gene  1 11 36 0.39918709205220726 0 1480.0 0.39918709205220726 1
gene  1 12 36 -0.17016161523660522 0 1481.0 -0.17016161523660522 1
gene  1 16 36 -0.8655544789954823 0 1485.0 -0.8655544789954823 1
gene  1 17 36 0.16011731945599206 0 1486.0 0.16011731945599206 1
gene  1 18 36 0.02949413828743186 0 1487.0 0.02949413828743186 1
gene  1 21 36 0.08505679310381686 0 1490.0 0.08505679310381686 1
gene  1 23 36 0.9050692954484028 0 1492.0 0.9050692954484028 1
gene  1 24 36 0.5637226596469731 0 1493.0 0.5637226596469731 1
gene  1 25 36 0.9357447927653101 0 1494.0 0.9357447927653101 1
gene  1 26 36 -0.47050433846388684 0 1495.0 -0.47050433846388684 1
gene  1 34 36 0.3594347636238927 0 1503.0 0.3594347636238927 1
gene  1 37 36 0.32723936118363917 1 1506.0 0.32723936118363917 1
gene  1 38 36 0.9442732582629172 1 1507.0 0.9442732582629172 1
gene  1 39 36 -0.11059195637872077 1 1508.0 -0.11059195637872077 1
gene  1 41 36 0.03621324570278439 1 1510.0 0.03621324570278439 1
gene  1 2 37 -0.7904012973061642 0 1513.0 -0.7904012973061642 1
gene  1 3 37 -0.9398475305562727 0 1514.0 -0.9398475305562727 1
gene  1 5 37 -0.7018399267230115 0 1516.0 -0.7018399267230115 1
gene  1 7 37 -0.3047417495974766 0 1518.0 -0.3047417495974766 1
gene  1 9 37 0.4120643172805336 0 1520.0 0.4120643172805336 1
gene  1 12 37 -0.4553498812827833 0 1523.0 -0.4553498812827833 1
gene  1 19 37 0.9098131432408123 0 1530.0 0.9098131432408123 1
gene  1 22 37 -0.8002545800647182 0 1533.0 -0.8002545800647182 1
gene  1 27 37 0.3258546576365188 0 1538.0 0.3258546576365188 1
gene  1 28 37 0.9783218332999231 0 1539.0 0.9783218332999231 1
gene  1 37 37 0.42152024033147273 1 1548.0 0.42152024033147273 1
gene  1 38 37 -0.22008944087184312 1 1549.0 -0.22008944087184312 1
gene  1 40 37 -0.1415251294057257 1 1551.0 -0.1415251294057257 1
gene  1 3 38 -0.6544582711142225 0 1556.0 -0.6544582711142225 1
gene  1 9 38 -0.8268390576968869 0 1562.0 -0.8268390576968869 1
gene  1 10 38 -0.3630105401230186 0 1563.0 -0.3630105401230186 1
gene  1 11 38 -0.6627619731867889 0 1564.0 -0.6627619731867889 1
gene  1 12 38 0.9494706491564349 0 1565.0 0.9494706491564349 1
gene  1 13 38 -0.10984334479985147 0 1566.0 -0.10984334479985147 1
gene  1 16 38 0.15114051485769664 0 1569.0 0.15114051485769664 1
gene  1 20 38 0.7227977474576205 0 1573.0 0.7227977474576205 1
gene  1 21 38 0.40683866428742765 0 1574.0 0.40683866428742765 1
gene  1 22 38 0.6681778686283091 0 1575.0 0.6681778686283091 1
gene  1 23 38 0.4741104328332544 0 1576.0 0.4741104328332544 1
gene  1 24 38 -0.41734555193578193 0 1577.0 -0.41734555193578193 1
gene  1 25 38 -0.008465928064300354 0 1578.0 -0.008465928064300354 1
gene  1 27 38 0.9580754190661428 0 1580.0 0.9580754190661428 1
gene  1 37 38 -0.6163811295924438 0 1590.0 -0.6163811295924438 1
gene  1 41 38 -0.6723017783852826 1 1594.0 -0.6723017783852826 1
gene  1 42 38 0.6411532288056123 1 1595.0 0.6411532288056123 1
gene  1 1 39 -0.8586467221518014 0 1596.0 -0.8586467221518014 1
gene  1 2 39 -0.9402080783669534 0 1597.0 -0.9402080783669534 1
gene  1 5 39 -0.9004715326706101 0 1600.0 -0.9004715326706101 1
gene  1 8 39 -0.6114898623521817 0 1603.0 -0.6114898623521817 1
gene  1 9 39 0.607988721821256 0 1604.0 0.607988721821256 1
gene  1 11 39 -0.6767330499070582 0 1606.0 -0.6767330499070582 1
gene  1 12 39 -0.853228589473296 0 1607.0 -0.853228589473296 1
gene  1 18 39 0.08699301002104054 0 1613.0 0.08699301002104054 1
gene  1 19 39 -0.053613696988352166 0 1614.0 -0.053613696988352166 1
gene  1 23 39 0.7638866510673182 0 1618.0 0.7638866510673182 1
gene  1 25 39 0.08238263068176022 0 1620.0 0.08238263068176022 1
gene  1 27 39 0.3082330593114203 0 1622.0 0.3082330593114203 1
gene  1 35 39 0.020741838310423644 0 1630.0 0.020741838310423644 1
gene  1 36 39 0.9092464260113872 0 1631.0 0.9092464260113872 1
gene  1 37 39 0.41431550267167616 0 1632.0 0.41431550267167616 1
gene  1 40 39 0.685775136486646 1 1635.0 0.685775136486646 1
gene  1 1 40 0.7960330683864854 0 1638.0 0.7960330683864854 1
gene  1 2 40 0.5551587751894606 0 1639.0 0.5551587751894606 1
gene  1 4 40 0.7692696042624008 0 1641.0 0.7692696042624008 1
gene  1 6 40 0.721927750406669 0 1643.0 0.721927750406669 1
gene  1 12 40 0.18515426997811746 0 1649.0 0.18515426997811746 1
gene  1 15 40 0.3981233988333662 0 1652.0 0.3981233988333662 1
gene  1 17 40 -0.5969985765524332 0 1654.0 -0.5969985765524332 1
gene  1 19 40 0.5697752051029353 0 1656.0 0.5697752051029353 1
gene  1 22 40 0.8858455654070612 0 1659.0 0.8858455654070612 1
gene  1 26 40 0.13984804275302043 0 1663.0 0.13984804275302043 1
gene  1 28 40 0.25617732657454717 0 1665.0 0.25617732657454717 1
gene  1 34 40 0.9344153831945217 0 1671.0 0.9344153831945217 1
gene  1 35 40 0.25140479621028045 0 1672.0 0.25140479621028045 1
gene  1 36 40 0.40808166099645815 0 1673.0 0.40808166099645815 1
gene  1 41 40 -0.2462408647353359 1 1678.0 -0.2462408647353359 1
gene  1 42 40 -0.6417353233799912 1 1679.0 -0.6417353233799912 1
gene  1 1 41 0.052167659991653736 0 1680.0 0.052167659991653736 1
gene  1 2 41 -0.3252705524386511 0 1681.0 -0.3252705524386511 1
gene  1 3 41 -0.26078020675631497 0 1682.0 -0.26078020675631497 1
gene  1 4 41 0.24081706139392645 0 1683.0 0.24081706139392645 1
gene  1 7 41 -0.8959090105896762 0 1686.0 -0.8959090105896762 1
gene  1 8 41 0.17557372995904863 0 1687.0 0.17557372995904863 1
gene  1 9 41 -0.3222463250094969 0 1688.0 -0.3222463250094969 1
gene  1 10 41 0.3939329673629959 0 1689.0 0.3939329673629959 1
gene  1 13 41 0.2852943124324795 0 1692.0 0.2852943124324795 1
gene  1 14 41 0.5385177585054867 0 1693.0 0.5385177585054867 1
gene  1 18 41 -0.5763512372679771 0 1697.0 -0.5763512372679771 1
gene  1 19 41 0.9541968705640955 0 1698.0 0.9541968705640955 1
gene  1 21 41 -0.2866082784944054 0 1700.0 -0.2866082784944054 1
gene  1 23 41 0.2426367291387368 0 1702.0 0.2426367291387368 1
gene  1 24 41 -0.765934667413345 0 1703.0 -0.765934667413345 1
gene  1 25 41 -0.6807915687788848 0 1704.0 -0.6807915687788848 1
gene  1 26 41 -0.7958926658011373 0 1705.0 -0.7958926658011373 1
gene  1 27 41 -0.526275463240804 0 1706.0 -0.526275463240804 1
gene  1 28 41 0.6097874377763819 0 1707.0 0.6097874377763819 1
gene  1 35 41 0.6251771745076967 0 1714.0 0.6251771745076967 1
gene  1 37 41 0.925128886443269 0 1716.0 0.925128886443269 1
gene  1 38 41 -0.9661541703330626 0 1717.0 -0.9661541703330626 1
gene  1 39 41 0.7204657214388823 0 1718.0 0.7204657214388823 1
gene  1 40 41 -0.7030590692342363 0 1719.0 -0.7030590692342363 1
gene  1 42 41 0.022864388344099207 1 1721.0 0.022864388344099207 1
gene  1 1 42 0.4974954138596669 0 1722.0 0.4974954138596669 1
gene  1 3 42 -0.7918439310142282 0 1724.0 -0.7918439310142282 1
gene  1 8 42 0.6947863486079096 0 1729.0 0.6947863486079096 1
gene  1 12 42 -0.8932466096443952 0 1733.0 -0.8932466096443952 1
gene  1 13 42 -0.26206966934436393 0 1734.0 -0.26206966934436393 1
gene  1 15 42 -0.3542661588139744 0 1736.0 -0.3542661588139744 1
gene  1 16 42 0.4742757516442525 0 1737.0 0.4742757516442525 1
gene  1 17 42 0.4092068785178873 0 1738.0 0.4092068785178873 1
gene  1 19 42 0.0013702050043983283 0 1740.0 0.0013702050043983283 1
gene  1 22 42 0.7617677285984951 0 1743.0 0.7617677285984951 1
gene  1 23 42 -0.2208892565255166 0 1744.0 -0.2208892565255166 1
gene  1 26 42 0.6258186256597896 0 1747.0 0.6258186256597896 1
gene  1 27 42 0.28960041164133843 0 1748.0 0.28960041164133843 1
gene  1 28 42 0.367925541204041 0 1749.0 0.367925541204041 1
gene  1 34 42 0.5216980904472753 0 1755.0 0.5216980904472753 1
gene  1 35 42 -0.806804363803835 0 1756.0 -0.806804363803835 1
gene  1 37 42 -0.4629435425227876 0 1758.0 -0.4629435425227876 1
gene  1 39 42 -0.2373115976345921 0 1760.0 -0.2373115976345921 1
gene  1 42 42 -0.9093709088694181 1 1763.0 -0.9093709088694181 1
genomeend 8
/* Organism # 009 Fitness:  0.000 Error:  0.000                      */
genomestart  9
trait 1 0.0 0.0 0.0 0.0 0.0 0.0 0.0 0.0 
node 1 1 1 1
node 2 1 1 1
node 3 1 1 1
node 4 1 1 1
node 5 1 1 1
node 6 1 1 1
node 7 1 1 1
node 8 1 1 1
node 9 1 1 1
node 10 1 1 1
node 11 1 1 1
node 12 1 1 1
node 13 1 1 1
node 14 1 1 1
node 15 1 1 1
node 16 1 1 1
node 17 1 1 1
node 18 1 1 1
node 19 1 1 1
node 20 1 1 1
node 21 1 1 1
node 22 1 1 1
node 23 1 1 1
node 24 1 1 1
node 25 1 1 1
node 26 1 1 1
node 27 1 1 1
node 28 1 1 3
node 34 1 0 2
node 35 1 0 2
node 36 1 0 2
node 37 1 0 2
node 38 1 0 2
node 39 1 0 2
node 40 1 0 2
node 41 1 0 2
node 42 1 0 2
gene  1 4 34 -0.7421089364730132 0 1389.0 -0.7421089364730132 1
gene  1 5 34 0.24823525940790148 0 1390.0 0.24823525940790148 1
gene  1 8 34 -0.7001735399343197 0 1393.0 -0.7001735399343197 1
