/* Species # 003         : (size= 001) (AvfFit= 0.000) (Age= 3.000)  */
/*-------------------------------------------------------------------*/
/* Organism # 000 Fitness:  0.000 Error:  0.000                      */
genomestart  0
trait 1 0.0 0.0 0.0 0.0 0.0 0.0 0.0 0.0 
node 1 1 1 1
node 2 1 1 1
node 3 1 1 1
node 4 1 1 1
node 5 1 1 1
node 6 1 1 1
node 7 1 1 1
node 8 1 1 1
node 9 1 1 1
node 10 1 1 1
node 11 1 1 1
node 12 1 1 1
node 13 1 1 1
node 14 1 1 1
node 15 1 1 1
node 16 1 1 1
node 17 1 1 1
node 18 1 1 1
node 19 1 1 1
node 20 1 1 1
node 21 1 1 1
node 22 1 1 1
node 23 1 1 1
node 24 1 1 1
node 25 1 1 1
node 26 1 1 1
node 27 1 1 1
node 28 1 1 3
node 29 1 0 0
node 30 1 0 0
node 34 1 0 2
node 35 1 0 2
node 36 1 0 2
node 37 1 0 2
node 38 1 0 2
node 39 1 0 2
node 40 1 0 2
node 41 1 0 2
node 42 1 0 2
node 60 1 0 0
gene  1 1 29 0.2259338995213076 0 1176.0 0.2259338995213076 1
gene  1 2 29 0.036194292736628775 0 1177.0 0.036194292736628775 1
gene  1 3 29 -0.8296528145636618 0 1178.0 -0.8296528145636618 1
gene  1 5 29 0.09521321153161932 0 1180.0 0.09521321153161932 1
gene  1 6 29 -0.8388764566676408 0 1181.0 -0.8388764566676408 1
gene  1 8 29 0.5809208773548001 0 1183.0 0.5809208773548001 1
gene  1 9 29 0.6138447574058098 0 1184.0 0.6138447574058098 1
gene  1 10 29 -0.047396048720227735 0 1185.0 -0.047396048720227735 1
gene  1 11 29 0.057155108018245304 0 1186.0 0.057155108018245304 1
gene  1 14 29 -0.28510440797922676 0 1189.0 -0.28510440797922676 1
gene  1 16 29 0.49482233116138663 0 1191.0 0.49482233116138663 1
gene  1 17 29 -0.7651886282511396 0 1192.0 -0.7651886282511396 1
gene  1 18 29 0.37939811897012987 0 1193.0 0.37939811897012987 1
gene  1 22 29 -0.6235280733931181 0 1197.0 -0.6235280733931181 1
gene  1 23 29 0.8914279802410502 0 1198.0 0.8914279802410502 1
gene  1 24 29 -0.6775370299756995 0 1199.0 -0.6775370299756995 1
gene  1 25 29 0.49674224401330846 0 1200.0 0.49674224401330846 1
gene  1 27 29 -0.7751613659758964 0 1202.0 -0.7751613659758964 1
gene  1 29 29 -0.4091983980821602 1 1204.0 -0.4091983980821602 1
gene  1 35 29 -0.2141089589919688 1 1210.0 -0.2141089589919688 1
gene  1 36 29 -0.4015895681747832 1 1211.0 -0.4015895681747832 1
gene  1 37 29 -0.623716604447873 1 1212.0 -0.623716604447873 1
gene  1 1 30 0.3526397121726881 0 1218.0 0.3526397121726881 1
gene  1 2 30 0.8630178516569953 0 1219.0 0.8630178516569953 1
gene  1 4 30 0.5858880666010106 0 1221.0 0.5858880666010106 1
gene  1 8 30 -0.48082889289994146 0 1225.0 -0.48082889289994146 1
gene  1 9 30 0.9532741189208689 0 1226.0 0.9532741189208689 1
gene  1 12 30 0.3076663740139587 0 1229.0 0.3076663740139587 1
gene  1 15 30 0.39445033782204186 0 1232.0 0.39445033782204186 1
gene  1 18 30 0.10552822676704654 0 1235.0 0.10552822676704654 1
gene  1 20 30 -0.4168688933372702 0 1237.0 -0.4168688933372702 1
gene  1 22 30 0.8511462083417382 0 1239.0 0.8511462083417382 1
gene  1 23 30 0.8753484199836233 0 1240.0 0.8753484199836233 1
gene  1 24 30 0.992099432527824 0 1241.0 0.992099432527824 1
gene  1 25 30 0.9341565818951258 0 1242.0 0.9341565818951258 1
gene  1 29 30 0.3054605408882033 0 1246.0 0.3054605408882033 1
gene  1 34 30 0.34720338576369514 1 1251.0 0.34720338576369514 1
gene  1 35 30 0.8119265412066337 1 1252.0 0.8119265412066337 1
gene  1 40 30 0.5064517769148198 1 1257.0 0.5064517769148198 1
gene  1 1 34 -0.26113683070753013 0 1386.0 -0.26113683070753013 1
gene  1 3 34 0.9925785407637725 0 1388.0 0.9925785407637725 1
gene  1 4 34 0.7971292133567037 0 1389.0 0.7971292133567037 1
gene  1 5 34 -0.5384026026987081 0 1390.0 -0.5384026026987081 1
gene  1 7 34 -0.8451377985308989 0 1392.0 -0.8451377985308989 1
gene  1 8 34 -0.9949100321783043 0 1393.0 -0.9949100321783043 1
gene  1 9 34 -0.9527245813414641 0 1394.0 -0.9527245813414641 1
gene  1 18 34 0.2941020224014276 0 1403.0 0.2941020224014276 1
gene  1 20 34 -0.2653049550488058 0 1405.0 -0.2653049550488058 1
gene  1 21 34 0.5175709213188058 0 1406.0 0.5175709213188058 1
gene  1 22 34 -0.47207431704984193 0 1407.0 -0.47207431704984193 1
gene  1 25 34 0.3212097437040782 0 1410.0 0.3212097437040782 1
gene  1 26 34 0.2812028454685316 0 1411.0 0.2812028454685316 1
gene  1 29 34 -0.4287407411571028 0 1414.0 -0.4287407411571028 1
gene  1 30 34 -0.03425865749199586 0 1415.0 -0.03425865749199586 1
gene  1 35 34 -0.06376802116026681 1 1420.0 -0.06376802116026681 1
gene  1 36 34 -0.24686528602399582 1 1421.0 -0.24686528602399582 1
gene  1 38 34 -0.40259373593827374 1 1423.0 -0.40259373593827374 1
gene  1 39 34 -0.6928918997449771 1 1424.0 -0.6928918997449771 1
gene  1 40 34 -0.02306937927405317 1 1425.0 -0.02306937927405317 1
gene  1 41 34 0.1626518615499558 1 1426.0 0.1626518615499558 1
gene  1 2 35 -0.47065087346217827 0 1429.0 -0.47065087346217827 1
gene  1 4 35 0.46926386055841396 0 1431.0 0.46926386055841396 1
gene  1 7 35 0.8241691456380529 0 1434.0 0.8241691456380529 1
gene  1 8 35 -0.7326457410876736 0 1435.0 -0.7326457410876736 1
gene  1 9 35 0.3985677990942791 0 1436.0 0.3985677990942791 1
gene  1 13 35 -0.1684412927918857 0 1440.0 -0.1684412927918857 1
gene  1 14 35 -0.4122156891121782 0 1441.0 -0.4122156891121782 1
gene  1 18 35 -0.34158432638784497 0 1445.0 -0.34158432638784497 1
gene  1 19 35 -0.36162558084851504 0 1446.0 -0.36162558084851504 1
gene  1 23 35 0.2093528851484362 0 1450.0 0.2093528851484362 1
gene  1 25 35 -0.7683640792327564 0 1452.0 -0.7683640792327564 1
gene  1 26 35 0.09140803240776885 0 1453.0 0.09140803240776885 1
gene  1 27 35 -0.2721089613601687 0 1454.0 -0.2721089613601687 1
gene  1 30 35 -0.74754008474775 0 1457.0 -0.74754008474775 1
gene  1 34 35 -0.10218104429397012 0 1461.0 -0.10218104429397012 1
gene  1 35 35 -0.13170820077744338 1 1462.0 -0.13170820077744338 1
gene  1 36 35 -0.0558216353299793 1 1463.0 -0.0558216353299793 1
gene  1 37 35 -0.1551941066228515 1 1464.0 -0.1551941066228515 1
gene  1 38 35 0.4705561469547458 1 1465.0 0.4705561469547458 1
gene  1 41 35 -0.8996001678553508 1 1468.0 -0.8996001678553508 1
gene  1 42 35 0.012302562758775393 1 1469.0 0.012302562758775393 1
gene  1 1 36 -0.07470062586544879 0 1470.0 -0.07470062586544879 1
gene  1 2 36 -0.3884942591734438 0 1471.0 -0.3884942591734438 1
gene  1 3 36 -0.08116105951833208 0 1472.0 -0.08116105951833208 1
gene  1 7 36 0.749848350624941 0 1476.0 0.749848350624941 1
gene  1 8 36 -0.08093098586256364 0 1477.0 -0.08093098586256364 1
gene  1 11 36 -0.852942031691003 0 1480.0 -0.852942031691003 1
gene  1 12 36 -0.00624832791308727 0 1481.0 -0.00624832791308727 1
gene  1 14 36 0.7350647162248489 0 1483.0 0.7350647162248489 1
gene  1 15 36 0.2600924018372305 0 1484.0 0.2600924018372305 1
gene  1 18 36 0.5870356284079654 0 1487.0 0.5870356284079654 1
gene  1 19 36 -0.2883276988155631 0 1488.0 -0.2883276988155631 1
gene  1 20 36 0.20709298019363576 0 1489.0 0.20709298019363576 1
gene  1 21 36 -0.2595796601319865 0 1490.0 -0.2595796601319865 1
gene  1 22 36 0.4407617548861952 0 1491.0 0.4407617548861952 1
gene  1 23 36 0.17732923722922733 0 1492.0 0.17732923722922733 1
gene  1 24 36 -0.5954849593547916 0 1493.0 -0.5954849593547916 1
gene  1 26 36 0.08884622966946543 0 1495.0 0.08884622966946543 1
gene  1 30 36 -0.1387882885352112 0 1499.0 -0.1387882885352112 1
gene  1 34 36 -0.7723423162309805 0 1503.0 -0.7723423162309805 1
gene  1 36 36 -0.9614115685494621 1 1505.0 -0.9614115685494621 1
gene  1 37 36 0.895087347858322 1 1506.0 0.895087347858322 1
gene  1 38 36 0.7528096665218865 1 1507.0 0.7528096665218865 1
gene  1 39 36 -0.7673457303844005 1 1508.0 -0.7673457303844005 1
gene  1 40 36 0.7148335233824682 1 1509.0 0.7148335233824682 1
gene  1 42 36 -0.3231368627342559 1 1511.0 -0.3231368627342559 1
gene  1 1 37 -0.8717027545428702 0 1512.0 -0.8717027545428702 1
gene  1 2 37 -0.2117213657553797 0 1513.0 -0.2117213657553797 1
gene  1 3 37 -0.6026685125477556 0 1514.0 -0.6026685125477556 1
gene  1 5 37 0.8544289229066435 0 1516.0 0.8544289229066435 1
gene  1 8 37 0.8475171608073458 0 1519.0 0.8475171608073458 1
gene  1 9 37 0.15196244980793894 0 1520.0 0.15196244980793894 1
gene  1 10 37 -0.9189556740834657 0 1521.0 -0.9189556740834657 1
gene  1 12 37 -0.6475502962881818 0 1523.0 -0.6475502962881818 1
gene  1 13 37 0.2801176077706192 0 1524.0 0.2801176077706192 1
gene  1 15 37 0.38508105873323206 0 1526.0 0.38508105873323206 1
gene  1 17 37 -0.05852365834261197 0 1528.0 -0.05852365834261197 1
gene  1 19 37 0.0495648904774969 0 1530.0 0.0495648904774969 1
gene  1 22 37 0.0613201163641004 0 1533.0 0.0613201163641004 1
gene  1 23 37 0.660440026051493 0 1534.0 0.660440026051493 1
gene  1 24 37 -0.9685646840252873 0 1535.0 -0.9685646840252873 1
gene  1 29 37 -0.7740627017125096 0 1540.0 -0.7740627017125096 0
gene  1 30 37 -0.49565612982111906 0 1541.0 -0.49565612982111906 1
gene  1 37 37 -0.8871509448731192 1 1548.0 -0.8871509448731192 1
gene  1 38 37 0.09252877639983248 1 1549.0 0.09252877639983248 1
gene  1 39 37 0.14427905513363093 1 1550.0 0.14427905513363093 1
gene  1 5 38 0.8363751792988443 0 1558.0 0.8363751792988443 1
gene  1 7 38 0.47023996671263835 0 1560.0 0.47023996671263835 1
gene  1 8 38 -0.9394836416196979 0 1561.0 -0.9394836416196979 1
gene  1 9 38 0.1575284443315239 0 1562.0 0.1575284443315239 1
gene  1 12 38 0.7807448617289895 0 1565.0 0.7807448617289895 1
gene  1 13 38 -0.1513032734128359 0 1566.0 -0.1513032734128359 1
gene  1 15 38 0.1380100874022938 0 1568.0 0.1380100874022938 1
gene  1 17 38 -0.05485936534981062 0 1570.0 -0.05485936534981062 1
gene  1 18 38 0.23879039492701504 0 1571.0 0.23879039492701504 1
gene  1 19 38 0.36855485649110176 0 1572.0 0.36855485649110176 1
gene  1 20 38 0.48217623323167424 0 1573.0 0.48217623323167424 1
gene  1 21 38 0.6758943704528296 0 1574.0 0.6758943704528296 1
gene  1 22 38 0.8768773171762969 0 1575.0 0.8768773171762969 1
gene  1 23 38 -0.48657526355060376 0 1576.0 -0.48657526355060376 1
gene  1 24 38 0.08037683312403021 0 1577.0 0.08037683312403021 1
gene  1 27 38 -0.9762810612988263 0 1580.0 -0.9762810612988263 1
gene  1 29 38 -0.31638797488105397 0 1582.0 -0.31638797488105397 1
gene  1 30 38 0.4466511352944941 0 1583.0 0.4466511352944941 1
gene  1 35 38 0.8549446464074717 0 1588.0 0.8549446464074717 1
gene  1 36 38 0.5014285704080856 0 1589.0 0.5014285704080856 1
gene  1 38 38 0.3844718002479758 1 1591.0 0.3844718002479758 1
gene  1 39 38 0.7326696446307154 1 1592.0 0.7326696446307154 1
gene  1 2 39 -0.6874106637121538 0 1597.0 -0.6874106637121538 1
gene  1 4 39 0.39699618104721257 0 1599.0 0.39699618104721257 1
gene  1 5 39 -0.8366177022215007 0 1600.0 -0.8366177022215007 1
gene  1 8 39 0.6727948677041339 0 1603.0 0.6727948677041339 1
gene  1 9 39 -0.8839625901948454 0 1604.0 -0.8839625901948454 1
gene  1 12 39 0.23007139404101962 0 1607.0 0.23007139404101962 1
gene  1 13 39 0.539649482125374 0 1608.0 0.539649482125374 1
gene  1 15 39 0.25067593803341515 0 1610.0 0.25067593803341515 1
gene  1 17 39 0.0677542385982084 0 1612.0 0.0677542385982084 1
gene  1 18 39 -0.7656291552496464 0 1613.0 -0.7656291552496464 1
gene  1 23 39 0.18059166780248315 0 1618.0 0.18059166780248315 1
gene  1 24 39 0.8881635619880339 0 1619.0 0.8881635619880339 1
gene  1 26 39 -0.35585016211151954 0 1621.0 -0.35585016211151954 1
gene  1 36 39 -0.14558751901815026 0 1631.0 -0.14558751901815026 1
gene  1 37 39 0.28548513343032145 0 1632.0 0.28548513343032145 1
gene  1 38 39 -0.30026379038669637 0 1633.0 -0.30026379038669637 1
gene  1 40 39 -0.8122314621834309 1 1635.0 -0.8122314621834309 1
gene  1 1 40 -0.14182322619116516 0 1638.0 -0.14182322619116516 1
gene  1 5 40 -0.24831223783429102 0 1642.0 -0.24831223783429102 1
gene  1 8 40 -0.08752991075965766 0 1645.0 -0.08752991075965766 1
gene  1 11 40 0.7947864900966882 0 1648.0 0.7947864900966882 1
gene  1 14 40 -0.2735176832185797 0 1651.0 -0.2735176832185797 1
gene  1 19 40 0.41125969467305246 0 1656.0 0.41125969467305246 1
gene  1 23 40 -0.4058562678830867 0 1660.0 -0.4058562678830867 1
gene  1 24 40 0.34079628691262454 0 1661.0 0.34079628691262454 1
gene  1 27 40 -0.3011780153288013 0 1664.0 -0.3011780153288013 1
gene  1 28 40 -0.15301698465994873 0 1665.0 -0.15301698465994873 1
gene  1 35 40 -0.8826360848102197 0 1672.0 -0.8826360848102197 1
gene  1 36 40 -0.11619481788264507 0 1673.0 -0.11619481788264507 1
gene  1 38 40 0.6269991380364811 0 1675.0 0.6269991380364811 1
gene  1 39 40 -0.7529701235413595 0 1676.0 -0.7529701235413595 1
gene  1 41 40 -0.08480021212362499 1 1678.0 -0.08480021212362499 1
gene  1 2 41 0.4398204358458816 0 1681.0 0.4398204358458816 1
gene  1 3 41 -0.37066360184069436 0 1682.0 -0.37066360184069436 1
gene  1 7 41 0.2491653993132118 0 1686.0 0.2491653993132118 1
gene  1 8 41 -0.8010602891181268 0 1687.0 -0.8010602891181268 1
gene  1 9 41 -0.28282435455642463 0 1688.0 -0.28282435455642463 1
gene  1 10 41 -0.7623442891512495 0 1689.0 -0.7623442891512495 1
gene  1 12 41 0.011828817083773258 0 1691.0 0.011828817083773258 1
gene  1 13 41 0.2998069659898178 0 1692.0 0.2998069659898178 1
gene  1 14 41 0.030095078739656667 0 1693.0 0.030095078739656667 1
gene  1 15 41 -0.14609197638019478 0 1694.0 -0.14609197638019478 1
gene  1 16 41 0.6489445720101217 0 1695.0 0.6489445720101217 1
gene  1 19 41 -0.5470096424803567 0 1698.0 -0.5470096424803567 1
gene  1 20 41 -0.8165916427785228 0 1699.0 -0.8165916427785228 1
gene  1 22 41 0.4468373949880383 0 1701.0 0.4468373949880383 1
gene  1 23 41 0.6547113112038979 0 1702.0 0.6547113112038979 1
gene  1 24 41 0.20594626205010935 0 1703.0 0.20594626205010935 1
gene  1 25 41 -0.8553351898833762 0 1704.0 -0.8553351898833762 1
gene  1 27 41 -0.787172028702648 0 1706.0 -0.787172028702648 1
gene  1 29 41 -0.8362717100140866 0 1708.0 -0.8362717100140866 1
gene  1 30 41 0.5428567683495255 0 1709.0 0.5428567683495255 1
gene  1 35 41 0.840833590756907 0 1714.0 0.840833590756907 1
gene  1 36 41 -0.8945289648567816 0 1715.0 -0.8945289648567816 1
gene  1 37 41 -0.611487520243902 0 1716.0 -0.611487520243902 1
gene  1 38 41 -0.18923253765027037 0 1717.0 -0.18923253765027037 1
gene  1 39 41 -0.024139289103562556 0 1718.0 -0.024139289103562556 1
gene  1 40 41 -0.5983694789962264 0 1719.0 -0.5983694789962264 1
gene  1 41 41 0.28512350545042764 1 1720.0 0.28512350545042764 1
gene  1 2 42 -0.9813698471461383 0 1723.0 -0.9813698471461383 1
gene  1 3 42 -0.24266361755831833 0 1724.0 -0.24266361755831833 1
gene  1 4 42 0.6478786204752569 0 1725.0 0.6478786204752569 1
gene  1 6 42 -0.0788985255948843 0 1727.0 -0.0788985255948843 1
gene  1 7 42 -0.8393514665119285 0 1728.0 -0.8393514665119285 1
gene  1 8 42 0.1752719068745432 0 1729.0 0.1752719068745432 1
gene  1 10 42 0.08523846001232094 0 1731.0 0.08523846001232094 1
gene  1 13 42 -0.1306237632585746 0 1734.0 -0.1306237632585746 1
gene  1 15 42 -0.24846899318160676 0 1736.0 -0.24846899318160676 1
gene  1 16 42 0.5539105365940509 0 1737.0 0.5539105365940509 1
gene  1 17 42 -0.7739167952283226 0 1738.0 -0.7739167952283226 1
gene  1 18 42 0.6791171836781608 0 1739.0 0.6791171836781608 1
gene  1 22 42 0.36333215574261646 0 1743.0 0.36333215574261646 1
gene  1 23 42 -0.46679928949716565 0 1744.0 -0.46679928949716565 1
gene  1 24 42 -0.42608691966490564 0 1745.0 -0.42608691966490564 1
gene  1 26 42 -0.9266721413201711 0 1747.0 -0.9266721413201711 1
gene  1 27 42 0.9249746094904194 0 1748.0 0.9249746094904194 1
gene  1 28 42 0.2516602456086954 0 1749.0 0.2516602456086954 1
gene  1 30 42 -0.6031663080908841 0 1751.0 -0.6031663080908841 1
gene  1 34 42 0.503357494364105 0 1755.0 0.503357494364105 1
gene  1 38 42 0.02997817351621468 0 1759.0 0.02997817351621468 1
gene  1 40 42 0.6140239384869608 0 1761.0 0.6140239384869608 1
gene  1 29 60 1.0 0 1799.0 0.0 1
gene  1 60 37 -0.7740627017125096 0 1800.0 0.0 1
genomeend 0
/*-------------------------------------------------------------------*/
/* Species # 004         : (size= 003) (AvfFit= 0.000) (Age= 3.000)  */
/*-------------------------------------------------------------------*/
/* Organism # 001 Fitness:  0.000 Error:  0.000                      */
genomestart  1
trait 1 0.0 0.0 0.0 0.0 0.0 0.0 0.0 0.0 
node 1 1 1 1
node 2 1 1 1
node 3 1 1 1
node 4 1 1 1
node 5 1 1 1
node 6 1 1 1
node 7 1 1 1
node 8 1 1 1
node 9 1 1 1
node 10 1 1 1
node 11 1 1 1
node 12 1 1 1
node 13 1 1 1
node 14 1 1 1
node 15 1 1 1
node 16 1 1 1
node 17 1 1 1
node 18 1 1 1
node 19 1 1 1
node 20 1 1 1
node 21 1 1 1
node 22 1 1 1
node 23 1 1 1
node 24 1 1 1
node 25 1 1 1
node 26 1 1 1
node 27 1 1 1
node 28 1 1 3
node 29 1 0 0
node 34 1 0 2
node 35 1 0 2
node 36 1 0 2
node 37 1 0 2
node 38 1 0 2
node 39 1 0 2
node 40 1 0 2
node 41 1 0 2
node 42 1 0 2
gene  1 1 29 -0.29833566330916494 0 1176.0 -0.29833566330916494 1
gene  1 2 29 -0.867182747623463 0 1177.0 -0.867182747623463 1
gene  1 4 29 -0.6561976377836802 0 1179.0 -0.6561976377836802 1
gene  1 5 29 0.8391420251464576 0 1180.0 0.8391420251464576 1
gene  1 7 29 -0.22360460047602004 0 1182.0 -0.22360460047602004 1
gene  1 9 29 0.812842634589826 0 1184.0 0.812842634589826 1
gene  1 12 29 0.9259515285447052 0 1187.0 0.9259515285447052 1
gene  1 13 29 -0.18083599187081745 0 1188.0 -0.18083599187081745 1
gene  1 15 29 -0.8519355812859105 0 1190.0 -0.8519355812859105 1
gene  1 16 29 0.990118281199235 0 1191.0 0.990118281199235 1
gene  1 17 29 -0.6004377209919725 0 1192.0 -0.6004377209919725 1
gene  1 22 29 -0.9237313977246073 0 1197.0 -0.9237313977246073 1
gene  1 23 29 -0.313963857473896 0 1198.0 -0.313963857473896 1
gene  1 26 29 -0.48655291488871355 0 1201.0 -0.48655291488871355 1
gene  1 29 29 -0.3654884210890228 1 1204.0 -0.3654884210890228 1
gene  1 34 29 -0.7329095713653342 1 1209.0 -0.7329095713653342 1
gene  1 36 29 0.7884771702591131 1 1211.0 0.7884771702591131 1
gene  1 40 29 0.7364118063724255 1 1215.0 0.7364118063724255 1
gene  1 42 29 0.5600962201297863 1 1217.0 0.5600962201297863 1
gene  1 1 34 -0.7882897549362602 0 1386.0 -0.7882897549362602 1
gene  1 3 34 -0.60313023322021 0 1388.0 -0.60313023322021 1
gene  1 4 34 -0.34525369097996017 0 1389.0 -0.34525369097996017 1
gene  1 5 34 0.36614135422367244 0 1390.0 0.36614135422367244 1
gene  1 8 34 -0.5657665239765249 0 1393.0 -0.5657665239765249 1
gene  1 9 34 -0.967479420735018 0 1394.0 -0.967479420735018 1
gene  1 11 34 -0.4336050103762118 0 1396.0 -0.4336050103762118 1
gene  1 18 34 -0.9797431786427703 0 1403.0 -0.9797431786427703 1
gene  1 23 34 0.964882088992355 0 1408.0 0.964882088992355 1
gene  1 26 34 -0.5420741050472664 0 1411.0 -0.5420741050472664 1
gene  1 28 34 -0.5056037911113948 0 1413.0 -0.5056037911113948 1
gene  1 36 34 -0.04072069056944483 1 1421.0 -0.04072069056944483 1
gene  1 37 34 0.4192122457702214 1 1422.0 0.4192122457702214 1
gene  1 38 34 0.9897576374021726 1 1423.0 0.9897576374021726 1
gene  1 41 34 -0.6486394547274859 1 1426.0 -0.6486394547274859 1
gene  1 42 34 -0.7262883546333785 1 1427.0 -0.7262883546333785 1
gene  1 1 35 0.5323411372258324 0 1428.0 0.5323411372258324 1
gene  1 2 35 0.6618962007957591 0 1429.0 0.6618962007957591 1
gene  1 6 35 0.9684527561016248 0 1433.0 0.9684527561016248 1
gene  1 8 35 0.4707210532355359 0 1435.0 0.4707210532355359 1
gene  1 11 35 -0.9760441841458015 0 1438.0 -0.9760441841458015 1
gene  1 15 35 0.4720688766755742 0 1442.0 0.4720688766755742 1
gene  1 17 35 0.6282608514540403 0 1444.0 0.6282608514540403 1
gene  1 23 35 0.4505820022507664 0 1450.0 0.4505820022507664 1
gene  1 24 35 0.39641281634010783 0 1451.0 0.39641281634010783 1
gene  1 25 35 0.4287918569580862 0 1452.0 0.4287918569580862 1
gene  1 27 35 0.9919904321433611 0 1454.0 0.9919904321433611 1
gene  1 29 35 -0.3933849715663721 0 1456.0 -0.3933849715663721 1
gene  1 34 35 -0.7858305358455441 0 1461.0 -0.7858305358455441 1
gene  1 35 35 -0.9099693645307725 1 1462.0 -0.9099693645307725 1
gene  1 36 35 0.9567745981028047 1 1463.0 0.9567745981028047 1
gene  1 37 35 -0.2162971320267183 1 1464.0 -0.2162971320267183 1
gene  1 39 35 -0.6910229675569685 1 1466.0 -0.6910229675569685 1
gene  1 42 35 -0.5346852574917496 1 1469.0 -0.5346852574917496 1
gene  1 1 36 0.1190003292185633 0 1470.0 0.1190003292185633 1
gene  1 2 36 -0.6925926900239594 0 1471.0 -0.6925926900239594 1
gene  1 5 36 0.0962941678961462 0 1474.0 0.0962941678961462 1
gene  1 6 36 0.9392781869318825 0 1475.0 0.9392781869318825 1
gene  1 10 36 0.4562678165996701 0 1479.0 0.4562678165996701 1
gene  1 16 36 0.16083322917563792 0 1485.0 0.16083322917563792 1
gene  1 21 36 0.3123538161085213 0 1490.0 0.3123538161085213 1
gene  1 29 36 -0.2078536986624573 0 1498.0 -0.2078536986624573 1
gene  1 34 36 0.46389818830262575 0 1503.0 0.46389818830262575 1
gene  1 35 36 0.040837892537625264 0 1504.0 0.040837892537625264 1
gene  1 37 36 -0.5400251092502074 1 1506.0 -0.5400251092502074 1
gene  1 38 36 0.5028307625625962 1 1507.0 0.5028307625625962 1
gene  1 40 36 -0.3827349523932596 1 1509.0 -0.3827349523932596 1
gene  1 1 37 -0.07895822814517872 0 1512.0 -0.07895822814517872 1
gene  1 6 37 0.39917598687351885 0 1517.0 0.39917598687351885 1
gene  1 7 37 -0.24602590403027502 0 1518.0 -0.24602590403027502 1
gene  1 12 37 -0.25293422307403723 0 1523.0 -0.25293422307403723 1
gene  1 13 37 0.21240043871421632 0 1524.0 0.21240043871421632 1
gene  1 14 37 0.9103777836545874 0 1525.0 0.9103777836545874 1
gene  1 15 37 0.21924417258296325 0 1526.0 0.21924417258296325 1
gene  1 16 37 -0.9686130985130519 0 1527.0 -0.9686130985130519 1
gene  1 17 37 -0.289631414283236 0 1528.0 -0.289631414283236 1
gene  1 18 37 0.5933903076601127 0 1529.0 0.5933903076601127 1
gene  1 19 37 -0.18635253726656043 0 1530.0 -0.18635253726656043 1
gene  1 22 37 0.467381530648742 0 1533.0 0.467381530648742 1
gene  1 23 37 -0.6044286115020028 0 1534.0 -0.6044286115020028 1
gene  1 24 37 0.2652919672527556 0 1535.0 0.2652919672527556 1
gene  1 25 37 -0.13420624210554544 0 1536.0 -0.13420624210554544 1
gene  1 26 37 0.3280538461363154 0 1537.0 0.3280538461363154 1
gene  1 27 37 0.9599274570799827 0 1538.0 0.9599274570799827 1
gene  1 28 37 -0.15399051399321317 0 1539.0 -0.15399051399321317 1
gene  1 37 37 0.33231149279723626 1 1548.0 0.33231149279723626 1
gene  1 38 37 -0.7647291779126566 1 1549.0 -0.7647291779126566 1
gene  1 40 37 0.3629950319558036 1 1551.0 0.3629950319558036 1
gene  1 3 38 -0.3214094960481573 0 1556.0 -0.3214094960481573 1
gene  1 9 38 0.012338496890780704 0 1562.0 0.012338496890780704 1
gene  1 10 38 0.6758293027850281 0 1563.0 0.6758293027850281 1
gene  1 11 38 -0.21720739777171616 0 1564.0 -0.21720739777171616 1
gene  1 12 38 0.4556668609492185 0 1565.0 0.4556668609492185 1
gene  1 14 38 -0.2570237653907733 0 1567.0 -0.2570237653907733 1
gene  1 16 38 -0.6468435745061639 0 1569.0 -0.6468435745061639 1
gene  1 22 38 0.21529245467079705 0 1575.0 0.21529245467079705 1
gene  1 23 38 0.5432410500397398 0 1576.0 0.5432410500397398 1
gene  1 24 38 -0.3989730048561374 0 1577.0 -0.3989730048561374 1
gene  1 26 38 0.714089322235598 0 1579.0 0.714089322235598 1
gene  1 34 38 -0.8816595295224025 0 1587.0 -0.8816595295224025 1
gene  1 36 38 0.08002773389665163 0 1589.0 0.08002773389665163 1
gene  1 38 38 0.8956207644851002 1 1591.0 0.8956207644851002 1
gene  1 39 38 -0.10675701330453646 1 1592.0 -0.10675701330453646 1
gene  1 41 38 -0.6569861353836925 1 1594.0 -0.6569861353836925 1
gene  1 42 38 0.49327066092613836 1 1595.0 0.49327066092613836 1
gene  1 1 39 -0.8462213622202801 0 1596.0 -0.8462213622202801 1
gene  1 2 39 0.9132582795797172 0 1597.0 0.9132582795797172 1
gene  1 3 39 -0.4960597241733722 0 1598.0 -0.4960597241733722 1
gene  1 4 39 -0.6029241343432883 0 1599.0 -0.6029241343432883 1
gene  1 12 39 -0.426217375305989 0 1607.0 -0.426217375305989 1
gene  1 14 39 0.7171877241404493 0 1609.0 0.7171877241404493 1
gene  1 18 39 -0.5353422344843023 0 1613.0 -0.5353422344843023 1
gene  1 22 39 0.8887682896338797 0 1617.0 0.8887682896338797 1
gene  1 25 39 -0.9565038128047043 0 1620.0 -0.9565038128047043 1
gene  1 28 39 -0.2541789816186819 0 1623.0 -0.2541789816186819 1
gene  1 34 39 0.5180767266600036 0 1629.0 0.5180767266600036 1
gene  1 37 39 -0.29562048886563685 0 1632.0 -0.29562048886563685 1
gene  1 39 39 0.8197089032281921 1 1634.0 0.8197089032281921 1
gene  1 1 40 -0.32409091008722757 0 1638.0 -0.32409091008722757 1
gene  1 2 40 0.30410227168624704 0 1639.0 0.30410227168624704 1
gene  1 3 40 0.409713330690998 0 1640.0 0.409713330690998 1
gene  1 7 40 0.24924525240067563 0 1644.0 0.24924525240067563 1
gene  1 11 40 0.8081827886380906 0 1648.0 0.8081827886380906 1
gene  1 17 40 -0.07267532789785502 0 1654.0 -0.07267532789785502 1
gene  1 18 40 -0.2905619507996221 0 1655.0 -0.2905619507996221 1
gene  1 19 40 -0.2130251793405693 0 1656.0 -0.2130251793405693 1
gene  1 25 40 0.1774856139106814 0 1662.0 0.1774856139106814 1
gene  1 26 40 -0.30517603098837986 0 1663.0 -0.30517603098837986 1
gene  1 27 40 -0.6196150124022224 0 1664.0 -0.6196150124022224 1
gene  1 29 40 -0.3027338602717412 0 1666.0 -0.3027338602717412 1
gene  1 35 40 -0.31008422354315146 0 1672.0 -0.31008422354315146 1
gene  1 36 40 -0.5381462335131285 0 1673.0 -0.5381462335131285 1
gene  1 37 40 0.31424712520508435 0 1674.0 0.31424712520508435 1
gene  1 38 40 0.12863769439689 0 1675.0 0.12863769439689 1
gene  1 39 40 0.4694977760940259 0 1676.0 0.4694977760940259 1
gene  1 40 40 -0.35507626796423486 1 1677.0 -0.35507626796423486 1
gene  1 42 40 -0.3971484808156953 1 1679.0 -0.3971484808156953 1
gene  1 2 41 0.16317745091200608 0 1681.0 0.16317745091200608 1
gene  1 5 41 0.6261694455631928 0 1684.0 0.6261694455631928 1
gene  1 6 41 -0.4590182683205174 0 1685.0 -0.4590182683205174 1
gene  1 7 41 0.8602224309072055 0 1686.0 0.8602224309072055 1
gene  1 8 41 0.025031148892245336 0 1687.0 0.025031148892245336 1
gene  1 11 41 0.8560047649875607 0 1690.0 0.8560047649875607 1
gene  1 14 41 -0.680620313618406 0 1693.0 -0.680620313618406 1
gene  1 16 41 -0.031408015714505466 0 1695.0 -0.031408015714505466 1
gene  1 17 41 -0.6467812335307053 0 1696.0 -0.6467812335307053 1
gene  1 19 41 -0.7350679880251199 0 1698.0 -0.7350679880251199 1
gene  1 20 41 -0.8425851177436848 0 1699.0 -0.8425851177436848 1
gene  1 22 41 -0.6644722202289387 0 1701.0 -0.6644722202289387 1
gene  1 24 41 0.7185135815586454 0 1703.0 0.7185135815586454 1
gene  1 25 41 -0.6134623252370113 0 1704.0 -0.6134623252370113 1
gene  1 26 41 0.8587756343021231 0 1705.0 0.8587756343021231 1
gene  1 27 41 -0.6072117157493089 0 1706.0 -0.6072117157493089 1
gene  1 28 41 -0.8882103521283292 0 1707.0 -0.8882103521283292 1
gene  1 34 41 -0.5239671163284758 0 1713.0 -0.5239671163284758 1
gene  1 37 41 -0.8030053756507286 0 1716.0 -0.8030053756507286 1
gene  1 40 41 -0.5534868156216203 0 1719.0 -0.5534868156216203 1
gene  1 41 41 -0.8661543484183682 1 1720.0 -0.8661543484183682 1
gene  1 42 41 0.626440021201832 1 1721.0 0.626440021201832 1
gene  1 5 42 -0.8696270606657964 0 1726.0 -0.8696270606657964 1
gene  1 9 42 0.49927467521734126 0 1730.0 0.49927467521734126 1
gene  1 10 42 0.31008906068986974 0 1731.0 0.31008906068986974 1
gene  1 11 42 -0.3559494688397521 0 1732.0 -0.3559494688397521 1
gene  1 12 42 0.767911183734373 0 1733.0 0.767911183734373 1
gene  1 15 42 0.16204800301465505 0 1736.0 0.16204800301465505 1
gene  1 16 42 0.942802512246009 0 1737.0 0.942802512246009 1
gene  1 17 42 0.4140866224477435 0 1738.0 0.4140866224477435 1
gene  1 18 42 0.6692961378087282 0 1739.0 0.6692961378087282 1
gene  1 19 42 -0.7052008870450576 0 1740.0 -0.7052008870450576 1
gene  1 22 42 0.1032278415161576 0 1743.0 0.1032278415161576 1
gene  1 25 42 0.9863038130889272 0 1746.0 0.9863038130889272 1
gene  1 27 42 -0.05718730001125549 0 1748.0 -0.05718730001125549 1
gene  1 29 42 0.6632798536648815 0 1750.0 0.6632798536648815 1
gene  1 35 42 -0.9820527971137859 0 1756.0 -0.9820527971137859 1
gene  1 38 42 0.8851921756619177 0 1759.0 0.8851921756619177 1
gene  1 40 42 -0.831243507625273 0 1761.0 -0.831243507625273 1
genomeend 1
/* Organism # 002 Fitness:  0.000 Error:  0.000                      */
genomestart  2
trait 1 0.0 0.0 0.0 0.0 0.0 0.0 0.0 0.0 
node 1 1 1 1
node 2 1 1 1
node 3 1 1 1
node 4 1 1 1
node 5 1 1 1
node 6 1 1 1
node 7 1 1 1
node 8 1 1 1
node 9 1 1 1
node 10 1 1 1
node 11 1 1 1
node 12 1 1 1
node 13 1 1 1
node 14 1 1 1
node 15 1 1 1
node 16 1 1 1
node 17 1 1 1
node 18 1 1 1
node 19 1 1 1
node 20 1 1 1
node 21 1 1 1
node 22 1 1 1
node 23 1 1 1
node 24 1 1 1
node 25 1 1 1
node 26 1 1 1
node 27 1 1 1
node 28 1 1 3
node 29 1 0 0
node 34 1 0 2
node 35 1 0 2
node 36 1 0 2
node 37 1 0 2
node 38 1 0 2
node 39 1 0 2
node 40 1 0 2
node 41 1 0 2
node 42 1 0 2
node 71 1 0 0
gene  1 1 29 -0.29833566330916494 0 1176.0 -0.29833566330916494 1
gene  1 2 29 -0.867182747623463 0 1177.0 -0.867182747623463 1
gene  1 4 29 -0.6561976377836802 0 1179.0 -0.6561976377836802 1
gene  1 5 29 0.8391420251464576 0 1180.0 0.8391420251464576 1
gene  1 7 29 -0.22360460047602004 0 1182.0 -0.22360460047602004 1
gene  1 9 29 0.812842634589826 0 1184.0 0.812842634589826 1
gene  1 12 29 0.9259515285447052 0 1187.0 0.9259515285447052 1
gene  1 13 29 -0.18083599187081745 0 1188.0 -0.18083599187081745 1
gene  1 15 29 -0.8519355812859105 0 1190.0 -0.8519355812859105 1
gene  1 16 29 0.990118281199235 0 1191.0 0.990118281199235 1
gene  1 17 29 -0.6004377209919725 0 1192.0 -0.6004377209919725 1
gene  1 22 29 -0.9237313977246073 0 1197.0 -0.9237313977246073 1
gene  1 23 29 -0.313963857473896 0 1198.0 -0.313963857473896 1
gene  1 26 29 -0.48655291488871355 0 1201.0 -0.48655291488871355 1
gene  1 29 29 -0.3654884210890228 1 1204.0 -0.3654884210890228 1
gene  1 34 29 -0.7329095713653342 1 1209.0 -0.7329095713653342 1
gene  1 36 29 0.7884771702591131 1 1211.0 0.7884771702591131 1
gene  1 40 29 0.7364118063724255 1 1215.0 0.7364118063724255 1
gene  1 42 29 0.5600962201297863 1 1217.0 0.5600962201297863 1
gene  1 1 34 -0.7882897549362602 0 1386.0 -0.7882897549362602 1
gene  1 3 34 -0.60313023322021 0 1388.0 -0.60313023322021 1
gene  1 4 34 -0.34525369097996017 0 1389.0 -0.34525369097996017 1
gene  1 5 34 0.36614135422367244 0 1390.0 0.36614135422367244 1
gene  1 8 34 -0.5657665239765249 0 1393.0 -0.5657665239765249 1
gene  1 9 34 -0.967479420735018 0 1394.0 -0.967479420735018 1
gene  1 11 34 -0.4336050103762118 0 1396.0 -0.4336050103762118 1
gene  1 18 34 -0.9797431786427703 0 1403.0 -0.9797431786427703 1
gene  1 23 34 0.964882088992355 0 1408.0 0.964882088992355 1
gene  1 26 34 -0.5420741050472664 0 1411.0 -0.5420741050472664 1
gene  1 28 34 -0.5056037911113948 0 1413.0 -0.5056037911113948 1
gene  1 36 34 -0.04072069056944483 1 1421.0 -0.04072069056944483 1
gene  1 37 34 0.4192122457702214 1 1422.0 0.4192122457702214 1
gene  1 38 34 0.9897576374021726 1 1423.0 0.9897576374021726 1
gene  1 41 34 -0.6486394547274859 1 1426.0 -0.6486394547274859 1
gene  1 42 34 -0.7262883546333785 1 1427.0 -0.7262883546333785 1
gene  1 1 35 0.5323411372258324 0 1428.0 0.5323411372258324 1
gene  1 2 35 0.6618962007957591 0 1429.0 0.6618962007957591 1
gene  1 6 35 0.9684527561016248 0 1433.0 0.9684527561016248 1
gene  1 8 35 0.4707210532355359 0 1435.0 0.4707210532355359 1
gene  1 11 35 -0.9760441841458015 0 1438.0 -0.9760441841458015 1
gene  1 15 35 0.4720688766755742 0 1442.0 0.4720688766755742 1
gene  1 17 35 0.6282608514540403 0 1444.0 0.6282608514540403 1
gene  1 23 35 0.4505820022507664 0 1450.0 0.4505820022507664 1
gene  1 24 35 0.39641281634010783 0 1451.0 0.39641281634010783 1
gene  1 25 35 0.4287918569580862 0 1452.0 0.4287918569580862 1
gene  1 27 35 0.9919904321433611 0 1454.0 0.9919904321433611 1
gene  1 29 35 -0.3933849715663721 0 1456.0 -0.3933849715663721 1
gene  1 34 35 -0.7858305358455441 0 1461.0 -0.7858305358455441 1
gene  1 35 35 -0.9099693645307725 1 1462.0 -0.9099693645307725 1
gene  1 36 35 0.9567745981028047 1 1463.0 0.9567745981028047 1
gene  1 37 35 -0.2162971320267183 1 1464.0 -0.2162971320267183 1
gene  1 39 35 -0.6910229675569685 1 1466.0 -0.6910229675569685 1
gene  1 42 35 -0.5346852574917496 1 1469.0 -0.5346852574917496 1
gene  1 1 36 0.1190003292185633 0 1470.0 0.1190003292185633 1
gene  1 2 36 -0.6925926900239594 0 1471.0 -0.6925926900239594 1
gene  1 5 36 0.0962941678961462 0 1474.0 0.0962941678961462 1
gene  1 6 36 0.9392781869318825 0 1475.0 0.9392781869318825 1
gene  1 10 36 0.4562678165996701 0 1479.0 0.4562678165996701 1
gene  1 16 36 0.16083322917563792 0 1485.0 0.16083322917563792 1
gene  1 21 36 0.3123538161085213 0 1490.0 0.3123538161085213 1
gene  1 29 36 -0.2078536986624573 0 1498.0 -0.2078536986624573 1
gene  1 34 36 0.46389818830262575 0 1503.0 0.46389818830262575 1
gene  1 35 36 0.040837892537625264 0 1504.0 0.040837892537625264 1
gene  1 37 36 -0.5400251092502074 1 1506.0 -0.5400251092502074 1
gene  1 38 36 0.5028307625625962 1 1507.0 0.5028307625625962 1
gene  1 40 36 -0.3827349523932596 1 1509.0 -0.3827349523932596 1
gene  1 1 37 -0.07895822814517872 0 1512.0 -0.07895822814517872 1
gene  1 6 37 0.39917598687351885 0 1517.0 0.39917598687351885 1
gene  1 7 37 -0.24602590403027502 0 1518.0 -0.24602590403027502 1
gene  1 12 37 -0.25293422307403723 0 1523.0 -0.25293422307403723 1
gene  1 13 37 0.21240043871421632 0 1524.0 0.21240043871421632 1
gene  1 14 37 0.9103777836545874 0 1525.0 0.9103777836545874 1
gene  1 15 37 0.21924417258296325 0 1526.0 0.21924417258296325 1
gene  1 16 37 -0.9686130985130519 0 1527.0 -0.9686130985130519 1
gene  1 17 37 -0.289631414283236 0 1528.0 -0.289631414283236 1
gene  1 18 37 0.5933903076601127 0 1529.0 0.5933903076601127 1
gene  1 19 37 -0.18635253726656043 0 1530.0 -0.18635253726656043 1
gene  1 22 37 0.467381530648742 0 1533.0 0.467381530648742 1
gene  1 23 37 -0.6044286115020028 0 1534.0 -0.6044286115020028 1
gene  1 24 37 0.2652919672527556 0 1535.0 0.2652919672527556 1
gene  1 25 37 -0.13420624210554544 0 1536.0 -0.13420624210554544 1
gene  1 26 37 0.3280538461363154 0 1537.0 0.3280538461363154 1
gene  1 27 37 0.9599274570799827 0 1538.0 0.9599274570799827 1
gene  1 28 37 -0.15399051399321317 0 1539.0 -0.15399051399321317 1
gene  1 37 37 0.33231149279723626 1 1548.0 0.33231149279723626 1
gene  1 38 37 -0.7647291779126566 1 1549.0 -0.7647291779126566 1
gene  1 40 37 0.3629950319558036 1 1551.0 0.3629950319558036 1
gene  1 3 38 -0.3214094960481573 0 1556.0 -0.3214094960481573 1
gene  1 9 38 0.012338496890780704 0 1562.0 0.012338496890780704 1
gene  1 10 38 0.6758293027850281 0 1563.0 0.6758293027850281 1
gene  1 11 38 -0.21720739777171616 0 1564.0 -0.21720739777171616 1
gene  1 12 38 0.4556668609492185 0 1565.0 0.4556668609492185 1
gene  1 14 38 -0.2570237653907733 0 1567.0 -0.2570237653907733 1
gene  1 16 38 -0.6468435745061639 0 1569.0 -0.6468435745061639 1
gene  1 22 38 0.21529245467079705 0 1575.0 0.21529245467079705 1
gene  1 23 38 0.5432410500397398 0 1576.0 0.5432410500397398 1
gene  1 24 38 -0.3989730048561374 0 1577.0 -0.3989730048561374 1
gene  1 26 38 0.714089322235598 0 1579.0 0.714089322235598 1
gene  1 34 38 -0.8816595295224025 0 1587.0 -0.8816595295224025 1
gene  1 36 38 0.08002773389665163 0 1589.0 0.08002773389665163 1
gene  1 38 38 0.8956207644851002 1 1591.0 0.8956207644851002 1
gene  1 39 38 -0.10675701330453646 1 1592.0 -0.10675701330453646 1
gene  1 41 38 -0.6569861353836925 1 1594.0 -0.6569861353836925 1
gene  1 42 38 0.49327066092613836 1 1595.0 0.49327066092613836 1
gene  1 1 39 -0.8462213622202801 0 1596.0 -0.8462213622202801 1
gene  1 2 39 0.9132582795797172 0 1597.0 0.9132582795797172 1
gene  1 3 39 -0.4960597241733722 0 1598.0 -0.4960597241733722 1
gene  1 4 39 -0.6029241343432883 0 1599.0 -0.6029241343432883 1
gene  1 12 39 -0.426217375305989 0 1607.0 -0.426217375305989 1
gene  1 14 39 0.7171877241404493 0 1609.0 0.7171877241404493 1
gene  1 18 39 -0.5353422344843023 0 1613.0 -0.5353422344843023 1
gene  1 22 39 0.8887682896338797 0 1617.0 0.8887682896338797 1
gene  1 25 39 -0.9565038128047043 0 1620.0 -0.9565038128047043 1
gene  1 28 39 -0.2541789816186819 0 1623.0 -0.2541789816186819 1
gene  1 34 39 0.5180767266600036 0 1629.0 0.5180767266600036 1
gene  1 37 39 -0.29562048886563685 0 1632.0 -0.29562048886563685 1
gene  1 39 39 0.8197089032281921 1 1634.0 0.8197089032281921 1
gene  1 1 40 -0.32409091008722757 0 1638.0 -0.32409091008722757 1
gene  1 2 40 0.30410227168624704 0 1639.0 0.30410227168624704 1
gene  1 3 40 0.409713330690998 0 1640.0 0.409713330690998 1
gene  1 7 40 0.24924525240067563 0 1644.0 0.24924525240067563 1
gene  1 11 40 0.8081827886380906 0 1648.0 0.8081827886380906 1
gene  1 17 40 -0.07267532789785502 0 1654.0 -0.07267532789785502 1
gene  1 18 40 -0.2905619507996221 0 1655.0 -0.2905619507996221 1
gene  1 19 40 -0.2130251793405693 0 1656.0 -0.2130251793405693 1
gene  1 25 40 0.1774856139106814 0 1662.0 0.1774856139106814 1
gene  1 26 40 -0.30517603098837986 0 1663.0 -0.30517603098837986 1
gene  1 27 40 -0.6196150124022224 0 1664.0 -0.6196150124022224 1
gene  1 29 40 -0.3027338602717412 0 1666.0 -0.3027338602717412 0
gene  1 35 40 -0.31008422354315146 0 1672.0 -0.31008422354315146 1
gene  1 36 40 -0.5381462335131285 0 1673.0 -0.5381462335131285 1
gene  1 37 40 0.31424712520508435 0 1674.0 0.31424712520508435 1
gene  1 38 40 0.12863769439689 0 1675.0 0.12863769439689 1
gene  1 39 40 0.4694977760940259 0 1676.0 0.4694977760940259 1
gene  1 40 40 -0.35507626796423486 1 1677.0 -0.35507626796423486 1
gene  1 42 40 -0.3971484808156953 1 1679.0 -0.3971484808156953 1
gene  1 2 41 0.16317745091200608 0 1681.0 0.16317745091200608 1
gene  1 5 41 0.6261694455631928 0 1684.0 0.6261694455631928 1
gene  1 6 41 -0.4590182683205174 0 1685.0 -0.4590182683205174 1
gene  1 7 41 0.8602224309072055 0 1686.0 0.8602224309072055 1
gene  1 8 41 0.025031148892245336 0 1687.0 0.025031148892245336 1
gene  1 11 41 0.8560047649875607 0 1690.0 0.8560047649875607 1
gene  1 14 41 -0.680620313618406 0 1693.0 -0.680620313618406 1
gene  1 16 41 -0.031408015714505466 0 1695.0 -0.031408015714505466 1
gene  1 17 41 -0.6467812335307053 0 1696.0 -0.6467812335307053 1
gene  1 19 41 -0.7350679880251199 0 1698.0 -0.7350679880251199 1
gene  1 20 41 -0.8425851177436848 0 1699.0 -0.8425851177436848 1
gene  1 22 41 -0.6644722202289387 0 1701.0 -0.6644722202289387 1
gene  1 24 41 0.7185135815586454 0 1703.0 0.7185135815586454 1
gene  1 25 41 -0.6134623252370113 0 1704.0 -0.6134623252370113 1
gene  1 26 41 0.8587756343021231 0 1705.0 0.8587756343021231 1
gene  1 27 41 -0.6072117157493089 0 1706.0 -0.6072117157493089 1
gene  1 28 41 -0.8882103521283292 0 1707.0 -0.8882103521283292 1
gene  1 34 41 -0.5239671163284758 0 1713.0 -0.5239671163284758 1
gene  1 37 41 -0.8030053756507286 0 1716.0 -0.8030053756507286 1
gene  1 40 41 -0.5534868156216203 0 1719.0 -0.5534868156216203 1
gene  1 41 41 -0.8661543484183682 1 1720.0 -0.8661543484183682 1
gene  1 42 41 0.626440021201832 1 1721.0 0.626440021201832 1
gene  1 5 42 -0.8696270606657964 0 1726.0 -0.8696270606657964 1
gene  1 9 42 0.49927467521734126 0 1730.0 0.49927467521734126 1
gene  1 10 42 0.31008906068986974 0 1731.0 0.31008906068986974 1
gene  1 11 42 -0.3559494688397521 0 1732.0 -0.3559494688397521 1
gene  1 12 42 0.767911183734373 0 1733.0 0.767911183734373 1
gene  1 15 42 0.16204800301465505 0 1736.0 0.16204800301465505 1
gene  1 16 42 0.942802512246009 0 1737.0 0.942802512246009 1
gene  1 17 42 0.4140866224477435 0 1738.0 0.4140866224477435 1
gene  1 18 42 0.6692961378087282 0 1739.0 0.6692961378087282 1
gene  1 19 42 -0.7052008870450576 0 1740.0 -0.7052008870450576 1
gene  1 22 42 0.1032278415161576 0 1743.0 0.1032278415161576 1
gene  1 25 42 0.9863038130889272 0 1746.0 0.9863038130889272 1
gene  1 27 42 -0.05718730001125549 0 1748.0 -0.05718730001125549 1
gene  1 29 42 0.6632798536648815 0 1750.0 0.6632798536648815 1
gene  1 35 42 -0.9820527971137859 0 1756.0 -0.9820527971137859 1
gene  1 38 42 0.8851921756619177 0 1759.0 0.8851921756619177 1
gene  1 40 42 -0.831243507625273 0 1761.0 -0.831243507625273 1
gene  1 29 71 1.0 0 1821.0 0.0 1
gene  1 71 40 -0.3027338602717412 0 1822.0 0.0 1
genomeend 2
/* Organism # 003 Fitness:  0.000 Error:  0.000                      */
genomestart  3
trait 1 0.0 0.0 0.0 0.0 0.0 0.0 0.0 0.0 
node 1 1 1 1
node 2 1 1 1
node 3 1 1 1
node 4 1 1 1
node 5 1 1 1
node 6 1 1 1
node 7 1 1 1
node 8 1 1 1
node 9 1 1 1
node 10 1 1 1
node 11 1 1 1
node 12 1 1 1
node 13 1 1 1
node 14 1 1 1
node 15 1 1 1
node 16 1 1 1
node 17 1 1 1
node 18 1 1 1
node 19 1 1 1
node 20 1 1 1
node 21 1 1 1
node 22 1 1 1
node 23 1 1 1
node 24 1 1 1
node 25 1 1 1
node 26 1 1 1
node 27 1 1 1
node 28 1 1 3
node 29 1 0 0
node 34 1 0 2
node 35 1 0 2
node 36 1 0 2
node 37 1 0 2
node 38 1 0 2
node 39 1 0 2
node 40 1 0 2
node 41 1 0 2
node 42 1 0 2
gene  1 1 29 -0.29833566330916494 0 1176.0 -0.29833566330916494 1
gene  1 2 29 -0.867182747623463 0 1177.0 -0.867182747623463 1
gene  1 4 29 -0.6561976377836802 0 1179.0 -0.6561976377836802 1
gene  1 5 29 0.8391420251464576 0 1180.0 0.8391420251464576 1
gene  1 7 29 -0.22360460047602004 0 1182.0 -0.22360460047602004 1
gene  1 9 29 0.812842634589826 0 1184.0 0.812842634589826 1
gene  1 12 29 0.9259515285447052 0 1187.0 0.9259515285447052 1
gene  1 13 29 -0.18083599187081745 0 1188.0 -0.18083599187081745 1
gene  1 15 29 -0.8519355812859105 0 1190.0 -0.8519355812859105 1
gene  1 16 29 0.990118281199235 0 1191.0 0.990118281199235 1
gene  1 17 29 -0.6004377209919725 0 1192.0 -0.6004377209919725 1
gene  1 22 29 -0.9237313977246073 0 1197.0 -0.9237313977246073 1
gene  1 23 29 -0.313963857473896 0 1198.0 -0.313963857473896 1
gene  1 26 29 -0.48655291488871355 0 1201.0 -0.48655291488871355 1
gene  1 29 29 -0.3654884210890228 1 1204.0 -0.3654884210890228 1
gene  1 34 29 -0.7329095713653342 1 1209.0 -0.7329095713653342 1
gene  1 36 29 0.7884771702591131 1 1211.0 0.7884771702591131 1
gene  1 40 29 0.7364118063724255 1 1215.0 0.7364118063724255 1
gene  1 42 29 0.5600962201297863 1 1217.0 0.5600962201297863 1
gene  1 1 34 -0.7882897549362602 0 1386.0 -0.7882897549362602 1
gene  1 3 34 -0.60313023322021 0 1388.0 -0.60313023322021 1
gene  1 4 34 -0.34525369097996017 0 1389.0 -0.34525369097996017 1
gene  1 5 34 0.36614135422367244 0 1390.0 0.36614135422367244 1
gene  1 8 34 -0.5657665239765249 0 1393.0 -0.5657665239765249 1
gene  1 9 34 -0.967479420735018 0 1394.0 -0.967479420735018 1
gene  1 11 34 -0.4336050103762118 0 1396.0 -0.4336050103762118 1
gene  1 18 34 -0.9797431786427703 0 1403.0 -0.9797431786427703 1
gene  1 23 34 0.964882088992355 0 1408.0 0.964882088992355 1
gene  1 26 34 -0.5420741050472664 0 1411.0 -0.5420741050472664 1
gene  1 28 34 -0.5056037911113948 0 1413.0 -0.5056037911113948 1
gene  1 36 34 -0.04072069056944483 1 1421.0 -0.04072069056944483 1
gene  1 37 34 0.4192122457702214 1 1422.0 0.4192122457702214 1
gene  1 38 34 0.9897576374021726 1 1423.0 0.9897576374021726 1
gene  1 41 34 -0.6486394547274859 1 1426.0 -0.6486394547274859 1
gene  1 42 34 -0.7262883546333785 1 1427.0 -0.7262883546333785 1
gene  1 1 35 0.5323411372258324 0 1428.0 0.5323411372258324 1
gene  1 2 35 0.6618962007957591 0 1429.0 0.6618962007957591 1
gene  1 6 35 0.9684527561016248 0 1433.0 0.9684527561016248 1
gene  1 8 35 0.4707210532355359 0 1435.0 0.4707210532355359 1
gene  1 11 35 -0.9760441841458015 0 1438.0 -0.9760441841458015 1
gene  1 15 35 0.4720688766755742 0 1442.0 0.4720688766755742 1
gene  1 17 35 0.6282608514540403 0 1444.0 0.6282608514540403 1
gene  1 23 35 0.4505820022507664 0 1450.0 0.4505820022507664 1
gene  1 24 35 0.39641281634010783 0 1451.0 0.39641281634010783 1
gene  1 25 35 0.4287918569580862 0 1452.0 0.4287918569580862 1
gene  1 27 35 0.9919904321433611 0 1454.0 0.9919904321433611 1
gene  1 29 35 -0.3933849715663721 0 1456.0 -0.3933849715663721 1
gene  1 34 35 -0.7858305358455441 0 1461.0 -0.7858305358455441 1
gene  1 35 35 -0.9099693645307725 1 1462.0 -0.9099693645307725 1
gene  1 36 35 0.9567745981028047 1 1463.0 0.9567745981028047 1
gene  1 37 35 -0.2162971320267183 1 1464.0 -0.2162971320267183 1
gene  1 39 35 -0.6910229675569685 1 1466.0 -0.6910229675569685 1
gene  1 42 35 -0.5346852574917496 1 1469.0 -0.5346852574917496 1
gene  1 1 36 0.1190003292185633 0 1470.0 0.1190003292185633 1
gene  1 2 36 -0.6925926900239594 0 1471.0 -0.6925926900239594 1
gene  1 5 36 0.0962941678961462 0 1474.0 0.0962941678961462 1
gene  1 6 36 0.9392781869318825 0 1475.0 0.9392781869318825 1
gene  1 10 36 0.4562678165996701 0 1479.0 0.4562678165996701 1
gene  1 16 36 0.16083322917563792 0 1485.0 0.16083322917563792 1
gene  1 21 36 0.3123538161085213 0 1490.0 0.3123538161085213 1
gene  1 29 36 -0.2078536986624573 0 1498.0 -0.2078536986624573 1
gene  1 34 36 0.46389818830262575 0 1503.0 0.46389818830262575 1
gene  1 35 36 0.040837892537625264 0 1504.0 0.040837892537625264 1
gene  1 37 36 -0.5400251092502074 1 1506.0 -0.5400251092502074 1
gene  1 38 36 0.5028307625625962 1 1507.0 0.5028307625625962 1
gene  1 40 36 -0.3827349523932596 1 1509.0 -0.3827349523932596 1
gene  1 1 37 -0.07895822814517872 0 1512.0 -0.07895822814517872 1
gene  1 6 37 0.39917598687351885 0 1517.0 0.39917598687351885 1
gene  1 7 37 -0.24602590403027502 0 1518.0 -0.24602590403027502 1
gene  1 12 37 -0.25293422307403723 0 1523.0 -0.25293422307403723 1
gene  1 13 37 0.21240043871421632 0 1524.0 0.21240043871421632 1
gene  1 14 37 0.9103777836545874 0 1525.0 0.9103777836545874 1
gene  1 15 37 0.21924417258296325 0 1526.0 0.21924417258296325 1
gene  1 16 37 -0.9686130985130519 0 1527.0 -0.9686130985130519 1
gene  1 17 37 -0.289631414283236 0 1528.0 -0.289631414283236 1
gene  1 18 37 0.5933903076601127 0 1529.0 0.5933903076601127 1
gene  1 19 37 -0.18635253726656043 0 1530.0 -0.18635253726656043 1
gene  1 22 37 0.467381530648742 0 1533.0 0.467381530648742 1
gene  1 23 37 -0.6044286115020028 0 1534.0 -0.6044286115020028 1
gene  1 24 37 0.2652919672527556 0 1535.0 0.2652919672527556 1
gene  1 25 37 -0.13420624210554544 0 1536.0 -0.13420624210554544 1
gene  1 26 37 0.3280538461363154 0 1537.0 0.3280538461363154 1
gene  1 27 37 0.9599274570799827 0 1538.0 0.9599274570799827 1
gene  1 28 37 -0.15399051399321317 0 1539.0 -0.15399051399321317 1
gene  1 37 37 0.33231149279723626 1 1548.0 0.33231149279723626 1
gene  1 38 37 -0.7647291779126566 1 1549.0 -0.7647291779126566 1
gene  1 40 37 0.3629950319558036 1 1551.0 0.3629950319558036 1
gene  1 3 38 -0.3214094960481573 0 1556.0 -0.3214094960481573 1
gene  1 9 38 0.012338496890780704 0 1562.0 0.012338496890780704 1
gene  1 10 38 0.6758293027850281 0 1563.0 0.6758293027850281 1
gene  1 11 38 -0.21720739777171616 0 1564.0 -0.21720739777171616 1
gene  1 12 38 0.4556668609492185 0 1565.0 0.4556668609492185 1
gene  1 14 38 -0.2570237653907733 0 1567.0 -0.2570237653907733 1
gene  1 16 38 -0.6468435745061639 0 1569.0 -0.6468435745061639 1
gene  1 22 38 0.21529245467079705 0 1575.0 0.21529245467079705 1
gene  1 23 38 0.5432410500397398 0 1576.0 0.5432410500397398 1
gene  1 24 38 -0.3989730048561374 0 1577.0 -0.3989730048561374 1
gene  1 26 38 0.714089322235598 0 1579.0 0.714089322235598 1
gene  1 34 38 -0.8816595295224025 0 1587.0 -0.8816595295224025 1
gene  1 36 38 0.08002773389665163 0 1589.0 0.08002773389665163 1
gene  1 38 38 0.8956207644851002 1 1591.0 0.8956207644851002 1
gene  1 39 38 -0.10675701330453646 1 1592.0 -0.10675701330453646 1
gene  1 41 38 -0.6569861353836925 1 1594.0 -0.6569861353836925 1
gene  1 42 38 0.49327066092613836 1 1595.0 0.49327066092613836 1
gene  1 1 39 -0.8462213622202801 0 1596.0 -0.8462213622202801 1
gene  1 2 39 0.9132582795797172 0 1597.0 0.9132582795797172 1
gene  1 3 39 -0.4960597241733722 0 1598.0 -0.4960597241733722 1
gene  1 4 39 -0.6029241343432883 0 1599.0 -0.6029241343432883 1
gene  1 12 39 -0.426217375305989 0 1607.0 -0.426217375305989 1
gene  1 14 39 0.7171877241404493 0 1609.0 0.7171877241404493 1
gene  1 18 39 -0.5353422344843023 0 1613.0 -0.5353422344843023 1
gene  1 22 39 0.8887682896338797 0 1617.0 0.8887682896338797 1
gene  1 25 39 -0.9565038128047043 0 1620.0 -0.9565038128047043 1
gene  1 28 39 -0.2541789816186819 0 1623.0 -0.2541789816186819 1
gene  1 34 39 0.5180767266600036 0 1629.0 0.5180767266600036 1
gene  1 37 39 -0.29562048886563685 0 1632.0 -0.29562048886563685 1
gene  1 39 39 0.8197089032281921 1 1634.0 0.8197089032281921 1
gene  1 1 40 -0.32409091008722757 0 1638.0 -0.32409091008722757 1
gene  1 2 40 0.30410227168624704 0 1639.0 0.30410227168624704 1
gene  1 3 40 0.409713330690998 0 1640.0 0.409713330690998 1
gene  1 7 40 0.24924525240067563 0 1644.0 0.24924525240067563 1
gene  1 11 40 0.8081827886380906 0 1648.0 0.8081827886380906 1
gene  1 17 40 -0.07267532789785502 0 1654.0 -0.07267532789785502 1
gene  1 18 40 -0.2905619507996221 0 1655.0 -0.2905619507996221 1
gene  1 19 40 -0.2130251793405693 0 1656.0 -0.2130251793405693 1
gene  1 25 40 0.1774856139106814 0 1662.0 0.1774856139106814 1
gene  1 26 40 -0.30517603098837986 0 1663.0 -0.30517603098837986 1
gene  1 27 40 -0.6196150124022224 0 1664.0 -0.6196150124022224 1
gene  1 29 40 -0.3027338602717412 0 1666.0 -0.3027338602717412 1
gene  1 35 40 -0.31008422354315146 0 1672.0 -0.31008422354315146 1
gene  1 36 40 -0.5381462335131285 0 1673.0 -0.5381462335131285 1
gene  1 37 40 0.31424712520508435 0 1674.0 0.31424712520508435 1
gene  1 38 40 0.12863769439689 0 1675.0 0.12863769439689 1
gene  1 39 40 0.4694977760940259 0 1676.0 0.4694977760940259 1
gene  1 40 40 -0.35507626796423486 1 1677.0 -0.35507626796423486 1
gene  1 42 40 -0.3971484808156953 1 1679.0 -0.3971484808156953 1
gene  1 2 41 0.16317745091200608 0 1681.0 0.16317745091200608 1
gene  1 5 41 0.6261694455631928 0 1684.0 0.6261694455631928 1
gene  1 6 41 -0.4590182683205174 0 1685.0 -0.4590182683205174 1
gene  1 7 41 0.8602224309072055 0 1686.0 0.8602224309072055 1
gene  1 8 41 0.025031148892245336 0 1687.0 0.025031148892245336 1
gene  1 11 41 0.8560047649875607 0 1690.0 0.8560047649875607 1
gene  1 14 41 -0.680620313618406 0 1693.0 -0.680620313618406 1
gene  1 16 41 -0.031408015714505466 0 1695.0 -0.031408015714505466 1
gene  1 17 41 -0.6467812335307053 0 1696.0 -0.6467812335307053 1
gene  1 19 41 -0.7350679880251199 0 1698.0 -0.7350679880251199 1
gene  1 20 41 -0.8425851177436848 0 1699.0 -0.8425851177436848 1
gene  1 22 41 -0.6644722202289387 0 1701.0 -0.6644722202289387 1
gene  1 24 41 0.7185135815586454 0 1703.0 0.7185135815586454 1
gene  1 25 41 -0.6134623252370113 0 1704.0 -0.6134623252370113 1
gene  1 26 41 0.8587756343021231 0 1705.0 0.8587756343021231 1
gene  1 27 41 -0.6072117157493089 0 1706.0 -0.6072117157493089 1
gene  1 28 41 -0.8882103521283292 0 1707.0 -0.8882103521283292 1
gene  1 34 41 -0.5239671163284758 0 1713.0 -0.5239671163284758 1
gene  1 37 41 -0.8030053756507286 0 1716.0 -0.8030053756507286 1
gene  1 40 41 -0.5534868156216203 0 1719.0 -0.5534868156216203 1
gene  1 41 41 -0.8661543484183682 1 1720.0 -0.8661543484183682 1
gene  1 42 41 0.626440021201832 1 1721.0 0.626440021201832 1
gene  1 5 42 -0.8696270606657964 0 1726.0 -0.8696270606657964 1
gene  1 9 42 0.49927467521734126 0 1730.0 0.49927467521734126 1
gene  1 10 42 0.31008906068986974 0 1731.0 0.31008906068986974 1
gene  1 11 42 -0.3559494688397521 0 1732.0 -0.3559494688397521 1
gene  1 12 42 0.767911183734373 0 1733.0 0.767911183734373 1
gene  1 15 42 0.16204800301465505 0 1736.0 0.16204800301465505 1
gene  1 16 42 0.942802512246009 0 1737.0 0.942802512246009 1
gene  1 17 42 0.4140866224477435 0 1738.0 0.4140866224477435 1
gene  1 18 42 0.6692961378087282 0 1739.0 0.6692961378087282 1
gene  1 19 42 -0.7052008870450576 0 1740.0 -0.7052008870450576 1
gene  1 22 42 0.1032278415161576 0 1743.0 0.1032278415161576 1
gene  1 25 42 0.9863038130889272 0 1746.0 0.9863038130889272 1
gene  1 27 42 -0.05718730001125549 0 1748.0 -0.05718730001125549 1
gene  1 29 42 0.6632798536648815 0 1750.0 0.6632798536648815 1
gene  1 35 42 -0.9820527971137859 0 1756.0 -0.9820527971137859 1
gene  1 38 42 0.8851921756619177 0 1759.0 0.8851921756619177 1
gene  1 40 42 -0.831243507625273 0 1761.0 -0.831243507625273 1
genomeend 3
/*-------------------------------------------------------------------*/
/* Species # 006         : (size= 001) (AvfFit= 0.000) (Age= 3.000)  */
/*-------------------------------------------------------------------*/
/* Organism # 004 Fitness:  0.000 Error:  0.000                      */
genomestart  4
trait 1 0.0 0.0 0.0 0.0 0.0 0.0 0.0 0.0 
node 1 1 1 1
node 2 1 1 1
node 3 1 1 1
node 4 1 1 1
node 5 1 1 1
node 6 1 1 1
node 7 1 1 1
node 8 1 1 1
node 9 1 1 1
node 10 1 1 1
node 11 1 1 1
node 12 1 1 1
node 13 1 1 1
node 14 1 1 1
node 15 1 1 1
node 16 1 1 1
node 17 1 1 1
node 18 1 1 1
node 19 1 1 1
node 20 1 1 1
node 21 1 1 1
node 22 1 1 1
node 23 1 1 1
node 24 1 1 1
node 25 1 1 1
node 26 1 1 1
node 27 1 1 1
node 28 1 1 3
node 34 1 0 2
node 35 1 0 2
node 36 1 0 2
node 37 1 0 2
node 38 1 0 2
node 39 1 0 2
node 40 1 0 2
node 41 1 0 2
node 42 1 0 2
gene  1 1 34 0.46533015345343465 0 1386.0 0.46533015345343465 1
gene  1 3 34 -0.9994525410675408 0 1388.0 -0.9994525410675408 1
gene  1 4 34 -0.7635262714799846 0 1389.0 -0.7635262714799846 1
gene  1 5 34 0.11025808655871772 0 1390.0 0.11025808655871772 1
gene  1 15 34 -0.9578281759085383 0 1400.0 -0.9578281759085383 1
gene  1 17 34 0.7965898702140242 0 1402.0 0.7965898702140242 1
gene  1 18 34 0.7815305802073055 0 1403.0 0.7815305802073055 1
gene  1 19 34 -0.7791670330338997 0 1404.0 -0.7791670330338997 1
gene  1 22 34 -0.07537184217168891 0 1407.0 -0.07537184217168891 1
gene  1 24 34 -0.7142209068979823 0 1409.0 -0.7142209068979823 1
gene  1 25 34 -0.0032039503498210165 0 1410.0 -0.0032039503498210165 1
gene  1 28 34 0.33870742511612206 0 1413.0 0.33870742511612206 1
gene  1 34 34 -0.870983679574941 1 1419.0 -0.870983679574941 1
gene  1 37 34 -0.3437326285406843 1 1422.0 -0.3437326285406843 1
gene  1 38 34 -0.8058355812579042 1 1423.0 -0.8058355812579042 1
gene  1 39 34 -0.9172953048487108 1 1424.0 -0.9172953048487108 1
gene  1 4 35 0.8792277909978544 0 1431.0 0.8792277909978544 1
gene  1 5 35 -0.8952849996585678 0 1432.0 -0.8952849996585678 1
gene  1 7 35 -0.5340776584610194 0 1434.0 -0.5340776584610194 1
gene  1 9 35 -0.9724278762676137 0 1436.0 -0.9724278762676137 1
gene  1 10 35 0.3400469338028185 0 1437.0 0.3400469338028185 1
gene  1 12 35 0.6649648363882134 0 1439.0 0.6649648363882134 1
gene  1 13 35 0.8485339590488024 0 1440.0 0.8485339590488024 1
gene  1 14 35 0.04307313988267558 0 1441.0 0.04307313988267558 1
gene  1 15 35 -0.8622172476309664 0 1442.0 -0.8622172476309664 1
gene  1 17 35 -0.2318858886880666 0 1444.0 -0.2318858886880666 1
gene  1 18 35 -0.7745229774520161 0 1445.0 -0.7745229774520161 1
gene  1 19 35 -0.775523026447059 0 1446.0 -0.775523026447059 1
gene  1 20 35 -0.3056072452490408 0 1447.0 -0.3056072452490408 1
gene  1 21 35 -0.8719330395531819 0 1448.0 -0.8719330395531819 1
gene  1 26 35 -0.44153078999437767 0 1453.0 -0.44153078999437767 1
gene  1 34 35 0.8290086962760328 0 1461.0 0.8290086962760328 1
gene  1 36 35 -0.8348632907184168 1 1463.0 -0.8348632907184168 1
gene  1 1 36 -0.8517780226601596 0 1470.0 -0.8517780226601596 1
gene  1 3 36 -0.641385523159288 0 1472.0 -0.641385523159288 1
gene  1 4 36 -0.6616818209958093 0 1473.0 -0.6616818209958093 1
gene  1 5 36 -0.6735943788973521 0 1474.0 -0.6735943788973521 1
gene  1 6 36 0.07696326600360937 0 1475.0 0.07696326600360937 1
gene  1 7 36 0.524594790284506 0 1476.0 0.524594790284506 1
gene  1 8 36 -0.5341948220679791 0 1477.0 -0.5341948220679791 1
gene  1 9 36 -0.1623202208084672 0 1478.0 -0.1623202208084672 1
gene  1 10 36 -0.1567671673602532 0 1479.0 -0.1567671673602532 1
gene  1 13 36 0.33650580244496997 0 1482.0 0.33650580244496997 1
gene  1 14 36 -0.3285067410885184 0 1483.0 -0.3285067410885184 1
gene  1 16 36 -0.9369832034307279 0 1485.0 -0.9369832034307279 1
gene  1 17 36 0.4461115075457809 0 1486.0 0.4461115075457809 1
gene  1 18 36 -0.5767632541173804 0 1487.0 -0.5767632541173804 1
gene  1 20 36 -0.05452547768253457 0 1489.0 -0.05452547768253457 1
gene  1 25 36 0.8361786328254658 0 1494.0 0.8361786328254658 1
gene  1 26 36 -0.3952067159833389 0 1495.0 -0.3952067159833389 1
gene  1 27 36 -0.2776165795800689 0 1496.0 -0.2776165795800689 1
gene  1 34 36 -0.6569604206169478 0 1503.0 -0.6569604206169478 1
gene  1 36 36 0.9997851528630921 1 1505.0 0.9997851528630921 1
gene  1 37 36 0.42958714587455715 1 1506.0 0.42958714587455715 1
gene  1 38 36 0.8415052244522044 1 1507.0 0.8415052244522044 1
gene  1 1 37 0.9988797050061096 0 1512.0 0.9988797050061096 1
gene  1 2 37 0.321601162052392 0 1513.0 0.321601162052392 1
gene  1 6 37 -0.17967404255458452 0 1517.0 -0.17967404255458452 1
gene  1 7 37 -0.5804414907099263 0 1518.0 -0.5804414907099263 1
gene  1 10 37 -0.6058809077866733 0 1521.0 -0.6058809077866733 1
gene  1 14 37 -0.2930173952188534 0 1525.0 -0.2930173952188534 1
gene  1 15 37 -0.7473996322273145 0 1526.0 -0.7473996322273145 1
gene  1 18 37 -0.4553053001002533 0 1529.0 -0.4553053001002533 1
gene  1 21 37 0.9338208807269284 0 1532.0 0.9338208807269284 1
gene  1 22 37 -0.44965546224883723 0 1533.0 -0.44965546224883723 1
gene  1 24 37 0.6394935236117838 0 1535.0 0.6394935236117838 1
gene  1 26 37 0.6404274118254673 0 1537.0 0.6404274118254673 1
gene  1 27 37 -0.9613982631989191 0 1538.0 -0.9613982631989191 1
gene  1 34 37 0.2811302942223429 0 1545.0 0.2811302942223429 1
gene  1 36 37 0.29889913026977644 0 1547.0 0.29889913026977644 1
gene  1 37 37 -0.22780626754195854 1 1548.0 -0.22780626754195854 1
gene  1 38 37 -0.8036165314763366 1 1549.0 -0.8036165314763366 1
gene  1 39 37 0.05537592279305892 1 1550.0 0.05537592279305892 1
gene  1 40 37 0.8479683009615301 1 1551.0 0.8479683009615301 1
gene  1 42 37 -0.347892605264044 1 1553.0 -0.347892605264044 1
gene  1 1 38 0.6497179614513955 0 1554.0 0.6497179614513955 1
gene  1 2 38 0.5599121221891308 0 1555.0 0.5599121221891308 1
gene  1 4 38 0.7244520175802598 0 1557.0 0.7244520175802598 1
gene  1 5 38 -0.10387556559187949 0 1558.0 -0.10387556559187949 1
gene  1 6 38 0.6153919877895734 0 1559.0 0.6153919877895734 1
gene  1 7 38 -0.08649880256813991 0 1560.0 -0.08649880256813991 1
gene  1 10 38 -0.58312814347793 0 1563.0 -0.58312814347793 1
gene  1 12 38 -0.2994757800781501 0 1565.0 -0.2994757800781501 1
gene  1 16 38 -0.38911964169916013 0 1569.0 -0.38911964169916013 1
gene  1 19 38 -0.9431796243994349 0 1572.0 -0.9431796243994349 1
gene  1 20 38 0.875812559202112 0 1573.0 0.875812559202112 1
gene  1 21 38 -0.9639372836420961 0 1574.0 -0.9639372836420961 1
gene  1 22 38 0.7809890765470405 0 1575.0 0.7809890765470405 1
gene  1 26 38 -0.5259800703653648 0 1579.0 -0.5259800703653648 1
gene  1 27 38 0.3684961567747387 0 1580.0 0.3684961567747387 1
gene  1 28 38 -0.04162186766864506 0 1581.0 -0.04162186766864506 1
gene  1 35 38 -0.24315232950646692 0 1588.0 -0.24315232950646692 1
gene  1 36 38 -0.22560168220389476 0 1589.0 -0.22560168220389476 1
gene  1 39 38 0.948822463882602 1 1592.0 0.948822463882602 1
gene  1 40 38 -0.38863760206983455 1 1593.0 -0.38863760206983455 1
gene  1 41 38 -0.027608360924627373 1 1594.0 -0.027608360924627373 1
gene  1 42 38 -0.68331923849244 1 1595.0 -0.68331923849244 1
gene  1 1 39 0.09682221361994325 0 1596.0 0.09682221361994325 1
gene  1 3 39 0.8984422164682137 0 1598.0 0.8984422164682137 1
gene  1 5 39 0.1418901174548428 0 1600.0 0.1418901174548428 1
gene  1 6 39 0.6927925236846351 0 1601.0 0.6927925236846351 1
gene  1 10 39 -0.49788987336846213 0 1605.0 -0.49788987336846213 1
gene  1 12 39 -0.32738830487480874 0 1607.0 -0.32738830487480874 1
gene  1 15 39 -0.528571995618418 0 1610.0 -0.528571995618418 1
gene  1 17 39 0.21537609646872447 0 1612.0 0.21537609646872447 1
gene  1 18 39 -0.36492662493759187 0 1613.0 -0.36492662493759187 1
gene  1 19 39 -0.2966384239540162 0 1614.0 -0.2966384239540162 1
gene  1 20 39 -0.6617451771303429 0 1615.0 -0.6617451771303429 1
gene  1 21 39 -0.9273503590442496 0 1616.0 -0.9273503590442496 1
gene  1 23 39 0.9862704950299539 0 1618.0 0.9862704950299539 1
gene  1 24 39 -0.26756017011119104 0 1619.0 -0.26756017011119104 1
gene  1 27 39 0.8635514655118961 0 1622.0 0.8635514655118961 1
gene  1 28 39 -0.6367823131058551 0 1623.0 -0.6367823131058551 1
gene  1 34 39 0.9417424894575229 0 1629.0 0.9417424894575229 1
gene  1 35 39 -0.7042806426041847 0 1630.0 -0.7042806426041847 1
gene  1 37 39 -0.29671779088712047 0 1632.0 -0.29671779088712047 1
gene  1 40 39 0.03080548290595697 1 1635.0 0.03080548290595697 1
gene  1 42 39 -0.9294929835963948 1 1637.0 -0.9294929835963948 1
gene  1 7 40 0.5020730803962613 0 1644.0 0.5020730803962613 1
gene  1 9 40 -0.5943623296793389 0 1646.0 -0.5943623296793389 1
gene  1 11 40 -0.07321235459653863 0 1648.0 -0.07321235459653863 1
gene  1 13 40 -0.5543406310294559 0 1650.0 -0.5543406310294559 1
gene  1 18 40 -0.34808247155615013 0 1655.0 -0.34808247155615013 1
gene  1 19 40 -0.11509565936115751 0 1656.0 -0.11509565936115751 1
gene  1 22 40 -0.04648194642591619 0 1659.0 -0.04648194642591619 1
gene  1 24 40 -0.061341631865473256 0 1661.0 -0.061341631865473256 1
gene  1 25 40 -0.4378582114503975 0 1662.0 -0.4378582114503975 1
gene  1 26 40 -0.6379366592720975 0 1663.0 -0.6379366592720975 1
gene  1 27 40 0.597694143140587 0 1664.0 0.597694143140587 1
gene  1 28 40 0.4081666390811405 0 1665.0 0.4081666390811405 1
gene  1 34 40 -0.7654167293732863 0 1671.0 -0.7654167293732863 1
gene  1 35 40 0.07549804356389389 0 1672.0 0.07549804356389389 1
gene  1 38 40 -0.1270654908810831 0 1675.0 -0.1270654908810831 1
gene  1 40 40 0.29262952890828364 1 1677.0 0.29262952890828364 1
gene  1 41 40 -0.5761424539903065 1 1678.0 -0.5761424539903065 1
gene  1 2 41 0.23234030619427282 0 1681.0 0.23234030619427282 1
gene  1 4 41 0.6708022770739526 0 1683.0 0.6708022770739526 1
gene  1 5 41 0.5579142265896574 0 1684.0 0.5579142265896574 1
gene  1 7 41 0.982667036788433 0 1686.0 0.982667036788433 1
gene  1 8 41 -0.37479252057888335 0 1687.0 -0.37479252057888335 1
gene  1 13 41 0.8432091754296358 0 1692.0 0.8432091754296358 1
gene  1 14 41 0.5425654368980235 0 1693.0 0.5425654368980235 1
gene  1 15 41 0.8277330386841064 0 1694.0 0.8277330386841064 1
gene  1 16 41 -0.12471144652874855 0 1695.0 -0.12471144652874855 1
gene  1 17 41 -0.9799916036131258 0 1696.0 -0.9799916036131258 1
gene  1 19 41 -0.4144049825119044 0 1698.0 -0.4144049825119044 1
gene  1 20 41 -0.690612768044876 0 1699.0 -0.690612768044876 1
gene  1 21 41 0.017795474787366428 0 1700.0 0.017795474787366428 1
gene  1 28 41 -0.9757980085225112 0 1707.0 -0.9757980085225112 1
gene  1 34 41 -0.8008386034112172 0 1713.0 -0.8008386034112172 1
gene  1 37 41 -0.20245620319639357 0 1716.0 -0.20245620319639357 1
gene  1 38 41 -0.6617534502905161 0 1717.0 -0.6617534502905161 1
gene  1 40 41 0.34149293270743564 0 1719.0 0.34149293270743564 1
gene  1 41 41 0.31053978904198565 1 1720.0 0.31053978904198565 1
gene  1 42 41 -0.21039556198611464 1 1721.0 -0.21039556198611464 1
gene  1 2 42 0.3347998707016865 0 1723.0 0.3347998707016865 1
gene  1 3 42 -0.17453214825917918 0 1724.0 -0.17453214825917918 1
gene  1 4 42 -0.025614972084119114 0 1725.0 -0.025614972084119114 1
gene  1 7 42 0.6316305554290171 0 1728.0 0.6316305554290171 1
gene  1 10 42 0.7339237162263259 0 1731.0 0.7339237162263259 1
gene  1 11 42 -0.2901061968438662 0 1732.0 -0.2901061968438662 1
gene  1 12 42 0.15583207085865636 0 1733.0 0.15583207085865636 1
gene  1 13 42 -0.3102177509304418 0 1734.0 -0.3102177509304418 1
gene  1 14 42 0.4278568490049125 0 1735.0 0.4278568490049125 1
gene  1 15 42 -0.9992778967641402 0 1736.0 -0.9992778967641402 1
gene  1 16 42 0.6984598339694481 0 1737.0 0.6984598339694481 1
gene  1 17 42 0.7459324154107007 0 1738.0 0.7459324154107007 1
gene  1 19 42 0.013717443495959603 0 1740.0 0.013717443495959603 1
gene  1 25 42 -0.5378913490250757 0 1746.0 -0.5378913490250757 1
gene  1 28 42 0.7842290891078079 0 1749.0 0.7842290891078079 1
gene  1 35 42 -0.04327424830875881 0 1756.0 -0.04327424830875881 1
gene  1 37 42 0.500370658234425 0 1758.0 0.500370658234425 1
gene  1 39 42 0.08817427401768996 0 1760.0 0.08817427401768996 1
gene  1 42 42 0.041771315074491056 1 1763.0 0.041771315074491056 1
genomeend 4
/*-------------------------------------------------------------------*/
/* Species # 008         : (size= 003) (AvfFit= 0.000) (Age= 3.000)  */
/*-------------------------------------------------------------------*/
/* Organism # 005 Fitness:  0.000 Error:  0.000                      */
genomestart  5
trait 1 0.0 0.0 0.0 0.0 0.0 0.0 0.0 0.0 
node 1 1 1 1
node 2 1 1 1
node 3 1 1 1
node 4 1 1 1
node 5 1 1 1
node 6 1 1 1
node 7 1 1 1
node 8 1 1 1
node 9 1 1 1
node 10 1 1 1
node 11 1 1 1
node 12 1 1 1
node 13 1 1 1
node 14 1 1 1
node 15 1 1 1
node 16 1 1 1
node 17 1 1 1
node 18 1 1 1
node 19 1 1 1
node 20 1 1 1
node 21 1 1 1
node 22 1 1 1
node 23 1 1 1
node 24 1 1 1
node 25 1 1 1
node 26 1 1 1
node 27 1 1 1
node 28 1 1 3
node 29 1 0 0
node 30 1 0 0
node 34 1 0 2
node 35 1 0 2
node 36 1 0 2
node 37 1 0 2
node 38 1 0 2
node 39 1 0 2
node 40 1 0 2
node 41 1 0 2
node 42 1 0 2
node 79 1 0 0
gene  1 2 29 -0.8816031585544855 0 1177.0 -0.8816031585544855 1
gene  1 6 29 0.04397470018115324 0 1181.0 0.04397470018115324 1
gene  1 8 29 0.10846294252016675 0 1183.0 0.10846294252016675 1
gene  1 11 29 0.7080655350184961 0 1186.0 0.7080655350184961 1
gene  1 19 29 0.7847438577194706 0 1194.0 0.7847438577194706 1
gene  1 21 29 -0.5331820613763814 0 1196.0 -0.5331820613763814 1
gene  1 23 29 0.22941234145658507 0 1198.0 0.22941234145658507 1
gene  1 29 29 0.6988248924822743 1 1204.0 0.6988248924822743 1
gene  1 34 29 -0.2593509337712021 1 1209.0 -0.2593509337712021 1
gene  1 38 29 -0.12862257703772217 1 1213.0 -0.12862257703772217 1
gene  1 1 30 -0.5157790094289377 0 1218.0 -0.5157790094289377 1
gene  1 2 30 -0.7283381598734864 0 1219.0 -0.7283381598734864 1
gene  1 7 30 -0.07321322918016115 0 1224.0 -0.07321322918016115 1
gene  1 13 30 -0.08405506447968647 0 1230.0 -0.08405506447968647 1
gene  1 15 30 -0.7254358503656477 0 1232.0 -0.7254358503656477 1
gene  1 19 30 -0.2917325842018813 0 1236.0 -0.2917325842018813 1
gene  1 25 30 0.25066590705330694 0 1242.0 0.25066590705330694 1
gene  1 26 30 0.016961622652315156 0 1243.0 0.016961622652315156 1
gene  1 27 30 0.6821969233288917 0 1244.0 0.6821969233288917 1
gene  1 28 30 0.5676640285006518 0 1245.0 0.5676640285006518 1
gene  1 29 30 -0.30769623498413734 0 1246.0 -0.30769623498413734 1
gene  1 35 30 -0.7958025607515512 1 1252.0 -0.7958025607515512 1
gene  1 36 30 -0.6964578627960031 1 1253.0 -0.6964578627960031 1
gene  1 41 30 -0.7284358804605561 1 1258.0 -0.7284358804605561 1
gene  1 42 30 0.1513850419133309 1 1259.0 0.1513850419133309 1
gene  1 1 34 0.5783344574312468 0 1386.0 0.5783344574312468 1
gene  1 4 34 0.20148438385963974 0 1389.0 0.20148438385963974 1
gene  1 5 34 -0.21943840981915042 0 1390.0 -0.21943840981915042 1
gene  1 6 34 0.22032847730396354 0 1391.0 0.22032847730396354 1
gene  1 7 34 0.9398371357811492 0 1392.0 0.9398371357811492 1
gene  1 8 34 0.7617079822685198 0 1393.0 0.7617079822685198 1
gene  1 10 34 0.8456590259036083 0 1395.0 0.8456590259036083 1
gene  1 15 34 0.421432731178333 0 1400.0 0.421432731178333 1
gene  1 17 34 0.35932206847773107 0 1402.0 0.35932206847773107 1
gene  1 19 34 -0.015960883281410432 0 1404.0 -0.015960883281410432 1
gene  1 20 34 0.8624837295991795 0 1405.0 0.8624837295991795 1
gene  1 24 34 0.767767939765529 0 1409.0 0.767767939765529 1
gene  1 26 34 0.1670652625334904 0 1411.0 0.1670652625334904 1
gene  1 29 34 0.30634674368185444 0 1414.0 0.30634674368185444 1
gene  1 34 34 0.9601834693385671 1 1419.0 0.9601834693385671 1
gene  1 35 34 0.878136689340796 1 1420.0 0.878136689340796 1
gene  1 37 34 0.4381586305522097 1 1422.0 0.4381586305522097 1
gene  1 39 34 -0.9594651781502953 1 1424.0 -0.9594651781502953 1
gene  1 1 35 0.7760811850232655 0 1428.0 0.7760811850232655 1
gene  1 2 35 0.9321678645925029 0 1429.0 0.9321678645925029 1
gene  1 3 35 -0.20612129979323857 0 1430.0 -0.20612129979323857 1
gene  1 4 35 0.5374359038320743 0 1431.0 0.5374359038320743 1
gene  1 5 35 0.6320281941785817 0 1432.0 0.6320281941785817 1
gene  1 7 35 0.5399699156601933 0 1434.0 0.5399699156601933 1
gene  1 8 35 0.9017439791907444 0 1435.0 0.9017439791907444 1
gene  1 9 35 -0.07741965701737108 0 1436.0 -0.07741965701737108 1
gene  1 13 35 0.6409590184686748 0 1440.0 0.6409590184686748 1
gene  1 14 35 0.7719255130047618 0 1441.0 0.7719255130047618 1
gene  1 16 35 0.6509196847855406 0 1443.0 0.6509196847855406 1
gene  1 17 35 -0.965305941589556 0 1444.0 -0.965305941589556 1
gene  1 22 35 -0.2652927998872958 0 1449.0 -0.2652927998872958 1
gene  1 24 35 -0.2757172275128734 0 1451.0 -0.2757172275128734 1
gene  1 25 35 0.2187828811819006 0 1452.0 0.2187828811819006 1
gene  1 28 35 0.8264998641120591 0 1455.0 0.8264998641120591 1
gene  1 29 35 -0.2490341670588211 0 1456.0 -0.2490341670588211 1
gene  1 30 35 0.6921470957694847 0 1457.0 0.6921470957694847 1
gene  1 41 35 0.11544892533091211 1 1468.0 0.11544892533091211 1
gene  1 3 36 -0.7082388851708732 0 1472.0 -0.7082388851708732 1
gene  1 4 36 0.5386980997198444 0 1473.0 0.5386980997198444 1
gene  1 6 36 0.16113553258260072 0 1475.0 0.16113553258260072 1
gene  1 7 36 -0.0023065783924021144 0 1476.0 -0.0023065783924021144 1
gene  1 8 36 0.02692569083605778 0 1477.0 0.02692569083605778 1
gene  1 10 36 -0.10661810947947814 0 1479.0 -0.10661810947947814 1
gene  1 11 36 0.5112141842589105 0 1480.0 0.5112141842589105 1
gene  1 13 36 -0.8003328135986322 0 1482.0 -0.8003328135986322 1
gene  1 14 36 -0.7732683766749466 0 1483.0 -0.7732683766749466 1
gene  1 16 36 0.2916483990676587 0 1485.0 0.2916483990676587 1
gene  1 18 36 -0.1609974182054279 0 1487.0 -0.1609974182054279 1
gene  1 19 36 0.21830891044493417 0 1488.0 0.21830891044493417 1
gene  1 20 36 -0.429648489792372 0 1489.0 -0.429648489792372 0
gene  1 21 36 -0.47146137037659464 0 1490.0 -0.47146137037659464 1
gene  1 22 36 0.9750325332674982 0 1491.0 0.9750325332674982 1
gene  1 23 36 -0.126035041782402 0 1492.0 -0.126035041782402 1
gene  1 25 36 -0.9395312811974117 0 1494.0 -0.9395312811974117 1
gene  1 26 36 0.21917833553402133 0 1495.0 0.21917833553402133 1
gene  1 27 36 -0.4389775481120116 0 1496.0 -0.4389775481120116 1
gene  1 28 36 0.804455815522769 0 1497.0 0.804455815522769 1
gene  1 29 36 -0.9687158682252704 0 1498.0 -0.9687158682252704 1
gene  1 30 36 0.013425865067314136 0 1499.0 0.013425865067314136 1
gene  1 35 36 0.9144893326951469 0 1504.0 0.9144893326951469 1
gene  1 36 36 0.5416861396700996 1 1505.0 0.5416861396700996 1
gene  1 39 36 -0.0629877289180556 1 1508.0 -0.0629877289180556 1
gene  1 41 36 -0.5504364779926431 1 1510.0 -0.5504364779926431 1
gene  1 42 36 -0.2511620226455332 1 1511.0 -0.2511620226455332 1
gene  1 1 37 -0.9138032262100575 0 1512.0 -0.9138032262100575 1
gene  1 4 37 0.19585410302341055 0 1515.0 0.19585410302341055 1
gene  1 5 37 -0.531737733822114 0 1516.0 -0.531737733822114 1
gene  1 7 37 0.2543406183028102 0 1518.0 0.2543406183028102 1
gene  1 10 37 -0.9163619792737667 0 1521.0 -0.9163619792737667 1
gene  1 11 37 0.5324598843232038 0 1522.0 0.5324598843232038 1
gene  1 12 37 -0.8003966946270109 0 1523.0 -0.8003966946270109 1
gene  1 15 37 0.0010310563788474836 0 1526.0 0.0010310563788474836 1
gene  1 16 37 -0.5931856151746636 0 1527.0 -0.5931856151746636 1
gene  1 17 37 0.03981590005512836 0 1528.0 0.03981590005512836 1
gene  1 18 37 0.9986875968752003 0 1529.0 0.9986875968752003 1
gene  1 20 37 -0.5631950792494365 0 1531.0 -0.5631950792494365 1
gene  1 21 37 0.06124556218181876 0 1532.0 0.06124556218181876 1
gene  1 22 37 -0.23682188101554114 0 1533.0 -0.23682188101554114 1
gene  1 23 37 0.6932778461102644 0 1534.0 0.6932778461102644 1
gene  1 24 37 -0.6245854443405381 0 1535.0 -0.6245854443405381 1
gene  1 25 37 0.6444132151684284 0 1536.0 0.6444132151684284 1
gene  1 36 37 -0.8972985071550142 0 1547.0 -0.8972985071550142 1
gene  1 37 37 -0.6303094241274142 1 1548.0 -0.6303094241274142 1
gene  1 38 37 -0.7844568120592614 1 1549.0 -0.7844568120592614 1
gene  1 41 37 -0.9164551428374119 1 1552.0 -0.9164551428374119 1
gene  1 1 38 -0.7518067914765957 0 1554.0 -0.7518067914765957 1
gene  1 4 38 -0.45869065780945306 0 1557.0 -0.45869065780945306 1
gene  1 6 38 -0.03385806984427586 0 1559.0 -0.03385806984427586 1
gene  1 7 38 0.6986432790945925 0 1560.0 0.6986432790945925 1
gene  1 8 38 0.14524597932000238 0 1561.0 0.14524597932000238 1
gene  1 9 38 0.7089828164709691 0 1562.0 0.7089828164709691 1
gene  1 11 38 0.20703418527317385 0 1564.0 0.20703418527317385 1
gene  1 12 38 -0.7654227054941513 0 1565.0 -0.7654227054941513 1
gene  1 16 38 -0.5222786556822654 0 1569.0 -0.5222786556822654 1
gene  1 20 38 -0.8978204308990303 0 1573.0 -0.8978204308990303 1
gene  1 21 38 -0.8753715885773179 0 1574.0 -0.8753715885773179 1
gene  1 22 38 0.16026667854156085 0 1575.0 0.16026667854156085 1
gene  1 23 38 -0.46610615502606945 0 1576.0 -0.46610615502606945 1
gene  1 24 38 0.5010680928172573 0 1577.0 0.5010680928172573 1
gene  1 25 38 -0.6223173400976156 0 1578.0 -0.6223173400976156 1
gene  1 27 38 -0.5125596244259031 0 1580.0 -0.5125596244259031 1
gene  1 29 38 -0.6019512720476367 0 1582.0 -0.6019512720476367 1
gene  1 30 38 -0.9069929588431475 0 1583.0 -0.9069929588431475 1
gene  1 35 38 -0.357173731345511 0 1588.0 -0.357173731345511 1
gene  1 36 38 -0.6463780324908843 0 1589.0 -0.6463780324908843 1
gene  1 37 38 -0.8981214487405539 0 1590.0 -0.8981214487405539 1
gene  1 39 38 0.8245972907014227 1 1592.0 0.8245972907014227 1
gene  1 40 38 -0.9703727512630097 1 1593.0 -0.9703727512630097 1
gene  1 1 39 0.5765464512172155 0 1596.0 0.5765464512172155 1
gene  1 2 39 0.017417231526853705 0 1597.0 0.017417231526853705 1
gene  1 4 39 -0.5297599490580611 0 1599.0 -0.5297599490580611 1
gene  1 5 39 0.36390244639725033 0 1600.0 0.36390244639725033 1
gene  1 8 39 0.8613740409684226 0 1603.0 0.8613740409684226 1
gene  1 13 39 -0.2619900952617452 0 1608.0 -0.2619900952617452 1
gene  1 16 39 -0.6277081214563128 0 1611.0 -0.6277081214563128 1
gene  1 17 39 -0.6034976526807743 0 1612.0 -0.6034976526807743 1
gene  1 19 39 -0.31193647954697645 0 1614.0 -0.31193647954697645 1
gene  1 22 39 -0.04698444002002167 0 1617.0 -0.04698444002002167 1
gene  1 24 39 0.08617970771799244 0 1619.0 0.08617970771799244 1
gene  1 25 39 -0.5139027720343999 0 1620.0 -0.5139027720343999 1
gene  1 26 39 0.5034513672676076 0 1621.0 0.5034513672676076 1
gene  1 27 39 0.5732422332631478 0 1622.0 0.5732422332631478 1
gene  1 28 39 0.33792260983561817 0 1623.0 0.33792260983561817 1
gene  1 30 39 -0.5892234216106703 0 1625.0 -0.5892234216106703 1
gene  1 34 39 0.07586365585906485 0 1629.0 0.07586365585906485 1
gene  1 35 39 -0.6471995045598923 0 1630.0 -0.6471995045598923 1
gene  1 40 39 0.49925754712020676 1 1635.0 0.49925754712020676 1
gene  1 41 39 0.21573833505465523 1 1636.0 0.21573833505465523 1
gene  1 2 40 -0.8007515815791079 0 1639.0 -0.8007515815791079 1
gene  1 4 40 -0.2264333522674652 0 1641.0 -0.2264333522674652 1
gene  1 6 40 0.7355354617554168 0 1643.0 0.7355354617554168 1
gene  1 7 40 0.23755150252939938 0 1644.0 0.23755150252939938 1
gene  1 8 40 -0.1044972904046848 0 1645.0 -0.1044972904046848 1
gene  1 9 40 -0.9210705670777253 0 1646.0 -0.9210705670777253 1
gene  1 11 40 -0.6035496608824299 0 1648.0 -0.6035496608824299 1
gene  1 15 40 0.1535098494342605 0 1652.0 0.1535098494342605 1
gene  1 17 40 0.6196279428362722 0 1654.0 0.6196279428362722 1
gene  1 18 40 -0.13276482302152115 0 1655.0 -0.13276482302152115 1
gene  1 21 40 -0.691291675712369 0 1658.0 -0.691291675712369 1
gene  1 22 40 -0.26865120736621184 0 1659.0 -0.26865120736621184 1
gene  1 25 40 -0.25548740212687393 0 1662.0 -0.25548740212687393 1
gene  1 26 40 -0.9018848167525172 0 1663.0 -0.9018848167525172 1
gene  1 30 40 0.9797231586359842 0 1667.0 0.9797231586359842 1
gene  1 35 40 -0.9712142357090103 0 1672.0 -0.9712142357090103 1
gene  1 36 40 0.7759846062319246 0 1673.0 0.7759846062319246 1
gene  1 37 40 0.6069998849750098 0 1674.0 0.6069998849750098 1
gene  1 40 40 -0.2891970533093454 1 1677.0 -0.2891970533093454 1
gene  1 41 40 -0.7374441876199059 1 1678.0 -0.7374441876199059 1
gene  1 6 41 -0.4079960583894219 0 1685.0 -0.4079960583894219 1
gene  1 8 41 -0.02514871328646673 0 1687.0 -0.02514871328646673 1
gene  1 9 41 -0.7114039313302505 0 1688.0 -0.7114039313302505 1
gene  1 15 41 0.23594753767567 0 1694.0 0.23594753767567 1
gene  1 17 41 0.21286586848725386 0 1696.0 0.21286586848725386 1
gene  1 20 41 -0.6325504619404272 0 1699.0 -0.6325504619404272 1
gene  1 22 41 0.629718952966014 0 1701.0 0.629718952966014 1
gene  1 23 41 4.4505925680571323E-4 0 1702.0 4.4505925680571323E-4 1
gene  1 24 41 -0.8910119552463913 0 1703.0 -0.8910119552463913 1
gene  1 27 41 0.47856187911979153 0 1706.0 0.47856187911979153 1
gene  1 30 41 -0.40693343310957975 0 1709.0 -0.40693343310957975 1
gene  1 34 41 0.03807549563481227 0 1713.0 0.03807549563481227 1
gene  1 35 41 0.083449483616027 0 1714.0 0.083449483616027 1
gene  1 37 41 -0.1853685131622126 0 1716.0 -0.1853685131622126 1
gene  1 39 41 -0.9767991349115736 0 1718.0 -0.9767991349115736 1
gene  1 40 41 -0.6479237487806565 0 1719.0 -0.6479237487806565 1
gene  1 41 41 0.7334966976244743 1 1720.0 0.7334966976244743 1
gene  1 42 41 0.15606837057659873 1 1721.0 0.15606837057659873 1
gene  1 1 42 0.8686941834743626 0 1722.0 0.8686941834743626 1
gene  1 2 42 0.8335658351041692 0 1723.0 0.8335658351041692 1
gene  1 5 42 0.4983248672026209 0 1726.0 0.4983248672026209 1
gene  1 6 42 -0.5677833946013615 0 1727.0 -0.5677833946013615 1
gene  1 8 42 -0.8740142854263071 0 1729.0 -0.8740142854263071 1
gene  1 11 42 -0.43089968293410796 0 1732.0 -0.43089968293410796 1
gene  1 12 42 0.7965128394309847 0 1733.0 0.7965128394309847 1
gene  1 13 42 0.1969117205285582 0 1734.0 0.1969117205285582 1
gene  1 17 42 -0.9264527528667408 0 1738.0 -0.9264527528667408 1
gene  1 20 42 -0.34949686631281673 0 1741.0 -0.34949686631281673 1
gene  1 24 42 0.7594128756005656 0 1745.0 0.7594128756005656 1
gene  1 25 42 0.19268394895106478 0 1746.0 0.19268394895106478 1
gene  1 26 42 0.41088378239574497 0 1747.0 0.41088378239574497 1
gene  1 27 42 0.787674034776771 0 1748.0 0.787674034776771 1
gene  1 29 42 -0.9578354778856488 0 1750.0 -0.9578354778856488 1
gene  1 30 42 0.06425313090368545 0 1751.0 0.06425313090368545 1
gene  1 34 42 -0.17870870256792482 0 1755.0 -0.17870870256792482 1
gene  1 35 42 -0.5583267303525848 0 1756.0 -0.5583267303525848 1
gene  1 36 42 -0.310111509970751 0 1757.0 -0.310111509970751 1
gene  1 37 42 -0.9664529532099607 0 1758.0 -0.9664529532099607 1
gene  1 38 42 -0.9697390388100943 0 1759.0 -0.9697390388100943 1
gene  1 39 42 -0.6185507063405647 0 1760.0 -0.6185507063405647 1
gene  1 40 42 0.47365087058940913 0 1761.0 0.47365087058940913 1
gene  1 41 42 0.8102951991315213 0 1762.0 0.8102951991315213 1
gene  1 42 42 -0.707326230288705 1 1763.0 -0.707326230288705 1
gene  1 20 79 1.0 0 1837.0 0.0 1
gene  1 79 36 -0.429648489792372 0 1838.0 0.0 1
genomeend 5
/* Organism # 006 Fitness:  0.000 Error:  0.000                      */
genomestart  6
trait 1 0.0 0.0 0.0 0.0 0.0 0.0 0.0 0.0 
node 1 1 1 1
node 2 1 1 1
node 3 1 1 1
node 4 1 1 1
node 5 1 1 1
node 6 1 1 1
node 7 1 1 1
node 8 1 1 1
node 9 1 1 1
node 10 1 1 1
node 11 1 1 1
node 12 1 1 1
node 13 1 1 1
node 14 1 1 1
node 15 1 1 1
node 16 1 1 1
node 17 1 1 1
node 18 1 1 1
node 19 1 1 1
node 20 1 1 1
node 21 1 1 1
node 22 1 1 1
node 23 1 1 1
node 24 1 1 1
node 25 1 1 1
node 26 1 1 1
node 27 1 1 1
node 28 1 1 3
node 29 1 0 0
node 30 1 0 0
node 34 1 0 2
node 35 1 0 2
node 36 1 0 2
node 37 1 0 2
node 38 1 0 2
node 39 1 0 2
node 40 1 0 2
node 41 1 0 2
node 42 1 0 2
gene  1 2 29 -0.8816031585544855 0 1177.0 -0.8816031585544855 1
gene  1 6 29 0.04397470018115324 0 1181.0 0.04397470018115324 1
gene  1 8 29 0.10846294252016675 0 1183.0 0.10846294252016675 1
gene  1 11 29 0.7080655350184961 0 1186.0 0.7080655350184961 1
gene  1 19 29 0.7847438577194706 0 1194.0 0.7847438577194706 1
gene  1 21 29 -0.5331820613763814 0 1196.0 -0.5331820613763814 1
gene  1 23 29 0.22941234145658507 0 1198.0 0.22941234145658507 1
gene  1 29 29 0.6988248924822743 1 1204.0 0.6988248924822743 1
gene  1 34 29 -0.2593509337712021 1 1209.0 -0.2593509337712021 1
gene  1 38 29 -0.12862257703772217 1 1213.0 -0.12862257703772217 1
gene  1 1 30 -0.5157790094289377 0 1218.0 -0.5157790094289377 1
gene  1 2 30 -0.7283381598734864 0 1219.0 -0.7283381598734864 1
gene  1 7 30 -0.07321322918016115 0 1224.0 -0.07321322918016115 1
gene  1 13 30 -0.08405506447968647 0 1230.0 -0.08405506447968647 1
gene  1 15 30 -0.7254358503656477 0 1232.0 -0.7254358503656477 1
gene  1 19 30 -0.2917325842018813 0 1236.0 -0.2917325842018813 1
gene  1 25 30 0.25066590705330694 0 1242.0 0.25066590705330694 1
gene  1 26 30 0.016961622652315156 0 1243.0 0.016961622652315156 1
gene  1 27 30 0.6821969233288917 0 1244.0 0.6821969233288917 1
gene  1 28 30 0.5676640285006518 0 1245.0 0.5676640285006518 1
gene  1 29 30 -0.30769623498413734 0 1246.0 -0.30769623498413734 1
gene  1 35 30 -0.7958025607515512 1 1252.0 -0.7958025607515512 1
gene  1 36 30 -0.6964578627960031 1 1253.0 -0.6964578627960031 1
gene  1 41 30 -0.7284358804605561 1 1258.0 -0.7284358804605561 1
gene  1 42 30 0.1513850419133309 1 1259.0 0.1513850419133309 1
gene  1 1 34 0.5783344574312468 0 1386.0 0.5783344574312468 1
gene  1 4 34 0.20148438385963974 0 1389.0 0.20148438385963974 1
gene  1 5 34 -0.21943840981915042 0 1390.0 -0.21943840981915042 1
gene  1 6 34 0.22032847730396354 0 1391.0 0.22032847730396354 1
gene  1 7 34 0.9398371357811492 0 1392.0 0.9398371357811492 1
gene  1 8 34 0.7617079822685198 0 1393.0 0.7617079822685198 1
gene  1 10 34 0.8456590259036083 0 1395.0 0.8456590259036083 1
gene  1 15 34 0.421432731178333 0 1400.0 0.421432731178333 1
gene  1 17 34 0.35932206847773107 0 1402.0 0.35932206847773107 1
gene  1 19 34 -0.015960883281410432 0 1404.0 -0.015960883281410432 1
gene  1 20 34 0.8624837295991795 0 1405.0 0.8624837295991795 1
gene  1 24 34 0.767767939765529 0 1409.0 0.767767939765529 1
gene  1 26 34 0.1670652625334904 0 1411.0 0.1670652625334904 1
gene  1 29 34 0.30634674368185444 0 1414.0 0.30634674368185444 1
gene  1 34 34 0.9601834693385671 1 1419.0 0.9601834693385671 1
gene  1 35 34 0.878136689340796 1 1420.0 0.878136689340796 1
gene  1 37 34 0.4381586305522097 1 1422.0 0.4381586305522097 1
gene  1 39 34 -0.9594651781502953 1 1424.0 -0.9594651781502953 1
gene  1 1 35 0.7760811850232655 0 1428.0 0.7760811850232655 1
gene  1 2 35 0.9321678645925029 0 1429.0 0.9321678645925029 1
gene  1 3 35 -0.20612129979323857 0 1430.0 -0.20612129979323857 1
gene  1 4 35 0.5374359038320743 0 1431.0 0.5374359038320743 1
gene  1 5 35 0.6320281941785817 0 1432.0 0.6320281941785817 1
gene  1 7 35 0.5399699156601933 0 1434.0 0.5399699156601933 1
gene  1 8 35 0.9017439791907444 0 1435.0 0.9017439791907444 1
gene  1 9 35 -0.07741965701737108 0 1436.0 -0.07741965701737108 1
gene  1 13 35 0.6409590184686748 0 1440.0 0.6409590184686748 1
gene  1 14 35 0.7719255130047618 0 1441.0 0.7719255130047618 1
gene  1 16 35 0.6509196847855406 0 1443.0 0.6509196847855406 1
gene  1 17 35 -0.965305941589556 0 1444.0 -0.965305941589556 1
gene  1 22 35 -0.2652927998872958 0 1449.0 -0.2652927998872958 1
gene  1 24 35 -0.2757172275128734 0 1451.0 -0.2757172275128734 1
gene  1 25 35 0.2187828811819006 0 1452.0 0.2187828811819006 1
gene  1 28 35 0.8264998641120591 0 1455.0 0.8264998641120591 1
gene  1 29 35 -0.2490341670588211 0 1456.0 -0.2490341670588211 1
gene  1 30 35 0.6921470957694847 0 1457.0 0.6921470957694847 1
gene  1 41 35 0.11544892533091211 1 1468.0 0.11544892533091211 1
gene  1 3 36 -0.7082388851708732 0 1472.0 -0.7082388851708732 1
gene  1 4 36 0.5386980997198444 0 1473.0 0.5386980997198444 1
gene  1 6 36 0.16113553258260072 0 1475.0 0.16113553258260072 1
gene  1 7 36 -0.0023065783924021144 0 1476.0 -0.0023065783924021144 1
gene  1 8 36 0.02692569083605778 0 1477.0 0.02692569083605778 1
gene  1 10 36 -0.10661810947947814 0 1479.0 -0.10661810947947814 1
gene  1 11 36 0.5112141842589105 0 1480.0 0.5112141842589105 1
gene  1 13 36 -0.8003328135986322 0 1482.0 -0.8003328135986322 1
gene  1 14 36 -0.7732683766749466 0 1483.0 -0.7732683766749466 1
gene  1 16 36 0.2916483990676587 0 1485.0 0.2916483990676587 1
gene  1 18 36 -0.1609974182054279 0 1487.0 -0.1609974182054279 1
gene  1 19 36 0.21830891044493417 0 1488.0 0.21830891044493417 1
gene  1 20 36 -0.429648489792372 0 1489.0 -0.429648489792372 1
gene  1 21 36 -0.47146137037659464 0 1490.0 -0.47146137037659464 1
gene  1 22 36 0.9750325332674982 0 1491.0 0.9750325332674982 1
gene  1 23 36 -0.126035041782402 0 1492.0 -0.126035041782402 1
gene  1 25 36 -0.9395312811974117 0 1494.0 -0.9395312811974117 1
gene  1 26 36 0.21917833553402133 0 1495.0 0.21917833553402133 1
gene  1 27 36 -0.4389775481120116 0 1496.0 -0.4389775481120116 1
gene  1 28 36 0.804455815522769 0 1497.0 0.804455815522769 1
gene  1 29 36 -0.9687158682252704 0 1498.0 -0.9687158682252704 1
gene  1 30 36 0.013425865067314136 0 1499.0 0.013425865067314136 1
gene  1 35 36 0.9144893326951469 0 1504.0 0.9144893326951469 1
gene  1 36 36 0.5416861396700996 1 1505.0 0.5416861396700996 1
gene  1 39 36 -0.0629877289180556 1 1508.0 -0.0629877289180556 1
gene  1 41 36 -0.5504364779926431 1 1510.0 -0.5504364779926431 1
gene  1 42 36 -0.2511620226455332 1 1511.0 -0.2511620226455332 1
gene  1 1 37 -0.9138032262100575 0 1512.0 -0.9138032262100575 1
gene  1 4 37 0.19585410302341055 0 1515.0 0.19585410302341055 1
gene  1 5 37 -0.531737733822114 0 1516.0 -0.531737733822114 1
gene  1 7 37 0.2543406183028102 0 1518.0 0.2543406183028102 1
gene  1 10 37 -0.9163619792737667 0 1521.0 -0.9163619792737667 1
gene  1 11 37 0.5324598843232038 0 1522.0 0.5324598843232038 1
gene  1 12 37 -0.8003966946270109 0 1523.0 -0.8003966946270109 1
gene  1 15 37 0.0010310563788474836 0 1526.0 0.0010310563788474836 1
gene  1 16 37 -0.5931856151746636 0 1527.0 -0.5931856151746636 1
gene  1 17 37 0.03981590005512836 0 1528.0 0.03981590005512836 1
gene  1 18 37 0.9986875968752003 0 1529.0 0.9986875968752003 1
gene  1 20 37 -0.5631950792494365 0 1531.0 -0.5631950792494365 1
gene  1 21 37 0.06124556218181876 0 1532.0 0.06124556218181876 1
gene  1 22 37 -0.23682188101554114 0 1533.0 -0.23682188101554114 1
gene  1 23 37 0.6932778461102644 0 1534.0 0.6932778461102644 1
gene  1 24 37 -0.6245854443405381 0 1535.0 -0.6245854443405381 1
gene  1 25 37 0.6444132151684284 0 1536.0 0.6444132151684284 1
gene  1 36 37 -0.8972985071550142 0 1547.0 -0.8972985071550142 1
gene  1 37 37 -0.6303094241274142 1 1548.0 -0.6303094241274142 1
gene  1 38 37 -0.7844568120592614 1 1549.0 -0.7844568120592614 1
gene  1 41 37 -0.9164551428374119 1 1552.0 -0.9164551428374119 1
gene  1 1 38 -0.7518067914765957 0 1554.0 -0.7518067914765957 1
gene  1 4 38 -0.45869065780945306 0 1557.0 -0.45869065780945306 1
gene  1 6 38 -0.03385806984427586 0 1559.0 -0.03385806984427586 1
gene  1 7 38 0.6986432790945925 0 1560.0 0.6986432790945925 1
gene  1 8 38 0.14524597932000238 0 1561.0 0.14524597932000238 1
gene  1 9 38 0.7089828164709691 0 1562.0 0.7089828164709691 1
gene  1 11 38 0.20703418527317385 0 1564.0 0.20703418527317385 1
gene  1 12 38 -0.7654227054941513 0 1565.0 -0.7654227054941513 1
gene  1 16 38 -0.5222786556822654 0 1569.0 -0.5222786556822654 1
gene  1 20 38 -0.8978204308990303 0 1573.0 -0.8978204308990303 1
gene  1 21 38 -0.8753715885773179 0 1574.0 -0.8753715885773179 1
gene  1 22 38 0.16026667854156085 0 1575.0 0.16026667854156085 1
gene  1 23 38 -0.46610615502606945 0 1576.0 -0.46610615502606945 1
gene  1 24 38 0.5010680928172573 0 1577.0 0.5010680928172573 1
gene  1 25 38 -0.6223173400976156 0 1578.0 -0.6223173400976156 1
gene  1 27 38 -0.5125596244259031 0 1580.0 -0.5125596244259031 1
gene  1 29 38 -0.6019512720476367 0 1582.0 -0.6019512720476367 1
gene  1 30 38 -0.9069929588431475 0 1583.0 -0.9069929588431475 1
gene  1 35 38 -0.357173731345511 0 1588.0 -0.357173731345511 1
gene  1 36 38 -0.6463780324908843 0 1589.0 -0.6463780324908843 1
gene  1 37 38 -0.8981214487405539 0 1590.0 -0.8981214487405539 1
gene  1 39 38 0.8245972907014227 1 1592.0 0.8245972907014227 1
gene  1 40 38 -0.9703727512630097 1 1593.0 -0.9703727512630097 1
gene  1 1 39 0.5765464512172155 0 1596.0 0.5765464512172155 1
gene  1 2 39 0.017417231526853705 0 1597.0 0.017417231526853705 1
gene  1 4 39 -0.5297599490580611 0 1599.0 -0.5297599490580611 1
gene  1 5 39 0.36390244639725033 0 1600.0 0.36390244639725033 1
gene  1 8 39 0.8613740409684226 0 1603.0 0.8613740409684226 1
gene  1 13 39 -0.2619900952617452 0 1608.0 -0.2619900952617452 1
gene  1 16 39 -0.6277081214563128 0 1611.0 -0.6277081214563128 1
gene  1 17 39 -0.6034976526807743 0 1612.0 -0.6034976526807743 1
gene  1 19 39 -0.31193647954697645 0 1614.0 -0.31193647954697645 1
gene  1 22 39 -0.04698444002002167 0 1617.0 -0.04698444002002167 1
gene  1 24 39 0.08617970771799244 0 1619.0 0.08617970771799244 1
gene  1 25 39 -0.5139027720343999 0 1620.0 -0.5139027720343999 1
gene  1 26 39 0.5034513672676076 0 1621.0 0.5034513672676076 1
gene  1 27 39 0.5732422332631478 0 1622.0 0.5732422332631478 1
gene  1 28 39 0.33792260983561817 0 1623.0 0.33792260983561817 1
gene  1 30 39 -0.5892234216106703 0 1625.0 -0.5892234216106703 1
gene  1 34 39 0.07586365585906485 0 1629.0 0.07586365585906485 1
gene  1 35 39 -0.6471995045598923 0 1630.0 -0.6471995045598923 1
gene  1 40 39 0.49925754712020676 1 1635.0 0.49925754712020676 1
gene  1 41 39 0.21573833505465523 1 1636.0 0.21573833505465523 1
gene  1 2 40 -0.8007515815791079 0 1639.0 -0.8007515815791079 1
gene  1 4 40 -0.2264333522674652 0 1641.0 -0.2264333522674652 1
gene  1 6 40 0.7355354617554168 0 1643.0 0.7355354617554168 1
gene  1 7 40 0.23755150252939938 0 1644.0 0.23755150252939938 1
gene  1 8 40 -0.1044972904046848 0 1645.0 -0.1044972904046848 1
gene  1 9 40 -0.9210705670777253 0 1646.0 -0.9210705670777253 1
gene  1 11 40 -0.6035496608824299 0 1648.0 -0.6035496608824299 1
gene  1 15 40 0.1535098494342605 0 1652.0 0.1535098494342605 1
gene  1 17 40 0.6196279428362722 0 1654.0 0.6196279428362722 1
gene  1 18 40 -0.13276482302152115 0 1655.0 -0.13276482302152115 1
gene  1 21 40 -0.691291675712369 0 1658.0 -0.691291675712369 1
gene  1 22 40 -0.26865120736621184 0 1659.0 -0.26865120736621184 1
gene  1 25 40 -0.25548740212687393 0 1662.0 -0.25548740212687393 1
gene  1 26 40 -0.9018848167525172 0 1663.0 -0.9018848167525172 1
gene  1 30 40 0.9797231586359842 0 1667.0 0.9797231586359842 1
gene  1 35 40 -0.9712142357090103 0 1672.0 -0.9712142357090103 1
gene  1 36 40 0.7759846062319246 0 1673.0 0.7759846062319246 1
gene  1 37 40 0.6069998849750098 0 1674.0 0.6069998849750098 1
gene  1 40 40 -0.2891970533093454 1 1677.0 -0.2891970533093454 1
gene  1 41 40 -0.7374441876199059 1 1678.0 -0.7374441876199059 1
gene  1 6 41 -0.4079960583894219 0 1685.0 -0.4079960583894219 1
gene  1 8 41 -0.02514871328646673 0 1687.0 -0.02514871328646673 1
gene  1 9 41 -0.7114039313302505 0 1688.0 -0.7114039313302505 1
gene  1 15 41 0.23594753767567 0 1694.0 0.23594753767567 1
gene  1 17 41 0.21286586848725386 0 1696.0 0.21286586848725386 1
gene  1 20 41 -0.6325504619404272 0 1699.0 -0.6325504619404272 1
gene  1 22 41 0.629718952966014 0 1701.0 0.629718952966014 1
gene  1 23 41 4.4505925680571323E-4 0 1702.0 4.4505925680571323E-4 1
gene  1 24 41 -0.8910119552463913 0 1703.0 -0.8910119552463913 1
gene  1 27 41 0.47856187911979153 0 1706.0 0.47856187911979153 1
gene  1 30 41 -0.40693343310957975 0 1709.0 -0.40693343310957975 1
gene  1 34 41 0.03807549563481227 0 1713.0 0.03807549563481227 1
gene  1 35 41 0.083449483616027 0 1714.0 0.083449483616027 1
gene  1 37 41 -0.1853685131622126 0 1716.0 -0.1853685131622126 1
gene  1 39 41 -0.9767991349115736 0 1718.0 -0.9767991349115736 1
gene  1 40 41 -0.6479237487806565 0 1719.0 -0.6479237487806565 1
gene  1 41 41 0.7334966976244743 1 1720.0 0.7334966976244743 1
gene  1 42 41 0.15606837057659873 1 1721.0 0.15606837057659873 1
gene  1 1 42 0.8686941834743626 0 1722.0 0.8686941834743626 1
gene  1 2 42 0.8335658351041692 0 1723.0 0.8335658351041692 1
gene  1 5 42 0.4983248672026209 0 1726.0 0.4983248672026209 1
gene  1 6 42 -0.5677833946013615 0 1727.0 -0.5677833946013615 1
gene  1 8 42 -0.8740142854263071 0 1729.0 -0.8740142854263071 1
gene  1 11 42 -0.43089968293410796 0 1732.0 -0.43089968293410796 1
gene  1 12 42 0.7965128394309847 0 1733.0 0.7965128394309847 1
gene  1 13 42 0.1969117205285582 0 1734.0 0.1969117205285582 1
gene  1 17 42 -0.9264527528667408 0 1738.0 -0.9264527528667408 1
gene  1 20 42 -0.34949686631281673 0 1741.0 -0.34949686631281673 1
gene  1 24 42 0.7594128756005656 0 1745.0 0.7594128756005656 1
gene  1 25 42 0.19268394895106478 0 1746.0 0.19268394895106478 1
gene  1 26 42 0.41088378239574497 0 1747.0 0.41088378239574497 1
gene  1 27 42 0.787674034776771 0 1748.0 0.787674034776771 1
gene  1 29 42 -0.9578354778856488 0 1750.0 -0.9578354778856488 1
gene  1 30 42 0.06425313090368545 0 1751.0 0.06425313090368545 1
gene  1 34 42 -0.17870870256792482 0 1755.0 -0.17870870256792482 1
gene  1 35 42 -0.5583267303525848 0 1756.0 -0.5583267303525848 1
gene  1 36 42 -0.310111509970751 0 1757.0 -0.310111509970751 1
gene  1 37 42 -0.9664529532099607 0 1758.0 -0.9664529532099607 1
gene  1 38 42 -0.9697390388100943 0 1759.0 -0.9697390388100943 1
gene  1 39 42 -0.6185507063405647 0 1760.0 -0.6185507063405647 1
gene  1 40 42 0.47365087058940913 0 1761.0 0.47365087058940913 1
gene  1 41 42 0.8102951991315213 0 1762.0 0.8102951991315213 1
gene  1 42 42 -0.707326230288705 1 1763.0 -0.707326230288705 1
genomeend 6
/* Organism # 007 Fitness:  0.000 Error:  0.000                      */
genomestart  7
trait 1 0.0 0.0 0.0 0.0 0.0 0.0 0.0 0.0 
node 1 1 1 1
node 2 1 1 1
node 3 1 1 1
node 4 1 1 1
node 5 1 1 1
node 6 1 1 1
node 7 1 1 1
node 8 1 1 1
node 9 1 1 1
node 10 1 1 1
node 11 1 1 1
node 12 1 1 1
node 13 1 1 1
node 14 1 1 1
node 15 1 1 1
node 16 1 1 1
node 17 1 1 1
node 18 1 1 1
node 19 1 1 1
node 20 1 1 1
node 21 1 1 1
node 22 1 1 1
node 23 1 1 1
node 24 1 1 1
node 25 1 1 1
node 26 1 1 1
node 27 1 1 1
node 28 1 1 3
node 29 1 0 0
node 30 1 0 0
node 34 1 0 2
node 35 1 0 2
node 36 1 0 2
node 37 1 0 2
node 38 1 0 2
node 39 1 0 2
node 40 1 0 2
node 41 1 0 2
node 42 1 0 2
gene  1 2 29 -0.8816031585544855 0 1177.0 -0.8816031585544855 1
gene  1 6 29 0.04397470018115324 0 1181.0 0.04397470018115324 1
gene  1 8 29 0.10846294252016675 0 1183.0 0.10846294252016675 1
gene  1 11 29 0.7080655350184961 0 1186.0 0.7080655350184961 1
gene  1 19 29 0.7847438577194706 0 1194.0 0.7847438577194706 1
gene  1 21 29 -0.5331820613763814 0 1196.0 -0.5331820613763814 1
gene  1 23 29 0.22941234145658507 0 1198.0 0.22941234145658507 1
gene  1 29 29 0.6988248924822743 1 1204.0 0.6988248924822743 1
gene  1 34 29 -0.2593509337712021 1 1209.0 -0.2593509337712021 1
gene  1 38 29 -0.12862257703772217 1 1213.0 -0.12862257703772217 1
gene  1 1 30 -0.5157790094289377 0 1218.0 -0.5157790094289377 1
gene  1 2 30 -0.7283381598734864 0 1219.0 -0.7283381598734864 1
gene  1 7 30 -0.07321322918016115 0 1224.0 -0.07321322918016115 1
gene  1 13 30 -0.08405506447968647 0 1230.0 -0.08405506447968647 1
gene  1 15 30 -0.7254358503656477 0 1232.0 -0.7254358503656477 1
gene  1 19 30 -0.2917325842018813 0 1236.0 -0.2917325842018813 1
gene  1 25 30 0.25066590705330694 0 1242.0 0.25066590705330694 1
gene  1 26 30 0.016961622652315156 0 1243.0 0.016961622652315156 1
gene  1 27 30 0.6821969233288917 0 1244.0 0.6821969233288917 1
gene  1 28 30 0.5676640285006518 0 1245.0 0.5676640285006518 1
gene  1 29 30 -0.30769623498413734 0 1246.0 -0.30769623498413734 1
gene  1 35 30 -0.7958025607515512 1 1252.0 -0.7958025607515512 1
gene  1 36 30 -0.6964578627960031 1 1253.0 -0.6964578627960031 1
gene  1 41 30 -0.7284358804605561 1 1258.0 -0.7284358804605561 1
gene  1 42 30 0.1513850419133309 1 1259.0 0.1513850419133309 1
gene  1 1 34 0.5783344574312468 0 1386.0 0.5783344574312468 1
gene  1 4 34 0.20148438385963974 0 1389.0 0.20148438385963974 1
gene  1 5 34 -0.21943840981915042 0 1390.0 -0.21943840981915042 1
gene  1 6 34 0.22032847730396354 0 1391.0 0.22032847730396354 1
gene  1 7 34 0.9398371357811492 0 1392.0 0.9398371357811492 1
gene  1 8 34 0.7617079822685198 0 1393.0 0.7617079822685198 1
gene  1 10 34 0.8456590259036083 0 1395.0 0.8456590259036083 1
gene  1 15 34 0.421432731178333 0 1400.0 0.421432731178333 1
gene  1 17 34 0.35932206847773107 0 1402.0 0.35932206847773107 1
gene  1 19 34 -0.015960883281410432 0 1404.0 -0.015960883281410432 1
gene  1 20 34 0.8624837295991795 0 1405.0 0.8624837295991795 1
gene  1 24 34 0.767767939765529 0 1409.0 0.767767939765529 1
gene  1 26 34 0.1670652625334904 0 1411.0 0.1670652625334904 1
gene  1 29 34 0.30634674368185444 0 1414.0 0.30634674368185444 1
gene  1 34 34 0.9601834693385671 1 1419.0 0.9601834693385671 1
gene  1 35 34 0.878136689340796 1 1420.0 0.878136689340796 1
gene  1 37 34 0.4381586305522097 1 1422.0 0.4381586305522097 1
gene  1 39 34 -0.9594651781502953 1 1424.0 -0.9594651781502953 1
gene  1 1 35 0.7760811850232655 0 1428.0 0.7760811850232655 1
gene  1 2 35 0.9321678645925029 0 1429.0 0.9321678645925029 1
gene  1 3 35 -0.20612129979323857 0 1430.0 -0.20612129979323857 1
gene  1 4 35 0.5374359038320743 0 1431.0 0.5374359038320743 1
gene  1 5 35 0.6320281941785817 0 1432.0 0.6320281941785817 1
gene  1 7 35 0.5399699156601933 0 1434.0 0.5399699156601933 1
gene  1 8 35 0.9017439791907444 0 1435.0 0.9017439791907444 1
gene  1 9 35 -0.07741965701737108 0 1436.0 -0.07741965701737108 1
gene  1 13 35 0.6409590184686748 0 1440.0 0.6409590184686748 1
gene  1 14 35 0.7719255130047618 0 1441.0 0.7719255130047618 1
gene  1 16 35 0.6509196847855406 0 1443.0 0.6509196847855406 1
gene  1 17 35 -0.965305941589556 0 1444.0 -0.965305941589556 1
gene  1 22 35 -0.2652927998872958 0 1449.0 -0.2652927998872958 1
gene  1 24 35 -0.2757172275128734 0 1451.0 -0.2757172275128734 1
gene  1 25 35 0.2187828811819006 0 1452.0 0.2187828811819006 1
gene  1 28 35 0.8264998641120591 0 1455.0 0.8264998641120591 1
gene  1 29 35 -0.2490341670588211 0 1456.0 -0.2490341670588211 1
gene  1 30 35 0.6921470957694847 0 1457.0 0.6921470957694847 1
gene  1 41 35 0.11544892533091211 1 1468.0 0.11544892533091211 1
gene  1 3 36 -0.7082388851708732 0 1472.0 -0.7082388851708732 1
gene  1 4 36 0.5386980997198444 0 1473.0 0.5386980997198444 1
gene  1 6 36 0.16113553258260072 0 1475.0 0.16113553258260072 1
gene  1 7 36 -0.0023065783924021144 0 1476.0 -0.0023065783924021144 1
gene  1 8 36 0.02692569083605778 0 1477.0 0.02692569083605778 1
gene  1 10 36 -0.10661810947947814 0 1479.0 -0.10661810947947814 1
gene  1 11 36 0.5112141842589105 0 1480.0 0.5112141842589105 1
gene  1 13 36 -0.8003328135986322 0 1482.0 -0.8003328135986322 1
gene  1 14 36 -0.7732683766749466 0 1483.0 -0.7732683766749466 1
gene  1 16 36 0.2916483990676587 0 1485.0 0.2916483990676587 1
gene  1 18 36 -0.1609974182054279 0 1487.0 -0.1609974182054279 1
gene  1 19 36 0.21830891044493417 0 1488.0 0.21830891044493417 1
gene  1 20 36 -0.429648489792372 0 1489.0 -0.429648489792372 1
gene  1 21 36 -0.47146137037659464 0 1490.0 -0.47146137037659464 1
gene  1 22 36 0.9750325332674982 0 1491.0 0.9750325332674982 1
gene  1 23 36 -0.126035041782402 0 1492.0 -0.126035041782402 1
gene  1 25 36 -0.9395312811974117 0 1494.0 -0.9395312811974117 1
gene  1 26 36 0.21917833553402133 0 1495.0 0.21917833553402133 1
gene  1 27 36 -0.4389775481120116 0 1496.0 -0.4389775481120116 1
gene  1 28 36 0.804455815522769 0 1497.0 0.804455815522769 1
gene  1 29 36 -0.9687158682252704 0 1498.0 -0.9687158682252704 1
gene  1 30 36 0.013425865067314136 0 1499.0 0.013425865067314136 1
gene  1 35 36 0.9144893326951469 0 1504.0 0.9144893326951469 1
gene  1 36 36 0.5416861396700996 1 1505.0 0.5416861396700996 1
gene  1 39 36 -0.0629877289180556 1 1508.0 -0.0629877289180556 1
gene  1 41 36 -0.5504364779926431 1 1510.0 -0.5504364779926431 1
gene  1 42 36 -0.2511620226455332 1 1511.0 -0.2511620226455332 1
gene  1 1 37 -0.9138032262100575 0 1512.0 -0.9138032262100575 1
gene  1 4 37 0.19585410302341055 0 1515.0 0.19585410302341055 1
gene  1 5 37 -0.531737733822114 0 1516.0 -0.531737733822114 1
gene  1 7 37 0.2543406183028102 0 1518.0 0.2543406183028102 1
gene  1 10 37 -0.9163619792737667 0 1521.0 -0.9163619792737667 1
gene  1 11 37 0.5324598843232038 0 1522.0 0.5324598843232038 1
gene  1 12 37 -0.8003966946270109 0 1523.0 -0.8003966946270109 1
