/* Species # 014         : (size= 075) (AvfFit= 4.407) (Age= 1001.000)  */
/*-------------------------------------------------------------------*/
/* Organism # 000 Fitness:  0.000 Error:  0.000                      */
genomestart  0
trait 1 0.0 0.0 0.0 0.0 0.0 0.0 0.0 0.0 
node 1 1 1 1
node 2 1 1 1
node 3 1 1 1
node 4 1 1 1
node 5 1 1 1
node 6 1 1 1
node 7 1 1 1
node 8 1 1 1
node 9 1 1 1
node 10 1 1 1
node 11 1 1 1
node 12 1 1 1
node 13 1 1 1
node 14 1 1 1
node 15 1 1 1
node 16 1 1 1
node 17 1 1 1
node 18 1 1 1
node 19 1 1 1
node 20 1 1 1
node 21 1 1 1
node 22 1 1 1
node 23 1 1 1
node 24 1 1 1
node 25 1 1 1
node 26 1 1 1
node 27 1 1 1
node 28 1 1 3
node 29 1 0 0
node 30 1 0 0
node 31 1 0 0
node 32 1 0 0
node 34 1 0 2
node 35 1 0 2
node 36 1 0 2
node 37 1 0 2
node 38 1 0 2
node 39 1 0 2
node 40 1 0 2
node 41 1 0 2
node 42 1 0 2
node 57 1 0 0
node 123 1 0 0
node 162 1 0 0
node 438 1 0 0
node 457 1 0 0
node 498 1 0 0
node 673 1 0 0
node 718 1 0 0
node 764 1 0 0
node 974 1 0 0
node 1019 1 0 0
node 1079 1 0 0
node 1093 1 0 0
node 1129 1 0 0
node 1191 1 0 0
node 1242 1 0 0
node 1285 1 0 0
node 1304 1 0 0
node 1326 1 0 0
node 1372 1 0 0
node 1405 1 0 0
node 1432 1 0 0
node 1451 1 0 0
node 1573 1 0 0
node 1804 1 0 0
node 1845 1 0 0
node 1941 1 0 0
node 1965 1 0 0
node 2009 1 0 0
node 2124 1 0 0
node 2167 1 0 0
node 2173 1 0 0
node 2261 1 0 0
node 2306 1 0 0
node 2313 1 0 0
node 2372 1 0 0
node 2383 1 0 0
node 2432 1 0 0
node 2545 1 0 0
node 2578 1 0 0
node 2668 1 0 0
node 2724 1 0 0
node 2753 1 0 0
node 2815 1 0 0
node 2876 1 0 0
node 2974 1 0 0
node 3000 1 0 0
node 3104 1 0 0
node 3126 1 0 0
node 3143 1 0 0
node 3228 1 0 0
node 3344 1 0 0
node 3353 1 0 0
node 3423 1 0 0
node 3460 1 0 0
node 3511 1 0 0
node 3574 1 0 0
node 3600 1 0 0
node 3803 1 0 0
node 3828 1 0 0
node 3872 1 0 0
node 4010 1 0 0
node 4046 1 0 0
node 4110 1 0 0
node 4169 1 0 0
node 4262 1 0 0
node 4287 1 0 0
node 4307 1 0 0
node 4336 1 0 0
node 4491 1 0 0
node 4567 1 0 0
node 4656 1 0 0
node 4702 1 0 0
node 4794 1 0 0
node 4808 1 0 0
node 4911 1 0 0
node 4938 1 0 0
node 4985 1 0 0
node 5081 1 0 0
node 5119 1 0 0
node 5126 1 0 0
node 5260 1 0 0
node 5442 1 0 0
node 5465 1 0 0
node 5492 1 0 0
node 5528 1 0 0
node 5579 1 0 0
node 5609 1 0 0
node 5742 1 0 0
node 5823 1 0 0
node 6023 1 0 0
node 6101 1 0 0
node 6346 1 0 0
node 6400 1 0 0
node 6527 1 0 0
node 6580 1 0 0
node 6679 1 0 0
node 6841 1 0 0
node 6865 1 0 0
node 6891 1 0 0
node 6992 1 0 0
node 7045 1 0 0
node 7145 1 0 0
node 7194 1 0 0
node 7277 1 0 0
node 7286 1 0 0
node 7335 1 0 0
node 7486 1 0 0
node 7657 1 0 0
node 7676 1 0 0
node 7724 1 0 0
node 7787 1 0 0
node 7874 1 0 0
node 7919 1 0 0
node 7969 1 0 0
node 8037 1 0 0
node 8068 1 0 0
node 8125 1 0 0
node 8195 1 0 0
node 8210 1 0 0
node 8235 1 0 0
node 8331 1 0 0
node 8352 1 0 0
node 8591 1 0 0
node 8626 1 0 0
node 8660 1 0 0
node 8702 1 0 0
node 8902 1 0 0
node 8914 1 0 0
node 9033 1 0 0
node 9124 1 0 0
node 9235 1 0 0
node 9295 1 0 0
node 9389 1 0 0
node 9735 1 0 0
node 10101 1 0 0
node 10209 1 0 0
node 10291 1 0 0
node 10433 1 0 0
node 10459 1 0 0
node 10471 1 0 0
node 10480 1 0 0
node 10671 1 0 0
node 10743 1 0 0
node 10853 1 0 0
node 10872 1 0 0
node 10878 1 0 0
node 10930 1 0 0
node 10963 1 0 0
node 10990 1 0 0
node 11015 1 0 0
node 11062 1 0 0
node 11123 1 0 0
node 11142 1 0 0
node 11270 1 0 0
node 11333 1 0 0
node 11396 1 0 0
node 11418 1 0 0
node 11584 1 0 0
node 11729 1 0 0
node 11758 1 0 0
node 11796 1 0 0
node 11827 1 0 0
node 11948 1 0 0
node 11969 1 0 0
node 12200 1 0 0
node 12240 1 0 0
node 12433 1 0 0
node 12504 1 0 0
node 12628 1 0 0
node 12777 1 0 0
node 12932 1 0 0
node 12985 1 0 0
node 13052 1 0 0
node 13086 1 0 0
node 13192 1 0 0
node 13221 1 0 0
node 13260 1 0 0
node 13303 1 0 0
node 13382 1 0 0
node 13438 1 0 0
node 13530 1 0 0
node 13552 1 0 0
node 13639 1 0 0
node 13669 1 0 0
node 13685 1 0 0
node 13758 1 0 0
node 13772 1 0 0
node 13895 1 0 0
node 13943 1 0 0
node 14066 1 0 0
node 14126 1 0 0
node 14136 1 0 0
node 14179 1 0 0
node 14274 1 0 0
node 14365 1 0 0
node 14487 1 0 0
node 14512 1 0 0
node 14584 1 0 0
node 14689 1 0 0
gene  1 2 29 0.50213994257206 0 1177.0 0.50213994257206 1
gene  1 3 29 0.7950006695086371 0 1178.0 0.7950006695086371 1
gene  1 4 29 -0.44661862989883894 0 1179.0 -0.44661862989883894 1
gene  1 5 29 0.05014779714124997 0 1180.0 0.05014779714124997 1
gene  1 7 29 -0.002859576966509924 0 1182.0 -0.002859576966509924 1
gene  1 10 29 -0.4874278197810247 0 1185.0 -0.4874278197810247 1
gene  1 12 29 -0.040258060092807094 0 1187.0 -0.040258060092807094 1
gene  1 15 29 0.7701703313340875 0 1190.0 0.7701703313340875 1
gene  1 16 29 -0.38502927101705164 0 1191.0 -0.38502927101705164 1
gene  1 18 29 -0.009805627783145353 0 1193.0 -0.009805627783145353 1
gene  1 19 29 -0.322868800570024 0 1194.0 -0.322868800570024 1
gene  1 20 29 0.49223006748277415 0 1195.0 0.49223006748277415 1
gene  1 23 29 0.11407390862925769 0 1198.0 0.11407390862925769 1
gene  1 24 29 0.01812508789903905 0 1199.0 0.01812508789903905 1
gene  1 25 29 -0.2650705047504174 0 1200.0 -0.2650705047504174 1
gene  1 26 29 0.9759622557028279 0 1201.0 0.9759622557028279 1
gene  1 28 29 -0.4139077786330781 0 1203.0 -0.4139077786330781 1
gene  1 29 29 -0.34159699278432076 1 1204.0 -0.34159699278432076 1
gene  1 32 29 0.38615020279510304 1 1207.0 0.38615020279510304 1
gene  1 35 29 -0.08561103201298145 1 1210.0 -0.08561103201298145 1
gene  1 38 29 -0.08424180794803122 1 1213.0 -0.08424180794803122 1
gene  1 39 29 -0.2682438772448227 1 1214.0 -0.2682438772448227 1
gene  1 41 29 -0.0119170800140804 1 1216.0 -0.0119170800140804 1
gene  1 2 30 -0.2517417276725068 0 1219.0 -0.2517417276725068 1
gene  1 4 30 -0.4460940489287399 0 1221.0 -0.4460940489287399 1
gene  1 5 30 0.15046529695985467 0 1222.0 0.15046529695985467 1
gene  1 7 30 0.0011566337822639496 0 1224.0 0.0011566337822639496 1
gene  1 8 30 -0.7317687970530955 0 1225.0 -0.7317687970530955 1
gene  1 10 30 -0.09214682315642486 0 1227.0 -0.09214682315642486 1
gene  1 11 30 -0.6641385179358604 0 1228.0 -0.6641385179358604 1
gene  1 13 30 0.11168095933273064 0 1230.0 0.11168095933273064 1
gene  1 14 30 0.9625142818502175 0 1231.0 0.9625142818502175 1
gene  1 16 30 0.1756646842818527 0 1233.0 0.1756646842818527 1
gene  1 19 30 0.6614065863286622 0 1236.0 0.6614065863286622 1
gene  1 22 30 0.0031844350531285825 0 1239.0 0.0031844350531285825 1
gene  1 28 30 -0.6097388698179241 0 1245.0 -0.6097388698179241 1
gene  1 31 30 0.13931213224038685 1 1248.0 0.13931213224038685 1
gene  1 32 30 0.9885125679375338 1 1249.0 0.9885125679375338 1
gene  1 35 30 0.2675784952456543 1 1252.0 0.2675784952456543 1
gene  1 36 30 0.0021055673359193696 1 1253.0 0.0021055673359193696 1
gene  1 37 30 -0.5236719718195539 1 1254.0 -0.5236719718195539 1
gene  1 38 30 -0.355847643931557 1 1255.0 -0.355847643931557 1
gene  1 39 30 0.17338396490949226 1 1256.0 0.17338396490949226 1
gene  1 40 30 -0.012651901580019114 1 1257.0 -0.012651901580019114 1
gene  1 41 30 -0.7713162476522792 1 1258.0 -0.7713162476522792 1
gene  1 1 31 -0.8214353173318314 0 1260.0 -0.8214353173318314 1
gene  1 2 31 -0.29091560880347744 0 1261.0 -0.29091560880347744 1
gene  1 3 31 -0.6851463355169198 0 1262.0 -0.6851463355169198 1
gene  1 6 31 0.6704347755682317 0 1265.0 0.6704347755682317 1
gene  1 9 31 -0.1176737707170721 0 1268.0 -0.1176737707170721 1
gene  1 10 31 -0.33100043860821726 0 1269.0 -0.33100043860821726 1
gene  1 11 31 -0.5738105148748737 0 1270.0 -0.5738105148748737 1
gene  1 12 31 -0.5891183183322234 0 1271.0 -0.5891183183322234 1
gene  1 14 31 -0.8955500046014788 0 1273.0 -0.8955500046014788 1
gene  1 18 31 -0.4048282782540462 0 1277.0 -0.4048282782540462 1
gene  1 21 31 -0.00897717291500194 0 1280.0 -0.00897717291500194 1
gene  1 23 31 0.4075184200887726 0 1282.0 0.4075184200887726 1
gene  1 24 31 -0.6067838052906511 0 1283.0 -0.6067838052906511 1
gene  1 25 31 -0.6938178322393876 0 1284.0 -0.6938178322393876 1
gene  1 26 31 -0.2796180910381422 0 1285.0 -0.2796180910381422 1
gene  1 30 31 -0.0011106925603351675 0 1289.0 -0.0011106925603351675 1
gene  1 32 31 -0.04518943253122217 1 1291.0 -0.04518943253122217 1
gene  1 34 31 0.061525462320476135 1 1293.0 0.061525462320476135 1
gene  1 36 31 0.38461810572043964 1 1295.0 0.38461810572043964 1
gene  1 38 31 -0.007802840496729562 1 1297.0 -0.007802840496729562 1
gene  1 39 31 -0.061516618257376414 1 1298.0 -0.061516618257376414 1
gene  1 40 31 0.012452334008008954 1 1299.0 0.012452334008008954 1
gene  1 41 31 0.34001933458068145 1 1300.0 0.34001933458068145 1
gene  1 1 32 -0.3014800796711406 0 1302.0 -0.3014800796711406 1
gene  1 2 32 0.003636112609100681 0 1303.0 0.003636112609100681 1
gene  1 4 32 -0.0021883532493168004 0 1305.0 -0.0021883532493168004 1
gene  1 7 32 -0.6582218996875775 0 1308.0 -0.6582218996875775 1
gene  1 9 32 -0.7376568457044625 0 1310.0 -0.7376568457044625 1
gene  1 10 32 0.12322693138313473 0 1311.0 0.12322693138313473 1
gene  1 11 32 0.6329928834814733 0 1312.0 0.6329928834814733 1
gene  1 12 32 0.14537588378500393 0 1313.0 0.14537588378500393 1
gene  1 21 32 0.9280711093534832 0 1322.0 0.9280711093534832 1
gene  1 27 32 0.6083284257931811 0 1328.0 0.6083284257931811 1
gene  1 28 32 0.16420075990169952 0 1329.0 0.16420075990169952 1
gene  1 31 32 -0.16091368761672856 0 1332.0 -0.16091368761672856 1
gene  1 35 32 -0.0037743027992584834 1 1336.0 -0.0037743027992584834 1
gene  1 37 32 -0.0025933576309539923 1 1338.0 -0.0025933576309539923 1
gene  1 39 32 -0.2913460399044091 1 1340.0 -0.2913460399044091 1
gene  1 40 32 -0.5842414264886523 1 1341.0 -0.5842414264886523 1
gene  1 41 32 -0.7922825889877801 1 1342.0 -0.7922825889877801 1
gene  1 42 32 -0.49379587308648165 1 1343.0 -0.49379587308648165 1
gene  1 1 34 0.668271343818954 0 1386.0 0.668271343818954 1
gene  1 2 34 -0.011131782905080892 0 1387.0 -0.011131782905080892 1
gene  1 4 34 0.0016220328492115386 0 1389.0 0.0016220328492115386 1
gene  1 7 34 -0.01324153853540151 0 1392.0 -0.01324153853540151 1
gene  1 9 34 0.7631455606196687 0 1394.0 0.7631455606196687 1
gene  1 12 34 -0.02403263716382112 0 1397.0 -0.02403263716382112 1
gene  1 13 34 0.8414564392896998 0 1398.0 0.8414564392896998 1
gene  1 14 34 -0.019950943651627473 0 1399.0 -0.019950943651627473 1
gene  1 15 34 8.32296448808288E-4 0 1400.0 8.32296448808288E-4 1
gene  1 20 34 0.19275182486410022 0 1405.0 0.19275182486410022 1
gene  1 21 34 -0.4776621632052762 0 1406.0 -0.4776621632052762 1
gene  1 24 34 0.03287099324226836 0 1409.0 0.03287099324226836 1
gene  1 26 34 -0.0016529516064219367 0 1411.0 -0.0016529516064219367 1
gene  1 27 34 -0.7194821856579365 0 1412.0 -0.7194821856579365 1
gene  1 31 34 -0.007858375213184792 0 1416.0 -0.007858375213184792 1
gene  1 32 34 -0.38087649213233093 0 1417.0 -0.38087649213233093 1
gene  1 35 34 -0.19598380915871277 1 1420.0 -0.19598380915871277 1
gene  1 37 34 -0.6344690989484308 1 1422.0 -0.6344690989484308 1
gene  1 38 34 0.010021260365762712 1 1423.0 0.010021260365762712 1
gene  1 42 34 -0.28642123883191917 1 1427.0 -0.28642123883191917 1
gene  1 1 35 -0.5533402741896546 0 1428.0 -0.5533402741896546 1
gene  1 2 35 -0.1578958772192477 0 1429.0 -0.1578958772192477 1
gene  1 4 35 -0.31717666366377556 0 1431.0 -0.31717666366377556 1
gene  1 5 35 -0.46417038665283783 0 1432.0 -0.46417038665283783 1
gene  1 7 35 -0.2624329852486188 0 1434.0 -0.2624329852486188 1
gene  1 8 35 0.14171772720987721 0 1435.0 0.14171772720987721 1
gene  1 10 35 -0.4806156161819531 0 1437.0 -0.4806156161819531 1
gene  1 12 35 -0.5179193658960779 0 1439.0 -0.5179193658960779 1
gene  1 16 35 0.07284141686952586 0 1443.0 0.07284141686952586 1
gene  1 17 35 -0.30057539647483505 0 1444.0 -0.30057539647483505 1
gene  1 19 35 -0.03511540083221714 0 1446.0 -0.03511540083221714 1
gene  1 22 35 -0.35950816652591583 0 1449.0 -0.35950816652591583 1
gene  1 23 35 0.009713315474929827 0 1450.0 0.009713315474929827 1
gene  1 28 35 -0.4691199217615064 0 1455.0 -0.4691199217615064 1
gene  1 31 35 -0.6389397877774945 0 1458.0 -0.6389397877774945 1
gene  1 37 35 -0.3281370714986185 1 1464.0 -0.3281370714986185 1
gene  1 38 35 0.4356431620481416 1 1465.0 0.4356431620481416 1
gene  1 1 36 0.9435983769307585 0 1470.0 0.9435983769307585 1
gene  1 2 36 -0.5276784684063334 0 1471.0 -0.5276784684063334 1
gene  1 3 36 0.02071642831956997 0 1472.0 0.02071642831956997 1
gene  1 4 36 0.10726168444591233 0 1473.0 0.10726168444591233 1
gene  1 5 36 -0.6142772085053954 0 1474.0 -0.6142772085053954 1
gene  1 6 36 0.9605256541482246 0 1475.0 0.9605256541482246 1
gene  1 8 36 0.003863199625019912 0 1477.0 0.003863199625019912 1
gene  1 10 36 -0.02416097240786787 0 1479.0 -0.02416097240786787 1
gene  1 11 36 -0.26730921288562554 0 1480.0 -0.26730921288562554 1
gene  1 13 36 0.011659084005608805 0 1482.0 0.011659084005608805 1
gene  1 14 36 0.0031128404985237427 0 1483.0 0.0031128404985237427 1
gene  1 15 36 0.8424527782565542 0 1484.0 0.8424527782565542 1
gene  1 17 36 -0.3806375362723061 0 1486.0 -0.3806375362723061 1
gene  1 18 36 0.8799009768955085 0 1487.0 0.8799009768955085 1
gene  1 20 36 -0.4655155004697622 0 1489.0 -0.4655155004697622 1
gene  1 21 36 0.32796651464853654 0 1490.0 0.32796651464853654 1
gene  1 25 36 -0.29345509457381064 0 1494.0 -0.29345509457381064 1
gene  1 28 36 -0.16733952338872987 0 1497.0 -0.16733952338872987 1
gene  1 29 36 0.34170576778742606 0 1498.0 0.34170576778742606 1
gene  1 32 36 -0.17571640827259968 0 1501.0 -0.17571640827259968 1
gene  1 36 36 0.2843099277731448 1 1505.0 0.2843099277731448 1
gene  1 37 36 -0.5768822154020676 1 1506.0 -0.5768822154020676 1
gene  1 38 36 0.7960423137616703 1 1507.0 0.7960423137616703 1
gene  1 39 36 0.06115417035063446 1 1508.0 0.06115417035063446 1
gene  1 42 36 0.36921492813358125 1 1511.0 0.36921492813358125 1
gene  1 5 37 0.20144830508955638 0 1516.0 0.20144830508955638 1
gene  1 7 37 -0.402699386144497 0 1518.0 -0.402699386144497 1
gene  1 8 37 0.570763313820241 0 1519.0 0.570763313820241 1
gene  1 10 37 -0.18310959765699655 0 1521.0 -0.18310959765699655 1
gene  1 12 37 0.5858897181790131 0 1523.0 0.5858897181790131 1
gene  1 13 37 0.20467776316835704 0 1524.0 0.20467776316835704 1
gene  1 14 37 0.8267073356613857 0 1525.0 0.8267073356613857 1
gene  1 15 37 -0.25595244089268904 0 1526.0 -0.25595244089268904 1
gene  1 18 37 0.008648574830137272 0 1529.0 0.008648574830137272 1
gene  1 20 37 -0.018278172876432908 0 1531.0 -0.018278172876432908 1
gene  1 21 37 -0.053396907503897834 0 1532.0 -0.053396907503897834 1
gene  1 24 37 0.006703315874778403 0 1535.0 0.006703315874778403 1
gene  1 28 37 -0.933066092072841 0 1539.0 -0.933066092072841 1
gene  1 30 37 0.013630250478925176 0 1541.0 0.013630250478925176 1
gene  1 34 37 -0.14241313417817678 0 1545.0 -0.14241313417817678 1
gene  1 36 37 -0.76040179883008 0 1547.0 -0.76040179883008 1
gene  1 38 37 -0.009733390203210889 1 1549.0 -0.009733390203210889 1
gene  1 40 37 0.1281622629432161 1 1551.0 0.1281622629432161 1
gene  1 41 37 -0.010213845297009527 1 1552.0 -0.010213845297009527 1
gene  1 42 37 0.4274367652480794 1 1553.0 0.4274367652480794 1
gene  1 4 38 -0.520412589648861 0 1557.0 -0.520412589648861 1
gene  1 6 38 -0.01743717981139538 0 1559.0 -0.01743717981139538 1
gene  1 7 38 0.010636495457319421 0 1560.0 0.010636495457319421 1
gene  1 15 38 -0.6269610350061721 0 1568.0 -0.6269610350061721 1
gene  1 16 38 -0.019194475472788314 0 1569.0 -0.019194475472788314 1
gene  1 20 38 -0.18360614400323527 0 1573.0 -0.18360614400323527 1
gene  1 23 38 0.5202389455769959 0 1576.0 0.5202389455769959 1
gene  1 24 38 -0.29134035354559285 0 1577.0 -0.29134035354559285 1
gene  1 25 38 -0.13108128364981578 0 1578.0 -0.13108128364981578 1
gene  1 26 38 0.25753097197583463 0 1579.0 0.25753097197583463 1
gene  1 30 38 0.29118362039671725 0 1583.0 0.29118362039671725 1
gene  1 34 38 -0.046695483602751185 0 1587.0 -0.046695483602751185 1
gene  1 36 38 -0.09904129182785901 0 1589.0 -0.09904129182785901 1
gene  1 37 38 -0.7690728457313528 0 1590.0 -0.7690728457313528 1
gene  1 40 38 -0.2847815556338265 1 1593.0 -0.2847815556338265 1
gene  1 41 38 -0.5796623283672523 1 1594.0 -0.5796623283672523 1
gene  1 42 38 0.0031886488889288716 1 1595.0 0.0031886488889288716 1
gene  1 1 39 0.7895052214569056 0 1596.0 0.7895052214569056 1
gene  1 7 39 0.5603778276785619 0 1602.0 0.5603778276785619 1
gene  1 9 39 0.01300148611640686 0 1604.0 0.01300148611640686 1
gene  1 11 39 -0.46662467139475344 0 1606.0 -0.46662467139475344 1
gene  1 13 39 0.18000150270112328 0 1608.0 0.18000150270112328 1
gene  1 15 39 -0.1241165291910176 0 1610.0 -0.1241165291910176 1
gene  1 23 39 0.844957322247664 0 1618.0 0.844957322247664 1
gene  1 27 39 0.005408155710519616 0 1622.0 0.005408155710519616 1
gene  1 28 39 0.2847112507116331 0 1623.0 0.2847112507116331 1
gene  1 29 39 0.17635404294374657 0 1624.0 0.17635404294374657 1
gene  1 35 39 0.005810717586218759 0 1630.0 0.005810717586218759 1
gene  1 37 39 -0.03511144883585916 0 1632.0 -0.03511144883585916 1
gene  1 39 39 -0.01083874108912452 1 1634.0 -0.01083874108912452 1
gene  1 40 39 -0.03192118381015496 1 1635.0 -0.03192118381015496 1
gene  1 41 39 -0.10829188198491929 1 1636.0 -0.10829188198491929 1
gene  1 4 40 0.4825575293059802 0 1641.0 0.4825575293059802 1
gene  1 5 40 1.113746071659382E-5 0 1642.0 1.113746071659382E-5 1
gene  1 6 40 0.825967894797765 0 1643.0 0.825967894797765 1
gene  1 10 40 -0.4023150576987941 0 1647.0 -0.4023150576987941 1
gene  1 13 40 0.40086916764515174 0 1650.0 0.40086916764515174 1
gene  1 14 40 0.49279216617576566 0 1651.0 0.49279216617576566 1
gene  1 17 40 -0.9652921215097945 0 1654.0 -0.9652921215097945 1
gene  1 20 40 0.024267844621560772 0 1657.0 0.024267844621560772 1
gene  1 22 40 0.4213688051316523 0 1659.0 0.4213688051316523 1
gene  1 24 40 -0.8308689427419158 0 1661.0 -0.8308689427419158 1
gene  1 25 40 -0.060106711761453095 0 1662.0 -0.060106711761453095 1
gene  1 26 40 -0.19897040723468926 0 1663.0 -0.19897040723468926 1
gene  1 28 40 0.2550170350357771 0 1665.0 0.2550170350357771 1
gene  1 29 40 0.9622281141191562 0 1666.0 0.9622281141191562 1
gene  1 31 40 -0.012528813998698667 0 1668.0 -0.012528813998698667 1
gene  1 32 40 -0.013355810653329907 0 1669.0 -0.013355810653329907 1
gene  1 34 40 0.5598566399095737 0 1671.0 0.5598566399095737 1
gene  1 35 40 -0.060446061881440485 0 1672.0 -0.060446061881440485 1
gene  1 38 40 -0.04097512790831191 0 1675.0 -0.04097512790831191 1
gene  1 39 40 5.785755719092513E-4 0 1676.0 5.785755719092513E-4 1
gene  1 4 41 -0.16256224826720608 0 1683.0 -0.16256224826720608 1
gene  1 5 41 -0.14134550096024778 0 1684.0 -0.14134550096024778 1
gene  1 7 41 -0.26649373618347877 0 1686.0 -0.26649373618347877 1
gene  1 8 41 0.9433295877150817 0 1687.0 0.9433295877150817 1
gene  1 12 41 -0.4650062462055897 0 1691.0 -0.4650062462055897 1
gene  1 16 41 0.20850615154349722 0 1695.0 0.20850615154349722 1
gene  1 18 41 0.7113574204638657 0 1697.0 0.7113574204638657 1
gene  1 19 41 -0.29736690693707674 0 1698.0 -0.29736690693707674 1
gene  1 20 41 -0.00891857695709937 0 1699.0 -0.00891857695709937 1
gene  1 22 41 0.1086863945387717 0 1701.0 0.1086863945387717 1
gene  1 27 41 0.13943533351250872 0 1706.0 0.13943533351250872 1
gene  1 28 41 0.6806169728252667 0 1707.0 0.6806169728252667 1
gene  1 30 41 -0.43442468973678333 0 1709.0 -0.43442468973678333 1
gene  1 31 41 0.04128720055470527 0 1710.0 0.04128720055470527 1
gene  1 37 41 0.5041842988531574 0 1716.0 0.5041842988531574 1
gene  1 38 41 0.0737732934162361 0 1717.0 0.0737732934162361 1
gene  1 39 41 -0.2492063083803568 0 1718.0 -0.2492063083803568 1
gene  1 40 41 0.1850470987449996 0 1719.0 0.1850470987449996 1
gene  1 41 41 -0.2738687967274666 1 1720.0 -0.2738687967274666 1
gene  1 1 42 0.23613383148320408 0 1722.0 0.23613383148320408 1
gene  1 4 42 -0.40156267382158 0 1725.0 -0.40156267382158 1
gene  1 5 42 -0.49362980915837507 0 1726.0 -0.49362980915837507 1
gene  1 6 42 -0.018282137673804322 0 1727.0 -0.018282137673804322 1
gene  1 9 42 -0.5674660635616194 0 1730.0 -0.5674660635616194 1
gene  1 10 42 -0.19082102776342802 0 1731.0 -0.19082102776342802 1
gene  1 12 42 -0.10930536132217442 0 1733.0 -0.10930536132217442 1
gene  1 13 42 -0.697469971553262 0 1734.0 -0.697469971553262 1
gene  1 19 42 -0.0011368928919250412 0 1740.0 -0.0011368928919250412 1
gene  1 20 42 -0.014676236627073683 0 1741.0 -0.014676236627073683 1
gene  1 22 42 0.7773243872016299 0 1743.0 0.7773243872016299 1
gene  1 23 42 -0.16112763696125051 0 1744.0 -0.16112763696125051 1
gene  1 25 42 -0.8479175915707047 0 1746.0 -0.8479175915707047 1
gene  1 31 42 -0.6655870741930959 0 1752.0 -0.6655870741930959 1
gene  1 32 42 -0.517761605715163 0 1753.0 -0.517761605715163 1
gene  1 34 42 0.3646507183126979 0 1755.0 0.3646507183126979 1
gene  1 35 42 -0.15533647387707947 0 1756.0 -0.15533647387707947 1
gene  1 36 42 -0.3138853706202834 0 1757.0 -0.3138853706202834 1
gene  1 38 42 -0.177596855152475 0 1759.0 -0.177596855152475 1
gene  1 39 42 0.1861275859342824 0 1760.0 0.1861275859342824 1
gene  1 41 42 0.32203902165638587 0 1762.0 0.32203902165638587 1
gene  1 30 57 1.00156393943662 0 1793.0 1.00156393943662 1
gene  1 57 38 -0.0015086965585514765 0 1794.0 -0.0015086965585514765 1
gene  1 9 123 0.9948209819980921 0 1925.0 0.9948209819980921 1
gene  1 123 39 -0.11544682241161558 0 1926.0 -0.11544682241161558 1
gene  1 5 162 1.00320531513033 0 2003.0 1.00320531513033 1
gene  1 162 40 -0.5484261786014188 0 2004.0 -0.5484261786014188 1
gene  1 8 438 0.9903403926457506 0 2555.0 0.9903403926457506 1
gene  1 438 41 0.0018089254565288012 0 2556.0 0.0018089254565288012 1
gene  1 32 457 0.998216103546118 0 2593.0 0.998216103546118 1
gene  1 457 42 -0.5099843128960985 0 2594.0 -0.5099843128960985 1
gene  1 4 498 0.005630526398267874 0 2675.0 0.005630526398267874 1
gene  1 498 36 0.11434551304253551 0 2676.0 0.11434551304253551 1
gene  1 7 673 1.00728689529419 0 3025.0 1.00728689529419 1
gene  1 673 34 -0.28459508012419366 0 3026.0 -0.28459508012419366 1
gene  1 3 718 -0.007006957901469074 0 3115.0 -0.007006957901469074 1
gene  1 718 31 -0.005700997314474275 0 3116.0 -0.005700997314474275 1
gene  1 14 764 1.0114798102832168 0 3207.0 1.0114798102832168 1
gene  1 764 31 0.004512577574814246 0 3208.0 0.004512577574814246 1
gene  1 41 974 0.9904315119301313 1 3627.0 0.9904315119301313 1
gene  1 974 32 -0.0027021925420731016 0 3628.0 -0.0027021925420731016 1
gene  1 8 1019 0.9973649437692019 0 3717.0 0.9973649437692019 1
gene  1 1019 41 0.9186439179211804 0 3718.0 0.9186439179211804 1
gene  1 8 1079 0.9908087538395081 0 3837.0 0.9908087538395081 1
gene  1 1079 30 -0.7368543932555234 0 3838.0 -0.7368543932555234 1
gene  1 11 1093 1.004865091705119 0 3865.0 1.004865091705119 1
gene  1 1093 36 -0.29369262137353896 0 3866.0 -0.29369262137353896 1
gene  1 40 1129 -0.01122718907172909 1 3937.0 -0.01122718907172909 1
gene  1 1129 37 0.114737313089628 0 3938.0 0.114737313089628 1
gene  1 9 1191 1.0142857849895377 0 4061.0 1.0142857849895377 1
gene  1 1191 31 -0.11759464055491575 0 4062.0 -0.11759464055491575 1
gene  1 32 1242 1.006504758421311 1 4163.0 1.006504758421311 1
gene  1 1242 31 -0.05061370135502577 0 4164.0 -0.05061370135502577 1
gene  1 36 1285 -0.011012235378425033 1 4249.0 -0.011012235378425033 1
gene  1 1285 30 -0.38953332824724335 0 4250.0 -0.38953332824724335 1
gene  1 29 1304 1.0121678054745296 0 4287.0 1.0121678054745296 1
gene  1 1304 40 0.007841451924368744 0 4288.0 0.007841451924368744 1
gene  1 1093 1326 1.0072998000814877 0 4331.0 1.0072998000814877 1
gene  1 1326 36 -5.4537347173568874E-5 0 4332.0 -5.4537347173568874E-5 1
gene  1 20 1372 0.9848205517226426 0 4423.0 0.9848205517226426 1
gene  1 1372 40 0.03655384741913675 0 4424.0 0.03655384741913675 1
gene  1 27 1405 0.9963342399327217 0 4489.0 0.9963342399327217 1
gene  1 1405 39 0.15453689881276872 0 4490.0 0.15453689881276872 1
gene  1 31 1432 -0.016540849469324694 1 4543.0 -0.016540849469324694 1
gene  1 1432 30 0.15484584361381287 0 4544.0 0.15484584361381287 1
gene  1 14 1451 1.0063536016430192 0 4581.0 1.0063536016430192 1
gene  1 1451 34 -0.014223413267322883 0 4582.0 -0.014223413267322883 1
gene  1 17 1573 0.984442080429301 0 4825.0 0.984442080429301 1
gene  1 1573 35 -0.28997708347167367 0 4826.0 -0.28997708347167367 1
gene  1 764 1804 1.000082781947612 0 5287.0 1.000082781947612 1
gene  1 1804 31 -0.008941491211666708 0 5288.0 -0.008941491211666708 1
gene  1 34 1845 0.9867218398159412 0 5369.0 0.9867218398159412 1
gene  1 1845 37 -0.14375096566559262 0 5370.0 -0.14375096566559262 1
gene  1 20 1941 1.0050696792533893 0 5561.0 1.0050696792533893 1
gene  1 1941 37 -0.001128598593927322 0 5562.0 -0.001128598593927322 1
gene  1 9 1965 1.0118712763144817 0 5609.0 1.0118712763144817 1
gene  1 1965 42 -0.5627186748658214 0 5610.0 -0.5627186748658214 1
gene  1 29 2009 0.9984114071933567 0 5697.0 0.9984114071933567 1
gene  1 2009 39 0.16925545406025147 0 5698.0 0.16925545406025147 1
gene  1 1 2124 0.9957508626639081 0 5927.0 0.9957508626639081 1
gene  1 2124 34 0.6698235839879001 0 5928.0 0.6698235839879001 1
gene  1 38 2167 0.9999834598658667 1 6013.0 0.9999834598658667 1
gene  1 2167 37 0.003908426437979857 0 6014.0 0.003908426437979857 1
gene  1 14 2173 0.9958712410740942 0 6025.0 0.9958712410740942 1
gene  1 2173 34 -5.812028616955602E-4 0 6026.0 -5.812028616955602E-4 1
gene  1 41 2261 0.9967100230481001 1 6201.0 0.9967100230481001 1
gene  1 2261 974 0.9925620544139028 0 6202.0 0.9925620544139028 1
gene  1 8 2306 1.0011026634443214 0 6291.0 1.0011026634443214 1
gene  1 2306 30 -0.7197711414312707 0 6292.0 -0.7197711414312707 1
gene  1 26 2313 0.9904994983125067 0 6305.0 0.9904994983125067 1
gene  1 2313 40 -0.20676011162378516 0 6306.0 -0.20676011162378516 1
gene  1 12 2372 1.0026650882924706 0 6423.0 1.0026650882924706 1
gene  1 2372 31 -0.6033565428052284 0 6424.0 -0.6033565428052284 1
gene  1 1804 2383 0.9964561278389312 0 6445.0 0.9964561278389312 1
gene  1 2383 31 -0.01131497090087869 0 6446.0 -0.01131497090087869 1
gene  1 35 2432 1.0063656413224056 1 6543.0 1.0063656413224056 1
gene  1 2432 30 0.2709269876879972 0 6544.0 0.2709269876879972 1
gene  1 10 2545 0.9967373005116881 0 6769.0 0.9967373005116881 1
gene  1 2545 32 0.15015422804945555 0 6770.0 0.15015422804945555 1
gene  1 8 2578 1.005466960572784 0 6835.0 1.005466960572784 1
gene  1 2578 2306 0.9888150395012831 0 6836.0 0.9888150395012831 1
gene  1 13 2668 1.010032100777946 0 7015.0 1.010032100777946 1
gene  1 2668 36 -0.005397601927111855 0 7016.0 -0.005397601927111855 1
gene  1 5 2724 1.0029715540972268 0 7127.0 1.0029715540972268 1
gene  1 2724 42 -0.49203006346603007 0 7128.0 -0.49203006346603007 1
gene  1 4 2753 1.0012733868531438 0 7185.0 1.0012733868531438 1
gene  1 2753 40 0.505133909886258 0 7186.0 0.505133909886258 1
gene  1 23 2815 1.003143707607694 0 7309.0 1.003143707607694 1
gene  1 2815 29 0.12432263194508666 0 7310.0 0.12432263194508666 1
gene  1 498 2876 1.0008002956691924 0 7431.0 1.0008002956691924 1
gene  1 2876 36 0.11527540641345363 0 7432.0 0.11527540641345363 1
gene  1 4 2974 0.989921860173935 0 7627.0 0.989921860173935 1
gene  1 2974 36 0.10504183691673002 0 7628.0 0.10504183691673002 1
gene  1 42 3000 1.0007950383672701 1 7679.0 1.0007950383672701 1
gene  1 3000 37 0.44162596922570285 0 7680.0 0.44162596922570285 1
gene  1 15 3104 0.9924846543418492 0 7887.0 0.9924846543418492 1
gene  1 3104 36 0.8347028773686813 0 7888.0 0.8347028773686813 1
gene  1 1326 3126 0.9961099149430768 0 7931.0 0.9961099149430768 1
gene  1 3126 36 -0.002911491968146015 0 7932.0 -0.002911491968146015 1
gene  1 2313 3143 0.9892680239128917 0 7965.0 0.9892680239128917 1
gene  1 3143 40 -0.2048385302054245 0 7966.0 -0.2048385302054245 1
gene  1 16 3228 1.0167563623624893 0 8135.0 1.0167563623624893 1
gene  1 3228 35 0.05976578558342615 0 8136.0 0.05976578558342615 0
gene  1 30 3344 1.0037322603420211 0 8367.0 1.0037322603420211 1
gene  1 3344 41 -0.4135061278027322 0 8368.0 -0.4135061278027322 1
gene  1 1 3353 0.9957219215031363 0 8385.0 0.9957219215031363 1
gene  1 3353 36 0.9493191139407838 0 8386.0 0.9493191139407838 1
gene  1 26 3423 0.9965004909208535 0 8525.0 0.9965004909208535 1
gene  1 3423 2313 0.9854939838551843 0 8526.0 0.9854939838551843 1
gene  1 4 3460 0.9902636981297025 0 8599.0 0.9902636981297025 1
gene  1 3460 29 -0.4532340470684374 0 8600.0 -0.4532340470684374 0
gene  1 38 3511 1.0072005779250546 0 8701.0 1.0072005779250546 1
gene  1 3511 41 0.08691815194564508 0 8702.0 0.08691815194564508 1
gene  1 1 3574 0.9880484201443748 0 8827.0 0.9880484201443748 1
gene  1 3574 35 -0.5679377683286465 0 8828.0 -0.5679377683286465 1
gene  1 39 3600 0.9834165243770552 0 8879.0 0.9834165243770552 1
gene  1 3600 40 9.272253681053277E-4 0 8880.0 9.272253681053277E-4 1
gene  1 2815 3803 0.9978196088909969 0 9285.0 0.9978196088909969 1
gene  1 3803 29 -0.01981659025156618 0 9286.0 -0.01981659025156618 1
gene  1 27 3828 0.9931822708068326 0 9335.0 0.9931822708068326 1
gene  1 3828 32 0.6113013899169409 0 9336.0 0.6113013899169409 1
gene  1 19 3872 -0.002880975294918366 0 9423.0 -0.002880975294918366 1
gene  1 3872 35 -0.04308845466846416 0 9424.0 -0.04308845466846416 1
gene  1 3104 4010 1.002153685611942 0 9699.0 1.002153685611942 1
gene  1 4010 36 0.0037182144896301403 0 9700.0 0.0037182144896301403 1
gene  1 19 4046 -0.010136505926615084 0 9771.0 -0.010136505926615084 1
gene  1 4046 29 -0.31918534642892776 0 9772.0 -0.31918534642892776 1
gene  1 4 4110 1.0041321070555946 0 9899.0 1.0041321070555946 1
gene  1 4110 42 -0.4050896709796159 0 9900.0 -0.4050896709796159 1
gene  1 35 4169 1.0055934507109785 0 10017.0 1.0055934507109785 1
gene  1 4169 39 0.010453369520656898 0 10018.0 0.010453369520656898 1
gene  1 25 4262 0.9927280926722446 0 10203.0 0.9927280926722446 1
gene  1 4262 36 -0.2915949953245901 0 10204.0 -0.2915949953245901 1
gene  1 1304 4287 -0.0037372829044864265 0 10253.0 -0.0037372829044864265 1
gene  1 4287 40 -8.462774992887951E-5 0 10254.0 -8.462774992887951E-5 1
gene  1 5 4307 1.0060412411372663 0 10293.0 1.0060412411372663 1
gene  1 4307 30 0.16590400303234132 0 10294.0 0.16590400303234132 1
gene  1 29 4336 0.015106626034961285 0 10351.0 0.015106626034961285 1
gene  1 4336 1304 1.0004287640584932 0 10352.0 1.0004287640584932 1
gene  1 24 4491 0.9915533438246489 0 10661.0 0.9915533438246489 1
gene  1 4491 34 -0.013971842699062046 0 10662.0 -0.013971842699062046 1
gene  1 20 4567 0.009967643937490916 0 10813.0 0.009967643937490916 1
gene  1 4567 36 -0.46824619847511373 0 10814.0 -0.46824619847511373 1
gene  1 38 4656 -0.0028953977125591303 0 10991.0 -0.0028953977125591303 1
gene  1 4656 42 -0.17944615542769132 0 10992.0 -0.17944615542769132 1
gene  1 1 4702 0.9845156609906901 0 11083.0 0.9845156609906901 1
gene  1 4702 36 0.9342727226605018 0 11084.0 0.9342727226605018 1
gene  1 3104 4794 0.9985007605805731 0 11267.0 0.9985007605805731 1
gene  1 4794 4010 1.0029725345768083 0 11268.0 1.0029725345768083 1
gene  1 39 4808 1.0043442743216058 0 11295.0 1.0043442743216058 1
gene  1 4808 40 7.564003569352166E-4 0 11296.0 7.564003569352166E-4 1
gene  1 1405 4911 1.0178460942707663 0 11501.0 1.0178460942707663 1
gene  1 4911 39 0.15581245023235735 0 11502.0 0.15581245023235735 1
gene  1 17 4938 0.9923934892441888 0 11555.0 0.9923934892441888 1
gene  1 4938 36 0.017726401298164975 0 11556.0 0.017726401298164975 1
gene  1 4656 4985 1.0031881817358457 0 11649.0 1.0031881817358457 1
gene  1 4985 42 -0.16374769598403738 0 11650.0 -0.16374769598403738 1
gene  1 40 5081 1.0027330218199388 0 11841.0 1.0027330218199388 1
gene  1 5081 41 0.18588548719072592 0 11842.0 0.18588548719072592 1
gene  1 16 5119 1.0000611202859797 0 11917.0 1.0000611202859797 1
gene  1 5119 41 0.23084318084371147 0 11918.0 0.23084318084371147 1
gene  1 4 5126 0.9834281690932034 0 11931.0 0.9834281690932034 1
gene  1 5126 36 0.004703842908571442 0 11932.0 0.004703842908571442 1
gene  1 29 5260 0.9985565366437388 0 12199.0 0.9985565366437388 1
gene  1 5260 4336 1.0043052003630335 0 12200.0 1.0043052003630335 1
gene  1 3143 5442 0.9973663874491129 0 12563.0 0.9973663874491129 1
gene  1 5442 40 -0.20014951288594973 0 12564.0 -0.20014951288594973 1
gene  1 1093 5465 1.0087591482005909 0 12609.0 1.0087591482005909 1
gene  1 5465 36 -0.28474403879297294 0 12610.0 -0.28474403879297294 1
gene  1 18 5492 0.9950415709922812 0 12663.0 0.9950415709922812 1
gene  1 5492 37 0.010219238109929868 0 12664.0 0.010219238109929868 1
gene  1 1 5528 0.9896621311466116 0 12735.0 0.9896621311466116 1
gene  1 5528 3353 0.9917163853609627 0 12736.0 0.9917163853609627 1
gene  1 20 5579 0.9998151473795989 0 12837.0 0.9998151473795989 1
gene  1 5579 4567 0.011297798057747062 0 12838.0 0.011297798057747062 1
gene  1 29 5609 1.0190631155878307 0 12897.0 1.0190631155878307 1
gene  1 5609 39 0.16048082331616614 0 12898.0 0.16048082331616614 1
gene  1 24 5742 0.9970285207985679 0 13163.0 0.9970285207985679 1
gene  1 5742 40 -0.8268523285755351 0 13164.0 -0.8268523285755351 1
gene  1 4307 5823 1.0053808633046128 0 13325.0 1.0053808633046128 1
gene  1 5823 30 0.15743205408576494 0 13326.0 0.15743205408576494 1
gene  1 5609 6023 0.9996125670877831 0 13725.0 0.9996125670877831 1
gene  1 6023 39 0.16477989251355854 0 13726.0 0.16477989251355854 1
gene  1 32 6101 0.9910789319362957 0 13881.0 0.9910789319362957 1
gene  1 6101 40 -0.005687850702730273 0 13882.0 -0.005687850702730273 1
gene  1 9 6346 1.0026921711855603 0 14371.0 1.0026921711855603 1
gene  1 6346 31 -0.009071128375520975 0 14372.0 -0.009071128375520975 1
gene  1 4 6400 0.9960654879314756 0 14479.0 0.9960654879314756 1
gene  1 6400 29 -0.43725046739769097 0 14480.0 -0.43725046739769097 1
gene  1 41 6527 1.004245542185751 0 14733.0 1.004245542185751 1
gene  1 6527 42 0.3108047856394814 0 14734.0 0.3108047856394814 1
gene  1 10 6580 2.2738293546717067E-4 0 14839.0 2.2738293546717067E-4 1
gene  1 6580 37 -0.18952058380246298 0 14840.0 -0.18952058380246298 1
gene  1 6 6679 0.9942037059921665 0 15037.0 0.9942037059921665 1
gene  1 6679 36 0.9440014445527708 0 15038.0 0.9440014445527708 1
gene  1 23 6841 0.9989662829249556 0 15361.0 0.9989662829249556 1
gene  1 6841 42 -0.15971655268639737 0 15362.0 -0.15971655268639737 1
gene  1 15 6865 0.996958265448782 0 15409.0 0.996958265448782 1
gene  1 6865 3104 1.0068589729217192 0 15410.0 1.0068589729217192 1
gene  1 4 6891 0.005751243251426123 0 15461.0 0.005751243251426123 1
gene  1 6891 3460 1.0031958312963025 0 15462.0 1.0031958312963025 1
gene  1 12 6992 8.186888285062139E-4 0 15663.0 8.186888285062139E-4 1
gene  1 6992 31 -0.00936320454209097 0 15664.0 -0.00936320454209097 1
gene  1 5 7045 0.011068389592915163 0 15769.0 0.011068389592915163 1
gene  1 7045 4307 1.0098821224844137 0 15770.0 1.0098821224844137 1
gene  1 4010 7145 1.0052735179581014 0 15969.0 1.0052735179581014 1
gene  1 7145 36 0.8410976406448609 0 15970.0 0.8410976406448609 1
gene  1 1 7194 1.00602263783528 0 16067.0 1.00602263783528 1
gene  1 7194 3574 -0.004454528973653806 0 16068.0 -0.004454528973653806 1
gene  1 23 7277 1.0000526858485126 0 16233.0 1.0000526858485126 1
gene  1 7277 6841 1.000127647343412 0 16234.0 1.000127647343412 1
gene  1 1304 7286 0.9973566400588926 0 16251.0 0.9973566400588926 1
gene  1 7286 4287 -0.0046682287659658706 0 16252.0 -0.0046682287659658706 1
gene  1 5 7335 1.0068341678695107 0 16349.0 1.0068341678695107 1
gene  1 7335 37 0.19667060812737522 0 16350.0 0.19667060812737522 1
gene  1 36 7486 1.0062848737695254 0 16651.0 1.0062848737695254 1
gene  1 7486 38 -0.09959471465926757 0 16652.0 -0.09959471465926757 1
gene  1 13 7657 0.9922614144657099 0 16993.0 0.9922614144657099 1
gene  1 7657 34 0.8411845674582223 0 16994.0 0.8411845674582223 1
gene  1 23 7676 1.0032835673326364 0 17031.0 1.0032835673326364 1
gene  1 7676 35 0.011346699795406779 0 17032.0 0.011346699795406779 1
gene  1 7 7724 1.0068901144963163 0 17127.0 1.0068901144963163 1
gene  1 7724 39 0.5712960815045228 0 17128.0 0.5712960815045228 1
gene  1 3 7787 1.0042942418399865 0 17253.0 1.0042942418399865 1
gene  1 7787 31 -0.6912890014517596 0 17254.0 -0.6912890014517596 1
gene  1 26 7874 1.0039736240833141 0 17427.0 1.0039736240833141 1
gene  1 7874 34 -4.325140244270734E-4 0 17428.0 -4.325140244270734E-4 1
gene  1 1941 7919 1.0047809563629901 0 17517.0 1.0047809563629901 1
gene  1 7919 37 0.003116558396482425 0 17518.0 0.003116558396482425 1
gene  1 22 7969 1.003587547361929 0 17617.0 1.003587547361929 1
gene  1 7969 40 0.4077159133906737 0 17618.0 0.4077159133906737 1
gene  1 37 8037 0.9953741264848186 1 17753.0 0.9953741264848186 1
gene  1 8037 34 -0.6382112912960969 0 17754.0 -0.6382112912960969 1
gene  1 35 8068 1.0089679569762824 1 17815.0 1.0089679569762824 1
gene  1 8068 30 0.2791214736191547 0 17816.0 0.2791214736191547 1
gene  1 35 8125 1.0006973687952863 1 17929.0 1.0006973687952863 1
gene  1 8125 2432 1.015904848786393 0 17930.0 1.015904848786393 1
gene  1 41 8195 0.9986010764687376 1 18069.0 0.9986010764687376 1
gene  1 8195 30 -0.7656638728506269 0 18070.0 -0.7656638728506269 1
gene  1 13 8210 0.9926448538248844 0 18099.0 0.9926448538248844 1
gene  1 8210 42 -0.6881189628029296 0 18100.0 -0.6881189628029296 1
gene  1 10 8235 1.0016483779320917 0 18149.0 1.0016483779320917 1
gene  1 8235 35 -0.47995370666768244 0 18150.0 -0.47995370666768244 1
gene  1 38 8331 0.9948582585701392 0 18341.0 0.9948582585701392 1
gene  1 8331 40 -0.03850075350376367 0 18342.0 -0.03850075350376367 1
gene  1 37 8352 0.9967409616695443 1 18383.0 0.9967409616695443 1
gene  1 8352 34 -0.6319851540264644 0 18384.0 -0.6319851540264644 1
gene  1 27 8591 0.9936714910051736 0 18861.0 0.9936714910051736 1
gene  1 8591 1405 1.0024996170147138 0 18862.0 1.0024996170147138 1
gene  1 32 8626 -0.003884126791791469 0 18931.0 -0.003884126791791469 1
gene  1 8626 36 -0.1756254545243334 0 18932.0 -0.1756254545243334 1
gene  1 37 8660 0.0027717058675104456 1 18999.0 0.0027717058675104456 1
gene  1 8660 34 -0.6356288540651316 0 19000.0 -0.6356288540651316 1
gene  1 4169 8702 1.003885685706367 0 19083.0 1.003885685706367 1
gene  1 8702 39 -0.002766993904917057 0 19084.0 -0.002766993904917057 1
gene  1 15 8902 1.0 0 19483.0 1.0 1
gene  1 8902 37 -0.004168720279002446 0 19484.0 -0.004168720279002446 1
gene  1 9 8914 0.006496578058087801 0 19507.0 0.006496578058087801 1
gene  1 8914 34 -0.007689777961472896 0 19508.0 -0.007689777961472896 1
gene  1 4336 9033 1.0 0 19745.0 1.0 1
gene  1 9033 1304 0.00397994614053576 0 19746.0 0.00397994614053576 1
gene  1 974 9124 -0.0014985338002284577 0 19927.0 -0.0014985338002284577 1
gene  1 9124 32 0.009591862037588956 0 19928.0 0.009591862037588956 1
gene  1 3803 9235 1.0065438742767485 0 20149.0 1.0065438742767485 1
gene  1 9235 29 -0.005707733800388692 0 20150.0 -0.005707733800388692 1
gene  1 39 9295 1.0079208697903168 1 20269.0 1.0079208697903168 1
gene  1 9295 31 -0.054860066048659395 0 20270.0 -0.054860066048659395 1
gene  1 2383 9389 -0.0079898405861829 0 20457.0 -0.0079898405861829 1
gene  1 9389 31 -0.011431790380546248 0 20458.0 -0.011431790380546248 1
gene  1 41 9735 1.008749311859509 0 21149.0 1.008749311859509 1
gene  1 9735 42 0.3297483142014742 0 21150.0 0.3297483142014742 1
gene  1 7045 10101 0.008030788245830337 0 21881.0 0.008030788245830337 1
gene  1 10101 4307 1.0068783343817012 0 21882.0 1.0068783343817012 1
gene  1 6 10209 -0.007704540512013761 0 22097.0 -0.007704540512013761 1
gene  1 10209 31 -0.005295605631748 0 22098.0 -0.005295605631748 1
gene  1 498 10291 1.00666191487971 0 22261.0 1.00666191487971 1
gene  1 10291 36 -0.0012312774740070532 0 22262.0 -0.0012312774740070532 1
gene  1 13 10433 1.0 0 22545.0 1.0 1
gene  1 10433 42 -0.6837519034772475 0 22546.0 -0.6837519034772475 1
gene  1 22 10459 1.0 0 22597.0 1.0 1
gene  1 10459 7969 1.0 0 22598.0 1.0 1
gene  1 29 10471 1.0 0 22621.0 1.0 1
gene  1 10471 40 0.9552134449038844 0 22622.0 0.9552134449038844 1
gene  1 3574 10480 0.00932854659033646 0 22639.0 0.00932854659033646 1
gene  1 10480 35 -0.5645823611474762 0 22640.0 -0.5645823611474762 1
gene  1 6992 10671 0.0016996535751832742 0 23021.0 0.0016996535751832742 1
gene  1 10671 31 -0.008339400158075803 0 23022.0 -0.008339400158075803 1
gene  1 7286 10743 0.008208359531380978 0 23165.0 0.008208359531380978 1
gene  1 10743 4287 -0.007075436044422016 0 23166.0 -0.007075436044422016 1
gene  1 11 10853 1.0 0 23385.0 1.0 1
gene  1 10853 32 0.6243348126883408 0 23386.0 0.6243348126883408 1
gene  1 42 10872 1.0 1 23423.0 1.0 1
gene  1 10872 38 -0.0019651880667187777 0 23424.0 -0.0019651880667187777 1
gene  1 57 10878 1.0 0 23435.0 1.0 1
gene  1 10878 38 -8.144158896909205E-5 0 23436.0 -8.144158896909205E-5 1
gene  1 13 10930 1.0015801085684846 0 23539.0 1.0015801085684846 1
gene  1 10930 30 0.09737488924634476 0 23540.0 0.09737488924634476 1
gene  1 7676 10963 0.007191178828273772 0 23605.0 0.007191178828273772 1
gene  1 10963 35 0.00475174864699853 0 23606.0 0.00475174864699853 1
gene  1 31 10990 1.0060142624652022 1 23659.0 1.0060142624652022 1
gene  1 10990 1432 -0.007051521008990726 0 23660.0 -0.007051521008990726 1
gene  1 21 11015 1.0 0 23709.0 1.0 1
gene  1 11015 36 0.3214164135543654 0 23710.0 0.3214164135543654 1
gene  1 2876 11062 1.0 0 23803.0 1.0 1
gene  1 11062 36 0.11785855637200725 0 23804.0 0.11785855637200725 1
gene  1 41 11123 0.9941813052128847 0 23925.0 0.9941813052128847 1
gene  1 11123 6527 -0.00399785924736572 0 23926.0 -0.00399785924736572 1
gene  1 2432 11142 1.0 0 23963.0 1.0 1
gene  1 11142 30 0.2638707378850703 0 23964.0 0.2638707378850703 1
gene  1 3143 11270 0.0034425339118779054 0 24219.0 0.0034425339118779054 1
gene  1 11270 5442 1.0052107410015287 0 24220.0 1.0052107410015287 1
gene  1 2876 11333 1.0019254238124757 0 24345.0 1.0019254238124757 1
gene  1 11333 36 0.10576972763750037 0 24346.0 0.10576972763750037 1
gene  1 1804 11396 0.9990678980265104 0 24471.0 0.9990678980265104 1
gene  1 11396 2383 1.0084186284019838 0 24472.0 1.0084186284019838 1
gene  1 40 11418 1.0028313728230902 1 24515.0 1.0028313728230902 1
gene  1 11418 1129 -0.01128326182683248 0 24516.0 -0.01128326182683248 1
gene  1 27 11584 1.0081024585872862 0 24847.0 1.0081024585872862 1
gene  1 11584 8591 1.0095447812031288 0 24848.0 1.0095447812031288 1
gene  1 3803 11729 1.0 0 25137.0 1.0 1
gene  1 11729 29 -0.010098098657390505 0 25138.0 -0.010098098657390505 1
gene  1 32 11758 1.0 0 25195.0 1.0 1
gene  1 11758 42 -0.006653004254757941 0 25196.0 -0.006653004254757941 1
gene  1 5119 11796 0.9970524207255971 0 25271.0 0.9970524207255971 1
gene  1 11796 41 0.22151125563585286 0 25272.0 0.22151125563585286 1
gene  1 7286 11827 1.0063085095312478 0 25333.0 1.0063085095312478 1
gene  1 11827 10743 0.0030298395770577413 0 25334.0 0.0030298395770577413 1
gene  1 29 11948 1.0021613903791262 0 25575.0 1.0021613903791262 1
gene  1 11948 4336 0.00979765558818978 0 25576.0 0.00979765558818978 1
gene  1 3872 11969 1.004304216673738 0 25617.0 1.004304216673738 1
gene  1 11969 35 -0.056626532045565066 0 25618.0 -0.056626532045565066 1
gene  1 35 12200 1.0 1 26079.0 1.0 1
gene  1 12200 8125 0.9906456763419549 0 26080.0 0.9906456763419549 1
gene  1 4110 12240 0.0017816030141607298 0 26159.0 0.0017816030141607298 1
gene  1 12240 42 -0.40696114063269934 0 26160.0 -0.40696114063269934 1
gene  1 162 12433 1.0 0 26545.0 1.0 1
gene  1 12433 40 -0.544597116151519 0 26546.0 -0.544597116151519 1
gene  1 7286 12504 1.0 0 26687.0 1.0 1
gene  1 12504 10743 0.9995124706573392 0 26688.0 0.9995124706573392 1
gene  1 38 12628 0.9986062308709572 1 26935.0 0.9986062308709572 1
gene  1 12628 37 -0.004731582532061879 0 26936.0 -0.004731582532061879 1
gene  1 3143 12777 1.009383646980655 0 27233.0 1.009383646980655 1
gene  1 12777 11270 1.0 0 27234.0 1.0 1
gene  1 5119 12932 1.0 0 27543.0 1.0 1
gene  1 12932 41 0.22151125563585286 0 27544.0 0.22151125563585286 1
gene  1 29 12985 1.0001183013616708 0 27649.0 1.0001183013616708 1
gene  1 12985 40 -0.00545043415643852 0 27650.0 -0.00545043415643852 1
gene  1 40 13052 -0.0045472202179387316 1 27783.0 -0.0045472202179387316 1
gene  1 13052 11418 1.0 0 27784.0 1.0 1
gene  1 27 13086 1.0090999505793983 0 27851.0 1.0090999505793983 1
gene  1 13086 39 0.00962266963425107 0 27852.0 0.00962266963425107 1
gene  1 15 13192 0.9984181023817277 0 28063.0 0.9984181023817277 1
gene  1 13192 39 -0.13045528363085854 0 28064.0 -0.13045528363085854 1
gene  1 13192 13221 0.001685441157168439 0 28121.0 0.001685441157168439 1
gene  1 13221 39 -0.12539302748858316 0 28122.0 -0.12539302748858316 1
gene  1 10743 13260 1.0 0 28199.0 1.0 1
gene  1 13260 4287 -0.002053097593179457 0 28200.0 -0.002053097593179457 1
gene  1 41 13303 1.000028738814058 0 28285.0 1.000028738814058 1
gene  1 13303 9735 1.003268791798793 0 28286.0 1.003268791798793 1
gene  1 2313 13382 1.0018798375866798 0 28443.0 1.0018798375866798 1
gene  1 13382 40 -0.20940156251380354 0 28444.0 -0.20940156251380354 1
gene  1 31 13438 1.0 1 28555.0 1.0 1
gene  1 13438 1432 0.0016177532099601964 0 28556.0 0.0016177532099601964 1
gene  1 4656 13530 1.002292557188843 0 28739.0 1.002292557188843 1
gene  1 13530 42 -0.17600780874165453 0 28740.0 -0.17600780874165453 1
gene  1 1 13552 1.0 0 28783.0 1.0 1
gene  1 13552 36 0.9406677041582271 0 28784.0 0.9406677041582271 1
gene  1 7 13639 0.9999836744204762 0 28957.0 0.9999836744204762 1
gene  1 13639 37 -0.4136004033528394 0 28958.0 -0.4136004033528394 1
gene  1 21 13669 1.0038086553139471 0 29017.0 1.0038086553139471 1
gene  1 13669 11015 1.0 0 29018.0 1.0 1
gene  1 27 13685 1.0 0 29049.0 1.0 1
gene  1 13685 11584 1.0 0 29050.0 1.0 1
gene  1 1079 13758 1.0 0 29195.0 0.0 1
gene  1 13758 30 -0.7368543932555234 0 29196.0 0.0 1
gene  1 29 13772 1.0 1 29223.0 0.0 1
gene  1 13772 29 -0.34159699278432076 0 29224.0 0.0 1
gene  1 3423 13895 1.0 0 29469.0 0.0 1
gene  1 13895 2313 0.9854939838551843 0 29470.0 0.0 1
gene  1 37 13943 1.0 0 29565.0 0.0 1
gene  1 13943 41 0.5041842988531574 0 29566.0 0.0 1
gene  1 1 14066 1.0 0 29811.0 0.0 1
gene  1 14066 3574 0.9880484201443748 0 29812.0 0.0 1
gene  1 41 14126 1.0 0 29931.0 0.0 1
gene  1 14126 6527 1.004245542185751 0 29932.0 0.0 1
gene  1 1093 14136 1.0 0 29951.0 0.0 1
gene  1 14136 5465 1.0087591482005909 0 29952.0 0.0 1
gene  1 5579 14179 1.0 0 30037.0 0.0 1
gene  1 14179 4567 0.011297798057747062 0 30038.0 0.0 1
gene  1 3228 14274 1.0 0 30227.0 0.0 1
gene  1 14274 35 0.05976578558342615 0 30228.0 0.0 1
gene  1 1 14365 1.0 0 30409.0 0.0 1
gene  1 14365 35 -0.5533402741896546 0 30410.0 0.0 1
gene  1 16 14487 1.0 0 30653.0 0.0 1
gene  1 14487 5119 1.0000611202859797 0 30654.0 0.0 1
gene  1 11396 14512 1.0 0 30703.0 0.0 1
gene  1 14512 2383 1.0084186284019838 0 30704.0 0.0 1
gene  1 7 14584 1.0 0 30847.0 0.0 1
gene  1 14584 41 -0.26649373618347877 0 30848.0 0.0 1
gene  1 3460 14689 1.0 0 31057.0 0.0 1
gene  1 14689 29 -0.4532340470684374 0 31058.0 0.0 1
genomeend 0
/* Organism # 001 Fitness:  0.000 Error:  0.000                      */
genomestart  1
trait 1 0.0 0.0 0.0 0.0 0.0 0.0 0.0 0.0 
node 1 1 1 1
node 2 1 1 1
node 3 1 1 1
node 4 1 1 1
node 5 1 1 1
node 6 1 1 1
node 7 1 1 1
node 8 1 1 1
node 9 1 1 1
node 10 1 1 1
node 11 1 1 1
node 12 1 1 1
node 13 1 1 1
node 14 1 1 1
node 15 1 1 1
node 16 1 1 1
node 17 1 1 1
node 18 1 1 1
node 19 1 1 1
node 20 1 1 1
node 21 1 1 1
node 22 1 1 1
node 23 1 1 1
node 24 1 1 1
node 25 1 1 1
node 26 1 1 1
node 27 1 1 1
node 28 1 1 3
node 29 1 0 0
node 30 1 0 0
node 31 1 0 0
node 32 1 0 0
node 34 1 0 2
node 35 1 0 2
node 36 1 0 2
node 37 1 0 2
node 38 1 0 2
node 39 1 0 2
node 40 1 0 2
node 41 1 0 2
node 42 1 0 2
node 57 1 0 0
node 123 1 0 0
node 162 1 0 0
node 438 1 0 0
node 457 1 0 0
node 498 1 0 0
node 673 1 0 0
node 718 1 0 0
node 764 1 0 0
node 974 1 0 0
node 1019 1 0 0
node 1079 1 0 0
node 1093 1 0 0
node 1129 1 0 0
node 1191 1 0 0
node 1242 1 0 0
node 1285 1 0 0
node 1304 1 0 0
node 1326 1 0 0
node 1372 1 0 0
node 1405 1 0 0
node 1432 1 0 0
node 1451 1 0 0
node 1573 1 0 0
node 1804 1 0 0
node 1845 1 0 0
node 1941 1 0 0
node 1965 1 0 0
node 2009 1 0 0
node 2124 1 0 0
node 2167 1 0 0
node 2173 1 0 0
node 2261 1 0 0
node 2306 1 0 0
node 2313 1 0 0
node 2372 1 0 0
node 2383 1 0 0
node 2432 1 0 0
node 2545 1 0 0
node 2578 1 0 0
node 2668 1 0 0
node 2724 1 0 0
node 2753 1 0 0
node 2815 1 0 0
node 2876 1 0 0
node 2974 1 0 0
node 3000 1 0 0
node 3104 1 0 0
node 3126 1 0 0
node 3143 1 0 0
node 3228 1 0 0
node 3344 1 0 0
node 3353 1 0 0
node 3423 1 0 0
node 3460 1 0 0
node 3511 1 0 0
node 3574 1 0 0
node 3600 1 0 0
node 3803 1 0 0
node 3828 1 0 0
node 3872 1 0 0
node 4010 1 0 0
node 4046 1 0 0
node 4110 1 0 0
node 4169 1 0 0
node 4262 1 0 0
node 4287 1 0 0
node 4307 1 0 0
node 4336 1 0 0
node 4491 1 0 0
node 4567 1 0 0
node 4656 1 0 0
node 4702 1 0 0
node 4794 1 0 0
node 4808 1 0 0
node 4911 1 0 0
node 4938 1 0 0
node 4985 1 0 0
node 5081 1 0 0
node 5119 1 0 0
node 5126 1 0 0
node 5260 1 0 0
node 5442 1 0 0
node 5465 1 0 0
node 5492 1 0 0
node 5528 1 0 0
node 5579 1 0 0
node 5609 1 0 0
node 5742 1 0 0
node 5823 1 0 0
node 6023 1 0 0
node 6101 1 0 0
node 6346 1 0 0
node 6400 1 0 0
node 6527 1 0 0
node 6580 1 0 0
node 6679 1 0 0
node 6841 1 0 0
node 6865 1 0 0
node 6891 1 0 0
node 6992 1 0 0
node 7045 1 0 0
node 7145 1 0 0
node 7194 1 0 0
node 7277 1 0 0
node 7286 1 0 0
node 7335 1 0 0
node 7486 1 0 0
node 7657 1 0 0
node 7676 1 0 0
node 7724 1 0 0
node 7787 1 0 0
node 7874 1 0 0
node 7919 1 0 0
node 7969 1 0 0
node 8037 1 0 0
node 8068 1 0 0
node 8125 1 0 0
node 8195 1 0 0
node 8210 1 0 0
node 8235 1 0 0
node 8331 1 0 0
node 8352 1 0 0
node 8591 1 0 0
node 8626 1 0 0
node 8660 1 0 0
node 8702 1 0 0
node 8902 1 0 0
node 8914 1 0 0
node 9033 1 0 0
node 9124 1 0 0
node 9235 1 0 0
node 9295 1 0 0
node 9389 1 0 0
node 9735 1 0 0
node 10101 1 0 0
node 10209 1 0 0
node 10291 1 0 0
node 10433 1 0 0
node 10459 1 0 0
node 10471 1 0 0
node 10480 1 0 0
node 10671 1 0 0
node 10743 1 0 0
node 10853 1 0 0
node 10872 1 0 0
node 10878 1 0 0
node 10930 1 0 0
node 10963 1 0 0
node 10990 1 0 0
node 11015 1 0 0
node 11062 1 0 0
node 11123 1 0 0
node 11142 1 0 0
node 11270 1 0 0
node 11333 1 0 0
node 11396 1 0 0
node 11418 1 0 0
node 11584 1 0 0
node 11729 1 0 0
node 11758 1 0 0
node 11796 1 0 0
node 11827 1 0 0
node 11948 1 0 0
node 11969 1 0 0
node 12200 1 0 0
node 12240 1 0 0
node 12433 1 0 0
node 12504 1 0 0
node 12628 1 0 0
node 12777 1 0 0
node 12932 1 0 0
node 12985 1 0 0
node 13052 1 0 0
node 13086 1 0 0
node 13192 1 0 0
node 13221 1 0 0
node 13260 1 0 0
node 13303 1 0 0
node 13382 1 0 0
node 13438 1 0 0
node 13530 1 0 0
node 13552 1 0 0
node 13639 1 0 0
node 13669 1 0 0
node 13685 1 0 0
node 13758 1 0 0
node 13772 1 0 0
node 13895 1 0 0
node 13943 1 0 0
node 14066 1 0 0
node 14126 1 0 0
node 14136 1 0 0
node 14179 1 0 0
node 14274 1 0 0
node 14365 1 0 0
node 14487 1 0 0
node 14512 1 0 0
node 14584 1 0 0
node 14689 1 0 0
gene  1 2 29 0.50213994257206 0 1177.0 0.50213994257206 1
gene  1 3 29 0.7950006695086371 0 1178.0 0.7950006695086371 1
gene  1 4 29 -0.44661862989883894 0 1179.0 -0.44661862989883894 1
gene  1 5 29 0.05014779714124997 0 1180.0 0.05014779714124997 1
gene  1 7 29 -0.002859576966509924 0 1182.0 -0.002859576966509924 1
gene  1 10 29 -0.4874278197810247 0 1185.0 -0.4874278197810247 1
gene  1 12 29 -0.040258060092807094 0 1187.0 -0.040258060092807094 1
gene  1 15 29 0.7701703313340875 0 1190.0 0.7701703313340875 1
gene  1 16 29 -0.38502927101705164 0 1191.0 -0.38502927101705164 1
gene  1 18 29 -0.009805627783145353 0 1193.0 -0.009805627783145353 1
gene  1 19 29 -0.322868800570024 0 1194.0 -0.322868800570024 1
gene  1 20 29 0.49223006748277415 0 1195.0 0.49223006748277415 1
gene  1 23 29 0.11407390862925769 0 1198.0 0.11407390862925769 1
gene  1 24 29 0.01812508789903905 0 1199.0 0.01812508789903905 1
gene  1 25 29 -0.2650705047504174 0 1200.0 -0.2650705047504174 1
gene  1 26 29 0.9759622557028279 0 1201.0 0.9759622557028279 1
gene  1 28 29 -0.4139077786330781 0 1203.0 -0.4139077786330781 1
gene  1 29 29 -0.34159699278432076 1 1204.0 -0.34159699278432076 1
gene  1 32 29 0.38615020279510304 1 1207.0 0.38615020279510304 1
gene  1 35 29 -0.08561103201298145 1 1210.0 -0.08561103201298145 1
gene  1 38 29 -0.08424180794803122 1 1213.0 -0.08424180794803122 1
gene  1 39 29 -0.2682438772448227 1 1214.0 -0.2682438772448227 1
gene  1 41 29 -0.0119170800140804 1 1216.0 -0.0119170800140804 1
gene  1 2 30 -0.2517417276725068 0 1219.0 -0.2517417276725068 1
gene  1 4 30 -0.4460940489287399 0 1221.0 -0.4460940489287399 1
gene  1 5 30 0.15046529695985467 0 1222.0 0.15046529695985467 1
gene  1 7 30 0.0011566337822639496 0 1224.0 0.0011566337822639496 1
gene  1 8 30 -0.7317687970530955 0 1225.0 -0.7317687970530955 1
gene  1 10 30 -0.09214682315642486 0 1227.0 -0.09214682315642486 1
gene  1 11 30 -0.6641385179358604 0 1228.0 -0.6641385179358604 1
gene  1 13 30 0.11168095933273064 0 1230.0 0.11168095933273064 1
gene  1 14 30 0.9625142818502175 0 1231.0 0.9625142818502175 1
gene  1 16 30 0.1756646842818527 0 1233.0 0.1756646842818527 1
gene  1 19 30 0.6614065863286622 0 1236.0 0.6614065863286622 1
gene  1 22 30 0.0031844350531285825 0 1239.0 0.0031844350531285825 1
gene  1 28 30 -0.6097388698179241 0 1245.0 -0.6097388698179241 1
gene  1 31 30 0.13931213224038685 1 1248.0 0.13931213224038685 1
gene  1 32 30 0.9885125679375338 1 1249.0 0.9885125679375338 1
gene  1 35 30 0.2675784952456543 1 1252.0 0.2675784952456543 1
gene  1 36 30 0.0021055673359193696 1 1253.0 0.0021055673359193696 1
gene  1 37 30 -0.5236719718195539 1 1254.0 -0.5236719718195539 1
gene  1 38 30 -0.355847643931557 1 1255.0 -0.355847643931557 1
gene  1 39 30 0.17338396490949226 1 1256.0 0.17338396490949226 1
gene  1 40 30 -0.012651901580019114 1 1257.0 -0.012651901580019114 1
gene  1 41 30 -0.7713162476522792 1 1258.0 -0.7713162476522792 1
gene  1 1 31 -0.8214353173318314 0 1260.0 -0.8214353173318314 1
gene  1 2 31 -0.29091560880347744 0 1261.0 -0.29091560880347744 1
gene  1 3 31 -0.6851463355169198 0 1262.0 -0.6851463355169198 1
gene  1 6 31 0.6704347755682317 0 1265.0 0.6704347755682317 1
gene  1 9 31 -0.1176737707170721 0 1268.0 -0.1176737707170721 1
gene  1 10 31 -0.33100043860821726 0 1269.0 -0.33100043860821726 1
gene  1 11 31 -0.5738105148748737 0 1270.0 -0.5738105148748737 1
gene  1 12 31 -0.5891183183322234 0 1271.0 -0.5891183183322234 1
gene  1 14 31 -0.8955500046014788 0 1273.0 -0.8955500046014788 1
gene  1 18 31 -0.4048282782540462 0 1277.0 -0.4048282782540462 1
gene  1 21 31 -0.00897717291500194 0 1280.0 -0.00897717291500194 1
gene  1 23 31 0.4075184200887726 0 1282.0 0.4075184200887726 1
gene  1 24 31 -0.6067838052906511 0 1283.0 -0.6067838052906511 1
gene  1 25 31 -0.6938178322393876 0 1284.0 -0.6938178322393876 1
gene  1 26 31 -0.2796180910381422 0 1285.0 -0.2796180910381422 1
gene  1 30 31 -0.0011106925603351675 0 1289.0 -0.0011106925603351675 1
gene  1 32 31 -0.04518943253122217 1 1291.0 -0.04518943253122217 1
gene  1 34 31 0.061525462320476135 1 1293.0 0.061525462320476135 1
gene  1 36 31 0.38461810572043964 1 1295.0 0.38461810572043964 1
gene  1 38 31 -0.007802840496729562 1 1297.0 -0.007802840496729562 1
gene  1 39 31 -0.061516618257376414 1 1298.0 -0.061516618257376414 1
gene  1 40 31 0.012452334008008954 1 1299.0 0.012452334008008954 1
gene  1 41 31 0.34001933458068145 1 1300.0 0.34001933458068145 1
gene  1 1 32 -0.3014800796711406 0 1302.0 -0.3014800796711406 1
gene  1 2 32 0.003636112609100681 0 1303.0 0.003636112609100681 1
gene  1 4 32 -0.0021883532493168004 0 1305.0 -0.0021883532493168004 1
gene  1 7 32 -0.6582218996875775 0 1308.0 -0.6582218996875775 1
gene  1 9 32 -0.7376568457044625 0 1310.0 -0.7376568457044625 1
gene  1 10 32 0.12322693138313473 0 1311.0 0.12322693138313473 1
gene  1 11 32 0.6329928834814733 0 1312.0 0.6329928834814733 1
gene  1 12 32 0.14537588378500393 0 1313.0 0.14537588378500393 1
gene  1 21 32 0.9280711093534832 0 1322.0 0.9280711093534832 1
gene  1 27 32 0.6083284257931811 0 1328.0 0.6083284257931811 1
gene  1 28 32 0.16420075990169952 0 1329.0 0.16420075990169952 1
gene  1 31 32 -0.16091368761672856 0 1332.0 -0.16091368761672856 1
gene  1 35 32 -0.0037743027992584834 1 1336.0 -0.0037743027992584834 1
gene  1 37 32 -0.0025933576309539923 1 1338.0 -0.0025933576309539923 1
gene  1 39 32 -0.2913460399044091 1 1340.0 -0.2913460399044091 1
gene  1 40 32 -0.5842414264886523 1 1341.0 -0.5842414264886523 1
gene  1 41 32 -0.7922825889877801 1 1342.0 -0.7922825889877801 1
gene  1 42 32 -0.49379587308648165 1 1343.0 -0.49379587308648165 1
gene  1 1 34 0.668271343818954 0 1386.0 0.668271343818954 1
gene  1 2 34 -0.011131782905080892 0 1387.0 -0.011131782905080892 1
gene  1 4 34 0.0016220328492115386 0 1389.0 0.0016220328492115386 1
gene  1 7 34 -0.01324153853540151 0 1392.0 -0.01324153853540151 1
gene  1 9 34 0.7631455606196687 0 1394.0 0.7631455606196687 1
gene  1 12 34 -0.02403263716382112 0 1397.0 -0.02403263716382112 1
gene  1 13 34 0.8414564392896998 0 1398.0 0.8414564392896998 1
gene  1 14 34 -0.019950943651627473 0 1399.0 -0.019950943651627473 1
gene  1 15 34 8.32296448808288E-4 0 1400.0 8.32296448808288E-4 1
gene  1 20 34 0.19275182486410022 0 1405.0 0.19275182486410022 1
gene  1 21 34 -0.4776621632052762 0 1406.0 -0.4776621632052762 1
gene  1 24 34 0.03287099324226836 0 1409.0 0.03287099324226836 1
gene  1 26 34 -0.0016529516064219367 0 1411.0 -0.0016529516064219367 1
gene  1 27 34 -0.7194821856579365 0 1412.0 -0.7194821856579365 1
gene  1 31 34 -0.007858375213184792 0 1416.0 -0.007858375213184792 1
gene  1 32 34 -0.38087649213233093 0 1417.0 -0.38087649213233093 1
gene  1 35 34 -0.19598380915871277 1 1420.0 -0.19598380915871277 1
gene  1 37 34 -0.6344690989484308 1 1422.0 -0.6344690989484308 1
gene  1 38 34 0.010021260365762712 1 1423.0 0.010021260365762712 1
gene  1 42 34 -0.28642123883191917 1 1427.0 -0.28642123883191917 1
gene  1 1 35 -0.5533402741896546 0 1428.0 -0.5533402741896546 1
gene  1 2 35 -0.1578958772192477 0 1429.0 -0.1578958772192477 1
gene  1 4 35 -0.31717666366377556 0 1431.0 -0.31717666366377556 1
gene  1 5 35 -0.46417038665283783 0 1432.0 -0.46417038665283783 1
gene  1 7 35 -0.2624329852486188 0 1434.0 -0.2624329852486188 1
gene  1 8 35 0.14171772720987721 0 1435.0 0.14171772720987721 1
gene  1 10 35 -0.4806156161819531 0 1437.0 -0.4806156161819531 1
gene  1 12 35 -0.5179193658960779 0 1439.0 -0.5179193658960779 1
gene  1 16 35 0.07284141686952586 0 1443.0 0.07284141686952586 1
gene  1 17 35 -0.30057539647483505 0 1444.0 -0.30057539647483505 1
gene  1 19 35 -0.03511540083221714 0 1446.0 -0.03511540083221714 1
gene  1 22 35 -0.35950816652591583 0 1449.0 -0.35950816652591583 1
gene  1 23 35 0.009713315474929827 0 1450.0 0.009713315474929827 1
gene  1 28 35 -0.4691199217615064 0 1455.0 -0.4691199217615064 1
gene  1 31 35 -0.6389397877774945 0 1458.0 -0.6389397877774945 1
gene  1 37 35 -0.3281370714986185 1 1464.0 -0.3281370714986185 1
gene  1 38 35 0.4356431620481416 1 1465.0 0.4356431620481416 1
gene  1 1 36 0.9435983769307585 0 1470.0 0.9435983769307585 1
gene  1 2 36 -0.5276784684063334 0 1471.0 -0.5276784684063334 1
gene  1 3 36 0.02071642831956997 0 1472.0 0.02071642831956997 1
gene  1 4 36 0.10726168444591233 0 1473.0 0.10726168444591233 1
gene  1 5 36 -0.6142772085053954 0 1474.0 -0.6142772085053954 1
gene  1 6 36 0.9605256541482246 0 1475.0 0.9605256541482246 1
gene  1 8 36 0.003863199625019912 0 1477.0 0.003863199625019912 1
gene  1 10 36 -0.02416097240786787 0 1479.0 -0.02416097240786787 1
gene  1 11 36 -0.26730921288562554 0 1480.0 -0.26730921288562554 1
gene  1 13 36 0.011659084005608805 0 1482.0 0.011659084005608805 1
gene  1 14 36 0.0031128404985237427 0 1483.0 0.0031128404985237427 1
gene  1 15 36 0.8424527782565542 0 1484.0 0.8424527782565542 1
gene  1 17 36 -0.3806375362723061 0 1486.0 -0.3806375362723061 1
gene  1 18 36 0.8799009768955085 0 1487.0 0.8799009768955085 1
gene  1 20 36 -0.4655155004697622 0 1489.0 -0.4655155004697622 1
gene  1 21 36 0.32796651464853654 0 1490.0 0.32796651464853654 1
gene  1 25 36 -0.29345509457381064 0 1494.0 -0.29345509457381064 1
gene  1 28 36 -0.16733952338872987 0 1497.0 -0.16733952338872987 1
gene  1 29 36 0.34170576778742606 0 1498.0 0.34170576778742606 1
gene  1 32 36 -0.17571640827259968 0 1501.0 -0.17571640827259968 1
gene  1 36 36 0.2843099277731448 1 1505.0 0.2843099277731448 1
gene  1 37 36 -0.5768822154020676 1 1506.0 -0.5768822154020676 1
gene  1 38 36 0.7960423137616703 1 1507.0 0.7960423137616703 1
gene  1 39 36 0.06115417035063446 1 1508.0 0.06115417035063446 1
gene  1 42 36 0.36921492813358125 1 1511.0 0.36921492813358125 1
gene  1 5 37 0.20144830508955638 0 1516.0 0.20144830508955638 1
gene  1 7 37 -0.402699386144497 0 1518.0 -0.402699386144497 1
gene  1 8 37 0.570763313820241 0 1519.0 0.570763313820241 1
gene  1 10 37 -0.18310959765699655 0 1521.0 -0.18310959765699655 1
gene  1 12 37 0.5858897181790131 0 1523.0 0.5858897181790131 1
gene  1 13 37 0.20467776316835704 0 1524.0 0.20467776316835704 1
gene  1 14 37 0.8267073356613857 0 1525.0 0.8267073356613857 1
gene  1 15 37 -0.25595244089268904 0 1526.0 -0.25595244089268904 1
gene  1 18 37 0.008648574830137272 0 1529.0 0.008648574830137272 1
gene  1 20 37 -0.018278172876432908 0 1531.0 -0.018278172876432908 1
gene  1 21 37 -0.053396907503897834 0 1532.0 -0.053396907503897834 1
gene  1 24 37 0.006703315874778403 0 1535.0 0.006703315874778403 1
gene  1 28 37 -0.933066092072841 0 1539.0 -0.933066092072841 1
gene  1 30 37 0.013630250478925176 0 1541.0 0.013630250478925176 1
gene  1 34 37 -0.14241313417817678 0 1545.0 -0.14241313417817678 1
gene  1 36 37 -0.76040179883008 0 1547.0 -0.76040179883008 1
gene  1 38 37 -0.009733390203210889 1 1549.0 -0.009733390203210889 1
gene  1 40 37 0.1281622629432161 1 1551.0 0.1281622629432161 1
gene  1 41 37 -0.010213845297009527 1 1552.0 -0.010213845297009527 1
gene  1 42 37 0.4274367652480794 1 1553.0 0.4274367652480794 1
gene  1 4 38 -0.520412589648861 0 1557.0 -0.520412589648861 1
gene  1 6 38 -0.01743717981139538 0 1559.0 -0.01743717981139538 1
gene  1 7 38 0.010636495457319421 0 1560.0 0.010636495457319421 1
gene  1 15 38 -0.6269610350061721 0 1568.0 -0.6269610350061721 1
gene  1 16 38 -0.019194475472788314 0 1569.0 -0.019194475472788314 1
gene  1 20 38 -0.18360614400323527 0 1573.0 -0.18360614400323527 1
gene  1 23 38 0.5202389455769959 0 1576.0 0.5202389455769959 1
gene  1 24 38 -0.29134035354559285 0 1577.0 -0.29134035354559285 1
gene  1 25 38 -0.13108128364981578 0 1578.0 -0.13108128364981578 1
gene  1 26 38 0.25753097197583463 0 1579.0 0.25753097197583463 1
gene  1 30 38 0.29118362039671725 0 1583.0 0.29118362039671725 1
gene  1 34 38 -0.046695483602751185 0 1587.0 -0.046695483602751185 1
gene  1 36 38 -0.09904129182785901 0 1589.0 -0.09904129182785901 1
gene  1 37 38 -0.7690728457313528 0 1590.0 -0.7690728457313528 1
gene  1 40 38 -0.2847815556338265 1 1593.0 -0.2847815556338265 1
gene  1 41 38 -0.5796623283672523 1 1594.0 -0.5796623283672523 1
gene  1 42 38 0.0031886488889288716 1 1595.0 0.0031886488889288716 1
gene  1 1 39 0.7895052214569056 0 1596.0 0.7895052214569056 1
gene  1 7 39 0.5603778276785619 0 1602.0 0.5603778276785619 1
gene  1 9 39 0.01300148611640686 0 1604.0 0.01300148611640686 1
gene  1 11 39 -0.46662467139475344 0 1606.0 -0.46662467139475344 1
gene  1 13 39 0.18000150270112328 0 1608.0 0.18000150270112328 1
gene  1 15 39 -0.1241165291910176 0 1610.0 -0.1241165291910176 1
gene  1 23 39 0.844957322247664 0 1618.0 0.844957322247664 1
gene  1 27 39 0.005408155710519616 0 1622.0 0.005408155710519616 1
gene  1 28 39 0.2847112507116331 0 1623.0 0.2847112507116331 1
gene  1 29 39 0.17635404294374657 0 1624.0 0.17635404294374657 1
gene  1 35 39 0.005810717586218759 0 1630.0 0.005810717586218759 1
gene  1 37 39 -0.03511144883585916 0 1632.0 -0.03511144883585916 1
gene  1 39 39 -0.01083874108912452 1 1634.0 -0.01083874108912452 1
gene  1 40 39 -0.03192118381015496 1 1635.0 -0.03192118381015496 1
gene  1 41 39 -0.10829188198491929 1 1636.0 -0.10829188198491929 1
gene  1 4 40 0.4825575293059802 0 1641.0 0.4825575293059802 1
gene  1 5 40 1.113746071659382E-5 0 1642.0 1.113746071659382E-5 1
gene  1 6 40 0.825967894797765 0 1643.0 0.825967894797765 1
gene  1 10 40 -0.4023150576987941 0 1647.0 -0.4023150576987941 1
gene  1 13 40 0.40086916764515174 0 1650.0 0.40086916764515174 1
gene  1 14 40 0.49279216617576566 0 1651.0 0.49279216617576566 1
gene  1 17 40 -0.9652921215097945 0 1654.0 -0.9652921215097945 1
gene  1 20 40 0.024267844621560772 0 1657.0 0.024267844621560772 1
gene  1 22 40 0.4213688051316523 0 1659.0 0.4213688051316523 1
gene  1 24 40 -0.8308689427419158 0 1661.0 -0.8308689427419158 1
gene  1 25 40 -0.060106711761453095 0 1662.0 -0.060106711761453095 1
gene  1 26 40 -0.19897040723468926 0 1663.0 -0.19897040723468926 1
gene  1 28 40 0.2550170350357771 0 1665.0 0.2550170350357771 1
gene  1 29 40 0.9622281141191562 0 1666.0 0.9622281141191562 1
gene  1 31 40 -0.012528813998698667 0 1668.0 -0.012528813998698667 1
gene  1 32 40 -0.013355810653329907 0 1669.0 -0.013355810653329907 1
gene  1 34 40 0.5598566399095737 0 1671.0 0.5598566399095737 1
gene  1 35 40 -0.060446061881440485 0 1672.0 -0.060446061881440485 1
gene  1 38 40 -0.04097512790831191 0 1675.0 -0.04097512790831191 1
gene  1 39 40 5.785755719092513E-4 0 1676.0 5.785755719092513E-4 1
gene  1 4 41 -0.16256224826720608 0 1683.0 -0.16256224826720608 1
gene  1 5 41 -0.14134550096024778 0 1684.0 -0.14134550096024778 1
gene  1 7 41 -0.26649373618347877 0 1686.0 -0.26649373618347877 1
gene  1 8 41 0.9433295877150817 0 1687.0 0.9433295877150817 1
gene  1 12 41 -0.4650062462055897 0 1691.0 -0.4650062462055897 1
gene  1 16 41 0.20850615154349722 0 1695.0 0.20850615154349722 1
gene  1 18 41 0.7113574204638657 0 1697.0 0.7113574204638657 1
gene  1 19 41 -0.29736690693707674 0 1698.0 -0.29736690693707674 1
gene  1 20 41 -0.00891857695709937 0 1699.0 -0.00891857695709937 1
gene  1 22 41 0.1086863945387717 0 1701.0 0.1086863945387717 1
gene  1 27 41 0.13943533351250872 0 1706.0 0.13943533351250872 1
gene  1 28 41 0.6806169728252667 0 1707.0 0.6806169728252667 1
gene  1 30 41 -0.43442468973678333 0 1709.0 -0.43442468973678333 1
gene  1 31 41 0.04128720055470527 0 1710.0 0.04128720055470527 1
gene  1 37 41 0.5041842988531574 0 1716.0 0.5041842988531574 1
gene  1 38 41 0.0737732934162361 0 1717.0 0.0737732934162361 1
gene  1 39 41 -0.2492063083803568 0 1718.0 -0.2492063083803568 1
gene  1 40 41 0.1850470987449996 0 1719.0 0.1850470987449996 1
gene  1 41 41 -0.2738687967274666 1 1720.0 -0.2738687967274666 1
gene  1 1 42 0.23613383148320408 0 1722.0 0.23613383148320408 1
gene  1 4 42 -0.40156267382158 0 1725.0 -0.40156267382158 1
gene  1 5 42 -0.49362980915837507 0 1726.0 -0.49362980915837507 1
gene  1 6 42 -0.018282137673804322 0 1727.0 -0.018282137673804322 1
gene  1 9 42 -0.5674660635616194 0 1730.0 -0.5674660635616194 1
gene  1 10 42 -0.19082102776342802 0 1731.0 -0.19082102776342802 1
gene  1 12 42 -0.10930536132217442 0 1733.0 -0.10930536132217442 1
gene  1 13 42 -0.697469971553262 0 1734.0 -0.697469971553262 1
gene  1 19 42 -0.0011368928919250412 0 1740.0 -0.0011368928919250412 1
gene  1 20 42 -0.014676236627073683 0 1741.0 -0.014676236627073683 1
gene  1 22 42 0.7773243872016299 0 1743.0 0.7773243872016299 1
gene  1 23 42 -0.16112763696125051 0 1744.0 -0.16112763696125051 1
gene  1 25 42 -0.8479175915707047 0 1746.0 -0.8479175915707047 1
gene  1 31 42 -0.6655870741930959 0 1752.0 -0.6655870741930959 1
gene  1 32 42 -0.517761605715163 0 1753.0 -0.517761605715163 1
gene  1 34 42 0.3646507183126979 0 1755.0 0.3646507183126979 1
gene  1 35 42 -0.15533647387707947 0 1756.0 -0.15533647387707947 1
gene  1 36 42 -0.3138853706202834 0 1757.0 -0.3138853706202834 1
gene  1 38 42 -0.177596855152475 0 1759.0 -0.177596855152475 1
gene  1 39 42 0.1861275859342824 0 1760.0 0.1861275859342824 1
gene  1 41 42 0.32203902165638587 0 1762.0 0.32203902165638587 1
gene  1 30 57 1.00156393943662 0 1793.0 1.00156393943662 1
gene  1 57 38 -0.0015086965585514765 0 1794.0 -0.0015086965585514765 1
gene  1 9 123 0.9948209819980921 0 1925.0 0.9948209819980921 1
gene  1 123 39 -0.11544682241161558 0 1926.0 -0.11544682241161558 1
gene  1 5 162 1.00320531513033 0 2003.0 1.00320531513033 1
gene  1 162 40 -0.5484261786014188 0 2004.0 -0.5484261786014188 1
gene  1 8 438 0.9903403926457506 0 2555.0 0.9903403926457506 1
gene  1 438 41 0.0018089254565288012 0 2556.0 0.0018089254565288012 1
gene  1 32 457 0.998216103546118 0 2593.0 0.998216103546118 1
gene  1 457 42 -0.5099843128960985 0 2594.0 -0.5099843128960985 1
gene  1 4 498 0.005630526398267874 0 2675.0 0.005630526398267874 1
gene  1 498 36 0.11434551304253551 0 2676.0 0.11434551304253551 1
gene  1 7 673 1.00728689529419 0 3025.0 1.00728689529419 1
gene  1 673 34 -0.28459508012419366 0 3026.0 -0.28459508012419366 1
gene  1 3 718 -0.007006957901469074 0 3115.0 -0.007006957901469074 1
gene  1 718 31 -0.005700997314474275 0 3116.0 -0.005700997314474275 1
gene  1 14 764 1.0114798102832168 0 3207.0 1.0114798102832168 1
gene  1 764 31 0.004512577574814246 0 3208.0 0.004512577574814246 1
gene  1 41 974 0.9904315119301313 1 3627.0 0.9904315119301313 1
gene  1 974 32 -0.0027021925420731016 0 3628.0 -0.0027021925420731016 1
gene  1 8 1019 0.9973649437692019 0 3717.0 0.9973649437692019 1
gene  1 1019 41 0.9186439179211804 0 3718.0 0.9186439179211804 1
gene  1 8 1079 0.9908087538395081 0 3837.0 0.9908087538395081 1
gene  1 1079 30 -0.7368543932555234 0 3838.0 -0.7368543932555234 1
gene  1 11 1093 1.004865091705119 0 3865.0 1.004865091705119 1
gene  1 1093 36 -0.29369262137353896 0 3866.0 -0.29369262137353896 1
gene  1 40 1129 -0.01122718907172909 1 3937.0 -0.01122718907172909 1
gene  1 1129 37 0.114737313089628 0 3938.0 0.114737313089628 1
gene  1 9 1191 1.0142857849895377 0 4061.0 1.0142857849895377 1
gene  1 1191 31 -0.11759464055491575 0 4062.0 -0.11759464055491575 1
gene  1 32 1242 1.006504758421311 1 4163.0 1.006504758421311 1
gene  1 1242 31 -0.05061370135502577 0 4164.0 -0.05061370135502577 1
gene  1 36 1285 -0.011012235378425033 1 4249.0 -0.011012235378425033 1
gene  1 1285 30 -0.38953332824724335 0 4250.0 -0.38953332824724335 1
gene  1 29 1304 1.0121678054745296 0 4287.0 1.0121678054745296 1
gene  1 1304 40 0.007841451924368744 0 4288.0 0.007841451924368744 1
gene  1 1093 1326 1.0072998000814877 0 4331.0 1.0072998000814877 1
gene  1 1326 36 -5.4537347173568874E-5 0 4332.0 -5.4537347173568874E-5 1
gene  1 20 1372 0.9848205517226426 0 4423.0 0.9848205517226426 1
gene  1 1372 40 0.03655384741913675 0 4424.0 0.03655384741913675 1
gene  1 27 1405 0.9963342399327217 0 4489.0 0.9963342399327217 1
gene  1 1405 39 0.15453689881276872 0 4490.0 0.15453689881276872 1
gene  1 31 1432 -0.016540849469324694 1 4543.0 -0.016540849469324694 1
gene  1 1432 30 0.15484584361381287 0 4544.0 0.15484584361381287 1
gene  1 14 1451 1.0063536016430192 0 4581.0 1.0063536016430192 1
gene  1 1451 34 -0.014223413267322883 0 4582.0 -0.014223413267322883 1
gene  1 17 1573 0.984442080429301 0 4825.0 0.984442080429301 1
gene  1 1573 35 -0.28997708347167367 0 4826.0 -0.28997708347167367 1
gene  1 764 1804 1.000082781947612 0 5287.0 1.000082781947612 1
gene  1 1804 31 -0.008941491211666708 0 5288.0 -0.008941491211666708 1
gene  1 34 1845 0.9867218398159412 0 5369.0 0.9867218398159412 1
gene  1 1845 37 -0.14375096566559262 0 5370.0 -0.14375096566559262 1
gene  1 20 1941 1.0050696792533893 0 5561.0 1.0050696792533893 1
gene  1 1941 37 -0.001128598593927322 0 5562.0 -0.001128598593927322 1
gene  1 9 1965 1.0118712763144817 0 5609.0 1.0118712763144817 1
gene  1 1965 42 -0.5627186748658214 0 5610.0 -0.5627186748658214 1
gene  1 29 2009 0.9984114071933567 0 5697.0 0.9984114071933567 1
gene  1 2009 39 0.16925545406025147 0 5698.0 0.16925545406025147 1
gene  1 1 2124 0.9957508626639081 0 5927.0 0.9957508626639081 1
gene  1 2124 34 0.6698235839879001 0 5928.0 0.6698235839879001 1
gene  1 38 2167 0.9999834598658667 1 6013.0 0.9999834598658667 1
gene  1 2167 37 0.003908426437979857 0 6014.0 0.003908426437979857 1
gene  1 14 2173 0.9958712410740942 0 6025.0 0.9958712410740942 1
gene  1 2173 34 -5.812028616955602E-4 0 6026.0 -5.812028616955602E-4 1
gene  1 41 2261 0.9967100230481001 1 6201.0 0.9967100230481001 1
gene  1 2261 974 0.9925620544139028 0 6202.0 0.9925620544139028 1
gene  1 8 2306 1.0011026634443214 0 6291.0 1.0011026634443214 1
gene  1 2306 30 -0.7197711414312707 0 6292.0 -0.7197711414312707 1
gene  1 26 2313 0.9904994983125067 0 6305.0 0.9904994983125067 1
gene  1 2313 40 -0.20676011162378516 0 6306.0 -0.20676011162378516 1
gene  1 12 2372 1.0026650882924706 0 6423.0 1.0026650882924706 1
gene  1 2372 31 -0.6033565428052284 0 6424.0 -0.6033565428052284 1
gene  1 1804 2383 0.9964561278389312 0 6445.0 0.9964561278389312 1
gene  1 2383 31 -0.01131497090087869 0 6446.0 -0.01131497090087869 1
gene  1 35 2432 1.0063656413224056 1 6543.0 1.0063656413224056 1
gene  1 2432 30 0.2709269876879972 0 6544.0 0.2709269876879972 1
gene  1 10 2545 0.9967373005116881 0 6769.0 0.9967373005116881 1
gene  1 2545 32 0.15015422804945555 0 6770.0 0.15015422804945555 1
gene  1 8 2578 1.005466960572784 0 6835.0 1.005466960572784 1
gene  1 2578 2306 0.9888150395012831 0 6836.0 0.9888150395012831 1
gene  1 13 2668 1.010032100777946 0 7015.0 1.010032100777946 1
gene  1 2668 36 -0.005397601927111855 0 7016.0 -0.005397601927111855 1
gene  1 5 2724 1.0029715540972268 0 7127.0 1.0029715540972268 1
gene  1 2724 42 -0.49203006346603007 0 7128.0 -0.49203006346603007 1
gene  1 4 2753 1.0012733868531438 0 7185.0 1.0012733868531438 1
gene  1 2753 40 0.505133909886258 0 7186.0 0.505133909886258 1
gene  1 23 2815 1.003143707607694 0 7309.0 1.003143707607694 1
gene  1 2815 29 0.12432263194508666 0 7310.0 0.12432263194508666 1
gene  1 498 2876 1.0008002956691924 0 7431.0 1.0008002956691924 1
gene  1 2876 36 0.11527540641345363 0 7432.0 0.11527540641345363 1
gene  1 4 2974 0.989921860173935 0 7627.0 0.989921860173935 1
gene  1 2974 36 0.10504183691673002 0 7628.0 0.10504183691673002 1
gene  1 42 3000 1.0007950383672701 1 7679.0 1.0007950383672701 1
gene  1 3000 37 0.44162596922570285 0 7680.0 0.44162596922570285 1
gene  1 15 3104 0.9924846543418492 0 7887.0 0.9924846543418492 1
gene  1 3104 36 0.8347028773686813 0 7888.0 0.8347028773686813 1
gene  1 1326 3126 0.9961099149430768 0 7931.0 0.9961099149430768 1
gene  1 3126 36 -0.002911491968146015 0 7932.0 -0.002911491968146015 1
gene  1 2313 3143 0.9892680239128917 0 7965.0 0.9892680239128917 1
gene  1 3143 40 -0.2048385302054245 0 7966.0 -0.2048385302054245 1
gene  1 16 3228 1.0167563623624893 0 8135.0 1.0167563623624893 1
gene  1 3228 35 0.05976578558342615 0 8136.0 0.05976578558342615 0
gene  1 30 3344 1.0037322603420211 0 8367.0 1.0037322603420211 1
gene  1 3344 41 -0.4135061278027322 0 8368.0 -0.4135061278027322 1
gene  1 1 3353 0.9957219215031363 0 8385.0 0.9957219215031363 1
gene  1 3353 36 0.9493191139407838 0 8386.0 0.9493191139407838 1
gene  1 26 3423 0.9965004909208535 0 8525.0 0.9965004909208535 1
gene  1 3423 2313 0.9854939838551843 0 8526.0 0.9854939838551843 1
gene  1 4 3460 0.9902636981297025 0 8599.0 0.9902636981297025 1
gene  1 3460 29 -0.4532340470684374 0 8600.0 -0.4532340470684374 0
gene  1 38 3511 1.0072005779250546 0 8701.0 1.0072005779250546 1
gene  1 3511 41 0.08691815194564508 0 8702.0 0.08691815194564508 1
gene  1 1 3574 0.9880484201443748 0 8827.0 0.9880484201443748 1
gene  1 3574 35 -0.5679377683286465 0 8828.0 -0.5679377683286465 1
gene  1 39 3600 0.9834165243770552 0 8879.0 0.9834165243770552 1
gene  1 3600 40 9.272253681053277E-4 0 8880.0 9.272253681053277E-4 1
gene  1 2815 3803 0.9978196088909969 0 9285.0 0.9978196088909969 1
gene  1 3803 29 -0.01981659025156618 0 9286.0 -0.01981659025156618 1
gene  1 27 3828 0.9931822708068326 0 9335.0 0.9931822708068326 1
gene  1 3828 32 0.6113013899169409 0 9336.0 0.6113013899169409 1
gene  1 19 3872 -0.002880975294918366 0 9423.0 -0.002880975294918366 1
gene  1 3872 35 -0.04308845466846416 0 9424.0 -0.04308845466846416 1
gene  1 3104 4010 1.002153685611942 0 9699.0 1.002153685611942 1
gene  1 4010 36 0.0037182144896301403 0 9700.0 0.0037182144896301403 1
gene  1 19 4046 -0.010136505926615084 0 9771.0 -0.010136505926615084 1
gene  1 4046 29 -0.31918534642892776 0 9772.0 -0.31918534642892776 1
gene  1 4 4110 1.0041321070555946 0 9899.0 1.0041321070555946 1
gene  1 4110 42 -0.4050896709796159 0 9900.0 -0.4050896709796159 1
gene  1 35 4169 1.0055934507109785 0 10017.0 1.0055934507109785 1
gene  1 4169 39 0.010453369520656898 0 10018.0 0.010453369520656898 1
gene  1 25 4262 0.9927280926722446 0 10203.0 0.9927280926722446 1
gene  1 4262 36 -0.2915949953245901 0 10204.0 -0.2915949953245901 1
gene  1 1304 4287 -0.0037372829044864265 0 10253.0 -0.0037372829044864265 1
gene  1 4287 40 -8.462774992887951E-5 0 10254.0 -8.462774992887951E-5 1
gene  1 5 4307 1.0060412411372663 0 10293.0 1.0060412411372663 1
gene  1 4307 30 0.16590400303234132 0 10294.0 0.16590400303234132 1
gene  1 29 4336 0.015106626034961285 0 10351.0 0.015106626034961285 1
gene  1 4336 1304 1.0004287640584932 0 10352.0 1.0004287640584932 1
gene  1 24 4491 0.9915533438246489 0 10661.0 0.9915533438246489 1
gene  1 4491 34 -0.013971842699062046 0 10662.0 -0.013971842699062046 1
gene  1 20 4567 0.009967643937490916 0 10813.0 0.009967643937490916 1
gene  1 4567 36 -0.46824619847511373 0 10814.0 -0.46824619847511373 1
gene  1 38 4656 -0.0028953977125591303 0 10991.0 -0.0028953977125591303 1
gene  1 4656 42 -0.17944615542769132 0 10992.0 -0.17944615542769132 1
gene  1 1 4702 0.9845156609906901 0 11083.0 0.9845156609906901 1
gene  1 4702 36 0.9342727226605018 0 11084.0 0.9342727226605018 1
gene  1 3104 4794 0.9985007605805731 0 11267.0 0.9985007605805731 1
gene  1 4794 4010 1.0029725345768083 0 11268.0 1.0029725345768083 1
gene  1 39 4808 1.0043442743216058 0 11295.0 1.0043442743216058 1
gene  1 4808 40 7.564003569352166E-4 0 11296.0 7.564003569352166E-4 1
gene  1 1405 4911 1.0178460942707663 0 11501.0 1.0178460942707663 1
gene  1 4911 39 0.15581245023235735 0 11502.0 0.15581245023235735 1
gene  1 17 4938 0.9923934892441888 0 11555.0 0.9923934892441888 1
gene  1 4938 36 0.017726401298164975 0 11556.0 0.017726401298164975 1
gene  1 4656 4985 1.0031881817358457 0 11649.0 1.0031881817358457 1
gene  1 4985 42 -0.16374769598403738 0 11650.0 -0.16374769598403738 1
gene  1 40 5081 1.0027330218199388 0 11841.0 1.0027330218199388 1
gene  1 5081 41 0.18588548719072592 0 11842.0 0.18588548719072592 1
gene  1 16 5119 1.0000611202859797 0 11917.0 1.0000611202859797 1
gene  1 5119 41 0.23084318084371147 0 11918.0 0.23084318084371147 1
gene  1 4 5126 0.9834281690932034 0 11931.0 0.9834281690932034 1
gene  1 5126 36 0.004703842908571442 0 11932.0 0.004703842908571442 1
gene  1 29 5260 0.9985565366437388 0 12199.0 0.9985565366437388 1
gene  1 5260 4336 1.0043052003630335 0 12200.0 1.0043052003630335 1
gene  1 3143 5442 0.9973663874491129 0 12563.0 0.9973663874491129 1
gene  1 5442 40 -0.20014951288594973 0 12564.0 -0.20014951288594973 1
gene  1 1093 5465 1.0087591482005909 0 12609.0 1.0087591482005909 1
gene  1 5465 36 -0.28474403879297294 0 12610.0 -0.28474403879297294 1
gene  1 18 5492 0.9950415709922812 0 12663.0 0.9950415709922812 1
gene  1 5492 37 0.010219238109929868 0 12664.0 0.010219238109929868 1
gene  1 1 5528 0.9896621311466116 0 12735.0 0.9896621311466116 1
gene  1 5528 3353 0.9917163853609627 0 12736.0 0.9917163853609627 1
gene  1 20 5579 0.9998151473795989 0 12837.0 0.9998151473795989 1
gene  1 5579 4567 0.011297798057747062 0 12838.0 0.011297798057747062 1
gene  1 29 5609 1.0190631155878307 0 12897.0 1.0190631155878307 1
gene  1 5609 39 0.16048082331616614 0 12898.0 0.16048082331616614 1
gene  1 24 5742 0.9970285207985679 0 13163.0 0.9970285207985679 1
gene  1 5742 40 -0.8268523285755351 0 13164.0 -0.8268523285755351 1
gene  1 4307 5823 1.0053808633046128 0 13325.0 1.0053808633046128 1
gene  1 5823 30 0.15743205408576494 0 13326.0 0.15743205408576494 1
gene  1 5609 6023 0.9996125670877831 0 13725.0 0.9996125670877831 1
gene  1 6023 39 0.16477989251355854 0 13726.0 0.16477989251355854 1
gene  1 32 6101 0.9910789319362957 0 13881.0 0.9910789319362957 1
gene  1 6101 40 -0.005687850702730273 0 13882.0 -0.005687850702730273 1
gene  1 9 6346 1.0026921711855603 0 14371.0 1.0026921711855603 1
gene  1 6346 31 -0.009071128375520975 0 14372.0 -0.009071128375520975 1
gene  1 4 6400 0.9960654879314756 0 14479.0 0.9960654879314756 1
gene  1 6400 29 -0.43725046739769097 0 14480.0 -0.43725046739769097 1
gene  1 41 6527 1.004245542185751 0 14733.0 1.004245542185751 1
gene  1 6527 42 0.3108047856394814 0 14734.0 0.3108047856394814 1
gene  1 10 6580 2.2738293546717067E-4 0 14839.0 2.2738293546717067E-4 1
gene  1 6580 37 -0.18952058380246298 0 14840.0 -0.18952058380246298 1
gene  1 6 6679 0.9942037059921665 0 15037.0 0.9942037059921665 1
gene  1 6679 36 0.9440014445527708 0 15038.0 0.9440014445527708 1
gene  1 23 6841 0.9989662829249556 0 15361.0 0.9989662829249556 1
gene  1 6841 42 -0.15971655268639737 0 15362.0 -0.15971655268639737 1
gene  1 15 6865 0.996958265448782 0 15409.0 0.996958265448782 1
gene  1 6865 3104 1.0068589729217192 0 15410.0 1.0068589729217192 1
gene  1 4 6891 0.005751243251426123 0 15461.0 0.005751243251426123 1
gene  1 6891 3460 1.0031958312963025 0 15462.0 1.0031958312963025 1
gene  1 12 6992 8.186888285062139E-4 0 15663.0 8.186888285062139E-4 1
gene  1 6992 31 -0.00936320454209097 0 15664.0 -0.00936320454209097 1
gene  1 5 7045 0.011068389592915163 0 15769.0 0.011068389592915163 1
gene  1 7045 4307 1.0098821224844137 0 15770.0 1.0098821224844137 1
gene  1 4010 7145 1.0052735179581014 0 15969.0 1.0052735179581014 1
gene  1 7145 36 0.8410976406448609 0 15970.0 0.8410976406448609 1
gene  1 1 7194 1.00602263783528 0 16067.0 1.00602263783528 1
gene  1 7194 3574 -0.004454528973653806 0 16068.0 -0.004454528973653806 1
gene  1 23 7277 1.0000526858485126 0 16233.0 1.0000526858485126 1
gene  1 7277 6841 1.000127647343412 0 16234.0 1.000127647343412 1
gene  1 1304 7286 0.9973566400588926 0 16251.0 0.9973566400588926 1
gene  1 7286 4287 -0.0046682287659658706 0 16252.0 -0.0046682287659658706 1
gene  1 5 7335 1.0068341678695107 0 16349.0 1.0068341678695107 1
gene  1 7335 37 0.19667060812737522 0 16350.0 0.19667060812737522 1
gene  1 36 7486 1.0062848737695254 0 16651.0 1.0062848737695254 1
gene  1 7486 38 -0.09959471465926757 0 16652.0 -0.09959471465926757 1
gene  1 13 7657 0.9922614144657099 0 16993.0 0.9922614144657099 1
gene  1 7657 34 0.8411845674582223 0 16994.0 0.8411845674582223 1
gene  1 23 7676 1.0032835673326364 0 17031.0 1.0032835673326364 1
gene  1 7676 35 0.011346699795406779 0 17032.0 0.011346699795406779 1
gene  1 7 7724 1.0068901144963163 0 17127.0 1.0068901144963163 1
gene  1 7724 39 0.5712960815045228 0 17128.0 0.5712960815045228 1
gene  1 3 7787 1.0042942418399865 0 17253.0 1.0042942418399865 1
gene  1 7787 31 -0.6912890014517596 0 17254.0 -0.6912890014517596 1
gene  1 26 7874 1.0039736240833141 0 17427.0 1.0039736240833141 1
gene  1 7874 34 -4.325140244270734E-4 0 17428.0 -4.325140244270734E-4 1
gene  1 1941 7919 1.0047809563629901 0 17517.0 1.0047809563629901 1
gene  1 7919 37 0.003116558396482425 0 17518.0 0.003116558396482425 1
gene  1 22 7969 1.003587547361929 0 17617.0 1.003587547361929 1
gene  1 7969 40 0.4077159133906737 0 17618.0 0.4077159133906737 1
gene  1 37 8037 0.9953741264848186 1 17753.0 0.9953741264848186 1
gene  1 8037 34 -0.6382112912960969 0 17754.0 -0.6382112912960969 1
gene  1 35 8068 1.0089679569762824 1 17815.0 1.0089679569762824 1
gene  1 8068 30 0.2791214736191547 0 17816.0 0.2791214736191547 1
gene  1 35 8125 1.0006973687952863 1 17929.0 1.0006973687952863 1
gene  1 8125 2432 1.015904848786393 0 17930.0 1.015904848786393 1
gene  1 41 8195 0.9986010764687376 1 18069.0 0.9986010764687376 1
gene  1 8195 30 -0.7656638728506269 0 18070.0 -0.7656638728506269 1
gene  1 13 8210 0.9926448538248844 0 18099.0 0.9926448538248844 1
gene  1 8210 42 -0.6881189628029296 0 18100.0 -0.6881189628029296 1
gene  1 10 8235 1.0016483779320917 0 18149.0 1.0016483779320917 1
gene  1 8235 35 -0.47995370666768244 0 18150.0 -0.47995370666768244 1
gene  1 38 8331 0.9948582585701392 0 18341.0 0.9948582585701392 1
gene  1 8331 40 -0.03850075350376367 0 18342.0 -0.03850075350376367 1
gene  1 37 8352 0.9967409616695443 1 18383.0 0.9967409616695443 1
gene  1 8352 34 -0.6319851540264644 0 18384.0 -0.6319851540264644 1
gene  1 27 8591 0.9936714910051736 0 18861.0 0.9936714910051736 1
gene  1 8591 1405 1.0024996170147138 0 18862.0 1.0024996170147138 1
gene  1 32 8626 -0.003884126791791469 0 18931.0 -0.003884126791791469 1
gene  1 8626 36 -0.1756254545243334 0 18932.0 -0.1756254545243334 1
gene  1 37 8660 0.0027717058675104456 1 18999.0 0.0027717058675104456 1
gene  1 8660 34 -0.6356288540651316 0 19000.0 -0.6356288540651316 1
gene  1 4169 8702 1.003885685706367 0 19083.0 1.003885685706367 1
gene  1 8702 39 -0.002766993904917057 0 19084.0 -0.002766993904917057 1
gene  1 15 8902 1.0 0 19483.0 1.0 1
gene  1 8902 37 -0.004168720279002446 0 19484.0 -0.004168720279002446 1
gene  1 9 8914 0.006496578058087801 0 19507.0 0.006496578058087801 1
gene  1 8914 34 -0.007689777961472896 0 19508.0 -0.007689777961472896 1
gene  1 4336 9033 1.0 0 19745.0 1.0 1
gene  1 9033 1304 0.00397994614053576 0 19746.0 0.00397994614053576 1
gene  1 974 9124 -0.0014985338002284577 0 19927.0 -0.0014985338002284577 1
gene  1 9124 32 0.009591862037588956 0 19928.0 0.009591862037588956 1
gene  1 3803 9235 1.0065438742767485 0 20149.0 1.0065438742767485 1
gene  1 9235 29 -0.005707733800388692 0 20150.0 -0.005707733800388692 1
gene  1 39 9295 1.0079208697903168 1 20269.0 1.0079208697903168 1
gene  1 9295 31 -0.054860066048659395 0 20270.0 -0.054860066048659395 1
gene  1 2383 9389 -0.0079898405861829 0 20457.0 -0.0079898405861829 1
gene  1 9389 31 -0.011431790380546248 0 20458.0 -0.011431790380546248 1
gene  1 41 9735 1.008749311859509 0 21149.0 1.008749311859509 1
gene  1 9735 42 0.3297483142014742 0 21150.0 0.3297483142014742 1
gene  1 7045 10101 0.008030788245830337 0 21881.0 0.008030788245830337 1
gene  1 10101 4307 1.0068783343817012 0 21882.0 1.0068783343817012 1
gene  1 6 10209 -0.007704540512013761 0 22097.0 -0.007704540512013761 1
gene  1 10209 31 -0.005295605631748 0 22098.0 -0.005295605631748 1
gene  1 498 10291 1.00666191487971 0 22261.0 1.00666191487971 1
gene  1 10291 36 -0.0012312774740070532 0 22262.0 -0.0012312774740070532 1
gene  1 13 10433 1.0 0 22545.0 1.0 1
gene  1 10433 42 -0.6837519034772475 0 22546.0 -0.6837519034772475 1
gene  1 22 10459 1.0 0 22597.0 1.0 1
gene  1 10459 7969 1.0 0 22598.0 1.0 1
gene  1 29 10471 1.0 0 22621.0 1.0 1
gene  1 10471 40 0.9552134449038844 0 22622.0 0.9552134449038844 1
gene  1 3574 10480 0.00932854659033646 0 22639.0 0.00932854659033646 1
gene  1 10480 35 -0.5645823611474762 0 22640.0 -0.5645823611474762 1
gene  1 6992 10671 0.0016996535751832742 0 23021.0 0.0016996535751832742 1
gene  1 10671 31 -0.008339400158075803 0 23022.0 -0.008339400158075803 1
gene  1 7286 10743 0.008208359531380978 0 23165.0 0.008208359531380978 1
gene  1 10743 4287 -0.007075436044422016 0 23166.0 -0.007075436044422016 1
gene  1 11 10853 1.0 0 23385.0 1.0 1
gene  1 10853 32 0.6243348126883408 0 23386.0 0.6243348126883408 1
gene  1 42 10872 1.0 1 23423.0 1.0 1
gene  1 10872 38 -0.0019651880667187777 0 23424.0 -0.0019651880667187777 1
gene  1 57 10878 1.0 0 23435.0 1.0 1
gene  1 10878 38 -8.144158896909205E-5 0 23436.0 -8.144158896909205E-5 1
gene  1 13 10930 1.0015801085684846 0 23539.0 1.0015801085684846 1
gene  1 10930 30 0.09737488924634476 0 23540.0 0.09737488924634476 1
gene  1 7676 10963 0.007191178828273772 0 23605.0 0.007191178828273772 1
gene  1 10963 35 0.00475174864699853 0 23606.0 0.00475174864699853 1
gene  1 31 10990 1.0060142624652022 1 23659.0 1.0060142624652022 1
gene  1 10990 1432 -0.007051521008990726 0 23660.0 -0.007051521008990726 1
gene  1 21 11015 1.0 0 23709.0 1.0 1
gene  1 11015 36 0.3214164135543654 0 23710.0 0.3214164135543654 1
gene  1 2876 11062 1.0 0 23803.0 1.0 1
gene  1 11062 36 0.11785855637200725 0 23804.0 0.11785855637200725 1
gene  1 41 11123 0.9941813052128847 0 23925.0 0.9941813052128847 1
gene  1 11123 6527 -0.00399785924736572 0 23926.0 -0.00399785924736572 1
gene  1 2432 11142 1.0 0 23963.0 1.0 1
gene  1 11142 30 0.2638707378850703 0 23964.0 0.2638707378850703 1
gene  1 3143 11270 0.0034425339118779054 0 24219.0 0.0034425339118779054 1
gene  1 11270 5442 1.0052107410015287 0 24220.0 1.0052107410015287 1
gene  1 2876 11333 1.0019254238124757 0 24345.0 1.0019254238124757 1
gene  1 11333 36 0.10576972763750037 0 24346.0 0.10576972763750037 1
gene  1 1804 11396 0.9990678980265104 0 24471.0 0.9990678980265104 1
gene  1 11396 2383 1.0084186284019838 0 24472.0 1.0084186284019838 1
gene  1 40 11418 1.0028313728230902 1 24515.0 1.0028313728230902 1
gene  1 11418 1129 -0.01128326182683248 0 24516.0 -0.01128326182683248 1
gene  1 27 11584 1.0081024585872862 0 24847.0 1.0081024585872862 1
gene  1 11584 8591 1.0095447812031288 0 24848.0 1.0095447812031288 1
gene  1 3803 11729 1.0 0 25137.0 1.0 1
gene  1 11729 29 -0.010098098657390505 0 25138.0 -0.010098098657390505 1
gene  1 32 11758 1.0 0 25195.0 1.0 1
gene  1 11758 42 -0.006653004254757941 0 25196.0 -0.006653004254757941 1
gene  1 5119 11796 0.9970524207255971 0 25271.0 0.9970524207255971 1
gene  1 11796 41 0.22151125563585286 0 25272.0 0.22151125563585286 1
gene  1 7286 11827 1.0063085095312478 0 25333.0 1.0063085095312478 1
gene  1 11827 10743 0.0030298395770577413 0 25334.0 0.0030298395770577413 1
gene  1 29 11948 1.0021613903791262 0 25575.0 1.0021613903791262 1
gene  1 11948 4336 0.00979765558818978 0 25576.0 0.00979765558818978 1
gene  1 3872 11969 1.004304216673738 0 25617.0 1.004304216673738 1
gene  1 11969 35 -0.056626532045565066 0 25618.0 -0.056626532045565066 1
gene  1 35 12200 1.0 1 26079.0 1.0 1
gene  1 12200 8125 0.9906456763419549 0 26080.0 0.9906456763419549 1
gene  1 4110 12240 0.0017816030141607298 0 26159.0 0.0017816030141607298 1
gene  1 12240 42 -0.40696114063269934 0 26160.0 -0.40696114063269934 1
gene  1 162 12433 1.0 0 26545.0 1.0 1
gene  1 12433 40 -0.544597116151519 0 26546.0 -0.544597116151519 1
gene  1 7286 12504 1.0 0 26687.0 1.0 1
gene  1 12504 10743 0.9995124706573392 0 26688.0 0.9995124706573392 1
gene  1 38 12628 0.9986062308709572 1 26935.0 0.9986062308709572 1
gene  1 12628 37 -0.004731582532061879 0 26936.0 -0.004731582532061879 1
gene  1 3143 12777 1.009383646980655 0 27233.0 1.009383646980655 1
gene  1 12777 11270 1.0 0 27234.0 1.0 1
gene  1 5119 12932 1.0 0 27543.0 1.0 1
gene  1 12932 41 0.22151125563585286 0 27544.0 0.22151125563585286 1
gene  1 29 12985 1.0001183013616708 0 27649.0 1.0001183013616708 1
gene  1 12985 40 -0.00545043415643852 0 27650.0 -0.00545043415643852 1
gene  1 40 13052 -0.0045472202179387316 1 27783.0 -0.0045472202179387316 1
gene  1 13052 11418 1.0 0 27784.0 1.0 1
gene  1 27 13086 1.0090999505793983 0 27851.0 1.0090999505793983 1
gene  1 13086 39 0.00962266963425107 0 27852.0 0.00962266963425107 1
gene  1 15 13192 0.9984181023817277 0 28063.0 0.9984181023817277 1
gene  1 13192 39 -0.13045528363085854 0 28064.0 -0.13045528363085854 1
gene  1 13192 13221 0.001685441157168439 0 28121.0 0.001685441157168439 1
gene  1 13221 39 -0.12539302748858316 0 28122.0 -0.12539302748858316 1
gene  1 10743 13260 1.0 0 28199.0 1.0 1
gene  1 13260 4287 -0.002053097593179457 0 28200.0 -0.002053097593179457 1
gene  1 41 13303 1.000028738814058 0 28285.0 1.000028738814058 1
gene  1 13303 9735 1.003268791798793 0 28286.0 1.003268791798793 1
gene  1 2313 13382 1.0018798375866798 0 28443.0 1.0018798375866798 1
gene  1 13382 40 -0.20940156251380354 0 28444.0 -0.20940156251380354 1
gene  1 31 13438 1.0 1 28555.0 1.0 1
gene  1 13438 1432 0.0016177532099601964 0 28556.0 0.0016177532099601964 1
gene  1 4656 13530 1.002292557188843 0 28739.0 1.002292557188843 1
gene  1 13530 42 -0.17600780874165453 0 28740.0 -0.17600780874165453 1
gene  1 1 13552 1.0 0 28783.0 1.0 1
gene  1 13552 36 0.9406677041582271 0 28784.0 0.9406677041582271 1
gene  1 7 13639 0.9999836744204762 0 28957.0 0.9999836744204762 1
gene  1 13639 37 -0.4136004033528394 0 28958.0 -0.4136004033528394 1
gene  1 21 13669 1.0038086553139471 0 29017.0 1.0038086553139471 1
gene  1 13669 11015 1.0 0 29018.0 1.0 1
gene  1 27 13685 1.0 0 29049.0 1.0 1
gene  1 13685 11584 1.0 0 29050.0 1.0 1
gene  1 1079 13758 1.0 0 29195.0 0.0 1
gene  1 13758 30 -0.7368543932555234 0 29196.0 0.0 1
gene  1 29 13772 1.0 1 29223.0 0.0 1
gene  1 13772 29 -0.34159699278432076 0 29224.0 0.0 1
gene  1 3423 13895 1.0 0 29469.0 0.0 1
gene  1 13895 2313 0.9854939838551843 0 29470.0 0.0 1
gene  1 37 13943 1.0 0 29565.0 0.0 1
gene  1 13943 41 0.5041842988531574 0 29566.0 0.0 1
gene  1 1 14066 1.0 0 29811.0 0.0 1
gene  1 14066 3574 0.9880484201443748 0 29812.0 0.0 1
gene  1 41 14126 1.0 0 29931.0 0.0 1
gene  1 14126 6527 1.004245542185751 0 29932.0 0.0 1
gene  1 1093 14136 1.0 0 29951.0 0.0 1
gene  1 14136 5465 1.0087591482005909 0 29952.0 0.0 1
gene  1 5579 14179 1.0 0 30037.0 0.0 1
gene  1 14179 4567 0.011297798057747062 0 30038.0 0.0 1
gene  1 3228 14274 1.0 0 30227.0 0.0 1
gene  1 14274 35 0.05976578558342615 0 30228.0 0.0 1
gene  1 1 14365 1.0 0 30409.0 0.0 1
gene  1 14365 35 -0.5533402741896546 0 30410.0 0.0 1
gene  1 16 14487 1.0 0 30653.0 0.0 1
gene  1 14487 5119 1.0000611202859797 0 30654.0 0.0 1
gene  1 11396 14512 1.0 0 30703.0 0.0 1
gene  1 14512 2383 1.0084186284019838 0 30704.0 0.0 1
gene  1 7 14584 1.0 0 30847.0 0.0 1
gene  1 14584 41 -0.26649373618347877 0 30848.0 0.0 1
gene  1 3460 14689 1.0 0 31057.0 0.0 1
gene  1 14689 29 -0.4532340470684374 0 31058.0 0.0 1
genomeend 1
/* Organism # 002 Fitness:  0.000 Error:  0.000                      */
genomestart  2
trait 1 0.0 0.0 0.0 0.0 0.0 0.0 0.0 0.0 
node 1 1 1 1
node 2 1 1 1
node 3 1 1 1
node 4 1 1 1
node 5 1 1 1
node 6 1 1 1
node 7 1 1 1
node 8 1 1 1
node 9 1 1 1
node 10 1 1 1
node 11 1 1 1
node 12 1 1 1
node 13 1 1 1
node 14 1 1 1
node 15 1 1 1
node 16 1 1 1
node 17 1 1 1
node 18 1 1 1
node 19 1 1 1
node 20 1 1 1
node 21 1 1 1
node 22 1 1 1
node 23 1 1 1
node 24 1 1 1
node 25 1 1 1
node 26 1 1 1
node 27 1 1 1
node 28 1 1 3
node 29 1 0 0
node 30 1 0 0
node 31 1 0 0
node 32 1 0 0
node 34 1 0 2
node 35 1 0 2
node 36 1 0 2
node 37 1 0 2
node 38 1 0 2
node 39 1 0 2
node 40 1 0 2
node 41 1 0 2
node 42 1 0 2
node 57 1 0 0
node 123 1 0 0
node 162 1 0 0
node 438 1 0 0
node 457 1 0 0
node 498 1 0 0
node 673 1 0 0
node 718 1 0 0
node 764 1 0 0
node 974 1 0 0
node 1019 1 0 0
node 1079 1 0 0
node 1093 1 0 0
node 1129 1 0 0
node 1191 1 0 0
node 1242 1 0 0
node 1285 1 0 0
node 1304 1 0 0
node 1326 1 0 0
node 1372 1 0 0
node 1405 1 0 0
node 1432 1 0 0
node 1451 1 0 0
node 1573 1 0 0
node 1804 1 0 0
node 1845 1 0 0
node 1941 1 0 0
node 1965 1 0 0
node 2009 1 0 0
node 2124 1 0 0
node 2167 1 0 0
node 2173 1 0 0
node 2261 1 0 0
node 2306 1 0 0
node 2313 1 0 0
node 2372 1 0 0
node 2383 1 0 0
node 2432 1 0 0
node 2545 1 0 0
node 2578 1 0 0
node 2668 1 0 0
node 2724 1 0 0
node 2753 1 0 0
node 2815 1 0 0
node 2876 1 0 0
node 2974 1 0 0
node 3000 1 0 0
node 3104 1 0 0
node 3126 1 0 0
node 3143 1 0 0
node 3228 1 0 0
node 3344 1 0 0
node 3353 1 0 0
node 3423 1 0 0
node 3460 1 0 0
node 3511 1 0 0
node 3574 1 0 0
node 3600 1 0 0
node 3803 1 0 0
node 3828 1 0 0
node 3872 1 0 0
node 4010 1 0 0
node 4046 1 0 0
node 4110 1 0 0
node 4169 1 0 0
node 4262 1 0 0
node 4287 1 0 0
node 4307 1 0 0
node 4336 1 0 0
node 4491 1 0 0
node 4567 1 0 0
node 4656 1 0 0
node 4702 1 0 0
node 4794 1 0 0
node 4808 1 0 0
node 4911 1 0 0
node 4938 1 0 0
node 4985 1 0 0
node 5081 1 0 0
node 5119 1 0 0
node 5126 1 0 0
node 5260 1 0 0
node 5442 1 0 0
node 5465 1 0 0
node 5492 1 0 0
node 5528 1 0 0
node 5579 1 0 0
node 5609 1 0 0
node 5742 1 0 0
node 5823 1 0 0
node 6023 1 0 0
node 6101 1 0 0
node 6346 1 0 0
node 6400 1 0 0
node 6527 1 0 0
node 6580 1 0 0
node 6679 1 0 0
node 6841 1 0 0
node 6865 1 0 0
node 6891 1 0 0
node 6992 1 0 0
node 7045 1 0 0
node 7145 1 0 0
node 7194 1 0 0
node 7277 1 0 0
node 7286 1 0 0
node 7335 1 0 0
node 7486 1 0 0
node 7657 1 0 0
node 7676 1 0 0
node 7724 1 0 0
node 7787 1 0 0
node 7874 1 0 0
node 7919 1 0 0
node 7969 1 0 0
node 8037 1 0 0
node 8068 1 0 0
node 8125 1 0 0
node 8195 1 0 0
node 8210 1 0 0
node 8235 1 0 0
node 8331 1 0 0
node 8352 1 0 0
node 8591 1 0 0
node 8626 1 0 0
node 8660 1 0 0
node 8702 1 0 0
node 8902 1 0 0
node 8914 1 0 0
node 9033 1 0 0
node 9124 1 0 0
node 9235 1 0 0
node 9295 1 0 0
node 9389 1 0 0
node 9735 1 0 0
node 10101 1 0 0
node 10209 1 0 0
node 10291 1 0 0
node 10433 1 0 0
node 10459 1 0 0
node 10471 1 0 0
node 10480 1 0 0
node 10671 1 0 0
node 10743 1 0 0
node 10853 1 0 0
node 10872 1 0 0
node 10878 1 0 0
node 10930 1 0 0
node 10963 1 0 0
node 10990 1 0 0
node 11015 1 0 0
node 11062 1 0 0
node 11123 1 0 0
node 11142 1 0 0
node 11270 1 0 0
node 11333 1 0 0
node 11396 1 0 0
node 11418 1 0 0
node 11584 1 0 0
node 11729 1 0 0
node 11758 1 0 0
node 11796 1 0 0
node 11827 1 0 0
node 11948 1 0 0
node 11969 1 0 0
node 12200 1 0 0
node 12240 1 0 0
node 12433 1 0 0
node 12504 1 0 0
node 12628 1 0 0
node 12777 1 0 0
node 12932 1 0 0
node 12985 1 0 0
node 13052 1 0 0
node 13086 1 0 0
node 13192 1 0 0
node 13221 1 0 0
node 13260 1 0 0
node 13303 1 0 0
node 13382 1 0 0
node 13438 1 0 0
node 13530 1 0 0
node 13552 1 0 0
node 13639 1 0 0
node 13669 1 0 0
node 13685 1 0 0
node 13758 1 0 0
node 13772 1 0 0
node 13895 1 0 0
node 13943 1 0 0
node 14066 1 0 0
node 14126 1 0 0
node 14136 1 0 0
node 14179 1 0 0
node 14274 1 0 0
node 14365 1 0 0
node 14487 1 0 0
node 14512 1 0 0
node 14584 1 0 0
node 14689 1 0 0
gene  1 2 29 0.50213994257206 0 1177.0 0.50213994257206 1
gene  1 3 29 0.7950006695086371 0 1178.0 0.7950006695086371 1
gene  1 4 29 -0.44661862989883894 0 1179.0 -0.44661862989883894 1
gene  1 5 29 0.05014779714124997 0 1180.0 0.05014779714124997 1
gene  1 7 29 -0.002859576966509924 0 1182.0 -0.002859576966509924 1
gene  1 10 29 -0.4874278197810247 0 1185.0 -0.4874278197810247 1
gene  1 12 29 -0.040258060092807094 0 1187.0 -0.040258060092807094 1
gene  1 15 29 0.7701703313340875 0 1190.0 0.7701703313340875 1
gene  1 16 29 -0.38502927101705164 0 1191.0 -0.38502927101705164 1
gene  1 18 29 -0.009805627783145353 0 1193.0 -0.009805627783145353 1
gene  1 19 29 -0.322868800570024 0 1194.0 -0.322868800570024 1
gene  1 20 29 0.49223006748277415 0 1195.0 0.49223006748277415 1
gene  1 23 29 0.11407390862925769 0 1198.0 0.11407390862925769 1
gene  1 24 29 0.01812508789903905 0 1199.0 0.01812508789903905 1
gene  1 25 29 -0.2650705047504174 0 1200.0 -0.2650705047504174 1
gene  1 26 29 0.9759622557028279 0 1201.0 0.9759622557028279 1
gene  1 28 29 -0.4139077786330781 0 1203.0 -0.4139077786330781 1
gene  1 29 29 -0.34159699278432076 1 1204.0 -0.34159699278432076 1
gene  1 32 29 0.38615020279510304 1 1207.0 0.38615020279510304 1
gene  1 35 29 -0.08561103201298145 1 1210.0 -0.08561103201298145 1
gene  1 38 29 -0.08424180794803122 1 1213.0 -0.08424180794803122 1
gene  1 39 29 -0.2682438772448227 1 1214.0 -0.2682438772448227 1
gene  1 41 29 -0.0119170800140804 1 1216.0 -0.0119170800140804 1
gene  1 2 30 -0.2517417276725068 0 1219.0 -0.2517417276725068 1
gene  1 4 30 -0.4460940489287399 0 1221.0 -0.4460940489287399 1
gene  1 5 30 0.15046529695985467 0 1222.0 0.15046529695985467 1
gene  1 7 30 0.0011566337822639496 0 1224.0 0.0011566337822639496 1
gene  1 8 30 -0.7317687970530955 0 1225.0 -0.7317687970530955 1
gene  1 10 30 -0.09214682315642486 0 1227.0 -0.09214682315642486 1
gene  1 11 30 -0.6641385179358604 0 1228.0 -0.6641385179358604 1
gene  1 13 30 0.11168095933273064 0 1230.0 0.11168095933273064 1
gene  1 14 30 0.9625142818502175 0 1231.0 0.9625142818502175 1
gene  1 16 30 0.1756646842818527 0 1233.0 0.1756646842818527 1
gene  1 19 30 0.6614065863286622 0 1236.0 0.6614065863286622 1
gene  1 22 30 0.0031844350531285825 0 1239.0 0.0031844350531285825 1
gene  1 28 30 -0.6097388698179241 0 1245.0 -0.6097388698179241 1
gene  1 31 30 0.13931213224038685 1 1248.0 0.13931213224038685 1
gene  1 32 30 0.9885125679375338 1 1249.0 0.9885125679375338 1
